100 64
89 0.44303083 0.09739647 0.13862857 0.2508609 0.07680648 -0.302365 -0.07389851 -0.26026487 0.09555188 0.10493973 -0.33393484 0.029133543 -0.10364525 0.106044315 -0.113196805 0.273421 -0.04062707 -0.026973255 0.12368215 0.065843634 -0.12877375 0.059122555 0.08777441 0.0050243204 0.0796373 0.024039099 -0.08904903 -0.030774686 -0.24983577 0.22708808 -0.110302255 0.12757292 -0.24715674 0.0411783 -0.06744102 0.07760785 0.091788575 0.050090715 -0.0255505 0.34386432 -0.0276954 -0.18909179 0.41002142 -0.29848087 -0.33094895 -0.0674958 -0.036607344 0.122530825 0.09292685 -0.038574707 0.08183752 -0.18829831 -0.04538578 0.13263085 -0.19047692 0.043012593 -0.2672098 -0.15246777 -0.18934858 0.17664976 0.11734619 -0.053561356 0.08619035 -0.3912629
67 0.44489852 0.101371765 0.13562953 0.2463985 0.07182264 -0.3131402 -0.079940364 -0.26307663 0.092550784 0.08889703 -0.33811244 0.019095583 -0.101718515 0.11759549 -0.1284397 0.2669459 -0.04450377 -0.020815734 0.12705816 0.054984972 -0.13062644 0.075864695 0.071310416 0.00883487 0.08012575 0.038184956 -0.07736965 -0.026161838 -0.24750598 0.2211539 -0.11624462 0.12371052 -0.23825094 0.04308028 -0.071109116 0.07126163 0.0722754 0.053284008 -0.030277943 0.3401819 -0.019972937 -0.19738004 0.40522262 -0.28978443 -0.31818092 -0.047535162 -0.04804797 0.10888866 0.101270854 -0.04782089 0.09534228 -0.18520574 -0.039471805 0.12823458 -0.17794846 0.032503895 -0.26704806 -0.16247347 -0.18293788 0.1781079 0.1103202 -0.061513584 0.09087113 -0.38678858
93 0.43750045 0.10899473 0.14140192 0.2607854 0.06971059 -0.3006016 -0.07998137 -0.26110435 0.087896645 0.09981178 -0.32105678 0.027184872 -0.10136344 0.115837745 -0.11622157 0.26554015 -0.05146461 -0.018740898 0.118844874 0.0678725 -0.12536778 0.07417756 0.07307257 -0.002388893 0.08031747 0.02428131 -0.078983106 -0.044125218 -0.24928981 0.21982035 -0.11537792 0.11152802 -0.25550762 0.029335141 -0.061197296 0.07674895 0.077231064 0.061402388 -0.020423809 0.34759358 -0.026997952 -0.1996636 0.4190858 -0.29764208 -0.32087258 -0.05913577 -0.0434474 0.122455336 0.091685064 -0.038900252 0.08869517 -0.19737583 -0.048266206 0.12393818 -0.18519937 0.045700096 -0.24949215 -0.15665717 -0.18106735 0.17059435 0.12446014 -0.0683057 0.09174883 -0.38875866
98 0.4354297 0.09461218 0.12234013 0.24984695 0.06908477 -0.29458737 -0.082824424 -0.26509845 0.08474556 0.098833196 -0.3362025 0.01753001 -0.09381099 0.11444727 -0.12878568 0.26588362 -0.044432025 -0.034198567 0.12043492 0.06378174 -0.12142511 0.080718145 0.067288734 -0.007491564 0.0897269 0.029389946 -0.08736758 -0.041611686 -0.23533887 0.22309507 -0.114946626 0.12554568 -0.25125214 0.041361652 -0.06912216 0.0694087 0.07957147 0.045173228 -0.032412563 0.35436517 -0.015713943 -0.20924963 0.417782 -0.2964942 -0.31897715 -0.05945863 -0.0481567 0.11918612 0.098740436 -0.04410472 0.08276494 -0.1852218 -0.035776705 0.13472877 -0.19796434 0.038651362 -0.26300973 -0.156081 -0.18325874 0.1726739 0.11668053 -0.059394564 0.08372644 -0.3970244
3 0.43443906 0.10340766 0.12743999 0.24456845 0.07454412 -0.30344164 -0.08731191 -0.26447406 0.08335332 0.10688005 -0.3322799 0.03181084 -0.10747325 0.10571726 -0.12036978 0.2560354 -0.040928915 -0.026689872 0.12441332 0.06370145 -0.12743095 0.06585382 0.08545796 -0.013329307 0.091127455 0.029105606 -0.0764628 -0.04000635 -0.24675041 0.2209332 -0.122368835 0.12323065 -0.25698236 0.0434648 -0.07142243 0.084492564 0.08880894 0.047446307 -0.017851137 0.33850098 -0.021453936 -0.20360188 0.40646735 -0.29066324 -0.33132812 -0.06560079 -0.049046732 0.11083508 0.101405784 -0.053964954 0.08822305 -0.17419572 -0.04318993 0.12028565 -0.18598774 0.035075005 -0.2664495 -0.15073104 -0.19139794 0.16969976 0.123434484 -0.06377173 0.09501803 -0.39426863
21 0.43489212 0.08905751 0.12703677 0.25752655 0.06797218 -0.30542937 -0.08040345 -0.26228085 0.09500068 0.10608133 -0.32378596 0.031127121 -0.09225125 0.10719853 -0.116739586 0.25399822 -0.051199626 -0.028657693 0.1266867 0.07219209 -0.12738298 0.06420194 0.0880497 0.005559947 0.09504239 0.026862435 -0.07678977 -0.03092257 -0.24807379 0.2218722 -0.12192797 0.12566745 -0.25070837 0.03783596 -0.062305544 0.081737846 0.0837935 0.045980703 -0.03424309 0.3524814 -0.01786446 -0.19867302 0.40920734 -0.29246533 -0.32233933 -0.05986157 -0.044812586 0.11445945 0.08658763 -0.049467064 0.0849494 -0.1863045 -0.044577066 0.13160828 -0.18871738 0.047438115 -0.25247982 -0.14824975 -0.18119478 0.1571189 0.1056097 -0.049936447 0.084486604 -0.39920112
6 0.4408475 0.102109596 0.13431692 0.2563214 0.08518021 -0.31210256 -0.09141055 -0.26654762 0.093286194 0.10937924 -0.3310609 0.031715102 -0.09381461 0.10674057 -0.11729351 0.2613716 -0.04985164 -0.020948734 0.115736976 0.07081568 -0.13340461 0.07958522 0.07441729 0.012141681 0.08503251 0.033397615 -0.08380662 -0.030476775 -0.23368862 0.22509234 -0.118816175 0.12995477 -0.2517177 0.039288435 -0.07407734 0.065647095 0.091602474 0.0458117 -0.01969152 0.344974 -0.021733446 -0.1966447 0.40579978 -0.29051107 -0.32627946 -0.05833555 -0.043565646 0.11698499 0.08568406 -0.04814869 0.09350858 -0.17634235 -0.031506274 0.13431035 -0.19891629 0.033612315 -0.25748253 -0.15299551 -0.19219136 0.17541261 0.12466901 -0.061599154 0.09098748 -0.39489838
55 0.44129175 0.10114942 0.13435183 0.2546232 0.07970436 -0.29961237 -0.07330717 -0.26329976 0.086737275 0.11218595 -0.3352836 0.039711628 -0.09520504 0.0986595 -0.13284308 0.26722807 -0.051686708 -0.036747046 0.12513444 0.06464155 -0.1324221 0.081723146 0.07786309 -0.0015914539 0.08874329 0.03590477 -0.08349985 -0.038261425 -0.2462856 0.2269102 -0.11116564 0.12386619 -0.25350043 0.044878084 -0.07298272 0.07064987 0.08994015 0.059690345 -0.03374818 0.33507085 -0.024626568 -0.1904301 0.4042421 -0.29293323 -0.3227691 -0.061029837 -0.039562993 0.12844013 0.09125838 -0.04651704 0.084594 -0.18281028 -0.04250105 0.12407096 -0.18996692 0.04176368 -0.25711453 -0.14973444 -0.18023837 0.15678798 0.10672699 -0.057224937 0.08250876 -0.38603184
53 0.431335 0.098638564 0.12869854 0.24837968 0.07997602 -0.29672694 -0.08265786 -0.25802296 0.0882274 0.10878972 -0.330611 0.035851605 -0.109086454 0.09720118 -0.12389894 0.27371603 -0.05877985 -0.017373558 0.13057858 0.06847464 -0.13317132 0.07931409 0.07289927 -0.005243433 0.08606864 0.030560767 -0.087804414 -0.023433328 -0.24567321 0.2186695 -0.11802177 0.121861294 -0.2553512 0.033295255 -0.07612579 0.06828868 0.09028461 0.049286395 -0.020488085 0.35367766 -0.014692386 -0.19633082 0.4212957 -0.3030661 -0.32761636 -0.05153715 -0.045856435 0.12564324 0.09687522 -0.037151687 0.08133937 -0.18316701 -0.045668714 0.12297151 -0.20062113 0.036889013 -0.26719406 -0.15324557 -0.18232343 0.16826876 0.1258296 -0.06543221 0.08485685 -0.39200586
86 0.44986737 0.098092794 0.13801076 0.2564517 0.07519543 -0.30543774 -0.07257866 -0.26213357 0.08359637 0.10688981 -0.3314146 0.033434767 -0.0965306 0.103124686 -0.12678236 0.27503303 -0.042048696 -0.03305509 0.12862764 0.06763296 -0.12622726 0.06848653 0.08273471 0.004143136 0.07942245 0.021764165 -0.08024486 -0.028393982 -0.23865022 0.22353555 -0.11386663 0.11928295 -0.25597668 0.04154011 -0.064449675 0.07516897 0.08328992 0.04239623 -0.033930972 0.35004857 -0.027914045 -0.20016827 0.4120916 -0.28842255 -0.32919398 -0.063884325 -0.04617265 0.11772447 0.09229797 -0.039881848 0.089402616 -0.17677245 -0.04189103 0.12445385 -0.19757017 0.044084985 -0.26652682 -0.15954961 -0.19272093 0.16937323 0.11874071 -0.06545993 0.09268512 -0.3960962
76 0.44562423 0.10151479 0.14070058 0.26064813 0.08330658 -0.3095444 -0.072583295 -0.24931878 0.08911909 0.106668025 -0.33019024 0.027247537 -0.09624216 0.10305838 -0.12425474 0.26829052 -0.059673816 -0.014721752 0.119360775 0.061291702 -0.13287655 0.06590699 0.0867606 0.011221219 0.08996347 0.024890112 -0.07821246 -0.025076112 -0.24042736 0.22440766 -0.12611842 0.12371851 -0.24651937 0.032073338 -0.06488573 0.074622236 0.0903575 0.043254524 -0.034511596 0.3479364 -0.021891462 -0.19912128 0.4173001 -0.28561556 -0.32402408 -0.06197107 -0.044793133 0.11698226 0.09297572 -0.046251412 0.08762297 -0.17828289 -0.04664814 0.132641 -0.18169841 0.0393958 -0.2582064 -0.16581966 -0.19752832 0.16762203 0.11092891 -0.05917291 0.091881126 -0.39891237
31 0.4434551 0.09332248 0.13750193 0.25929746 0.06616526 -0.30785748 -0.082747065 -0.2567068 0.08348924 0.10420848 -0.3333216 0.03521152 -0.09283019 0.10973832 -0.12756278 0.27072367 -0.05609366 -0.028375441 0.12505381 0.06803654 -0.1278457 0.059763055 0.09333792 -0.0066467114 0.08123183 0.03389292 -0.09314915 -0.030290043 -0.24099766 0.2171883 -0.11414091 0.13068394 -0.2541555 0.04680408 -0.06377682 0.07995627 0.09385504 0.048857838 -0.02779578 0.3463839 -0.021711864 -0.19631384 0.4241057 -0.3011198 -0.3143014 -0.06916851 -0.040189326 0.12656938 0.09065253 -0.045000784 0.091951996 -0.17286591 -0.04011489 0.12566367 -0.19036415 0.05125636 -0.24475847 -0.16002999 -0.18088315 0.16073377 0.11746328 -0.052185204 0.096076585 -0.39330414
11 0.44706148 0.10345234 0.122128785 0.26214278 0.08529314 -0.30585846 -0.082629554 -0.26083753 0.09128287 0.10913671 -0.3248652 0.02672956 -0.10178571 0.11123923 -0.12217748 0.25919765 -0.051144373 -0.023618855 0.121981055 0.075870566 -0.12591465 0.06862984 0.07427077 0.0008960977 0.087771595 0.029682107 -0.0847568 -0.043064434 -0.23907681 0.22111337 -0.121823765 0.11814968 -0.25323784 0.04210242 -0.0682162 0.0782378 0.082373746 0.052423827 -0.031622555 0.3539019 -0.027375355 -0.20874129 0.41259485 -0.29566315 -0.31978935 -0.05117819 -0.04254494 0.117942825 0.103833064 -0.0427683 0.08626074 -0.19557811 -0.03719226 0.14137842 -0.20251001 0.04123541 -0.2603529 -0.16200848 -0.1901642 0.17858535 0.10879146 -0.060275484 0.09315058 -0.3935973
57 0.43656173 0.106871404 0.12935808 0.26488268 0.07149406 -0.3042176 -0.08968254 -0.27294782 0.0901115 0.10612204 -0.33308545 0.023406897 -0.10312785 0.09738394 -0.13261102 0.2769589 -0.054151658 -0.021578997 0.118835226 0.067614615 -0.13595611 0.0702996 0.08313743 0.009208686 0.087700576 0.017280994 -0.07921635 -0.03881856 -0.25533625 0.22497596 -0.10919929 0.12509552 -0.24446525 0.0311518 -0.07266759 0.06678123 0.08313362 0.05988594 -0.027844105 0.34256825 -0.022080792 -0.19004942 0.40622008 -0.29547858 -0.3339763 -0.05624057 -0.04987272 0.11658312 0.09490491 -0.041091207 0.089869015 -0.18817493 -0.036914553 0.122265145 -0.17812625 0.03784567 -0.26178223 -0.16020508 -0.18408404 0.1759085 0.12968007 -0.06589366 0.08491952 -0.39342263
32 0.44092038 0.102671765 0.12214372 0.24351996 0.07754173 -0.3018467 -0.06860088 -0.26925442 0.08956227 0.09355033 -0.330827 0.025827674 -0.08956709 0.10421785 -0.12980536 0.27196512 -0.05891776 -0.011668577 0.12933575 0.06153834 -0.12992005 0.07615726 0.07830264 -0.005660379 0.08080743 0.03731557 -0.086730435 -0.02594915 -0.24367282 0.22704343 -0.11520707 0.11495634 -0.25193715 0.02752529 -0.068105936 0.07163302 0.08124405 0.046683073 -0.025829805 0.35916293 -0.017803868 -0.20534533 0.4120515 -0.2875842 -0.32348683 -0.0566176 -0.042725105 0.12345764 0.097761646 -0.040312912 0.08936593 -0.19800067 -0.030369384 0.13148434 -0.19398814 0.04629773 -0.26729548 -0.15421529 -0.19177558 0.17674401 0.124002405 -0.052423883 0.08757755 -0.38693768
7 0.44296473 0.09737048 0.12601864 0.25291213 0.071299285 -0.3057132 -0.07789722 -0.26785737 0.09474559 0.10051291 -0.33510408 0.033500135 -0.106940925 0.09909443 -0.12738034 0.27323642 -0.055833977 -0.025913473 0.112815395 0.07026208 -0.12228054 0.07266916 0.08057492 0.010304609 0.0815788 0.02194757 -0.07771206 -0.03155377 -0.24132633 0.21442878 -0.10890241 0.12685297 -0.24903215 0.031300556 -0.066102594 0.062980704 0.09215224 0.042366013 -0.034135185 0.34287226 -0.021197943 -0.19411968 0.4070106 -0.3015529 -0.32010233 -0.05191668 -0.03281294 0.11590335 0.087456234 -0.04364403 0.081096075 -0.18354103 -0.045737904 0.12236007 -0.18429312 0.035901085 -0.24734628 -0.1601471 -0.18786228 0.15735754 0.118319646 -0.063621596 0.08328558 -0.38495225
16 0.42868534 0.091074646 0.12454311 0.25749302 0.07587272 -0.30437288 -0.07382744 -0.24764672 0.09313774 0.097959824 -0.32849964 0.027943866 -0.09971221 0.09790315 -0.1328856 0.27014956 -0.056378234 -0.019919157 0.118367635 0.063680395 -0.1349072 0.07020344 0.08824365 -0.0032505435 0.08633414 0.019461771 -0.0793611 -0.0377638 -0.23536578 0.22022189 -0.119790226 0.12234991 -0.2627168 0.0354123 -0.07176791 0.07335787 0.09241846 0.05124604 -0.025245609 0.35413474 -0.013488359 -0.19699037 0.4183861 -0.29226345 -0.32483885 -0.061962944 -0.051080678 0.11747996 0.1000235 -0.049366023 0.0948348 -0.17099506 -0.042415306 0.13648477 -0.1988992 0.044174906 -0.25820354 -0.15786147 -0.19494456 0.17216752 0.121861085 -0.0593951 0.07927748 -0.40403047
63 0.43794236 0.089007646 0.13893576 0.25455692 0.07103129 -0.29805598 -0.07386099 -0.25536186 0.09649845 0.10652903 -0.33555275 0.03391089 -0.09791714 0.10760024 -0.12762584 0.265734 -0.042778835 -0.022215625 0.11294376 0.07212726 -0.12837645 0.075791076 0.086780235 0.005095317 0.097032785 0.029703738 -0.08439782 -0.040168487 -0.24509448 0.22690465 -0.121830255 0.12752627 -0.26631072 0.046008382 -0.060027238 0.07613613 0.098526336 0.04026577 -0.030165063 0.34101325 -0.023588276 -0.19376403 0.40185454 -0.29568925 -0.32966706 -0.06778324 -0.046299797 0.12471337 0.09927145 -0.04988229 0.08606356 -0.17261675 -0.041932393 0.119706124 -0.19074313 0.03853288 -0.2606403 -0.14459337 -0.18395683 0.1752748 0.11785053 -0.062489986 0.09318015 -0.3985342
24 0.44683254 0.091681406 0.12645665 0.25421137 0.07911087 -0.30900753 -0.0747713 -0.26176506 0.087568745 0.10760735 -0.33726764 0.023908641 -0.1054154 0.112834066 -0.11615138 0.2555685 -0.053298004 -0.016126033 0.11973827 0.056421887 -0.13133591 0.07589398 0.07385961 0.011588238 0.09437334 0.03785829 -0.07653786 -0.032158084 -0.24209201 0.21496505 -0.111728445 0.12366941 -0.2607641 0.037952203 -0.07633964 0.076733515 0.08992941 0.044828765 -0.02671283 0.34356144 -0.018603057 -0.20238847 0.41533998 -0.29458848 -0.32651466 -0.057059135 -0.042881567 0.1133132 0.100752264 -0.036283936 0.08712312 -0.18899415 -0.040952444 0.13647002 -0.18434465 0.03640432 -0.27219567 -0.15481475 -0.19509009 0.16819537 0.111346185 -0.054668874 0.094534926 -0.3974615
59 0.43953168 0.105153814 0.13572836 0.25425634 0.078297436 -0.29770374 -0.07914315 -0.26081747 0.08430277 0.09619531 -0.32844803 0.029227508 -0.10129088 0.114046484 -0.11826184 0.26328582 -0.04427539 -0.019359782 0.13218218 0.05936474 -0.12413136 0.06486264 0.08411232 0.0073626195 0.07949497 0.043022245 -0.0773755 -0.03051281 -0.23733282 0.23048295 -0.10769344 0.12619522 -0.25563517 0.038200796 -0.079161145 0.07706576 0.08748377 0.048327208 -0.036452793 0.34907293 -0.016081048 -0.20441331 0.41606995 -0.29898256 -0.32518023 -0.05455404 -0.036942035 0.12714691 0.09216667 -0.03467356 0.08302654 -0.1939529 -0.050635614 0.13443276 -0.18032776 0.046962973 -0.25297463 -0.15654889 -0.18968499 0.16712236 0.11875152 -0.05844221 0.094354406 -0.38672286
65 0.4463757 0.099916026 0.13328922 0.25351804 0.07126185 -0.3082224 -0.08388453 -0.25592148 0.08954093 0.11171886 -0.33082142 0.022104256 -0.1043713 0.10724459 -0.12146331 0.2649389 -0.04564443 -0.032060634 0.12960124 0.071831815 -0.11923085 0.077226184 0.07317314 0.002311928 0.090442754 0.022065338 -0.079448424 -0.031218076 -0.23999608 0.22399075 -0.115781575 0.11640955 -0.25022057 0.041027226 -0.073056206 0.07814944 0.078041516 0.0484149 -0.021492247 0.34547198 -0.026156697 -0.20347032 0.41800132 -0.2937716 -0.32310092 -0.064205535 -0.02880625 0.120259486 0.097058974 -0.03246646 0.0836064 -0.18687873 -0.0428162 0.13414314 -0.19108835 0.050003953 -0.26322716 -0.15040149 -0.18949509 0.16358663 0.117137045 -0.052321132 0.082887046 -0.39911163
71 0.4438874 0.10552155 0.12669556 0.25628117 0.06382335 -0.29583758 -0.06937021 -0.25986317 0.08591942 0.10148081 -0.3276483 0.037009288 -0.10409004 0.10649483 -0.11083509 0.2605353 -0.040993374 -0.036907114 0.1189958 0.063062 -0.122145176 0.07948068 0.076728374 0.007036002 0.0786988 0.021603866 -0.07538938 -0.038078826 -0.23860967 0.21373387 -0.10051096 0.13151535 -0.25279883 0.039383005 -0.06503302 0.078996666 0.079978056 0.046930216 -0.024923261 0.3511533 -0.014534262 -0.1888783 0.4049094 -0.2916461 -0.32875365 -0.06402107 -0.03977396 0.12238812 0.09443153 -0.035616618 0.08125683 -0.17493702 -0.033696797 0.1378605 -0.19710475 0.035083376 -0.26428303 -0.15807505 -0.19166668 0.16631384 0.11811964 -0.06323787 0.07965018 -0.39770952
30 0.4296799 0.10413584 0.13077515 0.24933091 0.0742372 -0.30428845 -0.08632035 -0.25935024 0.096769966 0.11304608 -0.32273728 0.031493377 -0.102618515 0.10146739 -0.12392017 0.26520413 -0.048021443 -0.02111141 0.12194798 0.06458805 -0.13326614 0.06898992 0.07365452 -0.0040386203 0.09352421 0.030942183 -0.08797719 -0.025101205 -0.24332674 0.22132999 -0.114144884 0.11758854 -0.25771314 0.032663774 -0.06638945 0.07722011 0.081204444 0.0536251 -0.018209726 0.35281426 -0.013473777 -0.19944815 0.410044 -0.28306225 -0.3256138 -0.054598384 -0.035526633 0.11893693 0.09693464 -0.053124376 0.09115276 -0.18552068 -0.037976217 0.12395694 -0.19684842 0.03925041 -0.26086053 -0.16185254 -0.18753338 0.16958848 0.11235952 -0.046342235 0.09263206 -0.39313087
73 0.44373477 0.09548321 0.12496848 0.25300094 0.082890935 -0.3017823 -0.08172603 -0.26369467 0.09482359 0.112479396 -0.32871363 0.032596447 -0.08979841 0.11398569 -0.12019369 0.26517305 -0.047425132 -0.019871073 0.1248278 0.06451965 -0.12414888 0.07591264 0.073505215 0.0007229644 0.09222224 0.03342265 -0.08189465 -0.03284494 -0.25321558 0.22468309 -0.11128864 0.12899867 -0.24323097 0.0319731 -0.08110701 0.07290369 0.07354505 0.053783476 -0.020978095 0.359278 -0.01794617 -0.2015414 0.41609532 -0.29157987 -0.32049176 -0.06801295 -0.03634249 0.12367744 0.09502437 -0.048284054 0.09152625 -0.18244195 -0.04581204 0.13012819 -0.19751376 0.044054877 -0.2654342 -0.15394546 -0.17715822 0.16596545 0.11664267 -0.056647 0.095775016 -0.40300304
91 0.43997574 0.10017649 0.13038094 0.25672898 0.07087588 -0.3047116 -0.071613885 -0.26059386 0.091587596 0.096845366 -0.32345855 0.033389237 -0.09862066 0.11141576 -0.12398709 0.26756954 -0.04540167 -0.015592541 0.11746981 0.07369012 -0.11772945 0.063904464 0.09152271 -0.0066444427 0.07667318 0.034890153 -0.07700781 -0.032915764 -0.24123095 0.22062004 -0.10604795 0.110814184 -0.26303285 0.03641573 -0.07780777 0.070946485 0.089728385 0.049388893 -0.023848675 0.34452325 -0.031544145 -0.19122851 0.41538844 -0.28359887 -0.3252171 -0.06810312 -0.042808536 0.11090939 0.0941236 -0.047593404 0.08783079 -0.18012848 -0.040382043 0.12546226 -0.18417466 0.048957825 -0.25147945 -0.15757094 -0.1887896 0.1659047 0.12073232 -0.06259866 0.08662371 -0.38500667
34 0.4363439 0.09649157 0.12973677 0.24835582 0.07758569 -0.310912 -0.08260849 -0.25101662 0.088104784 0.09677721 -0.33301443 0.028215474 -0.103748485 0.113843046 -0.11366951 0.2655585 -0.053607926 -0.03238198 0.12945081 0.06865488 -0.117857374 0.07127389 0.07285167 0.009147807 0.081050135 0.042131525 -0.07584958 -0.032817498 -0.247414 0.2322504 -0.120281346 0.12791574 -0.23720257 0.047792453 -0.07506276 0.070666395 0.08537407 0.057226393 -0.027201338 0.34344268 -0.029507311 -0.20497343 0.40752736 -0.28897724 -0.3220283 -0.057909675 -0.03891389 0.112466946 0.09687659 -0.045035154 0.088646494 -0.17513986 -0.043479893 0.1356569 -0.19682568 0.041192453 -0.2656543 -0.15045139 -0.19242345 0.16131215 0.11155785 -0.059158888 0.08719922 -0.39227387
36 0.44049764 0.10019624 0.13262805 0.257861 0.07934875 -0.3052562 -0.08445039 -0.2539855 0.084675595 0.10853797 -0.33338606 0.02859149 -0.09126162 0.104578905 -0.12370917 0.26945138 -0.05221781 -0.016823461 0.13070914 0.06013511 -0.13062371 0.065819174 0.08244509 0.0009980159 0.08750611 0.033315495 -0.08115008 -0.04276127 -0.24677241 0.22314763 -0.12090674 0.118854575 -0.2563521 0.031585515 -0.07115626 0.06561876 0.08709576 0.05292443 -0.030668324 0.34451512 -0.023922425 -0.19195327 0.41437024 -0.29874268 -0.31640023 -0.053498566 -0.034683548 0.124912314 0.09170732 -0.041737907 0.08150549 -0.17690124 -0.03501234 0.12465578 -0.19866921 0.044714324 -0.2599235 -0.14909324 -0.1831113 0.17327479 0.119371116 -0.056328826 0.08560943 -0.39648148
44 0.43193614 0.09873522 0.12402934 0.2547435 0.077495635 -0.31066388 -0.0815455 -0.25984916 0.08729162 0.09700179 -0.33697802 0.03109061 -0.09826244 0.106747486 -0.12309727 0.25942913 -0.055157628 -0.033442978 0.12139138 0.07001644 -0.11638488 0.0682539 0.08698768 -0.0029700643 0.07978711 0.0370004 -0.08019943 -0.031507272 -0.24516347 0.2228866 -0.11662521 0.11766086 -0.24669105 0.040824942 -0.06395556 0.07210752 0.08732666 0.04227991 -0.030460496 0.35247368 -0.023076274 -0.19646297 0.40406492 -0.28139284 -0.32497212 -0.070655204 -0.043350037 0.120894335 0.10061744 -0.03770056 0.090666786 -0.18518205 -0.038225368 0.13295451 -0.18613197 0.043155685 -0.2501559 -0.15842557 -0.18815881 0.17421013 0.10764965 -0.05543294 0.08208144 -0.38710642
5 0.43024224 0.1055249 0.12464717 0.24684161 0.0769027 -0.29677582 -0.07016842 -0.25010383 0.100784086 0.10553049 -0.33434454 0.030562697 -0.0868916 0.103851795 -0.11457486 0.25549653 -0.0595458 -0.018930255 0.13738117 0.06076151 -0.13341545 0.06420873 0.07829536 -0.0051648323 0.083077654 0.04420759 -0.08706071 -0.030777298 -0.24288008 0.22306286 -0.118180126 0.11277111 -0.23974903 0.037273318 -0.0798665 0.072656944 0.08226279 0.048658755 -0.032903425 0.3604266 -0.030475812 -0.20888644 0.4220669 -0.28962097 -0.32134452 -0.06367987 -0.04777111 0.11179938 0.09416122 -0.039698333 0.08974244 -0.1934599 -0.031386275 0.13554618 -0.19702113 0.047414448 -0.26517212 -0.14884943 -0.18342057 0.1675485 0.11086908 -0.051840067 0.085073784 -0.3951085
17 0.43427482 0.11003467 0.13594024 0.25594133 0.062893465 -0.29847813 -0.07272731 -0.26214653 0.091950126 0.0925131 -0.338278 0.02636 -0.101776786 0.113578655 -0.12150423 0.27005047 -0.05486996 -0.018604266 0.12609918 0.061541546 -0.12828055 0.072340906 0.08523236 0.008032815 0.07828544 0.03158244 -0.0795607 -0.031364027 -0.25126162 0.21573114 -0.101912126 0.1240186 -0.2486053 0.03616594 -0.066977315 0.071361184 0.081614405 0.04783932 -0.03058798 0.34967482 -0.021746429 -0.20060752 0.40301418 -0.28835496 -0.31988987 -0.057605855 -0.046089865 0.11802566 0.10271531 -0.03167332 0.089539915 -0.17677048 -0.05048868 0.13615234 -0.18104081 0.04880361 -0.26442125 -0.1586351 -0.18274899 0.16401671 0.11286278 -0.06409755 0.07901671 -0.3890311
94 0.43465006 0.10579291 0.12936795 0.24869744 0.07987691 -0.306741 -0.06915261 -0.264369 0.08755681 0.10447432 -0.32354996 0.024741488 -0.10255167 0.1145329 -0.11019628 0.26513365 -0.05738841 -0.028383842 0.1307489 0.059164815 -0.12119285 0.07127474 0.08152933 0.009751437 0.082320735 0.030854266 -0.07520507 -0.030400809 -0.24554616 0.22438051 -0.10283884 0.12172896 -0.2432513 0.03812088 -0.061950747 0.082358606 0.07921323 0.056237984 -0.03478904 0.35403273 -0.019929903 -0.19346128 0.41429704 -0.29001886 -0.31810662 -0.055739976 -0.032674994 0.12199424 0.09247092 -0.03216321 0.09115353 -0.19382958 -0.034569997 0.13976139 -0.18717006 0.037427258 -0.2590432 -0.1571936 -0.19162181 0.17081992 0.10347956 -0.055590846 0.085467264 -0.3887701
23 0.43579274 0.095108375 0.13225868 0.25762427 0.07356721 -0.30192465 -0.06577174 -0.25785226 0.09326651 0.1026276 -0.3199176 0.03353316 -0.096523434 0.10800265 -0.113840476 0.25227943 -0.04492664 -0.032046683 0.13339202 0.063112825 -0.12614237 0.07380674 0.07139603 0.00079924933 0.0720347 0.038648237 -0.0809005 -0.038353074 -0.23939267 0.22166087 -0.104562216 0.12029214 -0.24564883 0.036054242 -0.081238165 0.07140426 0.07558518 0.054423537 -0.032905847 0.34475788 -0.020589516 -0.20678252 0.41718915 -0.29708588 -0.3175154 -0.060472835 -0.03381082 0.1113937 0.101644166 -0.038180925 0.080089934 -0.1867922 -0.03585006 0.13175867 -0.18823685 0.04131524 -0.2504521 -0.16272148 -0.19348213 0.17275847 0.105157636 -0.051557053 0.08997642 -0.3903754
51 0.4394872 0.09165326 0.13986866 0.2561466 0.07483774 -0.29816613 -0.069603294 -0.250447 0.09268729 0.09159025 -0.32354113 0.02817662 -0.10381724 0.11773527 -0.10884292 0.2667844 -0.05935126 -0.01850347 0.13021247 0.06281296 -0.12843716 0.06778569 0.08683151 -0.0020803234 0.083605595 0.040892016 -0.08939458 -0.025707483 -0.24451122 0.2225496 -0.10288301 0.1174633 -0.24514587 0.034164157 -0.065632336 0.066042155 0.08558869 0.04060083 -0.01809126 0.35056865 -0.013425635 -0.18913956 0.41441062 -0.29390618 -0.32680875 -0.06228835 -0.050045412 0.1206662 0.10031978 -0.03993624 0.08910481 -0.19071014 -0.042875517 0.13616042 -0.18383104 0.03664343 -0.26301277 -0.1491808 -0.18325785 0.17270549 0.106900856 -0.05150591 0.09253877 -0.3979463
54 0.42579833 0.095847555 0.12653393 0.25520062 0.083693184 -0.30280456 -0.07301608 -0.24990305 0.08805753 0.111267164 -0.3273418 0.026140267 -0.10361031 0.110063314 -0.12573642 0.26897338 -0.05494412 -0.024676032 0.12109102 0.07351624 -0.13381943 0.064773135 0.085424945 -0.010795574 0.082230106 0.028532203 -0.08676407 -0.0448077 -0.23516606 0.22236887 -0.10965164 0.12652141 -0.2536988 0.035582084 -0.08141169 0.061719116 0.079797484 0.057013776 -0.028033117 0.34523878 -0.013984248 -0.19088921 0.4157538 -0.290252 -0.32149392 -0.058151204 -0.032572493 0.12103432 0.10050084 -0.04220986 0.08191923 -0.18967453 -0.042014983 0.11723384 -0.19674115 0.046601295 -0.25469398 -0.15581585 -0.18569282 0.16654679 0.12135938 -0.06484607 0.09654797 -0.3913625
15 0.4309514 0.10326654 0.12708858 0.2613818 0.07968426 -0.29694453 -0.07838067 -0.25860286 0.09776725 0.0982913 -0.32971933 0.024148982 -0.10406121 0.10270061 -0.12656753 0.25784323 -0.049875397 -0.032509815 0.12500504 0.068434775 -0.12941878 0.07997049 0.07418031 -0.0011516109 0.087832175 0.03389676 -0.08605883 -0.04061603 -0.24085908 0.22812508 -0.10690693 0.12524119 -0.24332356 0.035108555 -0.07534041 0.0701276 0.08360257 0.05770259 -0.031723175 0.34890562 -0.02168423 -0.19897613 0.41732287 -0.29233557 -0.32545757 -0.057251826 -0.03253115 0.12270957 0.09398084 -0.03595234 0.08255395 -0.19512966 -0.03188118 0.13163239 -0.19802745 0.04522011 -0.2509337 -0.15724033 -0.19177298 0.16977787 0.1200114 -0.061379585 0.088166244 -0.3838794
95 0.4503183 0.111986466 0.13816758 0.26325515 0.07323593 -0.30759332 -0.08109961 -0.26376462 0.0850804 0.108848885 -0.3306352 0.03901506 -0.102939166 0.10159877 -0.1214527 0.26530284 -0.044365723 -0.034907933 0.1339809 0.07824334 -0.11910745 0.07372938 0.07802936 0.008006425 0.078921 0.02843736 -0.083690725 -0.033043414 -0.24309808 0.22544521 -0.10609181 0.12724613 -0.24566849 0.03603223 -0.070890814 0.06602497 0.080701575 0.04784013 -0.028846651 0.34044808 -0.018311903 -0.19324374 0.42258614 -0.291146 -0.32667205 -0.071265526 -0.043132618 0.12213573 0.085584916 -0.049003027 0.08722689 -0.17800859 -0.04659145 0.12863824 -0.19395238 0.044936426 -0.2588774 -0.15874675 -0.19347566 0.16879235 0.1235357 -0.05314142 0.08433471 -0.3953904
13 0.4410286 0.10957495 0.120607294 0.26202825 0.07408044 -0.3095006 -0.07289363 -0.255341 0.08922706 0.100342095 -0.33397895 0.018239545 -0.09685277 0.11245693 -0.123623975 0.27665246 -0.053610694 -0.021692729 0.12025461 0.063501276 -0.118943684 0.07209016 0.07475475 0.0015374741 0.09207495 0.029700605 -0.07408541 -0.03927213 -0.2384408 0.22463466 -0.10942394 0.12245202 -0.24451412 0.034652222 -0.066465266 0.080276616 0.076219685 0.04960791 -0.029628696 0.35379088 -0.018454926 -0.20698163 0.42029792 -0.29949012 -0.32385385 -0.0598606 -0.037426677 0.112524614 0.10506535 -0.038980115 0.082162194 -0.19588985 -0.029285513 0.14181589 -0.18628877 0.037006833 -0.26525477 -0.15565448 -0.19715112 0.1753625 0.118331335 -0.062667884 0.089742266 -0.388234
69 0.4325528 0.09758979 0.129084 0.25157928 0.07051074 -0.3076883 -0.083853744 -0.25757772 0.09815148 0.095708385 -0.33537436 0.019663654 -0.107577816 0.10466131 -0.118344046 0.25910038 -0.057370298 -0.03162351 0.13319618 0.06479813 -0.12182161 0.08335635 0.07555702 0.0036529757 0.08069302 0.03252622 -0.07680259 -0.040600613 -0.23848504 0.21884072 -0.10437163 0.11901948 -0.23808071 0.049458385 -0.06654512 0.08192224 0.07510982 0.051948167 -0.036567453 0.3564569 -0.025548112 -0.206761 0.41432613 -0.29475704 -0.31826887 -0.051258653 -0.046926446 0.11284954 0.09560192 -0.040839486 0.09417811 -0.18164277 -0.03210912 0.13867 -0.19471787 0.039563756 -0.26089817 -0.15695672 -0.1965481 0.16712195 0.115922615 -0.058815345 0.07651921 -0.39066347
72 0.43098423 0.10798015 0.14020449 0.25508395 0.0676804 -0.29775906 -0.06411037 -0.26262242 0.099804245 0.09674257 -0.34501103 0.037075117 -0.09436933 0.113610834 -0.11204411 0.27540597 -0.062119972 -0.024751361 0.13201469 0.05444925 -0.12364652 0.07480368 0.09104494 0.005832525 0.088503815 0.023389287 -0.079161145 -0.032647263 -0.25554425 0.22759803 -0.10779178 0.12483457 -0.25228685 0.031473063 -0.07761684 0.06408501 0.0944722 0.05929289 -0.0378369 0.35167313 -0.015304158 -0.1939318 0.41956666 -0.29171276 -0.3208408 -0.06299033 -0.03919967 0.11901418 0.09305608 -0.04126418 0.09261715 -0.18897617 -0.048719663 0.13189827 -0.18416984 0.055295642 -0.26128706 -0.15625627 -0.18888664 0.17134114 0.106888846 -0.05909701 0.08078975 -0.3889128
43 0.44275054 0.1032729 0.124021664 0.24582936 0.0814252 -0.30382767 -0.086373314 -0.26225603 0.08094503 0.112151936 -0.32247534 0.023076005 -0.10266943 0.10536459 -0.11575904 0.26583362 -0.046960555 -0.032760832 0.12674756 0.07609666 -0.118795216 0.07200415 0.075428896 -0.0065438794 0.07825558 0.020415608 -0.07922249 -0.027527507 -0.24940878 0.21933857 -0.11471054 0.116789885 -0.25438806 0.030562725 -0.06620514 0.077946976 0.085508145 0.05681882 -0.02245333 0.33435872 -0.026715828 -0.19235064 0.40682125 -0.28967965 -0.31904915 -0.056044817 -0.046170462 0.1252486 0.10466194 -0.04468147 0.09198383 -0.19980846 -0.03843746 0.13358915 -0.20017383 0.037666034 -0.24751599 -0.163141 -0.18601453 0.17954683 0.11862947 -0.060523473 0.09635281 -0.39534232
80 0.44313496 0.103949055 0.13040625 0.2418014 0.07047998 -0.29850784 -0.08239848 -0.26137814 0.08698482 0.10205836 -0.34082013 0.031402502 -0.10513802 0.114971474 -0.11817788 0.26527584 -0.03960146 -0.028089883 0.13309856 0.062179446 -0.13331145 0.081823625 0.08497106 -0.00463943 0.090219736 0.030832186 -0.07348161 -0.032989334 -0.2513518 0.22297925 -0.10038821 0.12896821 -0.24678072 0.043066524 -0.07357809 0.07113258 0.083719715 0.050121002 -0.020106578 0.33783624 -0.01754558 -0.2019534 0.40213147 -0.28507942 -0.32760012 -0.056550298 -0.037553962 0.13109288 0.0947391 -0.03281498 0.097227715 -0.19257058 -0.049625527 0.12988245 -0.17975105 0.034303065 -0.25316092 -0.16124749 -0.1864142 0.16608155 0.109818235 -0.060483016 0.08776934 -0.3809627
74 0.43042237 0.099769644 0.133172 0.24952613 0.071235694 -0.30186817 -0.071181916 -0.25011095 0.09201618 0.09222942 -0.33297816 0.031633347 -0.0862344 0.10374581 -0.11272212 0.2611363 -0.046912134 -0.022993356 0.13139874 0.0554383 -0.119695134 0.06764614 0.07917658 -0.003592159 0.07648185 0.043674495 -0.086147144 -0.044894423 -0.240533 0.21759102 -0.10875601 0.11809823 -0.24297251 0.033760436 -0.082395166 0.07138749 0.084350154 0.04782563 -0.039587412 0.3503549 -0.027547974 -0.19750658 0.42402673 -0.2948113 -0.31730324 -0.05467465 -0.033855762 0.118529424 0.09786438 -0.03481551 0.08644608 -0.18631537 -0.04674251 0.12757099 -0.18827693 0.048469238 -0.2581496 -0.1616496 -0.18708277 0.15991224 0.11813375 -0.053671777 0.09288446 -0.39547604
42 0.43434864 0.10494695 0.12608428 0.25666642 0.084337935 -0.30905405 -0.079738684 -0.2669499 0.087287575 0.1048577 -0.3305897 0.027883397 -0.105038926 0.10367064 -0.11979513 0.26918462 -0.054120872 -0.034330435 0.12610196 0.06358043 -0.12179695 0.06838151 0.077790596 0.008547615 0.08188145 0.021162886 -0.077567175 -0.04297963 -0.24334444 0.22361349 -0.1071916 0.11551479 -0.24656484 0.04262235 -0.06410733 0.08375106 0.08735587 0.050279923 -0.03726756 0.34258488 -0.01827734 -0.19089264 0.41126385 -0.2905786 -0.32286853 -0.054532383 -0.032289606 0.12121047 0.09733619 -0.049514685 0.08763691 -0.18283592 -0.033520784 0.12860732 -0.19278428 0.0459381 -0.26066676 -0.15144919 -0.18751505 0.1688962 0.116409756 -0.05349857 0.08329872 -0.395101
20 0.44579297 0.10146576 0.13386242 0.2573216 0.0805387 -0.2969166 -0.08315708 -0.25614113 0.09382128 0.10081696 -0.32448107 0.020570409 -0.10874895 0.10507971 -0.12356311 0.27197096 -0.060022134 -0.014656771 0.11917652 0.07269937 -0.12681471 0.059968997 0.082058474 0.00468546 0.08026091 0.019980304 -0.082870655 -0.036294278 -0.24683468 0.21554928 -0.120638356 0.12081856 -0.2594311 0.037469994 -0.07092879 0.07679094 0.08220273 0.05289801 -0.027143605 0.35450175 -0.021311603 -0.19859454 0.4132962 -0.29272717 -0.32185584 -0.05721729 -0.041763518 0.113052785 0.09514137 -0.047111858 0.08352293 -0.18115497 -0.05024888 0.12922157 -0.18595435 0.044232138 -0.26064867 -0.15637219 -0.1788645 0.17557435 0.1252078 -0.058425177 0.094649084 -0.39347786
84 0.4418675 0.10500886 0.12561603 0.25328338 0.075767875 -0.30526173 -0.07670144 -0.26523623 0.09509692 0.10158754 -0.33082488 0.035486482 -0.10819937 0.110256046 -0.11213481 0.2563616 -0.05266332 -0.023837822 0.117715925 0.06875684 -0.12316305 0.075468644 0.076682515 -0.009272753 0.0865405 0.024399316 -0.07944638 -0.033467434 -0.239176 0.22324464 -0.11878417 0.11837697 -0.25172478 0.043909222 -0.059075356 0.07301994 0.081754535 0.05138274 -0.019713819 0.35322383 -0.013156685 -0.2032872 0.4129766 -0.28755367 -0.30790532 -0.057604253 -0.03277652 0.11944816 0.09035609 -0.033254586 0.08815385 -0.18796262 -0.04236835 0.13557725 -0.18344395 0.047706336 -0.25483373 -0.1545438 -0.19212833 0.164631 0.11285764 -0.060768668 0.08298612 -0.3947557
14 0.4333116 0.09565021 0.1263006 0.26003617 0.07734169 -0.31053054 -0.068454 -0.251901 0.09848151 0.10842213 -0.3216845 0.028833462 -0.098979734 0.0969301 -0.11395407 0.2617534 -0.05522989 -0.019258073 0.12880814 0.06344787 -0.12007652 0.060477044 0.08466625 -0.0063476046 0.08051934 0.04220574 -0.08810467 -0.043586 -0.24202636 0.21273291 -0.122486465 0.11237152 -0.2623943 0.03738939 -0.07559484 0.07339633 0.08566605 0.05215141 -0.03558013 0.35492167 -0.022061182 -0.20536084 0.41996542 -0.28217858 -0.32008243 -0.062630005 -0.036763135 0.109291054 0.09178892 -0.03533848 0.08673381 -0.17758535 -0.042486247 0.1354479 -0.1964809 0.052497096 -0.2617376 -0.15161555 -0.17783308 0.16294804 0.1148693 -0.057754155 0.08599082 -0.3972174
81 0.4412868 0.09386397 0.13204822 0.25644886 0.07121781 -0.3015314 -0.08013109 -0.26014015 0.10212989 0.100720525 -0.33722815 0.036752213 -0.104545705 0.1089806 -0.11701486 0.27354395 -0.056774236 -0.022885887 0.123055205 0.07170854 -0.12761275 0.070303306 0.0891644 0.006204276 0.08411431 0.018889375 -0.08762596 -0.03348912 -0.23361978 0.20897046 -0.10261596 0.122288175 -0.2377456 0.035613872 -0.077163726 0.06470551 0.083403856 0.045303304 -0.028100323 0.35121194 -0.025441825 -0.1880702 0.4084226 -0.29609382 -0.32913178 -0.05643736 -0.037759542 0.11446916 0.10152355 -0.043447692 0.08635494 -0.19181795 -0.03023041 0.13559656 -0.1882143 0.03397452 -0.26185974 -0.1575873 -0.19792113 0.16403042 0.11733698 -0.06580742 0.081143044 -0.3952735
61 0.42912692 0.09744125 0.14020085 0.25972724 0.07083606 -0.30119383 -0.06959013 -0.2459721 0.09876541 0.09385057 -0.3293779 0.039041992 -0.095759414 0.11608962 -0.12582053 0.2548249 -0.046832792 -0.029150823 0.12314037 0.057894558 -0.12915806 0.07503014 0.076377325 -0.008887252 0.08492607 0.030903192 -0.08385744 -0.044797584 -0.24178527 0.2116014 -0.118754 0.12341941 -0.25332642 0.044018343 -0.06846081 0.081783 0.08800927 0.053845927 -0.027541814 0.35794485 -0.024354188 -0.193745 0.41991267 -0.29998708 -0.32780442 -0.06138112 -0.03963384 0.11607532 0.099945515 -0.038454298 0.09014957 -0.18511352 -0.031194853 0.13511962 -0.18611217 0.0424245 -0.25610057 -0.15977223 -0.19192417 0.17515591 0.12362802 -0.06294733 0.087625146 -0.38644943
90 0.4415008 0.11337866 0.12802505 0.25275517 0.07146159 -0.30922636 -0.07666487 -0.26419514 0.0975321 0.10528456 -0.34057182 0.02339685 -0.09226715 0.10633542 -0.123757035 0.2686087 -0.060634118 -0.02505788 0.12083999 0.062126387 -0.119295634 0.06300841 0.08494848 -0.0025383432 0.09141544 0.019374914 -0.08652479 -0.040463313 -0.2503334 0.22311501 -0.1095245 0.11890663 -0.2413069 0.037787206 -0.0747548 0.07650519 0.07253745 0.05488715 -0.030280238 0.3465908 -0.015616415 -0.1997417 0.41092065 -0.27841908 -0.32599452 -0.065040074 -0.036784817 0.11628596 0.10037136 -0.040238738 0.08569015 -0.19270888 -0.03730766 0.13668978 -0.17904541 0.03930941 -0.25862777 -0.15159047 -0.1851422 0.17568918 0.117878556 -0.056988202 0.08075176 -0.39700973
46 0.44603643 0.10060811 0.12296028 0.2579265 0.072935954 -0.30316603 -0.079493105 -0.27119783 0.093212895 0.097187996 -0.33715588 0.029539848 -0.104621336 0.106284074 -0.11764593 0.25667876 -0.042236347 -0.027842846 0.11653359 0.06800354 -0.12864849 0.0764896 0.07037139 0.008073014 0.08905383 0.033707865 -0.07204717 -0.026942562 -0.24798842 0.22008425 -0.10885515 0.12685515 -0.23874047 0.041654337 -0.075441964 0.069419 0.077460654 0.04632415 -0.02383049 0.3423451 -0.009469628 -0.19680735 0.4083142 -0.2886879 -0.3204043 -0.06115186 -0.051706713 0.120838106 0.085381925 -0.035946153 0.08498902 -0.17945784 -0.039345395 0.13231052 -0.18385798 0.036980588 -0.2500661 -0.15065247 -0.17614572 0.16451406 0.11537263 -0.061471924 0.09120179 -0.3815537
87 0.4287011 0.10348071 0.12875754 0.26137018 0.07108352 -0.30983144 -0.06901121 -0.24642289 0.09950871 0.10768159 -0.32270104 0.029907005 -0.09849465 0.11014988 -0.11733239 0.2679701 -0.059815083 -0.028197989 0.12808281 0.055457257 -0.12829284 0.0745759 0.07027257 0.0018245665 0.07902509 0.031831734 -0.07712736 -0.03129539 -0.23707624 0.22056119 -0.11809353 0.12329281 -0.2458267 0.03837783 -0.06959772 0.06653437 0.083648264 0.047332842 -0.03428829 0.35271493 -0.025639417 -0.18999602 0.41463366 -0.28738183 -0.31635445 -0.057690296 -0.036720604 0.11016178 0.097592674 -0.054144796 0.08780535 -0.18033664 -0.044829365 0.13309112 -0.19308217 0.047896244 -0.2565461 -0.1648346 -0.19021259 0.16803253 0.12457402 -0.062450707 0.08359289 -0.3844741
18 0.43880206 0.09810222 0.12720455 0.2554404 0.07849085 -0.3021019 -0.072099686 -0.25549963 0.08897361 0.10590832 -0.33431092 0.01815566 -0.09895538 0.1087022 -0.124186166 0.25016248 -0.04111233 -0.030081036 0.11441448 0.06817189 -0.11899489 0.063034095 0.07886777 0.013226989 0.087636106 0.022654908 -0.072937556 -0.032825854 -0.23664826 0.20619655 -0.122136876 0.13232413 -0.25395805 0.04661507 -0.06916982 0.082402356 0.089060575 0.042189054 -0.018634314 0.34070352 -0.028743995 -0.2001139 0.40269387 -0.28994298 -0.32309955 -0.06998676 -0.048058573 0.11627308 0.09103517 -0.044427447 0.09136258 -0.18612611 -0.034413364 0.12140373 -0.1850361 0.040052082 -0.26509976 -0.15548399 -0.19118065 0.17951755 0.114185974 -0.054202333 0.08569713 -0.39222455
38 0.43805724 0.09956366 0.14053996 0.2526486 0.081484295 -0.29924923 -0.064919 -0.24833114 0.08799266 0.09941745 -0.33955142 0.036594626 -0.09725069 0.11196954 -0.12301104 0.26790404 -0.050968617 -0.012720864 0.12769368 0.06854243 -0.12944083 0.063084714 0.08575506 0.0036490795 0.07769648 0.03950998 -0.08964648 -0.03450575 -0.2418179 0.22172596 -0.1022763 0.12342288 -0.24409993 0.03557681 -0.07801701 0.06968973 0.079111986 0.04772549 -0.027160354 0.35133898 -0.015330172 -0.19744505 0.41520682 -0.29289874 -0.32571954 -0.050422616 -0.041713886 0.11311004 0.10621984 -0.0468288 0.08584993 -0.18309525 -0.034768112 0.13118817 -0.1890284 0.043484684 -0.2524336 -0.1519472 -0.17965505 0.17325072 0.12309888 -0.06009245 0.09260804 -0.38926733
25 0.44106293 0.10713905 0.1439184 0.24983773 0.064223856 -0.30373794 -0.067437194 -0.25440076 0.09923828 0.09414593 -0.33365825 0.025139201 -0.09932882 0.11438904 -0.11453727 0.2711604 -0.056930713 -0.025430193 0.123621576 0.06803253 -0.117133446 0.066556446 0.07942123 -0.0054997425 0.07371111 0.03592557 -0.07850566 -0.039022837 -0.23841095 0.22816259 -0.10415441 0.12851556 -0.2564291 0.03561969 -0.073785916 0.06821428 0.07885133 0.052135337 -0.03498924 0.36063752 -0.01921268 -0.19248892 0.4265223 -0.29880124 -0.32455042 -0.053736508 -0.04318811 0.11012595 0.10438032 -0.029147329 0.09687277 -0.19325808 -0.03799739 0.12661701 -0.18829465 0.050614893 -0.26720542 -0.16842437 -0.1847961 0.16299471 0.1193191 -0.063398935 0.08779795 -0.3900857
60 0.43890792 0.098503724 0.13100043 0.2509456 0.07128344 -0.29094356 -0.070932776 -0.26262513 0.092224576 0.09958051 -0.33389956 0.017494407 -0.09850508 0.10966128 -0.11114338 0.2717248 -0.050825406 -0.019082788 0.12648784 0.059106488 -0.12883407 0.07126319 0.07516278 -0.0043987506 0.083530344 0.031632926 -0.088146314 -0.043092728 -0.24614778 0.21107733 -0.11420086 0.12119013 -0.25517625 0.043845013 -0.06940477 0.06929403 0.08723451 0.04628898 -0.024990037 0.35975337 -0.024035841 -0.18981458 0.41980603 -0.29551196 -0.31761432 -0.053697303 -0.039486106 0.1263926 0.092576645 -0.02839546 0.08438694 -0.18114798 -0.043934934 0.12607121 -0.18462801 0.04322117 -0.265832 -0.15235922 -0.18183154 0.17749295 0.11706397 -0.061420396 0.08115088 -0.39868578
96 0.4345941 0.092603214 0.12803815 0.2534353 0.06974252 -0.31256258 -0.07661641 -0.26221624 0.083568916 0.10193621 -0.33119774 0.03120522 -0.091853835 0.10123427 -0.117066495 0.25733525 -0.055014085 -0.023352735 0.12532288 0.06307568 -0.13119686 0.074692935 0.08460533 -0.0044519026 0.084003 0.026236128 -0.08154927 -0.038872603 -0.24417736 0.21498264 -0.10926595 0.11327396 -0.25008136 0.035856552 -0.0696663 0.06741337 0.08955421 0.055568706 -0.035882484 0.34366012 -0.019531574 -0.20244151 0.40882275 -0.292465 -0.3279341 -0.06545459 -0.046474077 0.11575651 0.09038225 -0.03801632 0.09120703 -0.18453084 -0.03888141 0.13518062 -0.18880825 0.0424226 -0.25030103 -0.15627298 -0.17912784 0.17287436 0.12532261 -0.066026896 0.09509588 -0.39430222
26 0.43798712 0.094661646 0.12154365 0.26101923 0.07870535 -0.3091019 -0.09285563 -0.259692 0.0953117 0.1052805 -0.31623733 0.020669024 -0.090872906 0.09964922 -0.12661491 0.25106815 -0.051750924 -0.03436042 0.118536085 0.07207602 -0.13136117 0.06539929 0.07051219 -0.008916669 0.095002376 0.031877182 -0.076091275 -0.04327443 -0.23923981 0.20564522 -0.12093273 0.12382968 -0.24842931 0.042943865 -0.07136196 0.08159298 0.08433903 0.056964163 -0.034276236 0.3366942 -0.013567259 -0.20256333 0.40726733 -0.28120637 -0.32893687 -0.06383835 -0.03499894 0.1251986 0.09963069 -0.054869387 0.078570426 -0.17654745 -0.031789105 0.119056016 -0.1892536 0.034047615 -0.2539395 -0.14803798 -0.18240575 0.17550184 0.11949594 -0.05281957 0.09271637 -0.40269792
19 0.44497845 0.09227392 0.121106364 0.2584247 0.073382735 -0.3027116 -0.09195082 -0.2667279 0.0995141 0.10299394 -0.32421622 0.028601883 -0.10085533 0.09310635 -0.118648686 0.26052117 -0.052707393 -0.02236879 0.12393832 0.069702305 -0.13732725 0.07272327 0.072687685 0.007137264 0.0882033 0.035824265 -0.08201147 -0.0304079 -0.25323185 0.21594188 -0.12526715 0.12929504 -0.24774748 0.042226866 -0.07701327 0.085001625 0.0787437 0.043937456 -0.024824502 0.3410358 -0.011760945 -0.18852134 0.4011912 -0.28531057 -0.3310563 -0.064390175 -0.043429643 0.1250267 0.08976176 -0.05372986 0.08437892 -0.1829703 -0.04507365 0.1290512 -0.1954506 0.034372907 -0.26049313 -0.15334366 -0.18934265 0.18011113 0.12923121 -0.049577285 0.09149005 -0.39698902
28 0.44132483 0.097715855 0.13592379 0.25419933 0.07637122 -0.30896282 -0.075435705 -0.25531682 0.09538545 0.10563239 -0.32441068 0.025864933 -0.09334781 0.11092633 -0.11882145 0.26549515 -0.047374975 -0.020419033 0.12508978 0.066144116 -0.1322064 0.06167704 0.08834998 0.000443586 0.08259847 0.04076118 -0.09016418 -0.035264827 -0.24193949 0.21656431 -0.108162895 0.12642208 -0.24555685 0.04283315 -0.07765347 0.07997949 0.08590691 0.045633905 -0.03499412 0.35373846 -0.020472486 -0.19690399 0.41851878 -0.28501537 -0.3289977 -0.06547904 -0.04067901 0.12448788 0.08975749 -0.043547492 0.08542935 -0.18447621 -0.04426212 0.13262944 -0.19730435 0.048895422 -0.2544183 -0.15103278 -0.18990874 0.17430879 0.114509106 -0.061478835 0.09025985 -0.39304075
37 0.4321945 0.100864306 0.13454442 0.25700969 0.07746741 -0.3051697 -0.07613949 -0.2567494 0.09215789 0.107485354 -0.3270275 0.02984433 -0.10593591 0.10930167 -0.12568717 0.25597054 -0.057601225 -0.020710085 0.12386667 0.063595116 -0.12738684 0.06406053 0.07767185 0.007917287 0.08373145 0.024834849 -0.08488201 -0.032478523 -0.24618359 0.22461893 -0.11067893 0.119045414 -0.24950232 0.038570017 -0.06361076 0.063970916 0.09482611 0.05547343 -0.03439831 0.3345903 -0.022294125 -0.19216587 0.40522215 -0.2983654 -0.31287718 -0.05541716 -0.042122405 0.12639813 0.09511511 -0.036212925 0.09517656 -0.18662517 -0.048557136 0.13088457 -0.18847066 0.04957005 -0.25174823 -0.1584936 -0.19022268 0.1590466 0.110421024 -0.060357 0.09367669 -0.38295358
0 0.4452528 0.09392725 0.12701121 0.24748465 0.081952184 -0.299452 -0.07315461 -0.25635517 0.08940914 0.10656836 -0.33974504 0.026109746 -0.097427174 0.11386041 -0.1181892 0.26530588 -0.05882797 -0.02086018 0.117737584 0.07178781 -0.11956415 0.075067006 0.08541408 0.007240352 0.08984825 0.024762513 -0.08435095 -0.024624484 -0.23945127 0.21598887 -0.10313004 0.11575553 -0.2533062 0.028805338 -0.06189898 0.07563984 0.07691031 0.050471313 -0.030119473 0.3546205 -0.026203807 -0.18918024 0.4145938 -0.28672516 -0.32364145 -0.06848598 -0.03647274 0.112921 0.099503815 -0.03871958 0.09817087 -0.1899025 -0.04143376 0.13399713 -0.18695372 0.03523306 -0.24869946 -0.15815674 -0.18211345 0.17256086 0.12134561 -0.06508295 0.089712255 -0.39199394
27 0.44341478 0.09844024 0.13413116 0.25605047 0.07818442 -0.30314463 -0.086672865 -0.26645893 0.08406458 0.11340364 -0.32084227 0.037934072 -0.11217432 0.10416772 -0.11220864 0.25988588 -0.05855935 -0.01691069 0.11275453 0.071075626 -0.12069746 0.06264865 0.07567135 0.010894133 0.090179086 0.028794546 -0.08412993 -0.024284096 -0.24989112 0.22249094 -0.115141705 0.12326271 -0.24954061 0.04257493 -0.0699486 0.07026743 0.0957456 0.057696 -0.01756103 0.33224094 -0.025031753 -0.1912292 0.40669 -0.28196093 -0.3201253 -0.059904095 -0.04027625 0.12660447 0.084089845 -0.050258398 0.08449646 -0.1869007 -0.046948057 0.1272243 -0.18367216 0.032077912 -0.255824 -0.1563185 -0.18517347 0.1638115 0.1199858 -0.062473718 0.09260263 -0.39643544
2 0.44346964 0.10098174 0.13530077 0.24383797 0.072265476 -0.31091174 -0.08065016 -0.2598645 0.104901835 0.10446616 -0.33304638 0.01853114 -0.102465354 0.11860925 -0.11657305 0.27470958 -0.047673047 -0.026114795 0.11155194 0.063994944 -0.12943193 0.07120856 0.0698509 0.004714226 0.07528771 0.024191746 -0.08760628 -0.036179323 -0.2462453 0.22087622 -0.11316665 0.12717585 -0.2461016 0.0466876 -0.062137906 0.08200519 0.08316528 0.053193938 -0.02586816 0.34600633 -0.02595672 -0.19156043 0.40511295 -0.29200777 -0.32479325 -0.048445243 -0.044034243 0.11532228 0.10420032 -0.045618217 0.092184566 -0.18540797 -0.040120177 0.12617621 -0.17960961 0.037368335 -0.27623433 -0.15551051 -0.18394917 0.17328987 0.12503825 -0.060959596 0.09149915 -0.40097883
10 0.4511389 0.10270587 0.12845756 0.26562846 0.07309568 -0.31871065 -0.079668425 -0.26439863 0.095161006 0.110947706 -0.33166373 0.030527916 -0.1060267 0.09914474 -0.11547793 0.26736945 -0.041169677 -0.032946255 0.12994368 0.07511573 -0.13194701 0.07395174 0.07988332 -0.0043079713 0.092561096 0.038271338 -0.08600487 -0.039481547 -0.23969677 0.22692269 -0.11463218 0.11924875 -0.2571731 0.040410336 -0.062420867 0.081194215 0.09208745 0.04197506 -0.032938443 0.350569 -0.013466558 -0.19083923 0.4260337 -0.289638 -0.33286637 -0.07299667 -0.05025091 0.113158405 0.10250025 -0.040501993 0.0817986 -0.18370302 -0.040489517 0.12712486 -0.19338378 0.041188117 -0.2554697 -0.15685472 -0.194473 0.16409896 0.11268559 -0.06675286 0.08643156 -0.40066537
77 0.4409617 0.10436605 0.12983671 0.2596491 0.07268799 -0.3107602 -0.08209359 -0.2673782 0.086638704 0.105069116 -0.32422712 0.019193463 -0.09576389 0.104518965 -0.11696231 0.26371214 -0.050686855 -0.027300522 0.12346038 0.07447802 -0.13372199 0.06354232 0.070622206 0.005654976 0.080147825 0.01694023 -0.084702246 -0.029428009 -0.24915409 0.22541177 -0.1108754 0.114239536 -0.24230632 0.04395575 -0.06044621 0.07416358 0.08116131 0.04984137 -0.030410647 0.3344332 -0.026988512 -0.19552799 0.40289494 -0.27950633 -0.32706898 -0.060760017 -0.037447833 0.1223487 0.09251797 -0.049030013 0.09278482 -0.18420778 -0.04422761 0.13153738 -0.1879495 0.042131577 -0.25872827 -0.16402051 -0.18371224 0.17507045 0.1174597 -0.054199163 0.098790966 -0.38291118
9 0.43219706 0.09333921 0.13345549 0.25058416 0.06774226 -0.302296 -0.07493875 -0.2555619 0.098242134 0.10309628 -0.32057753 0.03774437 -0.09978422 0.10220708 -0.11505392 0.2696376 -0.050768077 -0.032864075 0.12959287 0.057534933 -0.129621 0.07070601 0.0750771 -0.0009740746 0.08278128 0.034852937 -0.08231477 -0.03616409 -0.2390824 0.22035506 -0.10872465 0.117851175 -0.2512645 0.038488504 -0.07428808 0.07606411 0.09205584 0.057631474 -0.03448771 0.35313413 -0.02486452 -0.19268015 0.41890576 -0.29602844 -0.3278072 -0.06362974 -0.047004823 0.11967958 0.095269464 -0.052417114 0.092113614 -0.175824 -0.04752109 0.12758501 -0.18615176 0.03928249 -0.2529044 -0.15739737 -0.17983651 0.16465 0.12425897 -0.06552742 0.08748243 -0.3885752
50 0.43576717 0.08728838 0.1347023 0.2562242 0.07013748 -0.30024916 -0.08286683 -0.25915778 0.09507607 0.10946411 -0.3356885 0.032758553 -0.09332555 0.111976646 -0.1284451 0.25984776 -0.050190136 -0.03500759 0.1241483 0.07663046 -0.1263992 0.07264278 0.08549167 -0.0074439025 0.08751759 0.025980983 -0.07995274 -0.029560594 -0.2422223 0.2116744 -0.10497403 0.120134115 -0.24480912 0.03866676 -0.0723673 0.071634755 0.08690979 0.05000608 -0.037737567 0.35563573 -0.021378567 -0.19814701 0.41468203 -0.29904217 -0.318488 -0.0695388 -0.051731605 0.11726676 0.09179084 -0.03848356 0.094459035 -0.18674117 -0.031735484 0.12220222 -0.19819917 0.05279833 -0.25325358 -0.15979621 -0.19243576 0.16211693 0.11852074 -0.06205527 0.081934 -0.40085232
22 0.4400364 0.09336893 0.12278471 0.24831262 0.07019622 -0.3034192 -0.077118784 -0.24772729 0.10014856 0.10497161 -0.33954754 0.037103493 -0.09906176 0.102200165 -0.116559125 0.26507312 -0.05195021 -0.024470095 0.12395971 0.06794103 -0.13830523 0.06617908 0.08593732 0.0072881067 0.08787195 0.034726605 -0.08359065 -0.04238825 -0.25139064 0.22589208 -0.11557199 0.12530172 -0.24540876 0.040890124 -0.08275547 0.06757073 0.086252056 0.04902952 -0.027554331 0.35249227 -0.013052445 -0.19092558 0.41906863 -0.2988447 -0.32018134 -0.06312869 -0.03454614 0.1263965 0.10245679 -0.047484025 0.09071793 -0.18956698 -0.032565724 0.12550727 -0.1883176 0.036406867 -0.26072517 -0.15933287 -0.18883471 0.16802217 0.11223597 -0.057010047 0.084629446 -0.40032104
70 0.44694376 0.09396176 0.1341135 0.25011745 0.06584882 -0.29914656 -0.088963814 -0.26013267 0.093634486 0.10429504 -0.3186747 0.027194966 -0.10004254 0.11211278 -0.13006103 0.25791308 -0.046755742 -0.02278448 0.10822882 0.06986742 -0.13405581 0.07397367 0.07542604 0.0027194193 0.08715601 0.027246516 -0.090413965 -0.035722915 -0.24649736 0.21379785 -0.10770107 0.11851775 -0.25927973 0.03700618 -0.06271899 0.08417369 0.094345585 0.051185206 -0.034540396 0.35290927 -0.024294289 -0.19740313 0.40150684 -0.29392534 -0.32969463 -0.057792783 -0.0574603 0.11357776 0.0889355 -0.035589375 0.088413455 -0.1921185 -0.03035774 0.13568279 -0.18261436 0.046955418 -0.24545597 -0.15324901 -0.17352627 0.1707037 0.10972029 -0.054895308 0.08621964 -0.39609593
85 0.437322 0.10059044 0.13640438 0.2553131 0.07971206 -0.29856178 -0.07684613 -0.26932657 0.09223635 0.11372112 -0.32424328 0.022672974 -0.09743208 0.10065883 -0.12656897 0.25740093 -0.055905115 -0.017056867 0.13346587 0.07592098 -0.12395507 0.062004868 0.08337031 -0.0023832056 0.08885323 0.031773273 -0.07698428 -0.038498323 -0.2506574 0.2246012 -0.10082779 0.11601386 -0.25995928 0.03267415 -0.06993149 0.06483743 0.08389464 0.047412623 -0.028374035 0.35161865 -0.03226717 -0.18491611 0.4224435 -0.29726025 -0.3124141 -0.06065928 -0.030812401 0.12607655 0.08348053 -0.030775907 0.08586752 -0.19130641 -0.045738187 0.124680884 -0.1979053 0.043263614 -0.24198754 -0.15961768 -0.19478674 0.17005846 0.11369737 -0.06548444 0.09748944 -0.39334163
75 0.44349572 0.107213855 0.12366427 0.25830692 0.06967639 -0.3104349 -0.07278864 -0.26602292 0.09609026 0.0975076 -0.31957233 0.027539382 -0.100905776 0.10332634 -0.12345349 0.27284142 -0.04053177 -0.015615484 0.10965461 0.062794 -0.12181422 0.060682606 0.081734106 0.0060837516 0.07974705 0.032774862 -0.068896145 -0.029986205 -0.24748975 0.2113035 -0.11153217 0.12890308 -0.2441561 0.044925135 -0.0715621 0.0807304 0.08708871 0.055440616 -0.03307768 0.3503289 -0.017190421 -0.18914388 0.40298596 -0.2956922 -0.31302804 -0.058161292 -0.040393677 0.108630314 0.09846159 -0.042015888 0.08303679 -0.18305488 -0.03275164 0.12065715 -0.17724885 0.030339306 -0.26636523 -0.16050911 -0.19631083 0.16561185 0.11965348 -0.055077944 0.08853174 -0.39856678
82 0.4343491 0.092434436 0.13003612 0.25686467 0.0871096 -0.30395326 -0.084274694 -0.26469946 0.090448685 0.10909802 -0.32741797 0.029218733 -0.1104377 0.10754903 -0.13011599 0.2568781 -0.04469808 -0.027001372 0.12512285 0.06400518 -0.13977842 0.07006035 0.09063157 -0.00804071 0.091290936 0.027492836 -0.0942627 -0.04183584 -0.25038922 0.2149051 -0.11464703 0.122974575 -0.25486726 0.04792983 -0.06844538 0.07641742 0.098924525 0.050727278 -0.031924978 0.34005937 -0.015742447 -0.20717911 0.41485906 -0.28271326 -0.3360482 -0.058507446 -0.054460205 0.12334372 0.084762774 -0.05284473 0.08267419 -0.1717537 -0.035421375 0.13267414 -0.19299912 0.041283384 -0.25586239 -0.14574644 -0.18193898 0.16900314 0.108162425 -0.06654959 0.09867142 -0.39284012
41 0.43275592 0.10591705 0.1273587 0.26220545 0.08228445 -0.31022415 -0.07994961 -0.26941955 0.09417002 0.100074284 -0.32004008 0.026389303 -0.10310627 0.09931238 -0.13416566 0.27502644 -0.042447865 -0.023263318 0.1120352 0.067131385 -0.1383268 0.069295555 0.08398728 -0.009480998 0.091755636 0.031724855 -0.09314782 -0.032197017 -0.2522754 0.22331293 -0.11358755 0.11628329 -0.26254055 0.04634786 -0.06534976 0.07776807 0.09603406 0.04992048 -0.02747955 0.34124544 -0.024884276 -0.18685204 0.41279325 -0.30232406 -0.32202208 -0.054088257 -0.043759845 0.13231406 0.08383884 -0.044350818 0.0776464 -0.17316955 -0.04182252 0.11898605 -0.191576 0.033520583 -0.24379808 -0.15107004 -0.17611973 0.15676294 0.12132436 -0.07067489 0.09701635 -0.38524008
56 0.43873063 0.102417916 0.12472431 0.25658423 0.07560229 -0.3003636 -0.07640416 -0.26039106 0.09876607 0.10898649 -0.3306951 0.033488117 -0.09876428 0.10846812 -0.12789735 0.2664621 -0.042300843 -0.01741545 0.12990606 0.059551157 -0.12944135 0.06998725 0.075005025 0.008549778 0.08758863 0.03317762 -0.076274656 -0.04013496 -0.24738722 0.22408368 -0.11335397 0.12456066 -0.24958311 0.029659659 -0.08275543 0.07612554 0.07368342 0.05461539 -0.029235069 0.36216527 -0.022511553 -0.19890358 0.4177188 -0.30420926 -0.32101375 -0.05741214 -0.032467537 0.12306822 0.09279383 -0.030747337 0.08006126 -0.18296641 -0.04054244 0.12498323 -0.18471324 0.04095681 -0.2685685 -0.1566723 -0.1905724 0.16728914 0.12359972 -0.06699641 0.099832095 -0.39266062
66 0.42650458 0.100076064 0.13398312 0.2528461 0.06857723 -0.30026504 -0.07296901 -0.26109675 0.08789836 0.10020882 -0.33456814 0.028211746 -0.10594752 0.110528275 -0.121594794 0.2703519 -0.05385819 -0.021054102 0.12504415 0.070366435 -0.12323536 0.06117339 0.08056892 0.003962039 0.08698621 0.029045546 -0.08427683 -0.038716707 -0.24131274 0.210816 -0.11842932 0.120209716 -0.25242838 0.03390845 -0.06901575 0.077867426 0.07753366 0.045222994 -0.028707061 0.35284168 -0.015888346 -0.19220884 0.4138439 -0.2857817 -0.31498575 -0.06183141 -0.04898575 0.12329429 0.08930614 -0.04739304 0.085719764 -0.19016053 -0.033030037 0.12288256 -0.1911155 0.036575556 -0.256434 -0.15561132 -0.19459662 0.16376272 0.11771092 -0.051358983 0.089262895 -0.39607126
64 0.44121367 0.10466745 0.11941641 0.2522277 0.081701346 -0.30161178 -0.08149838 -0.25923866 0.091517985 0.097397916 -0.33312514 0.018122656 -0.10508957 0.11417588 -0.12577954 0.25730604 -0.04419188 -0.021907402 0.112327255 0.07629603 -0.12585166 0.068673134 0.07978741 -0.012281441 0.07506157 0.021936998 -0.08081912 -0.034773186 -0.24794896 0.21280509 -0.118416816 0.117772356 -0.25419292 0.04311105 -0.07730987 0.08553288 0.07549958 0.049990304 -0.023832437 0.36454958 -0.02502812 -0.19984718 0.41157603 -0.29428956 -0.33650154 -0.053461567 -0.052881427 0.11777859 0.10104501 -0.038300745 0.09525891 -0.1840537 -0.028277587 0.13656309 -0.18692979 0.050811253 -0.25880402 -0.1534945 -0.18786794 0.17133771 0.112689495 -0.065115966 0.09637215 -0.3948825
8 0.43451336 0.103874214 0.13013749 0.24503347 0.0649377 -0.3055996 -0.067860425 -0.26282296 0.0863092 0.10387417 -0.32535324 0.028975265 -0.10140588 0.10021849 -0.11478962 0.26532567 -0.046853036 -0.03088131 0.117558785 0.066396125 -0.12765887 0.069553055 0.07206828 0.015153102 0.08625887 0.029433811 -0.07785329 -0.02721177 -0.23920585 0.22316435 -0.113299094 0.12695959 -0.24541026 0.03102206 -0.06295079 0.07067506 0.085003875 0.057338625 -0.027343104 0.34430116 -0.019269668 -0.1940866 0.41413885 -0.2969216 -0.3164712 -0.05449286 -0.042130977 0.11035368 0.09462664 -0.03591428 0.088782944 -0.1792611 -0.04037567 0.13731551 -0.18825866 0.029161347 -0.26929918 -0.16370508 -0.17686811 0.16132888 0.12158156 -0.062135097 0.08107112 -0.38787475
68 0.4449542 0.097343855 0.13762838 0.24932626 0.06643351 -0.29731378 -0.081516705 -0.25939867 0.09723664 0.10205884 -0.32711193 0.0282121 -0.10716011 0.10273218 -0.12519045 0.27268752 -0.053928122 -0.018727403 0.11865139 0.065980956 -0.11932713 0.07095166 0.08145892 0.007911826 0.08777947 0.034010433 -0.08868354 -0.035855424 -0.23813546 0.22258307 -0.105030954 0.12812445 -0.25775254 0.037119024 -0.06911769 0.07747483 0.088358745 0.053785156 -0.033195782 0.35926446 -0.026425378 -0.1916205 0.42393512 -0.30642155 -0.31591168 -0.067161486 -0.04736393 0.12805325 0.10188911 -0.04270582 0.08519575 -0.18258445 -0.037858915 0.13317627 -0.19864833 0.035256088 -0.25385207 -0.15697774 -0.18475918 0.17320767 0.120179206 -0.06567306 0.08711204 -0.39064187
49 0.4342304 0.108993135 0.13389759 0.2517113 0.07632152 -0.3071233 -0.081366874 -0.25270396 0.09168259 0.09669389 -0.32412997 0.03168059 -0.10014691 0.10867923 -0.12817939 0.27591503 -0.061131537 -0.011501162 0.12806979 0.0694386 -0.11825159 0.07448657 0.08458976 0.009055654 0.07828796 0.030552587 -0.07403086 -0.031528417 -0.24831848 0.22135468 -0.10291009 0.112618215 -0.25755924 0.025782077 -0.077722006 0.0785394 0.07118112 0.047770355 -0.025449423 0.35981196 -0.014147124 -0.1992452 0.4135866 -0.28484112 -0.3176683 -0.05731145 -0.04651136 0.11810439 0.09750559 -0.033653032 0.08930979 -0.19162787 -0.03574747 0.13696894 -0.1836714 0.042653743 -0.2569186 -0.16292405 -0.1899547 0.17320926 0.12012739 -0.05850981 0.09070264 -0.3914898
62 0.4384343 0.09689978 0.1369711 0.24289984 0.07151579 -0.30897954 -0.08544282 -0.26743498 0.09250426 0.10016026 -0.33543998 0.02025633 -0.10294908 0.114235505 -0.119133174 0.26845187 -0.05121348 -0.017481396 0.12683998 0.0736059 -0.12753642 0.07383859 0.071783826 -0.008630675 0.08760429 0.030812902 -0.0907925 -0.024152469 -0.24988732 0.22102736 -0.10874209 0.11058578 -0.2521281 0.03951141 -0.07245056 0.07889003 0.07702204 0.04692523 -0.028498424 0.3507992 -0.021985225 -0.20503865 0.41760057 -0.28261605 -0.32172936 -0.05510777 -0.044646606 0.112880945 0.0868973 -0.048354 0.091934815 -0.19129272 -0.044872537 0.12121396 -0.19015417 0.053193633 -0.25301576 -0.15548295 -0.19014086 0.17692293 0.113292985 -0.046704717 0.0946843 -0.39374018
92 0.42990568 0.095788606 0.13207772 0.25891244 0.07083752 -0.30417982 -0.074772075 -0.24807887 0.0933727 0.09310071 -0.3225694 0.041766133 -0.103307955 0.09168953 -0.12932046 0.26848546 -0.045183703 -0.009665962 0.11270395 0.07300371 -0.1317032 0.05766935 0.08245777 0.0045749685 0.08509148 0.024423704 -0.092368364 -0.031090062 -0.24299178 0.21833126 -0.115992956 0.11106351 -0.25771037 0.035614602 -0.07918556 0.0704837 0.09793615 0.041863 -0.02807909 0.3375068 -0.014068908 -0.18842712 0.41649255 -0.29880348 -0.3145404 -0.068337664 -0.040015433 0.110406846 0.08611751 -0.056022417 0.092330284 -0.17076853 -0.04278372 0.123174325 -0.1938341 0.040377412 -0.25048766 -0.15306994 -0.18453225 0.17017163 0.12376452 -0.055253424 0.095852636 -0.39064455
1 0.43457603 0.090176165 0.13700885 0.25791565 0.079021595 -0.30525532 -0.08492388 -0.24717313 0.08823969 0.1016358 -0.3185012 0.036854446 -0.098582506 0.094030835 -0.12854724 0.26868176 -0.056490827 -0.01446779 0.115037955 0.05267724 -0.1286022 0.063352145 0.09068987 0.0073516783 0.09099232 0.03247797 -0.085884325 -0.03829626 -0.24353877 0.21559662 -0.11934077 0.12896064 -0.25874412 0.03692535 -0.06579995 0.07376381 0.100358516 0.050611693 -0.026046429 0.34304777 -0.026318416 -0.187938 0.41441151 -0.29140273 -0.3190572 -0.06937786 -0.039205626 0.11099653 0.08141381 -0.05199404 0.09325323 -0.16763659 -0.030909535 0.12894526 -0.18093999 0.045591056 -0.25358796 -0.14361006 -0.19149551 0.16742879 0.111871056 -0.060796246 0.098916166 -0.3986733
99 0.42518294 0.09447989 0.13274518 0.25568068 0.07799408 -0.3069121 -0.072150156 -0.25899187 0.08741834 0.09941643 -0.31920847 0.019265207 -0.10307572 0.111584276 -0.11648508 0.25704578 -0.058118943 -0.029985404 0.12936072 0.06702484 -0.12763818 0.071234375 0.06803887 -0.010652992 0.08075393 0.034111172 -0.0810597 -0.02863517 -0.2451864 0.2196975 -0.10425291 0.121441856 -0.25825742 0.043160114 -0.06038255 0.08620578 0.07273476 0.04981033 -0.02078399 0.36156103 -0.026499592 -0.19814709 0.4124693 -0.29226318 -0.32429042 -0.054104734 -0.047640085 0.11554737 0.09714441 -0.03424077 0.09631077 -0.19063623 -0.047890026 0.13351616 -0.20145573 0.042520273 -0.25233483 -0.15552863 -0.18793114 0.16808994 0.12600154 -0.05216521 0.08952569 -0.39407507
88 0.43131325 0.106365874 0.13084279 0.2470147 0.07030706 -0.30880675 -0.07553471 -0.26850143 0.09393943 0.107802995 -0.33300856 0.017459892 -0.09665977 0.11758677 -0.12662646 0.27135202 -0.06117722 -0.020434853 0.11906852 0.06336608 -0.126899 0.062422562 0.0715023 -0.003132326 0.087008014 0.039518774 -0.07841697 -0.033539847 -0.24633773 0.22161497 -0.12142758 0.1268446 -0.24748257 0.03507618 -0.07354904 0.07180485 0.085674115 0.05533473 -0.027344717 0.34787348 -0.019050546 -0.1972615 0.42114553 -0.28664604 -0.32835028 -0.054967858 -0.048312012 0.11974673 0.099557936 -0.04262747 0.091516376 -0.18569973 -0.04475418 0.13856913 -0.18290587 0.05342682 -0.26531923 -0.16467273 -0.18710525 0.1750678 0.11105606 -0.058103263 0.08008726 -0.38478163
79 0.42547157 0.10610201 0.13295954 0.25629687 0.07057544 -0.29426178 -0.06934751 -0.2533132 0.10389888 0.105474286 -0.3296931 0.024852931 -0.0934257 0.11755764 -0.12555276 0.27258453 -0.060922917 -0.0145342 0.12126786 0.060427386 -0.11881606 0.06747807 0.081051834 0.011053192 0.081604674 0.038827512 -0.09093659 -0.029696485 -0.24485493 0.21622726 -0.10758323 0.11851595 -0.25408018 0.039044015 -0.080755785 0.07094249 0.07446661 0.049478635 -0.026422434 0.35358822 -0.011347172 -0.19806947 0.42178786 -0.2956405 -0.31755406 -0.05398269 -0.046855345 0.11497545 0.09037787 -0.043173067 0.09032904 -0.19535846 -0.03101164 0.1367017 -0.18519786 0.052456867 -0.2624171 -0.15125392 -0.1784421 0.17313468 0.123285614 -0.05026109 0.08793885 -0.39399263
45 0.42891783 0.099528775 0.12949748 0.24888983 0.08309106 -0.3025386 -0.077593856 -0.2611246 0.095471814 0.096957244 -0.324144 0.029882813 -0.099352784 0.10995092 -0.11625345 0.2547524 -0.05240349 -0.025134532 0.12235418 0.060527932 -0.13269451 0.07812821 0.073950216 0.0027753396 0.08820102 0.02457533 -0.079702124 -0.030270806 -0.23288956 0.21693298 -0.11378446 0.11814102 -0.25653717 0.029712025 -0.06953007 0.083467856 0.08163332 0.0531948 -0.035134874 0.35104668 -0.025387608 -0.19739649 0.41189408 -0.29654437 -0.3267574 -0.05553552 -0.04049226 0.12077614 0.1057643 -0.03739122 0.08989656 -0.18629538 -0.03643946 0.12920254 -0.1947663 0.046918977 -0.26525456 -0.15208793 -0.19552198 0.16652225 0.1212803 -0.05362704 0.08111441 -0.3877814
12 0.4361171 0.09091307 0.13982719 0.25712207 0.07800916 -0.3004566 -0.062299352 -0.24580564 0.08352594 0.093144014 -0.3429534 0.03845397 -0.09768308 0.104087956 -0.11336604 0.26794776 -0.05145593 -0.019126905 0.13272682 0.06716195 -0.11971317 0.071656525 0.080872156 0.0023415377 0.0874609 0.038747646 -0.07484683 -0.030678 -0.24038841 0.22225174 -0.1022982 0.12859635 -0.25170508 0.03009211 -0.07497381 0.059665676 0.09153621 0.04800845 -0.033534177 0.35047203 -0.027986584 -0.20497312 0.4228117 -0.29714784 -0.31084377 -0.0648423 -0.043803394 0.11778834 0.10423652 -0.05052291 0.0955625 -0.17739207 -0.044027064 0.13648024 -0.19198878 0.051684175 -0.2647567 -0.150388 -0.18213327 0.17554113 0.10976685 -0.057188842 0.08743682 -0.38972247
29 0.4437839 0.105154864 0.12909286 0.26018003 0.07140295 -0.30262634 -0.07779165 -0.26914185 0.099044725 0.10071158 -0.33054823 0.016892925 -0.10073289 0.11866447 -0.12237641 0.26404986 -0.046640035 -0.01972097 0.1237139 0.06309696 -0.12216554 0.06682888 0.069264546 -0.005294291 0.087492414 0.028505823 -0.08902084 -0.027095737 -0.24778304 0.21383789 -0.110431105 0.12591699 -0.26081538 0.036441643 -0.072204284 0.08425806 0.08502006 0.04246481 -0.01705792 0.35331342 -0.014877974 -0.20563647 0.4141558 -0.28907242 -0.3209235 -0.06579626 -0.05368315 0.11947524 0.10624324 -0.03822814 0.097794764 -0.18985738 -0.03188556 0.13763073 -0.17725654 0.041642644 -0.2627025 -0.15686335 -0.18858604 0.1839864 0.11691681 -0.051243402 0.09789994 -0.3875176
39 0.42708123 0.111185186 0.13737696 0.24338871 0.07899556 -0.3090704 -0.076560445 -0.25761703 0.09385257 0.0910636 -0.3312231 0.0202286 -0.096172445 0.11411132 -0.12002385 0.26659834 -0.049250748 -0.02084341 0.13118209 0.060979374 -0.12692177 0.06717266 0.07108726 0.011819814 0.08622942 0.042637005 -0.078404054 -0.042041685 -0.24550407 0.20958571 -0.119697526 0.129024 -0.2470083 0.03864438 -0.06815394 0.073620215 0.07930761 0.048240107 -0.019582631 0.35342845 -0.027388504 -0.19915795 0.41185617 -0.29541594 -0.31191328 -0.05602795 -0.044372544 0.11574166 0.0962621 -0.027375983 0.09592863 -0.19244239 -0.038415283 0.13039763 -0.18413135 0.034022205 -0.26575527 -0.15533423 -0.19158705 0.17225468 0.114740364 -0.05242603 0.093070954 -0.38638407
48 0.4300238 0.0950441 0.1355719 0.25129607 0.06212172 -0.2965881 -0.07385837 -0.25613552 0.095825635 0.09730983 -0.33113202 0.027736424 -0.09384273 0.11020812 -0.112227395 0.27319252 -0.056907423 -0.015178091 0.13430533 0.05522173 -0.124287665 0.063203596 0.08777254 0.010749198 0.090060815 0.025461772 -0.07613879 -0.028078394 -0.24354687 0.21935849 -0.108740725 0.11499026 -0.25567144 0.03571768 -0.0711867 0.07779746 0.0749627 0.053238146 -0.031659856 0.35522348 -0.031101624 -0.19002847 0.42772153 -0.306486 -0.3154643 -0.055931598 -0.036492635 0.120720744 0.08902969 -0.038689792 0.081672475 -0.19475524 -0.037475206 0.13018084 -0.189105 0.048139114 -0.24871242 -0.16142839 -0.18652388 0.17764723 0.11756867 -0.06361552 0.0813741 -0.39288127
35 0.43934187 0.1031813 0.12548263 0.2528674 0.07737352 -0.30590665 -0.079449154 -0.2639758 0.09278608 0.10436265 -0.32396573 0.020478968 -0.10324379 0.11961892 -0.12566946 0.25970823 -0.058507077 -0.03556903 0.13313986 0.07154842 -0.12864785 0.08206944 0.06880364 -0.0061990744 0.08279724 0.027967958 -0.07686769 -0.023847697 -0.24411888 0.21590841 -0.10222881 0.11583305 -0.24292524 0.030021233 -0.066123985 0.063264616 0.071929835 0.054757744 -0.02019592 0.36167064 -0.030182732 -0.20228781 0.41172218 -0.2967904 -0.3191116 -0.047372114 -0.034079082 0.12474884 0.094900824 -0.03837426 0.098157056 -0.19246812 -0.035974994 0.12267278 -0.19964387 0.04096752 -0.26016816 -0.15394692 -0.19137013 0.16456895 0.11627043 -0.05330074 0.09561457 -0.39630547
78 0.4318485 0.10334619 0.1241874 0.24898341 0.080807336 -0.29961008 -0.08406362 -0.26617888 0.08784328 0.0987317 -0.32810336 0.017197853 -0.10023864 0.117437825 -0.11151506 0.268608 -0.050572656 -0.02455996 0.118390314 0.070696056 -0.13136882 0.06123907 0.06788198 -0.010619119 0.07579473 0.026424358 -0.072076894 -0.037496656 -0.24002352 0.21710064 -0.10515077 0.11694179 -0.23948151 0.033872765 -0.082311586 0.070976935 0.06917359 0.050806396 -0.02509946 0.35591185 -0.021832803 -0.20153895 0.40549192 -0.282753 -0.32509604 -0.051245134 -0.041678164 0.11682143 0.100704916 -0.046348013 0.09078833 -0.19774504 -0.038948193 0.12774205 -0.1932714 0.031829055 -0.26469043 -0.15922162 -0.1875732 0.16726136 0.12141215 -0.04876344 0.08935712 -0.39195246
97 0.44627914 0.10837261 0.12323483 0.25212166 0.06659536 -0.29755792 -0.07346101 -0.2646665 0.09010673 0.10760454 -0.33440045 0.015702417 -0.10950996 0.10088035 -0.12709776 0.27398205 -0.059001833 -0.029982897 0.12671614 0.07142066 -0.12334555 0.075016744 0.069938466 -0.008229206 0.07534246 0.03921011 -0.082789615 -0.025311584 -0.24379104 0.21401753 -0.106809914 0.12991723 -0.2472978 0.037887245 -0.07562365 0.069877446 0.08084297 0.047502514 -0.0246266 0.35914886 -0.012118844 -0.20642412 0.4089142 -0.2938377 -0.32872528 -0.052994672 -0.041530788 0.122658335 0.10606636 -0.03600864 0.086871535 -0.18627927 -0.030354567 0.14560781 -0.19204971 0.03422529 -0.25789294 -0.16032936 -0.19590232 0.17974705 0.11787489 -0.051730055 0.08739117 -0.38847575
40 0.4453708 0.09653123 0.12024117 0.2456277 0.07489611 -0.30147493 -0.07165556 -0.26472718 0.093711525 0.10673383 -0.3269962 0.031168744 -0.098639905 0.10757657 -0.12713435 0.26921093 -0.04711416 -0.017434774 0.128613 0.062009882 -0.13236302 0.06692951 0.080395125 -0.0059706937 0.08929257 0.02056745 -0.08736132 -0.02851976 -0.2420136 0.20934612 -0.10857242 0.117781565 -0.23993063 0.044681158 -0.07956699 0.07167202 0.08830797 0.050707195 -0.029263012 0.35284054 -0.026694179 -0.19404152 0.40597236 -0.29450664 -0.31575954 -0.06221945 -0.041987684 0.12600198 0.10234194 -0.040479895 0.09054542 -0.18507862 -0.038440604 0.13153002 -0.1865184 0.03973594 -0.2515599 -0.1521207 -0.1930774 0.17035954 0.116774976 -0.061449483 0.09233017 -0.38755727
33 0.43358874 0.09345603 0.12897159 0.24824943 0.07155894 -0.3062455 -0.06869157 -0.24504867 0.09014189 0.09797507 -0.33267757 0.023505608 -0.10313026 0.10648938 -0.12237509 0.2732698 -0.053036246 -0.013902392 0.11403061 0.058605008 -0.12287183 0.06189217 0.07098758 0.0021746333 0.08231045 0.035656184 -0.08102504 -0.035472088 -0.24695343 0.21337679 -0.119356856 0.12534814 -0.2581496 0.030394861 -0.07703722 0.07124864 0.092879504 0.04661605 -0.029771386 0.3469386 -0.014417069 -0.2061231 0.40772378 -0.28903252 -0.3215339 -0.058253 -0.047161914 0.10872322 0.10150422 -0.05207311 0.090545945 -0.1763428 -0.02922292 0.14063029 -0.1946158 0.047680732 -0.27122694 -0.16200757 -0.18827806 0.17472844 0.12083898 -0.05062415 0.0813492 -0.3918799
52 0.44158387 0.114591606 0.13728824 0.24765307 0.08091417 -0.30617282 -0.08161964 -0.257838 0.10202741 0.105120435 -0.33996993 0.015338338 -0.095868886 0.103365034 -0.10980928 0.26468167 -0.04596317 -0.03417028 0.12830393 0.069241524 -0.120587826 0.07666872 0.06642111 0.0038469685 0.07636967 0.026371365 -0.07018828 -0.034846168 -0.23510933 0.22814482 -0.12520853 0.12149281 -0.2545316 0.041522317 -0.06885023 0.08180996 0.07176257 0.054642245 -0.030837383 0.34691295 -0.018881656 -0.20140481 0.41307488 -0.28366017 -0.31802762 -0.06173601 -0.037833855 0.11906512 0.0962437 -0.03490455 0.09455749 -0.19350228 -0.036625285 0.13304922 -0.19492833 0.051115252 -0.2708597 -0.15243201 -0.18903507 0.17937137 0.12321611 -0.05215141 0.07415209 -0.3849834
47 0.43638885 0.105961986 0.13009812 0.25566134 0.06731274 -0.30798286 -0.07090167 -0.2521655 0.09768342 0.10057936 -0.33000213 0.024396984 -0.10206744 0.10691991 -0.11578767 0.26900682 -0.058098946 -0.02388276 0.11582973 0.06939147 -0.12629877 0.06799442 0.08521751 -0.0041757207 0.079480894 0.02246746 -0.07359057 -0.045078203 -0.23681685 0.21303499 -0.1136143 0.114977665 -0.24428433 0.03537654 -0.067612536 0.0726434 0.08409275 0.048347317 -0.04033447 0.34909183 -0.023278879 -0.1982715 0.41240013 -0.2884828 -0.32249248 -0.057933435 -0.0449511 0.11409092 0.10209832 -0.033473868 0.09348588 -0.19310367 -0.04108034 0.13784072 -0.18507133 0.04442206 -0.2539053 -0.15920028 -0.17867638 0.16776831 0.10943748 -0.07062166 0.09180737 -0.39001825
58 0.42959803 0.102806345 0.131068 0.24534878 0.07059861 -0.2939466 -0.08169673 -0.25867194 0.08945828 0.10955081 -0.31936762 0.025248082 -0.088125676 0.11591869 -0.11835077 0.26128536 -0.060146544 -0.030539084 0.13323662 0.070410445 -0.123002 0.075861 0.064769626 0.010240671 0.07976389 0.036578055 -0.07382437 -0.04121616 -0.24735703 0.21132188 -0.11219189 0.13023604 -0.23737149 0.030013118 -0.07374409 0.0791158 0.07137951 0.054165035 -0.026178341 0.35812095 -0.027486106 -0.1961218 0.42238158 -0.30175877 -0.31737524 -0.051236857 -0.045343 0.11679192 0.09406042 -0.041229557 0.09091975 -0.18533677 -0.04215043 0.12758404 -0.18381275 0.035114888 -0.26159772 -0.15155877 -0.19572352 0.16517112 0.116505116 -0.060802545 0.09386756 -0.38980627
4 0.44427097 0.09260413 0.11919128 0.25581735 0.08018334 -0.30639422 -0.089827426 -0.26579496 0.08782927 0.095166326 -0.33060643 0.029850693 -0.09897889 0.10249002 -0.11421792 0.27023742 -0.040462356 -0.032442704 0.1249299 0.06901487 -0.1381204 0.066211954 0.07528831 0.0055957907 0.09144267 0.029011345 -0.081854716 -0.037655756 -0.23679155 0.22721757 -0.1230736 0.11841963 -0.23935688 0.037541986 -0.07738329 0.080655694 0.08601189 0.046461076 -0.018090323 0.34929326 -0.023314245 -0.19117217 0.40306634 -0.2810841 -0.32545087 -0.06624168 -0.049091484 0.12713201 0.099628314 -0.05156039 0.086579815 -0.19768344 -0.03411769 0.13172346 -0.18772192 0.0366692 -0.2593761 -0.15029116 -0.17895295 0.18109694 0.12518509 -0.052075725 0.087369904 -0.38582128
83 0.43975842 0.09012406 0.12153853 0.25832194 0.07897281 -0.3033181 -0.07704287 -0.25626403 0.09004949 0.10488822 -0.33200517 0.032582283 -0.10561831 0.09752924 -0.12844631 0.26944312 -0.04460347 -0.027337044 0.1152442 0.07109121 -0.12394542 0.07598419 0.08931217 -0.008268273 0.08428356 0.03202947 -0.09041571 -0.03512042 -0.24342084 0.22165912 -0.11565571 0.11360916 -0.256497 0.039430358 -0.07300285 0.07547154 0.08678892 0.04838693 -0.035246152 0.3396445 -0.03048561 -0.19435173 0.41670385 -0.28065744 -0.31497157 -0.059476346 -0.046718337 0.120803215 0.08832786 -0.04183973 0.09326018 -0.18445127 -0.034235824 0.12732063 -0.18069218 0.04076792 -0.25390628 -0.15354183 -0.1905724 0.16112776 0.117128536 -0.069244646 0.082706444 -0.3967413
