100 64
93 -0.20980611 0.018896151 0.26203388 -0.13019839 0.051650535 0.07721801 -0.07397872 0.21271208 0.07210381 0.04052944 0.14931503 0.18037327 -0.33389342 -0.10674132 0.007971634 -0.02892204 0.23988177 0.006565859 -0.11095826 0.26724663 0.17819357 0.029784152 -0.010455685 -0.020682702 -0.32555673 0.17711009 0.20256127 0.19235645 -0.116893105 -0.363478 0.15722272 0.051099468 -0.035067953 -0.17244898 -0.17620614 -0.25232005 0.18116415 0.048978034 0.08407932 0.04032345 0.018386561 -0.10817882 0.10049101 -0.50620764 -0.1580813 -0.023836523 0.12036568 0.413841 -0.05815629 -0.09543458 -0.07584141 0.012485956 -0.15992732 -0.097310476 -0.123921156 0.01805243 -0.009296798 -0.09909372 0.32869282 -0.13078001 -0.3560208 0.15298744 0.03713431 0.04396848
83 -0.21448867 0.01949846 0.26520106 -0.1262504 0.047629897 0.08572788 -0.074730985 0.20938814 0.081557155 0.038167696 0.14853504 0.19126894 -0.3375031 -0.1109122 0.008530083 -0.027521782 0.24164708 0.011990298 -0.11630195 0.25595757 0.17999707 0.022286415 -0.002581648 -0.018136216 -0.32715607 0.17639388 0.2054228 0.19125487 -0.11966005 -0.37351817 0.15450573 0.04847841 -0.021602314 -0.16565837 -0.17346053 -0.24257782 0.18374684 0.03718686 0.088404715 0.048055712 0.0097009055 -0.09905162 0.09852613 -0.49348617 -0.15434495 -0.010704262 0.12188644 0.41607457 -0.06689833 -0.09277136 -0.07646943 0.022511551 -0.1654765 -0.10339561 -0.109634966 0.029352205 -0.013281482 -0.10006991 0.32840702 -0.12933598 -0.3581901 0.14477693 0.038200293 0.04331277
20 -0.20500277 0.020110419 0.25038436 -0.13091193 0.050617516 0.0810124 -0.06909724 0.19696929 0.0850576 0.043329854 0.1515921 0.18073854 -0.328509 -0.1196611 0.01911279 -0.033396 0.24551699 0.0105251055 -0.11716378 0.26519203 0.17972027 0.011942292 -0.0065374887 -0.023169016 -0.32572466 0.1787466 0.20227927 0.199718 -0.10515621 -0.36563975 0.15246049 0.041270163 -0.022644982 -0.16969223 -0.17785892 -0.24983618 0.18103729 0.0346669 0.083440505 0.043574587 0.00941151 -0.09827863 0.105075486 -0.49821568 -0.15574178 -0.02709153 0.12628953 0.41789103 -0.059449885 -0.08856012 -0.08381522 0.015858164 -0.17134173 -0.08806584 -0.12249764 0.019808423 -0.018463211 -0.09681996 0.33556736 -0.11966564 -0.36168715 0.15617049 0.03187816 0.034887318
41 -0.2130609 0.02021784 0.2676375 -0.12917227 0.04966062 0.08124325 -0.0603815 0.2029643 0.082339406 0.041439272 0.14963894 0.18589951 -0.3230893 -0.12011514 0.017276544 -0.030042758 0.2369417 0.012273845 -0.10863142 0.25198278 0.18343861 0.01189248 -0.012545863 -0.025258897 -0.32694182 0.17324516 0.20797767 0.19323577 -0.111716114 -0.36130273 0.15409735 0.053225353 -0.03289599 -0.1570388 -0.1822951 -0.24014844 0.17745528 0.035495408 0.07742734 0.047322936 0.0129343085 -0.10094717 0.107418604 -0.50302076 -0.15670148 -0.018030211 0.13702975 0.40603074 -0.067174084 -0.08707155 -0.06911587 0.008745998 -0.16710693 -0.09560326 -0.11900649 0.01453244 -0.021803766 -0.103411235 0.3375786 -0.12714443 -0.35099924 0.15035821 0.042216275 0.03812271
89 -0.21395773 0.027917255 0.27254996 -0.13702562 0.04765245 0.0896511 -0.07233694 0.20877272 0.08580163 0.03865876 0.14381775 0.18200138 -0.3392837 -0.12081632 0.019810738 -0.030548701 0.24683404 0.007020835 -0.10574588 0.25799432 0.17930162 0.013472924 -0.014006995 -0.021034239 -0.33713868 0.16693015 0.21348925 0.19151856 -0.12169721 -0.3653063 0.1530526 0.04883162 -0.020936266 -0.155954 -0.17988528 -0.25232705 0.18800652 0.036391098 0.08321527 0.0470265 0.015971374 -0.095250815 0.10397876 -0.50072205 -0.1492214 -0.013967286 0.13176909 0.41219196 -0.06887579 -0.090834044 -0.07576844 0.0092575215 -0.15654844 -0.08874769 -0.12669867 0.016143585 -0.013361738 -0.1060382 0.31908008 -0.120327786 -0.36400187 0.14032805 0.05173709 0.03787599
86 -0.20608467 0.022631485 0.2562521 -0.13653964 0.049659193 0.07476337 -0.058361582 0.20042945 0.087719604 0.038607176 0.151723 0.18750693 -0.3301083 -0.12516807 0.022477811 -0.027935086 0.23278818 0.013543612 -0.11019835 0.2581338 0.17457797 0.012944676 -0.018841062 -0.021171914 -0.33324087 0.17419516 0.20658356 0.20646155 -0.11146788 -0.37266862 0.14764893 0.046867065 -0.027527565 -0.15832144 -0.1755801 -0.2475448 0.18076749 0.032068957 0.08347284 0.047528885 0.013049836 -0.11007167 0.10344936 -0.50155634 -0.15947452 -0.021696284 0.13270415 0.42149982 -0.05816118 -0.0944535 -0.076193616 0.0071618753 -0.16240205 -0.1028251 -0.11825303 0.024643313 -0.00810052 -0.110388555 0.3307011 -0.12703604 -0.3670969 0.15515932 0.03960961 0.04086555
52 -0.20980334 0.02826413 0.25443974 -0.12961687 0.054671045 0.081439406 -0.057062242 0.21278098 0.0802311 0.04677102 0.14484863 0.1823991 -0.33955717 -0.10676729 0.021310141 -0.02828675 0.24835101 0.0016178286 -0.10961954 0.25508457 0.18369107 0.017858285 -0.007749085 -0.014667693 -0.32563004 0.16770785 0.2015825 0.19355409 -0.12028021 -0.36907044 0.16027196 0.0418819 -0.022203842 -0.17050523 -0.17690107 -0.25473204 0.18566181 0.02947314 0.080251634 0.055094853 0.001912583 -0.11222837 0.102249086 -0.49453625 -0.1555098 -0.011033051 0.13737945 0.4088852 -0.06544559 -0.09342169 -0.06810465 0.006038054 -0.17170505 -0.10057746 -0.12700208 0.02502188 -0.021004096 -0.09734024 0.33401194 -0.12836078 -0.36331838 0.14734012 0.0431603 0.04104716
45 -0.20632876 0.030517764 0.27249253 -0.13653213 0.057336763 0.077476926 -0.06311121 0.21215013 0.08948946 0.05432633 0.15864708 0.18872449 -0.32948112 -0.12768656 0.01741292 -0.03043746 0.23356768 0.010541208 -0.12394392 0.26242873 0.1709353 0.02739994 -0.017876476 -0.016982734 -0.32929754 0.1846812 0.2128468 0.19841911 -0.1120767 -0.3794597 0.15689105 0.05663556 -0.029669086 -0.16696572 -0.17542784 -0.24636412 0.17846216 0.031861145 0.075943805 0.045902114 0.003449842 -0.106513925 0.09938936 -0.50889325 -0.1655465 -0.011631723 0.13098404 0.41053426 -0.057812057 -0.1047137 -0.07732521 0.0060960357 -0.16139589 -0.09937383 -0.12165355 0.024169382 -0.02021862 -0.103303894 0.3357792 -0.12836038 -0.36361384 0.15161298 0.040595002 0.038646385
64 -0.21486706 0.02345133 0.25957197 -0.13224043 0.039899364 0.08439299 -0.06753028 0.21678798 0.09034908 0.043269236 0.14606263 0.1869773 -0.34119222 -0.122416705 0.00962449 -0.029882139 0.24427705 -0.0038654439 -0.10854465 0.2641877 0.17558233 0.019953132 -0.0014282791 -0.021078382 -0.33655795 0.17386313 0.21495003 0.19773631 -0.1133029 -0.37489176 0.15088181 0.043398682 -0.025413949 -0.16742693 -0.17945345 -0.2587439 0.17698957 0.02918946 0.0824021 0.040132295 0.0036430056 -0.1000723 0.11595111 -0.4974199 -0.15921676 -0.021597985 0.13624315 0.41605473 -0.06300048 -0.099443465 -0.08510617 0.0034003437 -0.16157986 -0.09160472 -0.12015096 0.03349471 -0.016824083 -0.108711846 0.33259788 -0.122600615 -0.36297658 0.16178486 0.045065463 0.033668324
40 -0.21216345 0.022169178 0.26263866 -0.11989213 0.048406396 0.077946655 -0.059026737 0.20596604 0.076794684 0.037394233 0.14102787 0.1818588 -0.33512208 -0.11496736 0.013488157 -0.036089256 0.24497285 0.004133352 -0.12115243 0.25423175 0.18498988 0.02782203 -0.010960619 -0.020663593 -0.33799386 0.18196002 0.20231055 0.20426343 -0.122308426 -0.36762854 0.14870267 0.054094255 -0.022728097 -0.16983734 -0.17186077 -0.25446227 0.1786175 0.041109003 0.081421144 0.048268367 0.008005513 -0.11784314 0.112959035 -0.508584 -0.15352535 -0.025573758 0.12624802 0.4125839 -0.06537338 -0.09381853 -0.06842706 0.020453388 -0.17178711 -0.092324995 -0.12754132 0.02972815 -0.01862733 -0.09701385 0.3357184 -0.124694854 -0.35375747 0.15857841 0.044504926 0.043951765
56 -0.2069963 0.019049508 0.26081094 -0.13301799 0.04416089 0.08258375 -0.063255236 0.21235694 0.07362117 0.03153126 0.14010125 0.18564457 -0.32140368 -0.11091489 0.009280409 -0.022812482 0.24268936 0.0034351368 -0.11113745 0.26477024 0.1816619 0.0098050395 -0.01613472 -0.02046747 -0.33316272 0.16868459 0.21684714 0.20441589 -0.11198679 -0.37220925 0.14794001 0.05117099 -0.031744007 -0.16704695 -0.16571492 -0.2404315 0.19269748 0.038707264 0.0763638 0.047420196 0.00020927927 -0.10008036 0.11334994 -0.5075902 -0.15365618 -0.030976469 0.13385552 0.40255532 -0.058585133 -0.10300975 -0.069794685 0.017869446 -0.16264817 -0.10367962 -0.13149436 0.028907416 -0.012213664 -0.09713121 0.326595 -0.13506383 -0.36258936 0.14209963 0.036827482 0.036497883
78 -0.21111025 0.017717117 0.25835282 -0.12036337 0.037460256 0.07951159 -0.06623075 0.21550481 0.07429571 0.04868065 0.15777777 0.19028136 -0.32754654 -0.11362714 0.0107362205 -0.029599665 0.24674855 0.0039730086 -0.11422506 0.27028352 0.18567593 0.023869809 -0.017541703 -0.025741369 -0.32991022 0.17079216 0.20875275 0.19805405 -0.11072899 -0.3675364 0.14979053 0.048414323 -0.02402042 -0.15465683 -0.17551827 -0.2536267 0.17708053 0.03085819 0.08618361 0.04503605 0.017712686 -0.09474312 0.11195049 -0.50322115 -0.16118784 -0.012229607 0.12273821 0.41899043 -0.06714931 -0.09204131 -0.08112208 0.01727159 -0.17271513 -0.08720629 -0.124177076 0.021516241 -0.018483857 -0.10258196 0.33769277 -0.13094923 -0.35820323 0.15432496 0.030120164 0.03885708
18 -0.22047171 0.018822212 0.2660545 -0.12755816 0.051346306 0.078114234 -0.058013983 0.20813729 0.08133991 0.04335427 0.15463014 0.19195655 -0.32505244 -0.11297106 0.019355588 -0.035823163 0.24913323 0.001868957 -0.11443145 0.25550094 0.1826631 0.011997136 -0.0024867805 -0.016243482 -0.32890844 0.17476155 0.20536043 0.20055972 -0.11172574 -0.37045857 0.15844113 0.048667684 -0.021484358 -0.162782 -0.17958337 -0.25020117 0.1835387 0.029225731 0.08084403 0.04440001 0.007499166 -0.11489252 0.10881524 -0.5041024 -0.14786841 -0.013990629 0.13879205 0.41823876 -0.05983988 -0.095633075 -0.07116336 0.017678777 -0.16577484 -0.09178627 -0.12599555 0.019840375 -0.0075477255 -0.11157879 0.34395948 -0.12659848 -0.36053565 0.15638787 0.04399322 0.04244522
70 -0.21587425 0.019388115 0.2551406 -0.13463323 0.046369728 0.080581486 -0.06805101 0.20779856 0.079370886 0.04837094 0.15572461 0.19224083 -0.3362138 -0.10948811 0.012339301 -0.027431028 0.23168778 0.007027653 -0.11410424 0.25329322 0.1864427 0.02211647 -0.008316894 -0.017596252 -0.32905272 0.17569447 0.2115613 0.20606962 -0.11765584 -0.37643555 0.15117937 0.055825356 -0.028445495 -0.15930554 -0.17085005 -0.24557954 0.17379208 0.041222237 0.07910738 0.042180546 0.013919794 -0.099386774 0.0973333 -0.49402553 -0.15863986 -0.026111208 0.1389171 0.40846205 -0.054243177 -0.10026043 -0.07685517 0.014765945 -0.1577948 -0.10044964 -0.1103682 0.021557543 -0.020492328 -0.0967406 0.34072986 -0.12481804 -0.35686877 0.14930567 0.032327984 0.044200007
50 -0.22332615 0.026602762 0.26321125 -0.12966424 0.048800394 0.08026568 -0.055641387 0.21310213 0.0832792 0.036596086 0.16118973 0.18752205 -0.3342558 -0.116833806 0.00933212 -0.02718771 0.23636514 0.011621118 -0.109093055 0.260537 0.18711968 0.020250358 -0.007877028 -0.017650649 -0.33820033 0.1843847 0.22087866 0.20976016 -0.11708664 -0.3673771 0.1503205 0.043756478 -0.026154712 -0.16841862 -0.1739663 -0.24344872 0.19069317 0.038874965 0.074812084 0.05168545 -0.0028088447 -0.10432792 0.111471735 -0.4946263 -0.1595159 -0.017522331 0.13566689 0.41444868 -0.05710567 -0.08851383 -0.07421729 0.009791042 -0.16468588 -0.10773202 -0.11867301 0.030525811 -0.023110988 -0.09679931 0.34376445 -0.12840478 -0.36612293 0.14476897 0.043230414 0.03328162
14 -0.2147835 0.019000612 0.26371685 -0.13156003 0.046139695 0.073985346 -0.06960426 0.21646826 0.07397933 0.042688098 0.14851432 0.187673 -0.33761692 -0.11811608 0.024218036 -0.039353132 0.24246742 0.0057316697 -0.12012459 0.25627333 0.18004036 0.028311819 -0.006269683 -0.024989685 -0.3416877 0.17715165 0.20647095 0.20257653 -0.12707058 -0.37799448 0.15801057 0.043123726 -0.03667014 -0.1657281 -0.1845014 -0.24678987 0.17379268 0.03858903 0.078694575 0.049632583 0.0070462995 -0.117426634 0.10355567 -0.5001233 -0.15607037 -0.013874597 0.13512605 0.4161412 -0.053177163 -0.09464133 -0.0723822 0.0068664174 -0.16063017 -0.09771631 -0.12057871 0.028814375 -0.023863865 -0.107560545 0.3450819 -0.11428128 -0.3608541 0.13921678 0.041154694 0.031230856
53 -0.22093609 0.017485457 0.25630784 -0.122275405 0.04834983 0.08110769 -0.059603564 0.20994002 0.08990505 0.050298717 0.14764158 0.19202623 -0.33171332 -0.11834968 0.014428642 -0.027777182 0.250039 0.0142556075 -0.11930818 0.26897702 0.19041759 0.017194664 -0.01356682 -0.024118023 -0.32703087 0.17239015 0.21573646 0.19481106 -0.11826057 -0.37411037 0.14844847 0.048349746 -0.02859522 -0.16197346 -0.17424153 -0.25219813 0.18474893 0.037210807 0.085016064 0.0395993 0.017165784 -0.11638579 0.10014646 -0.49832305 -0.16166474 -0.015345541 0.13079761 0.41809484 -0.07372495 -0.103311524 -0.07153312 0.020420032 -0.17328835 -0.09006773 -0.11540041 0.02043385 -0.01622496 -0.10249494 0.33448815 -0.13248011 -0.36152023 0.14776845 0.036622394 0.040871724
63 -0.20349331 0.010255666 0.24666084 -0.12942734 0.03684992 0.0877452 -0.066091515 0.20386072 0.08534931 0.045926686 0.15501493 0.18753135 -0.32649913 -0.12088315 0.01886967 -0.030079385 0.24951003 0.002409788 -0.10247169 0.26038936 0.18075734 0.02038738 -0.004859528 -0.023749426 -0.3454133 0.18212996 0.21791327 0.19963242 -0.10931521 -0.3646495 0.16175066 0.046634167 -0.03234842 -0.16602896 -0.16808137 -0.25637886 0.18689385 0.03950222 0.076244116 0.05368639 -0.0034381254 -0.1048602 0.10529701 -0.50200856 -0.14634985 -0.017390661 0.14208087 0.41384983 -0.067289665 -0.09284949 -0.08005087 0.0014818317 -0.15772057 -0.097328655 -0.12664376 0.034707874 -0.019987538 -0.10511334 0.33061168 -0.13134149 -0.35973364 0.15595163 0.032935772 0.034574818
39 -0.20029977 0.01330385 0.25296035 -0.12347871 0.03771114 0.08355492 -0.06744223 0.20417893 0.085920796 0.03718741 0.15131271 0.19276488 -0.3304522 -0.1213763 0.014575451 -0.026749229 0.24679503 0.004981684 -0.10153164 0.2638266 0.1859573 0.02299763 -0.0013265075 -0.021903971 -0.32781672 0.17169848 0.20972376 0.19558583 -0.117917426 -0.37265763 0.14848875 0.05353818 -0.035458613 -0.16420585 -0.17433164 -0.2467647 0.176979 0.02805947 0.09188872 0.052411485 0.006455255 -0.11226465 0.10252256 -0.49513435 -0.15878977 -0.023600092 0.12602216 0.41135913 -0.061236102 -0.09908518 -0.07002453 0.0073345676 -0.17310075 -0.09071234 -0.11980873 0.03189438 -0.024344327 -0.102710895 0.33946338 -0.12053707 -0.3582408 0.1498021 0.033726305 0.040654156
48 -0.2194736 0.029573005 0.27378777 -0.12206303 0.050601196 0.08406482 -0.06305076 0.20806503 0.07301676 0.049528122 0.15364186 0.19779849 -0.32291114 -0.11719611 0.012086083 -0.034319118 0.24807307 0.0034367172 -0.1166775 0.26770648 0.18473296 0.026610054 -0.015179721 -0.018244255 -0.333117 0.17993443 0.20986418 0.20357262 -0.12112207 -0.37125483 0.15417235 0.04731594 -0.03849183 -0.16983353 -0.17335144 -0.24193951 0.17513713 0.04471035 0.086113654 0.04990819 0.0130857155 -0.10395228 0.09566214 -0.49777627 -0.16102964 -0.012952552 0.12546845 0.4152258 -0.06349926 -0.089633256 -0.075302035 0.0048202747 -0.16723073 -0.100283355 -0.11740766 0.030509556 -0.0149274515 -0.10180192 0.3316353 -0.12204681 -0.359015 0.14815891 0.031510856 0.044495426
16 -0.20725894 0.01650595 0.25194386 -0.116903074 0.05132966 0.073877424 -0.06176391 0.20961007 0.08282698 0.038456332 0.15093684 0.18536203 -0.33566436 -0.12211443 0.014464491 -0.02500466 0.24995813 0.016153535 -0.11045306 0.2628643 0.1747647 0.014442892 -0.008354109 -0.011426969 -0.32940492 0.17382477 0.20672183 0.21214631 -0.12182139 -0.38293213 0.14689516 0.044562742 -0.026903085 -0.1544062 -0.18026026 -0.24618831 0.1882177 0.039728913 0.08388976 0.041384544 0.012669381 -0.10776322 0.10613353 -0.5130399 -0.15333082 -0.023423303 0.12896125 0.42155367 -0.06740372 -0.10015562 -0.07528903 0.023195736 -0.17644519 -0.100826025 -0.12908633 0.036006503 -0.0090593705 -0.10214593 0.33516395 -0.13747244 -0.3717031 0.14856008 0.046602912 0.031032363
43 -0.21330112 0.02884465 0.26047462 -0.12557542 0.045271475 0.085836075 -0.061368868 0.19967137 0.07818871 0.04538992 0.15744005 0.18282536 -0.32578185 -0.11797821 0.023229223 -0.030341351 0.24795549 0.014390749 -0.11187774 0.2610327 0.1839999 0.019588443 -0.0036232146 -0.012006528 -0.32457834 0.17947794 0.21722949 0.19623226 -0.12210396 -0.37424576 0.14943549 0.043615006 -0.026912734 -0.16261722 -0.17455721 -0.2547042 0.18109585 0.040103592 0.08884352 0.045600973 0.00737802 -0.11496368 0.103606485 -0.5052148 -0.16050364 -0.01681594 0.13702706 0.41002822 -0.061459765 -0.103107326 -0.074709035 0.015912393 -0.16168343 -0.0933996 -0.115412496 0.021098536 -0.019968713 -0.106827445 0.33824447 -0.12839782 -0.35635552 0.13951272 0.033773508 0.031271446
94 -0.20878099 0.020562986 0.2572557 -0.12494377 0.05271758 0.07811656 -0.05494249 0.21216995 0.080873415 0.050926756 0.15226078 0.18385066 -0.33602944 -0.11571143 0.01339721 -0.037443902 0.24184966 0.012794904 -0.12342567 0.25490108 0.18437697 0.023055246 -0.009808861 -0.023320798 -0.32918578 0.1855995 0.21080887 0.19819172 -0.12322464 -0.36300063 0.14896512 0.054575812 -0.0211313 -0.16011871 -0.17957348 -0.25743333 0.17940824 0.033867385 0.09126195 0.05401275 0.0059865434 -0.10804664 0.11519559 -0.5090144 -0.15387632 -0.012015228 0.13482298 0.41594288 -0.06967188 -0.09174787 -0.08259747 0.019574678 -0.16736372 -0.101726055 -0.123635635 0.031471763 -0.010116453 -0.1022919 0.32640135 -0.12182607 -0.3662521 0.15253419 0.04449992 0.030887326
31 -0.20254411 0.022512902 0.25375855 -0.12636533 0.050999846 0.08135171 -0.070903465 0.21187468 0.079317264 0.047284815 0.14738673 0.1907156 -0.3373245 -0.10966787 0.02228627 -0.023697803 0.24088258 0.0030675556 -0.11133234 0.26851165 0.18324882 0.026581516 -0.017002443 -0.011658773 -0.33370823 0.17162937 0.20050898 0.20166275 -0.10975179 -0.37447083 0.15845394 0.04601874 -0.022415157 -0.16830775 -0.17317988 -0.25428784 0.17090848 0.044066124 0.09011871 0.048243918 0.0070765293 -0.10380222 0.10708762 -0.50818366 -0.15636799 -0.017752672 0.12424701 0.41507083 -0.07122096 -0.09513254 -0.07591547 0.012165378 -0.16838472 -0.09332026 -0.108354904 0.0152219 -0.015367006 -0.1101802 0.3378453 -0.12775181 -0.3582237 0.14800598 0.040666066 0.04643248
28 -0.2146615 0.019569416 0.25900772 -0.13186526 0.048285898 0.08647654 -0.0619103 0.20728838 0.07830157 0.041025292 0.15562621 0.18839511 -0.3252099 -0.116876855 0.024147302 -0.035326634 0.25366497 0.004259354 -0.11133997 0.25007775 0.18731105 0.018856904 -0.009614954 -0.024533315 -0.33888972 0.17567202 0.21122189 0.19035551 -0.118859254 -0.36574966 0.1566852 0.049430378 -0.029578019 -0.16786715 -0.17966694 -0.24807675 0.18048693 0.03626912 0.08175015 0.044706076 0.0005485783 -0.10571734 0.09680345 -0.49392977 -0.16200803 -0.020233711 0.13105886 0.407688 -0.06294267 -0.09294648 -0.07876986 0.0038857558 -0.16024086 -0.09784199 -0.13071364 0.028492156 -0.02091765 -0.104315005 0.33652282 -0.117419764 -0.36251536 0.15402943 0.04196722 0.037478726
37 -0.2015335 0.011424557 0.26073694 -0.12961148 0.044717446 0.08615758 -0.055457935 0.21573442 0.08569937 0.04886434 0.1437493 0.18537948 -0.33617544 -0.12256489 0.016264437 -0.040890425 0.23981994 0.0005844119 -0.11734034 0.26696804 0.18701191 0.026166182 -0.0147924265 -0.023797182 -0.33598158 0.16732877 0.20649265 0.19650717 -0.11573082 -0.36751816 0.15113442 0.052477766 -0.033267483 -0.1616201 -0.17244586 -0.248196 0.17581405 0.036845397 0.08146768 0.05253585 0.0008098029 -0.10376586 0.10045795 -0.5052964 -0.15348499 -0.022959787 0.1373116 0.4037181 -0.055176508 -0.103972256 -0.06779742 0.01808127 -0.15568869 -0.08894048 -0.11436354 0.030215379 -0.0081460215 -0.09629507 0.3338485 -0.1253565 -0.3529927 0.15267323 0.035168268 0.042586207
85 -0.20527504 0.020493262 0.26891878 -0.13773371 0.051540878 0.08143453 -0.05530027 0.20725732 0.08239826 0.045428198 0.15627575 0.18068913 -0.33517373 -0.12228364 0.019804414 -0.024992885 0.24528767 0.009695406 -0.108905904 0.26126352 0.18261527 0.02331707 -0.014140236 -0.023022577 -0.3275107 0.17590399 0.21969828 0.20438465 -0.12239198 -0.37765458 0.15636538 0.0441372 -0.029303601 -0.17192158 -0.18246916 -0.25320894 0.18745655 0.044374265 0.07652001 0.05178839 0.011826292 -0.11586603 0.112433724 -0.50091773 -0.15200464 -0.021509074 0.1375139 0.40707168 -0.070778444 -0.09750717 -0.08032766 0.015682302 -0.17176299 -0.08824434 -0.11155336 0.023655353 -0.01548873 -0.10201653 0.3311371 -0.12533292 -0.35942733 0.1484648 0.036077607 0.041756973
42 -0.2066996 0.021972308 0.26065964 -0.1231905 0.03836633 0.083315454 -0.053867076 0.2136869 0.07991831 0.048897617 0.14376658 0.183403 -0.33622745 -0.11637588 0.019360613 -0.025930567 0.2335736 0.017477142 -0.10969671 0.2612862 0.19409779 0.015703123 0.0022116017 -0.015639089 -0.32735938 0.18323556 0.21022554 0.2067971 -0.1223878 -0.364203 0.14661378 0.04509581 -0.03336746 -0.16137135 -0.18154676 -0.2444341 0.1808431 0.035782587 0.07927277 0.05083068 0.008559249 -0.10921996 0.113215104 -0.49582532 -0.16168848 -0.021290436 0.13064846 0.41986713 -0.07586432 -0.09081822 -0.07429626 0.015558687 -0.16480185 -0.10006331 -0.11831436 0.022458265 -0.016787173 -0.1056726 0.3406165 -0.12844712 -0.35960862 0.1536954 0.0407056 0.037857298
49 -0.20882316 0.019897351 0.26204756 -0.12932682 0.04109939 0.08898131 -0.053692788 0.20331025 0.083491735 0.0441533 0.15195794 0.18645036 -0.34114388 -0.118991055 0.024818804 -0.026712334 0.23605251 0.007916884 -0.11033297 0.25849658 0.18066096 0.011217995 -0.010620787 -0.016330477 -0.33545774 0.18020213 0.21054702 0.20278962 -0.12176826 -0.36527666 0.15528673 0.040606104 -0.019752882 -0.16691057 -0.18597913 -0.25742206 0.1879672 0.036030594 0.0749418 0.037620343 0.001062274 -0.1104553 0.10339461 -0.5023188 -0.15640019 -0.011808577 0.12485953 0.41619152 -0.069664486 -0.09407625 -0.077162564 0.016824147 -0.17000805 -0.10431227 -0.1145184 0.031543504 -0.02357746 -0.1056741 0.3428845 -0.12483797 -0.36445215 0.14773324 0.033499625 0.036944516
54 -0.20975128 0.018162813 0.25539273 -0.13428667 0.051453672 0.07037245 -0.057895955 0.21663745 0.077335745 0.03963695 0.15198344 0.18415321 -0.33323944 -0.10325976 0.015885727 -0.035207972 0.24613322 0.010155639 -0.119773634 0.27154267 0.18621549 0.026329601 -0.0052538724 -0.025505735 -0.33046925 0.16930136 0.20768853 0.20484123 -0.11537073 -0.37327176 0.15103099 0.043602455 -0.026619254 -0.16815843 -0.18148018 -0.24944244 0.18834616 0.045585662 0.082111664 0.051320635 0.017911743 -0.103168644 0.11195213 -0.50655705 -0.15515389 -0.014958104 0.13658261 0.41447803 -0.06636152 -0.09312816 -0.08030711 0.017086461 -0.17346819 -0.090247095 -0.11046624 0.021362929 -0.014669547 -0.109684244 0.3356515 -0.12196285 -0.35434094 0.15933663 0.03212664 0.049729135
46 -0.2232793 0.016700018 0.25864652 -0.13385674 0.040547203 0.079568855 -0.06608902 0.21838178 0.085647814 0.0424251 0.14864068 0.19235355 -0.33408776 -0.107168384 0.021246132 -0.027926408 0.2500406 0.0007011637 -0.105422914 0.27136165 0.1773171 0.0224298 -0.009020149 -0.014959079 -0.32839912 0.181483 0.21737693 0.2086659 -0.107509285 -0.37569812 0.14643252 0.054320194 -0.028690094 -0.1586899 -0.17452735 -0.25913954 0.1706079 0.032012563 0.08614523 0.040113125 0.008291774 -0.100455076 0.10155652 -0.5053271 -0.14619029 -0.022477228 0.12465297 0.40942317 -0.05526798 -0.10267258 -0.072022356 0.020013344 -0.1605855 -0.089182675 -0.12064294 0.032873295 -0.021868505 -0.108104095 0.32977238 -0.12639786 -0.3644455 0.14508633 0.039833788 0.03426898
57 -0.22077309 0.013636954 0.25781873 -0.13597366 0.041743554 0.08523035 -0.06433225 0.21297123 0.08511873 0.039024625 0.15807791 0.18249956 -0.34020337 -0.11670097 0.026893208 -0.032170404 0.23872292 0.0062700156 -0.117808975 0.2674171 0.18219395 0.0142792445 -0.01158218 -0.025955033 -0.3249692 0.17926078 0.21346247 0.19517957 -0.1224941 -0.3733898 0.15417498 0.0521956 -0.021246694 -0.15854107 -0.16742992 -0.26050046 0.18558232 0.032420393 0.08653591 0.04688019 0.008591237 -0.10858855 0.105678335 -0.50449544 -0.14694 -0.016128993 0.12093287 0.4109109 -0.06784519 -0.09755055 -0.0780431 0.011730597 -0.17446278 -0.09638216 -0.12084402 0.03483746 -0.022432782 -0.10947676 0.3409675 -0.11966535 -0.36407152 0.1543587 0.04561074 0.031020006
68 -0.21486513 0.026182586 0.26047888 -0.13508227 0.047822155 0.07325389 -0.070237406 0.21984906 0.08837318 0.05378997 0.15225945 0.19292723 -0.32469276 -0.11289528 0.016352605 -0.026812127 0.2409726 0.007259085 -0.11717923 0.25918347 0.1744268 0.016725399 -0.012454534 -0.018672753 -0.32316294 0.18079972 0.20884466 0.18770523 -0.12365194 -0.36725032 0.15543748 0.043227263 -0.029468868 -0.15510799 -0.17593127 -0.24937844 0.17971735 0.033855177 0.078188255 0.04308274 0.0117338095 -0.10778673 0.092797376 -0.4985521 -0.1595455 -0.010755611 0.13278253 0.40762132 -0.06666253 -0.10536627 -0.083238386 0.016997302 -0.1631949 -0.10220147 -0.11280073 0.02774985 -0.015020858 -0.10099727 0.33459538 -0.123643994 -0.35419935 0.14944424 0.03598105 0.033112273
10 -0.2216449 0.034264438 0.27152687 -0.12323239 0.04153551 0.08667019 -0.072445475 0.21754855 0.087309055 0.05171422 0.13840581 0.1772012 -0.337755 -0.12307208 0.02105459 -0.037889052 0.24481682 0.008660058 -0.10999993 0.25888556 0.17263249 0.016331773 -0.00069269264 -0.014866119 -0.33844885 0.17023917 0.2104068 0.19551237 -0.11198079 -0.37070772 0.14688973 0.04418071 -0.020774547 -0.16865282 -0.16825202 -0.25761786 0.16967244 0.04546703 0.07197731 0.044629145 0.01620123 -0.10746216 0.10218939 -0.5015577 -0.14686978 -0.009810852 0.12668224 0.41461635 -0.062155083 -0.099633895 -0.07845774 0.016883165 -0.1654231 -0.08291472 -0.12721881 0.02942698 -0.022895975 -0.107143134 0.33768815 -0.12039632 -0.34844592 0.15844107 0.048599698 0.04156095
3 -0.20095053 0.025978355 0.25148684 -0.13856325 0.044443037 0.0856006 -0.058038957 0.21272458 0.09018366 0.047946956 0.14774306 0.18105109 -0.3396826 -0.106585756 0.020367393 -0.03024707 0.2476005 0.004810721 -0.11617589 0.26264158 0.18503666 0.010185206 -0.0035840163 -0.025889127 -0.3379826 0.17047967 0.21357253 0.2049841 -0.11840213 -0.3735509 0.14630888 0.054675117 -0.020331074 -0.16725497 -0.16970536 -0.25155723 0.191768 0.041282963 0.07602294 0.057153337 0.011189526 -0.108127564 0.115354575 -0.5100093 -0.14719175 -0.017121123 0.13136402 0.4097319 -0.07035115 -0.10486943 -0.08330702 0.016013935 -0.16664647 -0.099129125 -0.12793972 0.025673643 -0.014128239 -0.10831614 0.3325195 -0.12711571 -0.3615032 0.15930016 0.045714397 0.035313446
97 -0.22309883 0.021329245 0.25819895 -0.12877525 0.04774636 0.07397533 -0.0670722 0.21660566 0.09111838 0.05168867 0.15131494 0.19623941 -0.32922468 -0.1162594 0.015441326 -0.03468139 0.24202645 0.012206045 -0.10917299 0.27224302 0.18875347 0.019334918 -0.015510966 -0.011842202 -0.33943194 0.1811611 0.2147784 0.19677353 -0.12262367 -0.3787119 0.14856383 0.0446276 -0.034687582 -0.1594313 -0.18399008 -0.24754076 0.17439674 0.03038357 0.08712202 0.040389646 0.0016683158 -0.11338449 0.10726553 -0.50127333 -0.15123759 -0.0244131 0.12674417 0.41470775 -0.061875973 -0.09626594 -0.07507057 0.007172466 -0.15885209 -0.09252918 -0.12907909 0.03236804 -0.02129551 -0.0966226 0.3412603 -0.12919946 -0.37203273 0.14065118 0.039558586 0.040087003
35 -0.2274977 0.02343738 0.27457675 -0.13710372 0.052703764 0.08410721 -0.07345243 0.22095725 0.087831154 0.044518813 0.15777856 0.19087112 -0.32958028 -0.1088318 0.006894317 -0.02422657 0.24429789 0.003310203 -0.11154765 0.25744128 0.19020946 0.016830588 -0.0065361275 -0.017533265 -0.32479993 0.1696813 0.20506573 0.20421892 -0.11173675 -0.37779218 0.1557785 0.041697916 -0.02273223 -0.1712077 -0.1732711 -0.25960308 0.18372566 0.03863196 0.08697837 0.048864584 0.01145811 -0.10300992 0.09826067 -0.5063832 -0.15793607 -0.012747223 0.12409616 0.42466635 -0.068690814 -0.10358348 -0.0773839 0.014741445 -0.17626059 -0.09028998 -0.12062593 0.031283535 -0.015533746 -0.09951551 0.32993877 -0.124633096 -0.36458284 0.14514302 0.04234929 0.042289402
71 -0.20896652 0.018431889 0.25924957 -0.1334818 0.045450635 0.087587215 -0.06053591 0.21505922 0.08689804 0.043712128 0.15479639 0.18764558 -0.34247422 -0.11666001 0.02072338 -0.033420984 0.24113093 0.0069568777 -0.11361059 0.26834267 0.17243393 0.013979034 -0.0058912626 -0.02212441 -0.3277112 0.17567348 0.20387024 0.19530469 -0.11408539 -0.3738754 0.14505279 0.054089397 -0.027934687 -0.15825367 -0.1778891 -0.25074583 0.18411897 0.03921163 0.07621633 0.0434915 0.01409091 -0.09702229 0.10284298 -0.5029827 -0.15884015 -0.022444816 0.13051435 0.4106541 -0.05805066 -0.101802245 -0.08520299 0.021322249 -0.1687066 -0.09323891 -0.12131525 0.021142866 -0.006601155 -0.1107915 0.3379499 -0.124572344 -0.37033284 0.15487806 0.043758303 0.0406235
2 -0.21792223 0.011943693 0.26068446 -0.12387222 0.039030433 0.07529812 -0.062204003 0.21228431 0.085664004 0.03828325 0.15282613 0.19566174 -0.33575118 -0.108719155 0.022887317 -0.026091706 0.233378 0.009831025 -0.11859966 0.25467032 0.18184534 0.009626096 -0.0054170424 -0.013743229 -0.33264092 0.17732988 0.21119614 0.19982123 -0.10705609 -0.37383768 0.16121909 0.05152049 -0.033517387 -0.1650744 -0.17244188 -0.25278246 0.1747006 0.036071464 0.07605984 0.04837683 0.008570527 -0.11589533 0.10885966 -0.5088781 -0.1578984 -0.016972756 0.14192767 0.4119675 -0.0667855 -0.101875715 -0.085140295 0.0070342235 -0.16136888 -0.101849645 -0.12382547 0.02578475 -0.0156266 -0.10660424 0.34123582 -0.12430189 -0.36660135 0.1509822 0.032790918 0.04527805
87 -0.207691 0.025020681 0.25057524 -0.119053245 0.045695834 0.081662856 -0.056998406 0.21213512 0.07669701 0.04272899 0.14657779 0.18833058 -0.34036887 -0.11228483 0.020096172 -0.02209665 0.2420549 0.00013762845 -0.11698206 0.2583215 0.18040583 0.028313478 -0.0063579194 -0.025454404 -0.326502 0.1671593 0.21291754 0.20001724 -0.108570926 -0.3645962 0.16133682 0.047478266 -0.025981806 -0.15783098 -0.18049797 -0.25511906 0.17088366 0.04267926 0.083213806 0.043712433 0.0056735054 -0.107312426 0.11149289 -0.49872592 -0.16222203 -0.01967679 0.12611975 0.40432522 -0.06429828 -0.103260614 -0.07494589 0.0066420506 -0.16531178 -0.09693722 -0.12075069 0.02243116 -0.024417354 -0.10273457 0.3306692 -0.118660115 -0.34882045 0.14285108 0.038155537 0.033616208
69 -0.21708436 0.016526805 0.26527852 -0.12564819 0.048396997 0.08213395 -0.05784975 0.21546185 0.07721826 0.043928213 0.15590726 0.19651933 -0.32772586 -0.109663755 0.015135857 -0.024665441 0.23339796 0.0063902503 -0.10932148 0.25663048 0.19013533 0.02156226 -0.004019233 -0.019109644 -0.33453792 0.1716071 0.20588832 0.20796311 -0.121653765 -0.3683181 0.14602461 0.056447398 -0.03689288 -0.16330567 -0.17739138 -0.25389278 0.18966168 0.04497487 0.091240175 0.04698785 0.010246816 -0.10975068 0.098810054 -0.5000938 -0.15797094 -0.024709227 0.13379513 0.41529968 -0.060465842 -0.096027665 -0.066924624 0.00632965 -0.16615994 -0.09944918 -0.12222847 0.030726442 -0.024240341 -0.09701514 0.33802164 -0.12942901 -0.35204265 0.14971021 0.03691156 0.04249039
90 -0.21550162 0.021875832 0.26226604 -0.12631583 0.0395947 0.075750515 -0.055884153 0.20725206 0.09046824 0.048678048 0.15249395 0.17920884 -0.3411891 -0.122674085 0.022671407 -0.034954056 0.247907 0.011605893 -0.11678831 0.25715068 0.1700688 0.01962454 -0.016702142 -0.01307752 -0.33768156 0.18166265 0.21229397 0.19919714 -0.114526235 -0.36799693 0.15487917 0.042638697 -0.028419055 -0.15972275 -0.17501388 -0.25601566 0.18567443 0.03576138 0.08920793 0.05444748 0.012490544 -0.107063495 0.09891972 -0.505728 -0.15671937 -0.013406787 0.13294809 0.42063814 -0.059106614 -0.10014508 -0.0719704 0.0054072957 -0.16780218 -0.09358179 -0.12443251 0.030092744 -0.022141999 -0.094639696 0.33327675 -0.12622003 -0.37023923 0.15732013 0.049960926 0.031001585
11 -0.20427471 0.016845593 0.26188806 -0.115722276 0.04514623 0.07021751 -0.061037578 0.20207058 0.075659305 0.03843963 0.148881 0.18398382 -0.32259667 -0.106949456 0.0071903677 -0.037006192 0.24575537 0.00783826 -0.10965777 0.25575256 0.17531717 0.02809967 -0.007433861 -0.027940175 -0.336842 0.1681043 0.21243142 0.20189838 -0.109806806 -0.37443793 0.1500614 0.057998907 -0.02976966 -0.17050917 -0.17932308 -0.23832065 0.18002503 0.0300024 0.0825223 0.05256791 0.004452159 -0.11083885 0.117096074 -0.5027995 -0.15067379 -0.023651607 0.13179201 0.40530044 -0.061785948 -0.09088708 -0.07554258 0.013877243 -0.16048001 -0.09674453 -0.116318025 0.028616803 -0.017244387 -0.09465222 0.33641645 -0.1189711 -0.35035643 0.14239886 0.04646284 0.03704436
58 -0.21586888 0.02347691 0.2656817 -0.13760376 0.04986369 0.074572526 -0.06919341 0.2025666 0.077144906 0.040287245 0.15303983 0.19110489 -0.33747512 -0.10641739 0.024883728 -0.02954609 0.23854233 0.013172624 -0.117686 0.26176527 0.1878417 0.023079067 -0.0038820386 -0.022903202 -0.33553717 0.1795025 0.20268519 0.19980982 -0.118963435 -0.36619216 0.15271549 0.043213468 -0.034607965 -0.15746151 -0.1789939 -0.25144064 0.19028594 0.029422034 0.080487825 0.038071465 0.0043876786 -0.1104432 0.0976524 -0.5030669 -0.15468477 -0.018265378 0.12713264 0.41850966 -0.071796596 -0.08647327 -0.071050376 0.014560085 -0.17406037 -0.09766114 -0.12503177 0.032252245 -0.016293643 -0.10082783 0.33362007 -0.1296551 -0.36846715 0.15277174 0.04778405 0.035829872
55 -0.20888583 0.026090585 0.24858248 -0.121095195 0.034264613 0.068596296 -0.06868132 0.21574791 0.07600933 0.043115303 0.15514793 0.18884842 -0.33284152 -0.12239725 0.011889696 -0.033724662 0.23246114 0.009075517 -0.12077665 0.25499794 0.18576856 0.01731101 -0.015047301 -0.028557548 -0.33936855 0.17008738 0.2113292 0.19811103 -0.109128505 -0.37364587 0.14973575 0.042217016 -0.031437356 -0.15739936 -0.1754073 -0.2429261 0.1763048 0.044150516 0.07752603 0.047500793 -0.0024834666 -0.10858605 0.10951644 -0.4988489 -0.16203234 -0.02746331 0.12800144 0.41880792 -0.06308966 -0.092135705 -0.07892017 0.02060571 -0.17785068 -0.0887106 -0.11996576 0.030128129 -0.012209155 -0.106192194 0.33832937 -0.12442466 -0.35585302 0.15224904 0.030658424 0.032870308
9 -0.20295702 0.019525787 0.25529286 -0.13071577 0.039899305 0.08123268 -0.066977255 0.21692461 0.08274836 0.05377161 0.15053485 0.17995359 -0.3333496 -0.113057405 0.00994633 -0.024216186 0.24828087 0.014618216 -0.112205304 0.27248886 0.17768247 0.016172878 -0.014219389 -0.017707888 -0.34147832 0.17181659 0.21665628 0.19941734 -0.12233346 -0.37527072 0.15272598 0.0446915 -0.03287257 -0.16674015 -0.17472395 -0.24992746 0.1793125 0.044987585 0.08277018 0.042421732 0.009092009 -0.107805416 0.1014782 -0.5080981 -0.1582682 -0.024898281 0.12987109 0.40371057 -0.06842315 -0.10165845 -0.080190584 0.018146116 -0.15666781 -0.099953905 -0.12645705 0.032063484 -0.0077614444 -0.109563954 0.34031388 -0.121490866 -0.35582858 0.14611472 0.045260984 0.037723206
44 -0.21104954 0.015174469 0.24981828 -0.1318778 0.04036732 0.07665298 -0.06747731 0.21077195 0.08652208 0.031829044 0.1524735 0.17793304 -0.32417288 -0.11919123 0.02067636 -0.032334127 0.24060316 0.0024390738 -0.11779316 0.26576075 0.17359234 0.017518718 -0.01494337 -0.020599114 -0.34110782 0.18071876 0.21759014 0.20294946 -0.12173107 -0.37967896 0.1553675 0.052474786 -0.02718262 -0.16756546 -0.16701774 -0.2548105 0.17943847 0.034219146 0.08712749 0.04799938 -0.0006583025 -0.108622715 0.10765884 -0.50541705 -0.15225878 -0.02456959 0.1219095 0.41759065 -0.05794663 -0.095071666 -0.077817984 0.011346823 -0.16841091 -0.09823309 -0.1142142 0.033288788 -0.015174812 -0.10883099 0.32764214 -0.11934191 -0.3603032 0.1469651 0.040871236 0.031849
4 -0.21876648 0.015279791 0.26094633 -0.12241466 0.04067444 0.08127803 -0.07043496 0.21871461 0.08263701 0.044151157 0.16148123 0.1914067 -0.3378904 -0.10787408 0.020093057 -0.033826783 0.24533227 0.0018799007 -0.10297231 0.26986563 0.1772876 0.0067211683 -0.008283583 -0.015104921 -0.3367028 0.17809469 0.21288893 0.2082129 -0.10978224 -0.37265643 0.14754534 0.038858663 -0.02403616 -0.16122246 -0.1681368 -0.25442258 0.18816686 0.037296914 0.078239374 0.037074253 0.016947184 -0.1024543 0.11061091 -0.5069925 -0.14843588 -0.017770763 0.12646429 0.40476605 -0.07129892 -0.0932711 -0.081647776 0.012621753 -0.16251613 -0.09011627 -0.11784965 0.019179778 -0.0053432044 -0.108140625 0.33322966 -0.12630281 -0.35752526 0.1546006 0.03789153 0.047892075
59 -0.20442702 0.023920963 0.26972997 -0.13028814 0.05202599 0.07679874 -0.062220734 0.21240027 0.07538829 0.036957316 0.14710413 0.18286197 -0.33189708 -0.11524749 0.013470151 -0.040534507 0.24316815 0.017335232 -0.11422864 0.26615438 0.18727715 0.028446551 -0.002447439 -0.022521727 -0.33501425 0.18250039 0.21078904 0.20763002 -0.12845545 -0.36097357 0.14781448 0.052251216 -0.038774632 -0.16657801 -0.18390907 -0.24316151 0.18505652 0.03087567 0.08077394 0.051444266 0.0062587075 -0.11078442 0.108667 -0.49388152 -0.16349486 -0.022111835 0.1340303 0.40368173 -0.05983305 -0.09277049 -0.08018426 0.008962997 -0.16713314 -0.08971088 -0.1237868 0.03010056 -0.00956129 -0.10195137 0.33511794 -0.12893389 -0.35032967 0.1565274 0.031279944 0.04012389
26 -0.20012285 0.015006149 0.2535938 -0.11719442 0.036776867 0.07689817 -0.062227502 0.19840792 0.0822007 0.036099505 0.14437294 0.18116431 -0.3351633 -0.117938235 0.020363633 -0.02929757 0.23493451 0.013663617 -0.11196079 0.25541854 0.1796403 0.020280752 -0.00706208 -0.013025593 -0.3307865 0.17936023 0.2112847 0.20833552 -0.11267677 -0.3667003 0.14624065 0.043609407 -0.029287936 -0.15942773 -0.17993659 -0.252169 0.18326858 0.038116448 0.09032076 0.048183814 0.014272083 -0.1083875 0.10725756 -0.5073275 -0.14881594 -0.02194381 0.12548772 0.41534522 -0.07272583 -0.09229263 -0.07244561 0.023978503 -0.16645445 -0.09986128 -0.10795133 0.026277121 -0.010611699 -0.1079942 0.32825574 -0.12103326 -0.36784476 0.1549945 0.04134487 0.032700486
21 -0.21222566 0.025953516 0.25215447 -0.119142406 0.048195034 0.0734054 -0.065088 0.2102686 0.0787782 0.04075107 0.14514188 0.18085957 -0.3384612 -0.10825186 0.016593494 -0.026801571 0.24855198 -0.0012110444 -0.111953296 0.2515415 0.19027606 0.026328059 -0.0059173293 -0.011819094 -0.3298289 0.17923671 0.21197155 0.2063947 -0.12545826 -0.37196377 0.15302095 0.050451264 -0.03038745 -0.15882598 -0.17246899 -0.25611627 0.18250562 0.041758854 0.075193964 0.04353286 0.01404051 -0.10807003 0.115147084 -0.50383013 -0.16239339 -0.01850049 0.13369614 0.41540942 -0.069352955 -0.09163142 -0.0795112 0.0041823545 -0.16329694 -0.09348666 -0.1286157 0.031500738 -0.016518824 -0.111164264 0.33912906 -0.13503027 -0.34744656 0.1534833 0.031266276 0.039451275
17 -0.20651232 0.013432521 0.2559096 -0.13276495 0.04992259 0.07480682 -0.06741804 0.20704882 0.080761 0.034792908 0.1553282 0.19077592 -0.3306036 -0.11881942 0.0149252005 -0.028090585 0.24354823 0.0059052887 -0.110298395 0.26346838 0.1748016 0.01257567 -0.0025088778 -0.029031597 -0.32336625 0.17002359 0.21468271 0.1928102 -0.12119185 -0.37512642 0.15707372 0.042771976 -0.033914007 -0.15911439 -0.16616172 -0.24464709 0.19149157 0.030464038 0.077103615 0.048006527 0.004288722 -0.10369897 0.11348289 -0.502287 -0.15352385 -0.016823653 0.12844875 0.4076845 -0.067844324 -0.09404754 -0.08163041 0.013886194 -0.16811031 -0.101933315 -0.11374485 0.020411653 -0.009697421 -0.10679221 0.3379689 -0.12340231 -0.3520371 0.15480529 0.031325173 0.04192641
66 -0.21915492 0.027498195 0.26676202 -0.12771061 0.03792876 0.08136962 -0.058625244 0.21555133 0.078900054 0.037484262 0.15097131 0.19213867 -0.3324986 -0.10718381 0.01828857 -0.026327362 0.24333906 -0.00097144087 -0.104201816 0.25322318 0.19005343 0.009980933 -0.013823634 -0.025653534 -0.33229187 0.16998342 0.21449989 0.20136316 -0.10838239 -0.3655429 0.15688743 0.03929155 -0.03406656 -0.16643725 -0.17253031 -0.25063914 0.17029323 0.028972458 0.07872155 0.04093391 0.0059037236 -0.10119676 0.09991222 -0.5000938 -0.14425725 -0.026137846 0.1305425 0.40607637 -0.058512434 -0.088869214 -0.08092768 0.020239834 -0.16842516 -0.09079797 -0.12596677 0.028358378 -0.0050921123 -0.1009055 0.3362966 -0.1111716 -0.35770154 0.14374018 0.035489224 0.034541406
38 -0.2104531 0.019582782 0.26508886 -0.12045811 0.041275572 0.077598244 -0.055155385 0.2016135 0.085474595 0.041945815 0.14987408 0.18565568 -0.33905107 -0.10532126 0.025395101 -0.020773927 0.2402134 0.0019954918 -0.11986964 0.26554203 0.18657471 0.010635932 -0.016272608 -0.021022156 -0.33445415 0.17815273 0.21373558 0.19790363 -0.11145472 -0.37513307 0.15819032 0.045366444 -0.026825896 -0.15996552 -0.17546627 -0.25845727 0.18136308 0.036454044 0.072839804 0.049037248 0.008684615 -0.10238047 0.09936989 -0.5040081 -0.15748048 -0.024242993 0.13150872 0.41528946 -0.062337272 -0.09007817 -0.07859079 0.0124029275 -0.1569146 -0.103992224 -0.11785075 0.021973705 -0.011346519 -0.10623068 0.34069055 -0.11714127 -0.36212093 0.14142077 0.047516167 0.044922255
12 -0.21323642 0.021467248 0.26193893 -0.13197382 0.04193988 0.08333074 -0.05484802 0.21225469 0.086709104 0.036829565 0.14168307 0.192818 -0.330516 -0.111569926 0.021941878 -0.0376158 0.23571055 0.006481103 -0.1214741 0.26132867 0.1923537 0.026802173 -0.005018774 -0.015524164 -0.34229943 0.1825075 0.20706554 0.19954297 -0.115463994 -0.37555397 0.14879465 0.055281512 -0.027776847 -0.1650094 -0.1748077 -0.24399042 0.18078145 0.036158957 0.07893445 0.040218696 0.009988183 -0.10939065 0.108028434 -0.4988313 -0.15827881 -0.021409914 0.1375471 0.41553846 -0.05669039 -0.099335805 -0.076015756 0.013005532 -0.1672892 -0.10472979 -0.11246562 0.028483968 -0.0126007795 -0.100402564 0.34651482 -0.11655849 -0.3597366 0.14800817 0.035968665 0.039585397
47 -0.21111473 0.016588535 0.26851717 -0.123272136 0.042175245 0.07663104 -0.05793054 0.207056 0.07951767 0.04900155 0.14358608 0.18149015 -0.34205845 -0.11774287 0.01113764 -0.03998129 0.23647895 0.017436372 -0.11486769 0.27071357 0.18855803 0.014482768 -0.0053736577 -0.02304624 -0.3324484 0.17989159 0.21053526 0.19548088 -0.12543374 -0.36566103 0.14428605 0.03829669 -0.025638493 -0.16121961 -0.17677638 -0.24743713 0.1850911 0.03828701 0.0818252 0.049014073 0.008476416 -0.10837455 0.099781655 -0.5044692 -0.16066338 -0.022640742 0.13673939 0.41536662 -0.063884266 -0.1026062 -0.06937286 0.0136522325 -0.17071097 -0.08922979 -0.11515475 0.027181357 -0.018220613 -0.10170606 0.33139247 -0.1304909 -0.36507782 0.14904751 0.045128636 0.04067869
92 -0.2092276 0.014522166 0.2521468 -0.1308567 0.04404869 0.07442704 -0.05598956 0.21013695 0.087493464 0.039673567 0.15222378 0.19269359 -0.33869883 -0.119252004 0.019139742 -0.031843502 0.23148037 0.012323039 -0.110758185 0.2605059 0.17544562 0.013398598 -0.014222051 -0.023477256 -0.33429965 0.17976299 0.21066833 0.2087405 -0.103034824 -0.37322006 0.15983209 0.048316065 -0.03230833 -0.15281396 -0.18315645 -0.25156143 0.18767828 0.038421303 0.07358953 0.04724902 0.005763058 -0.10376829 0.11259551 -0.5026869 -0.15369776 -0.021359887 0.13838172 0.4083854 -0.05707627 -0.103189036 -0.074953295 0.0046087657 -0.17009336 -0.092111506 -0.120222874 0.035055216 -0.005609113 -0.10027434 0.33628947 -0.11949837 -0.36997417 0.15718453 0.046275124 0.038778003
80 -0.21244694 0.029499598 0.27304265 -0.12093873 0.04569817 0.07186562 -0.06031736 0.20509355 0.084307775 0.045711655 0.14902362 0.18910512 -0.33022898 -0.12186708 0.009965734 -0.03608571 0.24602275 0.0025618272 -0.11985418 0.26815885 0.19079281 0.023662688 -0.0046227393 -0.023384463 -0.331028 0.17626595 0.20091537 0.19680095 -0.12312841 -0.36642992 0.15852238 0.040061023 -0.036498554 -0.1585582 -0.17574206 -0.24706471 0.1853595 0.045028884 0.08614233 0.05001164 0.004840343 -0.101112634 0.10397967 -0.51536363 -0.15211052 -0.013038536 0.13424641 0.40988225 -0.06508289 -0.086795844 -0.07566892 0.013494623 -0.16541612 -0.096731 -0.12888323 0.020215914 -0.0095931245 -0.09577492 0.3310161 -0.13027315 -0.35404617 0.15495439 0.039066777 0.04869607
79 -0.21032344 0.01519746 0.26112625 -0.12851049 0.0399534 0.07424503 -0.06086284 0.22161439 0.08047461 0.034893308 0.15451507 0.18893209 -0.33479282 -0.121224545 0.024922961 -0.033198465 0.24860276 0.008735287 -0.115426935 0.2628229 0.1859209 0.017149465 -0.016484383 -0.022601541 -0.33509916 0.17128351 0.2154583 0.2054422 -0.11612264 -0.3679357 0.14487422 0.04136623 -0.034601923 -0.17129268 -0.17631634 -0.24112666 0.18571588 0.03777266 0.087025434 0.041803524 0.0047828746 -0.102994435 0.10036778 -0.5053751 -0.15710668 -0.02801386 0.1334341 0.41492563 -0.06934826 -0.09030681 -0.079343334 0.020129355 -0.17399211 -0.103770345 -0.114045136 0.030788906 -0.016974267 -0.102000006 0.33807048 -0.120985486 -0.3611685 0.1403385 0.045350514 0.028902048
60 -0.20290187 0.022642028 0.26235613 -0.1163604 0.05109272 0.08108409 -0.059755847 0.20736489 0.075274214 0.039069735 0.15178221 0.18804303 -0.3319432 -0.11314617 0.013328478 -0.025561895 0.24590032 -0.00086979853 -0.12027145 0.26240668 0.1806036 0.028400943 -0.022420581 -0.018948575 -0.33023074 0.18149048 0.20420465 0.19834617 -0.11347106 -0.3776173 0.15815446 0.050423425 -0.023333566 -0.163147 -0.18108411 -0.25385156 0.17612793 0.041210975 0.083496414 0.044187803 0.006102898 -0.101639636 0.098727 -0.5115519 -0.15519898 -0.014208954 0.12732959 0.403498 -0.06148796 -0.09509914 -0.07143196 0.01925012 -0.1587548 -0.088684805 -0.10862028 0.0242912 -0.008942935 -0.105524406 0.32377174 -0.11994941 -0.36364004 0.14039195 0.04346686 0.040922966
19 -0.20967746 0.024885023 0.25831747 -0.12706698 0.04157755 0.087530136 -0.061487414 0.21129444 0.08086778 0.04088377 0.15438561 0.19504999 -0.33005956 -0.11555757 0.0038857057 -0.037731223 0.24341817 0.007501134 -0.10669393 0.25925153 0.18368648 0.018487489 -0.0011963847 -0.01653812 -0.326327 0.17962441 0.21048562 0.2072592 -0.11506151 -0.35951066 0.14678039 0.04823637 -0.036222115 -0.17225909 -0.16894816 -0.25491798 0.18403938 0.037953563 0.094841495 0.05146471 0.006723864 -0.11418564 0.11210386 -0.50241363 -0.15655039 -0.018122861 0.13329132 0.40887865 -0.07164322 -0.08978717 -0.07289636 0.007527383 -0.16503045 -0.09116168 -0.124252446 0.03463424 -0.018123709 -0.097471535 0.32992825 -0.12866324 -0.3558433 0.15398446 0.042909756 0.047513522
75 -0.22276786 0.011566386 0.2640757 -0.13285704 0.03841018 0.083314456 -0.06887549 0.21357325 0.082042836 0.04705448 0.16129617 0.18660386 -0.33734444 -0.11741184 0.012261202 -0.028785774 0.24572407 0.005934606 -0.11158656 0.27161768 0.1771262 0.0149862245 -0.009779066 -0.027927611 -0.32786182 0.17128511 0.21871486 0.20622946 -0.12144771 -0.36652496 0.15987037 0.04395026 -0.027280923 -0.1693543 -0.1681974 -0.24765952 0.17892848 0.030405464 0.08864514 0.04475506 0.003174033 -0.1019426 0.10824255 -0.498385 -0.16400456 -0.012528804 0.12897523 0.40817812 -0.0593374 -0.09615331 -0.07970104 0.009322616 -0.17031734 -0.08702373 -0.1264715 0.021642938 -0.01285574 -0.099158935 0.327068 -0.12742254 -0.3639342 0.15764956 0.038517483 0.04588055
72 -0.21667041 0.017185606 0.27017358 -0.1417039 0.049042065 0.080807485 -0.057293434 0.2158141 0.084792286 0.038845748 0.15000176 0.198591 -0.33473048 -0.10309885 0.015127048 -0.028530428 0.24109438 0.0043551135 -0.1205138 0.26601434 0.18773906 0.016002646 -0.0037187277 -0.02522556 -0.33404556 0.17837404 0.20951608 0.20333555 -0.11906446 -0.37510097 0.16055089 0.05839499 -0.034916256 -0.1571411 -0.17953321 -0.25270912 0.1946823 0.029909706 0.08892414 0.044326086 0.0038277279 -0.10238567 0.105770685 -0.5081738 -0.16209379 -0.011932952 0.13206205 0.41648543 -0.071363986 -0.09496692 -0.072725475 0.016833827 -0.16267216 -0.100009546 -0.12954007 0.025761597 -0.006059256 -0.113744654 0.33621192 -0.12595971 -0.36667106 0.14197141 0.038799424 0.040388975
67 -0.20966415 0.024719458 0.25759128 -0.13526069 0.042194158 0.08124757 -0.06449943 0.20023891 0.083007105 0.04611003 0.15361194 0.17326339 -0.33539245 -0.122658126 0.008092472 -0.024954544 0.23835666 0.0016419779 -0.11989189 0.26223537 0.16687231 0.026214624 -0.01198112 -0.016277963 -0.3380996 0.17243856 0.21346445 0.19101062 -0.12255498 -0.36375085 0.15389097 0.048914775 -0.018338224 -0.16850466 -0.1681489 -0.24882486 0.18581139 0.039573237 0.083807506 0.047036413 0.002196486 -0.104239404 0.10042418 -0.5018358 -0.15331417 -0.021410277 0.14105017 0.41545248 -0.056725338 -0.098267816 -0.07633894 0.018584805 -0.16845565 -0.092041455 -0.11695811 0.032292165 -0.0128253745 -0.110010535 0.33354223 -0.13231224 -0.36095214 0.15468183 0.052410528 0.032564633
62 -0.21476746 0.02435075 0.26054898 -0.13348626 0.041598193 0.07357782 -0.06755695 0.21178763 0.08377042 0.039105054 0.15311944 0.19148816 -0.33484665 -0.12107889 0.025971659 -0.028250895 0.23544963 0.014996486 -0.112558894 0.2544531 0.17155443 0.018409712 -0.01458863 -0.0134312725 -0.33180386 0.16996834 0.21068689 0.19758314 -0.11908456 -0.38358286 0.16295116 0.054795474 -0.02815647 -0.1556382 -0.17229678 -0.24482426 0.18544053 0.04583973 0.0889293 0.053241562 0.009962705 -0.101617806 0.10544412 -0.50728136 -0.1550593 -0.011136649 0.14003697 0.40432853 -0.064524926 -0.10151272 -0.06984316 0.018688522 -0.16268933 -0.10458746 -0.112665944 0.027341107 -0.016908446 -0.1075258 0.3363516 -0.124052115 -0.35964775 0.1616112 0.045437407 0.032313313
61 -0.20879337 0.024644213 0.2587701 -0.12549618 0.04205914 0.07062878 -0.06323315 0.2129085 0.07493346 0.043957014 0.14784616 0.18545139 -0.335509 -0.11557773 0.02549628 -0.03625394 0.24777201 0.013778043 -0.117738836 0.25815046 0.18243119 0.02098412 -0.007819983 -0.023380913 -0.33698085 0.1726093 0.20230693 0.20999666 -0.11454235 -0.3734978 0.15532304 0.049066402 -0.029428113 -0.16402198 -0.17794292 -0.2513475 0.18622774 0.04280148 0.082995154 0.042720705 0.0141486935 -0.10536423 0.10567857 -0.4931198 -0.16232735 -0.02450384 0.12625542 0.41387135 -0.061243035 -0.09547163 -0.068466 0.009127617 -0.16104315 -0.08973321 -0.12186706 0.023990981 -0.011539837 -0.108548775 0.345286 -0.1337329 -0.34963518 0.15465756 0.029966844 0.031361908
81 -0.2095002 0.022091227 0.253435 -0.11982304 0.04779792 0.07009829 -0.06188634 0.20872232 0.08615038 0.042231403 0.13949463 0.19401138 -0.33556184 -0.121570304 0.009136105 -0.033940345 0.2429411 0.0072807814 -0.107087955 0.25607088 0.18583578 0.017476907 -0.007883442 -0.016189829 -0.33613992 0.16400045 0.20168361 0.20297548 -0.11959597 -0.36807308 0.15790321 0.03769572 -0.026191935 -0.16377379 -0.17081518 -0.24920388 0.18276194 0.044650275 0.074044965 0.052641656 0.01424003 -0.09765158 0.10447355 -0.50299877 -0.16081588 -0.018941589 0.13145657 0.41737545 -0.06835122 -0.10396311 -0.07508865 0.0058247643 -0.17062809 -0.100526646 -0.114271194 0.027150286 -0.02365338 -0.10309574 0.33207634 -0.12658308 -0.36037412 0.1504044 0.034040034 0.03550836
34 -0.21479727 0.014030856 0.2646873 -0.12585397 0.04893144 0.07831931 -0.07029829 0.20266233 0.086452425 0.049622033 0.14102188 0.17705166 -0.32542786 -0.11174316 0.01933989 -0.033587206 0.24233982 0.015053866 -0.111763105 0.27094972 0.16913705 0.025926156 -0.010491979 -0.019375917 -0.32521468 0.1817566 0.1997363 0.20514345 -0.12534522 -0.37350744 0.16315028 0.039624564 -0.023624603 -0.15812194 -0.17651552 -0.24771844 0.17949116 0.04686719 0.08195949 0.042229775 0.009907291 -0.11006197 0.10458082 -0.51148397 -0.15349834 -0.01241413 0.125747 0.4131846 -0.06592859 -0.10660905 -0.07886661 0.006653873 -0.15232314 -0.09917849 -0.116704926 0.02488935 -0.020155108 -0.0971553 0.33194935 -0.11756274 -0.36377886 0.14695884 0.04084807 0.042469002
51 -0.20742184 0.016398234 0.2530219 -0.12165978 0.04437133 0.08402549 -0.06143892 0.21687336 0.082085244 0.043205738 0.14256652 0.18569764 -0.3386983 -0.12302303 0.022930834 -0.038204014 0.24632727 0.015218117 -0.118206196 0.24965793 0.17653626 0.012680687 -0.018498277 -0.012788791 -0.33332974 0.17857029 0.21982786 0.20474572 -0.10970826 -0.36482474 0.1444903 0.048507024 -0.030488675 -0.15859997 -0.1807793 -0.2449106 0.17538132 0.03632526 0.08187305 0.04247271 0.013057644 -0.1047654 0.09289748 -0.49949753 -0.15462807 -0.009313436 0.13489577 0.40703598 -0.06906323 -0.1043058 -0.07338079 0.015801648 -0.17289796 -0.09414656 -0.11084561 0.02296614 -0.018259509 -0.10562089 0.334734 -0.11640124 -0.3596933 0.14329256 0.046515156 0.03342963
22 -0.21115842 0.013046259 0.25038233 -0.12496961 0.03962326 0.07468524 -0.069529235 0.21210083 0.078351445 0.04667512 0.14013772 0.18294917 -0.3325996 -0.111582816 0.01887599 -0.027993338 0.24781506 0.006611244 -0.11074219 0.26302597 0.17883658 0.019259552 -0.013294908 -0.01266942 -0.32869714 0.17680489 0.20730986 0.19339272 -0.114722386 -0.3722321 0.14995337 0.048599157 -0.024979966 -0.15766852 -0.1707001 -0.25238222 0.17519224 0.03851 0.07901866 0.046029724 0.0020707091 -0.107036516 0.10774749 -0.49454644 -0.1517424 -0.021748686 0.13341427 0.41965058 -0.06470249 -0.091652535 -0.070067115 0.013759904 -0.17082456 -0.09525455 -0.115997 0.018834649 -0.010331245 -0.10890227 0.33257303 -0.13556808 -0.36054966 0.14775842 0.036985457 0.04233969
84 -0.20401765 0.027714947 0.26726258 -0.13295549 0.05071429 0.07970964 -0.060281187 0.19930355 0.08597085 0.053700056 0.1646789 0.1906302 -0.33553377 -0.1161401 0.011616876 -0.031642884 0.24240574 0.012780212 -0.1145042 0.2570778 0.18032646 0.02484495 -0.009826582 -0.027088756 -0.33314183 0.18108834 0.21865137 0.19182014 -0.11230371 -0.37745243 0.1579226 0.048951637 -0.028871166 -0.15617673 -0.17807062 -0.25155774 0.18389207 0.041345358 0.08113002 0.05621755 0.004390385 -0.109060004 0.11181031 -0.49217698 -0.15162659 -0.021322811 0.1386753 0.40980038 -0.06486033 -0.098236665 -0.07915925 0.02291961 -0.17221335 -0.08664084 -0.117070936 0.024816923 -0.0053694868 -0.10243595 0.33052588 -0.13357748 -0.36352167 0.15667158 0.040203124 0.038028963
25 -0.20131257 0.027328558 0.25224128 -0.12374392 0.04897281 0.07575285 -0.054891955 0.21377103 0.08096356 0.053137667 0.14566685 0.18074442 -0.32909235 -0.12524424 0.028483286 -0.03373965 0.23366961 0.015844285 -0.12240404 0.26344028 0.17692778 0.024748817 -0.0131754605 -0.023360085 -0.32606864 0.1763116 0.21037154 0.20745787 -0.1084687 -0.37408313 0.1505423 0.051964838 -0.018894415 -0.16527076 -0.17186803 -0.24777193 0.17878242 0.04219753 0.0783268 0.0440725 0.008830267 -0.11062337 0.10271932 -0.51665676 -0.15475431 -0.0154644055 0.12916782 0.41285494 -0.06649895 -0.09849224 -0.079228505 0.02424159 -0.16831355 -0.08919064 -0.11143486 0.017846871 -0.013194566 -0.1035262 0.3288122 -0.114866704 -0.3581049 0.15731241 0.04527129 0.0357321
76 -0.20669664 0.035123423 0.25345623 -0.12982523 0.04162167 0.07335078 -0.061739028 0.21813202 0.073157586 0.03833679 0.15909128 0.1893392 -0.32498622 -0.12055989 0.006948238 -0.033213165 0.23824026 0.006416251 -0.11929136 0.25361297 0.18396476 0.015182435 -0.0054473868 -0.016659755 -0.33634958 0.17784706 0.21842565 0.20474309 -0.11257859 -0.3747331 0.1515894 0.05543294 -0.03822724 -0.16365355 -0.17578399 -0.2536441 0.18410754 0.03785218 0.07289385 0.056291007 0.0025335392 -0.10101473 0.11419561 -0.5003571 -0.16118862 -0.029661575 0.126285 0.41449046 -0.055054598 -0.09242371 -0.08300091 0.009148948 -0.17599863 -0.08933973 -0.12690625 0.035361752 -0.022785805 -0.1026506 0.34071058 -0.117186725 -0.34941941 0.14483142 0.03109752 0.036903
1 -0.20329015 0.026525265 0.26092336 -0.12980598 0.04938579 0.08702213 -0.0648015 0.2141341 0.08853574 0.05060406 0.15316996 0.18270978 -0.32902333 -0.10739136 0.021342406 -0.034853555 0.24551995 0.0033721516 -0.10396816 0.26015663 0.17189592 0.01758609 -0.0024268471 -0.01846243 -0.33216578 0.1704234 0.20270549 0.20310065 -0.10884198 -0.36818174 0.1580961 0.049261548 -0.035126694 -0.15667598 -0.16758338 -0.25202826 0.17514186 0.030233756 0.07183577 0.041464992 0.010725156 -0.101905055 0.098454535 -0.49181998 -0.15032776 -0.008537003 0.1358733 0.41178212 -0.066296585 -0.10177445 -0.077727094 0.009572039 -0.1542379 -0.087892815 -0.1156942 0.019053005 -0.012183964 -0.10729513 0.32192087 -0.12979299 -0.35422203 0.15869674 0.038020443 0.04455272
99 -0.2053008 0.015624818 0.2539232 -0.12944023 0.03926334 0.08607101 -0.061876237 0.22011404 0.085697465 0.0509352 0.14820698 0.17756717 -0.32425174 -0.1146781 0.014828139 -0.024707872 0.23731245 0.007740492 -0.11383364 0.25606048 0.18287583 0.024076937 -0.0009095269 -0.020240443 -0.3292583 0.1649055 0.1983944 0.19464974 -0.12300113 -0.37196255 0.14890112 0.04913475 -0.03342635 -0.15802382 -0.18291816 -0.24056616 0.1814008 0.037339706 0.08953337 0.042815596 0.017132219 -0.09710426 0.11383424 -0.50515246 -0.16134559 -0.019409822 0.131139 0.40992755 -0.065245524 -0.10253728 -0.08472054 0.002117168 -0.16668846 -0.09268339 -0.109963015 0.030042645 -0.021008871 -0.10740151 0.33586642 -0.13139522 -0.35202038 0.15116306 0.040663335 0.044392165
96 -0.21963432 0.02622542 0.25779155 -0.11869105 0.04294641 0.08149712 -0.065825626 0.20547977 0.07675645 0.040819176 0.14325117 0.19347759 -0.34245178 -0.11578501 0.011435703 -0.035471205 0.24820569 0.0047117746 -0.12045477 0.25452155 0.18437062 0.02536659 -0.009439752 -0.014737173 -0.3277728 0.16951314 0.20427616 0.19223078 -0.11254701 -0.36481658 0.15034254 0.05059551 -0.035092223 -0.16649896 -0.17451493 -0.25034562 0.18634284 0.030452715 0.08505311 0.03767761 0.019703273 -0.10769086 0.1053315 -0.5108636 -0.15255138 -0.02172033 0.13108298 0.4084082 -0.06457365 -0.09025226 -0.077930205 0.020824457 -0.17423564 -0.098365046 -0.1268041 0.033315428 -0.008532514 -0.10514897 0.34779328 -0.11896028 -0.36361697 0.14310168 0.039715264 0.030934192
65 -0.21459816 0.01619114 0.27329013 -0.13185193 0.04034713 0.07774348 -0.058064632 0.22027032 0.09336419 0.048805922 0.14474614 0.18347953 -0.33653346 -0.11880368 0.026634036 -0.034922466 0.24864694 0.009130624 -0.116939 0.26835617 0.18254766 0.021602502 -0.012732309 -0.011806574 -0.33184445 0.17569005 0.20756541 0.20721684 -0.12052631 -0.3708011 0.14978357 0.04909204 -0.021605602 -0.15978852 -0.17669739 -0.25528857 0.17403114 0.04189301 0.09199605 0.04198889 0.008810948 -0.10360152 0.10642182 -0.51686734 -0.16054563 -0.015583242 0.123744786 0.41759786 -0.06921737 -0.104030594 -0.07879798 0.016192108 -0.17219968 -0.10164037 -0.111362495 0.030072361 -0.020080047 -0.101538114 0.3287256 -0.12862697 -0.35851413 0.15071268 0.034119923 0.03923679
32 -0.21882422 0.028681083 0.26038334 -0.12757862 0.043952502 0.07151294 -0.060251504 0.20355262 0.08372588 0.040396795 0.16544521 0.18557638 -0.33848625 -0.103740506 0.019665943 -0.028844915 0.24448118 0.0137817105 -0.11143591 0.27059594 0.17791213 0.02465153 -0.0082172975 -0.027650187 -0.33647645 0.17340648 0.21974753 0.20508823 -0.11871961 -0.3761295 0.15285298 0.053205747 -0.04061995 -0.16900717 -0.17904629 -0.25272518 0.1784101 0.042993225 0.083947726 0.03843241 -0.0030554035 -0.10661036 0.100008704 -0.4972444 -0.1528484 -0.023256712 0.12710452 0.40788558 -0.06066686 -0.090940244 -0.07878375 0.01092581 -0.17319004 -0.09902317 -0.116286434 0.025390463 -0.017503364 -0.10120151 0.34253758 -0.13084297 -0.36555308 0.15345205 0.033134576 0.030460095
91 -0.20998095 0.011235362 0.2613581 -0.12025369 0.047192052 0.07846245 -0.06158001 0.20254868 0.085449725 0.042480756 0.14890905 0.18586554 -0.33990374 -0.11030329 0.018286841 -0.026985249 0.24965379 0.005899244 -0.119326964 0.26391265 0.18589082 0.0238216 -0.013330859 -0.018837694 -0.33381614 0.17464034 0.21023688 0.19520351 -0.11155779 -0.37069917 0.14937994 0.04301419 -0.029614294 -0.16349134 -0.16878 -0.25384527 0.18241274 0.02834176 0.08717164 0.05400209 0.0059959823 -0.09943406 0.11171058 -0.50978476 -0.16030647 -0.012672477 0.13510984 0.40884605 -0.057904527 -0.091603786 -0.07382007 0.008250883 -0.16836774 -0.09553216 -0.10933655 0.020220317 -0.019893745 -0.100316614 0.33792666 -0.1254476 -0.35215017 0.15732135 0.03442176 0.044206817
82 -0.22247712 0.020584328 0.2614958 -0.1292306 0.038931355 0.084060796 -0.06279899 0.2199097 0.08665165 0.04649037 0.1444841 0.18358289 -0.3285014 -0.114598155 0.0240353 -0.028251164 0.24165696 0.0077250563 -0.11320619 0.27243522 0.17285453 0.020739272 -0.018204615 -0.023548968 -0.33274144 0.17737418 0.21922217 0.20632425 -0.12253704 -0.37701368 0.15420334 0.04892076 -0.025290143 -0.16792312 -0.17669822 -0.24685128 0.1891431 0.043412574 0.075523004 0.04845012 -3.7989937e-06 -0.096968725 0.103919014 -0.5020787 -0.16384421 -0.017615737 0.12500484 0.42207673 -0.06234473 -0.093821615 -0.08170131 0.019058803 -0.16491562 -0.09480786 -0.111898296 0.032988343 -0.021040278 -0.09727461 0.33525306 -0.121905744 -0.3684284 0.14393115 0.036943037 0.037982576
73 -0.2183465 0.018883428 0.25753525 -0.13152127 0.049124587 0.07768111 -0.07337348 0.21386465 0.08250164 0.045111153 0.14972201 0.19331783 -0.3376304 -0.1067401 0.01485254 -0.02402192 0.24210177 0.0134467315 -0.11138106 0.26800424 0.19215032 0.016157614 -0.0075667948 -0.021902405 -0.33490154 0.17802067 0.20861158 0.20342691 -0.115637906 -0.36567298 0.15906604 0.056463305 -0.037342753 -0.16856405 -0.17566417 -0.25062993 0.17789695 0.041639727 0.08860904 0.035860196 0.01688598 -0.107460134 0.09665902 -0.49711692 -0.15690584 -0.019884646 0.1273268 0.41069216 -0.06792274 -0.09310953 -0.06865893 0.0115891555 -0.15711972 -0.104033746 -0.11842517 0.021342626 -0.010355459 -0.10728991 0.33350706 -0.13350546 -0.35846528 0.14565326 0.02494701 0.041426823
33 -0.20317455 0.021509819 0.26010162 -0.12196753 0.044280972 0.08576273 -0.07228184 0.20902425 0.082698524 0.045799125 0.14754161 0.18630609 -0.33432558 -0.12399685 0.018741958 -0.025877632 0.23817752 0.015113389 -0.11608011 0.2587518 0.18504602 0.01615063 -0.0054333317 -0.01479027 -0.33392307 0.16709137 0.21058072 0.20513938 -0.11622161 -0.3729819 0.1493769 0.0380704 -0.027028516 -0.15979818 -0.18088196 -0.24507703 0.18458237 0.037545033 0.071689814 0.04503036 0.004638258 -0.099390514 0.1105224 -0.5110573 -0.15983446 -0.013761762 0.13044894 0.41973755 -0.070780106 -0.093367316 -0.07507131 0.015962828 -0.16822672 -0.10248901 -0.12327928 0.019298522 -0.0150172645 -0.10439154 0.33323288 -0.1310626 -0.35557982 0.14003162 0.032316685 0.030612275
15 -0.21118744 0.02935637 0.26586595 -0.12962843 0.048369076 0.07200216 -0.06976142 0.21015722 0.08090871 0.043344885 0.14939588 0.17465481 -0.33027276 -0.11568322 0.02476426 -0.03690225 0.24042977 0.0082851155 -0.1051987 0.25241643 0.18804418 0.013703766 -0.016809411 -0.012813783 -0.34045717 0.172551 0.20221207 0.2032265 -0.11287559 -0.37613013 0.15445147 0.05465312 -0.022188589 -0.16490452 -0.18176697 -0.25540012 0.17116602 0.042582262 0.08320127 0.044143572 0.00869155 -0.10912307 0.10272768 -0.4987134 -0.15442544 -0.013442066 0.123617366 0.41200185 -0.055182174 -0.10573392 -0.07070767 0.0102721425 -0.1603771 -0.08989841 -0.116202176 0.023392392 -0.030052181 -0.109920286 0.33469722 -0.13227284 -0.3502412 0.14043088 0.046876714 0.034292914
74 -0.21375278 0.013625185 0.25692764 -0.1281644 0.052429557 0.087136745 -0.074698046 0.21007282 0.081866264 0.042023957 0.14546467 0.18407084 -0.3316999 -0.11801506 0.017218897 -0.022304041 0.2506775 0.00472104 -0.1031305 0.26036516 0.18608817 0.013825943 -0.016367797 -0.016639927 -0.33317506 0.17345244 0.21390703 0.20558421 -0.120025784 -0.3759241 0.15935633 0.046223473 -0.022318343 -0.16431572 -0.17979582 -0.25584006 0.17609935 0.033342 0.092692226 0.044547897 0.0063864565 -0.10646498 0.09505213 -0.5136183 -0.16329196 -0.011900586 0.13057226 0.41896108 -0.057616413 -0.100109115 -0.07159065 0.017877009 -0.1707927 -0.10075358 -0.10957104 0.029571855 -0.02311279 -0.11210225 0.33044177 -0.11822139 -0.36106738 0.14711075 0.051262815 0.043760765
98 -0.21994174 0.019541742 0.26010445 -0.12043641 0.052507233 0.0860254 -0.067242324 0.21741165 0.08669142 0.050932616 0.15128264 0.18894745 -0.33406436 -0.11656156 0.01372436 -0.0244591 0.24585393 0.013295239 -0.10848637 0.25546777 0.17424701 0.015321151 -0.005752722 -0.018881407 -0.3242121 0.1829822 0.21748002 0.20516998 -0.111831464 -0.36057952 0.15851003 0.03909116 -0.025817368 -0.16234864 -0.16920874 -0.25341856 0.17331162 0.04186556 0.086822726 0.03996386 0.008192456 -0.106276475 0.10930366 -0.5065188 -0.1541424 -0.013565177 0.13192211 0.40749562 -0.05894886 -0.09772778 -0.0802838 0.0030611071 -0.15938765 -0.09060067 -0.11907524 0.03604867 -0.019454474 -0.09845841 0.3312785 -0.1252223 -0.35454696 0.15311107 0.04528594 0.044303898
8 -0.20630437 0.027193869 0.27290416 -0.1395536 0.05258076 0.082007915 -0.07180053 0.21468967 0.082820155 0.0538691 0.1518292 0.1933667 -0.325565 -0.099452816 0.025840634 -0.024606558 0.23445171 0.0032766985 -0.10841407 0.26312947 0.18904342 0.018888585 0.0024473285 -0.017476665 -0.324387 0.18124664 0.2043011 0.20574817 -0.1056886 -0.36745104 0.15215063 0.049195044 -0.030395987 -0.1586927 -0.17845428 -0.24127229 0.17857163 0.035319045 0.07095613 0.044618607 0.016532972 -0.113950424 0.11109128 -0.5018332 -0.15909208 -0.020956324 0.12822846 0.41463706 -0.07229131 -0.10332715 -0.08645545 0.006518464 -0.15949264 -0.09737399 -0.111140475 0.02632322 -0.0077746534 -0.10839763 0.3379028 -0.1177798 -0.35528588 0.1383791 0.032524303 0.033622984
95 -0.20573291 0.022200925 0.26115113 -0.11971125 0.055667017 0.08793537 -0.059607606 0.20759422 0.07343219 0.045816742 0.14920089 0.18310425 -0.3342548 -0.11547926 0.022530219 -0.021031326 0.24754326 0.0055797813 -0.10649784 0.2604691 0.1702559 0.012378492 -0.0021330179 -0.021030737 -0.33813494 0.18166871 0.2121626 0.20472762 -0.12057854 -0.3710233 0.14739162 0.042012095 -0.032733023 -0.16299063 -0.17444673 -0.2514365 0.1792782 0.041929144 0.08326156 0.044226572 0.0046166987 -0.10752578 0.10553784 -0.50273407 -0.15648825 -0.025639502 0.13244826 0.41048616 -0.061916135 -0.10027712 -0.07621027 0.011852144 -0.15832241 -0.09435915 -0.117814116 0.020839885 -0.019274784 -0.10212347 0.32811874 -0.115699776 -0.36534882 0.15479746 0.046394777 0.040254496
6 -0.21131577 0.028018778 0.25745133 -0.12029858 0.05484834 0.07890716 -0.073911496 0.2112049 0.07285136 0.05130644 0.14640486 0.19282182 -0.3376348 -0.11681047 0.008626977 -0.026123434 0.23314342 0.00018865474 -0.12446262 0.26512608 0.1761048 0.022920147 -0.0067721945 -0.018786939 -0.3352299 0.17369056 0.20833698 0.1924664 -0.11541078 -0.3696291 0.1537786 0.038812395 -0.03834088 -0.1685174 -0.17238297 -0.25464597 0.18376967 0.04535525 0.08138218 0.047388557 0.007343062 -0.115563944 0.0999365 -0.5013746 -0.15406941 -0.012025264 0.14152703 0.41450685 -0.06765226 -0.100172445 -0.083400026 0.0019274913 -0.16602415 -0.08895521 -0.12741317 0.02246226 -0.014293976 -0.09504481 0.33499968 -0.12602524 -0.3669339 0.15357293 0.04114882 0.0428811
7 -0.21171647 0.015626956 0.26407242 -0.12279838 0.04353293 0.072117455 -0.068931624 0.21270174 0.07649562 0.04854749 0.13834138 0.19121972 -0.33854008 -0.108787335 0.017352141 -0.032940663 0.24295366 0.012635466 -0.12454448 0.26125756 0.18395872 0.020456264 -0.01852965 -0.020901782 -0.32596517 0.1725868 0.20520554 0.20598419 -0.11485058 -0.3738051 0.15874372 0.043175627 -0.033431992 -0.15806347 -0.17701066 -0.2507865 0.17986481 0.048285373 0.08479721 0.04737971 0.0076365788 -0.10445019 0.10072986 -0.51028013 -0.15524025 -0.014256388 0.13074571 0.4181246 -0.064365014 -0.09698034 -0.0805403 0.02082516 -0.1670344 -0.09689525 -0.120796256 0.026608257 -0.007510023 -0.10565924 0.33867446 -0.12636618 -0.36666793 0.14940026 0.044723623 0.032300856
30 -0.20699896 0.03200117 0.26907694 -0.13132529 0.046662144 0.073611274 -0.061153967 0.20672187 0.09045505 0.04258036 0.15937747 0.18403342 -0.32959667 -0.11121663 0.010317828 -0.030910727 0.24195954 0.0031033747 -0.119514436 0.26368472 0.19108652 0.013719963 -0.012888317 -0.013074646 -0.33775786 0.18284449 0.21120945 0.20097634 -0.10884894 -0.3763593 0.14958361 0.05580589 -0.03349572 -0.16118792 -0.17543468 -0.2515649 0.19017306 0.040865023 0.07649249 0.041686654 0.005712789 -0.11285906 0.10030043 -0.5100837 -0.1592104 -0.021264045 0.13963062 0.40979922 -0.0704283 -0.09230107 -0.073630795 0.0101275295 -0.16749914 -0.0930095 -0.12887491 0.031768184 -0.011584931 -0.1017371 0.3319211 -0.12383474 -0.36207655 0.151806 0.033403344 0.041320622
27 -0.20642509 0.02821106 0.2579527 -0.111467354 0.046790075 0.08219121 -0.06137369 0.20919357 0.088125944 0.051501416 0.14201774 0.18342541 -0.33199757 -0.1093926 0.020340094 -0.023981273 0.24785686 0.0069238315 -0.120495945 0.2675158 0.17080706 0.022312662 -0.0069611683 -0.016983537 -0.33515108 0.17433342 0.20417677 0.19313769 -0.10642391 -0.36890045 0.15964645 0.051576532 -0.030493531 -0.15831175 -0.16629894 -0.25141683 0.18361285 0.032176938 0.08740691 0.050513208 0.006063334 -0.10503129 0.111986406 -0.50124514 -0.1588091 -0.019276885 0.13569741 0.40472335 -0.06195997 -0.09362156 -0.081680514 0.01470866 -0.16950703 -0.087600216 -0.12573677 0.021590436 -0.012946436 -0.10503837 0.335582 -0.1232661 -0.35891718 0.16136691 0.04279807 0.045282893
5 -0.21719931 0.029837146 0.25927258 -0.13341713 0.03595098 0.07748927 -0.06292574 0.2068537 0.07364074 0.04686078 0.14508487 0.19020794 -0.33466887 -0.10954115 0.007208251 -0.039941184 0.23628509 0.008950146 -0.1141743 0.26452115 0.17492352 0.018894482 -0.011891553 -0.022535592 -0.34189597 0.17211951 0.2118155 0.19614924 -0.11963523 -0.36696067 0.1599789 0.039099697 -0.031103672 -0.16057095 -0.17930314 -0.24577864 0.17267187 0.034764312 0.08889746 0.041598435 0.004907246 -0.1093239 0.112150826 -0.4939545 -0.15670317 -0.022849863 0.13054459 0.40878972 -0.058938697 -0.09512889 -0.067639306 0.014911233 -0.17308477 -0.09964079 -0.13017353 0.028359683 -0.019702328 -0.09630286 0.33482203 -0.124321274 -0.36318707 0.14105135 0.033432763 0.041444022
13 -0.20534469 0.027303232 0.2604724 -0.11433658 0.03710729 0.070557326 -0.05637531 0.20245051 0.08177293 0.041339375 0.14136508 0.18641919 -0.329483 -0.124071896 0.010012799 -0.03948153 0.23922394 0.0148760155 -0.1263442 0.26296097 0.17476262 0.027739586 -0.013320493 -0.017121015 -0.34414098 0.18032128 0.22123414 0.20653734 -0.11171326 -0.36883274 0.15992333 0.04450177 -0.038888503 -0.17263462 -0.16761361 -0.25233573 0.17566058 0.04447405 0.09009107 0.04873657 0.0075215055 -0.11815941 0.10490716 -0.50838876 -0.16546114 -0.027542107 0.12964693 0.4130369 -0.07135062 -0.09231092 -0.081350796 0.013328915 -0.18006241 -0.09759574 -0.12513103 0.027923085 -0.020315602 -0.10036361 0.33727026 -0.12423076 -0.35996708 0.15217637 0.042573933 0.044702176
24 -0.21558534 0.023173543 0.26150873 -0.11986717 0.044764828 0.06968905 -0.058139022 0.19867744 0.08836293 0.03650524 0.147511 0.19409573 -0.3333056 -0.10966997 0.01991411 -0.035711598 0.23543285 -0.00040196767 -0.12512445 0.2579966 0.18746305 0.011897656 -0.01444373 -0.022024216 -0.32783633 0.17079599 0.21666853 0.20825565 -0.107944645 -0.3686171 0.16090666 0.046742734 -0.02946351 -0.16954134 -0.17884567 -0.24419935 0.18991408 0.031615548 0.070458345 0.046726815 0.0058123944 -0.11407837 0.10551577 -0.49294806 -0.158381 -0.011973228 0.1338274 0.41121775 -0.06622524 -0.09603054 -0.08695617 0.014318368 -0.17985827 -0.0937799 -0.11282127 0.027671289 -0.005344145 -0.09466576 0.34668544 -0.12087734 -0.36494687 0.15716729 0.029287836 0.030489942
23 -0.21349573 0.031429473 0.27213064 -0.13312304 0.036715697 0.075391605 -0.06680393 0.20556997 0.07445596 0.04670771 0.1499394 0.189976 -0.3287876 -0.118873104 0.028407868 -0.033467036 0.2325623 0.009471693 -0.10571356 0.2506361 0.18368472 0.024952607 -0.01736237 -0.027838439 -0.32424924 0.18161659 0.2028029 0.20833373 -0.12149848 -0.37849766 0.15672591 0.053859763 -0.033762995 -0.16280054 -0.18377526 -0.23810302 0.18282968 0.035934683 0.08835467 0.05083987 0.0043013245 -0.109664276 0.10570122 -0.5074075 -0.16617146 -0.013669927 0.12833169 0.41768637 -0.06940541 -0.09591374 -0.08397986 0.01798166 -0.17051852 -0.08887502 -0.11562983 0.015705545 -0.01704142 -0.113697454 0.3395131 -0.12946647 -0.34880623 0.14512964 0.04460185 0.045482654
77 -0.20240632 0.029484598 0.25765356 -0.13366902 0.043668166 0.0757535 -0.069484815 0.20939574 0.08672914 0.042086564 0.1523788 0.1775474 -0.33919954 -0.11196095 0.01591555 -0.028645458 0.24519607 0.007731076 -0.103506476 0.26250046 0.1722555 0.016827704 -0.00492045 -0.010566844 -0.32552785 0.180745 0.21371736 0.19887881 -0.105918065 -0.37478232 0.14466976 0.044971008 -0.034751527 -0.16632056 -0.17605054 -0.25059277 0.16990918 0.037649818 0.07411064 0.046732932 -4.338981e-05 -0.1066885 0.10812237 -0.5048121 -0.14698985 -0.02224995 0.13261019 0.4008878 -0.06873408 -0.10309591 -0.08159101 0.0061920453 -0.1668017 -0.09973725 -0.11080226 0.03126109 -0.022362644 -0.103370644 0.32905748 -0.12756999 -0.3639605 0.13933237 0.037872326 0.039586235
29 -0.21303077 0.020043174 0.26356208 -0.122574225 0.0480656 0.079852186 -0.058896866 0.2122983 0.07781358 0.03920861 0.143225 0.19508326 -0.33278322 -0.11813608 0.02136874 -0.032106627 0.23229219 0.012872964 -0.11883303 0.26314017 0.19143163 0.014206583 -0.012546899 -0.021180633 -0.33826062 0.17922692 0.20728806 0.20480669 -0.11163434 -0.36204526 0.15513852 0.042660717 -0.03778107 -0.1668476 -0.17183895 -0.25147867 0.17968963 0.04234507 0.07269003 0.038112987 2.8881168e-05 -0.10308472 0.10775175 -0.500136 -0.1491124 -0.014057157 0.13818745 0.41594222 -0.05888356 -0.087085284 -0.08201613 0.012822138 -0.16656433 -0.1012687 -0.1195223 0.020156618 -0.009154018 -0.10608752 0.34337753 -0.123336345 -0.3546469 0.15019827 0.029408384 0.035371907
36 -0.21504474 0.031526513 0.2614189 -0.122964405 0.05233421 0.07829893 -0.059017967 0.20188932 0.07291546 0.033589177 0.14510061 0.1865525 -0.3405602 -0.11217322 0.008748053 -0.030909523 0.24531278 0.0069745244 -0.120225936 0.252099 0.18943855 0.014572342 -0.015444913 -0.02978543 -0.32984024 0.181448 0.21734673 0.2030135 -0.112040445 -0.3769158 0.1479453 0.058335453 -0.03690326 -0.1680598 -0.16853185 -0.24003544 0.1884184 0.03163094 0.08602525 0.050163686 0.013992608 -0.09912611 0.10766161 -0.49998197 -0.15146838 -0.029814176 0.1321086 0.4209593 -0.061228324 -0.10407298 -0.07426811 0.01638952 -0.17726131 -0.09826 -0.11785572 0.035163265 -0.01684281 -0.10845732 0.334242 -0.13155489 -0.36965826 0.15849361 0.04989579 0.04042735
88 -0.2077344 0.010462703 0.25438327 -0.13341211 0.04679134 0.07566869 -0.053861577 0.22034311 0.08387548 0.032864578 0.14662178 0.18739863 -0.34082863 -0.1095805 0.018261395 -0.037608806 0.23686108 0.005779416 -0.11299553 0.26481688 0.17670801 0.01719873 -0.0077782786 -0.02496034 -0.33258444 0.17503425 0.2127398 0.20234261 -0.12382727 -0.3682058 0.14444296 0.05721641 -0.032324854 -0.16436252 -0.17298988 -0.24421622 0.18449718 0.033656616 0.08692908 0.047228858 0.009249751 -0.113043934 0.09537119 -0.500948 -0.15969749 -0.021496134 0.124235526 0.41338152 -0.06409786 -0.09247902 -0.07635792 0.012349564 -0.17517176 -0.10037149 -0.11249194 0.028301574 -0.019985119 -0.10659308 0.34386212 -0.122864656 -0.36339492 0.1447526 0.033562746 0.040138748
0 -0.20657283 0.026917098 0.2569098 -0.118233904 0.045973588 0.075037226 -0.055661492 0.20955068 0.076061234 0.049937747 0.15818332 0.17862013 -0.328089 -0.11704132 0.023720097 -0.038390435 0.245653 0.0064885477 -0.11294892 0.26702437 0.18620804 0.023935927 -0.005345386 -0.025850594 -0.33329645 0.17389889 0.20163152 0.20720595 -0.115945145 -0.36365414 0.14592898 0.051659103 -0.033771858 -0.1599389 -0.1754233 -0.23840326 0.18098935 0.035378605 0.09233123 0.05509406 0.0011753744 -0.111509874 0.106378205 -0.49755406 -0.15300743 -0.0133735 0.12369296 0.41665256 -0.07179447 -0.09442384 -0.07826298 0.010062779 -0.1666576 -0.091194205 -0.1213531 0.019083144 -0.021871319 -0.09263493 0.32766765 -0.11735994 -0.36099803 0.153356 0.0322644 0.040062163
