100 64
40 -0.08562706 0.15660648 -0.07584829 -0.15161362 0.0032913063 0.12782858 0.069380894 0.2271711 0.056973685 -0.06529659 -0.19306062 -0.0020060379 0.4387554 0.32456052 0.011137781 0.2350562 0.1221286 0.22857332 0.2728597 -0.11656105 -0.29149732 0.07223169 -0.12619528 0.03856685 0.08485908 -0.07176713 0.2806978 0.28015327 -0.24719098 0.039321724 -0.18425968 -0.005938194 0.12969157 0.067263834 -0.23674908 -0.0852389 -0.032688387 0.07230644 0.22795892 -0.06633412 0.03239638 0.21808319 -0.17671654 -0.060852945 -0.0028390533 0.16101217 0.06069583 -0.09215681 0.012347137 -0.18103394 -0.033490077 -0.055584222 -0.116124526 -0.2927202 -0.14185782 -0.088491686 0.029179284 -0.08009387 0.31326988 0.22286975 -0.14674635 0.0834348 0.07667002 0.55178547
83 -0.09091139 0.16848095 -0.077955924 -0.15391378 0.0009287376 0.1317868 0.061963197 0.24770944 0.06471913 -0.07430257 -0.1936766 -0.007697307 0.45093 0.3461833 0.005779226 0.23031253 0.115183204 0.2239471 0.2821301 -0.107955016 -0.3028847 0.06896211 -0.14014237 0.044967093 0.07645124 -0.071912095 0.29223457 0.27195993 -0.23293597 0.024093233 -0.17692935 -0.00039618116 0.1125019 0.06271261 -0.23340634 -0.077805445 -0.018544817 0.066510595 0.22205968 -0.05909108 0.043058805 0.21043849 -0.17518847 -0.06632957 -0.0032003892 0.15533946 0.066248305 -0.10439141 0.022238104 -0.18232177 -0.04470987 -0.043030664 -0.12312253 -0.30072254 -0.14788783 -0.08136005 0.029696057 -0.09154415 0.32602006 0.23373665 -0.14224233 0.07916274 0.07285372 0.5515113
78 -0.08514717 0.16124977 -0.07361113 -0.15230465 0.013434691 0.11176768 0.061875354 0.23825605 0.058883615 -0.06943755 -0.18519843 0.003724486 0.4252463 0.32958448 0.013484266 0.23576014 0.11303586 0.21661596 0.2701779 -0.11355839 -0.29586458 0.06960209 -0.1393933 0.03426693 0.078769214 -0.0629786 0.28422955 0.2736086 -0.23324823 0.039962955 -0.16467953 -0.00058105984 0.120581 0.062922806 -0.2390865 -0.08828271 -0.035202365 0.07316116 0.21435584 -0.067885734 0.034816395 0.21921363 -0.18458244 -0.053586476 0.0004959264 0.15630491 0.07474578 -0.10372491 0.026289964 -0.1750966 -0.040922794 -0.053550154 -0.12111146 -0.30673313 -0.15432274 -0.08051981 0.018441895 -0.08867479 0.3274741 0.23873201 -0.13846952 0.07998304 0.07713442 0.53725463
20 -0.089265764 0.16033408 -0.07760958 -0.14903457 0.008928441 0.12906173 0.06704096 0.2452224 0.066783845 -0.08063879 -0.18754067 -0.0003968817 0.43213382 0.33941972 0.0060020536 0.229436 0.12139145 0.21587434 0.27492422 -0.11584158 -0.29755774 0.07371085 -0.13037598 0.04311012 0.080085225 -0.07498794 0.2746125 0.2837763 -0.24858171 0.027503617 -0.17412104 0.0028629433 0.114985175 0.05887015 -0.22792944 -0.079243794 -0.023636304 0.081931606 0.21682951 -0.05290956 0.041858625 0.20683171 -0.17872316 -0.065652154 0.0032049438 0.16329466 0.07363914 -0.10436163 0.026364723 -0.1721604 -0.039154578 -0.049816206 -0.11875195 -0.31022924 -0.13817777 -0.079179116 0.016884165 -0.09344344 0.3164393 0.23867182 -0.14134559 0.07468045 0.07485791 0.54969
46 -0.093139835 0.15833654 -0.082130656 -0.15081735 0.009983846 0.12113747 0.066868514 0.24616031 0.06916381 -0.070856944 -0.1886551 -0.010645946 0.4293252 0.33110625 0.0056828572 0.22725593 0.10884319 0.21572495 0.27177474 -0.0987542 -0.29213685 0.058747493 -0.14159404 0.03918751 0.07256414 -0.07079873 0.27175003 0.28066188 -0.23250751 0.03171252 -0.17107193 0.001841401 0.122956574 0.059243336 -0.22813107 -0.08740281 -0.033024892 0.06703442 0.21651772 -0.05220606 0.039713725 0.21329552 -0.17891873 -0.057949796 -0.0017764828 0.14603017 0.063873716 -0.10458059 0.024927713 -0.17851776 -0.034021683 -0.05818632 -0.12064354 -0.30593124 -0.15328452 -0.07903064 0.012193953 -0.10532393 0.32790896 0.2328394 -0.13870354 0.08527111 0.07564033 0.54534197
41 -0.09052674 0.1629665 -0.07333308 -0.15011233 0.012550166 0.12840745 0.060233165 0.22873387 0.07258253 -0.06138137 -0.19496083 -0.0069672316 0.43944192 0.333081 0.015169671 0.22830534 0.1152005 0.22912209 0.2743411 -0.10313919 -0.29299203 0.065018766 -0.12752561 0.025241172 0.07910159 -0.07260176 0.2729511 0.27308938 -0.22938488 0.02952127 -0.16891447 -0.0088155735 0.120343044 0.062857755 -0.22899461 -0.08415332 -0.039212186 0.07418413 0.21443154 -0.0603735 0.03682813 0.2094006 -0.18498683 -0.06418487 0.0030458418 0.16509172 0.06235531 -0.08829956 0.023052547 -0.17691654 -0.03841313 -0.050863095 -0.12418868 -0.29950467 -0.14442432 -0.078763545 0.025157036 -0.09974979 0.31187034 0.2291198 -0.14087838 0.07463934 0.07701188 0.5353726
44 -0.10038011 0.15744004 -0.075085886 -0.16280772 0.0016952252 0.1289065 0.07171758 0.25100827 0.06607612 -0.07174698 -0.18959087 -0.0065831505 0.42551446 0.34370005 0.0073919725 0.2202391 0.11581865 0.22066951 0.2746661 -0.09997688 -0.2972832 0.06597069 -0.1295183 0.034926258 0.078337625 -0.06855556 0.28532758 0.28045216 -0.24357371 0.03306311 -0.16571337 -0.0007770426 0.11743791 0.06294829 -0.22624096 -0.086372286 -0.030842232 0.069551595 0.21756825 -0.061484657 0.032886907 0.20498137 -0.18333974 -0.056899752 0.0009529222 0.15681718 0.077795476 -0.109529495 0.030510359 -0.17637059 -0.036557116 -0.04300076 -0.11226458 -0.3058877 -0.14518341 -0.0741969 0.022843786 -0.10707802 0.31715775 0.23404941 -0.12910753 0.0851401 0.07501636 0.5525045
93 -0.08972062 0.15907942 -0.07982126 -0.15906303 0.0022127086 0.1263582 0.07020236 0.24226727 0.05596487 -0.06702053 -0.18283305 0.0057826927 0.4239774 0.33464798 0.009417187 0.22151959 0.122332506 0.21767482 0.27444223 -0.1060202 -0.29339433 0.06092806 -0.124650225 0.041498568 0.076993674 -0.071685635 0.28361103 0.28175423 -0.23758946 0.03378706 -0.18139485 -0.00016818456 0.1274893 0.06704817 -0.22864574 -0.09667716 -0.02890293 0.068510845 0.22577365 -0.06304085 0.032327473 0.2145009 -0.18713239 -0.06203298 0.0033316847 0.15054312 0.06919341 -0.09583916 0.01442646 -0.17708516 -0.028169403 -0.043624002 -0.10990504 -0.29738766 -0.14932336 -0.07995358 0.0077005588 -0.09222799 0.30916396 0.224788 -0.12953435 0.07926522 0.08246012 0.5471313
50 -0.082786396 0.15914775 -0.071434215 -0.16249917 0.00024253006 0.11828035 0.05835427 0.23959064 0.06864671 -0.061729215 -0.19673909 0.0035845316 0.4347827 0.33964035 0.004624723 0.22900532 0.11704653 0.22755435 0.27956843 -0.11573696 -0.29213044 0.06572177 -0.13245243 0.033707593 0.076660335 -0.069481686 0.2815132 0.2671272 -0.23749061 0.03230762 -0.17226349 -0.0033692417 0.12224349 0.06899651 -0.23826575 -0.08918116 -0.034546103 0.07918811 0.21375792 -0.065913826 0.037948214 0.207661 -0.1794739 -0.068952926 -0.000824003 0.15539551 0.068345696 -0.1055934 0.029590102 -0.17955513 -0.03605131 -0.047167595 -0.12644918 -0.3105253 -0.14463285 -0.08992206 0.02744849 -0.09794693 0.32473987 0.2380055 -0.14844877 0.08740229 0.071674176 0.54419506
18 -0.083434395 0.17003836 -0.07921151 -0.16535078 0.019370226 0.13522464 0.0645718 0.23565692 0.06612456 -0.07083486 -0.18284181 -0.0024621973 0.4306411 0.33307981 0.01150205 0.222959 0.11304935 0.22900195 0.27902964 -0.10356328 -0.27959707 0.067912206 -0.12893556 0.044199474 0.07487041 -0.06980003 0.2738359 0.2771277 -0.24131458 0.021917295 -0.17764775 -0.003092108 0.114925474 0.06813258 -0.22453448 -0.08816056 -0.021490915 0.06765776 0.2228012 -0.06943062 0.034901578 0.20283835 -0.17326209 -0.061681703 0.001022772 0.15391158 0.05978453 -0.09562377 0.021992968 -0.18541558 -0.034493785 -0.058890313 -0.12463027 -0.3062727 -0.15681203 -0.0835056 0.023350377 -0.09514846 0.32079262 0.22955865 -0.13685773 0.06693255 0.06905093 0.55389035
45 -0.09927948 0.15860493 -0.07419648 -0.16259408 0.0004284265 0.1314018 0.06576025 0.24829721 0.061336618 -0.07896367 -0.1793144 0.002131343 0.4247948 0.34210083 0.0044122795 0.23274522 0.11175784 0.21586318 0.26947168 -0.10575612 -0.28352588 0.060701344 -0.14395468 0.037980888 0.07752634 -0.059282105 0.2862445 0.2705864 -0.23160611 0.03274854 -0.1719499 -0.0063072466 0.12918869 0.0659536 -0.234978 -0.079770856 -0.02513092 0.0834578 0.21578836 -0.063926496 0.039598648 0.2063708 -0.17719921 -0.07095468 -0.003837364 0.15880534 0.06005167 -0.10113993 0.028204758 -0.1671644 -0.042620115 -0.05526928 -0.12391483 -0.29782492 -0.1551061 -0.079289585 0.018343579 -0.093207 0.32478982 0.23237182 -0.1353862 0.079340026 0.078714184 0.5421905
52 -0.10201044 0.15937097 -0.07083019 -0.1577646 0.0155888945 0.13243128 0.057827394 0.24060385 0.057844948 -0.07502395 -0.18945135 0.0002459797 0.4374311 0.33987316 0.0061466917 0.23592848 0.12336129 0.21250466 0.26762947 -0.100144655 -0.29131463 0.066435486 -0.13770717 0.045285277 0.07395315 -0.06118777 0.28378874 0.27727187 -0.24187523 0.042879444 -0.17866112 -0.0023255162 0.11337534 0.05457848 -0.22835529 -0.088515356 -0.038171243 0.070479326 0.20902286 -0.06824968 0.03221477 0.20626065 -0.17172734 -0.06233919 -0.004920894 0.15014939 0.07389404 -0.09667225 0.023071334 -0.17406626 -0.03478949 -0.041601274 -0.11286848 -0.30209985 -0.1496675 -0.07350401 0.022996921 -0.09726591 0.32622033 0.22858427 -0.1445727 0.083278656 0.06889999 0.5467707
86 -0.09950216 0.16128607 -0.071269676 -0.14823371 0.009991105 0.1317154 0.06570691 0.24206066 0.06682192 -0.0693735 -0.18264887 0.0027668271 0.43641987 0.33894643 -0.0001717746 0.22408068 0.11167577 0.20981906 0.26230898 -0.10740576 -0.2820001 0.06314181 -0.13313028 0.036027126 0.069405414 -0.066300176 0.28411558 0.27484494 -0.22951645 0.024114681 -0.17446737 0.0005580467 0.120911494 0.059347786 -0.22122173 -0.0824641 -0.021325773 0.074561216 0.21966118 -0.054641955 0.038869374 0.20680498 -0.17558903 -0.057714812 0.0017348335 0.1537864 0.06989303 -0.10409398 0.03241268 -0.18226363 -0.034297857 -0.058688752 -0.11360926 -0.30983767 -0.1458623 -0.08979835 0.027778886 -0.09633235 0.32164168 0.23961025 -0.13959648 0.079825066 0.0705095 0.548643
53 -0.09068153 0.16278104 -0.07434881 -0.15710449 0.017550005 0.116124146 0.066502064 0.23307727 0.06834771 -0.06937363 -0.19815171 -0.008074853 0.42553434 0.34298572 0.007275421 0.22064659 0.10925696 0.22832762 0.2765471 -0.10432964 -0.28761113 0.05768721 -0.13783605 0.037623018 0.083712004 -0.061064865 0.27923688 0.27566016 -0.24151525 0.046409808 -0.16529693 -0.0015741024 0.120739795 0.0742604 -0.23616299 -0.09134167 -0.020907398 0.06803926 0.21576709 -0.059373498 0.034780983 0.21334139 -0.1801502 -0.06863417 0.0042813774 0.1611616 0.061515667 -0.09867709 0.022904364 -0.18870467 -0.028318536 -0.05093188 -0.12239955 -0.30201358 -0.15336725 -0.09130555 0.010218615 -0.08354257 0.31815714 0.22773437 -0.13569489 0.0792775 0.07099048 0.5502064
69 -0.09064712 0.15105662 -0.07338616 -0.15627934 0.011363526 0.119203605 0.05570697 0.22404233 0.059634514 -0.06633379 -0.19151233 -0.007218857 0.4331247 0.3375582 0.017142842 0.22077616 0.12102321 0.2190451 0.2706732 -0.09801216 -0.29372647 0.06882141 -0.13788576 0.045123346 0.07847158 -0.06469535 0.27880496 0.27570668 -0.24373172 0.029707322 -0.168831 -0.011678232 0.11690317 0.07368638 -0.22136238 -0.09031827 -0.024446305 0.068930976 0.21928258 -0.06926633 0.03960822 0.2098312 -0.18494362 -0.06817853 -0.0032837088 0.16130838 0.06940976 -0.09871339 0.020692408 -0.1723816 -0.03867717 -0.057449754 -0.10753777 -0.30525708 -0.15466814 -0.07553536 0.013895777 -0.10039682 0.31631413 0.22510654 -0.14485374 0.07584637 0.082368866 0.5418809
49 -0.09348288 0.16396113 -0.08202932 -0.16573024 0.01991971 0.12645373 0.07088082 0.24520418 0.058392283 -0.07121716 -0.19412264 -0.0049655386 0.4368335 0.34324422 -0.0009540918 0.22701581 0.107552275 0.22447447 0.26829028 -0.11532484 -0.2798204 0.06401091 -0.13852423 0.043389346 0.08278801 -0.06462978 0.2864014 0.27495882 -0.23152038 0.039565526 -0.16561478 -0.016282326 0.11341575 0.06337468 -0.23684053 -0.088829674 -0.02114859 0.07760539 0.21948227 -0.05860356 0.046420503 0.21395475 -0.18166061 -0.061205566 -0.0022886887 0.15566172 0.061399426 -0.10340067 0.018784849 -0.16994423 -0.030071797 -0.058170952 -0.1165758 -0.2925911 -0.15750317 -0.07972882 0.023285491 -0.10005072 0.31491467 0.2378804 -0.13993722 0.08107588 0.07961991 0.5514258
43 -0.08774868 0.16325758 -0.077375196 -0.15405703 0.0034023877 0.12675062 0.0692944 0.24431172 0.059514128 -0.074761875 -0.18929823 0.0026490635 0.44312084 0.33789164 0.008243863 0.24152619 0.11265458 0.20954205 0.26580045 -0.098504916 -0.2813742 0.06029831 -0.14461099 0.027835008 0.07257534 -0.0633445 0.28036878 0.2757924 -0.23611508 0.03898352 -0.17563911 -0.0032624893 0.122946806 0.06223425 -0.24139838 -0.08931545 -0.033631284 0.073714525 0.22243837 -0.07151542 0.04530919 0.21206017 -0.17745055 -0.05922765 0.012043388 0.16947852 0.06739476 -0.09567161 0.028501263 -0.17745632 -0.036784288 -0.051849928 -0.116324976 -0.2996303 -0.15203078 -0.08250453 0.030117907 -0.09233169 0.31541264 0.23538293 -0.1357768 0.07514401 0.07479026 0.5509096
70 -0.09064028 0.16724938 -0.069206215 -0.16274495 0.0113191595 0.13659146 0.07046838 0.24436244 0.056414206 -0.06668116 -0.19425958 -0.008419327 0.43626815 0.33128282 0.015795615 0.22517627 0.11908719 0.22157995 0.27701235 -0.11099849 -0.29602247 0.061816495 -0.13766325 0.036352053 0.080986276 -0.07077764 0.2822419 0.26633602 -0.2392121 0.033092048 -0.18041524 -0.002224441 0.12026159 0.05951898 -0.2234465 -0.0854013 -0.031486034 0.07807473 0.20803738 -0.060286634 0.039424762 0.20276386 -0.17421672 -0.06539164 -5.1580528e-06 0.15513033 0.07288154 -0.09717959 0.02027919 -0.16872887 -0.02785488 -0.047318418 -0.122841045 -0.30467436 -0.14130683 -0.08861158 0.023268426 -0.09000197 0.32370943 0.22495401 -0.13884535 0.08717848 0.07454033 0.5463792
55 -0.092094496 0.15235351 -0.06764898 -0.14900932 0.015712826 0.12671849 0.059278294 0.23868395 0.06450547 -0.063748196 -0.18416846 -0.0009805346 0.4295221 0.346961 0.014078699 0.2195702 0.12445522 0.21447235 0.26529145 -0.10419652 -0.28909636 0.06512614 -0.14269903 0.05087773 0.0850539 -0.07384863 0.27996853 0.27500445 -0.2446997 0.038105167 -0.16731066 0.00059608126 0.1220581 0.05616777 -0.2422367 -0.08960972 -0.035829227 0.0695576 0.22355571 -0.0535533 0.02909784 0.20875673 -0.18059729 -0.06334958 0.003388539 0.15595208 0.07196891 -0.09221427 0.030396447 -0.18451579 -0.030028293 -0.05409202 -0.11352993 -0.30805135 -0.14107646 -0.087293014 0.015938956 -0.10251934 0.31967583 0.23116334 -0.13137951 0.08106532 0.07479346 0.55104053
68 -0.09520635 0.16024248 -0.0661814 -0.15943164 0.0053656884 0.12497229 0.072046444 0.23925382 0.05735309 -0.08039299 -0.19608374 0.007631785 0.42364174 0.3325943 0.016685681 0.23085363 0.12444734 0.20785335 0.26943588 -0.099475116 -0.2838737 0.061876934 -0.1285499 0.032233402 0.06966779 -0.07117661 0.27062845 0.27298057 -0.23515432 0.039235894 -0.1654746 -0.0020878026 0.11306772 0.06342573 -0.23360747 -0.09274215 -0.021066185 0.062015224 0.208074 -0.06927085 0.036383577 0.2127417 -0.17964342 -0.059462287 0.0049050995 0.14594552 0.07110257 -0.10012817 0.016669856 -0.17889358 -0.03347983 -0.050784852 -0.11654885 -0.29456997 -0.14208664 -0.075959496 0.022965178 -0.098942935 0.31771597 0.2214189 -0.13583946 0.080786005 0.06506544 0.5461945
94 -0.0917545 0.17159794 -0.081875704 -0.15313728 0.0119224535 0.1254168 0.058696948 0.23356932 0.05939197 -0.079149954 -0.19938871 0.0028480983 0.43644726 0.33553421 0.0023835576 0.2260862 0.11436125 0.22091188 0.26864696 -0.10410561 -0.28081128 0.062042207 -0.13318974 0.03801131 0.07057538 -0.07765586 0.27236763 0.27653933 -0.23439799 0.03915214 -0.18245888 -0.015255658 0.12243187 0.06875498 -0.2232507 -0.077786975 -0.024331933 0.0742861 0.21905999 -0.07417893 0.044955313 0.20279351 -0.16838129 -0.056740202 -0.0016617696 0.16096175 0.07433318 -0.09649309 0.013942476 -0.18115734 -0.021320269 -0.045714226 -0.11827324 -0.30009434 -0.14186722 -0.07905386 0.0074291197 -0.08846295 0.31673408 0.23550968 -0.14635201 0.07696242 0.07529729 0.553363
63 -0.09653262 0.1593278 -0.083287634 -0.16042286 0.008300856 0.12597102 0.06522628 0.2453403 0.06706673 -0.07029716 -0.19595154 -0.0048249946 0.42961845 0.34147668 0.008484451 0.22578718 0.11218844 0.22702652 0.27702874 -0.104677804 -0.280296 0.05807696 -0.14363743 0.03941591 0.07841673 -0.061305422 0.27806646 0.27223912 -0.23542504 0.04456795 -0.17143457 0.0014560216 0.13331228 0.06434442 -0.23289815 -0.094058625 -0.032994866 0.07410391 0.21049854 -0.05440532 0.0473473 0.21776855 -0.1808958 -0.05632026 0.012083377 0.15716793 0.07401004 -0.092201635 0.028784374 -0.1819161 -0.037168354 -0.046796974 -0.12100096 -0.29879162 -0.14589952 -0.09040883 0.015145568 -0.09893108 0.31981158 0.22686225 -0.13336481 0.072853394 0.07178816 0.5530758
2 -0.08291149 0.16872741 -0.08062731 -0.15862036 0.0068182177 0.12253518 0.07794921 0.24485822 0.07095269 -0.06530881 -0.19094558 -0.0076856054 0.43819398 0.3354565 0.013973584 0.23686741 0.109475784 0.2255569 0.2731383 -0.10133485 -0.2974297 0.06510714 -0.13622347 0.029041724 0.07314396 -0.07041945 0.28478175 0.2788027 -0.24108838 0.040177327 -0.17605618 -0.005533956 0.11199049 0.0683773 -0.24003291 -0.0856552 -0.02355711 0.08235251 0.21941824 -0.07002873 0.02707082 0.2076256 -0.18372796 -0.07195162 0.0034403724 0.16260585 0.0620196 -0.08719453 0.016543701 -0.17676169 -0.039134115 -0.054066557 -0.12896456 -0.30359337 -0.14219846 -0.083354264 0.022645513 -0.08492377 0.31355646 0.21726598 -0.1313163 0.07266995 0.08410781 0.53561324
10 -0.10058658 0.16060847 -0.07957079 -0.15100922 0.0019482498 0.11798788 0.075780086 0.23571186 0.07337743 -0.06297156 -0.19019954 -0.008732312 0.4344501 0.33856484 0.0012446088 0.22090033 0.11624952 0.22502574 0.27343297 -0.10987325 -0.29451773 0.059382956 -0.12783659 0.031714354 0.069909886 -0.06409711 0.28766078 0.2773012 -0.23922464 0.032077663 -0.17712466 -0.0102689555 0.12725945 0.06388164 -0.24107818 -0.081361115 -0.019067587 0.07564259 0.21651167 -0.05811559 0.03271694 0.20757824 -0.1732855 -0.066765614 0.0013633985 0.15618151 0.07608396 -0.10404195 0.014787961 -0.18307695 -0.04579689 -0.05431516 -0.12502392 -0.30682024 -0.13748914 -0.09350967 0.0155581 -0.09131418 0.31544763 0.23736298 -0.14341319 0.068743214 0.06890487 0.5358563
90 -0.09722527 0.15773375 -0.07142019 -0.1503342 -0.0015647451 0.12202784 0.06996514 0.23627244 0.06835758 -0.06892444 -0.19358575 -0.002899473 0.4436557 0.33879402 0.006060367 0.22511844 0.111331776 0.23042499 0.27486774 -0.108298235 -0.2837515 0.055896074 -0.14170423 0.03623345 0.08084855 -0.058400497 0.27840427 0.26586175 -0.2291705 0.028035821 -0.1814762 -0.008817524 0.119467914 0.07412972 -0.23628177 -0.079721205 -0.02477048 0.07340546 0.21873514 -0.06415668 0.0454934 0.21277459 -0.17995995 -0.062817395 -0.0011094029 0.15473446 0.065458 -0.09125564 0.020210635 -0.17721921 -0.039602306 -0.046713497 -0.122902885 -0.30397868 -0.15404537 -0.08137386 0.024670443 -0.0943307 0.32644126 0.23624271 -0.13395976 0.077172175 0.06653754 0.54378915
60 -0.10093066 0.15509805 -0.06985768 -0.15612818 0.006530534 0.12710166 0.06983791 0.24221748 0.06118083 -0.08273058 -0.19486652 -0.009401634 0.4441058 0.33355147 0.005336514 0.22351183 0.11808676 0.2254714 0.27953413 -0.11877131 -0.28481233 0.071954906 -0.1410899 0.044336047 0.08288377 -0.067531645 0.28074893 0.2786889 -0.2379375 0.038284387 -0.17388798 -0.014424878 0.11352699 0.055618398 -0.22838457 -0.092013344 -0.029778533 0.08116333 0.2145492 -0.06471135 0.034718458 0.20734206 -0.17867664 -0.072640985 -0.002303808 0.15669583 0.07823409 -0.10373226 0.026737891 -0.1778057 -0.029883567 -0.049646914 -0.10986546 -0.28924692 -0.14217605 -0.08708165 0.03099105 -0.09077043 0.32819006 0.22803938 -0.14036086 0.07353342 0.07953188 0.54816717
89 -0.0934991 0.1702784 -0.079434454 -0.15578456 0.0072705573 0.13147035 0.07095037 0.24691619 0.06459648 -0.07321078 -0.18147336 -0.00066524895 0.42793003 0.3287279 0.009807121 0.23685023 0.110281736 0.21846949 0.26322886 -0.11275955 -0.28610593 0.06911309 -0.13120705 0.03941541 0.076125845 -0.06764414 0.28506753 0.27303675 -0.23141396 0.03143837 -0.17010918 0.0024846308 0.11620945 0.05938406 -0.22678736 -0.0830662 -0.039883368 0.07859347 0.20698595 -0.059771433 0.042551417 0.21487677 -0.1780904 -0.06126301 0.012317207 0.15575103 0.07782446 -0.097671956 0.026426941 -0.16582482 -0.046775285 -0.056755405 -0.113767095 -0.2960055 -0.14481087 -0.0930661 0.023897562 -0.095669836 0.32508853 0.23257105 -0.13984814 0.08360158 0.07565113 0.53793645
56 -0.08315487 0.15993722 -0.07598759 -0.14556172 0.0035581575 0.12419379 0.067961596 0.24274056 0.069374464 -0.07496511 -0.19280314 -0.009369695 0.42811072 0.34895098 0.011767458 0.22596121 0.108902626 0.21863472 0.27390072 -0.10834883 -0.28608584 0.073683426 -0.13961118 0.035330966 0.07804359 -0.07236072 0.27448183 0.28320655 -0.23664735 0.031375755 -0.17145792 0.005883507 0.12159664 0.06754873 -0.23163056 -0.085376486 -0.0346757 0.06605267 0.21971512 -0.06526153 0.03147335 0.21698186 -0.17580058 -0.06130161 0.0047422093 0.16226245 0.057538543 -0.10174208 0.020507574 -0.1783662 -0.02873353 -0.055845086 -0.12821166 -0.30339557 -0.15092894 -0.080861546 0.020945031 -0.08713811 0.31468913 0.22750163 -0.14494817 0.07700715 0.07530255 0.5457093
9 -0.088819325 0.15518476 -0.074220866 -0.16039339 0.00035633083 0.13120091 0.075412504 0.23372944 0.056609645 -0.06664383 -0.2003025 -0.0017564936 0.43785623 0.32752046 0.002841839 0.2298288 0.12160944 0.22416206 0.2744152 -0.10209833 -0.29066107 0.059996963 -0.12537114 0.037288297 0.08141738 -0.06156372 0.26661345 0.27256164 -0.2270203 0.041256372 -0.17249265 -0.0012947524 0.12549908 0.077748366 -0.23680262 -0.091392554 -0.02425684 0.07803323 0.21628208 -0.06880999 0.03660599 0.21347497 -0.17555383 -0.06638901 0.010451635 0.14848387 0.076055184 -0.09879114 0.013824098 -0.17462768 -0.03826007 -0.042449202 -0.12070689 -0.30231103 -0.15270245 -0.08110124 0.020310732 -0.08836636 0.31818154 0.21970636 -0.13489091 0.07519844 0.06901814 0.54134834
28 -0.09692993 0.16322388 -0.08558304 -0.16140741 0.0018719718 0.13525334 0.067824244 0.24735087 0.0638161 -0.08198633 -0.18869379 -0.0073668472 0.44224334 0.33541003 0.012956961 0.2390285 0.11078277 0.22053075 0.27268526 -0.099578634 -0.28478786 0.06489555 -0.140814 0.03987992 0.07101166 -0.065662146 0.2831248 0.28038976 -0.2336286 0.037584804 -0.17799768 -0.0048553282 0.12618142 0.061377052 -0.22940242 -0.090912394 -0.033582445 0.07859648 0.20626146 -0.06660341 0.03782498 0.20285359 -0.1802212 -0.0674259 -0.005093679 0.15554807 0.06100616 -0.09633995 0.023859031 -0.16585198 -0.037289504 -0.053455856 -0.11815424 -0.30524927 -0.14996018 -0.08954683 0.011234247 -0.091403686 0.32218462 0.21934524 -0.13374414 0.07108319 0.07765847 0.5491629
39 -0.09770404 0.1578677 -0.07643272 -0.16167408 0.004295171 0.1261761 0.06748802 0.23647211 0.05619714 -0.074710794 -0.19662334 -0.0036362628 0.43408495 0.3309844 0.015445097 0.23033488 0.115119964 0.22042489 0.27552035 -0.10649544 -0.28133073 0.062630415 -0.14080013 0.046795916 0.07278327 -0.057684645 0.2749167 0.27385044 -0.23881944 0.041348882 -0.17567395 -0.012718145 0.11702108 0.054247957 -0.22566678 -0.079810396 -0.033661764 0.08134056 0.20676519 -0.06906855 0.045160133 0.21270254 -0.18111052 -0.06471253 -0.0012848461 0.16045682 0.068911016 -0.09621268 0.02477369 -0.16907288 -0.027618999 -0.043826286 -0.10829835 -0.29798856 -0.14963779 -0.08861413 0.0184911 -0.09999645 0.32657644 0.23640771 -0.13154948 0.082773715 0.0788949 0.551798
35 -0.088672265 0.16470103 -0.07465763 -0.15453929 0.01209073 0.12691528 0.06052559 0.23651923 0.065007 -0.079002075 -0.19231756 0.004568374 0.43184724 0.3361357 0.016216109 0.2294848 0.11803489 0.22205223 0.26787367 -0.11178347 -0.2893603 0.05610983 -0.1396009 0.03698306 0.07847791 -0.06324748 0.28047657 0.27379575 -0.22907898 0.043544795 -0.17190346 -0.009351686 0.1218317 0.0649217 -0.22299784 -0.09012228 -0.03515321 0.07260006 0.21814181 -0.060129665 0.033606604 0.21369559 -0.18167445 -0.057064507 0.0013480152 0.16192202 0.0745075 -0.099669084 0.029420344 -0.18230392 -0.030315606 -0.043544512 -0.12378438 -0.29406846 -0.1553883 -0.08139802 0.013558309 -0.08985302 0.32918817 0.23486805 -0.14307393 0.075990416 0.067400604 0.5517737
31 -0.087766156 0.15858361 -0.07645551 -0.14888684 0.012312362 0.1354391 0.073144145 0.24007158 0.062764265 -0.07521906 -0.18245779 -0.0037277322 0.4353321 0.34060222 0.009878194 0.23467351 0.11725859 0.21933155 0.2647412 -0.10460752 -0.28937265 0.06860647 -0.1381203 0.042751893 0.07238677 -0.06250012 0.28288323 0.28323358 -0.2315893 0.02900936 -0.16949132 -0.0029319408 0.12519006 0.074198455 -0.24068527 -0.08558395 -0.034998395 0.06660619 0.21504867 -0.06814853 0.033667605 0.21547547 -0.16917738 -0.057630446 0.0058294884 0.15288542 0.074948736 -0.10257136 0.029210906 -0.1855603 -0.034258872 -0.059939053 -0.11549142 -0.30266455 -0.1484178 -0.0919416 0.017894141 -0.08664876 0.32572436 0.22151907 -0.1342285 0.07304825 0.0787879 0.55074126
66 -0.0911854 0.15808149 -0.07205417 -0.16150676 0.0022780967 0.11654548 0.059770226 0.23157783 0.06789903 -0.06306681 -0.18692608 -0.0035702463 0.4311153 0.33735502 0.009134692 0.2223473 0.104786254 0.21870168 0.2675929 -0.10084937 -0.28203166 0.06548697 -0.13440232 0.034217115 0.07218533 -0.057628654 0.28452396 0.27324134 -0.23627119 0.03384114 -0.17169352 -0.00016474133 0.12617289 0.06579215 -0.22571135 -0.08565033 -0.03217999 0.07590943 0.20938134 -0.057937767 0.029827347 0.20722869 -0.18384747 -0.056488164 -0.0035379522 0.16751836 0.061090816 -0.10380382 0.025152367 -0.17718829 -0.045613047 -0.0617201 -0.12493138 -0.29900855 -0.14415675 -0.08322721 0.021332253 -0.10486907 0.31348085 0.2386632 -0.14387769 0.07634323 0.07399292 0.5522566
12 -0.08595969 0.1586614 -0.07751758 -0.15910928 0.011659348 0.12862192 0.059635304 0.2347171 0.066901624 -0.071446925 -0.18745296 0.005272837 0.44587147 0.35043442 0.012701791 0.22398768 0.12021617 0.21503244 0.2682402 -0.10733958 -0.29735324 0.058346264 -0.1373349 0.04851847 0.0718672 -0.06330962 0.28003973 0.28116697 -0.24551274 0.034247372 -0.17615956 0.0027587903 0.11187369 0.056463115 -0.22476181 -0.08406892 -0.023795689 0.074399166 0.21692817 -0.05378203 0.03718904 0.20693588 -0.1832618 -0.057634164 0.0011070854 0.15630618 0.07234417 -0.09789331 0.026506996 -0.17490654 -0.03498391 -0.05599881 -0.11611858 -0.30528995 -0.13848515 -0.085969046 0.022496099 -0.10065905 0.32320592 0.23798656 -0.13175935 0.07942165 0.07008025 0.5579392
67 -0.09763615 0.1685569 -0.079736345 -0.15466933 0.009805839 0.12220969 0.06973968 0.2514869 0.057630133 -0.07506291 -0.19551623 -0.0026982343 0.44495794 0.33441424 0.016934486 0.23881786 0.115969695 0.22050186 0.27473077 -0.096832275 -0.28453156 0.054731335 -0.13305594 0.044102307 0.07846828 -0.07042915 0.2768022 0.27287245 -0.23924941 0.03478925 -0.17592135 0.0039148154 0.12285291 0.06999861 -0.23078534 -0.08239214 -0.026663901 0.06665172 0.20662303 -0.058008846 0.04186572 0.21660832 -0.1705288 -0.066697225 0.0015836161 0.1557334 0.070791386 -0.10233918 0.017056892 -0.1747117 -0.042528994 -0.058370706 -0.11828691 -0.2997465 -0.15498702 -0.09147757 0.021553565 -0.08494472 0.32429725 0.22692741 -0.14167762 0.06829036 0.07936213 0.54724157
14 -0.09323486 0.15887468 -0.06759713 -0.15196957 0.017097196 0.118922085 0.06918231 0.23974007 0.059675343 -0.06732803 -0.1849643 -0.004441533 0.43765125 0.34347963 0.004757374 0.23542878 0.11679009 0.22049794 0.27845278 -0.10200047 -0.2899686 0.054151207 -0.13847917 0.03993974 0.08169773 -0.06219186 0.27367368 0.26683182 -0.23625611 0.039710242 -0.17972738 -0.0066804695 0.12026674 0.07477407 -0.24074012 -0.09396267 -0.02015223 0.07058851 0.22098668 -0.07267738 0.031752363 0.21328825 -0.17826827 -0.058839444 0.0094029065 0.15117255 0.06526515 -0.10753596 0.024888726 -0.1842756 -0.031673457 -0.047564786 -0.1187053 -0.300042 -0.15534249 -0.0831466 0.019800618 -0.088565394 0.32225797 0.23766072 -0.14084893 0.08333979 0.07571575 0.547646
4 -0.097117454 0.16017786 -0.06763935 -0.15920052 0.005214871 0.11463323 0.063025266 0.24379715 0.059977733 -0.067335725 -0.17500935 -0.008550998 0.43493184 0.34296095 0.014614363 0.22797589 0.12079916 0.2112093 0.26609495 -0.10831463 -0.29108378 0.05574031 -0.1402482 0.032604218 0.075029925 -0.057442803 0.28128833 0.2628696 -0.23351464 0.0250177 -0.17734306 -0.010516806 0.110589005 0.07011136 -0.22190778 -0.08810842 -0.022118526 0.083322085 0.2208876 -0.062576376 0.03680263 0.20766719 -0.19043225 -0.069100104 0.010400882 0.16009973 0.0752161 -0.105081566 0.03052427 -0.18605301 -0.044628303 -0.05380337 -0.10570315 -0.31419218 -0.1535071 -0.0922125 0.020672074 -0.10049417 0.3279731 0.23753121 -0.12866008 0.08251831 0.07658876 0.5427644
42 -0.09197358 0.1569506 -0.0791346 -0.15402853 0.011066988 0.12871915 0.07192931 0.22772495 0.058275003 -0.064819865 -0.19920638 0.00459474 0.43284905 0.33432847 -0.00067126995 0.22728024 0.120541856 0.23126107 0.27240375 -0.11516508 -0.28840733 0.0654005 -0.12966163 0.031661365 0.0812559 -0.074572854 0.28230953 0.2731212 -0.22668222 0.039907396 -0.1670138 0.002649332 0.1150199 0.07147013 -0.24282354 -0.093291715 -0.03408891 0.068469115 0.22443776 -0.05749236 0.027117979 0.21910849 -0.18116806 -0.06721373 0.003643567 0.157957 0.07170987 -0.09783909 0.013919957 -0.184108 -0.0330642 -0.06006734 -0.12295667 -0.30354697 -0.14365713 -0.09378411 0.015065453 -0.09636444 0.32108322 0.22886024 -0.13897058 0.08138521 0.06494814 0.55337423
87 -0.096967846 0.16676085 -0.08307402 -0.15966348 0.015389422 0.13916622 0.07448504 0.23945716 0.05437161 -0.08190456 -0.18296944 0.004219191 0.42590177 0.33794427 0.01057041 0.21920337 0.11814399 0.22790414 0.2720266 -0.10681195 -0.29571936 0.07227707 -0.1399199 0.03937621 0.06950698 -0.07200488 0.27269155 0.2753929 -0.23644565 0.034036126 -0.17062216 2.0056064e-05 0.112719834 0.06387173 -0.22765689 -0.08472018 -0.027685434 0.08393752 0.21052885 -0.07132596 0.030256933 0.21541232 -0.17741543 -0.07116651 0.0033195803 0.14487986 0.065323524 -0.10284943 0.027378796 -0.16968822 -0.030669661 -0.053759128 -0.11691468 -0.30525336 -0.1527365 -0.08165461 0.017502334 -0.10297601 0.3184523 0.22486277 -0.1312576 0.07930424 0.07180831 0.544232
64 -0.091973625 0.16843632 -0.07472116 -0.14967573 0.016424067 0.12527174 0.057133175 0.23519044 0.05593193 -0.07136737 -0.19698593 -0.005933302 0.4292113 0.33208367 0.00635361 0.21766561 0.114227675 0.21581376 0.27573827 -0.11154148 -0.28822425 0.06496078 -0.1420712 0.03750621 0.08102082 -0.061415937 0.27150232 0.2738503 -0.244005 0.034680452 -0.1670778 -0.01741328 0.12916057 0.06366752 -0.23504446 -0.07695592 -0.023113858 0.0763202 0.21107502 -0.07097577 0.042468403 0.21103111 -0.17188466 -0.056839105 -0.0036303867 0.16448383 0.069156185 -0.09906405 0.023679709 -0.17108425 -0.025294326 -0.056747925 -0.12665875 -0.29157004 -0.15177245 -0.07582149 0.02034745 -0.08545657 0.32147002 0.23050757 -0.14500368 0.076944426 0.08033109 0.5522244
54 -0.10140599 0.1560311 -0.06855819 -0.1547238 0.015315696 0.11791916 0.05985348 0.23253568 0.068825975 -0.067304075 -0.18038452 -7.8638615e-05 0.4279597 0.3393299 0.0073467637 0.23466836 0.121436544 0.21200064 0.2644937 -0.10881607 -0.2960499 0.063699305 -0.14213252 0.036191195 0.074534036 -0.061939288 0.28289494 0.26836765 -0.23843712 0.029512325 -0.1752329 -0.0029332056 0.11706657 0.06366821 -0.22458842 -0.07961606 -0.02464774 0.077388786 0.2079016 -0.0662825 0.04198851 0.21302427 -0.18179497 -0.060422715 0.00297594 0.1492251 0.06664338 -0.10444125 0.021858793 -0.18294172 -0.040576812 -0.050613184 -0.11984058 -0.3064044 -0.15135719 -0.081248604 0.014160329 -0.088244036 0.323866 0.23028119 -0.135644 0.08287238 0.077663206 0.54504657
47 -0.08933216 0.15267687 -0.064514734 -0.1542746 0.012206332 0.13176861 0.0592819 0.23250863 0.05625755 -0.06515721 -0.19215025 -0.0005479584 0.43516713 0.33288035 0.006732784 0.21830955 0.12110764 0.22453362 0.27059132 -0.09950271 -0.29457638 0.05801385 -0.13604887 0.03699613 0.08194036 -0.062142935 0.28359652 0.26745233 -0.23962152 0.028691174 -0.17246224 0.0015789283 0.11908968 0.07074779 -0.22905079 -0.08287621 -0.030723596 0.06554356 0.2192039 -0.06387731 0.034247804 0.20550002 -0.1737688 -0.05987142 0.0034788519 0.1510563 0.076666765 -0.09465754 0.022243557 -0.18068725 -0.044335265 -0.04261409 -0.12265011 -0.30900422 -0.14637853 -0.087282896 0.020295858 -0.09900443 0.31742108 0.23717384 -0.13364996 0.07452223 0.07670345 0.5407791
71 -0.089066155 0.15338883 -0.06421309 -0.14520189 0.0152416695 0.12302271 0.07445564 0.23552999 0.06638808 -0.074588746 -0.18770333 0.002050715 0.42153704 0.34264547 0.013812917 0.23117106 0.11441397 0.21150441 0.27237248 -0.107936755 -0.28466862 0.059910942 -0.1411028 0.033951223 0.08092766 -0.06649084 0.27141154 0.27130178 -0.24479544 0.035916343 -0.18018067 -0.0052033057 0.1209066 0.065996915 -0.23797834 -0.089652635 -0.029118005 0.07340679 0.20944647 -0.06438613 0.041113064 0.21245581 -0.18632308 -0.061134133 0.0036823186 0.15165368 0.06698728 -0.09292246 0.021002177 -0.18664971 -0.029537117 -0.05367562 -0.11892621 -0.30773243 -0.14529999 -0.09053665 0.0168228 -0.10079964 0.3230434 0.24417992 -0.13210268 0.081391305 0.07651144 0.5494653
11 -0.08516459 0.16882357 -0.07797844 -0.15323813 0.0076657063 0.13318296 0.060193848 0.23599215 0.0630274 -0.06904608 -0.1800216 -0.003217938 0.42699742 0.34501263 0.011825281 0.21882899 0.11423805 0.22619353 0.2625178 -0.10510284 -0.29642627 0.0676641 -0.13106287 0.042466182 0.0832559 -0.06529768 0.2742168 0.27117547 -0.23603104 0.03507861 -0.1659354 -0.0043181307 0.12316535 0.06334795 -0.23292616 -0.08388928 -0.018846596 0.067798935 0.21928556 -0.06750727 0.03401895 0.2074635 -0.18592077 -0.06139946 -0.003410179 0.15153426 0.069418535 -0.10321464 0.025979938 -0.18677594 -0.040722277 -0.049042016 -0.12554099 -0.30807576 -0.13808705 -0.087523334 0.007195908 -0.08912843 0.32156324 0.22867355 -0.13790505 0.08121339 0.07934247 0.5520654
58 -0.08906559 0.15749948 -0.0663701 -0.15558371 0.005997282 0.122527994 0.06298458 0.2470131 0.06960761 -0.07448715 -0.19202484 -0.009593051 0.43162528 0.34793758 0.014855351 0.22959904 0.107678175 0.22674048 0.2714972 -0.115337364 -0.2854591 0.07120161 -0.1313363 0.030617261 0.07524582 -0.067189194 0.27776596 0.28134474 -0.24336663 0.033085827 -0.17300737 0.002786811 0.1304882 0.061861895 -0.23546353 -0.08723112 -0.02098429 0.076973096 0.20836975 -0.06393387 0.04470337 0.20580871 -0.18289332 -0.06315834 0.007037059 0.16348661 0.06394426 -0.09655517 0.022886606 -0.17097707 -0.032599214 -0.05011773 -0.12225169 -0.29948887 -0.1535901 -0.08144381 0.012675797 -0.09582188 0.3251242 0.22205159 -0.14498888 0.07202857 0.07436802 0.53620285
48 -0.10423425 0.15443398 -0.07321836 -0.15615337 0.014888466 0.120823696 0.07388899 0.24278176 0.05962431 -0.06747371 -0.1930735 -0.0048784926 0.43997657 0.35058567 0.012363339 0.23429503 0.116725095 0.21648216 0.27679032 -0.10695204 -0.29661888 0.066497184 -0.1422956 0.043907277 0.06935553 -0.06273865 0.28859863 0.26878783 -0.23565464 0.04100809 -0.17051595 -0.0079051955 0.123129085 0.0678254 -0.23137754 -0.09161624 -0.03085293 0.06928951 0.21949509 -0.06993954 0.03809885 0.20304798 -0.18061264 -0.06936892 0.015493768 0.1560993 0.06918943 -0.09799601 0.025560476 -0.18580347 -0.03537373 -0.05049991 -0.11887892 -0.31075522 -0.14838067 -0.083080575 0.018167378 -0.08568837 0.32863545 0.23203549 -0.14089783 0.08597825 0.071539335 0.54733795
85 -0.08708593 0.15375832 -0.08135076 -0.15247062 0.010000102 0.12018361 0.06411849 0.2391598 0.06322513 -0.06564664 -0.1960853 -0.007133029 0.42785087 0.3388412 0.0050273165 0.22247073 0.11657362 0.2250043 0.2644991 -0.108166486 -0.2830971 0.059333734 -0.12979099 0.03933809 0.07134728 -0.06971514 0.2827457 0.2664151 -0.2371565 0.03570817 -0.16664217 -0.004493054 0.12093043 0.07168894 -0.2302905 -0.08802175 -0.029794838 0.06610437 0.2127318 -0.057366155 0.033249788 0.2178396 -0.17368911 -0.06744574 0.00834504 0.16068855 0.068112604 -0.10417987 0.022386407 -0.18227619 -0.042711124 -0.057309862 -0.11751252 -0.30465552 -0.15264744 -0.08752373 0.012751624 -0.09183556 0.32216597 0.23804785 -0.1349577 0.0850003 0.06748375 0.5419376
91 -0.09840378 0.15237594 -0.07315106 -0.15362257 0.0124709075 0.12522472 0.077407315 0.23379457 0.06942893 -0.066215575 -0.1980909 -0.00023540333 0.4337858 0.3387222 0.0070651104 0.22989555 0.11793158 0.22103798 0.27259654 -0.112326756 -0.28199017 0.06720729 -0.1420215 0.04106742 0.07921453 -0.06621117 0.2757214 0.2779173 -0.22743244 0.041604295 -0.17491838 0.004205725 0.121853426 0.07122473 -0.23574893 -0.094782 -0.025790578 0.075222395 0.21995135 -0.0639372 0.040561274 0.21494569 -0.18182819 -0.06518828 0.0042930967 0.1625864 0.07266611 -0.094761014 0.02609095 -0.18553819 -0.045192413 -0.059085414 -0.13210051 -0.30140823 -0.15765382 -0.09431271 0.026452899 -0.09498163 0.32769635 0.24207778 -0.13356604 0.07966423 0.067951016 0.5457719
17 -0.091451034 0.1678195 -0.08028981 -0.15508136 0.010571788 0.12041179 0.07703905 0.23994888 0.070287 -0.07433141 -0.18674836 -0.004279524 0.41829717 0.32765183 0.0040551727 0.2251733 0.124451585 0.2211175 0.2751089 -0.11323726 -0.29532617 0.059047777 -0.13863207 0.04214748 0.07543476 -0.069997005 0.28346893 0.26351 -0.22987892 0.0357968 -0.17688192 -0.0022386776 0.11691901 0.066312015 -0.23056516 -0.07905954 -0.03632839 0.075570695 0.22039409 -0.058050487 0.033686128 0.21079953 -0.18762423 -0.055351578 0.0061410856 0.15183939 0.06382564 -0.09295008 0.01906673 -0.16996416 -0.03504022 -0.056068793 -0.11763489 -0.29317644 -0.15215461 -0.08998288 0.02756419 -0.09858489 0.32101163 0.23665234 -0.14065303 0.07768471 0.067530386 0.52678037
1 -0.09968205 0.15917104 -0.07313883 -0.15276392 0.0033251622 0.12374794 0.06694923 0.23170999 0.057362884 -0.06729044 -0.18465748 -0.0034906934 0.43406633 0.3399296 0.012584404 0.22261748 0.12608968 0.21385643 0.27263755 -0.103728145 -0.30023164 0.07341688 -0.13996896 0.044583462 0.07882293 -0.06716673 0.28333974 0.2776637 -0.24227528 0.023752773 -0.17967078 -0.005403382 0.11518065 0.07068728 -0.23638399 -0.075774305 -0.0317435 0.07116909 0.22597685 -0.059141748 0.038068734 0.21125829 -0.18955995 -0.057223637 0.0061692772 0.15832692 0.07264051 -0.08935354 0.017929116 -0.17574121 -0.040083196 -0.05003332 -0.10993177 -0.3074864 -0.15599076 -0.08549009 0.01835568 -0.10515412 0.32408783 0.23898426 -0.12905702 0.06953972 0.074156664 0.5372351
3 -0.097814776 0.16284099 -0.07887136 -0.15166745 0.013894387 0.12726696 0.064271525 0.23039466 0.07243174 -0.06689135 -0.18511039 0.006747411 0.441382 0.34018895 0.0034204382 0.2354531 0.112322554 0.22278042 0.27639258 -0.10945953 -0.28913262 0.07156997 -0.12972595 0.039469678 0.06809174 -0.056858998 0.28202316 0.28043458 -0.23307206 0.039473306 -0.17434394 -0.011768766 0.11552612 0.06101044 -0.23626001 -0.08048913 -0.027210915 0.07544643 0.21787004 -0.061214495 0.0348739 0.20725998 -0.17820133 -0.06279671 0.0113662565 0.16192357 0.07137526 -0.09586273 0.022521107 -0.18027242 -0.043268338 -0.05049292 -0.1266015 -0.2956668 -0.15402766 -0.08438815 0.020429749 -0.097130895 0.32738173 0.23584995 -0.13971771 0.07016657 0.076694526 0.54388493
16 -0.09295612 0.15925558 -0.064571775 -0.15378223 0.0025451689 0.117576554 0.07177626 0.23074238 0.07404894 -0.064699925 -0.18859482 -0.0035747737 0.4234389 0.3283878 0.007038769 0.23261783 0.11969169 0.20903629 0.26893133 -0.1108551 -0.2774916 0.06467121 -0.13020615 0.030731237 0.070005886 -0.0652774 0.28547153 0.27298543 -0.22972153 0.02888423 -0.1843953 -0.0058399094 0.124575496 0.06764471 -0.22747506 -0.08506847 -0.018550415 0.0680482 0.21412706 -0.07266652 0.031913567 0.20579092 -0.17941599 -0.06370739 -0.0036536339 0.15351918 0.06807657 -0.09928398 0.026807757 -0.18551172 -0.034230866 -0.053034965 -0.11971205 -0.30852267 -0.15525164 -0.08950436 0.022758767 -0.09762368 0.31842557 0.2257112 -0.14571358 0.08178085 0.074560955 0.551765
61 -0.08106914 0.16302584 -0.07709355 -0.15238039 0.010365564 0.12933211 0.06065922 0.24654244 0.0564385 -0.07078649 -0.19729026 0.005553357 0.4281011 0.33576825 0.018883044 0.23520793 0.11641232 0.21859397 0.28025135 -0.111091435 -0.28686616 0.067263424 -0.12768412 0.029315475 0.084386654 -0.06768656 0.2735115 0.27755043 -0.23307684 0.036794916 -0.1726595 -0.002240023 0.12802023 0.07232607 -0.23133713 -0.09622431 -0.033414967 0.07594234 0.2197413 -0.05807391 0.03999641 0.2137556 -0.18745218 -0.05611302 0.0082393335 0.15108903 0.06951257 -0.101849794 0.02394353 -0.17894046 -0.02622658 -0.047848493 -0.11678677 -0.29955837 -0.15154912 -0.081466764 0.028786346 -0.10259198 0.31641552 0.231985 -0.14359264 0.07962136 0.06960262 0.5430294
99 -0.10608142 0.16070345 -0.084142804 -0.15484942 0.010736952 0.12980269 0.070921555 0.23824576 0.059889946 -0.08073546 -0.19582699 -0.008917544 0.44461444 0.34390712 0.008024193 0.2310629 0.1190618 0.21158327 0.26185814 -0.110740855 -0.28699875 0.07254345 -0.14726773 0.038783386 0.073797174 -0.05909524 0.2733804 0.27277416 -0.23318638 0.032162607 -0.16901115 -0.0043733725 0.12295726 0.058615375 -0.23479643 -0.09246643 -0.02495446 0.079660445 0.21619713 -0.06600067 0.039472774 0.20831454 -0.17833062 -0.056743175 0.008321837 0.15162143 0.07846544 -0.10478813 0.028083637 -0.16825368 -0.031697698 -0.056477208 -0.11354275 -0.29087648 -0.13805416 -0.083669044 0.019549672 -0.09707515 0.32467437 0.23959564 -0.14551933 0.087128125 0.067960985 0.5385167
26 -0.091543175 0.16893573 -0.074187525 -0.1629487 0.00892216 0.11586867 0.067406796 0.23280053 0.06053868 -0.06383252 -0.1870341 -1.798544e-05 0.42606074 0.33647195 0.009608986 0.22817504 0.11218388 0.22246683 0.2757652 -0.11808258 -0.28223667 0.058540743 -0.13830854 0.042836666 0.069899864 -0.05761935 0.28122222 0.26859 -0.23441648 0.037692253 -0.17268598 -0.012280049 0.12467948 0.068683945 -0.23235483 -0.07533842 -0.027075877 0.07428324 0.2053294 -0.057850786 0.043432303 0.21095937 -0.18280677 -0.06721883 -0.0001302585 0.14874843 0.07116269 -0.10123786 0.017686628 -0.1810907 -0.03596731 -0.051741317 -0.11589508 -0.29336149 -0.15322831 -0.07850901 0.025672495 -0.094437875 0.3203827 0.23661372 -0.14390382 0.08055502 0.06366752 0.53523695
75 -0.09483378 0.1654864 -0.07336551 -0.15954429 0.001520282 0.12835686 0.063792616 0.22798826 0.07071834 -0.06553156 -0.18552087 -0.0058749467 0.42997488 0.32968995 0.013362011 0.22306345 0.102611594 0.21698132 0.27276075 -0.11312519 -0.2888976 0.05868583 -0.13746081 0.04424382 0.08373986 -0.056372937 0.27056798 0.2833252 -0.23860653 0.0457402 -0.17675334 -0.008981537 0.11805856 0.06377177 -0.23523673 -0.090841845 -0.031749066 0.086216874 0.20722634 -0.07027823 0.032961693 0.21284106 -0.17799489 -0.06652074 0.0122937495 0.15548417 0.07305755 -0.10171552 0.018701486 -0.16866231 -0.040925335 -0.058467466 -0.11438159 -0.28927308 -0.14544937 -0.08154944 0.02598639 -0.08935825 0.3229841 0.22423051 -0.13195562 0.08351627 0.08057303 0.5424511
38 -0.1008979 0.15892695 -0.07827606 -0.15705451 0.00835177 0.13162988 0.07341493 0.24147297 0.06223407 -0.07756846 -0.19388731 -0.004131121 0.44175893 0.34122965 0.011969358 0.23077232 0.11377918 0.21314515 0.2623802 -0.10753421 -0.2910784 0.06708711 -0.14414139 0.04067695 0.071381114 -0.07114931 0.27737528 0.27129257 -0.236831 0.033000823 -0.17623457 -0.003954553 0.1267361 0.067187145 -0.23895061 -0.09081319 -0.038377136 0.07016905 0.21587522 -0.06675411 0.025466168 0.21216898 -0.18213567 -0.06656106 0.0060478384 0.14934364 0.070948765 -0.101137884 0.02240793 -0.17905454 -0.031674065 -0.053671874 -0.11282548 -0.30093113 -0.14296116 -0.082218304 0.014840728 -0.09167388 0.3243733 0.23342676 -0.13373305 0.073752195 0.06925757 0.5409757
51 -0.08363988 0.1517735 -0.07394591 -0.15612184 0.0074910237 0.11771171 0.07420667 0.24015406 0.06121604 -0.071877696 -0.19780953 -0.0034752218 0.42261395 0.34113306 0.010698612 0.21899906 0.118174605 0.21277738 0.26825204 -0.10721472 -0.2891651 0.06716533 -0.14079084 0.04371049 0.06803319 -0.057640553 0.27623913 0.26426208 -0.23806563 0.04054139 -0.16375646 -0.0073689525 0.12945096 0.0713971 -0.2312162 -0.09334051 -0.02068303 0.071877636 0.21850178 -0.06990611 0.030467402 0.2133164 -0.17061499 -0.06769256 0.0034716579 0.15516745 0.06116266 -0.106301464 0.022621254 -0.17284665 -0.033093803 -0.050950665 -0.11170281 -0.30401662 -0.152573 -0.09175223 0.022667987 -0.09847543 0.31504208 0.23327166 -0.1385391 0.083424956 0.0691773 0.53083664
79 -0.08784204 0.1649866 -0.0715805 -0.15617804 0.0130103575 0.12508607 0.06408736 0.2527982 0.07164254 -0.07619956 -0.19278568 -0.0020874871 0.43904102 0.3446605 0.00980049 0.23256435 0.123159766 0.21891733 0.27069816 -0.1038158 -0.28613862 0.061584048 -0.13776839 0.029801343 0.08104481 -0.07245813 0.27870882 0.26664305 -0.22966003 0.02785407 -0.17486376 0.0018599911 0.12614767 0.06252609 -0.22729957 -0.08200455 -0.029990394 0.06729856 0.21996936 -0.058707274 0.038203828 0.2089267 -0.1707386 -0.059064947 0.0069794194 0.16852964 0.06922675 -0.09843194 0.015773423 -0.1789526 -0.03590454 -0.05385539 -0.11856669 -0.30286002 -0.15088812 -0.087664805 0.016000526 -0.09638342 0.32917035 0.23891817 -0.14037076 0.07201172 0.07838913 0.5502617
97 -0.087529086 0.17090003 -0.08307422 -0.16015379 0.01224528 0.12879698 0.06853982 0.25044656 0.055397075 -0.07540424 -0.19209619 -0.008272664 0.4361269 0.33793315 0.017556379 0.23279613 0.11852033 0.2297682 0.27068838 -0.09915625 -0.2894657 0.06962798 -0.13529295 0.04705699 0.07269185 -0.07455686 0.2813022 0.2685605 -0.23729573 0.041781675 -0.17147441 0.0007245081 0.120256744 0.062453844 -0.23695044 -0.08924576 -0.02493488 0.076768056 0.20956966 -0.07108823 0.03479744 0.21260576 -0.17691259 -0.060743075 0.0016911435 0.16222069 0.07265461 -0.101199746 0.018782116 -0.18399487 -0.044526674 -0.04866593 -0.11494033 -0.2996564 -0.14972335 -0.089314766 0.022826012 -0.086540006 0.32677206 0.23537967 -0.14936902 0.08247546 0.067420185 0.5523773
81 -0.08831123 0.15648773 -0.07073904 -0.15289158 0.010295743 0.12426658 0.073569566 0.23096827 0.06647315 -0.066016145 -0.19847701 0.004189478 0.44094622 0.33338165 0.014110732 0.2259318 0.12373633 0.22745445 0.28016993 -0.10188835 -0.28681824 0.059746575 -0.13140917 0.04573123 0.08570569 -0.057885647 0.2795614 0.26689717 -0.23971596 0.032973822 -0.18382171 -0.0038379927 0.13013981 0.06590214 -0.23978929 -0.09260326 -0.01917224 0.06931153 0.22409032 -0.058748342 0.034325045 0.21259318 -0.18388334 -0.060414482 0.014925071 0.16084719 0.06519629 -0.09718736 0.019827362 -0.17576507 -0.028220385 -0.046575647 -0.118399635 -0.29623002 -0.14501259 -0.0853335 0.01607667 -0.085515685 0.31324694 0.22591281 -0.14141254 0.07359416 0.073362425 0.5400862
57 -0.09079408 0.15442863 -0.06672617 -0.15298428 0.010888961 0.11725781 0.07345633 0.22495203 0.05744842 -0.06712737 -0.19816996 -0.0013536334 0.43443948 0.32713893 0.005861188 0.22650808 0.110264115 0.221363 0.28133208 -0.11235433 -0.29307383 0.05709974 -0.13188478 0.045569703 0.07991466 -0.060868964 0.2777594 0.2692983 -0.23095134 0.028287979 -0.18369389 0.0017886617 0.112828195 0.06832903 -0.22566772 -0.08100922 -0.031114498 0.074936464 0.21650797 -0.06352661 0.03730202 0.21879742 -0.17525768 -0.06072493 0.008204089 0.15587644 0.07903275 -0.09732838 0.019951204 -0.1813347 -0.038461063 -0.0585563 -0.12588473 -0.30975616 -0.14886399 -0.0840428 0.021744754 -0.09200697 0.3303086 0.23887292 -0.136477 0.087504596 0.071590416 0.5517147
34 -0.08908249 0.1686074 -0.07219986 -0.14858495 0.0030997484 0.12723354 0.0667962 0.23460174 0.06634137 -0.06920896 -0.19406494 -0.009562197 0.43979266 0.3455206 0.010876655 0.22174689 0.12149339 0.22233975 0.27210757 -0.11593075 -0.30107918 0.0626224 -0.14104913 0.039086174 0.071924746 -0.0739784 0.27515757 0.2819999 -0.24635844 0.036960732 -0.1669271 -0.008508424 0.12718605 0.071303494 -0.239255 -0.0854846 -0.02335791 0.08179347 0.2250255 -0.071130015 0.042071637 0.21694832 -0.1752433 -0.056786474 0.010629913 0.15290512 0.061796863 -0.089974165 0.02198811 -0.16772057 -0.029248374 -0.051686816 -0.12784688 -0.2980407 -0.1468725 -0.08278464 0.021045173 -0.09961738 0.32768303 0.23077735 -0.13880445 0.083939195 0.0792341 0.53944784
37 -0.09439151 0.15853739 -0.07867397 -0.15866967 0.001927211 0.12762997 0.06881997 0.24130331 0.06415226 -0.0744222 -0.18747754 -0.008172616 0.43610963 0.34084022 0.0058996025 0.23023711 0.113720134 0.22873586 0.266165 -0.109778784 -0.29741725 0.058317874 -0.1361719 0.032082476 0.07898101 -0.074239135 0.28590548 0.27105153 -0.23213454 0.03723176 -0.17958519 -0.01244745 0.12700436 0.05807408 -0.2276087 -0.08999458 -0.023895375 0.078017205 0.22127722 -0.06957929 0.033110775 0.21519245 -0.17299503 -0.06179931 -0.007951307 0.1628425 0.074326634 -0.095211774 0.022201454 -0.16787279 -0.032498322 -0.041242223 -0.1320577 -0.300649 -0.138036 -0.08135067 0.02250768 -0.091711245 0.3183749 0.2358707 -0.13642712 0.081003636 0.071253985 0.54946524
25 -0.09575737 0.15766616 -0.07977578 -0.15187535 0.013803296 0.12568896 0.054554187 0.22541474 0.057394236 -0.07249903 -0.18737416 -0.0007971726 0.4370625 0.33011946 0.010060348 0.23631282 0.11593143 0.20922709 0.2744476 -0.11049174 -0.2920285 0.0684608 -0.13062336 0.04663786 0.07709173 -0.06416143 0.28123838 0.27987364 -0.23023298 0.046670116 -0.16853291 -0.0026230603 0.11574059 0.06080818 -0.23927882 -0.096475996 -0.031066785 0.07045632 0.2164145 -0.06387863 0.034496315 0.21276645 -0.18109587 -0.067080505 0.0017932781 0.15010162 0.06885345 -0.09541246 0.01831657 -0.17425813 -0.028505303 -0.051025745 -0.10990977 -0.28741783 -0.14756249 -0.07728905 0.016605888 -0.0980337 0.3170937 0.23046471 -0.13990097 0.08902885 0.073823884 0.54766876
92 -0.09142269 0.15331896 -0.077828415 -0.1472963 0.0069455397 0.12480947 0.070693664 0.23897041 0.06283094 -0.06391852 -0.19833897 -0.0012864905 0.43161863 0.32983524 0.0008918871 0.21807626 0.10643705 0.22622828 0.2759249 -0.10381672 -0.28877828 0.05826557 -0.13610967 0.033751056 0.08070791 -0.05915044 0.28559357 0.2760186 -0.23226617 0.035017222 -0.18222317 0.00020787971 0.12418389 0.07333292 -0.2264968 -0.08827149 -0.017881915 0.06899691 0.22422746 -0.062425565 0.03453955 0.21227647 -0.17656858 -0.06976289 0.010564311 0.1666166 0.061712835 -0.10369646 0.01940569 -0.18277124 -0.031596534 -0.055594333 -0.12687613 -0.3001965 -0.14600445 -0.08437078 0.022701912 -0.083940916 0.32371545 0.23007433 -0.14028658 0.08133157 0.07756869 0.5517188
74 -0.10502362 0.1560929 -0.06308106 -0.15883225 0.011923452 0.11970021 0.06589615 0.23735099 0.06601407 -0.06700334 -0.18547325 -0.008081814 0.44091403 0.33634344 0.0011597889 0.23639682 0.110781915 0.2185195 0.27767164 -0.102163896 -0.28624895 0.07095251 -0.14182518 0.033323713 0.07775891 -0.056705628 0.28110132 0.27619743 -0.23414436 0.039722685 -0.16640514 -0.008977029 0.12772542 0.06357709 -0.22900262 -0.096771136 -0.03012631 0.07085701 0.2115675 -0.060520805 0.035554934 0.20199871 -0.17781644 -0.06886926 0.0073929816 0.15913078 0.06312386 -0.10000781 0.029184142 -0.16888686 -0.028819399 -0.05239487 -0.10531499 -0.30333424 -0.14934686 -0.08003728 0.022452703 -0.09550039 0.32340664 0.23566273 -0.13848144 0.083367765 0.072161436 0.53820795
32 -0.09996235 0.17225759 -0.065478705 -0.15344274 0.011552685 0.121846616 0.063113146 0.24726498 0.0581505 -0.07690987 -0.1860305 -0.008603411 0.4354801 0.33965576 0.0096897995 0.23712435 0.12430457 0.22242942 0.26431185 -0.1012393 -0.2867108 0.057182223 -0.13750611 0.034163903 0.07725958 -0.058713622 0.2846185 0.27176392 -0.24285166 0.042373963 -0.17187598 -0.009892487 0.11164915 0.060339246 -0.23149675 -0.078548804 -0.028082754 0.06940753 0.20528767 -0.05511593 0.033392586 0.20485468 -0.18295585 -0.06468036 -0.0017898595 0.15609172 0.07557307 -0.09903658 0.02649052 -0.1777335 -0.047722407 -0.043770563 -0.120896235 -0.29933774 -0.14963317 -0.088213086 0.018002752 -0.09872842 0.3323358 0.23497787 -0.13772747 0.07862325 0.080163166 0.5487621
22 -0.09249076 0.16413018 -0.07741602 -0.15770696 0.0055373055 0.12861401 0.061303943 0.2443282 0.05865021 -0.06599717 -0.18815614 0.004541205 0.43617973 0.33261517 0.011542621 0.22994196 0.12081857 0.22507535 0.26790103 -0.10094275 -0.29728094 0.05984471 -0.13212352 0.037463218 0.084186256 -0.07058611 0.2830549 0.26986432 -0.23159763 0.030854808 -0.16601871 0.0046187346 0.11561803 0.072536714 -0.23499925 -0.09396371 -0.03213659 0.07106024 0.21531564 -0.058061086 0.038823925 0.20326905 -0.17926104 -0.060061265 0.009552601 0.16313544 0.061002295 -0.09126328 0.012385164 -0.17939906 -0.033332456 -0.044920642 -0.11508199 -0.29737458 -0.1443039 -0.0791405 0.010757417 -0.09446818 0.3204598 0.22636929 -0.13679516 0.07340404 0.079682454 0.5464934
80 -0.08852002 0.16916133 -0.07226254 -0.15719031 0.007518959 0.11911924 0.061107602 0.23955667 0.068476066 -0.063333884 -0.18450283 -0.0046912045 0.42750993 0.33533877 0.013266541 0.22412199 0.11446839 0.22076629 0.26723003 -0.1111189 -0.3005469 0.067373805 -0.13332327 0.046894874 0.07901449 -0.06989302 0.28813672 0.27507076 -0.23759124 0.043593973 -0.17164429 -0.0011286585 0.12127567 0.06689115 -0.23500496 -0.09594898 -0.027542857 0.06728758 0.20921598 -0.0701133 0.03314451 0.20728867 -0.1876234 -0.07198156 0.01020763 0.15540531 0.07507798 -0.092990525 0.028025962 -0.17041212 -0.04005056 -0.045760747 -0.12253369 -0.29622835 -0.15453357 -0.0737782 0.017672736 -0.095898055 0.32528874 0.22175151 -0.14583027 0.090068094 0.069713116 0.5495338
19 -0.1007219 0.16783017 -0.07962315 -0.16195965 0.014292599 0.12381574 0.061347373 0.245246 0.06807556 -0.0682763 -0.1880059 -0.003885925 0.4406966 0.34505463 0.003779835 0.22997668 0.109836556 0.21299838 0.2658414 -0.103120945 -0.29568166 0.06576321 -0.1384446 0.03726097 0.07204742 -0.061118316 0.27215183 0.2645631 -0.23594426 0.037532058 -0.17366709 -0.0051217848 0.1292631 0.071205966 -0.23630881 -0.09221237 -0.02915518 0.074242674 0.21240318 -0.06658468 0.035770383 0.19924408 -0.18282986 -0.06278493 0.0075042727 0.16601555 0.07617736 -0.10200702 0.027724521 -0.17109431 -0.037740733 -0.051550563 -0.12802534 -0.2973684 -0.14464633 -0.08878821 0.022373892 -0.09603645 0.32160687 0.23011248 -0.13426241 0.08301722 0.06617368 0.5318888
21 -0.08456516 0.16526835 -0.085469015 -0.1636647 0.005454414 0.124575734 0.06446659 0.25048384 0.059162095 -0.069339216 -0.1933857 0.008204765 0.43080226 0.33387378 0.009132231 0.23126093 0.10966525 0.22306405 0.26500472 -0.109870374 -0.28713274 0.068929456 -0.14101845 0.04282219 0.074798994 -0.061014418 0.28057098 0.27623093 -0.23838331 0.037175126 -0.17445108 -0.008211572 0.12464159 0.07235459 -0.24119022 -0.07540222 -0.025698828 0.082374334 0.22413938 -0.068464294 0.038676117 0.19679002 -0.17009337 -0.06849693 0.008729484 0.15354645 0.06749729 -0.09738317 0.024452396 -0.182836 -0.038591173 -0.055446416 -0.12322992 -0.29691723 -0.14063714 -0.08137628 0.024917167 -0.08700084 0.31206432 0.22441903 -0.14433815 0.06316403 0.08341261 0.5423761
65 -0.108421944 0.1739897 -0.07546774 -0.1616241 0.016710535 0.13540697 0.068741195 0.25418702 0.06965845 -0.080723725 -0.195153 -0.00036700207 0.4290211 0.33540937 0.00059448305 0.22090904 0.117391914 0.22667539 0.27662998 -0.097194605 -0.2923404 0.055274036 -0.13493316 0.039352022 0.07247825 -0.06699299 0.28512004 0.2785035 -0.22971223 0.03527461 -0.16842024 -0.008993034 0.11907482 0.061416805 -0.22507524 -0.07615082 -0.020501707 0.07859199 0.21784428 -0.06750397 0.03958394 0.20031552 -0.17429389 -0.058130365 0.010920274 0.1510649 0.06269956 -0.10464173 0.017423375 -0.17082201 -0.03151324 -0.051191576 -0.11507247 -0.29780075 -0.14513652 -0.08196076 0.0090054935 -0.105007835 0.32064947 0.23596662 -0.14514808 0.07094226 0.06962266 0.5420787
95 -0.09965886 0.14987688 -0.07312078 -0.1595273 0.0147895105 0.12210096 0.068472594 0.23313995 0.06879286 -0.07424909 -0.18609312 0.0030870677 0.4428155 0.3356821 -0.00040150498 0.22586057 0.12135226 0.21472536 0.26234457 -0.10044661 -0.29100773 0.06307036 -0.13753936 0.036200833 0.08499653 -0.054932307 0.2704036 0.27902848 -0.23309466 0.0365966 -0.17974912 -0.012161195 0.1154211 0.068813615 -0.22958395 -0.07774912 -0.01915004 0.073033586 0.21826446 -0.06783186 0.035657533 0.2000988 -0.18295726 -0.064512335 -0.0033491175 0.14800832 0.0687318 -0.104388505 0.023396073 -0.17732514 -0.029102407 -0.052805495 -0.12327703 -0.3051585 -0.14900845 -0.08933208 0.02812985 -0.09448324 0.32062557 0.22413544 -0.13478605 0.06723013 0.074469544 0.5434429
59 -0.100267686 0.1683787 -0.07926078 -0.15152566 0.0033800034 0.12929323 0.0712124 0.251769 0.06889539 -0.07524848 -0.1860368 0.0019824046 0.44056037 0.33214545 0.0035234406 0.22986023 0.116829395 0.22291146 0.2792608 -0.10865003 -0.2874901 0.063547514 -0.13211691 0.03524782 0.076406196 -0.07206247 0.28880945 0.2815747 -0.23695107 0.03634948 -0.17453332 -0.0022150173 0.12377524 0.06727677 -0.23070398 -0.0904263 -0.030245656 0.072729275 0.22597359 -0.05726702 0.029605534 0.20215014 -0.17970893 -0.070786916 0.011536868 0.15936074 0.07190599 -0.100419804 0.024801122 -0.18075053 -0.044204447 -0.047819264 -0.110890314 -0.3078324 -0.14896084 -0.093335986 0.021774324 -0.09781116 0.31986538 0.23204623 -0.13834664 0.081282854 0.077027045 0.54406214
15 -0.097515985 0.14973482 -0.063470215 -0.15523575 0.0032129847 0.11093306 0.060470644 0.2353876 0.06705681 -0.0630341 -0.18720196 -0.0007461259 0.43619645 0.33927995 0.0048920033 0.22900134 0.10767656 0.2221475 0.2762934 -0.10703695 -0.2972923 0.0677506 -0.13637227 0.047071747 0.08553712 -0.06941552 0.28364986 0.276826 -0.23499903 0.042835474 -0.17765933 -0.0006835753 0.12851173 0.062269356 -0.24078503 -0.09048385 -0.027129656 0.07560914 0.21077155 -0.06366667 0.036492158 0.21088587 -0.1753424 -0.06776451 0.0020423399 0.16448733 0.07080211 -0.10184475 0.01861089 -0.17739898 -0.0364289 -0.05368403 -0.11344304 -0.29992995 -0.14212443 -0.089791924 0.019656109 -0.09762489 0.31809092 0.23892532 -0.13801888 0.08243952 0.07419802 0.5455753
33 -0.08514068 0.16987234 -0.07000042 -0.15801708 0.012719987 0.13551731 0.06253047 0.23477195 0.06762986 -0.06233493 -0.18734597 -0.0077750934 0.4370031 0.33448014 0.0098917205 0.23220558 0.11481549 0.22564502 0.26489815 -0.10048701 -0.2925558 0.0682782 -0.13207144 0.029754577 0.077661164 -0.062446255 0.27253875 0.27889124 -0.22535379 0.031456687 -0.1596525 -0.009277405 0.12464214 0.07332456 -0.22630884 -0.08482085 -0.032983977 0.07184334 0.21073268 -0.062662564 0.042872522 0.21331613 -0.17282906 -0.06750704 0.00030172945 0.16623598 0.056290552 -0.09422046 0.020123664 -0.17494608 -0.032571126 -0.05084065 -0.12778331 -0.2972463 -0.14991502 -0.08532036 0.022563001 -0.0929744 0.31974944 0.21900113 -0.13449328 0.07051989 0.076666474 0.5435836
98 -0.09341403 0.15404922 -0.06931174 -0.15152802 0.010718836 0.12532054 0.065732814 0.23893085 0.06458566 -0.06805764 -0.1935022 -0.005895364 0.4323677 0.33582437 0.011462454 0.23658463 0.108674 0.22261654 0.27393454 -0.10397244 -0.29704514 0.0725108 -0.14349356 0.039102823 0.078946985 -0.064176165 0.28593844 0.27543658 -0.2423621 0.033260353 -0.16941704 -0.0012826712 0.118750796 0.07313834 -0.24428771 -0.079974726 -0.01796902 0.07183805 0.2177831 -0.06150735 0.02796037 0.20694155 -0.17364064 -0.07368802 -0.003541146 0.16420476 0.07314598 -0.0954043 0.014994986 -0.16845463 -0.045868147 -0.04732995 -0.11121719 -0.29564464 -0.14993082 -0.07844333 0.015762558 -0.09249584 0.3253497 0.23581463 -0.12922299 0.07842566 0.06475171 0.53796357
27 -0.0844356 0.15784626 -0.06866624 -0.15698461 0.0097814035 0.13076073 0.061824687 0.22695701 0.06439993 -0.07528016 -0.1813692 -0.013474545 0.42830953 0.33806765 0.011115527 0.21953763 0.11286508 0.23197234 0.26861823 -0.104326405 -0.30176583 0.058228742 -0.13085538 0.043564234 0.07474121 -0.064865544 0.27441472 0.2805876 -0.23867449 0.027220918 -0.18034996 0.003648634 0.1224004 0.07549142 -0.22731145 -0.09171625 -0.031048026 0.078622825 0.2209567 -0.055453252 0.039658695 0.21962273 -0.17929174 -0.063349515 0.011512436 0.15325412 0.071942076 -0.089861676 0.023986837 -0.17351283 -0.043285795 -0.054538544 -0.11663366 -0.30731523 -0.14467497 -0.08847839 0.0105889 -0.09738759 0.3153345 0.22480771 -0.1296349 0.074280545 0.07281127 0.5528649
76 -0.0839962 0.16776156 -0.076675616 -0.15519387 0.0029418913 0.12366809 0.059718803 0.24708109 0.062854275 -0.067575544 -0.1854773 -0.0008925721 0.43673384 0.3343978 0.009521472 0.2289128 0.11824586 0.21382119 0.27307487 -0.10679088 -0.28961048 0.066811085 -0.14078501 0.027912294 0.07954167 -0.07158297 0.2748868 0.27479413 -0.22455381 0.035530206 -0.17589736 -0.0039248248 0.12354076 0.05682821 -0.24026774 -0.081387214 -0.020602766 0.065712035 0.21820989 -0.06366658 0.036702532 0.20076534 -0.17406233 -0.06235752 0.0030142257 0.1631265 0.067201726 -0.101731665 0.0154919205 -0.17872211 -0.042146057 -0.057557985 -0.13292854 -0.29407674 -0.15492538 -0.08004257 0.021397732 -0.09774569 0.32189336 0.2251836 -0.13612537 0.06512321 0.063750535 0.53176266
96 -0.101781085 0.16154562 -0.07686841 -0.15499404 0.013499133 0.1269613 0.07269843 0.2353638 0.06064692 -0.06281432 -0.19184346 0.0009497568 0.43183136 0.33078316 0.0039656605 0.23441769 0.10660823 0.22160417 0.2644074 -0.10306903 -0.29621616 0.053974852 -0.13860244 0.03093359 0.07281231 -0.068317086 0.28690538 0.27512428 -0.22812793 0.044876102 -0.17648311 0.0024651329 0.1145372 0.07084816 -0.23792149 -0.09769312 -0.025446413 0.08001758 0.22023101 -0.056389894 0.03840439 0.20153053 -0.17915481 -0.059607297 0.007236045 0.157288 0.06704109 -0.0932721 0.01260773 -0.17602502 -0.039335374 -0.04412407 -0.11166226 -0.29900017 -0.14161986 -0.08490263 0.010969222 -0.08643439 0.31407323 0.22055396 -0.14685436 0.07655881 0.07581587 0.5427102
5 -0.09795788 0.15891337 -0.08111617 -0.148396 0.014531177 0.12720764 0.070155986 0.2494717 0.06728406 -0.0632693 -0.18062599 0.0011483135 0.4326438 0.34730113 0.0053688837 0.2365282 0.10760856 0.21785614 0.26441887 -0.102623045 -0.29898027 0.06574643 -0.138549 0.041452322 0.078375116 -0.067191966 0.28950322 0.2674884 -0.23096703 0.035614178 -0.16492231 -0.008023059 0.121633425 0.066029705 -0.2298812 -0.08722159 -0.023018135 0.07148086 0.22473934 -0.056271583 0.041020107 0.2025094 -0.1894552 -0.07291846 0.007281035 0.16220005 0.06142944 -0.10602929 0.02738519 -0.18442433 -0.04515327 -0.05188939 -0.12502794 -0.2968128 -0.15385424 -0.08276424 0.015222389 -0.09625151 0.31882748 0.23176873 -0.14332728 0.08624376 0.07821904 0.5422781
82 -0.08954394 0.149463 -0.0714958 -0.15687649 0.017550832 0.12902534 0.063780114 0.23219866 0.07392234 -0.068943344 -0.18472035 0.004875628 0.43246683 0.3352799 0.0082496675 0.2338568 0.11940565 0.21249829 0.27876216 -0.100943066 -0.29777187 0.059714347 -0.1388132 0.03675095 0.084633425 -0.06946861 0.27141935 0.28137356 -0.23731399 0.034849208 -0.17784092 0.0025022808 0.12804951 0.057717778 -0.24138907 -0.08576765 -0.022610314 0.08297254 0.21033263 -0.062551335 0.044887204 0.2007202 -0.18263598 -0.058965996 0.0066904793 0.15342984 0.07447806 -0.10872329 0.01535891 -0.16567828 -0.036260802 -0.06048586 -0.12467042 -0.30441594 -0.13909486 -0.086345695 0.019123169 -0.097062774 0.31493673 0.22438756 -0.13480678 0.08489921 0.08185981 0.5423736
30 -0.096464865 0.16172376 -0.075030915 -0.16304794 0.0057423185 0.12819465 0.069152206 0.24481586 0.07420121 -0.0704696 -0.18527971 -0.004877548 0.43296632 0.34685078 0.004477218 0.22641483 0.120027475 0.22815612 0.2720926 -0.11058762 -0.29029667 0.06357792 -0.12906295 0.035991237 0.07668821 -0.07797536 0.28042066 0.2725916 -0.23054004 0.031557746 -0.1678744 0.0034930764 0.120624766 0.0703811 -0.23377958 -0.077993676 -0.03022521 0.08155667 0.22123471 -0.06845042 0.040476624 0.20244923 -0.17282464 -0.059706237 0.0006859894 0.16863242 0.07224302 -0.09746139 0.019539395 -0.17750704 -0.033141915 -0.048399337 -0.12458101 -0.29314566 -0.15183939 -0.08584619 0.01713756 -0.087798536 0.31727484 0.22506058 -0.13930279 0.08015461 0.07701776 0.5457651
13 -0.085704364 0.16667992 -0.07574177 -0.15651804 0.012636764 0.13713871 0.07588121 0.23880243 0.06798809 -0.07879326 -0.18256018 0.0080492245 0.42891565 0.34472457 0.008620431 0.22816262 0.115825415 0.23114419 0.2769995 -0.110797055 -0.28251877 0.060493197 -0.12959543 0.045421045 0.08319 -0.06307744 0.28303748 0.27710348 -0.24589658 0.040494278 -0.16656983 -0.00018806309 0.12848009 0.062491495 -0.23964706 -0.08330887 -0.031752408 0.07530292 0.21276778 -0.071463354 0.029408451 0.20662512 -0.17287004 -0.06410717 0.012177756 0.16010185 0.07425753 -0.09063373 0.017408852 -0.18525174 -0.03372365 -0.063906886 -0.11069762 -0.30830967 -0.15307283 -0.08052224 0.018686121 -0.087668724 0.3229285 0.22893575 -0.14401338 0.07088958 0.082349375 0.54891175
72 -0.09110666 0.16616544 -0.08117867 -0.14834793 0.0108512165 0.12554303 0.05955292 0.22177953 0.067590885 -0.06406152 -0.18955489 -0.0011187016 0.42533606 0.32687363 0.0007740914 0.23035705 0.11319793 0.22573361 0.26245096 -0.11285257 -0.2955349 0.06863362 -0.12890875 0.032900255 0.07931082 -0.057023548 0.28397012 0.27022707 -0.23710063 0.02927771 -0.1768841 -0.012567618 0.12433529 0.06996881 -0.23850597 -0.07437477 -0.024523744 0.07296046 0.22411798 -0.065317325 0.025764886 0.20780782 -0.1835565 -0.054812524 0.00033964738 0.15569979 0.07564938 -0.100309305 0.015153826 -0.16848174 -0.045442928 -0.055341862 -0.12050872 -0.30173478 -0.14334068 -0.08877499 0.028416885 -0.0814637 0.32062668 0.23507315 -0.14027868 0.07449471 0.06890474 0.53414994
6 -0.086026505 0.17085554 -0.08500012 -0.15668918 0.013989888 0.13268659 0.06917994 0.2371473 0.06584816 -0.06785451 -0.19332966 0.004707929 0.44133073 0.33731657 0.012494142 0.22985868 0.11335988 0.22232449 0.2616024 -0.10699258 -0.29147124 0.058497563 -0.13494028 0.038420703 0.075409934 -0.06417355 0.28191572 0.27357626 -0.23475504 0.041396063 -0.17165594 -0.006884957 0.13215023 0.07394882 -0.23111399 -0.08116186 -0.02490262 0.06849415 0.22490358 -0.07109936 0.03064929 0.20604815 -0.18390602 -0.06683628 0.0048260894 0.17120148 0.06340144 -0.09244836 0.028579878 -0.1794379 -0.030963382 -0.051744293 -0.13024992 -0.2946995 -0.15099664 -0.08398979 0.01414645 -0.085163966 0.32407278 0.22396307 -0.14856037 0.080318235 0.078805774 0.5512076
62 -0.08256806 0.15150274 -0.07904543 -0.15555768 0.011066747 0.115179226 0.07099729 0.23361938 0.06282798 -0.072676726 -0.18240705 -0.0062638405 0.42844084 0.3380242 0.008401144 0.2312713 0.10890219 0.22247934 0.27354795 -0.10920817 -0.28011167 0.07168273 -0.13325837 0.043971024 0.07241283 -0.06193761 0.2757323 0.27047333 -0.23874222 0.027047032 -0.16699733 -0.0013126977 0.12893362 0.07163211 -0.23319997 -0.07719609 -0.026389789 0.07858988 0.21872549 -0.059828185 0.045499932 0.21011521 -0.17649157 -0.06328273 0.0072974176 0.15682606 0.07069479 -0.10501692 0.019899588 -0.18430993 -0.036091387 -0.053613085 -0.11939512 -0.30598596 -0.15004452 -0.09343879 0.024102995 -0.08788324 0.3225111 0.22383775 -0.13052814 0.07967076 0.08119971 0.5409496
23 -0.09613397 0.1594943 -0.07125155 -0.16550764 0.007923955 0.1330963 0.07799544 0.24833074 0.05727481 -0.06964886 -0.18882807 0.004449347 0.44063342 0.3457427 0.0033266377 0.24083333 0.12319139 0.22284845 0.2771903 -0.11246164 -0.29402357 0.05904661 -0.13541566 0.030597761 0.07895733 -0.059275087 0.27691057 0.2706652 -0.22791472 0.0400424 -0.18044019 -0.0016326591 0.12198411 0.063476704 -0.2282822 -0.090191886 -0.032043237 0.07002103 0.2107881 -0.060634673 0.030962354 0.21585932 -0.18338527 -0.05731699 0.004086738 0.15081944 0.07114767 -0.092768826 0.026376588 -0.17074437 -0.032112744 -0.0506876 -0.1198867 -0.30014446 -0.15223469 -0.09130123 0.014053034 -0.09697421 0.32951295 0.23308879 -0.1413101 0.08757344 0.06705394 0.5415693
84 -0.09469955 0.16637987 -0.07453998 -0.16478723 0.013739489 0.13018608 0.057205267 0.22891106 0.06734993 -0.0806589 -0.19414815 -0.00046447667 0.43034577 0.33935815 0.016290417 0.22530293 0.10978294 0.23067445 0.28040496 -0.11296017 -0.28439012 0.07152099 -0.13477859 0.04906917 0.07343625 -0.06322953 0.28333697 0.26861456 -0.24758346 0.042033076 -0.18129526 -0.005365028 0.11321659 0.056605116 -0.23469236 -0.08845502 -0.023379676 0.06366527 0.2093993 -0.059904505 0.039247677 0.2116753 -0.1781725 -0.063190356 -0.0028476876 0.14912404 0.07176679 -0.10175986 0.017149758 -0.17829113 -0.032082494 -0.050930887 -0.11768912 -0.3003244 -0.13756934 -0.089816965 0.007998498 -0.08547869 0.31512594 0.23311909 -0.14063881 0.07881432 0.0830552 0.54322916
8 -0.07871993 0.15550162 -0.07414551 -0.14895213 0.00010072284 0.12575093 0.058465082 0.23541613 0.06627801 -0.0659088 -0.1940116 -0.007076996 0.42828506 0.33334845 0.01018037 0.22282442 0.116308324 0.2164654 0.27470684 -0.115126036 -0.29594302 0.05965335 -0.14327054 0.032509804 0.07701227 -0.06741845 0.27979204 0.27397346 -0.23849314 0.036770903 -0.16808604 -0.006015157 0.12640491 0.057621237 -0.23874927 -0.08350663 -0.033708904 0.075566016 0.22120614 -0.065434195 0.03284836 0.20753404 -0.18416472 -0.05612049 0.0044119186 0.16504459 0.072465464 -0.10023451 0.026722746 -0.17880768 -0.029986558 -0.058873277 -0.12221058 -0.29615146 -0.13743617 -0.07545637 0.028755466 -0.09857834 0.3147676 0.2292286 -0.1458795 0.083863944 0.07373682 0.54025173
24 -0.102215245 0.16086261 -0.07744018 -0.15493743 0.01659699 0.13663588 0.07388511 0.23679127 0.05742253 -0.06299652 -0.19375774 0.007624299 0.43658665 0.34050727 0.0055996603 0.22814864 0.11702829 0.22874506 0.271854 -0.11037089 -0.28948045 0.061741475 -0.13443412 0.0323028 0.0838035 -0.05785505 0.2770101 0.2670065 -0.22434317 0.029835608 -0.1686963 0.0036532197 0.11670671 0.06848718 -0.23031811 -0.09414301 -0.027551796 0.06493507 0.21448724 -0.06610075 0.02902219 0.20734373 -0.1847545 -0.055430427 0.010597504 0.15925173 0.07899732 -0.098667964 0.014217159 -0.17674142 -0.044177134 -0.05445884 -0.11937311 -0.29323602 -0.15257195 -0.08046344 0.025108863 -0.09808295 0.32414368 0.22731823 -0.13632938 0.06893158 0.06610048 0.5425723
77 -0.101228096 0.16471821 -0.077521026 -0.14528972 0.008174825 0.12821446 0.07630243 0.23259026 0.06982042 -0.077992536 -0.19204603 -0.0015074855 0.42857888 0.32893512 0.013250596 0.23219982 0.11622756 0.21823974 0.26942226 -0.11875277 -0.28972518 0.055131968 -0.13800207 0.04371662 0.07609962 -0.053974196 0.28248265 0.27277893 -0.23753169 0.04455826 -0.1684051 -0.011003404 0.12555112 0.06665243 -0.2346226 -0.089509845 -0.020300496 0.079798 0.2209236 -0.06425439 0.027350727 0.22152677 -0.16653533 -0.056761116 0.006515321 0.15585358 0.07981922 -0.10338272 0.011097068 -0.17868267 -0.03850152 -0.04476246 -0.12597498 -0.29522887 -0.14639671 -0.092735164 0.028654879 -0.09144308 0.32204977 0.22795244 -0.12886345 0.07018579 0.065472804 0.5375895
73 -0.09897353 0.15575248 -0.07884199 -0.1628287 0.0010847771 0.12561075 0.058699995 0.23402393 0.05710675 -0.071348354 -0.18710315 -0.004373021 0.44410422 0.33590692 0.014770038 0.24248113 0.12608755 0.22230494 0.2723703 -0.10260763 -0.2939045 0.06530151 -0.1430908 0.032754738 0.08655454 -0.07040192 0.28287727 0.27154344 -0.24414943 0.039832007 -0.18053493 0.0034256352 0.13312772 0.0565479 -0.24037567 -0.09175548 -0.025311826 0.06979075 0.21446525 -0.069539115 0.03780742 0.21403989 -0.18309896 -0.06724726 -0.0045954566 0.16158849 0.07612635 -0.09491823 0.017219618 -0.1700043 -0.025818229 -0.048612867 -0.11306706 -0.31027642 -0.15035246 -0.081675194 0.026186975 -0.09172172 0.31676257 0.22352129 -0.13858025 0.07564063 0.07708829 0.54002947
7 -0.08356932 0.1595448 -0.065948606 -0.14826001 0.00761198 0.12449557 0.07638409 0.22525604 0.06643542 -0.071044214 -0.19497602 -0.0103738215 0.4409274 0.3393457 0.010393404 0.22301252 0.11039528 0.21544668 0.27636662 -0.1031974 -0.28989545 0.056105554 -0.13714817 0.04200662 0.074456945 -0.058007803 0.26726803 0.2635863 -0.23390444 0.037963808 -0.16742696 0.0056402655 0.12458253 0.07076788 -0.22970478 -0.085060515 -0.039256852 0.07234497 0.208644 -0.063420914 0.03754988 0.20860073 -0.17645265 -0.06400719 0.014805223 0.16015458 0.06753667 -0.09821337 0.018562313 -0.18225452 -0.03960294 -0.049854405 -0.11981928 -0.30596295 -0.14505881 -0.082515374 0.010046635 -0.09424672 0.31730434 0.23558016 -0.13894032 0.08389075 0.06892733 0.54068553
29 -0.09547169 0.16394491 -0.07442301 -0.1565745 0.012839091 0.12331516 0.07159655 0.24588892 0.059695344 -0.068786986 -0.19455771 -0.00086376356 0.4448077 0.3436282 0.013594225 0.23766723 0.123894036 0.23036368 0.2791042 -0.09970493 -0.28711748 0.066552915 -0.13559033 0.0449644 0.084560335 -0.06330349 0.28443423 0.2691948 -0.24007371 0.027103478 -0.17085679 -0.0016380568 0.11671927 0.061303634 -0.23049884 -0.08272719 -0.03540735 0.06849343 0.22127798 -0.07291241 0.028029323 0.213731 -0.17475984 -0.07359695 0.00626721 0.16930659 0.06465217 -0.10038711 0.020412926 -0.17539337 -0.04307189 -0.05873061 -0.12278773 -0.30460697 -0.15362015 -0.0947914 0.014823329 -0.0876722 0.32841808 0.22477405 -0.13929777 0.08662214 0.080631904 0.5491412
0 -0.102265365 0.16391177 -0.077724 -0.16816014 0.0131243225 0.12430979 0.060080532 0.23841575 0.060088918 -0.06729342 -0.19544804 -0.00835362 0.4377224 0.34474638 0.0007718854 0.22189055 0.111982755 0.22186063 0.27630204 -0.09678307 -0.28064266 0.065466225 -0.14173257 0.04661798 0.076110035 -0.06611621 0.278174 0.2761254 -0.24532382 0.04061972 -0.17039803 -0.005657983 0.12835175 0.07023508 -0.21922159 -0.08001534 -0.021402571 0.08206 0.2039753 -0.059797995 0.04441001 0.20055373 -0.18499638 -0.071308374 -0.00055012456 0.15169522 0.07517894 -0.10646221 0.021805832 -0.18489975 -0.037033573 -0.057720024 -0.11547105 -0.30436844 -0.15526332 -0.08235456 0.013884896 -0.097817 0.31502187 0.2268502 -0.14204888 0.08271176 0.085289106 0.55039716
88 -0.096118554 0.16713433 -0.085989565 -0.15844564 0.008354033 0.12146027 0.06579882 0.2337318 0.062313363 -0.066381544 -0.19348904 0.005844849 0.4365475 0.34050307 0.0045349738 0.23435982 0.10486309 0.22751018 0.2719867 -0.101520516 -0.28057164 0.061622757 -0.13842002 0.036496904 0.078278214 -0.064515255 0.28424618 0.2805782 -0.24086507 0.030929055 -0.17499724 -0.007884117 0.12835589 0.057990234 -0.22616793 -0.07545837 -0.025573 0.06993618 0.21200547 -0.06602688 0.04354239 0.21129714 -0.17926244 -0.07048651 -0.0031800054 0.16174814 0.07432858 -0.09689055 0.030616174 -0.17429584 -0.03933653 -0.054704085 -0.123187326 -0.30275938 -0.1395838 -0.07719736 0.011758259 -0.096259326 0.31608006 0.22576751 -0.14906563 0.08400043 0.07879672 0.5392924
36 -0.101529956 0.16625053 -0.07242611 -0.16384554 0.018190889 0.1360504 0.07047026 0.22913066 0.05575125 -0.06791107 -0.18361273 0.0067632375 0.4333829 0.330671 0.0016261962 0.21952455 0.10669658 0.22388488 0.2609581 -0.10903732 -0.2812901 0.067590356 -0.13780022 0.033199705 0.07672671 -0.055840287 0.27230498 0.27896616 -0.22445817 0.03780557 -0.17013937 -0.014043229 0.12044416 0.07686869 -0.22601815 -0.077752724 -0.025888063 0.06689205 0.21313511 -0.06265924 0.025903977 0.2121689 -0.1876059 -0.06425417 0.012629059 0.15048572 0.06950354 -0.08998925 0.021962387 -0.1822432 -0.02686082 -0.06234814 -0.11692721 -0.29647806 -0.15712553 -0.08158578 0.017634733 -0.09858756 0.3152421 0.23901565 -0.14333636 0.08330313 0.07439438 0.5393292
