100 64
77 -0.29935843 -0.1171223 0.22233142 -0.2004764 0.04619562 0.2050075 0.29340583 -0.2241818 0.36585224 0.14364208 0.27083853 -0.05467518 0.15253027 -0.04339916 0.15435034 -0.19185606 0.3395581 0.12887578 0.004218249 -0.2056924 0.22377989 -0.07682775 0.053198326 0.013137278 -0.15630692 -0.033906743 -0.010460441 -0.054919295 -0.25801638 -0.0027458176 -0.1938609 -0.008126036 -0.073203295 0.014631983 -0.10178024 -0.32709414 0.0674138 -0.16444913 0.010086263 0.183063 -0.05808572 -0.34674057 0.18026125 -0.0936698 -0.08464962 -0.010497976 -0.09410872 -0.18255316 0.005283335 -0.0036414617 -0.172058 0.09551948 0.21995759 -0.44269988 0.089691445 0.2402847 -0.09744386 0.23784758 -0.061347127 -0.10227231 0.23234838 0.16691315 0.04537572 0.08790324
71 -0.30680242 -0.13029782 0.22396171 -0.22332533 0.05123225 0.19649085 0.2979547 -0.22264488 0.37160495 0.14233574 0.2627754 -0.06491302 0.1560303 -0.043243054 0.15263575 -0.18110485 0.32503197 0.13165434 0.010813138 -0.21189438 0.21520773 -0.08347671 0.06015953 0.0071026036 -0.15239666 -0.035276365 -0.026473623 -0.044183422 -0.26137483 0.0067615723 -0.19215922 -0.01832287 -0.067953706 0.017262155 -0.11069192 -0.3182829 0.057699703 -0.16266465 0.01474234 0.18057053 -0.046003204 -0.3422997 0.16967776 -0.0906035 -0.09584974 0.0026302636 -0.08820482 -0.1746992 0.01102011 -0.007623512 -0.15371542 0.09665358 0.20995465 -0.44255865 0.08954339 0.24584123 -0.09561821 0.23765762 -0.06817138 -0.10414094 0.21541543 0.15509044 0.05757052 0.09053459
3 -0.29717213 -0.10712357 0.20796067 -0.21728694 0.04742806 0.1922458 0.29792735 -0.22937734 0.36792088 0.1372063 0.2725122 -0.06078963 0.15094891 -0.040313028 0.15136318 -0.17953111 0.3276869 0.13271992 0.007761204 -0.2073439 0.21738349 -0.074809305 0.056297954 0.017142503 -0.16668224 -0.043070838 -0.02042805 -0.064494476 -0.25825846 -0.0056015574 -0.19761856 -0.0117598595 -0.0761741 0.009751015 -0.103590995 -0.3239622 0.065474585 -0.16304664 0.02065331 0.18038844 -0.054766014 -0.35519886 0.17699009 -0.10664909 -0.0860277 -0.017560493 -0.094230905 -0.175306 0.0046987818 -0.005250464 -0.17530404 0.09069558 0.21540374 -0.43573377 0.09221618 0.23228376 -0.09253571 0.23339605 -0.067514874 -0.09297165 0.22747211 0.16823655 0.060044367 0.08520097
93 -0.29628804 -0.10696677 0.2129866 -0.2057572 0.04804269 0.20202303 0.28448865 -0.23525028 0.3707211 0.15730219 0.25993556 -0.05887366 0.1657525 -0.03001479 0.14249493 -0.18665083 0.34766904 0.112967834 0.0038508612 -0.2212816 0.23664017 -0.06907547 0.046070825 0.015338907 -0.15516382 -0.036975544 -0.01738597 -0.063620746 -0.2516329 -0.0038511928 -0.18854977 -0.014497531 -0.071886264 0.011538274 -0.111826085 -0.33190674 0.080492176 -0.17618518 0.019280832 0.18341762 -0.069985546 -0.3501388 0.1863638 -0.11899249 -0.07853999 -0.0009323802 -0.08483117 -0.17349127 0.017616149 -0.008424617 -0.17053066 0.08034881 0.20819329 -0.43026558 0.10019545 0.23134215 -0.070076406 0.23884778 -0.08532896 -0.099423826 0.2405653 0.1774549 0.049273454 0.08034732
24 -0.29312885 -0.11884142 0.20643187 -0.21458532 0.044506185 0.19692513 0.27469796 -0.22908492 0.37283638 0.14691065 0.25909883 -0.063920446 0.14755565 -0.02985594 0.15330604 -0.1871121 0.3318057 0.118966736 0.012289538 -0.21915339 0.2337811 -0.08429847 0.040732134 0.0065095806 -0.15948965 -0.039211903 -0.010880032 -0.05681873 -0.25800562 -0.00860724 -0.19325584 -0.012987333 -0.07366947 0.0122010615 -0.099090844 -0.31420985 0.06732262 -0.17383066 0.00700974 0.1744615 -0.04907627 -0.36375368 0.18446904 -0.09848731 -0.080404125 -0.0025325855 -0.077893466 -0.18213473 0.008785698 -0.018663999 -0.1686873 0.0915248 0.22200151 -0.44843665 0.09464436 0.23394781 -0.07964981 0.25273088 -0.060192276 -0.09801414 0.22198635 0.16445398 0.061294217 0.089624256
35 -0.28226393 -0.12070819 0.22094105 -0.19900814 0.04519995 0.20066477 0.28507766 -0.21679467 0.36177504 0.14737996 0.27706695 -0.054895088 0.14091995 -0.032212105 0.14780831 -0.17477699 0.3214987 0.114031166 0.008874692 -0.20209897 0.23276967 -0.08090369 0.061034095 0.025096461 -0.15912072 -0.04568743 -0.012469779 -0.05951672 -0.24463461 0.00036768537 -0.20048426 -0.0053423415 -0.06746079 0.014684291 -0.109732926 -0.3265696 0.0611235 -0.15413101 0.0059793973 0.19262682 -0.051158987 -0.35858685 0.18347007 -0.091074154 -0.08846021 -0.00041558675 -0.102603324 -0.19635302 0.0016808633 -0.015206947 -0.17915943 0.095957816 0.22387849 -0.42630306 0.08293178 0.23368844 -0.0925416 0.24628066 -0.067558825 -0.09940913 0.22544026 0.16985036 0.051728602 0.09129269
36 -0.28285372 -0.10929486 0.21420603 -0.20691262 0.045168348 0.20414579 0.27926764 -0.22815457 0.37239218 0.15054476 0.2706873 -0.056346927 0.15716864 -0.034252513 0.15686429 -0.18150027 0.33490878 0.12425078 0.0171226 -0.22930545 0.2260389 -0.07048733 0.04133797 0.008921734 -0.14845103 -0.03132553 -0.006909569 -0.061938494 -0.24778181 -0.006973901 -0.18641637 -0.007339449 -0.06296376 0.017082911 -0.107975654 -0.32614154 0.07386633 -0.17059492 0.015607937 0.1677725 -0.061615102 -0.35366914 0.175303 -0.09504111 -0.07355888 -0.007355845 -0.079196624 -0.17643157 0.0013378017 -0.007377045 -0.16751239 0.10123889 0.21280146 -0.4342371 0.091125004 0.24061345 -0.09112314 0.24704681 -0.07832966 -0.09595806 0.23632078 0.17066365 0.053866018 0.08682413
15 -0.2911695 -0.12115916 0.21816903 -0.20522684 0.041406214 0.18653738 0.28074664 -0.23079486 0.37063205 0.14236635 0.26905888 -0.0634442 0.1551414 -0.041566774 0.14321312 -0.16979401 0.32621175 0.12226168 0.001994947 -0.19322084 0.23081948 -0.08438675 0.043851815 0.010006854 -0.1527296 -0.045242265 -0.025396844 -0.05675165 -0.25059706 -0.0049060634 -0.19976856 -0.0080706235 -0.06820421 0.002047865 -0.11876012 -0.32279018 0.07730874 -0.16867176 0.016689483 0.18412237 -0.05075888 -0.36186352 0.17317306 -0.10884045 -0.08405648 -0.0110513475 -0.09146569 -0.18156673 -0.0031622741 -0.012951562 -0.1684736 0.0849221 0.22904187 -0.4428598 0.087808944 0.24601004 -0.09237391 0.24781285 -0.08134088 -0.11070148 0.2246712 0.16077782 0.045645576 0.08148502
18 -0.29603338 -0.111706555 0.20817322 -0.21243557 0.052646056 0.20143673 0.28738654 -0.21680513 0.37161934 0.14259166 0.27038565 -0.062698185 0.14714213 -0.039621774 0.14311299 -0.17425136 0.3355973 0.12279134 0.006710281 -0.21454853 0.22270095 -0.0763701 0.05235326 0.018030878 -0.15021843 -0.04697859 -0.010906023 -0.053632487 -0.25517556 -0.0026210442 -0.18519045 -0.01704212 -0.074314564 0.019762617 -0.116851084 -0.32930517 0.068379484 -0.17447111 0.018266764 0.1911764 -0.050689884 -0.36529595 0.17515819 -0.10745424 -0.09113712 -0.014154463 -0.09611699 -0.18479733 0.009004891 -0.0027936837 -0.17518362 0.091013156 0.2168825 -0.4450933 0.08994623 0.2288708 -0.09131563 0.24267513 -0.06524486 -0.09679887 0.23935351 0.16132931 0.06005047 0.08513513
87 -0.29819065 -0.12786789 0.21935911 -0.21162602 0.046924606 0.18968908 0.29411927 -0.23654602 0.37007314 0.13545124 0.2701271 -0.054405127 0.15499803 -0.03222473 0.15177853 -0.17860447 0.34129673 0.10962396 0.018961169 -0.20260493 0.21858379 -0.09035046 0.059121057 0.015028946 -0.15761681 -0.032662794 -0.026182184 -0.052620895 -0.25853023 -0.0060625304 -0.1942904 -0.0065073026 -0.064880006 0.012051708 -0.11050196 -0.32518208 0.06081394 -0.16466701 0.005584929 0.18056059 -0.053591117 -0.35559866 0.17630869 -0.09672265 -0.08011812 -0.016819332 -0.08522706 -0.1878012 -0.008353983 -0.007324656 -0.16109066 0.103823654 0.21914111 -0.44296753 0.0858712 0.2345971 -0.09270846 0.2431531 -0.06524434 -0.10386096 0.21884954 0.16473691 0.048022997 0.08379145
40 -0.29787943 -0.10729744 0.21048063 -0.21007046 0.0464189 0.19252484 0.29446733 -0.22327317 0.3689984 0.14935544 0.26458824 -0.05460743 0.1558709 -0.035766553 0.15243122 -0.1790469 0.33824983 0.1105067 0.011806923 -0.20960253 0.2351014 -0.077342734 0.05009664 0.010892475 -0.15610608 -0.03543276 -0.013302668 -0.055828884 -0.2585361 -0.012977588 -0.18648311 -0.018943645 -0.06597056 0.015755255 -0.103368975 -0.3117943 0.082088284 -0.18573447 0.0051041464 0.1767398 -0.05600546 -0.35199675 0.1846637 -0.10045805 -0.0949656 -0.012461579 -0.07649731 -0.19599046 0.011566396 -0.007108678 -0.17981568 0.08022379 0.21929526 -0.4488738 0.091369145 0.24650595 -0.0779868 0.23889422 -0.06438077 -0.111991294 0.22885212 0.16191225 0.047350764 0.078908645
5 -0.2742739 -0.11240095 0.20010997 -0.20646825 0.052389983 0.19684978 0.28837904 -0.22730757 0.36414436 0.14252631 0.27980435 -0.06138603 0.14259864 -0.03557809 0.14909798 -0.19363186 0.341551 0.12631641 0.0025388629 -0.20569165 0.22627172 -0.09421702 0.051633116 0.0146138575 -0.16560985 -0.04170211 -0.012773152 -0.04861048 -0.253253 -0.00016285447 -0.19128193 -0.00935921 -0.07015929 0.02076439 -0.10944001 -0.3200667 0.07235333 -0.1699007 0.0109424 0.17367552 -0.051064376 -0.36131793 0.18922272 -0.10332821 -0.09577533 -0.0046385056 -0.09077631 -0.1931227 0.0074853874 -0.012697673 -0.17878835 0.105768956 0.22500299 -0.44724625 0.08783269 0.23464742 -0.08517208 0.24159451 -0.0654539 -0.106168374 0.21576445 0.15923405 0.061927754 0.09391012
63 -0.29478967 -0.12586038 0.2101937 -0.2082452 0.054048564 0.19643183 0.29222333 -0.22776137 0.36383164 0.13836439 0.26939452 -0.053810485 0.14068954 -0.047372144 0.15159874 -0.18396792 0.32233143 0.12491935 0.008819743 -0.21909666 0.22499135 -0.090272054 0.056372114 0.020901475 -0.16250347 -0.03191045 -0.030350558 -0.055803224 -0.26206747 -0.0004537725 -0.18462913 -0.016577495 -0.060847953 0.013245507 -0.10474108 -0.31572527 0.06615339 -0.16406305 0.02019311 0.16778374 -0.05432073 -0.35516167 0.17682922 -0.102169655 -0.08467709 -0.0022968398 -0.08469719 -0.18139262 -0.0007430196 -0.018312676 -0.17086019 0.10265365 0.22465049 -0.43194434 0.08431455 0.23725012 -0.08244464 0.23644441 -0.059492007 -0.10855617 0.21736753 0.15257731 0.0609815 0.086514115
22 -0.28857788 -0.1254015 0.21983926 -0.2023697 0.060025245 0.18709014 0.2790432 -0.22833331 0.3539815 0.1484726 0.2618378 -0.05214891 0.1458822 -0.036200225 0.13852586 -0.17407694 0.34339705 0.108533666 -0.00016981643 -0.20131147 0.23330715 -0.07658558 0.049179476 0.006725721 -0.14656726 -0.036396533 -0.014455088 -0.05921106 -0.25281808 0.002646649 -0.19976167 -0.006532323 -0.06466027 0.0059788455 -0.10754971 -0.32011 0.06835535 -0.17774035 0.011129536 0.1742739 -0.05055944 -0.35726383 0.18146816 -0.102330215 -0.08581952 -0.010615441 -0.093945585 -0.17377058 0.004104553 -0.0017246313 -0.16743766 0.09460176 0.22196598 -0.43742698 0.081116065 0.24205676 -0.09441388 0.24868679 -0.07114653 -0.109844655 0.22172143 0.16794959 0.044761233 0.08700077
38 -0.29766682 -0.11040879 0.21971574 -0.20607573 0.054713007 0.20815693 0.2978542 -0.224764 0.3724307 0.13961974 0.27386373 -0.06774948 0.15665506 -0.04327511 0.15254796 -0.173042 0.3310176 0.11747937 0.015164924 -0.20589182 0.22834988 -0.08321121 0.047536924 0.019447358 -0.15306535 -0.039356932 -0.026929595 -0.064699255 -0.258192 -0.0064074704 -0.20430222 -0.014171442 -0.068817094 0.014752569 -0.10358351 -0.3185096 0.070914604 -0.17157817 0.014968311 0.18426333 -0.052727062 -0.35615686 0.17394029 -0.09887532 -0.08090923 -0.017665334 -0.087597154 -0.18052949 -0.0069359457 -0.016627906 -0.17726788 0.10562239 0.22296204 -0.4271931 0.09213665 0.23309122 -0.08702899 0.23203143 -0.06364036 -0.097603835 0.2223754 0.16920733 0.059770226 0.08680093
13 -0.28695932 -0.12697284 0.22139227 -0.20359565 0.044494748 0.19189055 0.2840465 -0.22036366 0.3813416 0.13372497 0.2711325 -0.06039574 0.1486366 -0.04137242 0.14856187 -0.1777398 0.32552713 0.11723362 0.009722048 -0.21970494 0.21700397 -0.08537371 0.06391709 0.021938171 -0.16726226 -0.035511505 -0.02734082 -0.051233243 -0.2597218 -0.004550511 -0.1844834 -0.016175577 -0.071429834 0.016159646 -0.10839977 -0.3142421 0.055612057 -0.15922152 0.015548084 0.18246965 -0.053431194 -0.3524572 0.17751923 -0.09436836 -0.0772193 0.00012507431 -0.09556638 -0.18870573 0.005813841 -0.0063549983 -0.16235022 0.09841512 0.22569364 -0.43951824 0.072648734 0.24346915 -0.087573364 0.24224517 -0.052099388 -0.0987202 0.21606323 0.16379488 0.048179828 0.092643104
9 -0.30160248 -0.12175738 0.205986 -0.2087276 0.04941495 0.19829123 0.27219743 -0.22922832 0.36086547 0.15364811 0.2591549 -0.053233135 0.15640998 -0.03627579 0.14760044 -0.18499129 0.33196792 0.122457325 0.011881039 -0.20904349 0.22842494 -0.077565506 0.048630547 0.02055764 -0.15991458 -0.041495245 -0.015914364 -0.05413147 -0.24399953 -0.008773562 -0.18520063 -0.011913444 -0.06300974 0.010705348 -0.113416 -0.32013994 0.07350147 -0.16457969 0.020318793 0.17880411 -0.055556647 -0.35883942 0.17904696 -0.099108465 -0.09506703 -0.0014295307 -0.099948935 -0.18092965 -0.004313306 -0.014797496 -0.17159833 0.085647635 0.22350171 -0.44057417 0.08144023 0.22873518 -0.09455841 0.24885494 -0.07056987 -0.11264493 0.22741924 0.17557915 0.055729683 0.08924524
99 -0.2825437 -0.121269226 0.22482273 -0.1983064 0.05775214 0.19706905 0.2940215 -0.22640924 0.3592725 0.14782879 0.2767289 -0.05665403 0.14544076 -0.034709238 0.14770658 -0.18502758 0.345257 0.112920515 0.017857362 -0.21666011 0.21279564 -0.08112213 0.052052177 0.010531342 -0.15945259 -0.032105558 -0.014737756 -0.052903514 -0.24879691 -0.0019364371 -0.18674424 -0.01929392 -0.07230766 0.0146129085 -0.11105611 -0.3163389 0.06533799 -0.1732506 0.022951378 0.18364382 -0.05003134 -0.3545804 0.17557171 -0.1051192 -0.07748516 -0.014594688 -0.08990306 -0.18343548 0.006555126 -0.00025231935 -0.17024775 0.08561496 0.20853609 -0.42965972 0.0944302 0.22932297 -0.09182794 0.2421804 -0.07343358 -0.09478269 0.2273832 0.16376716 0.05392839 0.07914249
55 -0.29511893 -0.12920386 0.2203204 -0.21523923 0.05857603 0.19852877 0.2814821 -0.23183425 0.36818826 0.13954274 0.28202614 -0.060359567 0.15250921 -0.0372568 0.15303868 -0.18484403 0.33254537 0.13197161 0.016051192 -0.22115946 0.23355135 -0.08219952 0.063959934 0.023380408 -0.16555643 -0.028790288 -0.029124612 -0.055777133 -0.25798112 0.0014548892 -0.18368483 -0.011461181 -0.063058 0.009364294 -0.1105497 -0.32109585 0.059611063 -0.17071669 0.008493629 0.17856637 -0.057462316 -0.35425833 0.18196706 -0.089181 -0.09120466 0.0021572565 -0.09017384 -0.18311411 -0.0029027099 -0.0007023218 -0.16454175 0.10164698 0.21311134 -0.44099933 0.08111512 0.24332951 -0.08769552 0.24932078 -0.06443101 -0.10141527 0.21653481 0.15964624 0.052727174 0.09495908
33 -0.30181065 -0.13128439 0.2135629 -0.21365322 0.053219784 0.19600034 0.28664577 -0.226665 0.37166277 0.14643718 0.2792386 -0.06485297 0.14231761 -0.048737183 0.15098165 -0.18017453 0.33924505 0.121075585 0.016400278 -0.2028986 0.22635719 -0.07751283 0.051875304 0.020996166 -0.16300745 -0.04557834 -0.017056098 -0.04766385 -0.25492045 -0.0056375493 -0.19039689 -0.022105472 -0.07424771 0.01402671 -0.10655255 -0.32453063 0.057490654 -0.1687517 0.01067036 0.18326128 -0.05116673 -0.34907368 0.17636758 -0.095681936 -0.07652459 -0.012112816 -0.078565344 -0.19230981 -0.008648775 -0.009671825 -0.16576287 0.10039239 0.21643376 -0.44346577 0.09000161 0.24618988 -0.095111415 0.23956722 -0.05852224 -0.091920026 0.22389117 0.1550572 0.054074682 0.08340789
29 -0.30398706 -0.11336655 0.22188653 -0.21997997 0.04327722 0.18938251 0.28710812 -0.22208537 0.3647088 0.14674367 0.27855492 -0.068710715 0.14002953 -0.03570155 0.15166354 -0.18985696 0.32992524 0.12791719 0.0088260835 -0.21387856 0.22027364 -0.07677361 0.056422442 0.017072884 -0.15261255 -0.04503789 -0.024059432 -0.057598963 -0.24245653 0.001277162 -0.18514736 -0.022371542 -0.073494986 0.0039221644 -0.106098555 -0.31456128 0.053079348 -0.16714492 0.025358941 0.17412654 -0.05024604 -0.3479494 0.17070407 -0.09856065 -0.08969557 -0.0064855204 -0.103117265 -0.19128036 0.0048080306 -0.013075757 -0.16169678 0.097294606 0.22529124 -0.4370902 0.07762463 0.2399553 -0.096678495 0.24578744 -0.06713431 -0.10517564 0.21671999 0.15340693 0.04705369 0.08569021
59 -0.28665218 -0.116406076 0.20939378 -0.20384578 0.049594436 0.20687626 0.28333172 -0.22605114 0.37716526 0.1378071 0.27259243 -0.053859744 0.16140108 -0.043650582 0.14974052 -0.19427231 0.34190705 0.11896306 0.016517393 -0.21336278 0.23319502 -0.0888873 0.065343276 0.020897387 -0.15745908 -0.04842625 -0.024099654 -0.059398003 -0.26257715 -0.0027013838 -0.20687513 -0.014369524 -0.07483342 0.018537903 -0.10005706 -0.31938973 0.0671433 -0.17532772 0.010407724 0.17304528 -0.068865456 -0.3561707 0.17194203 -0.09364878 -0.07460694 -0.005076268 -0.077127986 -0.1965601 -0.011588617 -0.009722414 -0.17581259 0.0915112 0.21826348 -0.44054294 0.08037243 0.23078613 -0.08077036 0.24290587 -0.07754137 -0.105845116 0.22046785 0.17017454 0.06054961 0.09463518
50 -0.30578378 -0.12116254 0.21667339 -0.20621648 0.051000737 0.19394056 0.29471084 -0.24004811 0.37452576 0.14865187 0.28632823 -0.06990019 0.15878555 -0.028888153 0.16549693 -0.19114777 0.34067044 0.12783596 0.013258544 -0.22913407 0.22912654 -0.07577008 0.0691475 0.014703143 -0.16019583 -0.028785378 -0.029415237 -0.05430491 -0.25861874 -0.0020032567 -0.19724804 -0.0023936867 -0.061271615 0.008424465 -0.10015003 -0.3165697 0.05417666 -0.16072525 0.005487839 0.16841492 -0.059529603 -0.34662747 0.16923134 -0.09577281 -0.08402515 -0.0076811467 -0.08124121 -0.17818189 9.9840945e-05 -0.0097588375 -0.16933341 0.108408615 0.22002222 -0.42974237 0.07847522 0.23013246 -0.077260256 0.24263903 -0.07293671 -0.098845035 0.23586963 0.16123927 0.04558288 0.095521696
20 -0.2845101 -0.11951943 0.21874109 -0.2014891 0.056650672 0.2068683 0.28349712 -0.22361103 0.37397617 0.14921689 0.2689928 -0.06689133 0.13976431 -0.04331091 0.15359017 -0.18018031 0.34457147 0.11291188 0.0016750748 -0.2068212 0.21241105 -0.083435394 0.043338228 0.019204503 -0.15660551 -0.049110144 -0.017805919 -0.05549672 -0.2547397 0.0014182074 -0.19219299 -0.009496606 -0.08124055 0.012373162 -0.11206014 -0.32048425 0.061193965 -0.15752098 0.010908696 0.18540321 -0.05084854 -0.36245275 0.17458075 -0.09674166 -0.085821435 -0.008686133 -0.091367126 -0.19182652 0.0022656464 -0.014401267 -0.1774269 0.09138765 0.22462893 -0.4277257 0.090455554 0.22507572 -0.091811046 0.24090917 -0.05789757 -0.09578654 0.22171979 0.16000284 0.05857768 0.085170925
56 -0.30429724 -0.13414836 0.22084863 -0.20761895 0.057426877 0.19925803 0.29213625 -0.21974939 0.37954676 0.14718547 0.28616062 -0.055321455 0.13750012 -0.03690404 0.13966435 -0.18795128 0.32695007 0.11561844 0.017753916 -0.21114177 0.22035125 -0.08926123 0.058655538 0.008555389 -0.15942074 -0.047135036 -0.03081789 -0.04620737 -0.2573327 -0.0023327065 -0.19400874 -0.0075645708 -0.075577274 0.01035881 -0.11517566 -0.3173445 0.05782793 -0.16332191 0.01635536 0.17173152 -0.040151436 -0.36186308 0.17409265 -0.09782484 -0.0795163 -0.0030874754 -0.09897807 -0.19151981 -0.00019213629 -0.0013984519 -0.17291583 0.109599575 0.21677716 -0.43568528 0.08090745 0.234618 -0.08760055 0.24414486 -0.05759214 -0.088554315 0.21411319 0.16951035 0.061672326 0.093760155
66 -0.27727562 -0.1265947 0.22404425 -0.20291878 0.04148918 0.19884305 0.2760744 -0.22358194 0.36768442 0.13297647 0.2762971 -0.060593247 0.1424522 -0.044236094 0.15325725 -0.18820225 0.32514778 0.13448514 0.018029857 -0.21950875 0.2143774 -0.095472634 0.06272802 0.031432312 -0.16453882 -0.03367289 -0.015687974 -0.043662176 -0.26143917 0.0059846863 -0.19536284 -0.01972506 -0.07538232 0.020850895 -0.1129249 -0.31971714 0.056008447 -0.16535987 0.0202512 0.17379758 -0.045314055 -0.36028054 0.1811873 -0.09401016 -0.0807213 -0.008920994 -0.099417746 -0.18875016 -0.0033842244 -0.012856143 -0.17044665 0.113035195 0.21344411 -0.44820976 0.092928104 0.23181815 -0.085711725 0.2432442 -0.05386957 -0.09735732 0.23318575 0.16300641 0.053270794 0.09173598
84 -0.29214695 -0.11611881 0.21523497 -0.1915138 0.06289644 0.1957206 0.2803853 -0.2188203 0.35849258 0.14789453 0.27659073 -0.07059194 0.15068187 -0.042132143 0.14487031 -0.17586422 0.3394725 0.123051 0.017141804 -0.22295097 0.22196315 -0.07215365 0.05835778 0.015764 -0.14868101 -0.04222377 -0.017622067 -0.06395713 -0.25078967 -0.011190527 -0.1905345 -0.0075807637 -0.07008423 0.024453802 -0.09929867 -0.31815672 0.06403755 -0.1652947 0.008877725 0.174824 -0.06086856 -0.35895023 0.18150897 -0.09683284 -0.09086424 -0.0139995245 -0.084446006 -0.18090576 -0.00407628 -0.0012611734 -0.1697723 0.1002711 0.2256782 -0.44139394 0.09392308 0.22919466 -0.082334645 0.24380714 -0.05894188 -0.107806824 0.23842353 0.17395455 0.063983195 0.090738565
23 -0.27889642 -0.10785023 0.20868304 -0.19541413 0.039962385 0.18779178 0.28257954 -0.21809149 0.36785218 0.147018 0.27179453 -0.060392305 0.14015365 -0.03943925 0.1470991 -0.17871176 0.32309043 0.12836944 0.015796136 -0.20953755 0.22269072 -0.08762884 0.055663314 0.020211317 -0.15946653 -0.033973984 -0.012089023 -0.04929856 -0.2556325 -0.0063003027 -0.20363206 -0.011482931 -0.07576563 0.01855056 -0.105227426 -0.31990293 0.06665854 -0.16881779 0.015102215 0.19068745 -0.061360843 -0.36119914 0.17952734 -0.10346532 -0.09366306 0.0015841183 -0.08598013 -0.1972248 -0.0051564625 -0.0068152505 -0.1733481 0.10614605 0.23098727 -0.4492617 0.09276481 0.24844564 -0.08317916 0.24207807 -0.058778178 -0.10306994 0.22899024 0.1769926 0.04596178 0.085990414
75 -0.29765803 -0.13078706 0.22684051 -0.20280609 0.055475656 0.19773917 0.29653275 -0.22429867 0.37258178 0.14623782 0.2838514 -0.052606296 0.13958305 -0.03718339 0.14634748 -0.19275622 0.3415211 0.12941134 0.013003753 -0.20249636 0.2245504 -0.082753584 0.059429556 0.012944148 -0.16716188 -0.04078395 -0.01944742 -0.058556043 -0.26271886 0.007667369 -0.20097576 -0.01247055 -0.06433324 0.01282177 -0.11027473 -0.32157227 0.05949614 -0.16242622 0.022200335 0.17156999 -0.05551065 -0.3558009 0.17594479 -0.10143772 -0.09355968 -0.0021602446 -0.095162705 -0.1948052 -0.000107197855 -0.007846754 -0.17439546 0.107998215 0.22804552 -0.44212398 0.08832802 0.23307975 -0.09454047 0.24121325 -0.045620512 -0.090876244 0.2127634 0.14922543 0.045937072 0.09809564
95 -0.29242995 -0.1079786 0.22238508 -0.20508283 0.044571664 0.20684567 0.29670557 -0.23339373 0.37150308 0.1467854 0.27243364 -0.06862635 0.15944554 -0.028055953 0.16204312 -0.18396614 0.3363212 0.11900797 0.01994711 -0.2159379 0.22527274 -0.074899845 0.055809997 0.011857781 -0.15625103 -0.037287187 -0.025633859 -0.058636617 -0.25183764 -0.0100803105 -0.18166818 -0.016005935 -0.07644493 0.0047558267 -0.10161366 -0.30725324 0.07250973 -0.17850173 0.0022568773 0.17757766 -0.048705496 -0.3526578 0.18209286 -0.09242908 -0.09058576 -0.003158117 -0.08814386 -0.19216985 0.005751029 -0.009259275 -0.16658224 0.092680804 0.22276542 -0.4332098 0.09375615 0.2298131 -0.086550444 0.2369813 -0.068290986 -0.09756054 0.2314132 0.15715942 0.041793764 0.08036398
34 -0.2984963 -0.11124277 0.20417348 -0.21498643 0.061275676 0.1965991 0.28081706 -0.23130643 0.36831033 0.14596196 0.26029232 -0.054136865 0.16258949 -0.022340214 0.15196961 -0.1852573 0.33984804 0.12894374 0.0039714365 -0.21112962 0.22453608 -0.0671996 0.03955491 0.017858928 -0.16223077 -0.042199362 -0.024036072 -0.06621924 -0.25452152 -0.0021253899 -0.20304006 -0.011541767 -0.06985917 0.010873928 -0.11221754 -0.31017235 0.075167604 -0.16589867 0.015640084 0.17069288 -0.065598756 -0.35513344 0.18204683 -0.10730487 -0.082783945 -0.019628137 -0.07568152 -0.18242308 0.0075247916 -0.016863037 -0.17048444 0.08467348 0.21796623 -0.44058532 0.080236 0.2331353 -0.08730791 0.23434058 -0.07585678 -0.100850776 0.23148386 0.15916118 0.06482263 0.081728615
97 -0.2980012 -0.13161795 0.23427352 -0.2037345 0.046094574 0.19971284 0.28826815 -0.22518702 0.36108217 0.14217572 0.27514338 -0.06132458 0.14445701 -0.034721505 0.14057574 -0.18126827 0.32180986 0.1133602 0.017948935 -0.22118361 0.22342755 -0.07600933 0.059900198 0.013523137 -0.16489454 -0.041006584 -0.015193979 -0.052902415 -0.24510853 -0.0066536134 -0.18262643 -0.012049373 -0.08200288 0.021274066 -0.10672723 -0.32438946 0.061024595 -0.17055936 0.02133409 0.16878472 -0.04718084 -0.35110772 0.1630833 -0.102379896 -0.08592903 -0.016142186 -0.08446293 -0.1785425 0.007311133 -0.0039637275 -0.15963016 0.10364226 0.2091425 -0.44324455 0.07918145 0.2506659 -0.091442004 0.23940325 -0.05841853 -0.09185463 0.23145248 0.15866178 0.045053545 0.08911406
41 -0.29172394 -0.10890464 0.21379235 -0.2022937 0.0592696 0.19921532 0.28916305 -0.21712999 0.36168262 0.15918149 0.2738305 -0.067045204 0.15168062 -0.04480172 0.15446997 -0.1903166 0.33509356 0.118812375 -0.00241151 -0.21755531 0.22505063 -0.06848364 0.05740042 0.010989559 -0.15529537 -0.03879657 -0.019807622 -0.062345497 -0.26609442 -0.007979537 -0.19455418 -0.0021491556 -0.0610446 0.022095375 -0.10626371 -0.31962445 0.05925991 -0.17609985 0.0179984 0.17097834 -0.06472438 -0.34801474 0.18217523 -0.099161744 -0.08595885 -0.009220308 -0.08329929 -0.18482491 -0.005913534 -0.0019900862 -0.17770256 0.09485483 0.21970595 -0.4418828 0.084388904 0.22839268 -0.08204012 0.24140665 -0.060474962 -0.111408606 0.23038454 0.1562203 0.061776504 0.09783188
19 -0.3159936 -0.12817776 0.22258726 -0.20983401 0.0585063 0.20546755 0.28177553 -0.21471587 0.36279145 0.15394029 0.26652807 -0.047795817 0.1554059 -0.033074874 0.13766402 -0.17589514 0.33720133 0.11282339 0.014229682 -0.20903125 0.22902852 -0.06908594 0.03643719 0.022538258 -0.15224591 -0.05197491 -0.007043388 -0.061237007 -0.2547818 -0.009957517 -0.18377991 -0.007193101 -0.070960365 0.004926647 -0.096960716 -0.31205243 0.0642643 -0.17075573 0.013158719 0.1900517 -0.06362591 -0.36135024 0.1842918 -0.105483025 -0.08945607 0.0027443317 -0.098113894 -0.18892626 0.006291976 -0.01967284 -0.16742375 0.09356178 0.22569083 -0.44677612 0.09541775 0.24452993 -0.08307873 0.2415789 -0.07145438 -0.10123379 0.22254822 0.17687124 0.06322071 0.074497014
91 -0.3120457 -0.1105846 0.2237767 -0.22230133 0.062951446 0.19934785 0.29183546 -0.22070527 0.36671722 0.15313917 0.2611767 -0.063829295 0.1633729 -0.033861443 0.14196503 -0.18202618 0.33396888 0.11931646 0.00752469 -0.21316999 0.23032658 -0.06780906 0.061745964 0.018061396 -0.1564425 -0.04381395 -0.025223132 -0.052064624 -0.2535478 0.0024840543 -0.19016422 -0.019002765 -0.07208856 0.017896276 -0.115271196 -0.3204846 0.06761745 -0.17329232 0.010629413 0.1803907 -0.05897613 -0.35640827 0.1769908 -0.09191875 -0.09774364 -0.0033516202 -0.08946989 -0.18585442 0.0076319478 -0.0029088806 -0.17944895 0.084431134 0.20968422 -0.43199575 0.08767567 0.22560276 -0.07392453 0.23565103 -0.06255618 -0.09306351 0.22628583 0.15197144 0.049522985 0.084019616
10 -0.3019109 -0.11685312 0.21934569 -0.21340594 0.051312644 0.20172292 0.28422508 -0.22072664 0.36197573 0.14307874 0.26045236 -0.060207084 0.15767685 -0.031254478 0.1432252 -0.18026865 0.33622724 0.11102637 0.014899611 -0.20881528 0.21707626 -0.071613476 0.055820353 0.0106544765 -0.15386952 -0.047995057 -0.023144312 -0.058371145 -0.23949543 -0.002529818 -0.18554528 -0.013562723 -0.07527542 0.004958139 -0.10381339 -0.31090447 0.06536067 -0.16822228 0.019346787 0.17824492 -0.056198914 -0.3407704 0.17024566 -0.10221956 -0.075711094 -0.0032929054 -0.09713849 -0.19304118 -0.005848511 -0.0016851674 -0.17304745 0.09991726 0.21546493 -0.44182742 0.08377394 0.238461 -0.09769963 0.23984058 -0.063143216 -0.096062966 0.23353341 0.1730999 0.05759235 0.08741065
72 -0.28017035 -0.10379747 0.21150513 -0.20005147 0.04116924 0.20322025 0.2758835 -0.21914187 0.3674732 0.13363491 0.27049157 -0.05959258 0.14219864 -0.032604966 0.14988115 -0.17819495 0.32199934 0.12414525 0.014690142 -0.2133556 0.22290814 -0.0800471 0.044028092 0.021047438 -0.15441509 -0.031486504 -0.018994084 -0.06027836 -0.24077225 0.0007515991 -0.19797151 -0.011783704 -0.0636936 0.015637405 -0.11081075 -0.31422073 0.07318015 -0.16341747 0.017045021 0.16891445 -0.06325194 -0.3559449 0.18217914 -0.1096627 -0.07583092 -0.0064959885 -0.08713124 -0.1877817 -0.0049938224 -0.008755735 -0.17803036 0.09234398 0.21277384 -0.44556513 0.09481279 0.23261414 -0.084221005 0.24675854 -0.06535361 -0.109317325 0.23597133 0.17402092 0.061034333 0.095179446
39 -0.2929999 -0.110482536 0.2132984 -0.20763132 0.0419354 0.19663686 0.28137064 -0.21817714 0.3673804 0.1443784 0.2685642 -0.06630263 0.14140214 -0.032168448 0.14953582 -0.17882296 0.3330557 0.12054181 0.016179863 -0.20777544 0.2258455 -0.07598984 0.048307013 0.014525976 -0.16757832 -0.03899828 -0.01759935 -0.061475534 -0.24929492 -0.00050120533 -0.18661363 -0.020490069 -0.06975008 0.015052012 -0.112118065 -0.3263819 0.067767836 -0.16929688 0.011950187 0.1790788 -0.042731144 -0.35018355 0.17765151 -0.109852254 -0.08372421 -0.0049619125 -0.085102364 -0.18186107 0.007386809 -0.014067687 -0.17798114 0.095608376 0.21662284 -0.4443325 0.09439266 0.24525401 -0.097865865 0.24567631 -0.06105989 -0.101051815 0.23244488 0.17379154 0.05797717 0.0930925
92 -0.29490894 -0.11505008 0.20587724 -0.21234888 0.05263899 0.19873303 0.28632236 -0.21751413 0.373796 0.14138745 0.2684882 -0.064773224 0.1567638 -0.029440003 0.14730416 -0.17871182 0.33665484 0.12622035 0.010949928 -0.20757328 0.22751622 -0.08594856 0.048762556 0.023386406 -0.16114923 -0.032023724 -0.025788423 -0.05612413 -0.25858426 0.00034731464 -0.2050392 -0.006269739 -0.06703699 0.02188011 -0.112812504 -0.32019064 0.06765274 -0.15958506 0.001626895 0.18362872 -0.056792323 -0.3426347 0.18499632 -0.09772866 -0.08843986 -0.012635517 -0.092081025 -0.19035149 0.0070027234 -0.004496943 -0.16905089 0.09295184 0.21430402 -0.44252524 0.08951418 0.22656684 -0.08288355 0.23557758 -0.0573744 -0.105437815 0.23304272 0.15635757 0.049568422 0.084242254
60 -0.2922026 -0.11784078 0.21553193 -0.21172549 0.056812804 0.20051064 0.29117665 -0.2376882 0.37757054 0.15207334 0.27978218 -0.057433937 0.15874895 -0.03886207 0.14728878 -0.19029771 0.3436206 0.12219106 0.014386684 -0.21324442 0.22767907 -0.075535685 0.056668367 0.012600275 -0.15540199 -0.03196826 -0.022911048 -0.052715782 -0.2579962 -0.0035928255 -0.18452281 -0.018815517 -0.07451401 0.0029132208 -0.11192694 -0.32684237 0.06509277 -0.17651129 0.017783055 0.18838336 -0.04975731 -0.35111752 0.17510095 -0.10413617 -0.091176674 0.0038362346 -0.08103581 -0.18092182 0.012422728 -0.012252761 -0.1647678 0.08961407 0.21986909 -0.42937407 0.07768232 0.23048984 -0.08361382 0.23762318 -0.06479015 -0.09591043 0.22600278 0.15032399 0.047155175 0.09876195
86 -0.2973584 -0.10147092 0.22068512 -0.21227519 0.059627287 0.20474766 0.2886412 -0.22979559 0.36670238 0.15667361 0.27353096 -0.06327458 0.15774003 -0.027705709 0.14780015 -0.18630332 0.34385952 0.12504213 0.0068730693 -0.21982954 0.23029843 -0.08271417 0.051843897 0.017268864 -0.14813171 -0.038801003 -0.030088095 -0.060339898 -0.25059655 0.0022903986 -0.2006589 -0.015389203 -0.06589873 -0.0013120259 -0.108775556 -0.31916183 0.065178804 -0.16318454 0.003571205 0.18170275 -0.048943244 -0.3519101 0.16825923 -0.10593064 -0.08781683 -0.004571372 -0.09447246 -0.18761817 0.006579805 -0.005822769 -0.16965261 0.10340881 0.21859117 -0.42955106 0.08572924 0.23975769 -0.08446532 0.22693989 -0.06588942 -0.09934208 0.23251027 0.16569571 0.048040126 0.08931788
73 -0.29135323 -0.0950128 0.20139454 -0.20585437 0.04953902 0.20544636 0.28989056 -0.21505168 0.36786145 0.15741414 0.2681815 -0.06742976 0.15040015 -0.03596718 0.15539226 -0.17447585 0.348938 0.111559816 0.011808645 -0.21636823 0.23771763 -0.06539829 0.033454094 0.008260933 -0.16547488 -0.039461147 -0.012211012 -0.07592852 -0.25934783 -0.008929484 -0.19730172 -0.010481152 -0.07315747 0.0016011058 -0.10685365 -0.31952557 0.08856834 -0.17484248 0.0077616335 0.19169599 -0.057212815 -0.3613814 0.18310963 -0.11328598 -0.0859759 -0.006546373 -0.0830159 -0.18929942 0.013001792 -0.0047178306 -0.17685515 0.08821261 0.21868823 -0.4349007 0.092977166 0.24363558 -0.08006553 0.22823973 -0.07254473 -0.09898677 0.23135096 0.16993567 0.059326746 0.07414316
25 -0.27891466 -0.11423354 0.21592164 -0.20693974 0.05210284 0.19168426 0.2816851 -0.23341452 0.3763849 0.15179653 0.26900116 -0.06247282 0.15090267 -0.030370882 0.14867201 -0.17394109 0.34416658 0.12009898 0.009584612 -0.2211874 0.22654836 -0.08440017 0.046654265 0.006887941 -0.15285586 -0.036707263 -0.019622011 -0.0519793 -0.24572457 -0.00032761777 -0.19906834 -0.007257083 -0.067098275 0.0075731836 -0.10396146 -0.32469222 0.061836697 -0.16492534 0.008511114 0.16451392 -0.048685156 -0.35399503 0.17782806 -0.0957321 -0.085366435 -0.0090634795 -0.08145616 -0.17935158 -0.0035042458 -0.016479593 -0.1707587 0.09540591 0.21404575 -0.43323743 0.08827711 0.22510259 -0.083497375 0.24465254 -0.077821374 -0.10340298 0.22455558 0.16243573 0.047806073 0.08384619
81 -0.28041336 -0.106610775 0.2035477 -0.20047599 0.05795945 0.20264006 0.2904105 -0.23442617 0.3650658 0.1488788 0.27415964 -0.05168037 0.14868306 -0.025426704 0.1453966 -0.17775442 0.34511253 0.12664929 -0.0008172242 -0.20971218 0.23601252 -0.091984615 0.053848606 0.022093628 -0.16573225 -0.032300606 -0.025639703 -0.060798254 -0.24788801 0.0035053615 -0.20160909 -0.008113176 -0.060472395 0.002415304 -0.11073141 -0.323375 0.06774121 -0.1764905 0.01018479 0.18256785 -0.06869722 -0.36104712 0.18477044 -0.10682113 -0.07852266 -0.017091658 -0.074170865 -0.18159328 0.005897037 -0.016381448 -0.17390154 0.087041765 0.22329743 -0.43982393 0.08964462 0.23426038 -0.082746394 0.234118 -0.070738286 -0.10055363 0.2283117 0.17318116 0.05668993 0.08258371
85 -0.29466897 -0.10254263 0.19928458 -0.20521916 0.05810409 0.204253 0.30037832 -0.23068817 0.3741787 0.15361309 0.27088735 -0.052324507 0.1586289 -0.026574232 0.14317204 -0.17584968 0.34341142 0.122514844 0.0081933625 -0.20652731 0.22950476 -0.07035616 0.033308767 0.011499071 -0.15581085 -0.039456766 -0.009543366 -0.06036945 -0.2538765 -0.012585357 -0.19954 -0.020231102 -0.072525576 0.000773815 -0.11137085 -0.31898156 0.08750937 -0.17795564 0.0019417581 0.18555892 -0.061897594 -0.36019346 0.18491314 -0.10533707 -0.08211625 -0.01909819 -0.08822731 -0.1892695 0.013347832 -0.007455259 -0.17194252 0.09183362 0.21739766 -0.4444759 0.09796397 0.22355647 -0.07396187 0.24299702 -0.0726417 -0.10730422 0.23359297 0.16391486 0.05239044 0.07326497
46 -0.30258563 -0.11077921 0.2162384 -0.2103864 0.041882325 0.19593921 0.29195017 -0.22448875 0.3685155 0.15066075 0.26258793 -0.07198705 0.15957616 -0.02605117 0.15442276 -0.1837037 0.33906177 0.1205785 0.015051341 -0.21060264 0.22705151 -0.08530718 0.04085609 0.011387022 -0.15074791 -0.041502707 -0.018284803 -0.056032564 -0.23985331 -0.0029335064 -0.1876728 -0.006864376 -0.07277001 0.0036932342 -0.10356263 -0.3071026 0.06867514 -0.15978076 0.0071927016 0.17649855 -0.04867952 -0.3413498 0.17426768 -0.1016445 -0.082825616 -0.020060292 -0.07817041 -0.18045829 0.0065239505 -0.016139703 -0.15655878 0.08413756 0.2160587 -0.44129822 0.089224085 0.22841395 -0.08974267 0.23646878 -0.08007366 -0.10795986 0.23217607 0.1746641 0.057351295 0.08418566
44 -0.30994853 -0.1233793 0.21701315 -0.21727031 0.049576238 0.1928471 0.28349593 -0.22545466 0.3801115 0.13783716 0.27320102 -0.07347857 0.15864123 -0.04469955 0.15638725 -0.1853731 0.32204467 0.13015054 0.00286752 -0.20961224 0.22470282 -0.08724689 0.061783817 0.025741614 -0.15353574 -0.0333701 -0.032229498 -0.054177158 -0.24534383 -0.002017063 -0.19298485 -0.0012073603 -0.07064685 0.01283074 -0.11542296 -0.3166175 0.062354337 -0.1737828 0.006968772 0.16742392 -0.052964438 -0.3538818 0.17449303 -0.08726483 -0.0877528 -0.010168022 -0.09051823 -0.18953875 0.0029256614 -0.012873779 -0.17099397 0.109018214 0.21592033 -0.43862584 0.080840506 0.23792797 -0.081711315 0.24014515 -0.06976726 -0.10941822 0.23441912 0.16213237 0.059268452 0.08143389
58 -0.27825418 -0.119547695 0.22586611 -0.20884301 0.05282751 0.20114361 0.28743732 -0.23234178 0.3568347 0.13329466 0.26667023 -0.06569416 0.14943539 -0.048646156 0.15595376 -0.173313 0.3174165 0.11413228 0.0026242766 -0.20927271 0.22818372 -0.09326901 0.05045901 0.022461746 -0.16213267 -0.04111278 -0.015744623 -0.048313163 -0.24323875 -0.0041793254 -0.18967734 -0.020067766 -0.07668231 0.008720481 -0.10605717 -0.3233268 0.06756327 -0.17034003 0.019657435 0.18331221 -0.062266387 -0.34567684 0.17631719 -0.09288503 -0.069853306 -0.013961579 -0.083303906 -0.18953054 -0.012385397 -0.0038155364 -0.16964039 0.109607436 0.22902745 -0.43442407 0.09167227 0.24941015 -0.08694179 0.25355798 -0.058601167 -0.10371272 0.22326754 0.15571068 0.052422114 0.08144478
88 -0.30456683 -0.11571363 0.22017248 -0.22397743 0.048469406 0.18947446 0.28819293 -0.23172484 0.37682924 0.14919011 0.27123427 -0.05823198 0.14329305 -0.04156315 0.139315 -0.18640484 0.32512033 0.11888428 0.008120604 -0.2013357 0.22838931 -0.07846903 0.047733095 0.005918497 -0.16150795 -0.04504134 -0.016320007 -0.057047706 -0.24383855 -0.011703823 -0.19878522 -0.0067658336 -0.070748635 0.0154826585 -0.1127205 -0.31089807 0.064577036 -0.1627014 0.018865976 0.18775985 -0.051161543 -0.35950863 0.17316684 -0.112580076 -0.09294352 -0.004578068 -0.09999317 -0.18197241 -0.00041535814 -0.014391522 -0.16827744 0.09061086 0.2238637 -0.43906742 0.07595838 0.24484721 -0.08234973 0.23588549 -0.07685294 -0.10358471 0.21617344 0.16868123 0.049295228 0.08350981
82 -0.29054356 -0.11472339 0.21374476 -0.21177322 0.052968685 0.18891403 0.28509498 -0.21988699 0.36602113 0.13340582 0.2703124 -0.07160041 0.14933544 -0.03394987 0.14812827 -0.1902927 0.32560557 0.13160476 0.0064125443 -0.22109184 0.23182318 -0.079640836 0.060038455 0.01701537 -0.16877937 -0.027798917 -0.025529118 -0.06531241 -0.25292358 -0.0060518496 -0.20269692 -0.0077287043 -0.061870355 0.010542158 -0.119248495 -0.32950363 0.07677819 -0.16868857 0.009013589 0.17567341 -0.055934317 -0.35908735 0.18602273 -0.0927321 -0.08306586 -0.010068419 -0.08364641 -0.18253404 0.006417991 -0.0026218055 -0.17442329 0.10773778 0.20997815 -0.43167895 0.0794541 0.2405737 -0.0860769 0.23825827 -0.07412593 -0.114390634 0.23587967 0.15422656 0.05420352 0.08663624
80 -0.2864964 -0.09518089 0.20472838 -0.21371952 0.054908462 0.19464663 0.2833836 -0.2310042 0.3623453 0.15722482 0.2657889 -0.061346762 0.15317911 -0.023487788 0.13975278 -0.17655392 0.33960703 0.112516105 0.013813733 -0.21877174 0.22548495 -0.07197865 0.04338672 0.012655631 -0.16174799 -0.052505042 -0.016484106 -0.06838677 -0.25685394 -0.0014674447 -0.18703263 -0.019960802 -0.07688848 0.0065741464 -0.11582567 -0.31763202 0.08060869 -0.1670091 0.017488105 0.18528236 -0.052448623 -0.35829735 0.18499261 -0.11885295 -0.08684475 -0.009350915 -0.082179375 -0.18688783 0.003531723 -0.0015488158 -0.17572871 0.0800708 0.21354307 -0.44426766 0.0995069 0.23790355 -0.08004316 0.24145432 -0.06617087 -0.10318048 0.23074746 0.17206378 0.05174688 0.085652374
53 -0.28945765 -0.108628124 0.21494278 -0.20598403 0.058958627 0.20774704 0.28561798 -0.23103298 0.3673897 0.15510668 0.2740162 -0.062705986 0.1598055 -0.031203303 0.1405865 -0.17563406 0.34516415 0.107174665 0.0015081279 -0.21739987 0.23356348 -0.07034327 0.040568214 0.0039536078 -0.15014978 -0.052033346 -0.020413743 -0.06717818 -0.24943025 -0.0009415656 -0.20179224 -0.02248741 -0.074020475 0.0011462551 -0.109635584 -0.31031996 0.07493817 -0.17097145 0.012043591 0.17145517 -0.047675073 -0.3600385 0.1771264 -0.11645471 -0.08295663 -0.020692844 -0.087848015 -0.18039544 0.012115277 -0.007130411 -0.17458692 0.09251914 0.2175207 -0.43695393 0.09531163 0.23761599 -0.073750876 0.24523857 -0.07517837 -0.10255627 0.2248201 0.17375039 0.06102919 0.07681941
43 -0.28953305 -0.12752949 0.22616383 -0.19505513 0.053727735 0.1907143 0.28148383 -0.22300547 0.3712474 0.14263149 0.28224143 -0.07052913 0.13675341 -0.03980066 0.14601883 -0.1892038 0.35002178 0.1213468 0.021416295 -0.20674166 0.22502847 -0.076864086 0.06118117 0.026002811 -0.15485147 -0.034353245 -0.0176519 -0.051747955 -0.25859508 0.0028297803 -0.19862747 -0.013612398 -0.07431318 0.014698757 -0.10450667 -0.32574436 0.06087774 -0.16425912 0.012206132 0.17768309 -0.049440786 -0.35007364 0.18229078 -0.101722725 -0.07387804 0.0007556551 -0.09258003 -0.18726051 -0.004057473 -5.5806006e-05 -0.17229252 0.102057464 0.2253995 -0.44034413 0.08246827 0.24080265 -0.097753726 0.24289505 -0.06929897 -0.09439245 0.23683444 0.16236645 0.056109633 0.09231164
51 -0.28605932 -0.09100296 0.20482574 -0.21757348 0.056669917 0.20349272 0.29230905 -0.22313085 0.36387566 0.15147206 0.25280115 -0.06007181 0.15436809 -0.040656783 0.14957297 -0.17723596 0.33408216 0.11647449 0.004657663 -0.21386188 0.22408932 -0.062550455 0.04263406 0.009862031 -0.1588316 -0.049505465 -0.024866058 -0.055846155 -0.2571687 -0.001799924 -0.19737262 -0.0027907793 -0.069737226 0.009417812 -0.10581888 -0.31320855 0.07049487 -0.17029974 0.01508428 0.18597992 -0.050005242 -0.36161503 0.17877479 -0.10558808 -0.08353076 -0.0005073073 -0.07850806 -0.18759745 -0.0005114573 -0.015675826 -0.18149696 0.0904989 0.22259223 -0.43340084 0.095170066 0.22468047 -0.07676405 0.24253237 -0.07611761 -0.09465691 0.23148355 0.16978097 0.057486843 0.084142394
30 -0.29612425 -0.12399268 0.21426566 -0.20117816 0.060443234 0.1944451 0.2795839 -0.22441432 0.3564947 0.13876763 0.2674232 -0.064990595 0.15444852 -0.028670693 0.1378388 -0.17515339 0.33953056 0.11082136 0.008126227 -0.21314265 0.2162127 -0.08470001 0.049721956 0.0064276285 -0.15451866 -0.042328224 -0.024479704 -0.06173175 -0.24539508 -0.0023832468 -0.19227886 -0.01620828 -0.064430155 0.013227111 -0.10348366 -0.31123972 0.070030175 -0.1655765 0.007393349 0.17783344 -0.054414187 -0.35612154 0.17849149 -0.1081333 -0.082820006 -0.020122657 -0.08084824 -0.18025485 0.0017170729 -0.010815564 -0.17230982 0.10236434 0.21155828 -0.43239108 0.082409576 0.22916216 -0.08207843 0.24033296 -0.06148078 -0.11043959 0.23165418 0.16679838 0.050652657 0.08738721
57 -0.29346624 -0.11220559 0.20621206 -0.21198487 0.04399341 0.2043373 0.28087196 -0.2271779 0.3774918 0.14151864 0.27218693 -0.066694774 0.1400975 -0.04116192 0.15417774 -0.1787179 0.325759 0.12963292 0.014902149 -0.21325381 0.22874476 -0.075027436 0.046089854 0.0097886445 -0.15529618 -0.04281102 -0.021306563 -0.05871017 -0.24529779 -0.0084341215 -0.19051068 -0.013053968 -0.072090484 0.018058503 -0.10314798 -0.32402363 0.07088918 -0.16242304 0.022669185 0.17630674 -0.047179174 -0.3593229 0.17735252 -0.113112085 -0.08587159 -0.0066577937 -0.08560961 -0.18827109 0.0086021805 -0.0026000054 -0.16460904 0.106767334 0.21098985 -0.43439522 0.09529886 0.24200718 -0.09510698 0.2451415 -0.07441142 -0.095357925 0.23354256 0.170372 0.059051417 0.07533067
37 -0.30398756 -0.110339515 0.21321939 -0.2049941 0.06677854 0.20858127 0.29566056 -0.23122334 0.3560622 0.1478282 0.26958817 -0.06852129 0.16084816 -0.030816114 0.14980857 -0.16912897 0.34223837 0.10900303 -0.004151615 -0.2067144 0.22026667 -0.085777394 0.04849466 0.019439183 -0.15624593 -0.04411703 -0.01816343 -0.066376425 -0.26026815 -0.012831095 -0.19860646 -0.011802456 -0.06391469 0.01222384 -0.10631639 -0.30412966 0.072026506 -0.17199944 0.010864732 0.19013134 -0.059218522 -0.35925815 0.17908551 -0.095018335 -0.080643706 -0.016406676 -0.07860768 -0.18289787 -0.0010351727 -0.006648206 -0.17133625 0.08292841 0.2108632 -0.44140565 0.101811215 0.23519138 -0.07166685 0.23489253 -0.067902416 -0.11727418 0.22287183 0.16913527 0.0648242 0.08293786
31 -0.27839002 -0.1112186 0.20421678 -0.19186904 0.055821802 0.20637633 0.2773505 -0.21882935 0.3577342 0.14885789 0.2565767 -0.05445839 0.15413742 -0.033790346 0.15058325 -0.17868604 0.34322524 0.115234956 0.0074288715 -0.2150471 0.2248751 -0.068872266 0.04427833 0.011784257 -0.15451385 -0.041904695 -0.004983599 -0.05857323 -0.26051372 0.0030594422 -0.19410564 -0.010775926 -0.0656835 0.004675433 -0.105370924 -0.3192413 0.07418418 -0.16544762 0.01221511 0.19013862 -0.05659887 -0.36899439 0.18418689 -0.10278058 -0.08566359 -0.012290149 -0.0808988 -0.1800601 0.009546702 -0.016130598 -0.18267716 0.08082501 0.21635315 -0.43781617 0.0933459 0.23179203 -0.07261087 0.24632323 -0.079220586 -0.09517415 0.2318917 0.17163555 0.04756147 0.080184236
4 -0.27881354 -0.09932943 0.20769441 -0.21131004 0.0481058 0.19165228 0.280692 -0.22262113 0.36994198 0.1513306 0.26051947 -0.06580721 0.15558037 -0.028150655 0.14558606 -0.17927465 0.3514516 0.12511508 0.0061830482 -0.20635682 0.23208018 -0.07948105 0.045886993 0.009589573 -0.16186838 -0.037477355 -0.014314737 -0.05890381 -0.25158614 -0.0021590693 -0.19537297 -0.013781878 -0.07953411 0.014665344 -0.1087153 -0.31220746 0.08123459 -0.18325098 0.017098684 0.18707006 -0.060737316 -0.35981074 0.17839912 -0.115184136 -0.089287706 -0.007116497 -0.07808977 -0.18661965 0.0117517505 -0.0108448835 -0.1811606 0.07934649 0.22338334 -0.44465157 0.100641906 0.22820805 -0.07316761 0.24331956 -0.08046488 -0.09674967 0.22346495 0.16978636 0.047767654 0.07745097
45 -0.27428335 -0.10508071 0.20619117 -0.2012051 0.054049302 0.19378753 0.2816443 -0.22734861 0.3670625 0.14984949 0.25962105 -0.06637401 0.1561818 -0.035547536 0.15316235 -0.1835205 0.34705865 0.1105262 0.016565781 -0.2130518 0.22959247 -0.08606854 0.041809905 0.019305017 -0.15272601 -0.04547496 -0.017817728 -0.0554249 -0.25494555 0.0018631583 -0.18544036 -0.019076165 -0.06672908 0.010188758 -0.10559224 -0.3173974 0.074077085 -0.16588539 0.0007941164 0.18279783 -0.055516165 -0.35437256 0.18489301 -0.106045455 -0.079233505 -0.021187827 -0.069823146 -0.1835908 0.0054099346 -0.012018176 -0.16681908 0.08208014 0.21027994 -0.44260335 0.09573164 0.2219648 -0.06861306 0.23493814 -0.08145455 -0.106139 0.21966617 0.16019891 0.050442554 0.07639352
78 -0.28880814 -0.10548059 0.2230717 -0.21086809 0.06011143 0.19758506 0.27693802 -0.22383958 0.36321893 0.1465782 0.26065713 -0.070423655 0.1462243 -0.037817467 0.14367743 -0.17260633 0.33388072 0.11547962 -0.0025982584 -0.21536961 0.22423925 -0.068011075 0.041383933 0.007832019 -0.15235661 -0.03628358 -0.018050728 -0.0610385 -0.24874234 -0.0012665463 -0.1823075 -0.016988065 -0.07628464 0.017159099 -0.11898649 -0.3147545 0.06440044 -0.16838367 0.020176396 0.17141616 -0.05058532 -0.34744266 0.16006434 -0.09542054 -0.091381155 -0.0142952455 -0.093235224 -0.18772413 -0.00962875 -0.009007474 -0.16747735 0.08710422 0.21990551 -0.4341143 0.08224652 0.23597194 -0.09066035 0.24341168 -0.05805937 -0.10110955 0.22295891 0.15930656 0.061398603 0.08045156
90 -0.28794515 -0.10743034 0.208011 -0.19923592 0.049404923 0.20215575 0.27989945 -0.21860954 0.37453142 0.14526796 0.26632577 -0.060874723 0.15484619 -0.032055445 0.15272798 -0.18727 0.33357972 0.119974636 0.014295328 -0.21577819 0.22135328 -0.08223353 0.04453235 0.011963574 -0.1607461 -0.04762135 -0.024464559 -0.058038376 -0.2550931 0.004747504 -0.19485857 -0.0064333654 -0.06822185 0.01645053 -0.10848969 -0.32615137 0.061798796 -0.1635966 0.009001652 0.1715365 -0.05708075 -0.36211926 0.17513448 -0.10107527 -0.09048371 -0.0039453413 -0.08490258 -0.18333894 0.0015858628 -0.01657263 -0.16738512 0.09046447 0.21672598 -0.43378457 0.08224878 0.21825597 -0.07891164 0.24842882 -0.07078909 -0.10199687 0.22526343 0.15803613 0.04944201 0.081469566
67 -0.28930295 -0.1020903 0.21346709 -0.21867025 0.04495647 0.2038038 0.28466976 -0.23402943 0.3717421 0.15808907 0.26691422 -0.07396028 0.14711629 -0.03321514 0.15258496 -0.17033362 0.3354658 0.12211152 0.016014334 -0.20911828 0.22902243 -0.06814663 0.055198263 0.0028143495 -0.15489087 -0.05073935 -0.030772964 -0.054747667 -0.25591815 0.0016441206 -0.19910406 -0.004016859 -0.0717962 -0.003302858 -0.10835716 -0.31174338 0.080837436 -0.16208947 0.008481137 0.19683632 -0.055228464 -0.34979898 0.18036868 -0.11286233 -0.08168512 -0.0018943739 -0.09691062 -0.17170018 0.0083114235 -0.011954925 -0.16471456 0.09622797 0.20434998 -0.43788484 0.08503928 0.2399818 -0.08768349 0.24507143 -0.0801312 -0.105930015 0.23807408 0.16923888 0.04565662 0.09061799
76 -0.29628506 -0.10092053 0.20146994 -0.20922206 0.05051725 0.20988566 0.2908895 -0.2330802 0.37079483 0.14393789 0.26768002 -0.06309016 0.15513788 -0.029793257 0.15198423 -0.16712119 0.3382551 0.11640592 0.011798427 -0.2045794 0.21662596 -0.07434592 0.044677194 0.015724082 -0.1547054 -0.040072735 -0.021256767 -0.051837463 -0.24401104 -0.0022490886 -0.20083563 -0.008104084 -0.06812347 -0.00014470369 -0.10012154 -0.32498682 0.08178324 -0.16065511 0.002324313 0.18397689 -0.055705838 -0.3606053 0.18492374 -0.10797725 -0.08073795 -0.010875247 -0.08654027 -0.18603987 -0.0015910871 -0.015870158 -0.16038848 0.08320038 0.21458727 -0.42374226 0.09564892 0.22535011 -0.08005888 0.2434191 -0.077578105 -0.104084186 0.22385336 0.16589229 0.053395562 0.0725922
65 -0.29945207 -0.09596895 0.20133428 -0.21905033 0.048453134 0.19488232 0.29923478 -0.22164321 0.35590172 0.15556373 0.2576253 -0.0561765 0.15917769 -0.023698349 0.15052125 -0.18097769 0.32741737 0.124541804 -0.0030761075 -0.21091725 0.23383091 -0.06935387 0.045906626 0.0059213326 -0.16369337 -0.040931206 -0.024511518 -0.06009095 -0.24422573 -0.010548896 -0.1878558 -0.014139206 -0.06449048 0.0025820152 -0.11208547 -0.32638216 0.08869491 -0.18068007 0.005368419 0.19233482 -0.061191417 -0.34551892 0.17405856 -0.10754006 -0.09718925 -0.0072547654 -0.085658185 -0.17955722 0.014459473 0.0032552518 -0.16993593 0.089276865 0.21911928 -0.4345735 0.09997672 0.23309225 -0.09402148 0.22630647 -0.0739034 -0.10397689 0.23498116 0.16374113 0.05477799 0.08634624
6 -0.30741704 -0.1293374 0.21574676 -0.21576744 0.052036643 0.18544479 0.29733863 -0.22720337 0.38041684 0.13468204 0.28332666 -0.05529604 0.1474537 -0.039048254 0.15101631 -0.1778363 0.327423 0.12993762 0.012436863 -0.20304129 0.22890672 -0.08839894 0.056388047 0.022863748 -0.172723 -0.036186736 -0.03127461 -0.0571624 -0.24561174 0.00915161 -0.18777654 -0.015050946 -0.06778688 0.016761929 -0.1153574 -0.33065227 0.06868476 -0.15518062 0.021767255 0.17238374 -0.053537287 -0.35974935 0.16580546 -0.10680883 -0.09399461 -0.008036183 -0.08385629 -0.19512698 -0.0015003486 -0.001352432 -0.16016744 0.09232835 0.21948417 -0.4295814 0.084550284 0.22957164 -0.08657081 0.23638956 -0.066847734 -0.09895826 0.20350407 0.14468837 0.041099686 0.09210049
64 -0.27757466 -0.12018266 0.21517313 -0.20158267 0.057804096 0.19685234 0.27733842 -0.22396879 0.36480284 0.14219275 0.27051112 -0.059171114 0.15570287 -0.04101821 0.14460166 -0.17623354 0.3390772 0.13040546 0.020503903 -0.20666717 0.23113953 -0.08469581 0.065942906 0.025602972 -0.15452634 -0.029703133 -0.022406926 -0.05664201 -0.25470543 -0.0010366692 -0.19276164 -0.016458878 -0.07216112 0.020896278 -0.11581159 -0.3251012 0.06512443 -0.17614809 0.021535834 0.1802675 -0.051165044 -0.3524032 0.18065692 -0.09590002 -0.081119336 -0.0046697534 -0.091358975 -0.18125023 -0.0047485437 -0.0073789414 -0.17720985 0.09836567 0.22010286 -0.43610767 0.083519734 0.24142444 -0.09893746 0.24379152 -0.064119205 -0.110419236 0.22888976 0.17207156 0.043482434 0.09822483
7 -0.2855632 -0.105047256 0.22055826 -0.20458207 0.049453314 0.20510405 0.28875452 -0.22158413 0.37790465 0.14817274 0.2594915 -0.05844557 0.16666697 -0.026082441 0.1582455 -0.1854223 0.3344905 0.11817221 0.020497082 -0.22837599 0.22703315 -0.069883525 0.049689032 0.02199718 -0.16863698 -0.041090414 -0.014657654 -0.066452876 -0.26236942 -0.014708277 -0.19972901 -0.021409916 -0.07033146 0.026037091 -0.10507759 -0.32859015 0.07446447 -0.17300527 0.013200028 0.17238279 -0.055680677 -0.3635472 0.17912965 -0.10042679 -0.07958497 -0.013314423 -0.07138874 -0.17473577 0.012721338 -0.003894859 -0.17582938 0.08994893 0.21231474 -0.4396267 0.089922935 0.23605187 -0.08814224 0.23225799 -0.07858846 -0.09424657 0.22325443 0.16252647 0.050702382 0.08472787
2 -0.29758644 -0.13033493 0.22007589 -0.2102039 0.044596948 0.20410214 0.28602895 -0.23143749 0.37290975 0.13407575 0.2772452 -0.061116237 0.15392171 -0.044884086 0.14736351 -0.1795168 0.33173242 0.12466479 0.009730138 -0.2024685 0.21983768 -0.093804784 0.05380375 0.015303028 -0.1551928 -0.041522834 -0.028422665 -0.052313816 -0.25269908 0.0014399962 -0.19605754 -0.017326765 -0.06728209 0.015305713 -0.11201096 -0.32975432 0.058271464 -0.1615047 0.006576338 0.18884964 -0.053914033 -0.3419899 0.17777763 -0.091906525 -0.08721273 -0.008014404 -0.09862775 -0.18942553 -0.007727942 -0.0045695994 -0.1575793 0.10768831 0.21044017 -0.42041758 0.08457559 0.23518988 -0.10137168 0.24065398 -0.06878794 -0.10054125 0.22283882 0.16311872 0.045903116 0.085759416
47 -0.29023284 -0.10162722 0.21611078 -0.21534394 0.04982805 0.19538322 0.28667825 -0.22143751 0.3599478 0.15701833 0.27736452 -0.05599649 0.15241106 -0.041790776 0.14767027 -0.18665124 0.34359622 0.12180568 0.009592431 -0.21889324 0.22994159 -0.08206381 0.05008542 0.009424165 -0.15658985 -0.04202561 -0.028710933 -0.06687806 -0.25640905 -0.011075551 -0.1960968 -0.0077042095 -0.0686348 0.012891687 -0.11152415 -0.3143344 0.06725492 -0.17651694 0.016479269 0.18424954 -0.06849819 -0.36307725 0.18194668 -0.09885218 -0.09262444 -0.006251382 -0.08141044 -0.18840636 0.00025037097 -0.00578323 -0.18297756 0.10297934 0.21533242 -0.4506065 0.09295829 0.24672556 -0.083020054 0.23477134 -0.07163378 -0.10398127 0.22640127 0.17159827 0.054252315 0.09372218
52 -0.29730266 -0.11683764 0.21173933 -0.19657509 0.05767447 0.20856844 0.29538846 -0.23984675 0.37281606 0.14294125 0.28182814 -0.06228836 0.15298511 -0.036694378 0.14509775 -0.18599701 0.351922 0.1158099 0.014959692 -0.22323947 0.22858319 -0.0878153 0.068655334 0.024425885 -0.15696377 -0.04553302 -0.028570043 -0.05672613 -0.26496696 0.0005946334 -0.19799577 -0.014187933 -0.066693604 0.010418216 -0.11172929 -0.32612747 0.056891702 -0.16014472 0.008750247 0.16867225 -0.062675215 -0.34414387 0.17533723 -0.1021654 -0.08248022 -0.006045977 -0.08031674 -0.18358447 -0.009112881 -0.018358026 -0.16871494 0.10588931 0.22380696 -0.42953432 0.0906368 0.23193002 -0.08112671 0.24029408 -0.06073203 -0.100767925 0.22319767 0.16795687 0.057539433 0.09161509
49 -0.285623 -0.09847549 0.2100576 -0.20471199 0.050073475 0.2024722 0.2867971 -0.23394069 0.36571985 0.15137705 0.25676554 -0.06337917 0.1603475 -0.036437985 0.14512177 -0.16661797 0.34797877 0.10742191 0.0058131376 -0.20516789 0.23832136 -0.09403476 0.03421876 0.024990862 -0.15603104 -0.044777192 -0.0121001145 -0.062328532 -0.24417466 -0.0034403347 -0.18798362 -0.020608539 -0.0750087 0.004084532 -0.107386716 -0.33241513 0.078674376 -0.1831056 0.009644004 0.17996435 -0.053193066 -0.3702095 0.1891845 -0.117243856 -0.08740337 -0.027198708 -0.076537475 -0.18721963 -0.004173999 -0.002093545 -0.16714965 0.07174358 0.20873857 -0.4440886 0.09967439 0.23488149 -0.08752205 0.24720699 -0.0716006 -0.103294075 0.22203472 0.15767784 0.049718976 0.075392656
32 -0.29511207 -0.12618682 0.22716448 -0.20505962 0.046335272 0.20521481 0.273542 -0.22997549 0.37558243 0.14081477 0.27793342 -0.06576641 0.15259354 -0.04481827 0.14201656 -0.18832123 0.32080087 0.124331 0.0049526733 -0.21449783 0.22642554 -0.08922103 0.06559104 0.024698159 -0.15441445 -0.041725874 -0.028060855 -0.05447587 -0.24515444 0.00048245594 -0.19982983 -0.010623077 -0.06663346 0.016818097 -0.11647062 -0.31658265 0.051787656 -0.16451642 0.0076599126 0.16870092 -0.046700288 -0.35901418 0.16754654 -0.08609037 -0.09290323 -0.0022098236 -0.09952682 -0.19615406 -0.0077680326 -0.0047103865 -0.17252764 0.116007894 0.21944544 -0.43932527 0.083828464 0.23619753 -0.08528505 0.24311697 -0.053775907 -0.10921367 0.22180387 0.15746427 0.05928918 0.09606838
62 -0.27566406 -0.117949255 0.21057856 -0.19851118 0.045974277 0.20116867 0.27087465 -0.22793275 0.3642662 0.14305201 0.2813698 -0.06328621 0.15288785 -0.043092843 0.1366349 -0.18481182 0.34713516 0.11085776 0.01935819 -0.20089434 0.21836619 -0.07811862 0.056551572 0.016591625 -0.16232796 -0.040931743 -0.0247164 -0.05419492 -0.25764367 0.0037431987 -0.19592175 -0.018257177 -0.066761576 0.004473678 -0.10168254 -0.32108918 0.06576108 -0.15989952 0.0068476507 0.17575146 -0.05571163 -0.35934997 0.1669573 -0.099504136 -0.08286302 -0.018574981 -0.08915612 -0.18227986 -0.0049139345 -0.0029236197 -0.16868035 0.089365795 0.22071286 -0.4489292 0.076195166 0.2315614 -0.09139365 0.23767743 -0.06459356 -0.09238184 0.21591745 0.16365102 0.054607533 0.09229774
0 -0.30456173 -0.1185425 0.20737934 -0.2123132 0.0561738 0.19738278 0.29753512 -0.22140563 0.37517157 0.14776516 0.26746917 -0.06546058 0.15027359 -0.028820623 0.15235569 -0.18267313 0.32517087 0.12437483 -0.0026672338 -0.21440732 0.23354235 -0.0658 0.041013774 0.0071598287 -0.15929532 -0.037555955 -0.023925021 -0.05803362 -0.25211573 -0.0022374997 -0.18879046 -0.00539863 -0.06664808 0.012465964 -0.09990856 -0.31098977 0.073187366 -0.1586493 0.0055046547 0.18516666 -0.04493247 -0.34978908 0.18339896 -0.107860066 -0.09728732 -0.010567892 -0.09112056 -0.17490931 0.018716441 -0.01262147 -0.17534445 0.0958103 0.21355462 -0.4336308 0.09184021 0.229373 -0.08595571 0.23069921 -0.06071006 -0.094608165 0.22134635 0.16136765 0.045169704 0.08531937
42 -0.29531083 -0.09502329 0.20130165 -0.21692036 0.05472747 0.2108925 0.2827172 -0.22151347 0.38321257 0.14147863 0.26758552 -0.07189577 0.15928748 -0.03169504 0.14235191 -0.17522563 0.34001672 0.12976746 0.02004608 -0.21672802 0.22186954 -0.0838042 0.043675974 0.021811323 -0.14953363 -0.042376116 -0.014476951 -0.068886906 -0.2522304 -0.008516269 -0.20024088 -0.009608769 -0.07712954 0.0211095 -0.11054836 -0.32031396 0.0853195 -0.16445649 0.001743031 0.1874967 -0.05322609 -0.3689756 0.1860659 -0.113483734 -0.08352438 -0.015986152 -0.07158601 -0.1788063 0.0159355 -0.01964823 -0.16749728 0.09191329 0.20847033 -0.44798183 0.10259211 0.22688447 -0.06871887 0.2429318 -0.07467921 -0.097943954 0.2418071 0.1681823 0.058490627 0.075319834
83 -0.28587586 -0.10332194 0.20202048 -0.20053856 0.05135331 0.20217337 0.28364483 -0.22016916 0.3746323 0.15547344 0.27292147 -0.070702255 0.14970927 -0.03209374 0.14971887 -0.18309371 0.35383028 0.10952955 0.003051801 -0.21250395 0.21668452 -0.08448797 0.03432738 0.025443738 -0.16472496 -0.045299057 -0.0067206435 -0.05364509 -0.25485873 -0.0128431935 -0.19585726 -0.009542531 -0.07383329 0.014419395 -0.109259576 -0.327127 0.08356693 -0.17266639 0.015225524 0.19339198 -0.061232865 -0.365287 0.18712813 -0.11568088 -0.08555621 -0.02259611 -0.08383402 -0.18417366 -0.0016394253 -0.004099864 -0.16803093 0.076419115 0.21978542 -0.45107126 0.109021954 0.23246382 -0.07278137 0.2328016 -0.068047665 -0.10939977 0.22549827 0.16886729 0.06455036 0.08209905
70 -0.28291008 -0.09503003 0.2138395 -0.2055164 0.043031555 0.19476113 0.28395945 -0.22917871 0.36530405 0.14876765 0.26228672 -0.058646604 0.15287583 -0.02852553 0.15926269 -0.18535356 0.34371078 0.12395088 0.016285768 -0.21208443 0.21689092 -0.07511517 0.044146378 0.015449434 -0.16624096 -0.032240216 -0.018068872 -0.06102629 -0.2649125 0.002113761 -0.19905992 -0.011162562 -0.066231094 0.005578969 -0.11354077 -0.30757445 0.07163523 -0.17178304 0.015180424 0.16759357 -0.04660578 -0.35048735 0.17696966 -0.102358125 -0.083573565 -0.015777994 -0.08409148 -0.18737504 0.008092499 -0.01118767 -0.17365305 0.09482843 0.22441128 -0.4561436 0.09617846 0.22836056 -0.075680055 0.23582399 -0.07250834 -0.10703641 0.22793984 0.1624169 0.051061437 0.08609716
12 -0.27213144 -0.11543331 0.21756126 -0.19809411 0.055158265 0.20122449 0.28646818 -0.23064138 0.37879947 0.14204825 0.28202507 -0.05754869 0.15311398 -0.036057588 0.14316393 -0.19033812 0.34458822 0.121564224 0.01772982 -0.21663003 0.2209394 -0.078897156 0.061524533 0.025719494 -0.15274875 -0.048553817 -0.027879545 -0.04857756 -0.24991691 0.0013412773 -0.18786018 -0.009327952 -0.07648916 0.012643104 -0.109279014 -0.32266778 0.06877325 -0.1600465 0.0032825682 0.17949761 -0.06062369 -0.3533948 0.17069586 -0.10116281 -0.08357893 -0.019582918 -0.08841558 -0.19110247 0.0010582178 -0.006011122 -0.17263901 0.09447012 0.21955656 -0.44383958 0.07652784 0.23695943 -0.087294474 0.2336343 -0.06565113 -0.09630143 0.21354894 0.16157027 0.0504856 0.094309
21 -0.28635406 -0.10171372 0.20734927 -0.20839159 0.05042419 0.20044178 0.29039934 -0.2266487 0.37806562 0.14949335 0.26672143 -0.07336544 0.15532376 -0.025238348 0.15138558 -0.1818806 0.34848046 0.11687953 0.016149316 -0.21536192 0.21985288 -0.07323434 0.05040997 0.015004673 -0.1559699 -0.050139576 -0.018590922 -0.06519914 -0.25942197 -0.015393378 -0.20016564 -0.007968651 -0.07471929 0.02042171 -0.102235876 -0.31197095 0.06537902 -0.16758238 0.004654476 0.17369178 -0.06373086 -0.35628203 0.17511055 -0.10533103 -0.07646429 -0.015807942 -0.077417344 -0.18184459 -0.002898782 -0.0042141853 -0.17695868 0.08699754 0.20956549 -0.4398711 0.08820253 0.23086262 -0.084739596 0.24420881 -0.070937686 -0.09751895 0.23013124 0.16532026 0.061231613 0.09051899
17 -0.29028475 -0.14078934 0.22032511 -0.20775434 0.042182896 0.20475404 0.2912925 -0.2343172 0.37549126 0.14727461 0.28066012 -0.06979269 0.13501091 -0.043068353 0.14817406 -0.18431859 0.32982013 0.11661931 0.010403595 -0.20264602 0.20799465 -0.095995486 0.06655283 0.023440577 -0.1519279 -0.037567012 -0.021685848 -0.039148968 -0.24574448 0.012325461 -0.17874412 -0.017685005 -0.07612797 0.010894334 -0.119916566 -0.33611152 0.055076905 -0.16799569 0.0071731503 0.18704338 -0.043056197 -0.3436384 0.16225126 -0.08725519 -0.086742364 -0.011083751 -0.11041815 -0.18369217 -0.0095905345 -0.010977468 -0.15879521 0.11272263 0.20410469 -0.437308 0.07343344 0.2440796 -0.10046418 0.24839787 -0.05081204 -0.09629076 0.21340087 0.14742833 0.03785152 0.08802959
14 -0.2776021 -0.11493338 0.22084743 -0.19601099 0.042921636 0.20368516 0.2796209 -0.22846326 0.37802404 0.14543274 0.27610478 -0.06252951 0.15830638 -0.034778066 0.14608024 -0.1755807 0.3264277 0.113292776 0.009015878 -0.2207842 0.22254443 -0.091273956 0.054099582 0.031231917 -0.16269076 -0.041628733 -0.023270695 -0.06078501 -0.2447754 0.002554111 -0.1903362 -0.019970546 -0.066250965 0.019440372 -0.10121396 -0.32233718 0.05578 -0.15770246 0.0019522621 0.16619122 -0.05488524 -0.35498765 0.17310442 -0.098636106 -0.0769438 -0.021849865 -0.07539362 -0.18723783 -0.011220735 -0.010912787 -0.17330103 0.09396758 0.2077295 -0.44242895 0.08204247 0.22602345 -0.07595453 0.24113889 -0.055196796 -0.100090906 0.22451058 0.17213495 0.050987218 0.085580304
96 -0.28816608 -0.10193496 0.20539844 -0.20954359 0.06389064 0.19656706 0.2946042 -0.23648392 0.3751285 0.15619314 0.26398775 -0.064526565 0.16482304 -0.031884186 0.15152846 -0.18034123 0.35328218 0.11485494 0.006985266 -0.22590303 0.23054552 -0.07984862 0.03702032 0.008626035 -0.16279285 -0.049017478 -0.019912725 -0.056356374 -0.25357997 -0.0044478225 -0.20342614 -0.0050133364 -0.06650741 0.015806498 -0.10446162 -0.32614642 0.08092795 -0.17673707 0.007565784 0.17318971 -0.057927452 -0.35607222 0.18133526 -0.11238164 -0.08584418 -0.016167318 -0.077215284 -0.18018006 0.0007853836 -0.012409493 -0.16456173 0.08247887 0.21115027 -0.44155326 0.10517844 0.22572777 -0.072413616 0.23982668 -0.0819058 -0.10788879 0.23664568 0.16062258 0.06253265 0.07694338
89 -0.27857485 -0.11781381 0.22215834 -0.20930704 0.05268653 0.19757602 0.2835539 -0.2255152 0.3781687 0.14323367 0.2794545 -0.07294873 0.14516512 -0.048584223 0.14813218 -0.1703414 0.33703557 0.116312385 0.009127233 -0.20922638 0.22174935 -0.075371794 0.05758093 0.011111565 -0.15294412 -0.048773 -0.015739394 -0.047809295 -0.2465701 -0.00035214712 -0.19663826 -0.014425743 -0.075497806 0.019420136 -0.11579815 -0.3296353 0.06131618 -0.1565381 0.01623728 0.17858288 -0.04792002 -0.3558957 0.16476153 -0.106980436 -0.081831 -0.01165012 -0.08695547 -0.19173798 -0.011353769 -0.0010389986 -0.17569605 0.10475087 0.21723187 -0.4313022 0.09392014 0.23390289 -0.07881498 0.24468717 -0.06675391 -0.10055508 0.2296365 0.1665763 0.053231847 0.08389102
79 -0.3060936 -0.11228363 0.21241018 -0.21195787 0.052955292 0.1896736 0.27355656 -0.21855229 0.36894095 0.15045549 0.2572997 -0.0635728 0.14920315 -0.04753472 0.13853551 -0.17150293 0.34220317 0.12132528 -0.005815541 -0.2198425 0.2262608 -0.06691973 0.051679283 0.013223675 -0.15253799 -0.04489274 -0.024248833 -0.058496602 -0.2551104 0.0075548235 -0.19500542 -0.008562497 -0.06655564 0.0009050715 -0.10916707 -0.31801212 0.0661843 -0.17536028 0.018184574 0.18021749 -0.057750106 -0.34219778 0.18434483 -0.0941554 -0.09042082 6.917303e-05 -0.091952175 -0.17933096 0.002298348 -0.014598398 -0.16456063 0.09916016 0.21748346 -0.44644699 0.08717941 0.24349517 -0.09650801 0.24283393 -0.061350204 -0.10003692 0.2307781 0.15875413 0.06175176 0.08698436
27 -0.2770286 -0.12944499 0.2245534 -0.193988 0.055902388 0.20748924 0.294032 -0.23177981 0.37281463 0.13625039 0.27603713 -0.0657716 0.15878235 -0.044812214 0.15331131 -0.18502058 0.33750042 0.12565422 0.012768867 -0.20708792 0.21036063 -0.0894816 0.06684675 0.023206316 -0.16736946 -0.03121625 -0.033749618 -0.05618943 -0.24746211 0.0026360543 -0.18665045 -0.0038140712 -0.07042059 0.013105294 -0.11191036 -0.3131888 0.055185024 -0.17099865 0.015718924 0.17806312 -0.059064265 -0.3578974 0.18153112 -0.10305186 -0.08842251 -0.0061391047 -0.081075504 -0.18847993 4.678292e-05 -0.005417872 -0.17275551 0.108775176 0.21976678 -0.42721304 0.08859677 0.23402648 -0.08700724 0.2290275 -0.062389378 -0.09123223 0.22818044 0.15921953 0.051246688 0.08118861
94 -0.2879965 -0.09010642 0.19932826 -0.20696706 0.05445393 0.20056204 0.29015222 -0.21995041 0.37238133 0.14543423 0.2590397 -0.063658774 0.14723986 -0.02183092 0.14966135 -0.18007573 0.34405223 0.12159894 0.014642278 -0.201834 0.2261441 -0.07401435 0.03318379 0.0067644333 -0.15704246 -0.048985552 -0.005163529 -0.052906368 -0.2581574 -0.010346367 -0.19799593 -0.016308328 -0.08129217 0.006934325 -0.10166096 -0.32911485 0.08028431 -0.17682546 0.014412125 0.18148701 -0.06597342 -0.36210126 0.19200805 -0.121668965 -0.087364316 -0.022869715 -0.07697939 -0.18672228 0.013637964 -0.0044965534 -0.17196198 0.07805947 0.21348853 -0.4411101 0.11110727 0.23187649 -0.06665278 0.23430425 -0.08775599 -0.09813471 0.22263712 0.17591056 0.058136947 0.08083516
28 -0.2834043 -0.12351277 0.22538722 -0.20063852 0.05148195 0.19207896 0.28276277 -0.21413739 0.37417918 0.1339991 0.27195793 -0.060296882 0.13706325 -0.04677332 0.15142621 -0.18019494 0.33022583 0.128313 0.016588429 -0.21214107 0.21648529 -0.088228084 0.06779965 0.016524341 -0.16469991 -0.04178077 -0.03213751 -0.04506372 -0.245699 0.016101277 -0.18285523 -0.01519124 -0.078325555 0.011486735 -0.1075262 -0.32637274 0.048979815 -0.1617163 0.019313375 0.1665758 -0.04012903 -0.34764627 0.16410802 -0.09814703 -0.0895048 0.00045022194 -0.090103984 -0.18150228 0.00059845473 -0.002351205 -0.17054044 0.110843204 0.21701251 -0.42942542 0.07876995 0.23716374 -0.08696982 0.24719681 -0.05048728 -0.08705376 0.2224352 0.15980789 0.04819552 0.08628671
74 -0.2856995 -0.13681684 0.2377132 -0.19716522 0.055224825 0.19297475 0.27794927 -0.22763498 0.37215626 0.13733275 0.28888652 -0.07210343 0.13478658 -0.05621518 0.1324839 -0.17480804 0.3427397 0.121266924 0.010422435 -0.19658051 0.21102285 -0.090123095 0.06710495 0.016352281 -0.14862336 -0.035084862 -0.02609033 -0.03853172 -0.25632572 0.015401922 -0.17727469 -0.013792826 -0.076136835 0.0036231473 -0.12182753 -0.32086575 0.047685582 -0.16320217 0.017935256 0.18838938 -0.04251074 -0.33943057 0.16362622 -0.09617856 -0.08442943 0.0038393517 -0.10194687 -0.17465226 0.003183958 -0.015031664 -0.16152297 0.10565156 0.22574869 -0.4392695 0.07187149 0.23892738 -0.09769184 0.25403485 -0.048106797 -0.106351934 0.22571017 0.14873922 0.04100798 0.09607646
61 -0.29484177 -0.13782738 0.23171343 -0.19805425 0.05879026 0.20584777 0.27836108 -0.22840261 0.36705238 0.14422368 0.2777773 -0.06922095 0.14137429 -0.04573475 0.14725532 -0.18560208 0.33516464 0.11471227 0.0032516667 -0.21559171 0.2099807 -0.0787841 0.06825698 0.02647242 -0.16414791 -0.040290967 -0.026486332 -0.046580456 -0.2534956 0.009868871 -0.18703352 -0.009248099 -0.078813665 0.016277941 -0.11827811 -0.3314152 0.052786488 -0.16104071 0.025256436 0.16386189 -0.059759285 -0.3513355 0.16671218 -0.09767264 -0.09311869 -0.004785804 -0.10021281 -0.18444522 -0.010801952 -0.013340801 -0.16067521 0.10858192 0.21613951 -0.44374728 0.08386405 0.23947293 -0.08416282 0.25105438 -0.049293917 -0.10338257 0.2197045 0.14900856 0.053881418 0.0946633
26 -0.2975143 -0.101796135 0.21476667 -0.20611688 0.05545354 0.20128539 0.29053813 -0.22325054 0.36240074 0.14924924 0.26341978 -0.053073507 0.15682505 -0.03191903 0.15225308 -0.18644132 0.337309 0.11239808 0.004628149 -0.20831789 0.23193283 -0.076461904 0.05724056 0.010015898 -0.155085 -0.043919973 -0.02092955 -0.063835055 -0.26245356 0.0018887472 -0.19643453 -0.015470255 -0.06327872 0.022938505 -0.1125852 -0.32609004 0.076652974 -0.17652123 0.0039839926 0.18546939 -0.04992051 -0.35394034 0.18587637 -0.1067911 -0.09368767 -0.0026241974 -0.09128584 -0.18748076 0.005338202 -0.00067395676 -0.17928605 0.091765895 0.22363128 -0.43824226 0.085771 0.23265193 -0.08422437 0.23989527 -0.06798665 -0.108081825 0.22265732 0.1648788 0.06089876 0.09299089
48 -0.30047452 -0.11656209 0.21930653 -0.21011777 0.054344185 0.19697402 0.28620738 -0.22981068 0.36418635 0.15451595 0.27323884 -0.058523994 0.16346626 -0.030699259 0.14925312 -0.17382976 0.33764508 0.117059015 0.004703944 -0.21315089 0.23327044 -0.082619146 0.05691581 0.006707126 -0.15491635 -0.029748742 -0.022480877 -0.06403347 -0.24231364 -0.0009168001 -0.18248278 -0.02042411 -0.073503904 0.0020434868 -0.10568907 -0.3248605 0.07230959 -0.18076135 0.020412493 0.18631195 -0.04688989 -0.33779112 0.17407899 -0.109655775 -0.09966824 0.002455932 -0.096238315 -0.18341312 0.008421325 0.0049595376 -0.16551591 0.09298327 0.22272764 -0.4300061 0.0907107 0.24040765 -0.08077374 0.2381202 -0.07672659 -0.10002239 0.2187976 0.1609337 0.040416416 0.092871316
68 -0.28213355 -0.09211779 0.19805154 -0.21435459 0.053564746 0.20738685 0.29511005 -0.22668393 0.37281317 0.14336963 0.27290994 -0.069137156 0.15597785 -0.039460015 0.15560699 -0.18627988 0.3410259 0.11476494 -0.0024846632 -0.2075251 0.22744232 -0.07487333 0.041456778 0.00460598 -0.16431886 -0.039490253 -0.007122976 -0.07249949 -0.2644424 -0.01734958 -0.20575348 -0.01843056 -0.069797136 0.009046558 -0.11603453 -0.32361627 0.08361046 -0.17336367 0.010945772 0.18903795 -0.064307705 -0.35807025 0.18047342 -0.1128704 -0.07825274 -0.013599845 -0.07385113 -0.1781022 0.00773461 -0.008704743 -0.18315476 0.09176358 0.22167726 -0.43456227 0.09026462 0.22969152 -0.07440717 0.24273163 -0.0745616 -0.09863776 0.2299334 0.16279152 0.065685146 0.07023457
8 -0.27490768 -0.13148619 0.22984374 -0.20722944 0.04156178 0.19065839 0.27054283 -0.22158134 0.3756822 0.14520414 0.27449894 -0.07353921 0.14263238 -0.05168713 0.14969212 -0.18643725 0.31743547 0.12633073 0.011103977 -0.21855485 0.21422748 -0.08774955 0.063562475 0.031789854 -0.16093805 -0.036556467 -0.015208245 -0.047503415 -0.2531972 0.010088394 -0.18413572 -0.0148937665 -0.080514096 0.012458563 -0.11171655 -0.3219488 0.053573623 -0.15356152 0.019555138 0.16721275 -0.051359344 -0.3571061 0.17211673 -0.09035233 -0.082338735 -0.006955685 -0.10243408 -0.18565851 -0.009561242 -0.0111416625 -0.16965495 0.116956 0.2246824 -0.4367063 0.07178117 0.23299268 -0.095526464 0.25132456 -0.052512057 -0.10057681 0.22437067 0.16807328 0.053790182 0.087985165
16 -0.29513898 -0.10038429 0.19751233 -0.20358849 0.05799262 0.20045778 0.28798854 -0.21756326 0.35831922 0.14181517 0.2588556 -0.050630983 0.16180836 -0.029032044 0.1420809 -0.17764096 0.33899975 0.12092374 0.01441628 -0.2117939 0.23722523 -0.07618725 0.040742666 0.0022975972 -0.16261819 -0.040895265 -0.018480187 -0.075212814 -0.26043147 -0.0012311181 -0.20141244 -0.021259334 -0.06327567 0.010393799 -0.11433234 -0.3247206 0.088153586 -0.17220636 0.0062067173 0.19083948 -0.05983464 -0.3622518 0.1808446 -0.114212185 -0.096337534 -0.02078769 -0.089936145 -0.19317989 0.006081802 -0.015028987 -0.16710769 0.087874085 0.21789534 -0.43856335 0.094834544 0.2388006 -0.078957506 0.24505033 -0.06925515 -0.10783017 0.22649662 0.16894317 0.054797497 0.080457374
11 -0.28422126 -0.10914393 0.2075724 -0.21366793 0.060072694 0.20135477 0.29594257 -0.22605287 0.36403713 0.14534202 0.26293817 -0.057988126 0.1605841 -0.03289156 0.13963266 -0.18294825 0.34629402 0.11672614 0.008076498 -0.2133939 0.22743084 -0.083166935 0.05031142 0.0055849133 -0.1560505 -0.037835825 -0.00937279 -0.06638423 -0.2633746 -0.008427642 -0.19063266 -0.022669269 -0.06772115 0.017040923 -0.10972091 -0.31881607 0.0753059 -0.17934231 0.0039360495 0.18526407 -0.05438812 -0.3506259 0.18035306 -0.1138764 -0.08085429 -0.013301238 -0.080717824 -0.18612428 0.008727879 -0.015548737 -0.1680005 0.084202185 0.2164218 -0.42864794 0.08825632 0.23322566 -0.07821644 0.24008052 -0.070546694 -0.10453046 0.2261175 0.16231582 0.062098596 0.07997321
98 -0.2933876 -0.10759469 0.2045226 -0.19818547 0.050255973 0.1995722 0.28473645 -0.21954851 0.349656 0.1493288 0.25698587 -0.058646504 0.15656164 -0.03110497 0.14919154 -0.18451232 0.33185923 0.1135946 0.005283962 -0.21781883 0.23122635 -0.081728965 0.042250536 0.012269585 -0.16234468 -0.044038013 -0.006561154 -0.0564861 -0.25117394 -0.0054226546 -0.18489158 -0.021780755 -0.06790788 0.0128374575 -0.10300161 -0.3188394 0.08704756 -0.18112454 0.016745007 0.1884908 -0.05869933 -0.3651932 0.19246367 -0.098278 -0.092487685 -0.01238438 -0.09270634 -0.17926809 0.0030948075 -0.016196484 -0.17601918 0.09026383 0.20630647 -0.44213 0.08915134 0.237743 -0.06881463 0.23246896 -0.07261117 -0.112798296 0.23260953 0.16238934 0.061085902 0.08291235
69 -0.2984455 -0.13906224 0.22716333 -0.2044825 0.047346927 0.19536115 0.27480435 -0.2249069 0.36545044 0.15140764 0.27996004 -0.06427544 0.13102244 -0.052769948 0.14149047 -0.19006534 0.31747293 0.12522675 -0.0011494288 -0.19652554 0.20828809 -0.09742482 0.06559937 0.015903372 -0.16195221 -0.03605687 -0.030371971 -0.040250562 -0.25247914 0.01588372 -0.18040864 -0.013198852 -0.069698416 0.0052743615 -0.12277111 -0.324581 0.0492034 -0.15430345 0.019116746 0.17196016 -0.04898443 -0.35003284 0.17307377 -0.09205258 -0.09119795 -0.0033322496 -0.1102509 -0.19422755 -0.00090583676 -0.001956172 -0.16264017 0.11606905 0.21712433 -0.43142706 0.08347771 0.24501297 -0.093609594 0.24622186 -0.054687437 -0.11214612 0.21685787 0.15042019 0.05116792 0.10170204
54 -0.28406814 -0.12029977 0.2078586 -0.20179053 0.062247165 0.1921749 0.27734745 -0.22031417 0.36715224 0.14180142 0.27192903 -0.062020533 0.14618586 -0.047759928 0.13662079 -0.18543716 0.3398992 0.11477613 0.00054922834 -0.21916974 0.22368105 -0.08297743 0.0621298 0.020836083 -0.15528294 -0.04010531 -0.025926657 -0.050010692 -0.2539806 -0.009107778 -0.2007477 -0.0054158242 -0.06305135 0.026729824 -0.11485852 -0.3286261 0.06490921 -0.16993137 0.018238073 0.18222854 -0.060956404 -0.367416 0.17490922 -0.10556866 -0.0773957 -0.0118055865 -0.0807131 -0.19187507 -0.012945427 -0.008113406 -0.1814099 0.1084677 0.21887939 -0.43840614 0.08617447 0.22360578 -0.07679616 0.24755432 -0.059054572 -0.0987457 0.21354444 0.16560231 0.06093393 0.091634035
1 -0.2856812 -0.1000081 0.1965856 -0.20818843 0.059495106 0.20525885 0.29671797 -0.23689523 0.3714567 0.14585198 0.2599921 -0.070233904 0.14855629 -0.03714994 0.15633628 -0.16567849 0.35199276 0.10778035 0.014254493 -0.21552299 0.21900006 -0.07858173 0.034774702 0.0053951195 -0.1541938 -0.04653058 -0.009681662 -0.068106614 -0.2639211 -0.006417395 -0.18679206 -0.022428652 -0.07196736 0.0051840916 -0.10419661 -0.32300076 0.07407179 -0.16725615 0.011988753 0.17303596 -0.048494827 -0.35481253 0.17438768 -0.098626226 -0.07553997 -0.026363604 -0.071619816 -0.1833676 0.0040226644 -0.012479744 -0.166279 0.07804023 0.20225778 -0.43836552 0.10119003 0.22951575 -0.074416 0.22826676 -0.07563771 -0.10870377 0.22887468 0.16847809 0.053726297 0.08516491
