100 64
93 0.115093865 -0.27440384 -0.2950773 0.23002791 -0.054066822 -2.879682e-06 0.17234199 -0.037427366 -0.26346362 0.038658902 -0.16233571 -0.053719055 -0.12110502 -0.15370691 0.12257777 -0.24702208 0.038805198 -0.24017087 0.05883917 -0.2732904 0.21268348 -0.0047951387 -0.15610217 -0.11502328 -0.066332564 -0.13809106 -0.07984006 0.007110294 -0.17640585 0.057658702 -0.034302197 -0.06256605 0.08482204 -0.05345009 -0.29363275 0.08818157 0.16687563 0.11898745 -0.17195769 0.32909957 0.071621105 -0.18663733 0.20649067 -0.041042145 -0.07858966 0.1212206 0.0878426 -0.034927208 -0.15591554 -0.28813177 -0.20992316 0.35954857 0.115837656 -0.024931738 0.06810657 -0.193397 -0.12731758 0.310264 -0.0006371387 0.31525868 0.45407563 -0.06278459 -0.16286328 0.047495663
83 0.11241999 -0.28285706 -0.29595008 0.23044322 -0.067534454 -0.010888512 0.17136452 -0.035840627 -0.26073447 0.03573579 -0.14622302 -0.05959205 -0.115203425 -0.16770199 0.10626435 -0.23634061 0.03068786 -0.23079407 0.055556443 -0.27755654 0.1935933 -0.016521377 -0.15398034 -0.11642448 -0.06090006 -0.13024846 -0.08465758 0.003263566 -0.16624273 0.049154032 -0.04638918 -0.071038105 0.08122431 -0.04933571 -0.30394208 0.09593893 0.17812496 0.113287926 -0.17539494 0.33433452 0.06625759 -0.18850747 0.20768258 -0.051911883 -0.078811035 0.11875422 0.08908387 -0.027997091 -0.15794985 -0.27688926 -0.19899917 0.36091807 0.113755964 -0.0228294 0.081095174 -0.19984971 -0.13483447 0.3097537 -0.0039054814 0.30339888 0.45712674 -0.07383757 -0.17055683 0.058071952
20 0.107816294 -0.27244714 -0.2897717 0.2237618 -0.044623148 -0.010614995 0.17138606 -0.033675402 -0.26059985 0.027715255 -0.15616272 -0.054626692 -0.10891191 -0.16667901 0.12169948 -0.23792171 0.04031457 -0.2385799 0.0600301 -0.2732019 0.2079151 -0.006738858 -0.15590262 -0.109915264 -0.06567638 -0.12968193 -0.08545711 -0.0046401476 -0.16466938 0.047468208 -0.05056859 -0.076184995 0.074672416 -0.051748455 -0.29834875 0.082927614 0.16729301 0.11530025 -0.18539052 0.33612186 0.079418786 -0.18999295 0.20114206 -0.044256702 -0.08478852 0.11951564 0.090516806 -0.025695413 -0.16425525 -0.28555387 -0.21016853 0.36144876 0.11984074 -0.021134697 0.08425747 -0.20705737 -0.13596013 0.30288714 0.010815044 0.305405 0.45534885 -0.0647097 -0.1689488 0.05310378
41 0.10998018 -0.28339386 -0.2996785 0.22829245 -0.06078611 -0.0015967583 0.17450403 -0.030407814 -0.25731266 0.03407946 -0.15940146 -0.06565976 -0.11270814 -0.15410566 0.11476255 -0.23288475 0.036670484 -0.23819017 0.05610885 -0.2767335 0.20496106 -0.011111865 -0.15912631 -0.11240155 -0.06809191 -0.13048849 -0.073079675 0.0070217447 -0.16432355 0.060710844 -0.052112523 -0.06556179 0.06819415 -0.049587693 -0.30518493 0.09175809 0.16941895 0.11740521 -0.17441995 0.3313943 0.06388477 -0.18591629 0.20646983 -0.05142198 -0.07291673 0.1079126 0.082473196 -0.029250521 -0.15738098 -0.2766179 -0.2104912 0.36043203 0.108248875 -0.019897422 0.07735252 -0.20649803 -0.13208349 0.30165756 0.0036032812 0.29520446 0.44300854 -0.07308642 -0.16454129 0.052304134
89 0.11958985 -0.2839801 -0.29559812 0.22220415 -0.049317103 -0.008506463 0.17401446 -0.028627416 -0.2634198 0.033981424 -0.14802717 -0.053500004 -0.11666726 -0.16295914 0.122493654 -0.24374215 0.026560254 -0.23365894 0.053656153 -0.28390205 0.21328588 -0.0004632107 -0.14993934 -0.11919283 -0.06606759 -0.12870237 -0.07667518 0.007800033 -0.16688609 0.05639927 -0.03930622 -0.06962477 0.07208202 -0.049059138 -0.2998904 0.09421317 0.17164527 0.11252007 -0.18262696 0.34104434 0.069294296 -0.17681547 0.2064948 -0.060856234 -0.07873988 0.110323645 0.09096363 -0.036631968 -0.16154502 -0.2820207 -0.21034777 0.35436386 0.1139458 -0.020535246 0.07857001 -0.19175346 -0.14234729 0.30939147 -6.218933e-05 0.3186812 0.4489176 -0.0723409 -0.15867004 0.061894733
86 0.11278882 -0.27941847 -0.284098 0.22767673 -0.044494595 -0.009003434 0.15682407 -0.0320656 -0.26883352 0.033550333 -0.1535141 -0.048035014 -0.12071155 -0.16126141 0.11984258 -0.24560185 0.04036224 -0.23089868 0.056998983 -0.2783527 0.21478368 -0.0015781891 -0.1622018 -0.12016135 -0.057101052 -0.13406505 -0.079628 -0.005718587 -0.17670111 0.05717138 -0.050184708 -0.06661922 0.07224764 -0.046728145 -0.30676478 0.09886696 0.17371598 0.11305695 -0.18369575 0.33838788 0.07647803 -0.19440512 0.20979185 -0.054676846 -0.07630155 0.11532786 0.08755342 -0.03689935 -0.15844536 -0.2851163 -0.20395525 0.3515737 0.11088848 -0.024969023 0.077824846 -0.2004706 -0.14099076 0.31512547 0.0034099368 0.31738028 0.44406107 -0.067178875 -0.1686745 0.056130733
52 0.11968478 -0.2884366 -0.29589018 0.23102993 -0.061985865 -0.0040117903 0.17165282 -0.027441423 -0.25420246 0.027221348 -0.15086746 -0.053245198 -0.11979908 -0.16741912 0.10873662 -0.2336311 0.026290135 -0.23810892 0.06021222 -0.27782464 0.20893882 -0.017377442 -0.15841007 -0.11123482 -0.053990636 -0.13046247 -0.08675878 -0.0010756594 -0.16514994 0.054853655 -0.039644748 -0.06939487 0.08167345 -0.058999352 -0.3030485 0.09212399 0.17066698 0.12464608 -0.17776708 0.32881522 0.06295586 -0.18043631 0.20452791 -0.047937762 -0.08748172 0.11186052 0.09595034 -0.038543116 -0.17137943 -0.29031733 -0.20414948 0.35942352 0.1169411 -0.020776438 0.08119914 -0.20787331 -0.13010308 0.30641517 0.0037747165 0.31719908 0.4462768 -0.06745686 -0.16624908 0.050628677
45 0.100293815 -0.26674694 -0.28233913 0.23408939 -0.0575247 -0.0025224155 0.15977244 -0.03621523 -0.27308062 0.032608293 -0.14915921 -0.050564833 -0.1232772 -0.1622595 0.12200561 -0.24397546 0.03241056 -0.2409132 0.061136156 -0.27751568 0.21056175 -0.005660544 -0.17321883 -0.11388365 -0.054812167 -0.12964144 -0.08580616 0.00612709 -0.17811657 0.059969775 -0.04898249 -0.06915026 0.07793782 -0.055544835 -0.31008092 0.08698456 0.16956443 0.12747723 -0.1872379 0.33296785 0.06506942 -0.19146805 0.20233488 -0.053428482 -0.087811224 0.11606631 0.0946709 -0.034995086 -0.1649056 -0.29960325 -0.20090503 0.37160623 0.123360865 -0.020081941 0.08076572 -0.20187682 -0.12976332 0.31646815 -0.0029450003 0.31856662 0.4556435 -0.065619975 -0.16439357 0.05385338
64 0.11295814 -0.2753412 -0.29961413 0.2299084 -0.04727871 0.0032708663 0.17789856 -0.03900765 -0.2632684 0.02823629 -0.16997561 -0.051981926 -0.12728746 -0.15271278 0.118602306 -0.22888963 0.037468806 -0.23867199 0.0515796 -0.27560338 0.21202601 0.0012325832 -0.15870376 -0.1122023 -0.06667444 -0.13803609 -0.08428897 0.00128743 -0.16719772 0.061328977 -0.051039025 -0.071887136 0.07396894 -0.05072379 -0.29940122 0.08614201 0.16810977 0.11509174 -0.18767294 0.3338327 0.07756713 -0.18795606 0.20995066 -0.052791387 -0.07516048 0.11612022 0.0975925 -0.035184864 -0.16590592 -0.29500976 -0.20635778 0.36290714 0.11430354 -0.017143432 0.0848283 -0.21000433 -0.13696702 0.3210209 -0.002390297 0.30911976 0.45612073 -0.06155536 -0.16254574 0.049622644
40 0.10933421 -0.27486655 -0.29496405 0.21766119 -0.054910805 -0.005213301 0.16221601 -0.037545323 -0.27319908 0.0377505 -0.16212487 -0.051659998 -0.11744708 -0.15091869 0.12740465 -0.23881277 0.03623344 -0.2377321 0.05322648 -0.27743772 0.215532 -0.004438788 -0.1505625 -0.12119644 -0.059629202 -0.14083277 -0.082033284 0.0012712062 -0.17609248 0.043593824 -0.051154405 -0.06139698 0.077458136 -0.06397115 -0.29670808 0.09631816 0.18043113 0.11539129 -0.17623068 0.328063 0.061831646 -0.18990125 0.21058473 -0.044905428 -0.07129463 0.12057362 0.09998721 -0.03506225 -0.1606488 -0.29720482 -0.21300966 0.35452956 0.116490506 -0.022091625 0.071942806 -0.20680155 -0.13327162 0.3112724 0.010076292 0.31937402 0.45373374 -0.07006697 -0.15543325 0.055005234
56 0.12127307 -0.28360388 -0.29193977 0.23705025 -0.060660336 -0.0054772804 0.1640506 -0.03358969 -0.26681072 0.025757449 -0.15522294 -0.068153 -0.10756033 -0.15653513 0.12240316 -0.25306863 0.033728164 -0.23145115 0.06303103 -0.2877897 0.21360411 -0.01124433 -0.14921537 -0.10611253 -0.06226463 -0.12434909 -0.07820135 0.0008997886 -0.17039615 0.058990747 -0.037110597 -0.078456245 0.063801415 -0.044386353 -0.295188 0.10031463 0.18230565 0.11218001 -0.16968606 0.3384642 0.06586738 -0.18183318 0.2027812 -0.045227986 -0.08277466 0.11726712 0.07783478 -0.021726638 -0.1675329 -0.29335988 -0.20322476 0.3498462 0.107647374 -0.022596562 0.071813546 -0.20771071 -0.12667418 0.29807985 0.013343778 0.31346616 0.453634 -0.059214726 -0.15372956 0.052739043
78 0.116742864 -0.28208238 -0.30314216 0.23092666 -0.049265526 -0.006734445 0.17640628 -0.0358766 -0.25769597 0.02153455 -0.1476639 -0.049097985 -0.10703245 -0.15686604 0.112369545 -0.24396671 0.025313947 -0.2413113 0.0620016 -0.27700186 0.19797835 -0.00028784262 -0.16294728 -0.115829386 -0.062577955 -0.12951238 -0.080713995 -0.007265364 -0.17247154 0.051431317 -0.04560862 -0.06905428 0.080092326 -0.048095748 -0.30876732 0.08974688 0.18361147 0.122883365 -0.18596883 0.32529077 0.06592754 -0.19339445 0.20932114 -0.044488117 -0.07757639 0.112215854 0.08565509 -0.028219178 -0.15551493 -0.28245273 -0.19953251 0.3619259 0.11784213 -0.023892883 0.07188412 -0.20517242 -0.12810047 0.30536836 0.013082483 0.31684405 0.46213183 -0.06942586 -0.16451906 0.056303214
18 0.11557709 -0.28018937 -0.29382807 0.22812478 -0.04667932 -0.0016027412 0.16790362 -0.04179979 -0.26192084 0.036181524 -0.1525129 -0.053467933 -0.11852905 -0.15496425 0.11792649 -0.24676543 0.033337947 -0.23437043 0.059878804 -0.28087157 0.210542 -0.006249345 -0.15352494 -0.10532129 -0.058050547 -0.13567485 -0.07218325 0.004990722 -0.16476119 0.057160225 -0.04669595 -0.075235225 0.074207045 -0.056497015 -0.29925442 0.1007945 0.17590104 0.115909375 -0.17793897 0.34158498 0.07504464 -0.17604125 0.2000938 -0.05131343 -0.07215686 0.11557082 0.09259484 -0.027407976 -0.16925858 -0.2879958 -0.21436673 0.35820866 0.11782351 -0.031126436 0.07429463 -0.2152356 -0.14000796 0.32025266 0.011058988 0.31406662 0.45468944 -0.07294932 -0.16937642 0.054178927
70 0.112281695 -0.26734266 -0.28781474 0.2276525 -0.045703962 -0.0097162025 0.16091828 -0.035765905 -0.26281756 0.022651162 -0.16210523 -0.057945848 -0.124147385 -0.16795444 0.11973944 -0.24676795 0.027842266 -0.23192365 0.061109472 -0.28492925 0.20179561 -0.004469522 -0.15508533 -0.110622376 -0.060195155 -0.1379066 -0.07770413 0.010700229 -0.17510879 0.06275749 -0.046819378 -0.07476122 0.08208466 -0.05433819 -0.30337074 0.09101792 0.17655714 0.121002786 -0.17766565 0.3323464 0.0771964 -0.18421821 0.1953433 -0.047281936 -0.06768883 0.10620326 0.09576201 -0.030274611 -0.1636468 -0.29342112 -0.2051959 0.34502584 0.12011407 -0.0162264 0.07795479 -0.20113738 -0.13654852 0.31058735 0.0039228885 0.30567613 0.45721972 -0.063790575 -0.1569056 0.043939244
50 0.121148124 -0.29105052 -0.3050656 0.22902964 -0.044058196 -0.003797557 0.17152663 -0.045963496 -0.2519685 0.019903887 -0.15316968 -0.05640513 -0.10846619 -0.16171156 0.11005543 -0.24431749 0.035755213 -0.2286994 0.055634677 -0.27319145 0.20976587 -0.011582939 -0.1552229 -0.12064479 -0.055589184 -0.12556462 -0.074988656 -0.005934227 -0.17211877 0.05926362 -0.03999016 -0.07756003 0.07709539 -0.04081932 -0.29959145 0.09247373 0.1825054 0.12762436 -0.17896858 0.3311217 0.07754543 -0.19329251 0.20762272 -0.046318572 -0.07619811 0.122058034 0.092087835 -0.031820085 -0.17537804 -0.29813954 -0.21196577 0.35026842 0.11577672 -0.031409215 0.076945364 -0.20949869 -0.14089683 0.31421804 0.0039252224 0.31778076 0.4609694 -0.06121243 -0.16119038 0.0588936
14 0.12074294 -0.2786966 -0.27943277 0.23422042 -0.05124348 0.0008722106 0.1689038 -0.03824715 -0.2648143 0.03313164 -0.15196997 -0.06100172 -0.12505116 -0.16049013 0.114992455 -0.23827803 0.028352594 -0.23845503 0.06292402 -0.28811654 0.21187265 -0.008726771 -0.1508794 -0.10920167 -0.052537628 -0.13997059 -0.07360581 -0.002466731 -0.1783153 0.050457675 -0.046416156 -0.06840908 0.0819172 -0.054854266 -0.30889505 0.10282544 0.17347883 0.12890944 -0.1833954 0.34117293 0.0628579 -0.1796381 0.2145898 -0.056596093 -0.0802408 0.10926378 0.090502046 -0.03181725 -0.17488946 -0.29067174 -0.20601937 0.36573535 0.12151717 -0.01995298 0.071874134 -0.21542257 -0.13991289 0.3092756 -6.2654566e-05 0.316331 0.44834036 -0.07080659 -0.15704627 0.051259834
53 0.1040359 -0.27763757 -0.29233652 0.23137307 -0.0591081 -0.0051018647 0.16091944 -0.03329887 -0.26460457 0.031151643 -0.14743641 -0.059539355 -0.11588566 -0.16239457 0.121726 -0.25110513 0.02764097 -0.23047851 0.048145756 -0.29267436 0.21221629 -0.00035715793 -0.15866706 -0.11034581 -0.052988894 -0.13454321 -0.08072465 -0.008903413 -0.16624673 0.056155745 -0.04304371 -0.07244356 0.072698034 -0.056127578 -0.31423092 0.08424124 0.17425394 0.12112457 -0.1773681 0.32362875 0.060994197 -0.19473077 0.20099308 -0.03978008 -0.07845 0.117940925 0.08628762 -0.031684756 -0.1599307 -0.2861153 -0.21245761 0.36432162 0.12118941 -0.030761743 0.07144581 -0.20187196 -0.13683373 0.31688514 0.012930348 0.32070157 0.4638523 -0.07448539 -0.15928902 0.052814137
63 0.11480827 -0.28394967 -0.3071398 0.23255666 -0.044397164 -0.01068558 0.17226268 -0.038495336 -0.27392617 0.025747422 -0.1646814 -0.05454352 -0.119208604 -0.16136605 0.12643062 -0.23805825 0.031810477 -0.23470831 0.064876184 -0.28425446 0.20469336 0.0013713993 -0.15565799 -0.12087492 -0.058243144 -0.13613933 -0.07718537 -0.011411777 -0.16271734 0.050919563 -0.043805525 -0.07564544 0.077305764 -0.05210963 -0.30166128 0.09215809 0.17583075 0.12422105 -0.1758075 0.33003628 0.07726831 -0.179879 0.19456185 -0.050262883 -0.07575827 0.11711308 0.09926043 -0.029125314 -0.17142701 -0.2873401 -0.19996975 0.35140833 0.11908591 -0.017436793 0.08729714 -0.19688298 -0.1292816 0.31353456 -0.0017457651 0.3131094 0.44536608 -0.06786461 -0.1714123 0.055423267
39 0.109834835 -0.28536186 -0.29982835 0.23082294 -0.057496984 -0.0023719561 0.17540102 -0.038270712 -0.2623364 0.02659765 -0.15466006 -0.05946968 -0.116665535 -0.16163975 0.1196289 -0.24055769 0.029597547 -0.22776112 0.054191165 -0.2751928 0.20822023 -0.0030239439 -0.15209033 -0.107777715 -0.061306793 -0.12389612 -0.08578813 -0.0111157475 -0.16959588 0.04766276 -0.04499746 -0.06976392 0.08222071 -0.053321484 -0.2971084 0.08584151 0.17676693 0.11630934 -0.17409116 0.32769236 0.07087467 -0.18206729 0.20827821 -0.04982496 -0.076215066 0.10701723 0.094113685 -0.035997774 -0.16055845 -0.28522018 -0.20836148 0.3549792 0.11332571 -0.030438839 0.081708126 -0.20147666 -0.13204366 0.31467074 0.008918229 0.31152874 0.45241562 -0.068492286 -0.16518556 0.05360295
48 0.10572975 -0.28789696 -0.29568216 0.22486624 -0.041906636 -0.005681976 0.17701387 -0.032221556 -0.26689255 0.027005041 -0.15397395 -0.04597174 -0.12503463 -0.15426062 0.114754975 -0.24952525 0.030423589 -0.2341135 0.0535761 -0.2754074 0.2112504 -0.013941008 -0.15983245 -0.111602075 -0.050951324 -0.1256021 -0.08957105 0.0015842783 -0.1765293 0.043103795 -0.04582036 -0.07955838 0.08761424 -0.054524284 -0.3058369 0.08511438 0.17938203 0.1298761 -0.18389471 0.32526043 0.06439197 -0.18698469 0.21571238 -0.045301184 -0.08704044 0.10629212 0.082414225 -0.03620624 -0.15960631 -0.28387263 -0.21695282 0.364037 0.11638513 -0.026931075 0.06834424 -0.20067014 -0.13142838 0.31219837 -0.0007076065 0.3149783 0.4539711 -0.06559006 -0.16024716 0.061000787
16 0.10553725 -0.273204 -0.2952165 0.22938937 -0.06467397 -0.008130406 0.16737472 -0.03177638 -0.26181233 0.03868495 -0.15370488 -0.058334835 -0.11254118 -0.1605057 0.12251518 -0.25246558 0.026870256 -0.22897902 0.05830725 -0.2879334 0.21259186 -0.0029161528 -0.16479792 -0.10952683 -0.04817487 -0.1276391 -0.076217026 -0.010066564 -0.17399189 0.05222355 -0.052949764 -0.069708355 0.072122715 -0.04526737 -0.31569877 0.08734238 0.17823221 0.11795945 -0.18979993 0.3373264 0.06716548 -0.19167945 0.2112544 -0.041946538 -0.075075306 0.116434045 0.086215094 -0.02669776 -0.17130962 -0.2860012 -0.20965694 0.35435373 0.114983305 -0.02407987 0.082786635 -0.20600358 -0.14177224 0.31148246 0.011160172 0.31707042 0.46638978 -0.06927309 -0.16145061 0.0472284
43 0.10549656 -0.27120152 -0.2971246 0.23059009 -0.055231992 -0.012867544 0.15770923 -0.027218936 -0.26641685 0.03862053 -0.15371673 -0.050948855 -0.11897311 -0.15298536 0.114599794 -0.24609415 0.036034264 -0.23790225 0.060798153 -0.2767254 0.21470492 -0.010828857 -0.16620187 -0.11809805 -0.05833831 -0.12910661 -0.08635258 0.0022874866 -0.16611455 0.05860871 -0.039931424 -0.07653129 0.07139832 -0.055735767 -0.30826235 0.08101701 0.16678244 0.12915355 -0.1812676 0.3385433 0.0729787 -0.18190673 0.20016614 -0.042160496 -0.07557062 0.11960165 0.095871076 -0.031409822 -0.16136868 -0.28486425 -0.20152624 0.35733426 0.123718895 -0.019239776 0.08281651 -0.20781747 -0.13123323 0.3177309 0.002933028 0.30353826 0.45896444 -0.07488658 -0.16403237 0.05840119
94 0.10200941 -0.2736427 -0.2921062 0.23327571 -0.049452133 -0.006113916 0.17368017 -0.0350628 -0.25974283 0.026382312 -0.16388604 -0.060270052 -0.12250839 -0.16378692 0.116106376 -0.24130367 0.03275692 -0.2445826 0.05209078 -0.28650054 0.20622323 -0.0038638224 -0.16115785 -0.11761557 -0.045224514 -0.13446145 -0.08881554 -0.0012099802 -0.17806727 0.053846344 -0.050476015 -0.063854046 0.08671352 -0.049723923 -0.30629236 0.09057695 0.17147787 0.12631449 -0.17919745 0.32538942 0.0762366 -0.18995343 0.20315729 -0.054999158 -0.08648749 0.110182755 0.098208465 -0.026661543 -0.16807956 -0.2881071 -0.20781907 0.35501885 0.122727044 -0.020062532 0.073433936 -0.20805328 -0.14022826 0.305736 0.012999508 0.31593993 0.4577846 -0.075331666 -0.17626815 0.054246984
31 0.10924162 -0.27628946 -0.29925913 0.23528185 -0.05738189 -0.010642982 0.1587059 -0.034727167 -0.26982307 0.029249726 -0.14845824 -0.052438427 -0.115072675 -0.1622092 0.11946635 -0.23500144 0.03667934 -0.23667288 0.05817268 -0.28017002 0.21164379 -0.010090307 -0.16659658 -0.10972529 -0.062249362 -0.13091744 -0.087416336 0.0046910318 -0.1620023 0.06275798 -0.041619834 -0.071326606 0.08541591 -0.05628092 -0.29859695 0.09220763 0.16601053 0.118787766 -0.181193 0.33863017 0.0722771 -0.17958596 0.20833296 -0.045071427 -0.07968363 0.11234645 0.09327593 -0.032956928 -0.15954638 -0.29780057 -0.21402892 0.35775915 0.11293862 -0.026817264 0.085939705 -0.20717286 -0.12780862 0.3047737 -0.0037299222 0.3035594 0.4557354 -0.06795195 -0.16996033 0.060041413
28 0.12030341 -0.2867054 -0.3001383 0.23450337 -0.055100586 -0.010680602 0.17334932 -0.035724245 -0.26716274 0.03733339 -0.15051581 -0.056814272 -0.11492317 -0.15248252 0.12164267 -0.23416755 0.025296027 -0.23286921 0.051105935 -0.28732076 0.21013673 -0.0034975265 -0.16380975 -0.10938766 -0.052580856 -0.1353496 -0.08152844 -0.008604509 -0.16483438 0.045373272 -0.04379903 -0.057702858 0.07130527 -0.044361696 -0.30373225 0.09340002 0.17995414 0.11269894 -0.18002743 0.33505815 0.056347605 -0.17882076 0.21700773 -0.05817087 -0.08645694 0.11323338 0.0828818 -0.03071406 -0.1681598 -0.28868335 -0.21144103 0.36497524 0.11039771 -0.020635743 0.083156645 -0.20341654 -0.12319141 0.3016798 0.0037741899 0.30359837 0.43720704 -0.076959886 -0.16553271 0.058000416
37 0.11547496 -0.2785828 -0.29287583 0.22491433 -0.049216885 -0.011595486 0.17183875 -0.044249833 -0.26606134 0.033604965 -0.16011123 -0.06154241 -0.124849536 -0.15804866 0.12539573 -0.24528709 0.042930152 -0.23959213 0.05609765 -0.28829116 0.21231207 -0.009264654 -0.15425363 -0.11416863 -0.058794584 -0.13089395 -0.075398885 -0.0011730257 -0.17631246 0.058601264 -0.04194928 -0.06335686 0.07162838 -0.043824274 -0.30498213 0.096527435 0.16350123 0.122546636 -0.17932561 0.32616955 0.067967564 -0.18624784 0.19432251 -0.05284543 -0.07860808 0.10994028 0.08316026 -0.026989179 -0.16637081 -0.28324166 -0.20653035 0.3570394 0.105176836 -0.028258394 0.0814987 -0.20810083 -0.13067377 0.30548218 0.006905768 0.31331617 0.43324825 -0.06315909 -0.1694472 0.06295486
85 0.10788542 -0.2913366 -0.29594427 0.23308599 -0.054825872 -0.005801334 0.16209102 -0.034377333 -0.26471698 0.034882363 -0.1630069 -0.055844028 -0.12018454 -0.16148938 0.11313407 -0.23442332 0.037304647 -0.23657246 0.06007762 -0.27824023 0.21044797 -0.007244254 -0.16184807 -0.10876796 -0.051667385 -0.14139219 -0.0901216 0.0044522965 -0.17059074 0.061613876 -0.047739763 -0.07250471 0.071784586 -0.057115145 -0.3060157 0.088458195 0.17801157 0.11782801 -0.18176527 0.33433187 0.075234264 -0.18913774 0.20114544 -0.04418189 -0.07562939 0.11755462 0.09511292 -0.035814058 -0.1658768 -0.28643513 -0.2071726 0.3579291 0.11774557 -0.024134427 0.0839562 -0.20116034 -0.13925722 0.3223054 -0.000964029 0.3154831 0.45229948 -0.07218611 -0.1638875 0.061476342
42 0.112218425 -0.2774228 -0.2923249 0.22654642 -0.056634367 -0.007862306 0.1596704 -0.039148856 -0.26583663 0.028670123 -0.1612715 -0.062336836 -0.10876127 -0.15879045 0.11534896 -0.2385648 0.027894747 -0.23317295 0.055771362 -0.28493813 0.20044477 -0.012184117 -0.14764401 -0.11753164 -0.058577716 -0.12458296 -0.08528032 0.0026618426 -0.16504225 0.05968516 -0.053936582 -0.07666418 0.07962292 -0.061351314 -0.31040043 0.095672965 0.17737383 0.111978166 -0.17696583 0.33253166 0.06398689 -0.18558106 0.20686713 -0.055397496 -0.07738981 0.1184729 0.095576614 -0.031610288 -0.16815175 -0.28145415 -0.21536733 0.36282837 0.11894017 -0.026863532 0.07202389 -0.21413305 -0.14587665 0.30331722 -0.0014318904 0.31462526 0.45458183 -0.06668 -0.1519544 0.046534345
49 0.110286325 -0.28103498 -0.3007316 0.22864501 -0.059868135 -0.004161755 0.17710656 -0.039175577 -0.26850712 0.037803397 -0.15756053 -0.046649568 -0.10976686 -0.15414613 0.12214064 -0.24668461 0.024568526 -0.23856595 0.06541236 -0.2836245 0.20544903 -0.009146176 -0.15431163 -0.107260525 -0.054881733 -0.13030824 -0.09019368 -0.0029013185 -0.16996272 0.060538072 -0.04847639 -0.06914471 0.073807694 -0.050457176 -0.30115548 0.09362453 0.16887392 0.11990612 -0.18144535 0.32334334 0.07296847 -0.19529736 0.19637036 -0.051534228 -0.08023341 0.12159935 0.09570835 -0.034361906 -0.16880165 -0.29422066 -0.21292298 0.35302404 0.12230673 -0.017945247 0.076320276 -0.19626823 -0.14026147 0.31489164 0.010826349 0.31001475 0.46226218 -0.0667451 -0.16502225 0.04542936
54 0.107602336 -0.27681658 -0.28953436 0.22197376 -0.05615933 -0.009825165 0.17417844 -0.0412331 -0.26456895 0.022606427 -0.16328773 -0.054748107 -0.12032332 -0.1662046 0.11752576 -0.23851505 0.03419046 -0.23439492 0.063759156 -0.27708197 0.20865646 -0.0016927772 -0.14855929 -0.12383736 -0.061963964 -0.13041912 -0.07561157 -0.0071813744 -0.17683241 0.05960992 -0.038041104 -0.06804972 0.07764262 -0.057203967 -0.30481255 0.0903202 0.17899595 0.1112423 -0.18974483 0.3318807 0.080398545 -0.18783276 0.2076757 -0.040222593 -0.07137396 0.10833487 0.09163283 -0.03605069 -0.15823469 -0.28911993 -0.20531602 0.3623046 0.11292899 -0.020623755 0.08599185 -0.21021067 -0.14285079 0.32584178 0.009388979 0.31269553 0.45852074 -0.06789406 -0.16627015 0.06193877
46 0.12311475 -0.2805751 -0.29189056 0.22779062 -0.047623042 -0.009076035 0.16532232 -0.030275786 -0.26318842 0.030925158 -0.16089809 -0.05986029 -0.12192887 -0.17339362 0.11524772 -0.23740423 0.025815865 -0.23273337 0.058700316 -0.28156236 0.20936874 -0.00909558 -0.15662135 -0.12250377 -0.05723286 -0.13627324 -0.08395781 -0.007524577 -0.1724243 0.060922664 -0.051460426 -0.061526205 0.07581007 -0.046240944 -0.30152723 0.097267754 0.18425636 0.11743782 -0.17881154 0.3270369 0.07690934 -0.1916266 0.20932555 -0.043040287 -0.0780218 0.11515002 0.09288331 -0.025637336 -0.15668464 -0.28985476 -0.20463987 0.35505965 0.11130636 -0.029090682 0.07280983 -0.19823958 -0.13748309 0.31315643 0.0045331074 0.3124216 0.4598011 -0.07521113 -0.16931191 0.06053275
57 0.11001851 -0.2907665 -0.29925093 0.2360677 -0.05867044 -0.008803406 0.16982621 -0.030822972 -0.25793323 0.032479595 -0.1509366 -0.047694422 -0.12865326 -0.15846603 0.12697746 -0.24412584 0.03814392 -0.23275632 0.056580294 -0.27188802 0.19805232 -0.013474695 -0.14893559 -0.11807755 -0.049720734 -0.14217865 -0.0718501 -0.0059232637 -0.17100106 0.06003321 -0.04256448 -0.0717532 0.08455051 -0.051000237 -0.30651632 0.1054169 0.18294632 0.11661858 -0.18806192 0.32944837 0.07085517 -0.19036287 0.20486605 -0.054845996 -0.08165669 0.11020088 0.101126164 -0.023482123 -0.1588567 -0.2953069 -0.20834243 0.36748317 0.11720249 -0.02484621 0.082652256 -0.20148206 -0.14031538 0.3119309 0.011515011 0.31557438 0.452365 -0.07420832 -0.16105694 0.057485666
68 0.11955466 -0.27436966 -0.2984084 0.23409027 -0.04838307 -0.009631127 0.1653429 -0.0369591 -0.2600319 0.03912238 -0.1529633 -0.04635512 -0.11818217 -0.1610663 0.11300488 -0.23386006 0.026351985 -0.23360409 0.06331469 -0.28112212 0.20723313 -0.012932829 -0.15631992 -0.116920315 -0.063122354 -0.13840967 -0.07433827 -0.00585023 -0.16850725 0.0510785 -0.04134523 -0.07237548 0.08528931 -0.049914714 -0.29669505 0.08478365 0.17646943 0.12044719 -0.18519905 0.32787502 0.06690478 -0.1849336 0.20702727 -0.04399255 -0.086211815 0.11222012 0.080430314 -0.030110726 -0.1675338 -0.2883873 -0.20786336 0.35044646 0.11875122 -0.023393638 0.079765804 -0.19380578 -0.12929937 0.30676776 0.011428002 0.30737233 0.45518842 -0.06640136 -0.16693513 0.049593743
10 0.117572576 -0.28095075 -0.29992518 0.22643341 -0.04772297 0.0032176785 0.17615907 -0.0398348 -0.26812983 0.034431756 -0.14624165 -0.04756955 -0.12393247 -0.16655587 0.10839474 -0.23888223 0.02450086 -0.23290646 0.049117357 -0.280899 0.21023312 -0.008372214 -0.15757327 -0.108442016 -0.05667985 -0.13480106 -0.07641538 1.081061e-05 -0.15949509 0.04852185 -0.042051908 -0.060610052 0.08155496 -0.056997027 -0.29988983 0.087398134 0.17886093 0.12604038 -0.18087901 0.33608782 0.06969745 -0.18460752 0.20837124 -0.058152203 -0.08370724 0.109781004 0.082180366 -0.029019836 -0.15637754 -0.29524344 -0.21554227 0.35795432 0.11448558 -0.01948581 0.08198104 -0.2119424 -0.14080392 0.30616015 0.0015965768 0.3113109 0.4443536 -0.07912283 -0.16828862 0.05785625
3 0.11462577 -0.28603876 -0.30761838 0.23927303 -0.050580144 -0.0027192615 0.1799674 -0.03817131 -0.26664045 0.035510894 -0.1633653 -0.05714693 -0.11404604 -0.15857092 0.11910217 -0.2431274 0.037371024 -0.24511611 0.06563069 -0.28513977 0.2105482 -0.008374784 -0.15469074 -0.10866687 -0.055314794 -0.13940737 -0.08306854 0.00972165 -0.17258105 0.05137171 -0.05056955 -0.070030905 0.077128105 -0.0578402 -0.30849594 0.10225334 0.17049137 0.12416321 -0.1814465 0.33575624 0.06146016 -0.17740068 0.20123854 -0.05527871 -0.08120692 0.121374056 0.097606555 -0.019112574 -0.16711895 -0.28695068 -0.21672271 0.35667446 0.117101826 -0.018864928 0.07720588 -0.19211331 -0.13592726 0.31131446 0.0025267496 0.3017516 0.44219774 -0.07379658 -0.17091416 0.04536203
97 0.11488668 -0.2780222 -0.2906774 0.2272406 -0.054945085 -0.0014789003 0.15627635 -0.02729404 -0.25567514 0.029041803 -0.1622768 -0.05569517 -0.121218555 -0.17281075 0.12083677 -0.24579248 0.02763317 -0.2277499 0.051460274 -0.2870533 0.20610274 -0.0048660054 -0.15892261 -0.11944474 -0.051536724 -0.13964118 -0.07701417 -0.009123904 -0.1782266 0.055181284 -0.040935658 -0.06941772 0.07768245 -0.054577064 -0.30681264 0.098433934 0.17570156 0.12142991 -0.1738403 0.33091578 0.07743067 -0.18923032 0.21559739 -0.04299318 -0.083472684 0.10451087 0.08492862 -0.029584989 -0.17550275 -0.2835875 -0.21036403 0.36372906 0.113572806 -0.0310724 0.08669997 -0.20283791 -0.14245085 0.31877768 0.0058293054 0.32149252 0.463652 -0.07781108 -0.16760834 0.049631845
35 0.11068315 -0.28976527 -0.30337843 0.2378491 -0.058020256 0.0039449013 0.17351651 -0.03579194 -0.25960937 0.020984553 -0.16291735 -0.059843432 -0.12640291 -0.16691747 0.118010424 -0.23825033 0.023600854 -0.24441032 0.06006276 -0.2796389 0.20291807 -0.011263595 -0.14928104 -0.11590863 -0.05149008 -0.13772519 -0.08598324 -0.0019465854 -0.17468448 0.06553633 -0.03888108 -0.07178981 0.082463145 -0.05155641 -0.30630532 0.09904503 0.18266433 0.113606736 -0.18488793 0.33299533 0.077791326 -0.18995133 0.20425117 -0.058720764 -0.08260291 0.104778185 0.08356532 -0.036376603 -0.15945904 -0.29236823 -0.20168225 0.36251697 0.11215655 -0.027349843 0.08481544 -0.20164114 -0.14461873 0.31690586 -0.0008788213 0.3196056 0.4597371 -0.07574102 -0.15872101 0.057682674
71 0.11411717 -0.28094748 -0.2882163 0.22498669 -0.06231684 -0.014629308 0.16923757 -0.043318145 -0.25487816 0.030212272 -0.14825328 -0.057809405 -0.12645501 -0.16435926 0.121880144 -0.24253409 0.040076222 -0.24103202 0.05456838 -0.28461695 0.20261486 0.0021793137 -0.1528358 -0.1140107 -0.05554972 -0.14189135 -0.07422792 -0.008424747 -0.16744956 0.06609464 -0.04141381 -0.068982996 0.077391915 -0.057879515 -0.3053168 0.096561424 0.16995628 0.12260176 -0.18433253 0.33866343 0.08117934 -0.18979912 0.20855404 -0.04158412 -0.071785174 0.11312498 0.08818428 -0.025241828 -0.17307968 -0.2954658 -0.2024262 0.35076183 0.10844776 -0.032630708 0.08738572 -0.2081747 -0.14111245 0.31716934 -0.0014253799 0.3077086 0.45397177 -0.07562988 -0.16707774 0.0453893
2 0.10978035 -0.27669173 -0.28598496 0.21994308 -0.04201178 -0.0038807953 0.16513258 -0.04104115 -0.2672181 0.03402119 -0.15349087 -0.054863624 -0.11756056 -0.1686605 0.11599534 -0.24192585 0.028911881 -0.24589032 0.06709581 -0.2762891 0.20402363 -0.0009070799 -0.16021761 -0.11925766 -0.05023846 -0.13985948 -0.07657462 0.0006307791 -0.17326745 0.053949308 -0.056870382 -0.064139664 0.071699105 -0.06132083 -0.30221257 0.095883675 0.17548919 0.12512511 -0.18829218 0.33923545 0.07755588 -0.19204482 0.21038824 -0.047313888 -0.0833932 0.120669805 0.09874512 -0.03437012 -0.16368827 -0.29328147 -0.2047393 0.3639482 0.122406706 -0.022895774 0.08184508 -0.20480897 -0.13792686 0.31314075 0.014346694 0.30571663 0.4573672 -0.07268898 -0.17115447 0.05659488
87 0.12192305 -0.29330543 -0.29454133 0.22833854 -0.04723169 -0.010767689 0.16826539 -0.031923186 -0.2548334 0.028140463 -0.15946916 -0.05151299 -0.108538955 -0.16738436 0.11803012 -0.23430037 0.034637984 -0.22600096 0.06298904 -0.27362984 0.20223372 -0.0052537825 -0.15102005 -0.12038829 -0.05297589 -0.12991513 -0.069854684 0.00049216737 -0.1613366 0.05678193 -0.04978184 -0.07377603 0.07051695 -0.06102016 -0.3054637 0.095609516 0.17812718 0.1156124 -0.17273055 0.33286834 0.067565806 -0.17816131 0.19437605 -0.04236759 -0.07357415 0.11401494 0.09920534 -0.03664542 -0.15557577 -0.29520598 -0.21297358 0.35600638 0.11121081 -0.022969687 0.07969794 -0.2055157 -0.13377774 0.30685523 0.0066664875 0.30591175 0.44153717 -0.06790307 -0.16066314 0.062399104
69 0.115086205 -0.27459025 -0.28917578 0.23196906 -0.0572825 0.00427289 0.1654362 -0.040573798 -0.2620546 0.024668153 -0.15447305 -0.05036507 -0.11645541 -0.15874256 0.117605105 -0.24482495 0.023252483 -0.23552246 0.06306243 -0.27947587 0.2147881 -0.006157409 -0.16281596 -0.110422336 -0.05941186 -0.12447416 -0.08636239 0.0025444562 -0.16801016 0.050786253 -0.054914765 -0.06409366 0.07286312 -0.046895668 -0.2991754 0.095777646 0.18125407 0.123454496 -0.19046354 0.33266184 0.065473266 -0.19250707 0.20657006 -0.043155108 -0.06989848 0.11111548 0.08437343 -0.027983306 -0.16274011 -0.2930803 -0.19856647 0.35567948 0.12600367 -0.021976877 0.08400521 -0.21403769 -0.12962903 0.30754083 0.00676452 0.31462154 0.46267965 -0.0661455 -0.16699801 0.055708148
90 0.11544264 -0.2734976 -0.2976666 0.22861461 -0.04316686 -0.009902557 0.1619889 -0.038317285 -0.26298904 0.038263552 -0.16181666 -0.051415257 -0.11709412 -0.16939428 0.12497289 -0.23277229 0.025942365 -0.23642886 0.058272503 -0.2866682 0.21179728 0.00032935519 -0.16045202 -0.11388549 -0.059975237 -0.14092259 -0.07390404 -0.0032280928 -0.1682052 0.050515905 -0.054867227 -0.06711138 0.07570822 -0.050810557 -0.31173328 0.084658645 0.1737153 0.12618777 -0.1888136 0.33266133 0.06492597 -0.18336304 0.2075731 -0.054706804 -0.08867761 0.10978704 0.09783314 -0.039296094 -0.16093978 -0.29711285 -0.21236004 0.36213127 0.113864094 -0.021073222 0.08611847 -0.20564337 -0.1384291 0.31927624 0.0073318537 0.31753194 0.45340496 -0.07515995 -0.16490327 0.05533658
11 0.099732995 -0.28229183 -0.28678435 0.22572812 -0.060032077 -0.004091409 0.15758897 -0.031688865 -0.2630537 0.029726975 -0.15447137 -0.06112365 -0.10599293 -0.16005059 0.1182202 -0.24563396 0.036439378 -0.22246921 0.04879434 -0.27812883 0.21148118 -0.006711017 -0.16310829 -0.1108306 -0.05949041 -0.13561004 -0.08346091 0.0016906266 -0.16378865 0.05051727 -0.037798718 -0.06298048 0.07036822 -0.057806585 -0.3019661 0.08835675 0.1736528 0.1121046 -0.1748104 0.33231238 0.06952496 -0.17897624 0.20403785 -0.04856733 -0.07827387 0.11773528 0.08722202 -0.023151716 -0.16098109 -0.29128337 -0.20574668 0.35279298 0.10601683 -0.029231155 0.07980445 -0.2074088 -0.13208717 0.31463012 -0.0019862168 0.3069174 0.4423617 -0.062269866 -0.16210884 0.054261684
58 0.102811225 -0.2679658 -0.2915069 0.225346 -0.057314195 -0.00380088 0.16632083 -0.02478645 -0.2687313 0.025128316 -0.16363293 -0.051225334 -0.12201165 -0.16049396 0.12340352 -0.2446595 0.02630553 -0.23087901 0.051840827 -0.27871248 0.21320195 -0.0024466915 -0.14981607 -0.11978966 -0.056488737 -0.13196921 -0.084858164 0.0072462396 -0.17007327 0.04641916 -0.049626544 -0.076901786 0.07226213 -0.047473595 -0.30850703 0.09458138 0.17308639 0.12105019 -0.18726958 0.34283996 0.07311211 -0.17863439 0.21743412 -0.047310855 -0.079732314 0.104912505 0.081543155 -0.029374262 -0.16651303 -0.29249007 -0.2145622 0.35746235 0.113560244 -0.027051494 0.075004034 -0.20324674 -0.14592914 0.30491558 0.0072373096 0.32132006 0.46444267 -0.076359205 -0.16974145 0.050447907
55 0.106822036 -0.27976033 -0.29559973 0.22631426 -0.045367543 0.0042646048 0.17379935 -0.033237312 -0.2578699 0.03989457 -0.16091977 -0.04413679 -0.11455107 -0.14774413 0.1281329 -0.23857406 0.029007623 -0.231743 0.04990353 -0.27453795 0.20859052 0.004031782 -0.16426764 -0.11396129 -0.058847666 -0.12382779 -0.077387966 0.0048741032 -0.17771876 0.05793312 -0.053048123 -0.06713907 0.07165174 -0.050472666 -0.30003333 0.093731195 0.16299811 0.11394903 -0.18630761 0.3284793 0.06684355 -0.19034494 0.21151392 -0.044627625 -0.08234783 0.10361591 0.0878626 -0.021048868 -0.16779496 -0.28065738 -0.20834717 0.35670984 0.115695775 -0.018373845 0.079591095 -0.20855744 -0.13753235 0.30944777 0.005677193 0.3194319 0.45655274 -0.065119304 -0.15768935 0.050189015
9 0.112328365 -0.28439185 -0.28633994 0.23367663 -0.055592604 -0.004280579 0.17454302 -0.030158829 -0.2585506 0.03638187 -0.15372677 -0.051837202 -0.12191796 -0.16730238 0.11638147 -0.23505838 0.031580716 -0.22971736 0.053038877 -0.28202498 0.20341642 -0.0118593965 -0.15901078 -0.106677085 -0.0562732 -0.12756252 -0.07916269 -0.010639132 -0.17395248 0.05895163 -0.047837023 -0.07310153 0.08494014 -0.049312387 -0.30434585 0.09736456 0.1798798 0.11741122 -0.18456797 0.335174 0.06392151 -0.18012491 0.207686 -0.050334647 -0.0850728 0.10981137 0.08707693 -0.024063256 -0.17064999 -0.2956159 -0.21470062 0.34978178 0.12080298 -0.033773985 0.07685508 -0.2081705 -0.13791005 0.3162331 0.012735081 0.3217611 0.4586053 -0.06713617 -0.1639382 0.05136842
44 0.11107898 -0.2668094 -0.27939317 0.22650367 -0.05273316 0.0008673758 0.15831879 -0.031327855 -0.26611176 0.028418677 -0.15264842 -0.05056196 -0.12580761 -0.16812979 0.12517315 -0.2420008 0.031133203 -0.23634617 0.059733868 -0.2803214 0.20113109 0.0007606788 -0.16142279 -0.11186858 -0.049453594 -0.13776231 -0.089755766 -0.0019562743 -0.17893931 0.052374408 -0.039513078 -0.07094393 0.06910885 -0.04566313 -0.30601636 0.099609025 0.17581196 0.12539373 -0.17896754 0.33228818 0.06853261 -0.18025519 0.21459344 -0.05240887 -0.07337654 0.11472471 0.087838136 -0.035323225 -0.17097747 -0.28762922 -0.20114544 0.36182538 0.103101574 -0.02989823 0.08395527 -0.20872438 -0.13189812 0.31468877 -4.8632224e-05 0.31869116 0.4548983 -0.07242322 -0.17286073 0.05686439
4 0.11019079 -0.27820712 -0.2993105 0.2271969 -0.06107791 -0.0015430509 0.1708868 -0.033032317 -0.2649083 0.03780738 -0.15629397 -0.06477264 -0.12183698 -0.16965814 0.123492986 -0.23748478 0.0329895 -0.235384 0.05192943 -0.28195912 0.20777464 -0.013245692 -0.16103925 -0.115174025 -0.06421013 -0.1317189 -0.08106094 -0.007392462 -0.15749778 0.054461084 -0.053653322 -0.07994567 0.06914895 -0.044430614 -0.30076188 0.08955569 0.17176475 0.1162441 -0.18727274 0.34721425 0.07390485 -0.190698 0.21224388 -0.053889826 -0.07722481 0.10716689 0.08485945 -0.03198081 -0.15386878 -0.28638813 -0.20162772 0.3506653 0.12580566 -0.023419673 0.07377744 -0.19701523 -0.1463864 0.3182968 0.001870961 0.30944794 0.4565451 -0.06604622 -0.16969451 0.0601648
59 0.106843814 -0.29126784 -0.30738753 0.2390054 -0.062890515 -0.0072388574 0.18124296 -0.030800056 -0.25803265 0.032842297 -0.15841709 -0.054424036 -0.12248111 -0.15101638 0.10921669 -0.24614157 0.038243745 -0.2272118 0.056302786 -0.28625134 0.20850848 -0.0060334834 -0.16098666 -0.104616605 -0.05609633 -0.12403787 -0.08511164 -0.0047240425 -0.16362192 0.043898452 -0.04206995 -0.070519954 0.08414614 -0.060309727 -0.30568814 0.082773216 0.1795284 0.123544276 -0.17472282 0.3289913 0.056488793 -0.19031419 0.19593185 -0.044859204 -0.0814508 0.11903899 0.08900023 -0.036107104 -0.16398065 -0.28749457 -0.21123937 0.35659274 0.11095417 -0.02784152 0.07461654 -0.19801119 -0.1330449 0.31198028 -0.0023891635 0.31092533 0.45245954 -0.06713987 -0.15692697 0.048654933
26 0.11415846 -0.2781597 -0.29639682 0.23330289 -0.059603836 -0.0020207365 0.16319962 -0.030910512 -0.26178744 0.028454632 -0.14906794 -0.054544203 -0.11417265 -0.16923714 0.11506007 -0.2311999 0.030842165 -0.22806476 0.050683234 -0.28730008 0.2092346 -0.011994338 -0.14957266 -0.1114098 -0.05654562 -0.13491265 -0.08156192 0.0042968057 -0.17606467 0.050074138 -0.038802832 -0.06801199 0.07638628 -0.0461843 -0.29542413 0.09602104 0.17574607 0.124073565 -0.17726263 0.3328453 0.07494308 -0.19233519 0.19707231 -0.055683997 -0.07333186 0.11106763 0.09072988 -0.028452726 -0.16564068 -0.28713673 -0.19888625 0.34951457 0.10716112 -0.023734642 0.07856582 -0.21385975 -0.139104 0.31576395 0.0009779006 0.31043282 0.45492336 -0.06642962 -0.16386348 0.05161294
21 0.11872529 -0.2803826 -0.2893689 0.23295 -0.05176749 -0.008692488 0.16456291 -0.02939637 -0.27031595 0.027419673 -0.16610554 -0.051027186 -0.11805797 -0.15643531 0.12245768 -0.24034323 0.02382328 -0.23915513 0.059070818 -0.28587905 0.21397698 -0.014182381 -0.15157408 -0.105727844 -0.05361272 -0.13387845 -0.0855785 -0.0069179535 -0.1614113 0.06091378 -0.048427247 -0.07366167 0.085137 -0.0472331 -0.30562288 0.08461242 0.18232279 0.11650448 -0.17756611 0.33576834 0.070377246 -0.17778578 0.20884418 -0.049266823 -0.072764926 0.11630055 0.09007254 -0.03334083 -0.1561013 -0.29583323 -0.20771155 0.36187643 0.114049435 -0.018630117 0.081738465 -0.20530725 -0.13009742 0.3045813 0.0043976484 0.31413737 0.44827512 -0.075041614 -0.17118096 0.057655975
17 0.10939068 -0.2848003 -0.29883128 0.23434411 -0.057714757 -0.0043256884 0.17021023 -0.045258284 -0.26830965 0.028390706 -0.15374961 -0.051636327 -0.1212043 -0.15014248 0.1197278 -0.24237889 0.030194078 -0.2350825 0.058513865 -0.27280992 0.2091168 -0.008863975 -0.15372959 -0.10985756 -0.0613144 -0.12772615 -0.082736805 -0.00076325214 -0.16938803 0.04801208 -0.049419418 -0.07271531 0.0786959 -0.05215176 -0.30302173 0.09354726 0.17311509 0.11542072 -0.18688433 0.3226048 0.06823236 -0.17764875 0.20248157 -0.040869113 -0.06769019 0.12127003 0.09060579 -0.030339813 -0.15896778 -0.2874434 -0.19809596 0.35658926 0.11212864 -0.020767381 0.07600798 -0.20001313 -0.1368079 0.31856406 0.00046022475 0.30761427 0.4533532 -0.057942156 -0.16065523 0.05660654
66 0.11529042 -0.2795857 -0.28324446 0.21473363 -0.046391796 0.0010347497 0.15792067 -0.04075682 -0.26667827 0.032834094 -0.15603094 -0.06374669 -0.11287266 -0.16131537 0.11096147 -0.24019413 0.04071037 -0.23298748 0.046976887 -0.27513734 0.19929336 -0.007920946 -0.15014014 -0.10904842 -0.05263306 -0.13763735 -0.08318126 -0.0038712209 -0.16574667 0.062126108 -0.052757382 -0.06504568 0.07629153 -0.057002667 -0.29800227 0.09223991 0.16810653 0.11887872 -0.173405 0.3428499 0.06581063 -0.18181707 0.20822628 -0.04576451 -0.071347676 0.11150931 0.095838465 -0.023061106 -0.16536908 -0.2890131 -0.21125504 0.3534442 0.11330142 -0.033328842 0.08201855 -0.2103527 -0.14511305 0.31343213 0.0057144626 0.31152615 0.45449695 -0.077131435 -0.16525744 0.050568666
38 0.112908944 -0.27743587 -0.29223922 0.21931008 -0.04997462 0.0033168057 0.15878472 -0.033812344 -0.2682441 0.039166357 -0.16145174 -0.050539024 -0.11832891 -0.17188998 0.11249825 -0.2357807 0.037356682 -0.23910889 0.06577301 -0.28545135 0.21085195 -0.009266038 -0.15637119 -0.107795656 -0.053479593 -0.13907789 -0.07197669 0.006926932 -0.16875459 0.057896182 -0.050186947 -0.065660246 0.07112041 -0.057905417 -0.30450925 0.09351977 0.16529039 0.12274866 -0.18577588 0.33638945 0.071027726 -0.1908703 0.20878448 -0.04515054 -0.084980555 0.10974047 0.08488092 -0.032180697 -0.16473006 -0.29283985 -0.20746502 0.35594535 0.12498298 -0.024145762 0.07955133 -0.19900364 -0.14403303 0.30833206 0.010804676 0.32063836 0.45306477 -0.06999877 -0.16643472 0.047906954
12 0.11440804 -0.27498513 -0.29239565 0.22560379 -0.042665962 0.0039750463 0.15823138 -0.039464116 -0.2692524 0.022414353 -0.15593766 -0.050723247 -0.1248787 -0.16703995 0.12251584 -0.2417244 0.03368691 -0.23445883 0.05412563 -0.2771824 0.21205254 -0.013472668 -0.14905456 -0.114056274 -0.052510925 -0.13121687 -0.08465431 0.0015113702 -0.16956457 0.052720115 -0.043564737 -0.07653077 0.08031345 -0.060052462 -0.3045383 0.09148171 0.17518128 0.118542194 -0.17806982 0.33566856 0.07163702 -0.18164589 0.19927147 -0.051791288 -0.07598915 0.10442612 0.0855908 -0.028599942 -0.16303346 -0.2930212 -0.2160327 0.3634199 0.11091515 -0.030066205 0.08273849 -0.21005781 -0.14236525 0.31525922 -0.0010253739 0.32165313 0.45593858 -0.061551657 -0.16470642 0.058728147
47 0.106691 -0.28208172 -0.29368627 0.22570084 -0.057553627 -0.0073785316 0.16887932 -0.031090632 -0.26593703 0.031860005 -0.16105713 -0.049062613 -0.122953445 -0.16357349 0.11979896 -0.24477994 0.02699397 -0.2308811 0.061694995 -0.2796797 0.21825792 -0.011892887 -0.15741555 -0.10579287 -0.050256975 -0.12724349 -0.072862744 -0.0061998144 -0.1687615 0.054241855 -0.044934284 -0.069298014 0.079299286 -0.047946405 -0.30153978 0.087527566 0.17987217 0.11440353 -0.1866623 0.34111747 0.06142914 -0.18073002 0.20485523 -0.05088375 -0.082812876 0.11468681 0.08921321 -0.033801794 -0.16688272 -0.28576016 -0.21536747 0.3545761 0.11613004 -0.031506773 0.08176704 -0.20975658 -0.14279817 0.30396655 0.0010333817 0.31863722 0.4527883 -0.07817702 -0.1601852 0.06450406
92 0.10497096 -0.27946526 -0.29008505 0.22241865 -0.05105468 -0.0003967405 0.16613306 -0.040686265 -0.25789246 0.025480166 -0.15988727 -0.061739516 -0.12821661 -0.15929858 0.12012401 -0.24927685 0.04047231 -0.23706475 0.05856299 -0.27394816 0.20307711 0.0007174373 -0.15407361 -0.11288716 -0.055957865 -0.14200646 -0.07546125 -0.004987632 -0.16976658 0.06370195 -0.05049896 -0.06639842 0.08208557 -0.05487822 -0.31295264 0.099858135 0.16883908 0.122850135 -0.1794289 0.33946073 0.0748035 -0.18335183 0.21169075 -0.051298708 -0.08563917 0.11765244 0.086127624 -0.02825535 -0.16553137 -0.29607156 -0.21099435 0.3616507 0.10902325 -0.017689174 0.08201562 -0.2004331 -0.14080375 0.3115891 -0.007227216 0.3044765 0.44605455 -0.06818138 -0.17396794 0.051329613
80 0.112274215 -0.27457452 -0.29773086 0.22061768 -0.043025497 -0.005946883 0.16792683 -0.03820535 -0.27090013 0.031180438 -0.15168728 -0.056910325 -0.12384236 -0.16555555 0.11315693 -0.24907888 0.027305001 -0.23097026 0.059722323 -0.28327933 0.21083836 -0.010726404 -0.15837298 -0.12182038 -0.05424803 -0.13612302 -0.07809437 -0.00766377 -0.16922459 0.04909758 -0.040014297 -0.06383036 0.07637306 -0.048651103 -0.3043793 0.0827542 0.17127796 0.12100638 -0.190113 0.33635372 0.0709713 -0.18734244 0.2150281 -0.056324646 -0.08858377 0.112706244 0.09362252 -0.04165478 -0.16356333 -0.28087735 -0.21442612 0.36318538 0.124271326 -0.016053054 0.07627843 -0.21044998 -0.13561581 0.29782754 -0.0030407733 0.31708494 0.4500631 -0.07456454 -0.17310637 0.061125044
79 0.12147158 -0.27698648 -0.29405862 0.22842658 -0.047137327 -0.011573604 0.1650675 -0.030369984 -0.2670054 0.028993705 -0.14785577 -0.048383784 -0.12189334 -0.16611998 0.11599305 -0.24107105 0.032865554 -0.2260132 0.051194582 -0.2838852 0.20964958 -0.010757307 -0.1503068 -0.11455262 -0.059082944 -0.12419719 -0.08376948 -0.010918507 -0.1807946 0.059399463 -0.044595055 -0.073574625 0.07970495 -0.055530567 -0.3102205 0.10134108 0.17453028 0.112381905 -0.17508583 0.3282862 0.07569155 -0.18137714 0.20568632 -0.04528554 -0.07573924 0.106034994 0.083431974 -0.035532407 -0.17349271 -0.29272097 -0.2025942 0.35141373 0.11974453 -0.027005475 0.07514497 -0.21345064 -0.14179015 0.32228753 -0.0013349311 0.31194144 0.46405825 -0.079259634 -0.16810651 0.05533771
60 0.106178954 -0.2684275 -0.27413598 0.22671863 -0.042628728 -0.00513879 0.15578127 -0.030890014 -0.26317936 0.037781183 -0.15569243 -0.06316743 -0.12185529 -0.166947 0.11387087 -0.24509116 0.02599884 -0.23080201 0.05823208 -0.27912644 0.21314253 -0.012742887 -0.15474047 -0.12143108 -0.05259256 -0.13961329 -0.08163266 -0.0004686981 -0.16786414 0.059845254 -0.04032907 -0.068028435 0.07089939 -0.04840776 -0.29379514 0.089853324 0.1706244 0.11899101 -0.18748768 0.33920318 0.070043944 -0.18426007 0.21614346 -0.050698295 -0.08121643 0.10367933 0.08660636 -0.033964127 -0.1717284 -0.2953258 -0.20617099 0.35648844 0.108648576 -0.026652556 0.07796425 -0.21289372 -0.13926707 0.30642524 0.00087259256 0.30787876 0.45290363 -0.07640753 -0.16877708 0.058609392
19 0.10662176 -0.27580842 -0.29162464 0.22919077 -0.04977427 0.0028690416 0.16794623 -0.033946604 -0.26124713 0.031716682 -0.15788928 -0.055889696 -0.11304172 -0.1592476 0.119223654 -0.23773782 0.024487888 -0.23435208 0.057476398 -0.288516 0.20381182 -0.010831652 -0.15990715 -0.10480307 -0.059314862 -0.12612468 -0.08932802 -0.0051022316 -0.16455196 0.04765459 -0.0537226 -0.07402454 0.08758172 -0.05962868 -0.30085814 0.09859442 0.17694663 0.12403795 -0.1766038 0.3240019 0.06370793 -0.18157424 0.20311953 -0.05295637 -0.087867044 0.11264224 0.0860257 -0.02595602 -0.16223222 -0.28354833 -0.2121759 0.36853305 0.12384628 -0.022234876 0.07620996 -0.20566957 -0.13865724 0.30920556 0.0075575565 0.30851185 0.46053836 -0.06919366 -0.17041472 0.06189743
75 0.1147013 -0.27282682 -0.29262495 0.23111437 -0.06307738 -0.0056282096 0.15833181 -0.032626197 -0.2586183 0.032718174 -0.16637702 -0.047337715 -0.11483193 -0.16985373 0.117640354 -0.23454133 0.038679745 -0.24058987 0.052217323 -0.27591765 0.20219828 -0.0004522288 -0.15562011 -0.12475902 -0.05842685 -0.1259396 -0.07635359 -0.0042256988 -0.16645291 0.06027298 -0.058159884 -0.07444408 0.066232696 -0.04877466 -0.3095574 0.08151725 0.18256548 0.11699361 -0.19353972 0.33644655 0.06935884 -0.185833 0.20458356 -0.04874116 -0.07263027 0.11104541 0.089275874 -0.03241557 -0.16904698 -0.28841656 -0.20244636 0.3529633 0.12751487 -0.02637733 0.08068842 -0.21242802 -0.14341237 0.31684306 0.009591969 0.32227367 0.46024212 -0.06465963 -0.15828839 0.0530182
72 0.11905473 -0.28561428 -0.2916805 0.22389157 -0.05591571 -0.010414203 0.17012966 -0.034269992 -0.2557768 0.028015895 -0.15774219 -0.056171622 -0.11847912 -0.1653062 0.11090952 -0.25280282 0.026646595 -0.23836443 0.06738382 -0.2852089 0.20877157 -0.0036718708 -0.15753356 -0.11892227 -0.06316395 -0.13208671 -0.0787279 0.00023511356 -0.17554195 0.054105133 -0.05107914 -0.06478753 0.0818199 -0.04495285 -0.3059239 0.08658088 0.1863281 0.11806947 -0.18245016 0.33309847 0.07822458 -0.18005233 0.20589916 -0.04692688 -0.07826934 0.114836246 0.087286375 -0.037095904 -0.17381722 -0.29784903 -0.21284111 0.36363757 0.12469491 -0.02299886 0.07344284 -0.20261358 -0.13988434 0.32261616 0.011782349 0.3196531 0.46568978 -0.07220346 -0.1596927 0.0551315
67 0.10110289 -0.26413038 -0.29250544 0.21248578 -0.048152167 -0.014524904 0.16239287 -0.036969967 -0.2632916 0.032375336 -0.16429202 -0.046438385 -0.12440903 -0.16430794 0.12568046 -0.236767 0.036835037 -0.23900384 0.05985165 -0.28142676 0.20806591 -0.00024115379 -0.1532932 -0.11997608 -0.05212038 -0.13332923 -0.07646403 -0.0023616499 -0.16820307 0.06223662 -0.04919109 -0.067196496 0.07961415 -0.061262432 -0.309384 0.09361335 0.16926277 0.12281951 -0.18891883 0.334428 0.070259035 -0.18276305 0.2115032 -0.05622631 -0.08343186 0.10952993 0.10057934 -0.035053898 -0.17238066 -0.28776214 -0.21395168 0.36222374 0.11068752 -0.020393306 0.0747679 -0.20324256 -0.13350134 0.3009282 0.0002694955 0.31766304 0.44941527 -0.06214333 -0.16351612 0.05363684
62 0.10919896 -0.27992052 -0.2869191 0.22954567 -0.06515542 0.0016669321 0.16865428 -0.025486255 -0.2729658 0.029535066 -0.16134271 -0.054157484 -0.11570422 -0.17312846 0.11389131 -0.23885004 0.028544936 -0.23292503 0.055378415 -0.28959605 0.2163243 -0.0037170283 -0.1511735 -0.119950645 -0.05690575 -0.12854044 -0.07683948 -0.009528652 -0.16836554 0.05543309 -0.051669702 -0.072693996 0.07990254 -0.0582576 -0.29953507 0.08648545 0.17167231 0.11087255 -0.17836925 0.33609012 0.077405326 -0.19096194 0.20477465 -0.03735661 -0.07728267 0.102931544 0.09558425 -0.024588851 -0.17163788 -0.28208432 -0.19592482 0.34542102 0.11904552 -0.02911102 0.08572596 -0.20269953 -0.1444571 0.31593233 0.0042116055 0.31913525 0.46021122 -0.076086566 -0.17026202 0.05905854
61 0.11224613 -0.2765074 -0.28291264 0.23332715 -0.045199446 -0.0010545639 0.16145599 -0.04439002 -0.27042112 0.039353166 -0.16310562 -0.061297465 -0.11873556 -0.1658422 0.12211861 -0.249509 0.03670883 -0.2387794 0.059842058 -0.27850267 0.21149006 -0.0054906304 -0.14699084 -0.120872535 -0.062620535 -0.13747281 -0.07841816 0.0015140147 -0.16316031 0.062048018 -0.0543653 -0.0744832 0.06803156 -0.056956906 -0.29317933 0.09669682 0.1804488 0.11313335 -0.18263426 0.33822873 0.06604805 -0.18990289 0.20007259 -0.049843684 -0.06531478 0.12048173 0.09468864 -0.027604995 -0.15722588 -0.2905896 -0.20472635 0.35538214 0.11249275 -0.022056079 0.08054102 -0.20422255 -0.14297688 0.3191979 0.013924896 0.31732753 0.44963306 -0.06628634 -0.15607898 0.06140807
81 0.11857357 -0.2721248 -0.29573545 0.2319857 -0.054073714 -0.010567669 0.16074699 -0.027351107 -0.2624289 0.033695288 -0.15152518 -0.059782095 -0.12307724 -0.16569474 0.11359135 -0.24381796 0.033810943 -0.23294996 0.057136897 -0.27605382 0.20364904 -0.005030593 -0.15858799 -0.108728185 -0.05348949 -0.13777156 -0.07667905 -0.009282259 -0.17712794 0.055732425 -0.04405924 -0.059469853 0.084956415 -0.03956658 -0.30356708 0.10012498 0.1808467 0.11619578 -0.17580256 0.33059835 0.05925322 -0.18761471 0.20410137 -0.04487562 -0.08001358 0.11626119 0.09217861 -0.023459923 -0.16558118 -0.29290238 -0.204005 0.35285595 0.118294716 -0.023013888 0.08280734 -0.20243594 -0.13083287 0.31667283 0.008278625 0.3181091 0.4498265 -0.06965997 -0.16653322 0.060988523
34 0.1097181 -0.26837844 -0.28401732 0.22213632 -0.0632284 -0.012414201 0.15717006 -0.024162285 -0.2648154 0.02998897 -0.16002356 -0.061916012 -0.12722252 -0.17094813 0.1235999 -0.24455222 0.032143984 -0.22767346 0.06020924 -0.2805723 0.20999454 -0.008597882 -0.15190394 -0.10878529 -0.05044319 -0.1330001 -0.070342496 -0.008878472 -0.17334232 0.04995671 -0.03911775 -0.07036768 0.07713061 -0.04381544 -0.3041879 0.08781541 0.17504412 0.12512656 -0.17940058 0.338837 0.07868597 -0.18433388 0.20855875 -0.042977944 -0.07885766 0.119118035 0.0965344 -0.03104949 -0.15817969 -0.286168 -0.19836606 0.35690004 0.12019465 -0.028413422 0.07513296 -0.2020114 -0.13024537 0.31228286 0.013083348 0.32105392 0.4578043 -0.06679132 -0.16372177 0.05751613
51 0.11408377 -0.27267477 -0.29591456 0.2334 -0.043476198 -0.011690185 0.15607813 -0.033003055 -0.2671176 0.035804026 -0.15010604 -0.05506822 -0.119773224 -0.15345052 0.12073785 -0.24451745 0.036436535 -0.23508316 0.060618754 -0.28030676 0.19978778 -0.0038179352 -0.16284738 -0.117007606 -0.04809198 -0.12916476 -0.08351864 -0.0027685836 -0.1726379 0.051634718 -0.053477664 -0.076473676 0.07531 -0.057583455 -0.30507183 0.09889444 0.16528969 0.12779823 -0.17663284 0.32369238 0.06859698 -0.17939733 0.19793631 -0.041927196 -0.08820782 0.11502443 0.09674916 -0.03757672 -0.17135802 -0.291365 -0.20588692 0.3591713 0.10868888 -0.023584558 0.08131473 -0.2035124 -0.13086925 0.30947298 0.0019022406 0.30447495 0.44755608 -0.06772322 -0.17312957 0.053991243
22 0.11535901 -0.28274128 -0.28767914 0.22754759 -0.044289123 -0.00016384039 0.16469851 -0.031432807 -0.2667935 0.03625275 -0.15409918 -0.062686875 -0.11506163 -0.15841019 0.121819615 -0.24093817 0.030167071 -0.23370796 0.057484917 -0.28956082 0.20317933 -0.0059155175 -0.15565316 -0.10909157 -0.050304364 -0.13255621 -0.07351805 0.002274698 -0.17598224 0.054371145 -0.04595261 -0.072555214 0.08023358 -0.054945465 -0.30633688 0.09468408 0.17027539 0.11408181 -0.1835735 0.33673927 0.0652441 -0.18621092 0.20869233 -0.05485001 -0.072508715 0.11268914 0.09074663 -0.029759472 -0.16359225 -0.29463223 -0.20203948 0.35675442 0.10557185 -0.014892614 0.07786166 -0.19321978 -0.13438348 0.31141803 0.007570366 0.31144446 0.44383895 -0.07153084 -0.15885502 0.04878613
84 0.10592682 -0.282248 -0.29551134 0.23201756 -0.054592215 -0.0054787034 0.17288572 -0.038480327 -0.26546344 0.038011014 -0.15109533 -0.046804246 -0.11042045 -0.15301989 0.11845699 -0.24998215 0.03643394 -0.23616949 0.05978614 -0.28288546 0.20247705 -0.0042983266 -0.15100026 -0.11931132 -0.06101647 -0.12808244 -0.086006984 0.005201589 -0.1672995 0.048603468 -0.046701513 -0.07823315 0.08033799 -0.059530683 -0.31471273 0.08524888 0.16870369 0.118281215 -0.19233328 0.33455124 0.058106434 -0.19409515 0.19732605 -0.053285446 -0.08175288 0.11969462 0.088776864 -0.02478326 -0.16220218 -0.28703615 -0.21095516 0.3511545 0.11679081 -0.028672904 0.084731035 -0.19842312 -0.12992953 0.32027924 0.003475766 0.3085727 0.46335307 -0.06298441 -0.15966891 0.05745632
25 0.09937174 -0.27891877 -0.28820843 0.22980033 -0.057797767 5.1089322e-05 0.16183592 -0.042746767 -0.27549896 0.027204175 -0.14553127 -0.06038813 -0.11571678 -0.17590733 0.12315899 -0.23672752 0.04098118 -0.23277922 0.06419934 -0.27146077 0.21591374 -0.006605088 -0.16614382 -0.11881807 -0.053943045 -0.12750451 -0.07319734 -0.009696399 -0.1649395 0.050815005 -0.04934842 -0.06634999 0.072902255 -0.048666064 -0.3000696 0.09493253 0.17364001 0.120419234 -0.19239348 0.33828586 0.079147935 -0.18769214 0.2033804 -0.049382903 -0.08587931 0.113160476 0.094639145 -0.02912266 -0.15479812 -0.2815828 -0.2030409 0.35283756 0.114836425 -0.026308334 0.08894675 -0.20576678 -0.13523774 0.3021628 0.00091350556 0.31340092 0.44269246 -0.07609079 -0.17650436 0.0636415
76 0.105911516 -0.282365 -0.29435453 0.22989665 -0.04364595 0.0003447623 0.16239056 -0.044375617 -0.25889245 0.03778664 -0.15760468 -0.05152742 -0.11858545 -0.15074046 0.122623265 -0.25163287 0.0415699 -0.24221545 0.056097597 -0.28333881 0.20563012 -0.0064055095 -0.15315916 -0.10453616 -0.052532773 -0.1336971 -0.07999127 0.009056914 -0.16923995 0.0658873 -0.04588037 -0.08032024 0.07361456 -0.04675841 -0.29742628 0.10049214 0.16491385 0.11093403 -0.1869901 0.34055975 0.06471853 -0.18700221 0.19784027 -0.05170687 -0.079816125 0.10537667 0.0931552 -0.029257953 -0.16849434 -0.2872799 -0.19752865 0.3647708 0.12167098 -0.021565536 0.084362954 -0.20427224 -0.12902072 0.3074445 0.0033829699 0.31208104 0.45402956 -0.07121109 -0.162641 0.055931296
1 0.1054472 -0.2810195 -0.30097282 0.23904458 -0.05833011 -0.009846954 0.17310253 -0.033388678 -0.26078856 0.02929876 -0.15975381 -0.051340595 -0.12377551 -0.15432318 0.11613509 -0.22664647 0.03828418 -0.23704174 0.0611105 -0.28345016 0.19894631 -0.0016665759 -0.15716948 -0.107881874 -0.061093174 -0.14128771 -0.081793755 0.0045581874 -0.16050419 0.062801845 -0.040170066 -0.07585723 0.07884766 -0.05484348 -0.29914218 0.0925343 0.17112012 0.11307251 -0.1790358 0.33100933 0.06926848 -0.18625109 0.19104902 -0.05059035 -0.08379387 0.10448787 0.08739924 -0.034077834 -0.15848583 -0.29016984 -0.20895451 0.34611315 0.11819822 -0.027692785 0.079894654 -0.18726596 -0.12664765 0.31051588 0.0069539137 0.31419703 0.4403915 -0.07244858 -0.16894548 0.057059962
99 0.11248913 -0.28149113 -0.3036737 0.23244023 -0.05451541 -0.00086279225 0.17470764 -0.039646532 -0.25993288 0.020763077 -0.15720934 -0.050670397 -0.114736766 -0.15695746 0.11301019 -0.22566737 0.020117978 -0.23526978 0.048368093 -0.2816502 0.2025162 -0.00983523 -0.15473607 -0.10486523 -0.058686584 -0.12904416 -0.07129464 -0.008273176 -0.17141914 0.06285864 -0.043681055 -0.071483 0.08462538 -0.056553185 -0.30597267 0.0924414 0.17642564 0.11438354 -0.17801976 0.32025322 0.06774204 -0.17717293 0.19709909 -0.046682816 -0.07401593 0.10204655 0.0949346 -0.026460921 -0.16895539 -0.28266028 -0.20981663 0.35834602 0.11688194 -0.021253461 0.07881257 -0.20556916 -0.12501751 0.3057278 0.00870377 0.31057307 0.45428124 -0.07877797 -0.16348687 0.05680809
96 0.11050266 -0.29004514 -0.29596955 0.21984155 -0.046193477 -0.0041217552 0.16730383 -0.03758712 -0.26240623 0.03336188 -0.14685528 -0.0544743 -0.11434839 -0.16123006 0.12512006 -0.24714956 0.03290775 -0.23500769 0.0565504 -0.28459346 0.2148231 -0.0058826697 -0.15277024 -0.11467943 -0.046857588 -0.12640488 -0.07423444 -0.008192035 -0.17601477 0.05273182 -0.041397642 -0.07503756 0.071870044 -0.052973703 -0.31119564 0.09560174 0.1756116 0.12609255 -0.1749605 0.32663012 0.060491305 -0.1909853 0.20808782 -0.046943814 -0.0872369 0.11756211 0.086380854 -0.026427837 -0.16316663 -0.29814932 -0.2034294 0.3579382 0.110193215 -0.024681775 0.070315324 -0.21296509 -0.13631932 0.30009994 0.0146244755 0.32108322 0.45885456 -0.06145295 -0.157063 0.056540087
65 0.115583494 -0.281436 -0.29909813 0.23021309 -0.058894053 0.0065667885 0.1712706 -0.04599364 -0.2603127 0.026904864 -0.15216036 -0.04670972 -0.1185434 -0.16791531 0.12513827 -0.24238333 0.027224984 -0.23536849 0.05154062 -0.28094694 0.19873919 0.0021919606 -0.16762587 -0.118636005 -0.055861104 -0.13655774 -0.076996975 -0.011417963 -0.1759874 0.052343056 -0.047818653 -0.063382305 0.080674045 -0.062976226 -0.30311346 0.084136814 0.16634715 0.12053532 -0.17720012 0.3352462 0.082447946 -0.18938385 0.2056468 -0.049315464 -0.08222726 0.11060936 0.092875004 -0.035707302 -0.16901746 -0.2920539 -0.21131516 0.36502454 0.11851382 -0.018330945 0.07836371 -0.21087073 -0.140133 0.32134354 -0.0033372983 0.3185384 0.4606337 -0.07846605 -0.17517652 0.051827468
32 0.1136046 -0.287815 -0.29414567 0.23224932 -0.05814754 0.0020360858 0.16814676 -0.042153787 -0.25044927 0.036696084 -0.16614805 -0.046618853 -0.11558329 -0.1539808 0.12474641 -0.23868328 0.036085427 -0.22866005 0.05157935 -0.28509825 0.20409511 -0.004146942 -0.15247183 -0.117463715 -0.048622712 -0.13216545 -0.07898906 -0.007853381 -0.1778935 0.06329453 -0.054672487 -0.072905615 0.0779831 -0.0588756 -0.31282642 0.0871146 0.16874254 0.12275703 -0.18320483 0.33429563 0.07155851 -0.19646384 0.20651999 -0.040243145 -0.07889071 0.10687531 0.09932884 -0.03456549 -0.16514772 -0.29682082 -0.20612557 0.3610013 0.12538418 -0.020949764 0.07363503 -0.21126007 -0.12998043 0.31490842 0.012832971 0.3115143 0.459289 -0.07006988 -0.15452422 0.046218317
91 0.120662265 -0.27429688 -0.29818276 0.22677317 -0.057807405 0.0010141219 0.17066547 -0.030427989 -0.2626267 0.029456967 -0.16058326 -0.059117723 -0.10976413 -0.16336434 0.12036578 -0.24223523 0.02446219 -0.23643212 0.050852362 -0.27649015 0.20316751 -0.013961689 -0.14999638 -0.121397234 -0.063338995 -0.13743839 -0.07616552 -0.008820666 -0.17360327 0.04969271 -0.044558484 -0.07368956 0.072800666 -0.046617463 -0.2952261 0.08545723 0.17012486 0.10833068 -0.18612716 0.3400452 0.0640761 -0.18263744 0.21370843 -0.041619323 -0.080555595 0.10632585 0.08459645 -0.036708694 -0.16251922 -0.28807327 -0.21329555 0.35629305 0.11084068 -0.02150978 0.07948176 -0.19820601 -0.12754291 0.3171239 0.0031221583 0.3110734 0.4581877 -0.06146652 -0.17271191 0.058211617
82 0.11774403 -0.26761448 -0.29695886 0.23334731 -0.04885504 -0.007844558 0.1558255 -0.03936381 -0.2619923 0.033665325 -0.15177213 -0.05797568 -0.11845014 -0.17500146 0.1228925 -0.2446574 0.034941874 -0.23115182 0.06282281 -0.27990854 0.20240952 -0.0008607739 -0.16713546 -0.11474131 -0.06384791 -0.13330433 -0.08820714 -0.014363345 -0.17941396 0.058810167 -0.051466063 -0.073301144 0.07476678 -0.044475663 -0.30335322 0.09439022 0.17898205 0.12006522 -0.18470469 0.34421805 0.07730635 -0.19528215 0.20444429 -0.047756862 -0.07978923 0.113364555 0.08413607 -0.029378697 -0.16553485 -0.28584 -0.19853252 0.35050684 0.12180123 -0.01958942 0.07604564 -0.19905815 -0.13492638 0.31840333 -0.0013410463 0.32024318 0.4592836 -0.063346215 -0.17269978 0.053840775
73 0.11094442 -0.2725229 -0.29507875 0.22787909 -0.042147055 -0.0061464184 0.16321734 -0.03257751 -0.2739996 0.023736492 -0.16035149 -0.059252862 -0.12281864 -0.17175801 0.11398016 -0.24891722 0.03498627 -0.24069498 0.05385457 -0.2836091 0.20214592 0.00019624486 -0.15440334 -0.11345814 -0.05512763 -0.13280997 -0.08258788 -0.0035939722 -0.17011665 0.06356993 -0.042510014 -0.07716563 0.0728488 -0.04875684 -0.30961755 0.088796444 0.17828083 0.11499731 -0.17825402 0.3296627 0.07282662 -0.18092991 0.21394241 -0.038230807 -0.08430062 0.1170862 0.08677671 -0.02517458 -0.15750968 -0.28874457 -0.20472977 0.35644057 0.12374444 -0.025561696 0.0718032 -0.20871563 -0.14465672 0.30829966 0.0044160867 0.30807135 0.4579013 -0.064599074 -0.1683202 0.053819776
33 0.11374875 -0.2852945 -0.29461086 0.23573895 -0.05134822 0.003436908 0.1746228 -0.028461542 -0.27070305 0.032028295 -0.15457684 -0.06361983 -0.12112536 -0.16479492 0.109474026 -0.23812306 0.02749569 -0.2377783 0.05352389 -0.27667597 0.20904808 -0.0004019386 -0.16399194 -0.102260076 -0.064383075 -0.12940633 -0.0734942 -0.0011220049 -0.16897528 0.052278534 -0.046471734 -0.074826054 0.08027604 -0.049654495 -0.30385032 0.093177244 0.17504568 0.117114685 -0.17997931 0.3388071 0.07412284 -0.19000085 0.2063536 -0.041979358 -0.077144146 0.12253573 0.08058843 -0.03158855 -0.16311306 -0.29343855 -0.20186429 0.35037085 0.11093568 -0.021674577 0.073927365 -0.19685741 -0.13827088 0.3042276 -0.002634666 0.31292725 0.45092282 -0.073553406 -0.17267248 0.05514128
15 0.110309094 -0.2767277 -0.28650686 0.2295161 -0.047975782 0.00092169037 0.16598028 -0.032887258 -0.25550553 0.028132763 -0.15432204 -0.047537383 -0.12595771 -0.16558953 0.117081314 -0.23209636 0.03471075 -0.23274961 0.062024478 -0.28502876 0.20562468 -0.008692422 -0.16285515 -0.111498035 -0.06266708 -0.13724475 -0.07142299 -0.0013944149 -0.17396335 0.049680512 -0.037538327 -0.06330364 0.08515203 -0.049139805 -0.29766887 0.09344409 0.1754381 0.11863296 -0.17803887 0.32596096 0.07291269 -0.17987621 0.19561039 -0.046579413 -0.08542753 0.106777 0.098442025 -0.022569891 -0.17309594 -0.29501936 -0.19857332 0.35787666 0.106208056 -0.029804144 0.08714296 -0.2058536 -0.13126291 0.3176941 -0.00014408026 0.3030606 0.45649675 -0.078269124 -0.17214444 0.055542894
74 0.11213341 -0.2718537 -0.2767224 0.22824603 -0.053544503 -0.009017438 0.15321586 -0.023646867 -0.2668726 0.02533894 -0.14715368 -0.05386798 -0.12943165 -0.16503301 0.12571232 -0.23435894 0.028385065 -0.24058071 0.05591626 -0.2844728 0.20503339 -0.00085916615 -0.15678807 -0.12564129 -0.05944916 -0.12585697 -0.08340451 -0.00905998 -0.17888135 0.06063573 -0.046767913 -0.06460646 0.0783898 -0.052233584 -0.303833 0.083942465 0.1692072 0.11361918 -0.19129778 0.34175107 0.07943951 -0.19118501 0.21463546 -0.042503357 -0.08602976 0.11551986 0.092420705 -0.041123986 -0.1606926 -0.29187742 -0.19892696 0.3668546 0.11002018 -0.021429079 0.08350777 -0.21082178 -0.13428518 0.31617582 -0.0011014129 0.31587878 0.46787548 -0.075133726 -0.17466526 0.060887486
98 0.10627006 -0.2790476 -0.29091188 0.22056006 -0.043645564 0.0038746095 0.15944114 -0.038605083 -0.25575498 0.030389851 -0.15957321 -0.051878244 -0.111778714 -0.16443545 0.1194154 -0.24461986 0.030311283 -0.23190913 0.05267616 -0.27165607 0.20016035 -0.0021830695 -0.1669077 -0.10749361 -0.048918042 -0.12961297 -0.0895807 -0.011107792 -0.16112585 0.06130826 -0.04857528 -0.071284786 0.08311871 -0.051913254 -0.2953967 0.08175169 0.17805178 0.12810394 -0.188394 0.33515197 0.06803524 -0.17995654 0.21020629 -0.05410318 -0.08164587 0.11731751 0.09240742 -0.023118226 -0.16944703 -0.29108158 -0.21196242 0.36078915 0.123415016 -0.01645951 0.081148826 -0.20314732 -0.13415466 0.30815384 -0.0028898746 0.31195027 0.45516345 -0.0642819 -0.17114384 0.062111463
8 0.113131404 -0.27754334 -0.29495165 0.22550651 -0.05057181 -0.008497751 0.16859044 -0.04463322 -0.26998058 0.03276563 -0.15947427 -0.054884166 -0.117076606 -0.16443582 0.11554336 -0.24061179 0.041058347 -0.24298854 0.06263508 -0.2815977 0.20322293 -0.00097438076 -0.16474433 -0.10640106 -0.067787275 -0.13320667 -0.07992638 0.0021583992 -0.16775686 0.06065283 -0.042031765 -0.06677121 0.08473105 -0.05381795 -0.30949304 0.08518604 0.17041287 0.12285546 -0.18344599 0.34171325 0.06522804 -0.17777146 0.20651278 -0.048775975 -0.070739105 0.118172854 0.09735995 -0.03101759 -0.1576075 -0.2867369 -0.20234688 0.35858256 0.116704784 -0.025661467 0.084404506 -0.1907134 -0.12960306 0.30681017 -0.0038173269 0.30160192 0.4423602 -0.07141767 -0.16711825 0.05548079
95 0.10883093 -0.28001058 -0.2797957 0.22170554 -0.054422013 -0.0019646813 0.15781201 -0.027261006 -0.26184818 0.0368697 -0.14770988 -0.053129002 -0.11742341 -0.16590153 0.12583128 -0.23473957 0.042914003 -0.2340999 0.05847508 -0.2780476 0.20997782 -0.0011116121 -0.16107658 -0.1089588 -0.060430553 -0.12456929 -0.07798095 -0.0020078493 -0.16717532 0.06503098 -0.049060762 -0.07159394 0.08059237 -0.056520972 -0.3056129 0.08564354 0.16330948 0.12107766 -0.18800597 0.32892683 0.07748628 -0.17554092 0.20130347 -0.04893689 -0.07429912 0.12160204 0.09551799 -0.039691158 -0.17535284 -0.28989992 -0.20159945 0.36142272 0.110986665 -0.022881394 0.0798583 -0.20522237 -0.14109166 0.31854 0.005158462 0.31337866 0.46132976 -0.06178322 -0.17188942 0.055910356
6 0.11851367 -0.27859092 -0.2998947 0.22842655 -0.043024622 -0.0024187607 0.16411085 -0.035983138 -0.2695891 0.03557426 -0.15763122 -0.048542034 -0.12328784 -0.15235217 0.11397008 -0.24899043 0.024860349 -0.23696615 0.055079445 -0.27285197 0.20486929 -0.008612659 -0.16455437 -0.11079841 -0.054932706 -0.13220295 -0.08295526 0.0075177327 -0.17159884 0.05969978 -0.04078691 -0.069861926 0.08301733 -0.060052976 -0.29813284 0.08771257 0.17809276 0.12317398 -0.18859273 0.33282754 0.06232974 -0.18376616 0.21106805 -0.047481682 -0.084944785 0.10899067 0.08542851 -0.038430125 -0.16151902 -0.28530926 -0.20953582 0.36582482 0.112910144 -0.014547649 0.07987843 -0.21086249 -0.13844799 0.31726384 0.010427742 0.31119365 0.45277202 -0.06706043 -0.1633425 0.05559347
7 0.106457286 -0.271869 -0.29476655 0.22857478 -0.054615896 -0.010887444 0.1656612 -0.033761244 -0.27425686 0.04040648 -0.14986622 -0.051301215 -0.12457843 -0.15674007 0.12734707 -0.25254562 0.034353163 -0.240675 0.054314956 -0.27648324 0.21625738 -0.0065290374 -0.14907725 -0.10838715 -0.05288639 -0.13841304 -0.07921059 -0.0016633051 -0.1726315 0.05118262 -0.04674052 -0.07139483 0.08151465 -0.050753944 -0.30692843 0.10054681 0.17124343 0.11824361 -0.18652272 0.3368499 0.071525514 -0.18503802 0.20492047 -0.043121375 -0.08044159 0.11314125 0.08960953 -0.03357794 -0.17205258 -0.28676823 -0.20484784 0.3659165 0.11293695 -0.01904938 0.07248367 -0.20351057 -0.14481637 0.3156918 0.0081126755 0.3103993 0.46078402 -0.062928826 -0.17186788 0.06045407
30 0.11352465 -0.2806391 -0.29088026 0.22707765 -0.043019872 -0.006790023 0.16310716 -0.041404534 -0.25887403 0.031438835 -0.15435904 -0.05541715 -0.112631954 -0.15829983 0.115768656 -0.24168135 0.039924826 -0.23978949 0.05202936 -0.28903332 0.21089104 -0.005278668 -0.1543246 -0.1172662 -0.05023105 -0.1402822 -0.07822581 -0.0022947453 -0.1650869 0.0487991 -0.04210257 -0.070090115 0.0752099 -0.05065302 -0.30988318 0.098861665 0.17290597 0.13212214 -0.18499456 0.3303225 0.07776442 -0.18202978 0.19853817 -0.052458886 -0.073842786 0.108994894 0.08677136 -0.036605097 -0.17021605 -0.28646964 -0.20909166 0.3646012 0.12302398 -0.02059818 0.07915807 -0.21462345 -0.14138725 0.31578782 -0.0047268663 0.3212372 0.45673904 -0.07389342 -0.16230556 0.061591983
27 0.10990921 -0.28521624 -0.2985596 0.2340086 -0.05786943 -0.007495319 0.16898791 -0.03864016 -0.2715206 0.038537312 -0.15892494 -0.05580415 -0.1141931 -0.1541571 0.11594041 -0.24069887 0.040834226 -0.23827001 0.060160868 -0.28275543 0.21398588 -0.0074155554 -0.15726064 -0.11992692 -0.059700016 -0.13291904 -0.07663488 0.0021463044 -0.16513558 0.045097206 -0.053728964 -0.063908026 0.07478203 -0.06258798 -0.29334453 0.08430173 0.165159 0.11824101 -0.18444858 0.3300021 0.06672482 -0.17816871 0.19376609 -0.0403534 -0.08218569 0.121103875 0.09669284 -0.037941914 -0.16467775 -0.28062356 -0.20976648 0.35964602 0.12201788 -0.030773958 0.079518355 -0.19541755 -0.13341948 0.31504092 0.009098205 0.3056936 0.4497004 -0.06928374 -0.172027 0.0475772
5 0.10529591 -0.2770833 -0.28718373 0.22389874 -0.0581405 -0.008288883 0.16596839 -0.03027377 -0.24906425 0.034867495 -0.15152651 -0.061047383 -0.109341644 -0.15418068 0.11094376 -0.24167821 0.038417544 -0.2316234 0.054909244 -0.2761691 0.21055031 0.0032069655 -0.15697768 -0.11640409 -0.0522137 -0.13364168 -0.08384214 0.00041489658 -0.1764912 0.04545163 -0.04828129 -0.06492585 0.076485135 -0.049070917 -0.30785573 0.09859748 0.17453848 0.12697215 -0.18511677 0.33258185 0.06975783 -0.17649193 0.214471 -0.052316505 -0.088318095 0.11537795 0.09649317 -0.027073726 -0.17146136 -0.28979465 -0.2023248 0.3574647 0.1170351 -0.025943754 0.083770074 -0.21240106 -0.1384444 0.31041926 -0.00048338147 0.3059654 0.44905257 -0.06625474 -0.1641677 0.058763355
13 0.12052842 -0.2904133 -0.3049037 0.22912581 -0.049065296 0.0041165864 0.16624543 -0.041681785 -0.2705236 0.02528119 -0.15496889 -0.051831223 -0.11675152 -0.16074291 0.12819774 -0.24481231 0.038528465 -0.23641105 0.059420604 -0.2745234 0.20661515 -0.01218282 -0.16551536 -0.10807816 -0.047431313 -0.1381506 -0.0852742 0.005714017 -0.17311984 0.04759837 -0.04264362 -0.06329474 0.07265877 -0.057941638 -0.3038895 0.08561949 0.17952122 0.12210929 -0.17977919 0.33371264 0.06689295 -0.18638586 0.20458806 -0.048153676 -0.08008361 0.11649764 0.1007204 -0.03747065 -0.16720414 -0.2869972 -0.20336121 0.35107553 0.11580949 -0.030311983 0.08234923 -0.20786096 -0.13212499 0.31983656 0.0119330175 0.32214844 0.4512706 -0.05959534 -0.17508116 0.04907756
24 0.10510572 -0.29045013 -0.29784825 0.22855654 -0.04941373 -0.010586598 0.16400874 -0.030632095 -0.2640275 0.024852272 -0.14821452 -0.058338884 -0.10848267 -0.1646214 0.11415835 -0.24200864 0.0324444 -0.23246741 0.06610947 -0.28287458 0.20945397 -0.013147352 -0.16373263 -0.11231258 -0.05109989 -0.14060256 -0.08983261 0.0067979204 -0.17248352 0.06071485 -0.05344338 -0.07314351 0.07265557 -0.046008285 -0.30714467 0.08637591 0.17235953 0.1265128 -0.18279393 0.3377312 0.061614063 -0.1910261 0.20922153 -0.045257837 -0.06969652 0.12085472 0.089951426 -0.04058265 -0.16104768 -0.28429192 -0.20001039 0.3486025 0.117700696 -0.031760775 0.075216256 -0.2070923 -0.14336383 0.3140259 0.0013870251 0.3053389 0.45356286 -0.058171477 -0.17178507 0.057012442
23 0.105582304 -0.28457668 -0.29761234 0.23558243 -0.06132839 -0.00997183 0.1686928 -0.029836256 -0.26706085 0.03901505 -0.15060663 -0.05828138 -0.11945163 -0.1605867 0.12428679 -0.23112977 0.032532405 -0.22859684 0.049702577 -0.27792254 0.21344408 -0.007278771 -0.16305584 -0.116373606 -0.06727722 -0.13035241 -0.067214906 0.0007706751 -0.17359371 0.059453197 -0.041966446 -0.07420592 0.06924721 -0.054737177 -0.3006805 0.08829925 0.17714988 0.10837168 -0.18199624 0.34250367 0.06810782 -0.18843484 0.20554551 -0.04461524 -0.069668286 0.10629923 0.08837829 -0.035643186 -0.16696233 -0.27922606 -0.20407335 0.3585809 0.120829046 -0.023238553 0.08123837 -0.21247427 -0.13597201 0.31692925 0.0046584476 0.31213957 0.45525503 -0.071058415 -0.15902258 0.057124987
77 0.11142291 -0.28680193 -0.29542783 0.22502343 -0.053930737 -0.00036056837 0.163265 -0.040746376 -0.2530344 0.03536815 -0.1537542 -0.053012524 -0.12300539 -0.15511014 0.11999404 -0.22879924 0.038497362 -0.22233392 0.05779708 -0.27157685 0.19743063 -0.00922481 -0.15857469 -0.10868237 -0.05267659 -0.13442953 -0.07994372 -0.0072496324 -0.15955934 0.050294332 -0.03768668 -0.07361364 0.084567435 -0.057512965 -0.30735976 0.08689726 0.17260726 0.123630896 -0.17995092 0.3352359 0.075506546 -0.18845455 0.21017215 -0.050074555 -0.08264627 0.118451945 0.09908042 -0.02165825 -0.17408735 -0.29185775 -0.21185865 0.3525356 0.11094913 -0.02810311 0.08613363 -0.20806028 -0.13004047 0.31474152 0.009987868 0.30461198 0.4488707 -0.07425147 -0.16989253 0.04715258
29 0.11577179 -0.28758118 -0.285043 0.23205464 -0.041920535 -0.0067300363 0.16941991 -0.04176632 -0.26632142 0.02353641 -0.15091258 -0.051564746 -0.10976465 -0.15871967 0.11608035 -0.24967344 0.034953956 -0.23045212 0.056763764 -0.28575507 0.20246343 -0.0057268534 -0.15869619 -0.11397812 -0.054410394 -0.13093638 -0.08137622 -0.0076045045 -0.16328658 0.055279814 -0.05252912 -0.0768551 0.07680546 -0.04565089 -0.30634156 0.09196132 0.16727194 0.11711609 -0.17303891 0.34203914 0.07517233 -0.18648924 0.20018558 -0.050510734 -0.06694201 0.11942142 0.090912305 -0.02949757 -0.17182371 -0.29320428 -0.20381278 0.35424632 0.12531699 -0.024502251 0.0713702 -0.20906517 -0.14695159 0.31665525 0.009082814 0.30898473 0.4489676 -0.06320148 -0.1664586 0.048960038
36 0.116374865 -0.2908513 -0.30444768 0.23997743 -0.055918265 -0.013414808 0.17702034 -0.04132309 -0.25781563 0.033314433 -0.1496948 -0.062550984 -0.10947505 -0.15993662 0.11473609 -0.24562317 0.042052843 -0.2323159 0.05410556 -0.2726513 0.2058247 -0.0050650197 -0.15769543 -0.113394186 -0.062487207 -0.122439705 -0.08462077 0.004049524 -0.16927658 0.053090904 -0.038771603 -0.07675453 0.08069635 -0.05589156 -0.30308262 0.095667064 0.1718835 0.121437356 -0.18458538 0.33742842 0.07859497 -0.1759982 0.2003343 -0.046504524 -0.072484165 0.121196836 0.09418325 -0.025786955 -0.17628457 -0.28991982 -0.20519842 0.3602803 0.1117773 -0.027710201 0.078635395 -0.20657742 -0.1330675 0.30932775 0.00010360763 0.31371734 0.4647508 -0.064750664 -0.16135529 0.054812178
88 0.123232454 -0.2905147 -0.30224514 0.23616265 -0.05528371 -0.012716097 0.16541876 -0.036887806 -0.26170757 0.02456217 -0.1528211 -0.050859474 -0.11884794 -0.16079006 0.12601826 -0.2319459 0.035067976 -0.23331755 0.05257897 -0.28050926 0.20319764 -0.008100895 -0.15660815 -0.11187399 -0.056457702 -0.12592745 -0.08197404 -0.000652457 -0.16646773 0.05848368 -0.0546107 -0.07364707 0.07579975 -0.05146339 -0.30720425 0.09456585 0.18328261 0.123063326 -0.18527901 0.3278421 0.06964619 -0.17869292 0.21023197 -0.045481265 -0.071270294 0.112587854 0.094945654 -0.034367107 -0.17016366 -0.29244882 -0.20344897 0.3525774 0.102313355 -0.02883074 0.08411973 -0.21218137 -0.13693753 0.3194486 -0.0015467803 0.31138578 0.44611058 -0.067456596 -0.16227235 0.0509075
0 0.100453466 -0.27114475 -0.28574684 0.23585075 -0.053074207 0.0040759263 0.16104382 -0.033315193 -0.25705662 0.029803257 -0.1558446 -0.0537581 -0.114056416 -0.16227265 0.110947095 -0.22814031 0.037556358 -0.23453978 0.055084802 -0.2818754 0.19825096 -0.005432382 -0.15441696 -0.11393524 -0.052024852 -0.13190548 -0.08231788 -0.0013617725 -0.1756389 0.05470714 -0.049238916 -0.068255804 0.08324413 -0.055547994 -0.30929646 0.0828631 0.16488327 0.11410794 -0.18175274 0.3359142 0.071809284 -0.1854764 0.21270616 -0.0540508 -0.08407224 0.11694927 0.094608076 -0.036664 -0.16353199 -0.27920732 -0.21055686 0.3593288 0.12239182 -0.027984347 0.08653745 -0.20841737 -0.13397373 0.30882382 -0.004163932 0.30173868 0.45365041 -0.07130046 -0.17432772 0.055234533
