100 64
93 -0.0681899 0.014035657 -0.06670741 0.005194397 -0.2875148 0.0050983033 0.3036272 0.079517394 0.07133481 -0.07402306 -0.17790231 0.2772433 0.14062242 0.023685297 -0.029188376 0.15521163 0.12304984 0.07709991 -0.08491752 -0.1252594 -0.04798728 0.0053117434 -0.44089073 -0.12158499 0.47484964 -0.061969962 0.23337728 -0.03406501 0.011705148 -0.09941709 0.043566722 -0.19856696 0.16335258 0.14978588 0.079180844 -0.018775793 0.04190041 0.1795028 -0.14941737 -0.14840624 -0.18356562 0.15366547 0.14546001 0.28488892 -0.06177438 -0.015300718 0.074129686 0.12864326 -0.08522116 0.33955312 -0.33868134 0.28406715 0.043876804 -0.14100604 -0.011362247 -0.1897006 0.19326143 -0.16568305 -0.03739224 0.25798768 0.25149536 0.18002851 0.10415393 0.2342627
83 -0.06964782 0.018875856 -0.057305682 0.013253865 -0.2909714 0.016516307 0.29933727 0.08994931 0.0790225 -0.0753597 -0.1702332 0.27212518 0.15045491 0.022061618 -0.02350338 0.15903737 0.11929947 0.05915967 -0.07813055 -0.13114476 -0.04086667 0.010551184 -0.43624893 -0.12560184 0.45922747 -0.053109046 0.22326854 -0.028208844 0.016674334 -0.10079106 0.05663496 -0.20389861 0.15328611 0.15919812 0.07652396 -0.02125583 0.045137275 0.17613305 -0.14986615 -0.15881416 -0.18822062 0.1650067 0.14178847 0.2857879 -0.06406537 -0.0023954355 0.063965425 0.12421827 -0.089410394 0.34094507 -0.34986532 0.29622158 0.043627795 -0.15050447 -0.018985096 -0.19186011 0.19629186 -0.17083813 -0.03438504 0.2521018 0.24956103 0.18051018 0.11571857 0.22750215
20 -0.06992168 0.011515623 -0.056528565 -0.0014227385 -0.2958406 0.0023548044 0.2898485 0.082817964 0.07454197 -0.07477514 -0.18766132 0.28854197 0.14219359 0.03824324 -0.031431165 0.15400645 0.12611721 0.06491838 -0.08207671 -0.13833404 -0.040455066 0.018210737 -0.43466496 -0.11029233 0.46220008 -0.062048145 0.22631453 -0.03127611 0.025903301 -0.09254988 0.05857177 -0.20126867 0.17086332 0.1554505 0.066553295 -0.023140363 0.036561746 0.1772278 -0.14582345 -0.1529298 -0.18339124 0.16466238 0.143527 0.2714226 -0.06471733 -0.01456191 0.07666246 0.116003156 -0.08833735 0.3375727 -0.34451687 0.2903333 0.055396575 -0.15028173 -0.009373599 -0.18611696 0.1975255 -0.16164578 -0.040776614 0.26812297 0.2425665 0.18706904 0.113493286 0.22616628
41 -0.057421174 0.01363628 -0.06748805 0.019251436 -0.29697004 0.007661664 0.30465958 0.082247145 0.09185311 -0.07982018 -0.17652926 0.27682576 0.14632843 0.01862719 -0.031924166 0.16562928 0.13317181 0.058233228 -0.08782084 -0.124613866 -0.039628185 0.0059344694 -0.42396516 -0.11576609 0.4590787 -0.05546146 0.22977841 -0.026489152 0.011846988 -0.09179272 0.056633964 -0.20296043 0.15968911 0.1429871 0.07250679 -0.018159632 0.042945847 0.16920435 -0.13518466 -0.15321921 -0.18482271 0.15080352 0.1506832 0.2803552 -0.060918353 -0.015536529 0.07612952 0.122816995 -0.084481485 0.34148 -0.3524657 0.28838116 0.047204707 -0.14832965 -0.016161835 -0.18544246 0.18679962 -0.15772472 -0.048642144 0.26048955 0.24166766 0.18398836 0.10638942 0.22008395
89 -0.064977266 0.00907373 -0.053588603 0.016137175 -0.29595098 0.0055567757 0.29453817 0.083730325 0.0747425 -0.078698486 -0.182682 0.2822557 0.1409669 0.030829307 -0.019774895 0.17063068 0.1344878 0.07411654 -0.07550379 -0.14026764 -0.04590046 0.017500402 -0.43563676 -0.12319007 0.46134764 -0.05577211 0.23157226 -0.027802588 0.016023431 -0.09327599 0.055099964 -0.2105375 0.15706666 0.15942487 0.067394204 -0.013361158 0.03325048 0.16682665 -0.13636255 -0.15014966 -0.19180226 0.16727695 0.14567506 0.28387502 -0.060630824 -0.00593924 0.069767565 0.112116426 -0.08610172 0.34477133 -0.33883968 0.29961187 0.054219283 -0.15275538 -0.01249774 -0.19080836 0.19748391 -0.15931243 -0.039905414 0.26640558 0.23549618 0.18996607 0.11332028 0.22279708
86 -0.0640377 0.016303644 -0.062777445 0.0003453334 -0.2906996 0.0076474883 0.30624697 0.08021699 0.08454493 -0.07689834 -0.19220097 0.2906358 0.1525506 0.027295584 -0.018956354 0.16680178 0.12910074 0.07176142 -0.08366918 -0.13410862 -0.04671983 0.014007074 -0.4353691 -0.113070086 0.46930426 -0.060384255 0.21757834 -0.035398338 0.010373521 -0.10667945 0.047217738 -0.20246345 0.1625762 0.14842278 0.06378961 -0.01848087 0.03523437 0.17256358 -0.14007086 -0.15406618 -0.17479895 0.16630259 0.13989627 0.2836091 -0.05762377 -0.008849984 0.079533495 0.109259546 -0.08259754 0.34409404 -0.34833425 0.29129478 0.046395555 -0.16065562 -0.015307451 -0.18490283 0.19576879 -0.16314036 -0.051629335 0.26107296 0.24465056 0.19030203 0.10070381 0.2260905
52 -0.07165386 0.006637715 -0.06901267 0.008370394 -0.29906866 0.011364853 0.29580778 0.09481421 0.0880697 -0.08153859 -0.18771201 0.28482047 0.14752012 0.031119017 -0.028194385 0.15940036 0.12766515 0.07512826 -0.084480226 -0.13655375 -0.050967727 0.012462398 -0.42980757 -0.12376186 0.46775773 -0.051813968 0.22029167 -0.018091965 0.013079691 -0.10339424 0.044925056 -0.20282401 0.16465388 0.15194796 0.07620604 -0.02297107 0.0389337 0.17595863 -0.13893011 -0.15690657 -0.18227603 0.15855712 0.1421019 0.27643445 -0.057967827 -0.017714469 0.07888682 0.12361693 -0.07976473 0.3420758 -0.34953347 0.28812864 0.058493853 -0.1498874 -0.024363622 -0.18065196 0.19859491 -0.16541642 -0.04758539 0.2585526 0.24264829 0.18763871 0.10947636 0.22651489
45 -0.06464503 0.010900739 -0.059188142 0.0061501404 -0.28455582 0.003525427 0.29940945 0.092783995 0.07720126 -0.076170325 -0.18752049 0.291712 0.15771659 0.03770882 -0.02145441 0.16223428 0.13565896 0.06700985 -0.07619349 -0.13853005 -0.04481021 0.014733423 -0.4386668 -0.11700327 0.47893223 -0.051456407 0.23136534 -0.03115932 0.021042682 -0.09478756 0.044939853 -0.19216168 0.1663547 0.14516355 0.0697304 -0.017177265 0.034245186 0.16859634 -0.13473977 -0.16106874 -0.18658555 0.1655436 0.14252302 0.2925139 -0.06530004 -0.021749383 0.07954061 0.13115075 -0.07965469 0.3549559 -0.35330945 0.29631278 0.05438342 -0.14967014 -0.02011134 -0.18278985 0.19394477 -0.17013401 -0.038642734 0.2588678 0.24435483 0.1894673 0.10242676 0.22228037
64 -0.06280102 0.020600986 -0.05878488 0.0032421427 -0.29409796 0.0058123814 0.30974698 0.08473617 0.07751391 -0.076114155 -0.18828721 0.2949386 0.14378288 0.021869548 -0.041724153 0.15530935 0.1360785 0.06702601 -0.077801295 -0.13352393 -0.049878966 0.014129515 -0.43885782 -0.120386295 0.4846368 -0.057756208 0.22203383 -0.03409865 0.015588031 -0.10068673 0.058494426 -0.20570736 0.16699892 0.14340052 0.07180398 -0.029652221 0.039136834 0.17197761 -0.14112763 -0.14930674 -0.17867048 0.16255616 0.15159835 0.27365804 -0.072677575 -0.020697575 0.07323761 0.122641005 -0.08655637 0.33962423 -0.34961 0.29444364 0.05554698 -0.15416202 -0.025183983 -0.19438076 0.1974075 -0.16889974 -0.044007346 0.26733485 0.24683431 0.18384336 0.10106614 0.22431003
40 -0.058430735 0.011846783 -0.060211416 0.016064253 -0.28539917 0.004869165 0.2969661 0.09250505 0.08316209 -0.084771164 -0.17657092 0.28360412 0.14552467 0.035690688 -0.031920537 0.1658388 0.13483867 0.07248345 -0.09029252 -0.1360121 -0.03736926 0.009599046 -0.4454002 -0.112411916 0.4802038 -0.054498997 0.22693451 -0.020264734 0.018456234 -0.09568127 0.047354653 -0.20559144 0.16366448 0.14456946 0.077667765 -0.017698703 0.033773888 0.17637691 -0.1425228 -0.14031883 -0.18248725 0.1536337 0.13832258 0.28180566 -0.07474018 -0.0182734 0.07459026 0.11893094 -0.07884601 0.35050222 -0.35207736 0.2836212 0.05434622 -0.15653628 -0.020156208 -0.18998934 0.19121212 -0.17228925 -0.04874078 0.25673234 0.24638104 0.18789071 0.112777434 0.2233547
56 -0.06892993 0.008547504 -0.06163689 0.01708765 -0.28776175 -0.0035148636 0.30193952 0.08509904 0.08869252 -0.07593372 -0.17682113 0.275047 0.1444441 0.035556205 -0.022089515 0.16884196 0.12690239 0.073799044 -0.09099921 -0.13861535 -0.040543765 0.0075941677 -0.43703464 -0.12504685 0.46392602 -0.042222004 0.22289093 -0.022527123 0.021153048 -0.09781608 0.05642537 -0.20823362 0.16609137 0.15608416 0.06655241 -0.017346708 0.039432734 0.1721231 -0.14195286 -0.14766188 -0.18952228 0.1699872 0.13488023 0.27955842 -0.0749505 -0.012162604 0.07059444 0.12449845 -0.08082839 0.3438851 -0.33873847 0.29126984 0.04668671 -0.1474214 -0.021773182 -0.18978104 0.19925427 -0.16382521 -0.054853078 0.2577862 0.2454213 0.17743579 0.1080129 0.22538052
78 -0.054770064 0.012338811 -0.058551244 0.0073250663 -0.29494083 0.012566926 0.30102065 0.08601864 0.084233806 -0.0853078 -0.18814574 0.28537953 0.14288534 0.02760004 -0.031178482 0.1661348 0.13472633 0.07069543 -0.0780413 -0.13497576 -0.043112524 0.012933039 -0.4360322 -0.11216906 0.47029796 -0.06330542 0.2186677 -0.024412591 0.024368014 -0.101479165 0.048248034 -0.18953018 0.16420089 0.15311825 0.06921143 -0.018272411 0.045977 0.17751056 -0.14462471 -0.15791304 -0.18523216 0.15995228 0.14742513 0.28267783 -0.070971616 -0.0068738256 0.0691221 0.124864615 -0.08554941 0.33871064 -0.35411516 0.28970966 0.05945635 -0.14230235 -0.022866338 -0.18269219 0.19922736 -0.17188622 -0.039825704 0.27011833 0.25128672 0.18830943 0.10727032 0.21788254
18 -0.07232544 0.0080466345 -0.060476623 0.0119039165 -0.2910379 0.016075112 0.31000075 0.09109184 0.08259816 -0.07547568 -0.18552777 0.29452053 0.14182645 0.023150546 -0.021315312 0.17172934 0.12455431 0.06529865 -0.091454424 -0.14232346 -0.04488404 0.005488914 -0.43112135 -0.12176799 0.47536802 -0.047759302 0.22462593 -0.029206231 0.014912735 -0.097246066 0.0486225 -0.19361368 0.16836116 0.15930067 0.062511206 -0.018071925 0.04914031 0.18435608 -0.1442107 -0.15505636 -0.19024111 0.15701282 0.13674973 0.28885463 -0.06809074 -0.0005615603 0.07327184 0.11228619 -0.08856985 0.33659998 -0.35897392 0.29796305 0.04837203 -0.14402208 -0.027701302 -0.19161545 0.19505054 -0.16511469 -0.045947403 0.25435364 0.24690135 0.18027273 0.10738837 0.21657346
70 -0.05601385 0.022924982 -0.059251055 0.0067376043 -0.29112974 0.016636629 0.30469447 0.08920378 0.08202069 -0.08172843 -0.17836456 0.28455213 0.15287118 0.034674343 -0.031937413 0.1612619 0.1231956 0.065527104 -0.093792826 -0.12421872 -0.046201907 0.006697459 -0.4279201 -0.12191384 0.47193062 -0.046008162 0.22806321 -0.02166303 0.015051417 -0.104095265 0.05630298 -0.18960805 0.16584085 0.14655538 0.068914615 -0.022473644 0.04404477 0.1626011 -0.13690531 -0.15499192 -0.17573476 0.15084118 0.13678195 0.27160677 -0.060087137 -0.013593207 0.07193183 0.1250483 -0.08726507 0.3400736 -0.35179722 0.29902133 0.054269973 -0.15508372 -0.01032554 -0.18971653 0.19346893 -0.15947354 -0.035609756 0.26724353 0.24142154 0.19191326 0.10673469 0.23354657
50 -0.07064083 0.024150154 -0.060581975 0.0041765026 -0.2999679 0.009689043 0.3029538 0.091322094 0.08652901 -0.070388064 -0.17850223 0.27716047 0.14912662 0.035793807 -0.023663303 0.16462429 0.12612143 0.06734629 -0.09238018 -0.13743861 -0.047747154 0.00850214 -0.43584004 -0.116864815 0.474523 -0.04715159 0.22876258 -0.016447049 0.013007407 -0.105724715 0.06015847 -0.19802417 0.16896707 0.1436524 0.07245592 -0.008452935 0.033165973 0.18004121 -0.1506791 -0.15441701 -0.1915869 0.15922774 0.15103538 0.27785915 -0.06791965 -0.01671592 0.07444209 0.12735307 -0.08859399 0.33786738 -0.3525522 0.29280934 0.057376824 -0.15801075 -0.016256085 -0.18139802 0.19923288 -0.1641905 -0.05242795 0.2617577 0.2491508 0.195706 0.1157804 0.22084081
14 -0.061890177 0.014364558 -0.07489051 0.013022809 -0.2891933 0.0023572128 0.3020701 0.08167262 0.081223376 -0.079466864 -0.1917283 0.28808194 0.14089945 0.027388813 -0.021325668 0.15823911 0.12290636 0.06275305 -0.08860337 -0.13207954 -0.038328916 0.009614075 -0.4482973 -0.122344285 0.47174224 -0.04737103 0.22115801 -0.021168226 0.026402222 -0.09736166 0.048662275 -0.1974677 0.17164676 0.15713964 0.06367761 -0.019412126 0.03430402 0.17361785 -0.14517526 -0.15406515 -0.18377914 0.1543945 0.14590216 0.287891 -0.0581589 -0.011553914 0.06601816 0.12538382 -0.0779114 0.34673968 -0.3525077 0.29690024 0.04413276 -0.14936848 -0.021243224 -0.1950626 0.19917494 -0.17484517 -0.051559426 0.27019954 0.24387951 0.18404311 0.10429582 0.22794615
53 -0.06882579 0.010338511 -0.0684677 0.013175344 -0.29563564 0.007799178 0.29796854 0.09162946 0.0716223 -0.086528495 -0.17841996 0.28381443 0.14212655 0.032591503 -0.035264358 0.15915602 0.12856783 0.07596009 -0.07960936 -0.12768264 -0.036196116 0.009630538 -0.43359694 -0.1076341 0.48369536 -0.047797292 0.22121069 -0.020190608 0.012308411 -0.09376252 0.047448494 -0.19347686 0.16066587 0.1594313 0.07019636 -0.024091972 0.038403165 0.17702523 -0.14875735 -0.14970675 -0.18119353 0.17001984 0.13843966 0.27264094 -0.06641304 -0.017372956 0.06853162 0.117805704 -0.09195049 0.34868324 -0.36062327 0.30112746 0.05664365 -0.1567508 -0.020085175 -0.1869591 0.2039046 -0.17057069 -0.037517373 0.26952398 0.25573084 0.1771583 0.109745845 0.21884997
63 -0.06260161 0.019320227 -0.068535075 0.0064062946 -0.28908142 0.019035084 0.3036042 0.09399483 0.07974974 -0.07517191 -0.19396774 0.28249788 0.15641564 0.03409588 -0.026812218 0.17489377 0.12689653 0.07018282 -0.08454361 -0.13330734 -0.05038361 0.009721939 -0.42969713 -0.11074976 0.48217103 -0.069727436 0.21711653 -0.020519847 0.013928801 -0.098248966 0.052796632 -0.20638813 0.1582175 0.13913561 0.06350537 -0.025479378 0.045776952 0.18133095 -0.13199754 -0.14854246 -0.18232614 0.1515037 0.13900407 0.2765966 -0.06603505 -0.013860662 0.082532115 0.12854049 -0.085337035 0.34154132 -0.3550455 0.29353327 0.05035182 -0.14906153 -0.025900112 -0.19174932 0.19211453 -0.17005825 -0.054878514 0.25585198 0.24636313 0.18383457 0.109057896 0.21974756
39 -0.06974513 0.020509103 -0.062955245 0.002315962 -0.28733647 0.013719667 0.30054218 0.08325286 0.07692462 -0.0852294 -0.1798597 0.276755 0.14949037 0.030330319 -0.027790919 0.16788696 0.12466318 0.06980382 -0.09079366 -0.12645337 -0.03752979 0.011889188 -0.4338129 -0.11861748 0.474868 -0.047515716 0.21855289 -0.031406906 0.02147374 -0.10718666 0.06192955 -0.19652353 0.15852864 0.14587219 0.07455205 -0.015175999 0.048657723 0.17015655 -0.13831078 -0.144904 -0.17547897 0.16374932 0.13630252 0.27538767 -0.06312734 -0.0070929653 0.072958514 0.122651026 -0.07925239 0.34905574 -0.3566453 0.28701085 0.05612683 -0.1398063 -0.02643173 -0.19727328 0.18648456 -0.17138512 -0.035684943 0.26740408 0.23883803 0.17895454 0.1056974 0.22281648
48 -0.06002954 0.021142615 -0.07236573 0.01334185 -0.29526398 0.010322341 0.305851 0.08914207 0.08504183 -0.070366666 -0.18131234 0.28684255 0.1460601 0.031369876 -0.020065574 0.1667415 0.13468911 0.07886989 -0.0877881 -0.12840465 -0.034623798 0.014234887 -0.44822317 -0.12339971 0.48393518 -0.05413541 0.22300954 -0.019035252 0.024978012 -0.097883694 0.04548151 -0.19462156 0.16326097 0.15351264 0.0721091 -0.014186031 0.03927626 0.17914042 -0.14598632 -0.14584026 -0.17382047 0.15446453 0.13613401 0.28590256 -0.060650256 -0.020579904 0.062776245 0.12974112 -0.081226885 0.33577564 -0.3450037 0.28508592 0.047800373 -0.16012365 -0.02385477 -0.17808618 0.19354738 -0.17340998 -0.040062018 0.26237458 0.24433759 0.18509226 0.1008667 0.23225613
16 -0.07289732 0.0068836175 -0.0638784 0.00542935 -0.2992305 0.009704459 0.30629328 0.088226855 0.08088041 -0.0734983 -0.17380936 0.28627524 0.13823736 0.036658376 -0.02559521 0.16212031 0.13192604 0.0619122 -0.07839897 -0.12908788 -0.036941554 0.016871717 -0.4409567 -0.12203605 0.4776971 -0.052006852 0.21822153 -0.028548323 0.023117622 -0.107184276 0.056939766 -0.20803016 0.15711983 0.14468735 0.08000452 -0.011102948 0.03392967 0.16924866 -0.1360481 -0.15324157 -0.18785211 0.16596678 0.1437883 0.27819633 -0.069163054 -0.011500402 0.08250202 0.12029894 -0.088754706 0.35526085 -0.35276338 0.29126066 0.05596484 -0.15975156 -0.013946664 -0.19050379 0.18783498 -0.17003429 -0.046959955 0.27518928 0.25525057 0.190853 0.10189126 0.23493004
43 -0.06277357 0.012403793 -0.0650796 0.017098458 -0.28663188 0.0031320408 0.29072738 0.08446409 0.08895632 -0.08413573 -0.17885906 0.2894979 0.14936884 0.026002228 -0.021948153 0.15816988 0.12579331 0.07087796 -0.08828444 -0.13660516 -0.044497944 0.0051508895 -0.43396592 -0.11659491 0.47671375 -0.057911385 0.22866505 -0.02512871 0.024361605 -0.10123185 0.050779406 -0.20278297 0.16761303 0.14811273 0.07876719 -0.01585928 0.04104359 0.18542653 -0.13688035 -0.15395784 -0.18728866 0.1605773 0.13766216 0.27913576 -0.07511417 -0.019184055 0.07706335 0.11872864 -0.08203041 0.34860826 -0.3512747 0.29419172 0.059429884 -0.13987967 -0.012927617 -0.1811754 0.19415423 -0.16463105 -0.04060587 0.26537085 0.24192347 0.18883245 0.09920942 0.22640201
94 -0.06577169 0.022337986 -0.061128236 0.009190754 -0.29149586 0.00871553 0.30379942 0.08470345 0.076106995 -0.08786727 -0.19176815 0.29035285 0.15233341 0.038764924 -0.031320803 0.16348474 0.12888461 0.07502086 -0.077358 -0.1316208 -0.03867329 0.010017757 -0.43147132 -0.12050235 0.47762412 -0.052601643 0.22320123 -0.019825527 0.015470892 -0.099851735 0.05862775 -0.19964442 0.16108792 0.14867528 0.06293535 -0.012219004 0.034716625 0.18258588 -0.1414237 -0.1470643 -0.17868145 0.16737124 0.13659507 0.27922612 -0.07337555 -0.016756471 0.06452559 0.12140978 -0.07948517 0.3397323 -0.35972488 0.291789 0.051206235 -0.15718314 -0.014834099 -0.18585251 0.20228536 -0.16091076 -0.04683196 0.26887593 0.24811536 0.1923386 0.10419796 0.22962065
31 -0.05592845 0.016600039 -0.06704831 0.012291027 -0.2945646 0.011550358 0.2983515 0.09363586 0.079852745 -0.071228735 -0.17858648 0.27618343 0.1444095 0.021026002 -0.021445887 0.1603857 0.13351361 0.07182297 -0.08910211 -0.13724346 -0.050648123 0.009792935 -0.42899534 -0.12418834 0.48038524 -0.060584247 0.21957304 -0.025793657 0.0111788325 -0.10571008 0.04541548 -0.19762547 0.16612412 0.15017493 0.07757873 -0.015206264 0.053638265 0.18253763 -0.14274731 -0.15520574 -0.17958096 0.15714309 0.1464046 0.28502575 -0.06450291 -0.011556425 0.06676419 0.12802272 -0.09042739 0.34266874 -0.3529762 0.28607228 0.046641134 -0.15092838 -0.01128073 -0.19387278 0.18593228 -0.17251834 -0.035334118 0.26567498 0.25232136 0.17979732 0.10629135 0.2288999
28 -0.06401141 0.0041738017 -0.07322779 0.019871121 -0.29603156 0.009266457 0.2993825 0.09029469 0.08223493 -0.07451148 -0.1878956 0.28715983 0.14656767 0.027516918 -0.034245312 0.16635202 0.12912913 0.061911795 -0.07520534 -0.13987368 -0.03925138 0.0053548296 -0.43815684 -0.11282856 0.46543828 -0.060568728 0.22326878 -0.01942908 0.016348425 -0.0938807 0.054144792 -0.19191344 0.15856858 0.14272478 0.06622099 -0.012584472 0.045912765 0.18110806 -0.1461062 -0.15823747 -0.18948169 0.14823024 0.14606021 0.28527057 -0.06667148 -0.014633384 0.063957416 0.114653386 -0.08166352 0.33972272 -0.34931195 0.29381007 0.058400482 -0.14368804 -0.016500195 -0.19160742 0.18866642 -0.16540189 -0.048449613 0.26061538 0.24685493 0.18016833 0.11216981 0.22934121
37 -0.060775492 0.016075196 -0.060648575 0.003078849 -0.29749647 0.013895259 0.28821844 0.08596376 0.07936285 -0.0814432 -0.18029203 0.2933222 0.1441995 0.027621944 -0.028005954 0.15733382 0.13501768 0.0630863 -0.09114883 -0.13476738 -0.037612516 0.010494305 -0.43674344 -0.12068504 0.46698165 -0.04894979 0.21819204 -0.019490276 0.02746705 -0.09009621 0.05764097 -0.19485818 0.15287629 0.14204188 0.062303193 -0.020135006 0.04686736 0.17733842 -0.13501833 -0.1508294 -0.18354127 0.15695396 0.13857006 0.2905492 -0.06405932 -0.008350687 0.0772175 0.11962714 -0.08281307 0.33998147 -0.35266548 0.28570053 0.05011694 -0.14878802 -0.022572262 -0.18512404 0.19881192 -0.16743268 -0.049676232 0.25868976 0.24861473 0.17923416 0.11351874 0.21649422
85 -0.057021737 0.012490833 -0.06390234 0.0037287755 -0.28581694 0.010716798 0.28877714 0.08466281 0.08202542 -0.07651676 -0.1863421 0.2905212 0.15354286 0.030759294 -0.03229921 0.16187303 0.12182642 0.07195105 -0.07698225 -0.13954498 -0.04247269 0.0069127334 -0.43417972 -0.114345625 0.48524562 -0.06215845 0.23025012 -0.025379496 0.024787394 -0.10669736 0.05476593 -0.19463314 0.17154047 0.15311234 0.0736635 -0.025620831 0.03910167 0.17771225 -0.13845403 -0.1533421 -0.17765863 0.1585768 0.13908589 0.27679092 -0.06970829 -0.020105097 0.070155725 0.12302232 -0.081146166 0.3505046 -0.35971427 0.30195665 0.051350243 -0.145377 -0.017573263 -0.19047652 0.19933003 -0.16594501 -0.04246459 0.26553476 0.24268931 0.18550839 0.10802489 0.22476472
42 -0.06020949 0.021693673 -0.058786023 0.002447845 -0.28230068 0.0099738585 0.29335725 0.08882095 0.0762194 -0.07289183 -0.185807 0.28272277 0.14497004 0.027695246 -0.026593216 0.17039378 0.120149225 0.060201883 -0.09153729 -0.13701992 -0.042866006 0.0047999076 -0.4359259 -0.123844266 0.47822544 -0.055793215 0.22909683 -0.019865438 0.016536858 -0.10339191 0.061909575 -0.20080557 0.17159581 0.14619401 0.06844581 -0.0128454445 0.037158784 0.17919508 -0.14774159 -0.14839117 -0.18306863 0.16557059 0.1436452 0.2758649 -0.061787963 -0.015761413 0.07711438 0.12222329 -0.09457883 0.33539858 -0.36033344 0.29562604 0.058264732 -0.15718326 -0.010372578 -0.19314271 0.18541265 -0.17017408 -0.04204093 0.26475418 0.24191837 0.17649122 0.11459025 0.21535856
49 -0.05743877 0.02216058 -0.06883667 0.018216072 -0.29014868 0.01515033 0.30102286 0.08890053 0.07472603 -0.08007299 -0.18039888 0.28294608 0.14108048 0.029539334 -0.0356209 0.16978416 0.13026632 0.07442073 -0.08378781 -0.14154848 -0.044018526 0.0055087097 -0.44169775 -0.11349725 0.47899923 -0.051415 0.22845975 -0.03079902 0.00992836 -0.0996382 0.051324677 -0.20014413 0.17461523 0.15521191 0.069677465 -0.015516021 0.045894586 0.1768877 -0.14924967 -0.14484574 -0.19193193 0.16293459 0.15045983 0.27788067 -0.06835953 -0.0072041526 0.06600643 0.117964186 -0.09041603 0.34062204 -0.3503521 0.28586444 0.0626822 -0.14545766 -0.025519017 -0.18317649 0.19666658 -0.16253915 -0.05240557 0.2670274 0.25098315 0.19163847 0.10451268 0.22261436
54 -0.056351934 0.020235077 -0.06097477 0.011677416 -0.30350348 0.008585069 0.29996562 0.09053661 0.074127845 -0.077566616 -0.18620989 0.29410043 0.13937002 0.023494413 -0.030245716 0.16029938 0.13174033 0.07234641 -0.085530415 -0.1315424 -0.04545217 0.014715784 -0.43841755 -0.113190725 0.47170904 -0.05358188 0.21386273 -0.01770889 0.025929583 -0.1015757 0.053794038 -0.20154773 0.1583919 0.15328826 0.070968054 -0.02157809 0.034503628 0.16895439 -0.14745477 -0.14988542 -0.17190668 0.15542044 0.14495742 0.27810833 -0.06726635 -0.02018222 0.07290829 0.121449724 -0.07831293 0.35222137 -0.35150582 0.30020657 0.049241565 -0.1574072 -0.024590427 -0.19259407 0.20912252 -0.17279093 -0.03950259 0.26832914 0.24837677 0.18622698 0.103126176 0.22676636
46 -0.063503996 0.014221232 -0.060131688 0.0012623301 -0.29724246 0.0066771214 0.29466107 0.09642359 0.07178855 -0.0871187 -0.18188487 0.2959887 0.14534271 0.032832764 -0.035634354 0.16821073 0.12980019 0.07469362 -0.09096708 -0.12254064 -0.041412823 0.014532911 -0.441383 -0.10769149 0.47216073 -0.052099787 0.2241468 -0.01849209 0.02151074 -0.10152802 0.0444172 -0.20390283 0.16187693 0.15748927 0.072191425 -0.018763978 0.036640648 0.16804448 -0.15087815 -0.14747879 -0.1888802 0.15342048 0.13507538 0.28984785 -0.060431786 -0.016550807 0.06696485 0.12910788 -0.07859267 0.3495826 -0.3437288 0.29871267 0.056295794 -0.14978309 -0.010470706 -0.18105562 0.204993 -0.1716379 -0.044938054 0.26154286 0.24165675 0.17904983 0.10979796 0.22896661
57 -0.0633702 0.01625021 -0.06800816 0.013222958 -0.28749338 0.003020585 0.30402863 0.0821115 0.08043402 -0.08074705 -0.1902442 0.29725823 0.15609817 0.029639488 -0.028396046 0.1655553 0.13477169 0.06375686 -0.077032164 -0.13882117 -0.044506725 0.019978974 -0.4369405 -0.115153946 0.47500423 -0.049395267 0.22450933 -0.033571802 0.008257306 -0.1014922 0.054314114 -0.20753211 0.16279973 0.14964649 0.07194107 -0.019628352 0.031576183 0.17637245 -0.14331807 -0.14866847 -0.18765017 0.16273315 0.14813162 0.27501646 -0.06347043 -0.007769823 0.07012364 0.11276119 -0.08340521 0.34618136 -0.3499003 0.29651356 0.051447928 -0.14687605 -0.01988484 -0.19328511 0.19477163 -0.16305478 -0.047032893 0.2639504 0.2572162 0.19108124 0.1120029 0.21883935
68 -0.058192905 0.012080322 -0.06347731 0.021079667 -0.28761914 0.00649387 0.3002951 0.09156954 0.086740404 -0.07610144 -0.17847608 0.27491748 0.14236301 0.026433382 -0.030692378 0.16349736 0.1258289 0.06471902 -0.08359229 -0.13796508 -0.046964247 0.0073100347 -0.4289664 -0.11426123 0.4737 -0.052963775 0.21023515 -0.034672134 0.0073949858 -0.10234094 0.04564162 -0.19130784 0.16031422 0.14021713 0.074942395 -0.0073338617 0.0371934 0.1811055 -0.14521436 -0.1587435 -0.18627839 0.16354579 0.1424708 0.27567482 -0.061927322 -0.016519595 0.07011622 0.12940578 -0.081392996 0.34437823 -0.35023227 0.28699318 0.05054349 -0.15392514 -0.0156671 -0.18286416 0.18922049 -0.17042072 -0.043905478 0.27115795 0.2453056 0.19403024 0.101435825 0.21946412
10 -0.061920606 0.009015864 -0.058815937 0.0067919972 -0.30320942 0.018365594 0.30821782 0.091585115 0.09156806 -0.07750807 -0.17784351 0.29129308 0.1453903 0.03674376 -0.024493003 0.16523014 0.1306586 0.07366774 -0.08580543 -0.13012503 -0.034936182 0.005617533 -0.43678826 -0.106128044 0.4775645 -0.06027936 0.21543597 -0.020710586 0.026356747 -0.09831608 0.047534008 -0.20765892 0.16548486 0.15434396 0.06958169 -0.022705888 0.042159677 0.17556982 -0.13480286 -0.1415852 -0.18059665 0.15182154 0.1507914 0.28088012 -0.059633728 -0.006047705 0.06923371 0.12789565 -0.08456442 0.33246475 -0.340319 0.30033156 0.0408019 -0.15996467 -0.018728262 -0.17821337 0.19699377 -0.16658051 -0.045326952 0.26686248 0.2480169 0.17808472 0.10625594 0.22313443
3 -0.05841131 0.017313825 -0.0649455 0.018570496 -0.29187635 0.005504239 0.29551393 0.082246676 0.08006988 -0.07093424 -0.18333784 0.29375172 0.14697272 0.026437268 -0.030592265 0.15875332 0.13831851 0.0708996 -0.084950574 -0.12681925 -0.04983867 0.01079671 -0.4425108 -0.12047591 0.47554109 -0.06306711 0.2268628 -0.030841798 0.011215638 -0.09258225 0.05237002 -0.21035196 0.16520013 0.14780301 0.06876048 -0.02357906 0.047959328 0.18117827 -0.1411351 -0.14580776 -0.19416374 0.14982466 0.1470136 0.2809175 -0.07121886 -0.0071599176 0.082502626 0.120452814 -0.09329495 0.34967622 -0.351026 0.29437286 0.05976103 -0.1424417 -0.011804471 -0.18944624 0.19191846 -0.16465437 -0.049168732 0.264616 0.24958996 0.18451461 0.10583743 0.23267642
97 -0.07629649 0.015135063 -0.07194682 0.014908774 -0.30085343 0.00439134 0.29183224 0.08109084 0.074720636 -0.073486395 -0.1795588 0.29355454 0.13946818 0.039690003 -0.029814698 0.17099752 0.12481007 0.07332022 -0.08520051 -0.13061592 -0.03761745 0.011219841 -0.44006217 -0.12275187 0.47948945 -0.051077746 0.22041929 -0.017355628 0.016719624 -0.09495726 0.049908508 -0.19811043 0.16363132 0.15028647 0.070003256 -0.021544892 0.042905524 0.18077078 -0.14730416 -0.1547709 -0.1784578 0.16682439 0.14484753 0.28217208 -0.06706574 -0.014858684 0.07712505 0.12312812 -0.08221978 0.34993917 -0.3537029 0.29576063 0.04505598 -0.15345383 -0.007523633 -0.1871168 0.18951525 -0.17719069 -0.046040107 0.2589833 0.25514564 0.19242002 0.1161757 0.22159842
35 -0.072139464 0.019040078 -0.05532157 0.00310259 -0.30180255 0.016707523 0.3092036 0.08070941 0.086344615 -0.07698501 -0.18888395 0.2944108 0.14671414 0.027440742 -0.030813044 0.16814037 0.13815348 0.073704734 -0.07642515 -0.12863018 -0.035461836 0.01820767 -0.43714148 -0.1185946 0.48327217 -0.06282436 0.23061678 -0.03308173 0.010614185 -0.10698551 0.057390276 -0.19711639 0.16011164 0.14511724 0.06895153 -0.020466628 0.03628737 0.17521612 -0.15104555 -0.15105431 -0.1872675 0.16226855 0.1437722 0.2761001 -0.06232462 -0.011745014 0.07067135 0.11761699 -0.0782973 0.35033014 -0.34884766 0.29367927 0.051367924 -0.14679752 -0.010806737 -0.1962024 0.19865508 -0.16711389 -0.041333403 0.2685023 0.25514528 0.187448 0.115727775 0.2182535
71 -0.064313725 0.020328425 -0.062345207 0.011175598 -0.28700948 0.017190749 0.29620463 0.08561689 0.07503114 -0.07408675 -0.18662295 0.279016 0.14095603 0.028187165 -0.025730817 0.16786501 0.11912633 0.07308061 -0.08751685 -0.1411526 -0.05013462 0.011613087 -0.4431581 -0.11366604 0.48070133 -0.06144591 0.21435495 -0.031514544 0.019787833 -0.10667749 0.0490694 -0.20772748 0.15705718 0.1517136 0.07447457 -0.024787445 0.051214624 0.17383617 -0.13398094 -0.14625177 -0.18259081 0.15550312 0.13530135 0.279398 -0.06802269 -0.00873148 0.0741967 0.12876679 -0.09085609 0.34238422 -0.3520302 0.2943083 0.05732287 -0.14496018 -0.008255386 -0.19398773 0.19607782 -0.16291022 -0.049869988 0.26559964 0.25135353 0.18889487 0.11561386 0.2345633
2 -0.06028849 0.010163433 -0.063664295 0.014272388 -0.29208043 0.017173203 0.30922878 0.08405444 0.08779267 -0.07890601 -0.18952611 0.29144925 0.15119885 0.024431184 -0.02231819 0.1703361 0.12958154 0.059588265 -0.07923496 -0.12534289 -0.04277406 0.0022355812 -0.44055825 -0.120404616 0.47457927 -0.056913663 0.22914863 -0.026905367 0.0099152895 -0.10511871 0.054676373 -0.19334352 0.17030674 0.14969774 0.06214633 -0.02262883 0.03864293 0.17215356 -0.14426944 -0.15320836 -0.1843698 0.15679687 0.14881617 0.28237143 -0.073678665 -0.008386048 0.076549016 0.12001953 -0.08135323 0.34949404 -0.34759834 0.30054796 0.050112978 -0.15399775 -0.014676957 -0.18773228 0.18832919 -0.16389796 -0.04492824 0.2548763 0.2447113 0.19244906 0.111334294 0.23232071
87 -0.06196786 0.009980821 -0.064228185 0.013976094 -0.2893843 0.012650902 0.28345814 0.09109729 0.06881615 -0.078224376 -0.17392257 0.2852566 0.14275229 0.018503692 -0.029116742 0.15600495 0.1322461 0.065193355 -0.08794187 -0.13078183 -0.045144565 0.020621248 -0.436778 -0.111714 0.46618572 -0.051238984 0.22291301 -0.02277853 0.017535754 -0.10039326 0.043661714 -0.2027543 0.16271907 0.1442665 0.07175758 -0.025766544 0.041269056 0.16702849 -0.14516999 -0.14911693 -0.17824136 0.15958567 0.14043166 0.28311634 -0.07112 -0.0086523285 0.08024044 0.119604856 -0.08343099 0.34602046 -0.35241106 0.289398 0.05301092 -0.13600199 -0.015104528 -0.18522495 0.1987345 -0.16366343 -0.03636272 0.26535243 0.23628408 0.1860665 0.11030075 0.22709899
69 -0.060631678 0.017044373 -0.067359276 0.010037913 -0.2954529 0.01534509 0.31058058 0.08373203 0.08654753 -0.08374986 -0.18695126 0.2884453 0.14119741 0.030746527 -0.029794516 0.15597014 0.12350165 0.059863035 -0.08779274 -0.12486647 -0.044546116 0.0032015184 -0.44333458 -0.107054256 0.47140977 -0.048217136 0.22164528 -0.03129232 0.01884028 -0.09252127 0.06122212 -0.19993427 0.16353449 0.1403115 0.07679136 -0.01343676 0.03471938 0.16956091 -0.14947636 -0.1430029 -0.17818731 0.15615891 0.13933256 0.2880298 -0.06423186 -0.008126851 0.07191667 0.12325291 -0.07907229 0.34635448 -0.35422307 0.29588655 0.056118682 -0.15328726 -0.021059994 -0.19098927 0.18656652 -0.17299081 -0.04920303 0.26194558 0.25196126 0.18176755 0.09750531 0.2210049
90 -0.060684912 0.0071880403 -0.060107738 0.007605303 -0.29556394 0.010995272 0.3018728 0.08282791 0.073981166 -0.082300104 -0.1910194 0.29483175 0.15032537 0.036502466 -0.029017981 0.1664725 0.13721143 0.06438868 -0.074498065 -0.1390181 -0.03573229 0.0076497816 -0.44841167 -0.11661616 0.46974808 -0.06018399 0.2169469 -0.031467803 0.010690705 -0.10282201 0.06085793 -0.19522552 0.16636547 0.14542454 0.068173744 -0.023669707 0.040836785 0.16883169 -0.13752295 -0.14287008 -0.18695797 0.16496816 0.14563365 0.2854001 -0.061680447 -0.018681092 0.078542165 0.12432629 -0.081622034 0.34474492 -0.35232 0.2898441 0.044790555 -0.15814933 -0.013150593 -0.18094394 0.19801192 -0.17339097 -0.039260145 0.27103475 0.2505635 0.1962078 0.11041119 0.23448254
11 -0.064263314 0.0077737113 -0.07115349 0.0011296675 -0.2953278 0.00027491088 0.28651163 0.095113106 0.07301173 -0.071746595 -0.17555323 0.28875157 0.15247181 0.03349746 -0.022991555 0.148324 0.12761043 0.066903345 -0.09290821 -0.13298832 -0.04449918 0.012238409 -0.42515442 -0.124928586 0.4745198 -0.056919407 0.22596322 -0.021060158 0.028658917 -0.09106737 0.042659067 -0.20193748 0.16469905 0.14443636 0.08064131 -0.02412914 0.046379894 0.17686877 -0.1314609 -0.14593588 -0.17556278 0.15520005 0.13830785 0.272389 -0.073934846 -0.014543875 0.073184706 0.1266015 -0.085101254 0.3335652 -0.34839988 0.29576528 0.05727689 -0.14619745 -0.013875747 -0.18033932 0.19603263 -0.16999942 -0.044124994 0.2559914 0.24252406 0.17591324 0.11025061 0.22054765
58 -0.074594095 0.007534939 -0.062647566 0.0147221405 -0.29994014 0.007842106 0.3063109 0.084638424 0.088148855 -0.08193632 -0.17945607 0.2928364 0.1459975 0.031715967 -0.025411159 0.16464894 0.122175686 0.0683004 -0.07847476 -0.14221866 -0.038925856 0.008790002 -0.43716192 -0.1166607 0.47939277 -0.05697196 0.22078136 -0.03016468 0.01333258 -0.091648206 0.044755623 -0.20268893 0.17296565 0.15293117 0.0722044 -0.0070101456 0.046291236 0.17580795 -0.14329945 -0.14721677 -0.18873286 0.15829982 0.14626138 0.2717636 -0.06870626 -0.006744641 0.06998939 0.113012224 -0.078978196 0.33990932 -0.3571321 0.2837529 0.05534379 -0.15810865 -0.016428795 -0.18931846 0.18198547 -0.17497951 -0.050814785 0.27062616 0.24702743 0.18834534 0.11009742 0.2277763
55 -0.06366824 0.016342778 -0.0668282 0.01134614 -0.28901207 0.0076253037 0.29159132 0.08818853 0.08525157 -0.08081201 -0.18032931 0.28229302 0.14183436 0.024687793 -0.02692011 0.16007873 0.12907504 0.07197936 -0.08054831 -0.13226582 -0.045133974 0.017807683 -0.4419079 -0.11883472 0.47697467 -0.05639782 0.2127922 -0.033853155 0.018216986 -0.093905024 0.04551301 -0.19157869 0.16735286 0.14900576 0.06993707 -0.017745191 0.04069768 0.17724207 -0.13909192 -0.15293078 -0.18128261 0.16509083 0.1499529 0.28379568 -0.07111872 -0.008286476 0.071697176 0.12734362 -0.08920254 0.33304858 -0.3537709 0.29047456 0.04683467 -0.1580435 -0.024778526 -0.18862018 0.18574788 -0.16201906 -0.048088666 0.2583979 0.25190714 0.19082534 0.10405891 0.22049785
9 -0.071108945 0.01621244 -0.059632726 0.019168105 -0.29609913 0.0050645554 0.29093936 0.08694196 0.07501249 -0.07934338 -0.17580327 0.2930139 0.1384335 0.02512126 -0.022204302 0.16416745 0.13101864 0.070753165 -0.09590272 -0.13860875 -0.04280093 0.017976409 -0.44136053 -0.113939054 0.47458854 -0.053546943 0.22213261 -0.032991454 0.01424106 -0.100994416 0.045178685 -0.19742753 0.1678316 0.15655471 0.07723251 -0.016938671 0.04728518 0.18092132 -0.13752863 -0.14959635 -0.17996204 0.16169496 0.13315375 0.27531487 -0.07285566 -0.013524123 0.07102838 0.12730683 -0.089902826 0.35081768 -0.34996498 0.28783596 0.051261712 -0.15185744 -0.01892222 -0.18402776 0.20283353 -0.16698813 -0.047628004 0.2708791 0.2461346 0.1859791 0.10173171 0.23388483
44 -0.067309424 0.005371997 -0.06584898 0.0040142373 -0.29701725 0.0019598876 0.29742363 0.092488095 0.07728457 -0.08361154 -0.18389282 0.28342158 0.14931265 0.03624133 -0.030522374 0.16038331 0.12450183 0.060460836 -0.082192324 -0.13930134 -0.03535701 0.011084176 -0.44032583 -0.1102469 0.47288427 -0.06259159 0.2218245 -0.035340223 0.0153606525 -0.09876429 0.04563327 -0.19437903 0.17153716 0.15789595 0.07179981 -0.014429126 0.03486733 0.17667586 -0.14154358 -0.14505519 -0.18657644 0.15911737 0.14588678 0.27616206 -0.06383255 -0.008809904 0.07922918 0.117215484 -0.08517637 0.35068122 -0.3518812 0.2870401 0.044638645 -0.15601613 -0.023317916 -0.18518493 0.18704526 -0.16745122 -0.04454019 0.26582938 0.25460643 0.18739066 0.10253095 0.22486798
4 -0.06487467 0.006165949 -0.063252956 0.015933609 -0.29533523 0.020762179 0.30631524 0.088697 0.08487118 -0.07078854 -0.17777863 0.28542006 0.14786638 0.02288491 -0.0319945 0.16664714 0.12285091 0.06498361 -0.08152432 -0.13582145 -0.03810793 0.007888427 -0.43316472 -0.11285969 0.4805241 -0.057119668 0.22600035 -0.022298606 0.017573299 -0.10002335 0.059271887 -0.20662354 0.17213249 0.15598997 0.06893438 -0.019473609 0.046542883 0.18229608 -0.13885249 -0.13907988 -0.183111 0.16534092 0.13665335 0.2733301 -0.06382118 -0.0065510403 0.07149894 0.122840405 -0.083691776 0.3484299 -0.35682023 0.29703897 0.055382933 -0.13927339 -0.022476232 -0.18532617 0.19457674 -0.16918135 -0.043280285 0.26369834 0.25108358 0.17608415 0.1129309 0.2164273
59 -0.065042965 0.023022482 -0.05946893 0.009719593 -0.28794816 0.014891324 0.29816794 0.09229865 0.080112346 -0.07628273 -0.17698404 0.2847413 0.1514713 0.026137142 -0.02129551 0.15978388 0.123917304 0.07456457 -0.078929774 -0.13849139 -0.040302094 0.011991127 -0.4403466 -0.10981765 0.47272703 -0.057648282 0.22326449 -0.029921977 0.025784297 -0.10523903 0.057530016 -0.18982376 0.16074342 0.14534354 0.07674094 -0.022392504 0.041256446 0.1725292 -0.14482535 -0.15105376 -0.17699607 0.14713925 0.14832403 0.28690523 -0.068448946 -0.008957581 0.06933889 0.12182156 -0.082085215 0.3487868 -0.34783572 0.29548353 0.058615133 -0.14467889 -0.013605043 -0.18682078 0.20333 -0.1682663 -0.042579085 0.26468074 0.24542473 0.17853728 0.11033588 0.22255532
26 -0.0663051 0.010988101 -0.07137797 0.0057909535 -0.2837609 0.015854333 0.29705584 0.08188168 0.075621165 -0.08818462 -0.18787761 0.28335223 0.14570174 0.027736815 -0.029432256 0.16024499 0.1291314 0.06474481 -0.08346583 -0.1390146 -0.040773388 0.012621684 -0.43367615 -0.11779539 0.48228082 -0.052338134 0.22764133 -0.027239958 0.02014797 -0.10035467 0.057584394 -0.20535998 0.15599504 0.14371261 0.07819987 -0.013561949 0.038546894 0.16896293 -0.1334144 -0.14748399 -0.178713 0.15842408 0.14072067 0.27314505 -0.06591024 -0.009030634 0.07005339 0.114604644 -0.076893255 0.3473701 -0.35689747 0.29591125 0.050808184 -0.15113233 -0.020140348 -0.18411493 0.18642645 -0.16280234 -0.041731033 0.25897262 0.24048641 0.17667459 0.11349338 0.22412434
21 -0.06465108 0.014069431 -0.06380137 0.00585192 -0.2953367 0.017790863 0.30472827 0.09104139 0.0803913 -0.084069416 -0.18822612 0.2846389 0.15099885 0.033819314 -0.021972325 0.16397402 0.12873769 0.07190112 -0.082015336 -0.12289152 -0.039926182 0.0070585506 -0.43983537 -0.11482513 0.47869706 -0.05195848 0.22031812 -0.033812586 0.018937841 -0.096919306 0.057584602 -0.2067119 0.15904292 0.14281876 0.06825655 -0.023627669 0.03737234 0.18338524 -0.13699104 -0.14303815 -0.17980342 0.14851816 0.15338083 0.28134516 -0.069627866 -0.019790148 0.07540272 0.12811269 -0.08481465 0.33729592 -0.3533162 0.2876035 0.048525583 -0.15157388 -0.015510125 -0.190496 0.1907355 -0.16895469 -0.049998786 0.2565686 0.2532616 0.17590451 0.09907557 0.22682141
17 -0.06853275 0.0075475117 -0.058473215 0.017833816 -0.28569004 0.0054043396 0.30334103 0.08851062 0.08288381 -0.06569937 -0.17024875 0.29136017 0.15248945 0.034766093 -0.02656585 0.15906556 0.12992379 0.061868716 -0.087052725 -0.13098358 -0.037020754 0.005629431 -0.43219787 -0.12539205 0.4671614 -0.055909622 0.22772893 -0.033151478 0.015378947 -0.0958482 0.054777462 -0.19703682 0.17429046 0.1437838 0.07439441 -0.011773353 0.032357033 0.1787911 -0.13337477 -0.14295565 -0.18774092 0.16603334 0.14401232 0.280921 -0.07271171 -0.010855681 0.08215296 0.113721974 -0.09689309 0.34567466 -0.35036588 0.2895278 0.04938516 -0.14278881 -0.027162848 -0.18651436 0.2002926 -0.1620382 -0.042762954 0.2599278 0.2481794 0.17964296 0.102016315 0.21771742
66 -0.06571768 0.01922134 -0.059648123 0.0026161887 -0.297972 0.0107581625 0.2907642 0.081173964 0.0793888 -0.0719999 -0.18052997 0.29062745 0.14203031 0.029778454 -0.033177998 0.16886151 0.12694633 0.07053857 -0.09039944 -0.1367217 -0.037851248 0.01573606 -0.4290982 -0.123534076 0.4682745 -0.054092687 0.21711229 -0.023475505 0.022265153 -0.10510787 0.05875329 -0.20209797 0.15940093 0.15247068 0.07225633 -0.017592613 0.040371962 0.17833304 -0.14167045 -0.15189154 -0.18746297 0.1527886 0.13048312 0.286068 -0.06629969 -0.0028398726 0.07520086 0.115120426 -0.08053016 0.3375658 -0.34715956 0.28937516 0.046424095 -0.1412623 -0.023840182 -0.19370346 0.1960202 -0.16942014 -0.045968108 0.25696042 0.24743938 0.18823257 0.11130658 0.21546705
38 -0.06858757 0.0072499462 -0.056291543 0.014258216 -0.29944682 0.015487136 0.30377814 0.08233279 0.07753003 -0.073342904 -0.18766929 0.2827712 0.15067784 0.034416467 -0.029031212 0.16862753 0.12290273 0.06852405 -0.081754625 -0.14185686 -0.036662534 0.01886203 -0.44516626 -0.117340334 0.46607438 -0.044698182 0.22161043 -0.021039305 0.011527188 -0.09461983 0.04455681 -0.19412343 0.16203609 0.15466751 0.066697255 -0.016708143 0.034604717 0.16684635 -0.14667003 -0.15555373 -0.17545024 0.15733892 0.14399247 0.27164093 -0.0678228 -0.012005018 0.08047096 0.12706487 -0.08947467 0.34907067 -0.34567937 0.290008 0.049180314 -0.16003992 -0.014919681 -0.1854296 0.20083609 -0.1684467 -0.038808204 0.27250242 0.24627835 0.19364223 0.11254221 0.23175426
12 -0.06285133 0.02100921 -0.072407916 0.008309399 -0.3013804 0.009381801 0.30698234 0.08449015 0.076752156 -0.08144525 -0.18010214 0.29359075 0.14980122 0.026353506 -0.026793696 0.1545938 0.12734169 0.06715168 -0.08990665 -0.13093059 -0.035204954 0.010930622 -0.44139028 -0.117359005 0.4812836 -0.049723968 0.21755789 -0.030606473 0.01475025 -0.10351594 0.058508653 -0.1967724 0.1615892 0.14170916 0.07733074 -0.023374487 0.03992839 0.17205165 -0.14114682 -0.14129443 -0.17489135 0.16220884 0.1483617 0.279546 -0.0563889 -0.005170642 0.079712234 0.12244393 -0.0918893 0.33852962 -0.35713676 0.28382516 0.047920883 -0.15978926 -0.027015459 -0.18709604 0.1930134 -0.17585541 -0.041797776 0.25702092 0.25423977 0.18829921 0.10082474 0.22684206
47 -0.07084918 0.018627863 -0.07064626 0.0048605567 -0.29234296 0.016244743 0.30217287 0.09522313 0.09105298 -0.081864916 -0.1774489 0.2863967 0.14092909 0.025255682 -0.030401638 0.16928175 0.121746406 0.061082523 -0.0906346 -0.1355957 -0.045001373 0.0072920285 -0.4352236 -0.11912539 0.4804165 -0.05120155 0.21291745 -0.022474645 0.018327076 -0.1048444 0.05882056 -0.20120826 0.16752268 0.15562695 0.0676024 -0.018159311 0.04275116 0.17163704 -0.15260822 -0.14596713 -0.17968684 0.16961738 0.13770893 0.27943957 -0.063924305 -0.0099536525 0.078317426 0.12654513 -0.09160975 0.34712568 -0.3570719 0.29393992 0.045891758 -0.14546621 -0.028485121 -0.18111199 0.19325624 -0.1760317 -0.04112906 0.2572648 0.2449412 0.17719969 0.1064102 0.21882993
92 -0.07387987 0.007512268 -0.064440735 0.012811988 -0.29874396 0.016923873 0.2982256 0.09439985 0.07827049 -0.080628194 -0.1875646 0.28943425 0.14460303 0.025418261 -0.03158003 0.16541408 0.12254436 0.061700284 -0.08842454 -0.13700166 -0.048028238 0.004850997 -0.43386096 -0.120358534 0.47421822 -0.054566007 0.21216932 -0.024875388 0.010235567 -0.097943455 0.05634818 -0.20326592 0.15580672 0.1403208 0.06770692 -0.024829721 0.041972686 0.16814747 -0.14474438 -0.15064734 -0.1876067 0.1588548 0.13467552 0.28449747 -0.072561964 -0.013800833 0.076521665 0.12166246 -0.083182946 0.33894846 -0.35817987 0.29727986 0.054276094 -0.15167196 -0.015057537 -0.19354501 0.193652 -0.16058065 -0.053471915 0.2581476 0.25034186 0.1920279 0.1145765 0.23282789
80 -0.057339393 0.018349973 -0.05529868 0.01929329 -0.30364245 0.0111166 0.29388648 0.082503796 0.08429988 -0.0783222 -0.18063167 0.28255373 0.13894132 0.023734162 -0.027204474 0.15779501 0.13321948 0.06375105 -0.07673789 -0.13983507 -0.04187917 0.01953122 -0.44348952 -0.12608403 0.46988893 -0.063046426 0.21561396 -0.025324801 0.020006066 -0.09317918 0.06014309 -0.19598886 0.15899825 0.15939495 0.06969032 -0.009330341 0.038476247 0.1759809 -0.14328372 -0.15640551 -0.18786928 0.15626101 0.14661305 0.29064018 -0.059464186 -0.0049585034 0.066576794 0.12318506 -0.08300714 0.3497867 -0.35524073 0.29658076 0.050643794 -0.14914227 -0.016750539 -0.17989539 0.19372691 -0.17161189 -0.047013685 0.2687397 0.24133217 0.1821477 0.112571366 0.22165845
79 -0.07437984 0.02076594 -0.06168993 0.0065907314 -0.29277536 0.008672392 0.30765146 0.08382303 0.08077947 -0.0860661 -0.18486713 0.27925292 0.15273006 0.030937824 -0.019409474 0.15813173 0.13201913 0.05723645 -0.08573165 -0.1412847 -0.039755173 0.017867414 -0.44355804 -0.12568533 0.47510266 -0.06133152 0.21422233 -0.025754834 0.010067259 -0.110129215 0.049009737 -0.19946565 0.16073242 0.15237352 0.069862045 -0.0161871 0.040137615 0.18173455 -0.15153497 -0.15765095 -0.184641 0.16342984 0.13388272 0.2842345 -0.065803915 0.0003032884 0.07293759 0.12879194 -0.08836669 0.34795335 -0.34808227 0.2952178 0.051435996 -0.14736997 -0.025842024 -0.18996307 0.19243848 -0.16667716 -0.039191067 0.25459033 0.25035125 0.18390386 0.10744195 0.22034249
60 -0.06800386 0.0063106925 -0.06837346 0.0142337335 -0.29348698 0.014784985 0.30638805 0.0962774 0.08348348 -0.07803605 -0.17956528 0.28710696 0.15295601 0.031595707 -0.032404073 0.16096883 0.12470166 0.059298106 -0.085494615 -0.12803222 -0.046043523 0.022324082 -0.4390432 -0.114263274 0.4651263 -0.04735286 0.21450558 -0.026487965 0.014149454 -0.1003111 0.044413738 -0.19252479 0.15466696 0.14909792 0.078549616 -0.017120944 0.04046683 0.17265733 -0.14578082 -0.15461223 -0.18871552 0.15245953 0.13565531 0.27865314 -0.060445696 -0.01611797 0.06578485 0.11926203 -0.08220666 0.35007572 -0.34735876 0.2912888 0.052325055 -0.14710245 -0.009850664 -0.18970694 0.18460836 -0.16185647 -0.04064609 0.26298872 0.24385902 0.19321851 0.10716869 0.23665898
19 -0.067021154 0.023992704 -0.06903522 0.0071232584 -0.29194483 0.013000063 0.29639727 0.08297873 0.08062717 -0.08374132 -0.17937064 0.28049898 0.14948979 0.030531965 -0.033565894 0.16298488 0.124770604 0.06511562 -0.08033729 -0.13112096 -0.038007364 0.016200343 -0.43590704 -0.11854619 0.47578728 -0.05738067 0.22513059 -0.024507066 0.024294056 -0.099156596 0.052647643 -0.19839005 0.16673216 0.15481056 0.06633683 -0.025014402 0.047377728 0.16914682 -0.14304575 -0.1423781 -0.18096319 0.16303349 0.13920386 0.2858697 -0.06244032 -0.0066354177 0.07196399 0.1286866 -0.08019506 0.3401245 -0.35565612 0.29112437 0.055993866 -0.14452888 -0.014895937 -0.1881948 0.20152137 -0.16964152 -0.04007788 0.25150168 0.2509767 0.18199673 0.10640308 0.22916213
75 -0.065378234 0.009306584 -0.06255007 0.002273337 -0.3004309 0.012617146 0.3032984 0.08778708 0.087769374 -0.08294701 -0.1889317 0.2945109 0.14359479 0.0343558 -0.032311294 0.15694214 0.1265921 0.058966175 -0.079013295 -0.13706776 -0.04470599 0.01932826 -0.4414765 -0.113232926 0.47468776 -0.056761872 0.2242605 -0.030876582 0.012942069 -0.0986076 0.05668717 -0.19674972 0.16017511 0.15356506 0.06502645 -0.009954777 0.03828343 0.16664232 -0.14682525 -0.15268573 -0.1779079 0.15561779 0.14788488 0.28193355 -0.069153324 -0.010757458 0.07555741 0.11255438 -0.08818691 0.35111356 -0.34665856 0.30236995 0.059495583 -0.14249519 -0.02670262 -0.183377 0.19713935 -0.17261513 -0.03741702 0.26920918 0.23866464 0.19053456 0.101955354 0.21551718
72 -0.070251845 0.013885003 -0.06140591 0.01325752 -0.2987728 0.010460825 0.2979956 0.09074488 0.075851925 -0.07611154 -0.17584805 0.28641465 0.13979867 0.026383454 -0.027651226 0.16092007 0.13439898 0.07390458 -0.09040516 -0.14014252 -0.04674173 0.006052726 -0.4443408 -0.122498624 0.4845249 -0.052430585 0.23116547 -0.025553485 0.008589764 -0.10100412 0.054303948 -0.1992746 0.1678423 0.156874 0.07365 -0.013822904 0.034117512 0.1748178 -0.14967164 -0.1522176 -0.19062515 0.16533294 0.145442 0.2882249 -0.062416088 -0.00365316 0.07350191 0.11420659 -0.09040271 0.35055953 -0.35405546 0.2911076 0.05908136 -0.14485765 -0.026853068 -0.18383183 0.20569092 -0.17159502 -0.036301337 0.27051005 0.25073057 0.19437605 0.10208634 0.22550984
67 -0.07311343 0.016861044 -0.066068776 0.008378813 -0.2894529 0.010653411 0.30362836 0.09069632 0.08685357 -0.072552875 -0.19292744 0.28921962 0.14295271 0.03191944 -0.027691005 0.1686445 0.13206609 0.07440757 -0.07491529 -0.13376753 -0.038003 0.022916596 -0.44284475 -0.11220488 0.46914437 -0.06300196 0.21585014 -0.027405052 0.014520112 -0.101179555 0.0576575 -0.19654113 0.16099508 0.15412834 0.059231315 -0.017884914 0.03328563 0.17374207 -0.13016051 -0.15551417 -0.18876457 0.16691588 0.14087641 0.27371976 -0.06774567 -0.017679334 0.07549339 0.10859228 -0.07854261 0.34168914 -0.35210758 0.28610924 0.05327387 -0.15700264 -0.0217092 -0.18239486 0.18638931 -0.16649011 -0.05027123 0.26217157 0.25068587 0.18562968 0.10404575 0.22157623
62 -0.06989025 0.01742067 -0.063344836 0.0047319382 -0.30234885 0.0039067706 0.2971844 0.08800068 0.08424316 -0.08824621 -0.1856869 0.2910934 0.15134928 0.02482675 -0.028984763 0.16171278 0.12844947 0.06482822 -0.08347167 -0.12459787 -0.037304156 0.02018735 -0.43160287 -0.11929355 0.4760928 -0.05346712 0.21768303 -0.02589843 0.018363854 -0.102187485 0.047395173 -0.20163596 0.1528435 0.14991297 0.065489404 -0.025562352 0.037173174 0.16831864 -0.14555591 -0.14915435 -0.17501119 0.16760159 0.14473617 0.2690577 -0.07247605 -0.020602323 0.07179056 0.12567101 -0.08465173 0.34668916 -0.34508044 0.30172813 0.060198475 -0.1432474 -0.021481307 -0.18921904 0.2012958 -0.17255464 -0.047567155 0.27062172 0.23867656 0.18694556 0.114653304 0.22580035
61 -0.061897554 0.009323297 -0.059830826 0.0019335394 -0.2882457 0.004702577 0.2933968 0.095140286 0.07833663 -0.08337401 -0.18392001 0.29263052 0.13747908 0.022764934 -0.020658141 0.16856523 0.1261479 0.06161422 -0.094565146 -0.12940182 -0.05324759 0.014591281 -0.44206595 -0.10914156 0.46491262 -0.04501284 0.21907784 -0.026224183 0.022466948 -0.0940098 0.061978456 -0.18912697 0.16010788 0.15290852 0.07668805 -0.024027193 0.03422569 0.16950656 -0.13761508 -0.13837147 -0.18486157 0.16201608 0.1481926 0.280822 -0.07168596 -0.01717965 0.08342905 0.119982325 -0.08860865 0.3506422 -0.36237794 0.29670385 0.04910618 -0.15607996 -0.026964134 -0.18687083 0.19506949 -0.1727283 -0.0466182 0.2564489 0.25059742 0.17956233 0.10923887 0.21964942
81 -0.05629574 0.020509552 -0.06815703 0.0043144054 -0.3034953 -0.00053843163 0.3001874 0.09235073 0.08260633 -0.08219245 -0.18828209 0.2902736 0.14869171 0.020157326 -0.028778248 0.15946388 0.13138933 0.06866386 -0.079958655 -0.12492255 -0.04201575 0.0029573888 -0.42165375 -0.11463358 0.477098 -0.044421468 0.21908182 -0.028678281 0.014587729 -0.102842264 0.059161853 -0.20081331 0.15390015 0.15291859 0.0706843 -0.0100941425 0.048660625 0.17527027 -0.15000969 -0.14669466 -0.19099021 0.15246761 0.14934944 0.29074857 -0.06762311 -0.005682361 0.071562804 0.11645988 -0.08990117 0.34423223 -0.34573704 0.2931972 0.057909794 -0.14412051 -0.02889038 -0.17752476 0.2022292 -0.17044304 -0.038898572 0.25726423 0.24827844 0.18171611 0.10456067 0.21327855
34 -0.07018582 0.0026015562 -0.06347153 0.00883476 -0.29485822 0.015369951 0.29346272 0.0878853 0.082937874 -0.07803227 -0.18803793 0.29016638 0.14889532 0.033740077 -0.019520866 0.16660383 0.120411485 0.06403792 -0.082552224 -0.13849677 -0.042425875 0.016921183 -0.43806043 -0.11349797 0.47260016 -0.055133123 0.2265752 -0.025021626 0.019361008 -0.095856614 0.046363086 -0.19990595 0.15645014 0.15691692 0.07342351 -0.012742378 0.044257708 0.170496 -0.14584921 -0.15561266 -0.17774133 0.16658603 0.14157106 0.27680966 -0.07105986 -0.009409214 0.07013711 0.1191082 -0.09110366 0.35205418 -0.33461374 0.28183693 0.052721623 -0.14417611 -0.019300092 -0.18968295 0.20319551 -0.17025457 -0.038087957 0.26075482 0.24654217 0.18612434 0.10325238 0.23339547
51 -0.059361424 0.013499541 -0.0645879 0.013927393 -0.29429612 0.0060948622 0.30261743 0.088929586 0.08562324 -0.07824125 -0.17990644 0.28566763 0.14718181 0.033668507 -0.024991956 0.16567932 0.13277481 0.05891856 -0.0889171 -0.12597577 -0.04245831 0.01739414 -0.43295577 -0.108004086 0.46978098 -0.049938396 0.21302596 -0.02767681 0.018581426 -0.107306145 0.06029795 -0.19089717 0.16028695 0.14071448 0.06940968 -0.01120032 0.040123224 0.17991625 -0.14231595 -0.14132982 -0.18518054 0.15660118 0.14449376 0.28629565 -0.06267229 -0.0057015144 0.07346912 0.11781903 -0.08733257 0.3408455 -0.35650253 0.28541714 0.059240878 -0.15716189 -0.019840622 -0.18481332 0.18370719 -0.17044453 -0.04420361 0.25781688 0.24965535 0.18096817 0.1017024 0.2223619
22 -0.06638099 0.01696716 -0.06504266 0.008675858 -0.29935592 0.01191102 0.30243337 0.09621071 0.07514307 -0.07232736 -0.17732225 0.28726807 0.1566317 0.034285024 -0.01744845 0.16842988 0.12268333 0.058219958 -0.080457866 -0.12886938 -0.03779157 0.005243978 -0.4353763 -0.11112027 0.47080737 -0.053635083 0.21117601 -0.02082014 0.02697398 -0.10479957 0.060013182 -0.18684037 0.15516184 0.14505604 0.07490289 -0.008784176 0.03911804 0.18154392 -0.14159295 -0.14201227 -0.17760554 0.15895495 0.13926108 0.28398842 -0.071760945 -0.007945376 0.07776974 0.11903647 -0.07815251 0.33556762 -0.3513052 0.2983453 0.053184178 -0.15990815 -0.024295898 -0.18265925 0.19486395 -0.1712172 -0.04940832 0.26131094 0.24146932 0.18207362 0.115037024 0.21597362
84 -0.06972884 0.015415794 -0.06999056 0.016418252 -0.29436108 0.004501374 0.28929734 0.08210524 0.07631954 -0.08093306 -0.17367756 0.28602988 0.14349113 0.03093071 -0.025900206 0.16053921 0.12632963 0.061261605 -0.08827912 -0.13938656 -0.04481018 0.00983035 -0.44470358 -0.1217311 0.47428417 -0.05283071 0.22448885 -0.020893052 0.019568974 -0.10481188 0.052086245 -0.19861959 0.17585383 0.15570362 0.06701798 -0.024035009 0.04461118 0.17524637 -0.13374037 -0.14963368 -0.18334717 0.15508235 0.14263932 0.2730183 -0.06570766 -0.0055219326 0.07636357 0.11531329 -0.09364368 0.35060653 -0.36169705 0.2937816 0.04989685 -0.14787163 -0.024146052 -0.19298442 0.18860114 -0.1651374 -0.043301422 0.26023787 0.24100369 0.19616199 0.109415814 0.22429761
25 -0.06207901 0.0070479116 -0.06766409 0.0033687518 -0.28935096 0.005152121 0.3027401 0.09685201 0.08005764 -0.07614194 -0.18714367 0.28749594 0.14112757 0.03042236 -0.022454385 0.16083458 0.13078286 0.05851332 -0.08752035 -0.12858275 -0.041231714 0.023030665 -0.43548253 -0.12170468 0.46632308 -0.049809683 0.21504217 -0.02799789 0.016916348 -0.10800739 0.05134287 -0.20288436 0.16627166 0.13750628 0.07298295 -0.020482363 0.0401118 0.1674999 -0.14500457 -0.13997875 -0.18503214 0.16583507 0.14484736 0.28711033 -0.061925545 -0.0060769785 0.08242857 0.11668425 -0.08951062 0.34421474 -0.35098383 0.28666195 0.04591448 -0.15432951 -0.012225946 -0.18799892 0.186194 -0.16120557 -0.051173296 0.2720973 0.2473185 0.18808874 0.10368139 0.2249064
76 -0.06841059 0.022734327 -0.05884995 0.009749432 -0.30245048 -0.0034665114 0.2919103 0.08453594 0.08757253 -0.07165222 -0.1802295 0.27556252 0.1536609 0.018689211 -0.028823067 0.1670617 0.12624125 0.058874678 -0.09393983 -0.13866012 -0.046362583 0.011113459 -0.42298803 -0.1245956 0.46823248 -0.044896312 0.2263189 -0.021835763 0.01055799 -0.102796555 0.060228173 -0.2040263 0.16009484 0.13855633 0.07438628 -0.017185394 0.035885196 0.18022862 -0.1498353 -0.15152238 -0.1927327 0.16023242 0.14994827 0.2877216 -0.06477907 -0.013728883 0.07148369 0.12698932 -0.091828085 0.34111145 -0.3571426 0.29753128 0.04543665 -0.14847103 -0.02178819 -0.19413714 0.19665015 -0.15978216 -0.04452314 0.2629933 0.23955992 0.1927142 0.09821463 0.22220716
1 -0.06506312 0.012969247 -0.061997678 0.008745066 -0.2932281 0.020508101 0.29605117 0.097749814 0.075308144 -0.073572874 -0.17787075 0.2855452 0.13833849 0.028205868 -0.035048503 0.16687454 0.13016267 0.068452016 -0.07333351 -0.12871364 -0.054576732 0.01858665 -0.43446872 -0.120577104 0.4735588 -0.055719532 0.21750784 -0.03380184 0.015492778 -0.09222099 0.046626154 -0.20506786 0.15699106 0.14779082 0.07094403 -0.01743116 0.04560511 0.16321199 -0.13209724 -0.14443961 -0.17922923 0.14899985 0.1362629 0.27036455 -0.06242056 -0.002663856 0.06608107 0.12218219 -0.08352566 0.3457223 -0.34476438 0.28520155 0.04736086 -0.14319956 -0.009094411 -0.18821202 0.19268474 -0.17008494 -0.046790905 0.26334608 0.25090224 0.17528136 0.106302135 0.21713421
99 -0.062024143 0.009343625 -0.059787598 0.014796587 -0.29733336 0.015634257 0.29358926 0.09426855 0.07479059 -0.08629001 -0.19463703 0.28747004 0.14488593 0.028680572 -0.036387276 0.17115925 0.13369316 0.06512225 -0.08447338 -0.12504858 -0.044147085 0.014428093 -0.42647973 -0.12016152 0.46934584 -0.05965002 0.2194011 -0.019352272 0.022661429 -0.10290141 0.044566896 -0.1930382 0.16099007 0.15066893 0.073367976 -0.0145767005 0.042986743 0.17628424 -0.14109975 -0.15124536 -0.17262779 0.15325317 0.13632545 0.2659965 -0.054396495 -0.013802451 0.082895264 0.12925267 -0.08936641 0.34130028 -0.34439746 0.28454426 0.05483436 -0.14795756 -0.008269395 -0.19416825 0.19670315 -0.17308569 -0.046638895 0.2580803 0.24827947 0.17699946 0.11457491 0.22525279
96 -0.06038073 0.01385674 -0.06673813 0.016360303 -0.30238304 0.0127935875 0.30640543 0.089360826 0.08355791 -0.075338535 -0.1814561 0.2896065 0.15054013 0.032506354 -0.024650255 0.16525404 0.13315274 0.07600516 -0.08985454 -0.1322084 -0.0467861 0.014907482 -0.43474472 -0.12548974 0.47768012 -0.05449386 0.22299969 -0.031105114 0.023538439 -0.10849876 0.057062555 -0.18903416 0.1667986 0.15303919 0.06582684 -0.022636512 0.04299325 0.18439512 -0.14206962 -0.15731496 -0.18389174 0.15449199 0.13887572 0.29001355 -0.061196085 -0.011082393 0.072112754 0.1169399 -0.0909342 0.33631334 -0.34309244 0.28477812 0.05008643 -0.16311799 -0.02866706 -0.1784407 0.19479685 -0.15877487 -0.041581895 0.2598223 0.2532865 0.17881243 0.10451717 0.2258148
65 -0.07216476 0.00717646 -0.06142613 0.010559401 -0.29812172 0.0057016877 0.30799228 0.087425776 0.08483553 -0.08239536 -0.18350218 0.2904626 0.14945884 0.03048595 -0.025985543 0.15552345 0.1345746 0.06506991 -0.0778402 -0.12595932 -0.043547176 0.009182882 -0.43961266 -0.111763425 0.47902772 -0.0575737 0.21810284 -0.024694972 0.02534616 -0.09543275 0.05269692 -0.19701296 0.16801417 0.14814544 0.068872705 -0.02537699 0.034590468 0.1811012 -0.14772387 -0.14235458 -0.17545375 0.15871744 0.14985515 0.28651714 -0.06771471 -0.01071995 0.085465 0.12875955 -0.086481534 0.35236028 -0.3594184 0.29423505 0.041533105 -0.15060304 -0.024567759 -0.19835956 0.20281675 -0.17242761 -0.049132317 0.2588636 0.25085476 0.1854932 0.104397126 0.22853012
32 -0.062813886 0.0111482795 -0.06872718 0.0019454329 -0.28327644 0.0027376232 0.3102396 0.09033143 0.07698501 -0.08712377 -0.18321833 0.2808506 0.14558363 0.023693182 -0.030252973 0.16850577 0.123248205 0.06585418 -0.07569031 -0.13829535 -0.049294945 0.0047790455 -0.44685602 -0.12643646 0.49168557 -0.044253934 0.21990922 -0.025716072 0.011567072 -0.10219183 0.055115875 -0.20450994 0.16967614 0.14687508 0.076221414 -0.022300879 0.04448338 0.16824001 -0.13551405 -0.14970045 -0.17697755 0.16391924 0.13497534 0.27356213 -0.06834077 -0.019756183 0.081136525 0.12095641 -0.07652799 0.33994293 -0.35845962 0.29405543 0.053188138 -0.15036386 -0.027792515 -0.18733162 0.19555417 -0.16855116 -0.047279917 0.25630623 0.2552257 0.17901047 0.11260487 0.2267381
91 -0.054327473 0.014550961 -0.06602102 0.0071626557 -0.29160964 -0.00065343414 0.2974724 0.09558803 0.08504292 -0.06987176 -0.18448539 0.28641292 0.15156183 0.024425197 -0.032648593 0.15410244 0.13314551 0.057457943 -0.087762356 -0.12528741 -0.04006351 0.01623749 -0.43815202 -0.123971544 0.47419506 -0.05074031 0.21314728 -0.024187533 0.024293816 -0.09202837 0.05920653 -0.18998456 0.16817465 0.14104825 0.06362745 -0.01634098 0.04313653 0.17497498 -0.13775912 -0.14016043 -0.18591484 0.15432149 0.15133475 0.28888708 -0.07051581 -0.013437822 0.076979585 0.12594683 -0.07927422 0.33888105 -0.35861856 0.29957965 0.04506773 -0.14717706 -0.011321823 -0.18474579 0.1910456 -0.16990305 -0.04810777 0.27032113 0.24821964 0.19100094 0.101366304 0.22077177
82 -0.061474916 0.0119247995 -0.059639946 0.00880565 -0.2906885 0.003973357 0.29713705 0.0838834 0.07670751 -0.0831423 -0.17474046 0.28511047 0.150356 0.039719146 -0.028828131 0.16811699 0.123261675 0.059648722 -0.080532044 -0.1345864 -0.03571143 0.018213103 -0.4344656 -0.11169436 0.4804942 -0.05211569 0.22232068 -0.033639066 0.017045831 -0.099841535 0.051337086 -0.19787438 0.16509627 0.15411016 0.07161668 -0.026682792 0.036003042 0.17184764 -0.15175995 -0.14349288 -0.17562364 0.17145106 0.15251692 0.28668037 -0.065590255 -0.014746849 0.07316929 0.13228144 -0.0791732 0.3525197 -0.35880497 0.28894353 0.058526505 -0.15140541 -0.012156634 -0.1886273 0.19758381 -0.17500061 -0.042000886 0.2645568 0.24262762 0.1951211 0.1043807 0.235796
73 -0.05685704 0.023637386 -0.06960941 0.0066527696 -0.30265638 0.016340744 0.30368987 0.08619142 0.07333813 -0.06870077 -0.17923833 0.28888863 0.14814177 0.026982537 -0.021421185 0.15903397 0.1285817 0.059534747 -0.08556414 -0.13179092 -0.039910045 0.004062263 -0.4409661 -0.118005194 0.47679555 -0.059481956 0.21450481 -0.026126537 0.013439543 -0.10034618 0.059495814 -0.19754383 0.16833045 0.14697237 0.06895081 -0.018122125 0.049912445 0.17160846 -0.150938 -0.14489251 -0.17816605 0.16609745 0.13840207 0.28886044 -0.062063117 -0.003229933 0.07081631 0.13347203 -0.09170289 0.33536837 -0.348896 0.29604998 0.044041708 -0.1456848 -0.014181309 -0.19325495 0.20206806 -0.16609292 -0.036970813 0.25449947 0.24779369 0.18078683 0.109064415 0.23126292
33 -0.07311824 0.0060440153 -0.060998324 0.012020812 -0.30769172 0.005274057 0.29752323 0.086723626 0.07802908 -0.08259521 -0.18833461 0.28339496 0.14840226 0.027691817 -0.01893098 0.17168085 0.12626484 0.06965998 -0.08239175 -0.12694736 -0.04065323 0.009891241 -0.43216202 -0.12239207 0.47610077 -0.05721027 0.22948849 -0.030942118 0.028350556 -0.10289809 0.050385628 -0.19212177 0.16836804 0.15767747 0.07731856 -0.022226728 0.03950037 0.17624602 -0.1446638 -0.15708587 -0.1888266 0.15943019 0.14910834 0.27430734 -0.06414981 -0.011133617 0.06982954 0.12045889 -0.09480032 0.33835745 -0.33639404 0.29530033 0.05762352 -0.14746465 -0.023466408 -0.18519002 0.19845596 -0.17513159 -0.05025916 0.26799154 0.24874224 0.17146944 0.10496289 0.21889564
15 -0.07140796 0.02059617 -0.07164307 0.017760556 -0.28979442 0.0014298069 0.30786654 0.08376952 0.08004334 -0.08912324 -0.17564203 0.28934678 0.15198448 0.03171332 -0.021222156 0.1620026 0.12906548 0.06530859 -0.09306228 -0.13172741 -0.049849518 0.0047667553 -0.4283998 -0.11115624 0.4713168 -0.047123868 0.21189477 -0.032275718 0.02052827 -0.104221225 0.057102628 -0.20376416 0.16731477 0.14622404 0.07807302 -0.01142157 0.044826206 0.17480825 -0.13897921 -0.14528179 -0.17141253 0.1542397 0.14882495 0.28055772 -0.06713562 -0.011062079 0.06561398 0.13058579 -0.090802625 0.33148393 -0.34532893 0.29404736 0.046920635 -0.15483344 -0.02919167 -0.1937847 0.1897924 -0.17334734 -0.035796273 0.2580348 0.2548385 0.17897876 0.09761711 0.22887191
74 -0.06470258 0.011157668 -0.061636355 0.0020301011 -0.29512492 0.0037890023 0.29850686 0.09504181 0.08181727 -0.08205645 -0.1835785 0.29295045 0.14861472 0.027961083 -0.022126826 0.15647413 0.12274497 0.06437625 -0.077755526 -0.13680579 -0.046881303 0.022723915 -0.44123268 -0.11319641 0.48197433 -0.061607927 0.21948369 -0.031975225 0.0094563505 -0.09645405 0.04554301 -0.19653085 0.16925699 0.1471111 0.078938276 -0.015498273 0.043411605 0.18082036 -0.13814607 -0.15763126 -0.18200801 0.16489586 0.14582771 0.28102288 -0.055256948 -0.0057928734 0.08027874 0.12274829 -0.082558915 0.35271528 -0.3490184 0.2938666 0.05169558 -0.1539255 -0.022333493 -0.19236365 0.1878831 -0.16559444 -0.043873187 0.26740253 0.25413555 0.18393712 0.10529982 0.22669266
98 -0.062498923 0.01649594 -0.06002439 0.0025354095 -0.2916299 0.013233934 0.3039703 0.09036179 0.07169741 -0.07978872 -0.17908208 0.2918547 0.15058541 0.034369163 -0.025687164 0.15665019 0.13189985 0.05841809 -0.08957114 -0.12902564 -0.030940404 0.0041932166 -0.43858436 -0.11463344 0.46359113 -0.058756214 0.21460238 -0.01784698 0.022416435 -0.10267802 0.057303414 -0.18643674 0.16617924 0.14532201 0.064005494 -0.010438981 0.035474 0.17141792 -0.13875294 -0.15463936 -0.18253683 0.15471551 0.14398828 0.28054187 -0.064374655 -0.019582154 0.069744736 0.12695226 -0.09134777 0.3415602 -0.357471 0.29558462 0.05277651 -0.1478499 -0.0064010066 -0.18357277 0.18509622 -0.17537098 -0.040824994 0.26416147 0.24732086 0.19387667 0.1045687 0.22906101
8 -0.070180595 0.023113225 -0.06598461 0.0023955586 -0.28197676 0.0059369016 0.30133766 0.0873125 0.076993585 -0.07190318 -0.17003456 0.2734038 0.15567778 0.032556344 -0.021583388 0.15314822 0.12469332 0.059738766 -0.093977004 -0.13146222 -0.037302893 0.010394121 -0.43671075 -0.12678783 0.4738057 -0.060192715 0.23181508 -0.033178777 0.026431764 -0.09274966 0.0588891 -0.19531274 0.17000106 0.15534459 0.07289957 -0.021843323 0.037947547 0.17574197 -0.14034179 -0.15566325 -0.180097 0.14804903 0.14194502 0.28568822 -0.071552254 -0.0061252653 0.078218184 0.12873018 -0.09600038 0.34765005 -0.34347442 0.2842734 0.045381382 -0.14312205 -0.014011668 -0.19186063 0.19150084 -0.16865687 -0.039965358 0.2671007 0.25091454 0.18218058 0.10750801 0.22630255
95 -0.07287848 0.016341683 -0.07199159 0.009973788 -0.28760928 0.009161516 0.2949187 0.09460676 0.083913065 -0.07983654 -0.18082476 0.2869747 0.14596163 0.035830013 -0.030172637 0.15985006 0.11934043 0.07020193 -0.09138553 -0.14125797 -0.042060755 0.021619635 -0.42891642 -0.11356097 0.47263882 -0.05856852 0.22042862 -0.021436593 0.011853668 -0.10736322 0.049442485 -0.19736214 0.17245245 0.15179192 0.06564861 -0.011806356 0.05014473 0.18296017 -0.13994381 -0.1445438 -0.17550588 0.15616468 0.14000127 0.2776278 -0.059396163 -0.0057866196 0.06958838 0.11652272 -0.09272781 0.3519407 -0.3550971 0.2836031 0.05027957 -0.14860854 -0.01565189 -0.17990354 0.19930382 -0.1641747 -0.04828163 0.266414 0.2516361 0.18297 0.09755101 0.23216029
6 -0.05338815 0.020657003 -0.07008709 0.011157594 -0.29815948 0.01659567 0.3053554 0.079184726 0.08746024 -0.08083905 -0.18814807 0.28673133 0.14302981 0.027868008 -0.032037284 0.16678917 0.13289458 0.06563905 -0.09094372 -0.12354442 -0.039219107 0.009525271 -0.44254515 -0.12093082 0.4648037 -0.06504346 0.218101 -0.0329084 0.017496578 -0.10565502 0.057875566 -0.19406699 0.16851704 0.15586162 0.066116944 -0.024327876 0.03874955 0.16721149 -0.14544171 -0.1472431 -0.17978469 0.15835269 0.14087974 0.28548732 -0.073049404 -0.009072933 0.070372164 0.13198331 -0.08656519 0.34207505 -0.3535375 0.28492215 0.057501853 -0.15238753 -0.023439063 -0.18081874 0.1884117 -0.17559946 -0.04631835 0.25196895 0.2526041 0.19415285 0.10727498 0.2355071
7 -0.061620407 0.010060127 -0.07017201 0.009092838 -0.30688703 0.0015144895 0.30470815 0.08150844 0.075484 -0.08466668 -0.18317717 0.28474462 0.15272534 0.026726898 -0.022454334 0.17323288 0.13770351 0.060384866 -0.08305868 -0.13978136 -0.036195915 0.013405168 -0.43527207 -0.11760597 0.4699248 -0.05798312 0.2211061 -0.019106284 0.019732872 -0.10607885 0.047062207 -0.19636422 0.1635612 0.16007331 0.07136475 -0.008419156 0.044384893 0.16893443 -0.14972655 -0.14318307 -0.19013847 0.16116625 0.14783706 0.27619112 -0.062083595 -0.013214877 0.06731504 0.12781154 -0.09205184 0.34697708 -0.35206363 0.28599808 0.041883383 -0.16074625 -0.022902021 -0.18291222 0.20294543 -0.170718 -0.047291957 0.25582457 0.2525357 0.1884321 0.10774381 0.2276643
30 -0.06236675 0.015478967 -0.07286191 0.017579501 -0.30432883 0.00037215324 0.2936066 0.087440185 0.07873116 -0.08625061 -0.18054165 0.28452998 0.14152157 0.019925637 -0.030269688 0.16501689 0.13976622 0.06902007 -0.07829627 -0.13521534 -0.04833714 0.017695542 -0.4436974 -0.11521326 0.481168 -0.04686838 0.22661324 -0.023852982 0.018206302 -0.1010161 0.048127968 -0.19475134 0.1648509 0.1507233 0.06522296 -0.028188214 0.037486505 0.17228645 -0.13720806 -0.15806702 -0.18516122 0.16045125 0.14124298 0.27669448 -0.07039854 -0.011277225 0.0769294 0.12813824 -0.086708926 0.34358495 -0.35019177 0.29518768 0.05536429 -0.15411289 -0.020584958 -0.18465662 0.19312209 -0.16495657 -0.045810256 0.26713663 0.25258598 0.1830042 0.10110417 0.233282
27 -0.06992055 0.007817165 -0.06759113 0.0077874865 -0.28633285 0.0125197545 0.29660377 0.09086184 0.067888275 -0.08212025 -0.18100528 0.28902084 0.14384551 0.02155406 -0.03219836 0.1532069 0.13027969 0.07314698 -0.08425479 -0.12951338 -0.043275837 0.01085307 -0.43840426 -0.108908735 0.46827456 -0.055409838 0.2221022 -0.028068554 0.026071496 -0.09986307 0.044796683 -0.19175637 0.16187693 0.14325915 0.06941784 -0.020599866 0.0479129 0.16470781 -0.14493255 -0.14136794 -0.18526049 0.1497084 0.14169297 0.28061894 -0.07294598 -0.018187433 0.06760024 0.12687765 -0.08268669 0.34354776 -0.359055 0.29881045 0.04881773 -0.15118136 -0.013417099 -0.19129258 0.19387163 -0.16492553 -0.043689802 0.2691925 0.24936631 0.18808356 0.11424196 0.2200273
5 -0.07071313 0.015455078 -0.06477703 0.013877272 -0.29416898 0.0047950433 0.2924515 0.08058236 0.089284815 -0.08484424 -0.18661381 0.28083077 0.14688328 0.021161638 -0.020756578 0.15719277 0.13240309 0.07540736 -0.09270294 -0.13540816 -0.034111258 0.015854903 -0.428577 -0.11537504 0.47764793 -0.050783377 0.22428617 -0.01814438 0.020925354 -0.0905443 0.05572756 -0.19286096 0.16141073 0.14459951 0.07786075 -0.020828178 0.03756328 0.18263376 -0.14510891 -0.15476997 -0.17827632 0.15818387 0.14314845 0.27943256 -0.068074614 -0.017964048 0.06788152 0.12585774 -0.08097785 0.3403881 -0.3556154 0.28988123 0.05025596 -0.15565066 -0.029085768 -0.18806818 0.19170909 -0.16526544 -0.0485509 0.26391813 0.24449411 0.17761959 0.103361025 0.22232312
13 -0.065074295 0.008725377 -0.05953802 0.0076485286 -0.293524 0.013503527 0.3020504 0.08709324 0.08425749 -0.07692351 -0.18365091 0.2913503 0.15126736 0.026638437 -0.02459814 0.16269813 0.13252454 0.07028079 -0.08071239 -0.14079766 -0.04167937 0.010221854 -0.43585467 -0.12340384 0.47988245 -0.065084316 0.22639681 -0.027390925 0.022656025 -0.09711504 0.05716715 -0.19861536 0.17492399 0.15707915 0.073962614 -0.01649475 0.04153612 0.17026208 -0.13370417 -0.15080093 -0.17776388 0.15638457 0.14246123 0.2834474 -0.06290496 -0.017893586 0.0776636 0.11822023 -0.0890449 0.34314612 -0.35342944 0.29890046 0.053459156 -0.15145902 -0.021406299 -0.18240558 0.19667701 -0.17435229 -0.043476693 0.2565352 0.25611377 0.18042606 0.098026775 0.22780015
24 -0.060226195 0.007682705 -0.063894756 0.00067292614 -0.30237988 0.012538595 0.30329016 0.09533096 0.08862532 -0.07133386 -0.17966461 0.29343283 0.14717637 0.02945689 -0.022692978 0.16590099 0.12517723 0.0726445 -0.08572395 -0.1322934 -0.04416208 0.0049856133 -0.4419992 -0.11761822 0.46968165 -0.04520254 0.22811744 -0.025638567 0.011219504 -0.096211486 0.050512265 -0.18785642 0.16953284 0.14928393 0.07579197 -0.021102723 0.03932507 0.17526792 -0.13261501 -0.15645753 -0.19122177 0.16405827 0.14390507 0.27061042 -0.0719581 -0.017558454 0.074031234 0.11054037 -0.09329957 0.33600622 -0.35209924 0.29680243 0.052778468 -0.14855057 -0.021816727 -0.18563248 0.18932231 -0.16577746 -0.0548143 0.25605738 0.24574494 0.18484707 0.09857722 0.22958817
23 -0.061206315 0.014812421 -0.053717036 0.0040758755 -0.2985236 0.0016326302 0.31363493 0.08887893 0.08693017 -0.07433876 -0.18725972 0.28020924 0.15448314 0.028811645 -0.027207248 0.15690105 0.12179799 0.05902297 -0.080253966 -0.13032836 -0.04560904 0.0057752915 -0.44383103 -0.113322176 0.46606174 -0.055309594 0.22675027 -0.020151505 0.011746994 -0.10492204 0.06017474 -0.19605663 0.1738751 0.15657412 0.07958725 -0.012292121 0.031519067 0.17055818 -0.13355172 -0.14717081 -0.17538287 0.15509027 0.14993168 0.27900693 -0.05690203 -0.004240921 0.073349155 0.12905516 -0.09291205 0.35028687 -0.35172904 0.2980425 0.04349588 -0.1428995 -0.020512536 -0.1914194 0.19928078 -0.15872295 -0.042391162 0.26541027 0.24206531 0.18804982 0.1054649 0.22566047
77 -0.073147036 0.018672839 -0.072206624 0.008745818 -0.28845963 0.0102246925 0.30293238 0.085186444 0.08027411 -0.074037135 -0.17854875 0.27577308 0.15172029 0.036589533 -0.03218452 0.16159791 0.12739158 0.074068174 -0.08073961 -0.1283178 -0.038055167 0.0059696166 -0.4353753 -0.123484254 0.48309237 -0.053196307 0.21590246 -0.034628533 0.02314218 -0.10142781 0.05369028 -0.19611411 0.17201659 0.15387651 0.08055187 -0.01285764 0.039437383 0.18190117 -0.14596437 -0.1537835 -0.17288814 0.15230769 0.14204869 0.26987758 -0.07122347 -0.017391698 0.07866803 0.122776516 -0.081897385 0.34720153 -0.34168863 0.28112924 0.04717245 -0.14353146 -0.012892258 -0.18417276 0.19275247 -0.1622651 -0.03829642 0.2664492 0.25454295 0.17859788 0.107590966 0.2188925
29 -0.064726554 0.013543118 -0.07147668 0.005032487 -0.29526237 -0.0027901737 0.28658742 0.08381439 0.0748036 -0.08465842 -0.18647066 0.29071325 0.13908468 0.034411047 -0.016748842 0.15811275 0.122419156 0.07061142 -0.08331365 -0.13400055 -0.045840785 0.010216335 -0.42939273 -0.11482749 0.47607785 -0.055652335 0.22876717 -0.027388314 0.027784752 -0.103890136 0.058137044 -0.20130542 0.16932936 0.15282036 0.061785582 -0.024220427 0.041131184 0.18311349 -0.1441346 -0.14221786 -0.18754382 0.16597715 0.15057704 0.28006074 -0.07211592 -0.017874658 0.079111636 0.11756848 -0.09420371 0.34243748 -0.3456408 0.28927734 0.04604723 -0.15686971 -0.019412851 -0.18964487 0.20025395 -0.1642551 -0.040675253 0.26693255 0.2536978 0.18012087 0.10644952 0.21939655
36 -0.06423679 0.020021172 -0.06164621 0.0017409748 -0.29309884 0.0038929584 0.30924857 0.079456545 0.08408262 -0.08281089 -0.18428582 0.27862862 0.14813298 0.02736942 -0.03166434 0.15888482 0.13179328 0.0621793 -0.09080128 -0.13680394 -0.045311842 0.0131033985 -0.43027312 -0.1218647 0.4630444 -0.04921024 0.2254892 -0.025264462 0.0128993625 -0.10278329 0.050297707 -0.19121027 0.16730084 0.14110981 0.064540684 -0.015130945 0.04655494 0.1742072 -0.15066361 -0.15361531 -0.18625563 0.16500002 0.13557081 0.28456706 -0.058246925 -0.0085362885 0.0726879 0.117914416 -0.09322414 0.3517121 -0.36078718 0.30020836 0.04851073 -0.15388893 -0.01481617 -0.18693116 0.20129628 -0.16894275 -0.048348382 0.27036625 0.24813603 0.19759879 0.1136616 0.23492637
88 -0.060498744 0.017978039 -0.07068671 0.009401195 -0.28946832 0.0062577203 0.29191348 0.09370645 0.08136269 -0.073006965 -0.18717188 0.29058662 0.15097515 0.024707831 -0.031276 0.1623811 0.12107804 0.071277685 -0.09129002 -0.12621902 -0.04501398 0.0053628227 -0.43703684 -0.11964493 0.47313663 -0.060145706 0.22584656 -0.035341952 0.013515874 -0.09931332 0.05781408 -0.1937825 0.15429918 0.14703095 0.07324331 -0.011429639 0.039202437 0.17296335 -0.13942276 -0.14595886 -0.17922571 0.1538714 0.14142573 0.28262672 -0.0633892 -0.005339926 0.07718635 0.12129152 -0.07954095 0.34975582 -0.35695148 0.2961325 0.056361858 -0.1544348 -0.015419755 -0.1927582 0.19579525 -0.17003621 -0.048438843 0.2630385 0.24009822 0.19004112 0.103510894 0.22817662
0 -0.06739219 0.009321126 -0.06956889 0.00273937 -0.28966415 0.015819278 0.2941776 0.086230695 0.08724934 -0.071724124 -0.18454584 0.27751437 0.14923671 0.03391711 -0.030231703 0.15102325 0.121890225 0.06477396 -0.08840021 -0.12577437 -0.048379604 0.009901393 -0.4353318 -0.10982504 0.46007323 -0.060974985 0.21511006 -0.0177097 0.019881872 -0.09423054 0.043940395 -0.19078389 0.17151794 0.14180131 0.07854681 -0.013414601 0.03865702 0.17344995 -0.13651946 -0.15159552 -0.17576365 0.15182856 0.13298887 0.2863536 -0.060205672 -0.011884943 0.07745832 0.12850197 -0.085442625 0.34219098 -0.3586082 0.29719296 0.05105938 -0.14406985 -0.007941554 -0.19358125 0.2003416 -0.17131916 -0.040383317 0.25478655 0.24935125 0.19181627 0.1094177 0.22790967
