100 64
89 -0.015590408 -0.26158997 -0.15155602 0.044932324 -0.34641197 -0.07415872 -0.21545133 0.084927395 -0.17558493 -0.06962986 0.30870956 -0.23628296 0.2652479 0.07126936 -0.12401424 0.013832394 0.07219086 -0.18868549 0.15928097 -0.081781596 0.024488598 0.16019902 -0.03666976 -0.15689889 -0.07046042 -0.040416054 0.11752134 0.07763878 0.36899903 -0.052848715 -0.15198451 -0.014383369 0.20424393 -0.033361815 -0.041121583 0.13635948 0.20693289 -0.11527127 -0.02354901 0.17020936 0.076796636 -0.08143516 -0.1968636 0.17523518 0.028064376 0.2609662 0.2401047 0.28169295 0.27610856 0.0014140303 0.21331602 0.3416809 0.12161287 0.0075061945 -0.3065067 0.09201541 0.013661741 -0.20735905 -0.28127658 -0.040844858 -0.333822 0.21809016 0.19029462 0.0568284
67 -0.023415994 -0.2583647 -0.16110773 0.046986736 -0.35228923 -0.07281306 -0.21203999 0.08758756 -0.18863013 -0.08738633 0.29076928 -0.23181146 0.24755624 0.07068069 -0.13223335 0.021346942 0.07048484 -0.1879638 0.15759814 -0.08646626 0.025248138 0.17020868 -0.045660924 -0.15665796 -0.065686435 -0.044629533 0.11701119 0.07333496 0.36718422 -0.06395626 -0.1544749 -0.0066963783 0.20542572 -0.020135194 -0.035855275 0.1270882 0.20028885 -0.11227555 -0.036081534 0.16320243 0.08025291 -0.08776816 -0.1896409 0.17384502 0.04171484 0.2502948 0.24754177 0.29066008 0.27574787 -0.012129101 0.21108052 0.32819852 0.11424151 0.010075669 -0.29128644 0.09387283 0.01816222 -0.20631292 -0.28872725 -0.029263096 -0.3296048 0.21968576 0.18810363 0.044188563
93 -0.021105396 -0.2661221 -0.15961348 0.03909935 -0.3496549 -0.07672159 -0.20535809 0.08460109 -0.16372731 -0.070081964 0.30112758 -0.22947517 0.25038254 0.068506934 -0.13075608 0.004117433 0.08060477 -0.1923761 0.15398155 -0.07711617 0.009632319 0.17453825 -0.03971843 -0.1367633 -0.059729602 -0.03540045 0.12770584 0.064406455 0.36282876 -0.064841844 -0.15680677 -0.0024893817 0.20663445 -0.022835782 -0.044954803 0.1357322 0.20600338 -0.1087759 -0.022113489 0.18851502 0.07944749 -0.08510248 -0.19968656 0.17022449 0.038841784 0.26004636 0.2302858 0.28895018 0.27060506 0.008377061 0.21320513 0.3279141 0.1070879 0.002311993 -0.3024667 0.09304256 0.001243464 -0.20967437 -0.29103863 -0.042584684 -0.33380562 0.22357881 0.18926843 0.046448674
98 -0.017155822 -0.2660711 -0.15456885 0.04071675 -0.34915674 -0.07967605 -0.20496266 0.083716676 -0.17027847 -0.0752226 0.30647734 -0.23946463 0.2576143 0.06772844 -0.122838296 0.017845133 0.08046931 -0.20079452 0.1536292 -0.083649136 0.02325754 0.1686575 -0.039028246 -0.15443303 -0.06884613 -0.04075856 0.117063984 0.08272021 0.37226087 -0.06110413 -0.158262 -0.014166762 0.22091042 -0.03269091 -0.04721327 0.12588024 0.20454475 -0.11245251 -0.030600525 0.18622902 0.089897394 -0.08546953 -0.19698621 0.16943678 0.024961788 0.26138988 0.23078693 0.28831384 0.2720219 -0.006779374 0.213147 0.33599272 0.10699271 0.0062287347 -0.29865515 0.091952145 -0.0014681388 -0.21120925 -0.28452715 -0.037031423 -0.31950298 0.20443967 0.18226089 0.047081925
3 -0.010421049 -0.24597917 -0.15681554 0.046207484 -0.35917377 -0.08648966 -0.21256982 0.0733766 -0.16979365 -0.07946437 0.29998058 -0.23744756 0.24959195 0.08308356 -0.12879963 0.006636801 0.0858752 -0.1883368 0.16836715 -0.084695965 0.027785275 0.16979964 -0.040746197 -0.15314378 -0.079520345 -0.052181546 0.11338493 0.06903118 0.3715482 -0.06557554 -0.15286435 -0.01271352 0.21840467 -0.022499584 -0.05133497 0.13214551 0.20070009 -0.10630768 -0.028350214 0.18273467 0.09221937 -0.07519928 -0.19509171 0.17330875 0.027301216 0.2695615 0.23244636 0.27734807 0.26853916 0.007568534 0.19809492 0.33598155 0.11979848 0.010170001 -0.291272 0.09490975 -0.00096957805 -0.20702076 -0.28006184 -0.03204327 -0.32871675 0.22069673 0.18809485 0.04338212
21 -0.026707577 -0.25784367 -0.15297651 0.03932176 -0.3470315 -0.08652153 -0.20459612 0.08602747 -0.18007778 -0.06897589 0.29477653 -0.2277479 0.26678276 0.0803182 -0.11585742 0.015673857 0.072980694 -0.19187276 0.16374329 -0.08163642 0.017649816 0.17674604 -0.028169608 -0.15435252 -0.07431221 -0.0474561 0.12565781 0.08671579 0.36466634 -0.05872189 -0.15532078 -0.012200716 0.209348 -0.029701112 -0.051091313 0.12572248 0.20529719 -0.11781182 -0.01940574 0.17938529 0.09426337 -0.07078447 -0.18053244 0.160448 0.023316879 0.2720148 0.2276347 0.27916047 0.27001145 0.010656569 0.20913051 0.33241424 0.10782313 0.0040694084 -0.29076302 0.09117571 0.0041068466 -0.20542637 -0.29051837 -0.04115543 -0.3367668 0.21235034 0.19042249 0.047474086
6 -0.037966833 -0.26016936 -0.1570785 0.037841123 -0.3426821 -0.07305845 -0.20175083 0.080301285 -0.17490125 -0.06783075 0.29600686 -0.23940466 0.2571973 0.08215743 -0.12612933 0.013649826 0.083501756 -0.1973919 0.1691008 -0.07105244 0.017051363 0.17034993 -0.035323635 -0.15143499 -0.079423055 -0.052254844 0.1253179 0.0813514 0.37066537 -0.062130477 -0.14847964 -0.014558704 0.21333764 -0.0253102 -0.05236666 0.13352652 0.21577543 -0.112839416 -0.015415507 0.17416684 0.09200574 -0.06927869 -0.19236493 0.16347702 0.023033995 0.25929317 0.22973493 0.2925962 0.26913744 0.011724845 0.21400695 0.34469876 0.11205026 -0.00040617815 -0.30966866 0.08467814 0.004099189 -0.21167262 -0.28730226 -0.04126973 -0.3297662 0.20606093 0.1930929 0.052597083
55 -0.015513964 -0.2534826 -0.14507471 0.028141834 -0.33974338 -0.089074634 -0.21192172 0.08711029 -0.17768039 -0.07427173 0.29387897 -0.23178057 0.26353493 0.061039113 -0.12679428 0.02618231 0.06951103 -0.19623922 0.15198801 -0.07692053 0.024806885 0.17133754 -0.036735922 -0.142989 -0.072813116 -0.04018378 0.12112536 0.088970356 0.3647752 -0.05324867 -0.1495799 -0.012815887 0.21640877 -0.022630906 -0.044489566 0.11922044 0.2130519 -0.12340282 -0.033923022 0.17698638 0.08409776 -0.06883549 -0.18548505 0.16605781 0.031401154 0.26386583 0.23905988 0.29480466 0.2574213 0.0048848097 0.21000648 0.32660243 0.112631015 0.014782814 -0.30924538 0.0907483 0.009701975 -0.20858103 -0.28990027 -0.032123603 -0.33198547 0.20469499 0.19353746 0.03618337
53 -0.009537087 -0.2695183 -0.16711278 0.04390613 -0.3552222 -0.077143565 -0.22470018 0.07432332 -0.1834896 -0.071636766 0.30914733 -0.23649293 0.2505133 0.07776904 -0.122048184 0.021500444 0.081057675 -0.19449475 0.16686179 -0.08713672 0.025233977 0.17275529 -0.038927056 -0.15680219 -0.06298982 -0.041075084 0.11082686 0.07156693 0.37842825 -0.06870493 -0.14889191 -0.013838718 0.21670409 -0.029629495 -0.04184023 0.13189457 0.20359102 -0.10641028 -0.029748686 0.17268538 0.07657188 -0.08039348 -0.18626742 0.16878244 0.04113385 0.27479786 0.23591693 0.28806058 0.26877713 -0.0015943807 0.2036505 0.3377028 0.114399135 0.0069215493 -0.30616975 0.09589254 0.0015756971 -0.20794909 -0.28418058 -0.043488868 -0.31935132 0.20217824 0.18534817 0.050498027
86 -0.025963107 -0.2579356 -0.15903716 0.04457838 -0.3559455 -0.08549579 -0.21470083 0.09075124 -0.18323047 -0.07676937 0.3090737 -0.24222487 0.2578068 0.08164404 -0.12355246 0.0138882175 0.08217511 -0.18997231 0.16966417 -0.07590369 0.024094062 0.16138044 -0.029779727 -0.16189417 -0.06890549 -0.044879895 0.12731728 0.08149394 0.37525308 -0.06339839 -0.16354093 -0.019013818 0.21721874 -0.023234416 -0.044219196 0.1384765 0.21261619 -0.1156322 -0.016556159 0.17075711 0.07437623 -0.07029304 -0.19644454 0.17375651 0.03632862 0.265226 0.24261731 0.28687584 0.26908836 0.0046344087 0.2015744 0.3272582 0.11246368 0.015069674 -0.29546413 0.09327699 0.016918898 -0.19879138 -0.27762467 -0.032556817 -0.3366734 0.21364407 0.1917076 0.056926128
76 -0.011875403 -0.2580686 -0.14859541 0.040803496 -0.35088477 -0.070712365 -0.21555448 0.08974862 -0.1854999 -0.080245174 0.31276548 -0.23544301 0.26129928 0.08300128 -0.13728355 0.012292108 0.088248834 -0.19260645 0.17298612 -0.07284327 0.024990758 0.16445917 -0.041725826 -0.16214643 -0.073531225 -0.051425125 0.1206647 0.07677771 0.37496454 -0.05386392 -0.1644761 -0.010009907 0.21871856 -0.03474684 -0.04966764 0.14079162 0.21480006 -0.11562096 -0.019966034 0.1696167 0.08330131 -0.066316195 -0.19456716 0.16087098 0.039785538 0.26477626 0.23033172 0.2747114 0.2682607 -0.0020436442 0.21314375 0.3398691 0.10498855 0.013084884 -0.2974128 0.08347843 0.011228253 -0.19846073 -0.28495702 -0.034372672 -0.3253741 0.20895648 0.18418577 0.06183519
31 -0.020805493 -0.25667194 -0.14963222 0.04057442 -0.35588133 -0.089194246 -0.20595983 0.079058774 -0.18405092 -0.0774564 0.2995351 -0.22865587 0.25585908 0.066231 -0.12025401 0.018111696 0.08122291 -0.1911447 0.16405086 -0.08115645 0.022317385 0.15976432 -0.020327872 -0.14531335 -0.07857501 -0.034139123 0.11522847 0.07256945 0.3624998 -0.062187638 -0.14707674 -0.009076559 0.20020863 -0.028967086 -0.053677112 0.13148439 0.20974302 -0.11191436 -0.0222699 0.17791356 0.07650284 -0.07114616 -0.19215837 0.17360324 0.022083305 0.272883 0.24384293 0.27978638 0.2624934 0.0036627196 0.20774157 0.34616622 0.110613436 0.0066926912 -0.30945033 0.09249982 0.008686564 -0.21496029 -0.2924978 -0.046448845 -0.33435598 0.21163008 0.19406323 0.051672403
11 -0.011136183 -0.26097357 -0.16111802 0.044483762 -0.35613364 -0.09321702 -0.205728 0.074227646 -0.1697507 -0.07732116 0.30567434 -0.24089022 0.2666597 0.07974678 -0.124336354 0.015540363 0.074162684 -0.19352324 0.16698614 -0.07239672 0.015613943 0.16752273 -0.04471825 -0.14485113 -0.063312165 -0.030022353 0.13305269 0.071443185 0.370299 -0.06032538 -0.15044352 -0.0070946687 0.21372277 -0.037774548 -0.051992834 0.12637928 0.2091717 -0.12095425 -0.022435842 0.18557945 0.09169743 -0.074630275 -0.1982049 0.16929674 0.026945602 0.26380864 0.22762485 0.2912855 0.27006856 0.004377559 0.20874837 0.33572367 0.10151623 0.008597049 -0.30559346 0.10130798 -0.0010362308 -0.2015953 -0.29582566 -0.04547491 -0.32828596 0.21855009 0.193052 0.051338986
57 -0.030761609 -0.24513917 -0.15858309 0.041610096 -0.34703872 -0.08475686 -0.20655294 0.07871322 -0.18125452 -0.07530291 0.30063182 -0.23027718 0.26948518 0.08394228 -0.13153772 0.014130115 0.08243568 -0.1992633 0.17532027 -0.07421591 0.014418301 0.17727567 -0.027562391 -0.14518638 -0.07433841 -0.053411692 0.116948664 0.081914715 0.38387528 -0.06038361 -0.16582485 -0.008646381 0.22247851 -0.02115034 -0.044066988 0.13356695 0.21137686 -0.11002179 -0.02015454 0.16767466 0.075075485 -0.063719235 -0.19343273 0.16187884 0.027501779 0.2528953 0.24510184 0.2847174 0.26742443 -0.00086255785 0.2174879 0.335792 0.11656141 0.01091369 -0.29601404 0.08933299 -0.0015305275 -0.20503584 -0.2823843 -0.043852247 -0.32817134 0.21476433 0.19783261 0.05535696
32 -0.015417474 -0.26618788 -0.1553617 0.033371836 -0.35026303 -0.081993215 -0.22157972 0.08398808 -0.17592305 -0.06966634 0.29982588 -0.24172425 0.26505873 0.07928445 -0.12481462 0.006336381 0.08893576 -0.18984537 0.16127574 -0.08666338 0.016474992 0.17340751 -0.03617802 -0.15328327 -0.070630774 -0.051454756 0.123285346 0.07743134 0.3763305 -0.06550381 -0.14995068 -0.016705897 0.21319894 -0.040110096 -0.044148024 0.13028236 0.20138822 -0.11940777 -0.025954364 0.17608541 0.08830446 -0.081401564 -0.18308 0.16342631 0.047629002 0.26346898 0.24294347 0.2867856 0.27571356 0.005002042 0.20214938 0.3250849 0.098978624 0.005246801 -0.30690783 0.09841589 0.0027020103 -0.20566593 -0.27945167 -0.038315836 -0.32964376 0.2122915 0.18497819 0.0561122
7 -0.024007848 -0.24688423 -0.16041377 0.04417884 -0.35008225 -0.07299568 -0.20903553 0.07653816 -0.17031763 -0.075576514 0.30457178 -0.23785752 0.2651584 0.060616955 -0.11787082 0.017992133 0.06929332 -0.18750016 0.16308236 -0.07156136 0.00979595 0.1745236 -0.025446063 -0.155273 -0.07010541 -0.044916432 0.10916477 0.07570302 0.36881977 -0.061876837 -0.15482603 -0.011771094 0.22036208 -0.033030264 -0.039222576 0.12644254 0.19932581 -0.110328116 -0.02982169 0.17907825 0.08120654 -0.07427055 -0.18599692 0.17306896 0.033012196 0.26914898 0.23736604 0.2843595 0.26444688 0.0067476337 0.20031515 0.33277893 0.10627273 0.0070935404 -0.29161832 0.09923934 -0.0004235043 -0.20398559 -0.2784215 -0.041141275 -0.33298668 0.2035391 0.18969753 0.055579063
16 -0.02015229 -0.2693928 -0.16119407 0.035279382 -0.34838846 -0.07540647 -0.21397874 0.08655136 -0.17752624 -0.06875625 0.30647948 -0.23883167 0.25340825 0.06663737 -0.12319051 0.016661098 0.06923895 -0.18923214 0.1579111 -0.08267258 0.011617089 0.17078678 -0.028899113 -0.15774256 -0.07577805 -0.054795455 0.11741043 0.079796135 0.37786886 -0.05660088 -0.1433168 -0.019614492 0.21106535 -0.029813109 -0.055431977 0.13721669 0.21177968 -0.121847816 -0.019350149 0.1825263 0.07665042 -0.077450804 -0.19261578 0.1576767 0.03515123 0.26420876 0.23941185 0.27753016 0.27130356 0.0024237945 0.21293738 0.34131232 0.10854885 0.0049863853 -0.29459053 0.09355792 -0.0026313546 -0.20581175 -0.29032168 -0.04464127 -0.3247729 0.21440075 0.1821378 0.049213827
63 -0.02412341 -0.26004753 -0.14695254 0.04170881 -0.34402803 -0.08267235 -0.21202028 0.08867184 -0.17957634 -0.08212187 0.29609978 -0.24144056 0.25555447 0.069374606 -0.13086832 0.026785871 0.07666074 -0.1947384 0.15611136 -0.07822076 0.017863205 0.17413226 -0.034223665 -0.15540469 -0.076173425 -0.029494254 0.115803055 0.07088033 0.3668253 -0.049307957 -0.14016286 -0.01762809 0.20800523 -0.026448552 -0.057387553 0.13733374 0.2043105 -0.108670585 -0.033156287 0.18829045 0.07175666 -0.07895232 -0.18362668 0.16763468 0.026207065 0.27007627 0.23746428 0.289999 0.2742939 0.0010953404 0.21618007 0.33941406 0.121427596 0.003668484 -0.29700372 0.098937556 -0.0029830248 -0.20924345 -0.29378256 -0.035094522 -0.32132956 0.21949582 0.19115241 0.048583638
24 -0.017487837 -0.26422283 -0.16675942 0.041427642 -0.34969765 -0.086785674 -0.2196719 0.08091402 -0.17896706 -0.075805224 0.3070227 -0.22843137 0.25694215 0.064373426 -0.12677267 0.012694678 0.08153033 -0.1955371 0.1607132 -0.079184234 0.02304207 0.1739632 -0.04158381 -0.15965334 -0.063638456 -0.043565255 0.12426421 0.076680996 0.36547822 -0.06534279 -0.154989 -0.0023895002 0.2178712 -0.03671653 -0.053010028 0.13183385 0.210926 -0.12092955 -0.024800194 0.17350024 0.080993816 -0.081424385 -0.19373617 0.17526028 0.04081568 0.25649852 0.23186702 0.29372358 0.27665222 0.0018426246 0.20050704 0.32593095 0.11009434 0.014439393 -0.30445248 0.09985742 0.0023232123 -0.20048417 -0.2885579 -0.03644294 -0.33099827 0.21571209 0.18119901 0.04944539
59 -0.0222064 -0.26695144 -0.16095446 0.031171028 -0.34345925 -0.07129179 -0.21470936 0.084492356 -0.17875136 -0.08059588 0.307597 -0.22600293 0.261784 0.0680873 -0.122907996 0.025943412 0.07653393 -0.18618876 0.15757948 -0.08352281 0.031533178 0.1726089 -0.027289057 -0.15078619 -0.06970569 -0.04284083 0.12154414 0.07078479 0.3572923 -0.060921937 -0.13987479 -0.0057892823 0.21538131 -0.030757155 -0.04289023 0.13726449 0.20855965 -0.122377805 -0.02928498 0.17273656 0.07841601 -0.07860543 -0.1953358 0.17301472 0.038840763 0.25748825 0.24200642 0.2898047 0.25955105 0.0021060745 0.20533043 0.33467388 0.11418901 0.013535029 -0.30876157 0.094439186 0.013221999 -0.21442087 -0.2902374 -0.039357148 -0.3260687 0.218887 0.1960334 0.037052058
65 -0.019487005 -0.26016474 -0.16046387 0.032173242 -0.34894732 -0.08384156 -0.21047843 0.08637327 -0.16415259 -0.07328704 0.30757183 -0.2374146 0.2634077 0.073301494 -0.12118961 0.019558154 0.07480363 -0.19383384 0.16477472 -0.0780318 0.023042127 0.17504622 -0.04061427 -0.14301075 -0.0608165 -0.04549453 0.12949327 0.07305864 0.37002718 -0.062451713 -0.14755788 -0.010031249 0.21819365 -0.026253281 -0.039314184 0.1277739 0.21994475 -0.10934236 -0.0264062 0.18603306 0.079713725 -0.069626264 -0.19392419 0.15752512 0.026444227 0.2647166 0.24350497 0.29076937 0.26369792 0.0050051133 0.20547669 0.32867172 0.11198346 0.0153730735 -0.30024815 0.10278982 0.0027848252 -0.20052613 -0.2895174 -0.039021064 -0.33509064 0.21731226 0.1877704 0.043191556
71 -0.015562983 -0.25290307 -0.15149252 0.042907692 -0.3392254 -0.08730104 -0.21469451 0.07809712 -0.18064286 -0.07532009 0.2986511 -0.22422418 0.25128213 0.07141292 -0.11340986 0.027367918 0.06635374 -0.19534084 0.16827926 -0.08549122 0.019382052 0.16512296 -0.024399154 -0.1541742 -0.07867844 -0.031990293 0.1150076 0.080839455 0.36534962 -0.066441014 -0.14797373 -0.017619928 0.20862794 -0.03638046 -0.05115676 0.122047946 0.21002938 -0.11416808 -0.023678392 0.18132329 0.078159675 -0.077613555 -0.19170146 0.16369988 0.027913818 0.26180276 0.24556409 0.288081 0.27440962 -0.0038758707 0.20337331 0.3325589 0.10762811 0.004709439 -0.3037058 0.10540118 0.004722994 -0.19780162 -0.28701392 -0.04111754 -0.33409747 0.2103094 0.18544196 0.053179152
30 -0.018333364 -0.2699728 -0.16090873 0.026494186 -0.35234618 -0.08007237 -0.21814346 0.07689471 -0.16779023 -0.06591294 0.29887724 -0.241236 0.26706234 0.07708928 -0.12410571 0.010437194 0.07254173 -0.20159453 0.16087285 -0.07080271 0.02560094 0.17344241 -0.045611646 -0.14736003 -0.065330185 -0.04896713 0.12877142 0.08109003 0.3797198 -0.0548466 -0.16228138 -0.016392421 0.20514707 -0.031805977 -0.05507604 0.1400084 0.21790741 -0.11915323 -0.031465806 0.17954443 0.07584668 -0.061542504 -0.1935433 0.15296172 0.024446908 0.26114827 0.2268528 0.2753023 0.26940373 0.009042594 0.20341651 0.33206704 0.10909164 0.008999642 -0.28702536 0.090885215 -0.0003280049 -0.20165001 -0.2818383 -0.03277414 -0.3235462 0.21649764 0.18390995 0.04935901
73 -0.01879477 -0.26448518 -0.164787 0.030171309 -0.35960272 -0.08443346 -0.20807312 0.084464334 -0.17149927 -0.08167903 0.29984123 -0.2458746 0.26913574 0.06918088 -0.13250504 0.012044873 0.07067978 -0.20245905 0.15497522 -0.08692576 0.014571438 0.17719437 -0.031208066 -0.1501047 -0.058560193 -0.03498364 0.11748839 0.08068358 0.374997 -0.054411203 -0.16141564 -0.008305662 0.2081695 -0.039878596 -0.038522486 0.12988567 0.21181475 -0.12269017 -0.029846719 0.17823915 0.09213794 -0.06452779 -0.19778353 0.16413607 0.024210218 0.26703057 0.23390225 0.29106846 0.27233297 -0.007381363 0.21671718 0.336789 0.11133479 0.012082777 -0.2953737 0.093787074 0.005752994 -0.20746958 -0.28296888 -0.040819235 -0.3184925 0.20577401 0.18433124 0.05257523
91 -0.023449557 -0.24991333 -0.14573833 0.047622934 -0.34573072 -0.08582212 -0.20998706 0.07838303 -0.16516535 -0.07609305 0.30223268 -0.23294306 0.24816152 0.063355215 -0.13059501 0.007602813 0.080764964 -0.19669823 0.15456107 -0.06836574 0.018872287 0.16890182 -0.029767722 -0.15264392 -0.084672876 -0.032810837 0.12403077 0.06644364 0.36891383 -0.05305383 -0.15402092 -0.017034879 0.20445146 -0.031670276 -0.04517665 0.1346075 0.2041328 -0.12309191 -0.032987323 0.18487807 0.07697029 -0.06872952 -0.18242179 0.1722061 0.03665468 0.26635444 0.2445698 0.27166554 0.2683503 0.01144963 0.20173232 0.342091 0.10761072 0.00087086065 -0.2977119 0.09965667 0.013823265 -0.21380948 -0.28177246 -0.02859724 -0.32536507 0.22308567 0.17861913 0.042798683
34 -0.010175867 -0.26118493 -0.15572181 0.046765137 -0.33620477 -0.08595379 -0.20562372 0.08081916 -0.17159703 -0.07773451 0.3032196 -0.22815147 0.24359673 0.075204246 -0.12177131 0.020258857 0.08442967 -0.20241378 0.16232078 -0.07375462 0.024452567 0.15959607 -0.045472585 -0.1558232 -0.07362657 -0.035174165 0.1221545 0.079189435 0.36542755 -0.054077037 -0.15788244 -0.022166912 0.19896202 -0.03808645 -0.04153089 0.1320232 0.20354055 -0.12202554 -0.023087427 0.18567465 0.08024701 -0.07426788 -0.18635511 0.16369945 0.024061076 0.26624396 0.23448677 0.27897212 0.26755166 0.00021940477 0.20282805 0.3407997 0.10623643 0.0073864423 -0.30439514 0.09143151 0.01566141 -0.20790349 -0.28996053 -0.03046662 -0.33603546 0.2200333 0.19478177 0.040846646
36 -0.00915205 -0.25616878 -0.155865 0.029504033 -0.351665 -0.079320766 -0.21554904 0.0728125 -0.17997661 -0.070362575 0.30958438 -0.24397656 0.2673336 0.06489548 -0.12794247 0.008433843 0.077158 -0.19360821 0.16572656 -0.082151376 0.023172563 0.1748093 -0.0340296 -0.15505438 -0.058018807 -0.03870084 0.12930794 0.07226301 0.36642715 -0.054735124 -0.15785153 -0.007394723 0.21487898 -0.036043935 -0.042296432 0.1380323 0.21407837 -0.113294296 -0.021243116 0.18220237 0.09221392 -0.07335866 -0.18493326 0.17253277 0.03656334 0.2671606 0.23642492 0.28342748 0.26161122 -0.0018431529 0.20068999 0.33693725 0.10657917 0.010112972 -0.3046261 0.08953273 -0.0028773847 -0.19771534 -0.27937305 -0.036014818 -0.3289244 0.20976263 0.1774194 0.05693694
44 -0.015774429 -0.25513312 -0.14827782 0.04466136 -0.34243217 -0.085434094 -0.20613225 0.07026841 -0.18233974 -0.071383126 0.29851955 -0.23911339 0.25839436 0.08015022 -0.12619925 0.013506238 0.07491067 -0.1911713 0.16320068 -0.07575463 0.029590303 0.16837555 -0.027721386 -0.15325882 -0.08297504 -0.034475494 0.1270523 0.076012455 0.37099454 -0.059495732 -0.14767505 -0.00758611 0.22116728 -0.02300359 -0.054554217 0.13744646 0.20492564 -0.12028514 -0.022547668 0.18403769 0.08403066 -0.062639244 -0.18250914 0.16710772 0.02501328 0.2638015 0.2265193 0.275756 0.26250112 -0.0015801268 0.20290828 0.33524325 0.11079279 0.01366323 -0.30128604 0.09754641 0.0108082285 -0.20823735 -0.281928 -0.041445937 -0.32669124 0.20800896 0.17733724 0.051727682
5 -0.009941161 -0.27187136 -0.15939592 0.04324934 -0.35111412 -0.08535542 -0.2218918 0.08798432 -0.16590732 -0.06548681 0.2932728 -0.23836382 0.25173938 0.076717794 -0.11924843 0.006819069 0.084111966 -0.19353463 0.15414475 -0.0873261 0.028075235 0.16384223 -0.02924952 -0.1534238 -0.06522714 -0.03560886 0.121500194 0.07635877 0.36590254 -0.06736491 -0.1430377 -0.019278947 0.20547639 -0.028735451 -0.041843146 0.13012229 0.21388984 -0.11827202 -0.031533718 0.18183148 0.08772338 -0.07536674 -0.19721308 0.16308635 0.038989257 0.26773944 0.23046018 0.29000401 0.26510584 0.0012756068 0.2008605 0.32761994 0.09982105 0.004342825 -0.31112117 0.081202365 0.015840225 -0.21051058 -0.28581756 -0.03586428 -0.32873765 0.21636479 0.17865033 0.048922516
17 -0.014376213 -0.25622448 -0.16223148 0.039263085 -0.34798074 -0.071473524 -0.21094306 0.08302518 -0.17231804 -0.081913605 0.29770675 -0.23250787 0.26018617 0.080569275 -0.11909049 0.017475288 0.080565386 -0.19349182 0.16531749 -0.08441182 0.022253638 0.1739149 -0.039664987 -0.1550343 -0.06848796 -0.044872116 0.1104336 0.07953124 0.38006583 -0.06395604 -0.15574753 -0.018410262 0.20989697 -0.03809604 -0.051228497 0.12769249 0.2103279 -0.11199244 -0.033929616 0.16667189 0.076573506 -0.07556897 -0.19623089 0.16493943 0.039230045 0.2664858 0.23050603 0.28042457 0.25865838 -0.007972974 0.20232211 0.32233647 0.11234042 0.008914455 -0.2928735 0.09044749 0.0053628427 -0.2029211 -0.28753656 -0.03392749 -0.33132365 0.22044393 0.185564 0.039767217
94 -0.018410703 -0.26918733 -0.15464768 0.044595473 -0.34099674 -0.08117363 -0.20888019 0.08132087 -0.18111432 -0.07251285 0.30807656 -0.22616412 0.25764722 0.06516464 -0.12410187 0.019697934 0.0734645 -0.19014148 0.15345074 -0.0756125 0.019331243 0.17245856 -0.034342363 -0.14987928 -0.07003255 -0.041215755 0.12093405 0.07888803 0.35845974 -0.05287634 -0.14269419 -0.0075104064 0.20470522 -0.021890353 -0.051953383 0.12176914 0.20648448 -0.11288762 -0.0208604 0.17985058 0.08527693 -0.0643685 -0.19894546 0.16765715 0.030075187 0.25470182 0.23752354 0.28321534 0.268406 -0.008867109 0.19944426 0.34296 0.11035436 0.002668445 -0.30502945 0.0999317 0.009282097 -0.20685051 -0.29451463 -0.044827715 -0.32786387 0.21136157 0.18223508 0.046313602
23 -0.0037801457 -0.26294586 -0.14996685 0.04419348 -0.340612 -0.08910106 -0.21679205 0.08087905 -0.16463348 -0.07371481 0.30259216 -0.23188919 0.24878663 0.069121234 -0.12197644 0.02362963 0.08186687 -0.20064959 0.1588138 -0.08795187 0.026101328 0.17451802 -0.033079013 -0.14622755 -0.06595221 -0.035328783 0.12324209 0.077836394 0.35294935 -0.06469065 -0.13868389 -0.010058114 0.21021202 -0.02592279 -0.03721607 0.13268392 0.19809926 -0.1160473 -0.029837344 0.18812989 0.08585801 -0.08091792 -0.1908603 0.16972582 0.03942897 0.26215914 0.23371309 0.28245682 0.26961705 -0.006667929 0.20454554 0.33064532 0.09644567 0.0015132703 -0.30063775 0.09822101 0.018174924 -0.21132196 -0.27853107 -0.03283575 -0.32451013 0.22143291 0.18732767 0.038545307
51 -0.017823495 -0.2611646 -0.16332108 0.03664204 -0.3426946 -0.070797935 -0.21975304 0.0778406 -0.18220577 -0.065698616 0.29628813 -0.2374563 0.25812966 0.073536254 -0.1307821 0.01590926 0.07006943 -0.19212817 0.15390053 -0.08179413 0.0160939 0.1719692 -0.02618827 -0.15981653 -0.075608365 -0.031060616 0.11947312 0.07293643 0.36986908 -0.062114816 -0.15158662 -0.010300851 0.21140997 -0.027570538 -0.05072013 0.12517823 0.20489627 -0.121804774 -0.025911344 0.1760746 0.086095884 -0.08141507 -0.18829687 0.16958307 0.029320275 0.27070597 0.23079713 0.28661403 0.26352373 0.005719802 0.21521474 0.33842856 0.10922 0.001245364 -0.29889068 0.096246235 0.0118539445 -0.20386843 -0.28133136 -0.041973047 -0.32316452 0.20688304 0.18780692 0.043408427
54 -0.024284793 -0.25434834 -0.15078185 0.03745363 -0.34943837 -0.08788569 -0.20616859 0.07759433 -0.18003431 -0.07359441 0.29724565 -0.23640937 0.26790565 0.06794462 -0.13234943 0.014106 0.07091678 -0.2002932 0.15664464 -0.071351096 0.019054754 0.16659482 -0.03458705 -0.14816816 -0.068752214 -0.038581442 0.11796622 0.08335116 0.3655777 -0.053223625 -0.14720032 -0.007903005 0.20578542 -0.026067285 -0.03760661 0.13593873 0.20660895 -0.11093161 -0.03328579 0.18442844 0.08066366 -0.08251686 -0.19233184 0.16123502 0.021756176 0.2714881 0.22997995 0.27811107 0.26226652 -0.0030401924 0.20949051 0.34299135 0.11446078 0.012459388 -0.2929116 0.09479456 0.009069872 -0.21206053 -0.27583143 -0.04267432 -0.33361852 0.20193537 0.19195953 0.041515965
15 -0.013458227 -0.25231478 -0.15851472 0.031606458 -0.3392493 -0.08131087 -0.22125788 0.07349383 -0.16948274 -0.06491708 0.30606386 -0.22731477 0.26435223 0.07734156 -0.13081385 0.017079901 0.079282984 -0.18992369 0.16082717 -0.08759157 0.017096011 0.18067952 -0.025311684 -0.15357974 -0.056610767 -0.044289324 0.11603065 0.085185654 0.3772806 -0.05007486 -0.14526662 -0.021572877 0.21517016 -0.035096776 -0.036698885 0.12583531 0.20678408 -0.117986135 -0.035445623 0.1786006 0.07813894 -0.081154 -0.18272533 0.15540247 0.03394933 0.26649392 0.24676517 0.29039553 0.27286252 -0.00808783 0.19796047 0.33478692 0.11071867 -0.0031665922 -0.30721012 0.09176622 0.0024005645 -0.20346022 -0.28616554 -0.036125213 -0.31864244 0.20813148 0.18739799 0.05407289
95 -0.028600806 -0.25535944 -0.14462012 0.045995425 -0.35717505 -0.08813844 -0.21802112 0.07574392 -0.1763001 -0.07833365 0.30776364 -0.23709863 0.27190796 0.07310014 -0.13343881 0.020733565 0.07078007 -0.19909145 0.16060534 -0.08117817 0.0147290565 0.17514485 -0.029457996 -0.15211186 -0.06672502 -0.034272287 0.12862457 0.08384237 0.3716964 -0.054112878 -0.16772117 -0.019891744 0.22610012 -0.023703743 -0.03806168 0.12460562 0.20334132 -0.108914584 -0.029585598 0.18487889 0.0827972 -0.06884848 -0.1976821 0.15907656 0.02064169 0.2717641 0.24193986 0.28605464 0.26498076 -0.005496274 0.2144469 0.32609665 0.121534325 0.008610168 -0.30860278 0.09802071 0.006780765 -0.19839047 -0.2740289 -0.037766837 -0.3363836 0.20708485 0.1810042 0.047486085
13 -0.019183401 -0.25741327 -0.16600747 0.032544456 -0.35164857 -0.08191514 -0.22177282 0.07118113 -0.1831588 -0.07592224 0.30449533 -0.23577659 0.266761 0.08649821 -0.13606076 0.013261755 0.07123788 -0.19738589 0.15580666 -0.0858736 0.019185018 0.17469752 -0.03728461 -0.14710586 -0.071635164 -0.04787671 0.11858191 0.08491815 0.37444437 -0.05742356 -0.15780699 -0.017434422 0.22215793 -0.03681762 -0.043075953 0.13049549 0.2058322 -0.12013352 -0.034337953 0.1861013 0.092445865 -0.07317772 -0.18545003 0.15659818 0.0274814 0.2651427 0.23886959 0.28398868 0.27335408 -0.011649219 0.20169269 0.33399856 0.10796864 0.006514978 -0.30478534 0.08837952 0.0051477654 -0.20327619 -0.2856081 -0.047280148 -0.32129496 0.21845748 0.18720907 0.051988933
69 -0.014439677 -0.2697488 -0.1605511 0.033816826 -0.34515008 -0.07210544 -0.22258282 0.08346607 -0.18229021 -0.07308032 0.29427814 -0.22432253 0.24413353 0.07628413 -0.12269697 0.029007582 0.076919205 -0.19652796 0.16247249 -0.08164978 0.017244292 0.16284008 -0.044898286 -0.14992547 -0.056844365 -0.03501134 0.1160749 0.07193778 0.3775939 -0.05801521 -0.15124257 -0.02308163 0.20953992 -0.041089337 -0.036687676 0.123038314 0.20745882 -0.12162865 -0.023625698 0.17425668 0.07556575 -0.07145473 -0.19154064 0.15905084 0.042413067 0.2629682 0.24443753 0.28392434 0.26759446 0.0015975792 0.19572583 0.3340057 0.115172595 0.010245782 -0.30909413 0.09726308 0.0012223588 -0.19537015 -0.29804355 -0.039555613 -0.32231513 0.21986799 0.18697076 0.04248489
72 -0.010642861 -0.25942907 -0.15673433 0.03745811 -0.3401666 -0.08968539 -0.2099104 0.076730415 -0.17633328 -0.0737719 0.29946256 -0.23171815 0.2639164 0.06996064 -0.13052498 0.011815613 0.07955303 -0.19112535 0.15651259 -0.07036052 0.02184981 0.17708331 -0.025172893 -0.15747371 -0.08065977 -0.04371667 0.12957108 0.07493069 0.37608927 -0.05754632 -0.15518358 -0.0078378385 0.21688347 -0.023874965 -0.051839568 0.13195725 0.20749496 -0.11488371 -0.03604431 0.18548363 0.094549894 -0.072420776 -0.19743252 0.16213322 0.026199568 0.2663987 0.23603065 0.28634676 0.25950846 -0.009975492 0.20253564 0.33317629 0.11280096 0.012280057 -0.2957529 0.09039231 0.015685791 -0.21541248 -0.2886344 -0.041823097 -0.33524343 0.21428336 0.19411103 0.048027042
43 -0.029658109 -0.25159818 -0.15339646 0.03508115 -0.34963056 -0.08768151 -0.21457042 0.0805206 -0.16206226 -0.08016755 0.30988628 -0.23652807 0.2634573 0.079115115 -0.12541778 0.01862226 0.075041264 -0.19484624 0.1668347 -0.07294395 0.022269836 0.16324893 -0.026433503 -0.15058655 -0.07384386 -0.037218746 0.12403874 0.06536098 0.36277878 -0.058606107 -0.1465579 -0.008241719 0.21732783 -0.0190426 -0.052545007 0.13816981 0.21295433 -0.11690873 -0.020069178 0.19197674 0.087740324 -0.06522456 -0.1930061 0.15352397 0.028917413 0.26898387 0.23422246 0.28389463 0.2741185 0.0063639656 0.20659147 0.32937312 0.10488731 0.00883985 -0.28613445 0.092646055 0.0003716132 -0.20905153 -0.28361642 -0.03778042 -0.3261147 0.21381323 0.19450627 0.040646214
80 -0.020590736 -0.258529 -0.15922935 0.035016708 -0.3519693 -0.07801933 -0.20626247 0.07680425 -0.1862792 -0.07518614 0.30933237 -0.23638628 0.24638766 0.069785446 -0.120550536 0.011426221 0.070988245 -0.20146842 0.16908577 -0.07383298 0.014750292 0.17564972 -0.025168028 -0.16212669 -0.07648617 -0.041813523 0.12053888 0.06532528 0.36384326 -0.06467466 -0.14858447 -0.008813515 0.21005175 -0.033944193 -0.04464318 0.1301415 0.21197861 -0.10289364 -0.033298492 0.16213752 0.074349284 -0.08360988 -0.18474907 0.16915664 0.04273427 0.25971544 0.24507692 0.29034197 0.25791922 0.010223534 0.21355553 0.3352315 0.10168256 0.01511034 -0.2916507 0.09203298 0.015573657 -0.20346004 -0.27875754 -0.03164729 -0.32303324 0.20985794 0.18928629 0.049190756
74 -0.017079242 -0.2592968 -0.14472313 0.04272518 -0.3519097 -0.074382275 -0.21865308 0.07955726 -0.18047483 -0.065952525 0.29108715 -0.23577398 0.2645818 0.07851928 -0.12575485 0.026620585 0.06692508 -0.18420272 0.15629989 -0.08380696 0.024891341 0.17416342 -0.026426211 -0.15678915 -0.060735084 -0.03967334 0.12950784 0.07727918 0.36215284 -0.0611006 -0.13603985 -0.0056328867 0.20873016 -0.03156312 -0.046462983 0.11898196 0.20766523 -0.114208385 -0.0323343 0.18658018 0.0936596 -0.08017453 -0.18225546 0.16975948 0.030076142 0.2750862 0.23581597 0.28089076 0.26259246 -0.008989744 0.21185662 0.32610872 0.10615385 0.00012231726 -0.30184522 0.08885183 0.013295931 -0.21726236 -0.2803588 -0.0448077 -0.3292271 0.20261323 0.18305145 0.042010278
42 -0.02966868 -0.25876698 -0.1560098 0.032147177 -0.34394008 -0.07485885 -0.2075744 0.075275175 -0.1703863 -0.075776406 0.30719995 -0.22641285 0.26624227 0.07366771 -0.12941273 0.02497194 0.07195794 -0.19863933 0.15549043 -0.08383321 0.017575461 0.16975164 -0.027781682 -0.14640747 -0.067829475 -0.043428607 0.12210079 0.08646478 0.36643913 -0.056193873 -0.14718567 -0.0063301595 0.21876153 -0.03365711 -0.03890288 0.12767988 0.21108526 -0.11694679 -0.024589159 0.17890887 0.087705605 -0.05984883 -0.19863532 0.16139235 0.020600988 0.2616852 0.24071386 0.28755215 0.27124375 0.0069183162 0.20986746 0.3414717 0.11163529 0.0024985657 -0.2954266 0.08572041 -0.0020235754 -0.20753786 -0.279038 -0.048123613 -0.32178503 0.20940693 0.18923582 0.048099305
20 -0.023193656 -0.27000147 -0.1621791 0.044085488 -0.34807685 -0.07769894 -0.21582225 0.072176464 -0.17481865 -0.07235487 0.29603407 -0.2419345 0.2692004 0.075776115 -0.13205096 0.011039365 0.08607189 -0.2049791 0.15833071 -0.072709434 0.015841978 0.1724359 -0.028117256 -0.14369118 -0.058508568 -0.04064483 0.116806604 0.06809637 0.36991608 -0.046825424 -0.15068989 -0.009565333 0.20927435 -0.03945648 -0.035811782 0.13023761 0.21221496 -0.1204169 -0.034315515 0.16993278 0.08115905 -0.073089056 -0.18839267 0.16779383 0.02570718 0.2683889 0.23949148 0.27897975 0.27509734 -0.007565608 0.20163405 0.336389 0.1185181 -0.00010121052 -0.30807212 0.09888963 -0.0007562861 -0.20696792 -0.28674847 -0.041560434 -0.32101205 0.2217796 0.19064471 0.0531036
84 -0.013585651 -0.2526374 -0.1507206 0.048160356 -0.3456855 -0.08224094 -0.21194766 0.086531185 -0.16842948 -0.07189475 0.310705 -0.2279122 0.25357944 0.0763876 -0.12830071 0.010347661 0.08356806 -0.1952656 0.16690807 -0.08782797 0.025009673 0.1749949 -0.03201207 -0.14745612 -0.07866295 -0.03781479 0.1138603 0.06722952 0.37976202 -0.06059089 -0.15255976 -0.009782608 0.21490926 -0.039457608 -0.046308324 0.13404052 0.21469322 -0.1044598 -0.023479912 0.1746877 0.086508915 -0.0710107 -0.19916812 0.15552416 0.03228532 0.2625323 0.22932313 0.28053728 0.26103374 -0.0054266765 0.21131416 0.33089697 0.11075639 0.009964459 -0.29956862 0.09021 0.015922297 -0.20894143 -0.2773081 -0.04258883 -0.32164824 0.2068365 0.1886599 0.050191086
14 -0.021048835 -0.27543536 -0.15146832 0.04325436 -0.34413165 -0.08546154 -0.2024873 0.072141744 -0.16880977 -0.06981764 0.30010504 -0.23568808 0.2636083 0.07999163 -0.12988177 0.021155637 0.071505524 -0.1921973 0.16374436 -0.074202575 0.030953102 0.1537395 -0.024559582 -0.15071031 -0.06392072 -0.031824008 0.12705666 0.08021747 0.36167023 -0.063139305 -0.13933297 -0.0034492945 0.21876447 -0.026037887 -0.05718103 0.12884733 0.2177336 -0.120537266 -0.019619528 0.17899905 0.08162289 -0.07907887 -0.1799035 0.15962362 0.034265608 0.2661922 0.22482967 0.2734545 0.27151805 -0.003565429 0.2117454 0.33936667 0.10891727 0.008552173 -0.30404177 0.091803044 -0.0057673305 -0.21063977 -0.29432052 -0.039147045 -0.332057 0.21720065 0.17976685 0.047730144
81 -0.020339385 -0.2572243 -0.15336339 0.04690513 -0.33547866 -0.081066 -0.2210583 0.07810575 -0.18557282 -0.06101813 0.30131254 -0.22942327 0.25947407 0.067482345 -0.11830879 0.013061361 0.070098884 -0.1993435 0.16025291 -0.078394204 0.0066320193 0.1649549 -0.035862856 -0.15113777 -0.08279915 -0.049576357 0.12061848 0.08743605 0.37495285 -0.058656447 -0.15947561 -0.009359895 0.21859851 -0.035609554 -0.045517556 0.13276944 0.21384224 -0.12640518 -0.023651361 0.17529207 0.07424433 -0.07722751 -0.18806756 0.1696768 0.037238818 0.26741892 0.23918004 0.28941643 0.26239443 0.010193399 0.20217808 0.32694167 0.11067769 0.010624424 -0.31033155 0.09041093 0.016528895 -0.20202416 -0.28474116 -0.045016803 -0.3248804 0.20825265 0.1781008 0.060194682
61 -0.010209083 -0.26116103 -0.15373018 0.05063382 -0.34954655 -0.08451412 -0.20438664 0.087090254 -0.17809281 -0.0807617 0.30171415 -0.23118146 0.24698722 0.07597984 -0.11954684 0.016936209 0.072552994 -0.20086388 0.15371269 -0.074759886 0.029697051 0.16428222 -0.038010824 -0.14665353 -0.07754829 -0.02593209 0.122063845 0.06943787 0.36488688 -0.06507916 -0.15034893 -0.015046666 0.21312681 -0.031370997 -0.049868178 0.12818417 0.21007253 -0.12200316 -0.02093167 0.18169777 0.08678486 -0.08207246 -0.19901685 0.17210916 0.024909576 0.25733867 0.23189339 0.28673047 0.2671857 -0.0050649247 0.20637953 0.34122062 0.10458562 0.0028227344 -0.30124763 0.09924195 0.0044007013 -0.20883077 -0.29517564 -0.030314157 -0.3269597 0.2176527 0.17917556 0.045011677
90 -0.015275955 -0.26501524 -0.15353796 0.031409446 -0.3584255 -0.07054903 -0.21011332 0.07551612 -0.18627115 -0.07136075 0.30569932 -0.23733947 0.25885752 0.07658193 -0.1374294 0.017386273 0.06969884 -0.19317047 0.17627212 -0.08828407 0.013851947 0.17419043 -0.029873548 -0.15418369 -0.07103634 -0.052972645 0.12314756 0.08767716 0.36831802 -0.052020647 -0.16288693 -0.020021927 0.21699303 -0.025022345 -0.041264035 0.13808109 0.20456815 -0.10850362 -0.020790767 0.18146066 0.087135985 -0.069275595 -0.19081455 0.1620685 0.036402248 0.25774837 0.23747109 0.2852115 0.25835738 -0.0066529415 0.21147715 0.3226256 0.1072321 0.0015657815 -0.3101692 0.09498251 0.006374342 -0.2040738 -0.27885154 -0.049529713 -0.32417375 0.20935895 0.18678889 0.055820365
46 -0.024914244 -0.25358027 -0.16387105 0.029200561 -0.343598 -0.08341823 -0.21949388 0.08686556 -0.18343468 -0.07526759 0.3060647 -0.2329272 0.25492996 0.06861804 -0.12201233 0.02218842 0.07986146 -0.18438672 0.16628778 -0.07892916 0.012636536 0.16543195 -0.029596124 -0.14816481 -0.062339664 -0.03724304 0.11164348 0.08214757 0.36147887 -0.049596738 -0.1590819 -0.019129217 0.21434723 -0.024567544 -0.043832704 0.11875108 0.19728357 -0.10568579 -0.03049881 0.1664802 0.08460905 -0.07118872 -0.18752481 0.1729571 0.033961028 0.26600143 0.23874165 0.2883351 0.26302233 -0.008081636 0.19122681 0.3208765 0.11090727 0.0056997966 -0.30215934 0.099725105 0.0041502123 -0.20390731 -0.27716082 -0.029704882 -0.3318885 0.21552451 0.18916737 0.04465874
87 -0.010329266 -0.2693692 -0.15897636 0.043408573 -0.34025303 -0.07230866 -0.20788549 0.08373883 -0.17219272 -0.06996086 0.29509124 -0.23460448 0.24904552 0.06919244 -0.13060074 0.021214154 0.07882431 -0.19773583 0.1548788 -0.06976465 0.016041443 0.159827 -0.036242496 -0.15633382 -0.06334724 -0.040827874 0.119849734 0.071102545 0.3638497 -0.058346 -0.15854797 -0.0067615933 0.20573041 -0.022024704 -0.0487546 0.13728732 0.21013927 -0.119392924 -0.022594497 0.18038586 0.09446399 -0.081205174 -0.1873776 0.16415383 0.032900825 0.27169362 0.22920014 0.27913764 0.2734684 -0.0013254436 0.20131144 0.3269013 0.11456469 0.0068288757 -0.29682273 0.08400297 0.011590554 -0.2054753 -0.28936335 -0.04239032 -0.32635435 0.21719426 0.18155982 0.054727774
18 -0.024684956 -0.26873788 -0.15597604 0.047612865 -0.33886862 -0.08314383 -0.20132773 0.0899965 -0.18226035 -0.0818379 0.2915054 -0.2317723 0.24792731 0.07580351 -0.11949136 0.030022835 0.06568815 -0.19130881 0.16102782 -0.08189695 0.014565723 0.17342715 -0.031068893 -0.15752953 -0.06699417 -0.033892803 0.12515154 0.071913816 0.35919654 -0.066924304 -0.14036818 -0.006887631 0.20665479 -0.028903957 -0.036997356 0.12465373 0.2122254 -0.10817851 -0.026131425 0.17309858 0.085744835 -0.08598027 -0.18644896 0.1657992 0.040176433 0.26511273 0.22676371 0.2885394 0.26742437 -0.005275576 0.21531768 0.3279674 0.10177182 0.014273306 -0.29758027 0.103858374 0.018072637 -0.21435396 -0.2853379 -0.036560938 -0.32688072 0.21361288 0.19107138 0.042230926
38 -0.013905161 -0.27091384 -0.15818971 0.045956988 -0.34537897 -0.07602811 -0.20899986 0.08837577 -0.17861089 -0.081870176 0.29384992 -0.24075653 0.25780675 0.07790048 -0.13483554 0.008916474 0.06859982 -0.1869612 0.157403 -0.0729607 0.0238518 0.16192687 -0.038863767 -0.1548799 -0.07001816 -0.044709276 0.11188763 0.07254705 0.35968795 -0.056068655 -0.14456512 -0.008102062 0.2171534 -0.03571694 -0.051424026 0.11971067 0.211166 -0.12548262 -0.028974839 0.17600097 0.08798438 -0.07155978 -0.19326727 0.1737903 0.034950003 0.2652884 0.23751472 0.28522706 0.27080983 0.00012304042 0.20549372 0.331501 0.10733625 0.003393653 -0.2950438 0.096473284 0.00025106495 -0.21213639 -0.28464162 -0.029412 -0.32539195 0.2138176 0.18755935 0.050271437
25 -0.016389411 -0.25606194 -0.14823954 0.044996426 -0.34497413 -0.09107378 -0.2142109 0.07670814 -0.18056294 -0.06782031 0.29714912 -0.2316678 0.25729132 0.08176973 -0.11977123 0.013846271 0.07643624 -0.20281452 0.15274893 -0.07835957 0.021487711 0.16910246 -0.029694112 -0.1487069 -0.072048925 -0.029372463 0.11709451 0.068267696 0.37091002 -0.06282565 -0.16455534 -0.017871505 0.20951858 -0.026953448 -0.03693635 0.13298924 0.21163328 -0.12585302 -0.023413332 0.17950673 0.08349023 -0.08928359 -0.19560991 0.16757508 0.040376253 0.26017505 0.24568349 0.285016 0.27169538 0.00083687337 0.21226187 0.34053653 0.10678919 0.003278609 -0.30987117 0.092465155 0.016177757 -0.20670143 -0.28212926 -0.042218834 -0.3388311 0.22650187 0.194309 0.047327336
60 -0.020482168 -0.26947236 -0.1559457 0.04488492 -0.34583187 -0.081548 -0.2225909 0.085685275 -0.17476977 -0.06501343 0.2964081 -0.22976723 0.26082072 0.06982839 -0.12971352 0.020454695 0.06595147 -0.18892369 0.16237837 -0.08837292 0.012646875 0.17018506 -0.026170995 -0.15156195 -0.061854172 -0.040672094 0.12632245 0.08018936 0.37843096 -0.05882668 -0.14616114 -0.013386289 0.214198 -0.028668646 -0.038575206 0.1290132 0.20877407 -0.12037904 -0.030559791 0.17451951 0.08288568 -0.077988006 -0.19414409 0.1716522 0.03978733 0.26977587 0.23755932 0.27667558 0.2615203 -0.008584467 0.20979753 0.3247516 0.107005715 0.0056021893 -0.30380583 0.10202181 0.014420156 -0.21257195 -0.28577915 -0.044775028 -0.32166874 0.20830709 0.18843374 0.04857141
96 -0.01564932 -0.25258702 -0.1489942 0.039945003 -0.35557985 -0.08209468 -0.20762926 0.08021872 -0.17028187 -0.067114726 0.29691437 -0.23899709 0.2530178 0.07872586 -0.13194846 0.020611256 0.08096899 -0.19702138 0.16392316 -0.07948982 0.018580291 0.17016008 -0.023658035 -0.1392191 -0.074107885 -0.033312775 0.116882905 0.07785365 0.36320892 -0.048464242 -0.14210933 -0.012019196 0.20763142 -0.030134853 -0.03956265 0.13652022 0.20420852 -0.12457856 -0.021569805 0.17786855 0.08165195 -0.0651446 -0.18674333 0.1655555 0.038639415 0.2625525 0.24546044 0.2815855 0.26683724 0.0038143592 0.20937501 0.3304065 0.10585959 0.00965538 -0.30471683 0.100364864 0.011963324 -0.21598767 -0.29025918 -0.03048804 -0.31775084 0.2195671 0.19168964 0.04406026
26 -0.023899961 -0.2582557 -0.16142815 0.029455937 -0.3519779 -0.08455462 -0.19751157 0.07296719 -0.16996716 -0.06873199 0.29768476 -0.22250265 0.26788577 0.06978147 -0.12506987 0.015550504 0.07521519 -0.19419432 0.16551358 -0.0709655 0.02002476 0.16758928 -0.03179124 -0.1421977 -0.055474747 -0.047083817 0.11975401 0.07241158 0.35732 -0.057684265 -0.1359069 -0.0052834065 0.21979985 -0.038322043 -0.04969269 0.13080044 0.20557722 -0.10925511 -0.02871254 0.18497808 0.09633953 -0.07908932 -0.18658717 0.15344673 0.018634692 0.26517084 0.2365504 0.29176217 0.27152804 -0.0061539016 0.2179686 0.34041226 0.10330756 0.006399084 -0.2925195 0.09337982 -0.002443194 -0.20679338 -0.28322583 -0.04713247 -0.32407176 0.20643772 0.17902717 0.038055487
19 -0.028070362 -0.26492465 -0.16340803 0.028114812 -0.34644508 -0.0789297 -0.20701973 0.0783583 -0.17815189 -0.07423502 0.30188674 -0.22442745 0.26226482 0.06795137 -0.1281931 0.01184748 0.08087056 -0.19536422 0.1710579 -0.07660439 0.013173031 0.17821433 -0.04044007 -0.15929303 -0.06719862 -0.0518867 0.12738699 0.084061526 0.37982905 -0.048694525 -0.14200883 -0.012114941 0.20342551 -0.035823643 -0.04232504 0.13892394 0.21292062 -0.115695894 -0.020256406 0.17375016 0.08117445 -0.07322127 -0.17560203 0.16123115 0.040069923 0.260158 0.24299257 0.2841448 0.2744107 0.0013945282 0.20464478 0.33105314 0.10869598 0.0062374817 -0.29638797 0.10202683 0.007325999 -0.20643963 -0.28861204 -0.044363175 -0.32095307 0.20825371 0.19563258 0.05083129
28 -0.015665641 -0.24717389 -0.14424077 0.043334965 -0.3483978 -0.08751319 -0.22064735 0.08338186 -0.1766961 -0.076076776 0.31114566 -0.24311033 0.26774114 0.07132293 -0.13041668 0.0102704 0.07557349 -0.19192992 0.17308551 -0.07762151 0.023565458 0.15824692 -0.031705167 -0.14384314 -0.06716833 -0.047125127 0.12634495 0.08277201 0.36866638 -0.062430117 -0.13854487 -0.016662544 0.2184136 -0.03278167 -0.04462746 0.13025875 0.20925358 -0.11789766 -0.024686772 0.18413848 0.09124367 -0.07631587 -0.18248236 0.16809213 0.0385144 0.27317166 0.24153702 0.28618112 0.2633114 0.011611271 0.19994456 0.3348992 0.10150083 0.009746702 -0.30149576 0.08829085 0.006796146 -0.21010861 -0.27758965 -0.03942541 -0.33150777 0.2184574 0.1859842 0.042402774
37 -0.014669152 -0.2536536 -0.1430168 0.049192246 -0.34143248 -0.086171776 -0.20109172 0.08381645 -0.16181153 -0.06462665 0.30530828 -0.22802038 0.2629696 0.07536767 -0.1239862 0.02099024 0.07927039 -0.19979982 0.16434449 -0.07253024 0.0155347 0.16398135 -0.022782393 -0.14820312 -0.07724317 -0.043411013 0.12726238 0.072457336 0.37612113 -0.056616426 -0.1520205 -0.015506899 0.2022333 -0.02291228 -0.049975283 0.12900788 0.2023463 -0.110451154 -0.022835912 0.18448788 0.080182575 -0.07110952 -0.19361717 0.17333943 0.03196708 0.2553783 0.23564589 0.27372774 0.26305875 -0.0019842975 0.20032477 0.33124435 0.10922229 0.005046909 -0.29556957 0.10183465 0.016634906 -0.2002884 -0.28921896 -0.037850853 -0.3227238 0.22039974 0.1918702 0.047267
0 -0.030504175 -0.2584568 -0.15695679 0.042023 -0.33752096 -0.08011773 -0.21547456 0.077192776 -0.16190255 -0.071354866 0.30142608 -0.23723668 0.25012764 0.05726925 -0.13675281 0.019179704 0.07887651 -0.1977767 0.15370743 -0.07338005 0.010184885 0.18012007 -0.034602996 -0.14584479 -0.07709959 -0.039991397 0.117913485 0.065639295 0.37363428 -0.04376123 -0.15840282 -0.011506137 0.20261408 -0.028845698 -0.048762266 0.14228094 0.21535033 -0.12307473 -0.023631286 0.17671187 0.07386437 -0.06775 -0.19490342 0.15890448 0.034011547 0.27222723 0.24344139 0.2769048 0.2581503 0.011222208 0.21197464 0.3379063 0.1068998 0.0040566414 -0.29773915 0.09850588 -0.006782217 -0.21637155 -0.28661087 -0.04871227 -0.3234386 0.21062332 0.19159108 0.05782003
27 -0.019843899 -0.26438656 -0.15000395 0.030407432 -0.34625158 -0.08225081 -0.20757839 0.06910053 -0.17939289 -0.06356247 0.3081818 -0.2290536 0.25371137 0.07486627 -0.11570211 0.015681183 0.076793216 -0.20324 0.16648678 -0.07401472 0.011245486 0.1623688 -0.041007143 -0.15032817 -0.07521887 -0.03584294 0.11897052 0.08260636 0.3656753 -0.047703087 -0.15686087 -0.0021767702 0.21351619 -0.028537167 -0.047537576 0.13501067 0.21241848 -0.11786534 -0.021174176 0.18059696 0.084345244 -0.058196597 -0.19677965 0.16553937 0.029154405 0.255775 0.24026586 0.28552556 0.2591813 0.011682401 0.19805712 0.32785013 0.1086767 0.005998008 -0.29061827 0.08895453 0.008763161 -0.20972843 -0.28804585 -0.032330327 -0.32799628 0.2154091 0.18312256 0.056325447
2 -0.009636043 -0.26713043 -0.15712386 0.034051128 -0.34067953 -0.06907679 -0.21777837 0.09139437 -0.18294996 -0.06107146 0.30424017 -0.22838496 0.25252336 0.07890884 -0.123192534 0.022282835 0.074089445 -0.19440176 0.15740597 -0.08560941 0.00927778 0.16462258 -0.03997048 -0.15397732 -0.07420141 -0.03929519 0.112573974 0.07201345 0.37341177 -0.056859516 -0.15877956 -0.0008843855 0.21568502 -0.032795142 -0.0418327 0.12733516 0.20503576 -0.1277145 -0.021247035 0.17338403 0.077992655 -0.07275937 -0.19250444 0.16707452 0.04756114 0.2618142 0.23477812 0.29403692 0.2758882 0.0077043013 0.21068296 0.34371805 0.11756779 -0.0036700822 -0.31142706 0.08945191 0.0019836873 -0.1981677 -0.27814 -0.025544547 -0.3218547 0.22479135 0.18986307 0.05747993
10 -0.022625841 -0.27179113 -0.16407022 0.041843016 -0.35919055 -0.08251003 -0.21760109 0.07181159 -0.17690791 -0.06892409 0.31336355 -0.237669 0.26238093 0.07980043 -0.12950958 0.02305414 0.07055739 -0.20421597 0.16575621 -0.07902123 0.01854992 0.16618304 -0.033641163 -0.1572033 -0.07365142 -0.036350187 0.12416186 0.084130086 0.38020656 -0.05647135 -0.14742924 -0.01118865 0.22316135 -0.040426057 -0.044304352 0.14040521 0.219246 -0.121457726 -0.024359878 0.1834383 0.07742401 -0.0790861 -0.18964083 0.15841246 0.021553509 0.2634257 0.23585665 0.28708336 0.26615357 0.0050489604 0.20974424 0.33624238 0.10776218 -0.0039413483 -0.30779892 0.08705872 -0.004223877 -0.20869122 -0.28536907 -0.04888904 -0.33640122 0.21291831 0.1816885 0.054804277
77 -0.026739474 -0.25380525 -0.14594147 0.039720703 -0.34616345 -0.07433789 -0.20825176 0.07550579 -0.17099859 -0.06691669 0.30518937 -0.23589283 0.26118952 0.07321377 -0.12781478 0.009298514 0.08428553 -0.19880462 0.16767347 -0.07895135 0.017202424 0.17513405 -0.042847995 -0.14612022 -0.064591825 -0.051177356 0.1134714 0.07780936 0.37618506 -0.047669265 -0.15449312 -0.008216859 0.20564337 -0.02084991 -0.038141567 0.13826504 0.21323776 -0.114419006 -0.027654238 0.17065048 0.08099925 -0.07374207 -0.18534897 0.16470878 0.035411436 0.2556515 0.23570456 0.27849558 0.26973936 0.0038255218 0.20858583 0.33802354 0.116774425 0.013317607 -0.29063475 0.090267934 0.012315387 -0.1988133 -0.27410612 -0.038072284 -0.32205564 0.21516128 0.19572747 0.046251375
9 -0.024343818 -0.26304474 -0.16258657 0.0475727 -0.34301862 -0.07846997 -0.21554455 0.08023347 -0.17238253 -0.07356541 0.29834434 -0.23045504 0.2609558 0.07105089 -0.11946582 0.013810314 0.079624444 -0.19268171 0.16247508 -0.080013774 0.013083711 0.17041102 -0.039021958 -0.14314815 -0.07240247 -0.04408315 0.11105012 0.07606262 0.3703943 -0.05977145 -0.1432681 -0.004910742 0.2146339 -0.03189837 -0.041106574 0.1340082 0.21528232 -0.11997593 -0.035321895 0.17807919 0.08102824 -0.08116416 -0.19376512 0.16415982 0.02747857 0.27066597 0.23563983 0.27878487 0.2646318 -0.0045489077 0.20699063 0.33483323 0.11641148 0.0032815025 -0.30114827 0.08837825 -0.0038849267 -0.19947626 -0.2810682 -0.037034724 -0.319147 0.21785018 0.18044432 0.044847928
50 -0.014178202 -0.2643761 -0.15314789 0.03889766 -0.34802425 -0.074111015 -0.21543151 0.08767835 -0.18080975 -0.0782747 0.3047253 -0.2352766 0.26552066 0.07835191 -0.11595054 0.018821431 0.066487454 -0.19102705 0.16516234 -0.08241537 0.013588825 0.17327307 -0.03663731 -0.1439672 -0.062359437 -0.04136885 0.12611258 0.07736549 0.36946642 -0.04972165 -0.14566223 -0.01290568 0.21007682 -0.039492846 -0.03190229 0.1322451 0.20805874 -0.123306625 -0.020463878 0.17803575 0.08562543 -0.072928205 -0.19151825 0.16571338 0.035983313 0.26315534 0.2464451 0.276893 0.27589893 -0.00220036 0.20875095 0.3336983 0.116665974 0.00995496 -0.30703133 0.100873746 0.0077383984 -0.20344949 -0.28323507 -0.043215286 -0.32182097 0.2054676 0.1872566 0.04267791
22 -0.012683584 -0.25653306 -0.1477957 0.03654018 -0.33981416 -0.08968072 -0.21616793 0.07676355 -0.1748734 -0.07921004 0.29752323 -0.2293141 0.25593206 0.07925066 -0.13395368 0.021971365 0.08465597 -0.20245615 0.1583845 -0.08022579 0.024306577 0.17572145 -0.033780623 -0.14907078 -0.0699414 -0.03148484 0.13180117 0.08130862 0.37051114 -0.053180046 -0.15502644 -0.010929648 0.20932081 -0.026162004 -0.044169914 0.12848859 0.21752644 -0.117124096 -0.02371736 0.1834016 0.08612437 -0.0760666 -0.186093 0.1656146 0.02914433 0.26430768 0.24456468 0.27711663 0.26484075 -0.0016643077 0.21463938 0.3419768 0.10197471 0.006345468 -0.30714285 0.090133324 0.0050384374 -0.21744235 -0.29556733 -0.03206241 -0.32786673 0.21392758 0.1973604 0.05341835
70 -0.019112801 -0.26390976 -0.14374067 0.037971474 -0.3360497 -0.08518355 -0.21333246 0.0734942 -0.17943466 -0.06423513 0.30371308 -0.23252322 0.2557768 0.06934041 -0.11765765 0.011733917 0.07779505 -0.19190736 0.17101596 -0.08145312 0.021789504 0.1629892 -0.04090748 -0.14010662 -0.07096079 -0.043099243 0.119738765 0.065524444 0.37435365 -0.048947256 -0.1484345 0.0015383288 0.20834619 -0.030297998 -0.04437741 0.13370498 0.2090001 -0.11654472 -0.02667613 0.18118915 0.090400815 -0.07891368 -0.1902015 0.16712938 0.032535348 0.26061285 0.24092092 0.275928 0.27057365 0.008607642 0.20475346 0.3358355 0.10966653 0.009288652 -0.28983048 0.09467264 -0.0028207866 -0.2090338 -0.2865227 -0.041727625 -0.33114776 0.22410128 0.18718222 0.05200107
85 -0.02971769 -0.26005217 -0.14921142 0.0377311 -0.353853 -0.08843987 -0.2164723 0.07408728 -0.16808377 -0.06868933 0.30800354 -0.23080388 0.26506594 0.06950691 -0.11986141 0.0078758085 0.072227515 -0.19780572 0.15470366 -0.07864109 0.008708829 0.16304721 -0.022561057 -0.1432394 -0.06548542 -0.035678796 0.12247407 0.06624014 0.3590693 -0.061210815 -0.1498803 -0.013843523 0.20669317 -0.02688576 -0.0452054 0.1381919 0.21681799 -0.11137493 -0.027160654 0.1896591 0.071985126 -0.08152764 -0.19994755 0.16211696 0.04155921 0.26451543 0.24184425 0.29487658 0.26734334 0.011453071 0.21866181 0.32966968 0.1030671 0.009390114 -0.292939 0.10339803 0.012406781 -0.21416922 -0.2778332 -0.03442982 -0.328423 0.22294904 0.1945382 0.054004934
75 -0.018462598 -0.24675657 -0.14247172 0.047184598 -0.34349096 -0.07895744 -0.19947754 0.07245251 -0.18234533 -0.07194601 0.29139674 -0.23891442 0.26090655 0.06742646 -0.11925293 0.02515962 0.07511534 -0.20056161 0.1640409 -0.06844589 0.020528417 0.17431213 -0.04173178 -0.14552797 -0.0813184 -0.038423914 0.11722751 0.0740656 0.37071273 -0.04664372 -0.15381221 0.0025534416 0.21498182 -0.019569915 -0.050342407 0.13646162 0.21258596 -0.11417611 -0.019351339 0.19030614 0.08243119 -0.070284635 -0.18104778 0.16011237 0.032925803 0.25864285 0.23946346 0.27617037 0.27368346 -0.0020729434 0.2029784 0.33815712 0.10875809 0.0069845906 -0.29575437 0.1050517 0.0034111952 -0.20622045 -0.28417054 -0.030047553 -0.3334062 0.22414602 0.18554655 0.043230783
82 -0.026526758 -0.26054037 -0.15131035 0.0398118 -0.34536102 -0.07586438 -0.20326881 0.07435385 -0.1721649 -0.062968604 0.2886375 -0.23024051 0.2619721 0.071456656 -0.12596342 0.01741651 0.07685315 -0.19859163 0.15748526 -0.07593504 0.016700787 0.16623008 -0.037560537 -0.1480477 -0.08058458 -0.04562259 0.12591946 0.068458825 0.36868936 -0.061958432 -0.1481907 -0.009538195 0.21360537 -0.023466878 -0.042311788 0.13529897 0.20728032 -0.11359302 -0.019755976 0.18851645 0.087543935 -0.0794886 -0.18575734 0.17404725 0.033623245 0.27182293 0.23111473 0.28933492 0.27473408 0.015471468 0.20612822 0.33440658 0.11340697 0.005416718 -0.29779214 0.09498573 0.008582141 -0.21533032 -0.28311017 -0.041994177 -0.3378768 0.22571492 0.1924303 0.038790517
41 -0.032762896 -0.25244904 -0.15163516 0.04452453 -0.3361173 -0.07204794 -0.21317144 0.06951132 -0.16700898 -0.062996 0.29917845 -0.23443183 0.2657815 0.06242099 -0.12081809 0.016391989 0.08027523 -0.19175136 0.16329348 -0.07473354 0.020720376 0.16897672 -0.02654627 -0.1480027 -0.07797028 -0.04355958 0.11351751 0.07886304 0.36406928 -0.050500877 -0.14570688 -0.0018150827 0.2097529 -0.03249056 -0.036445778 0.13556747 0.21627028 -0.12229963 -0.032815486 0.18733138 0.07747395 -0.06612977 -0.18985534 0.1668605 0.020953227 0.26059493 0.23867439 0.28043202 0.26195428 0.015225222 0.21719591 0.33456653 0.105814785 0.0058084363 -0.29974237 0.09665691 0.012642377 -0.21992923 -0.29214522 -0.044887934 -0.33278942 0.21657152 0.19827639 0.04868694
56 -0.018540325 -0.25917456 -0.16340932 0.04264771 -0.35555857 -0.077057846 -0.22043958 0.08370385 -0.16954543 -0.080244005 0.2965874 -0.22802848 0.26992524 0.0760813 -0.12593524 0.015417438 0.0796454 -0.19996004 0.15625428 -0.074392356 0.011644642 0.16395392 -0.025619237 -0.15963037 -0.062617585 -0.050556425 0.12366392 0.08050781 0.36796528 -0.07049913 -0.14925762 -0.012938223 0.20682745 -0.03200814 -0.04893627 0.13455825 0.20775725 -0.114681914 -0.031142756 0.17107634 0.07953939 -0.072834484 -0.19193138 0.17770866 0.03708867 0.2647451 0.24710381 0.29206702 0.265527 -0.0029496052 0.2115494 0.33599302 0.10243443 0.0028718614 -0.3036237 0.09944334 0.009337642 -0.20997302 -0.2902545 -0.033818156 -0.3319007 0.2182166 0.1918308 0.053970408
66 -0.021680305 -0.26321262 -0.15196902 0.038892385 -0.34283006 -0.07873655 -0.21316303 0.079176016 -0.16503704 -0.07257213 0.29504222 -0.2390697 0.25945097 0.077124484 -0.120262146 0.015594707 0.072039075 -0.2050305 0.16167006 -0.08396597 0.012415737 0.17441005 -0.034867693 -0.1570754 -0.07471801 -0.03936333 0.12491611 0.08434531 0.37020215 -0.065714724 -0.15862744 -0.01248769 0.2132529 -0.035009265 -0.039997566 0.1383503 0.2109632 -0.12443095 -0.03211891 0.18003088 0.090590715 -0.07272337 -0.19533098 0.1626434 0.029937895 0.26540193 0.22628395 0.2873273 0.25795493 -0.0023351589 0.21502593 0.3218429 0.10447304 0.011317513 -0.2885339 0.09236102 0.011931702 -0.20422022 -0.28450194 -0.03393379 -0.3247796 0.20689858 0.18441762 0.04498063
64 -0.019068295 -0.26400465 -0.14609174 0.04595924 -0.34696123 -0.08951143 -0.20657158 0.08305204 -0.16948603 -0.06714705 0.30066845 -0.2290435 0.2581319 0.0859643 -0.12677473 0.014886343 0.07977159 -0.20537722 0.1533236 -0.090243444 0.026982112 0.17840432 -0.035129342 -0.15835434 -0.07355345 -0.040741734 0.1192271 0.07323563 0.37718397 -0.07076196 -0.14369299 -0.0082790125 0.2195137 -0.0245534 -0.0387205 0.1282621 0.21427357 -0.12457707 -0.024751613 0.18127151 0.08522184 -0.071340136 -0.19512428 0.15947928 0.035442326 0.25292867 0.23439702 0.27475327 0.27096805 0.00044259685 0.22208564 0.34540477 0.10885302 -0.0019958245 -0.30383095 0.10032131 0.01681869 -0.21413626 -0.2798662 -0.038399857 -0.32206494 0.22750609 0.19226494 0.042064495
8 -0.030589169 -0.26136225 -0.16262767 0.033884335 -0.33857176 -0.08116367 -0.20480223 0.08002205 -0.16769147 -0.07185337 0.3065649 -0.22100374 0.2604696 0.06627254 -0.11942411 0.029044522 0.07689021 -0.19237867 0.15629819 -0.07877624 0.020767 0.16853763 -0.03527298 -0.15695934 -0.07599344 -0.031234076 0.12860885 0.08215809 0.37022623 -0.052905597 -0.16199863 -0.010069019 0.20397222 -0.023966206 -0.04398847 0.12755212 0.21641394 -0.12168139 -0.022909276 0.1703519 0.07415835 -0.07126993 -0.18641488 0.1608552 0.03339672 0.2633573 0.23858586 0.28147435 0.2681775 -0.008013593 0.19597945 0.32281232 0.11449176 0.0010516183 -0.30838615 0.086659074 0.008567724 -0.20352118 -0.28419894 -0.0344585 -0.3337081 0.20272702 0.17728056 0.053203475
68 -0.017170118 -0.27234656 -0.15888171 0.04622723 -0.34647104 -0.09135842 -0.21923496 0.08652443 -0.1761041 -0.063067585 0.30511057 -0.23755507 0.2522378 0.06431432 -0.12795666 0.009134139 0.07916565 -0.19328085 0.16291732 -0.07613232 0.011084219 0.16782351 -0.026299795 -0.1559083 -0.071572594 -0.039948404 0.12206871 0.07746689 0.3704665 -0.047967326 -0.1571132 -0.015902288 0.20052958 -0.03432373 -0.047191907 0.13314568 0.20471658 -0.11153023 -0.024297561 0.17785147 0.091147006 -0.083785415 -0.1877477 0.16310492 0.033618607 0.2758857 0.24756669 0.2762103 0.26362175 0.0021632514 0.19831645 0.34422705 0.110547006 0.008702884 -0.30223295 0.101489276 0.007914187 -0.2063555 -0.29197755 -0.046677362 -0.3389824 0.21386696 0.18608856 0.045632597
49 -0.02680304 -0.26007637 -0.1644341 0.036274802 -0.34617934 -0.07398593 -0.21595679 0.09053708 -0.17731611 -0.07314725 0.3108448 -0.24090752 0.26078087 0.08114566 -0.1361513 0.015239117 0.0781727 -0.19788755 0.16277589 -0.07807756 0.017901052 0.16618696 -0.034102734 -0.15442342 -0.071711645 -0.037922498 0.12512046 0.07143969 0.37042442 -0.054140065 -0.15399054 -0.02112499 0.217363 -0.02999458 -0.054622617 0.12921886 0.20586607 -0.12250571 -0.028425762 0.18051386 0.08486871 -0.06748206 -0.19470294 0.15984404 0.045801688 0.25411803 0.24646865 0.2787778 0.26432845 -0.0034566643 0.21145417 0.33094227 0.09941409 7.290702e-05 -0.30414158 0.09160676 0.013018452 -0.20440798 -0.28115916 -0.040582348 -0.3152895 0.21618234 0.1829614 0.04374204
62 -0.028360285 -0.27032104 -0.15775746 0.036225427 -0.34765068 -0.07279155 -0.21811223 0.08697354 -0.17585665 -0.06642538 0.31377113 -0.23440775 0.24932593 0.07634615 -0.12784329 0.005912028 0.072433814 -0.20160066 0.16476935 -0.089316316 0.021905592 0.1632375 -0.03471268 -0.15407725 -0.06362382 -0.045375448 0.11441464 0.063749515 0.37224934 -0.055862233 -0.15316792 -0.023708161 0.21064368 -0.037033245 -0.050948977 0.13663979 0.2135512 -0.11101918 -0.021544613 0.17913787 0.08641996 -0.074542165 -0.195853 0.16250557 0.038879856 0.27401844 0.23649575 0.27890122 0.27028948 0.00608028 0.20114444 0.32745227 0.11239888 -0.0020671021 -0.3006535 0.082266055 0.00096315966 -0.20009544 -0.2881899 -0.039455283 -0.32510245 0.22334953 0.18253615 0.048777208
92 -0.027296308 -0.251575 -0.14516953 0.044550635 -0.34500557 -0.07918759 -0.2069206 0.06771229 -0.16905598 -0.07806697 0.29935053 -0.23192792 0.25286338 0.07693165 -0.13055414 0.019068738 0.07474314 -0.18878804 0.15847883 -0.06776884 0.028155468 0.15922293 -0.03241898 -0.14090253 -0.06357402 -0.047610175 0.12537177 0.08354453 0.37441918 -0.050015703 -0.14549759 3.2274347e-05 0.2195063 -0.027179318 -0.049520653 0.1374526 0.213576 -0.11992891 -0.028124338 0.17413795 0.087782644 -0.069121994 -0.18563879 0.1648781 0.030679414 0.26416713 0.23536724 0.2784699 0.260481 0.0050533004 0.20490043 0.33071503 0.11364765 0.002637193 -0.29920107 0.096537165 -0.007683134 -0.20468609 -0.27573684 -0.037374273 -0.32913718 0.22027682 0.17984755 0.041404583
1 -0.018998517 -0.24414738 -0.1534078 0.040942654 -0.340888 -0.07505354 -0.21411073 0.08569728 -0.17300832 -0.06777209 0.2947708 -0.2376547 0.25920272 0.08257814 -0.11738737 0.0117647275 0.074060984 -0.19054696 0.16581576 -0.0822375 0.025591176 0.16090265 -0.022365196 -0.15054674 -0.08038605 -0.036537968 0.1305744 0.08318642 0.36201116 -0.044248804 -0.14674602 -0.0019574894 0.20284376 -0.025440449 -0.05771806 0.1341539 0.20851234 -0.12322054 -0.021445904 0.1884274 0.08305568 -0.06090518 -0.1810897 0.16770689 0.022947818 0.26879752 0.23315689 0.28071684 0.2559458 0.0026862915 0.21202053 0.3350996 0.11874044 0.0068330998 -0.3017008 0.0986206 0.0070873294 -0.2090818 -0.28674915 -0.04590751 -0.3283932 0.21671495 0.18358245 0.044988815
99 -0.0122169815 -0.26278085 -0.16244084 0.029842922 -0.33991742 -0.08340551 -0.21801995 0.076490015 -0.1767651 -0.07192433 0.30969828 -0.22828205 0.26619402 0.08025393 -0.12611406 0.010600197 0.07390169 -0.18722889 0.15888113 -0.07570836 0.024481883 0.17279084 -0.032782707 -0.14626534 -0.06492355 -0.048706435 0.12604871 0.07174076 0.37958354 -0.052543487 -0.14487925 -0.011485738 0.21235815 -0.02735351 -0.051871367 0.12827902 0.21534927 -0.112928025 -0.032696314 0.17470327 0.077658705 -0.07889019 -0.18073428 0.1598507 0.03611741 0.27214283 0.22596121 0.27707374 0.2634854 -0.00773132 0.21101502 0.33685818 0.10254964 0.00063683063 -0.29395887 0.10005848 0.0002991676 -0.20557247 -0.2888787 -0.032491066 -0.32872504 0.21497163 0.18367442 0.039546277
88 -0.0087183 -0.264844 -0.15823042 0.050621446 -0.35140458 -0.06941594 -0.21969411 0.09210116 -0.1684462 -0.07162416 0.30639094 -0.23503141 0.25442517 0.06992405 -0.12709868 0.008308949 0.07836382 -0.19940527 0.16119964 -0.08536815 0.010410661 0.17432033 -0.034772143 -0.14459579 -0.06337842 -0.051820677 0.11064759 0.08321977 0.37613133 -0.052433144 -0.1485604 -0.012156946 0.21083531 -0.038738795 -0.045067713 0.12760466 0.22026604 -0.119304016 -0.017837696 0.16914082 0.07902435 -0.081362 -0.19074307 0.16719006 0.034679074 0.266699 0.23578203 0.28779885 0.26706913 -0.003366595 0.21322693 0.33788064 0.101715505 -0.0014392175 -0.31082177 0.088076614 0.016270032 -0.20281602 -0.2789965 -0.03352592 -0.3320783 0.22191915 0.18240002 0.048436683
79 -0.014662768 -0.2814024 -0.17117463 0.03962528 -0.33876216 -0.06697044 -0.22211221 0.09516326 -0.17350885 -0.069568895 0.30385017 -0.23735014 0.2521595 0.077173874 -0.12965778 0.017078782 0.07748202 -0.20188352 0.15742776 -0.08253159 0.010052193 0.1770214 -0.044603027 -0.14669195 -0.05715413 -0.051064234 0.1068224 0.08045036 0.37557703 -0.06420775 -0.14987153 -0.006392882 0.20823018 -0.04335751 -0.049367905 0.12737527 0.21384197 -0.12404031 -0.022992814 0.1677462 0.08677301 -0.08365625 -0.18989366 0.1605766 0.041653365 0.26275584 0.22764167 0.28898966 0.2756481 -0.0029651488 0.20162591 0.3247443 0.0956966 -0.00626172 -0.30099592 0.087109566 0.0010850338 -0.20397311 -0.27874297 -0.027178729 -0.3194626 0.20815445 0.18937624 0.05374298
45 -0.022227041 -0.27949753 -0.16258687 0.036609568 -0.34192693 -0.07974034 -0.21941742 0.08454569 -0.18030596 -0.06603094 0.30386975 -0.23595126 0.25114936 0.08214265 -0.12917453 0.013111351 0.068770096 -0.19265498 0.1638027 -0.08961013 0.01506421 0.17132905 -0.03331864 -0.15677015 -0.058170315 -0.037415188 0.114251815 0.072417445 0.3691982 -0.06397861 -0.15559003 -0.02190502 0.21027763 -0.036054615 -0.041912828 0.12387902 0.20638137 -0.11170501 -0.017255193 0.17120172 0.08751509 -0.07445471 -0.19438577 0.16384478 0.04252326 0.25932747 0.24150175 0.28648242 0.26623887 -0.006494159 0.20148405 0.32193598 0.09985836 0.0052530174 -0.29422078 0.09498457 0.0073498054 -0.19575958 -0.2920545 -0.04671362 -0.32087144 0.21351142 0.18806209 0.05657538
12 -0.0108774 -0.27750644 -0.15499984 0.052190166 -0.35260853 -0.084468864 -0.21854262 0.07988025 -0.17240773 -0.08618896 0.29786754 -0.22804534 0.24922144 0.06705197 -0.1325416 0.020789346 0.06932793 -0.19450834 0.15051973 -0.077306084 0.010845726 0.16779539 -0.03168051 -0.15151621 -0.063696146 -0.031469826 0.121127956 0.079819396 0.36211887 -0.048667666 -0.15668933 -0.020064874 0.21094394 -0.029534375 -0.046921577 0.13392216 0.21250701 -0.11965832 -0.033157323 0.18396604 0.08982392 -0.08318256 -0.1864387 0.165792 0.020805696 0.26949763 0.23839693 0.28031796 0.26159763 -0.00632275 0.20299713 0.32418075 0.11950485 0.00085166784 -0.30115107 0.09148434 0.008067878 -0.20607664 -0.29570076 -0.04279574 -0.32481402 0.2030775 0.19339152 0.046032816
29 -0.018747775 -0.2764758 -0.15619832 0.03394702 -0.35153794 -0.074274115 -0.2150993 0.08272498 -0.17130688 -0.066487454 0.3121676 -0.225499 0.25385493 0.07092421 -0.11746288 0.010584643 0.08202635 -0.1987139 0.1691808 -0.07414296 0.026035372 0.16959628 -0.031234387 -0.1553236 -0.06603716 -0.04801153 0.11313343 0.070535995 0.38074544 -0.06419902 -0.1534223 -0.013309151 0.21106546 -0.031798087 -0.05161949 0.14017026 0.2136381 -0.11777727 -0.03206782 0.17134124 0.0872731 -0.069383025 -0.19118321 0.1632699 0.041691426 0.25222933 0.23453829 0.28055137 0.28076714 -0.002301666 0.20730934 0.33611885 0.112445325 -0.0031597726 -0.30154833 0.09631661 0.0017061611 -0.20950304 -0.28933015 -0.03439178 -0.33057517 0.21609999 0.18740946 0.050923754
39 -0.01625658 -0.27757016 -0.15697998 0.051756706 -0.34041512 -0.075515084 -0.21274653 0.08617769 -0.1757296 -0.061538037 0.30207613 -0.22909836 0.25941783 0.081624456 -0.124027275 0.023276014 0.076170295 -0.18701936 0.15703422 -0.08658347 0.020951422 0.16671444 -0.03163998 -0.15927784 -0.07027287 -0.037043042 0.12376345 0.07008384 0.35811356 -0.0686006 -0.14849253 -0.0027897207 0.20019142 -0.027607225 -0.049399626 0.13059668 0.2007076 -0.11831018 -0.028628808 0.16937657 0.08858833 -0.0785608 -0.19188929 0.17028062 0.042169485 0.268158 0.22839054 0.2930289 0.26589072 -0.008611214 0.2046478 0.33763462 0.09993053 0.013290547 -0.30894935 0.084394075 0.014400425 -0.20587535 -0.28559226 -0.041679174 -0.32511857 0.21456721 0.17505963 0.042506184
48 -0.020660194 -0.25829002 -0.15987095 0.05210983 -0.3431681 -0.08487836 -0.21116124 0.07377407 -0.16288468 -0.08028296 0.30126473 -0.24003267 0.25699267 0.07202784 -0.13021497 0.01146101 0.07029413 -0.2006361 0.15177913 -0.075271346 0.010438058 0.16319248 -0.03803766 -0.14646067 -0.07266884 -0.024603473 0.12590964 0.07434487 0.36405307 -0.04646677 -0.16264822 -0.0050247367 0.21318462 -0.028202584 -0.048164792 0.13224964 0.21587555 -0.1237149 -0.024953004 0.18240884 0.072764285 -0.08009007 -0.1939226 0.173252 0.03443041 0.25251263 0.24079677 0.28627726 0.27236557 -0.009282232 0.21028206 0.33690366 0.11896826 0.0015848215 -0.30164078 0.10175205 0.010088119 -0.21196765 -0.28159973 -0.033844892 -0.32260048 0.20948108 0.19349425 0.052839212
35 -0.020305796 -0.25800467 -0.16349989 0.033030402 -0.36011723 -0.08956659 -0.20630504 0.081016056 -0.16868232 -0.07215028 0.3002079 -0.24196818 0.25118867 0.07728753 -0.114870764 0.015575315 0.07707476 -0.19999944 0.15554218 -0.07999993 0.020402145 0.1779887 -0.030221362 -0.14415127 -0.07148257 -0.033407547 0.112109475 0.080414385 0.37304997 -0.05756397 -0.15868858 -0.0054899235 0.21737449 -0.027374832 -0.03647723 0.123535834 0.21070793 -0.12325708 -0.029438742 0.16930795 0.08914287 -0.07246972 -0.19770268 0.16298619 0.042821307 0.2682268 0.23246004 0.2930999 0.27862832 -3.6596502e-05 0.21489745 0.339555 0.10857804 0.0015046772 -0.2948368 0.092326105 0.0069551296 -0.19583414 -0.28294823 -0.028983293 -0.3215472 0.2070581 0.191488 0.041242026
78 -0.025469651 -0.26959845 -0.1527788 0.025978163 -0.34849304 -0.07887966 -0.20618051 0.08339878 -0.17845093 -0.060415853 0.30359608 -0.24136998 0.26186648 0.07693 -0.122706585 0.013856487 0.072369315 -0.19906887 0.15192279 -0.082751594 0.023860598 0.17354333 -0.042107187 -0.15731992 -0.06230674 -0.037471034 0.12467789 0.070601664 0.36049607 -0.060002446 -0.15642156 -0.014830999 0.20522633 -0.030012624 -0.042298984 0.14037822 0.19883184 -0.11016201 -0.02639869 0.16826953 0.08851916 -0.072366945 -0.1994736 0.15716755 0.042865228 0.2581067 0.24207069 0.29135883 0.27963194 0.003286381 0.21375583 0.32433793 0.102531746 0.0033243967 -0.29302692 0.08587887 0.017632369 -0.20767565 -0.2740056 -0.034320623 -0.31215322 0.21589279 0.18618838 0.053223584
97 -0.01517012 -0.2700303 -0.1658012 0.03782067 -0.34385255 -0.08151804 -0.21573824 0.07348007 -0.17364159 -0.06171164 0.3083948 -0.22980464 0.25666586 0.081490315 -0.12137741 0.016732384 0.0856299 -0.18875487 0.15637092 -0.0852606 0.016850848 0.17747992 -0.040907636 -0.14529954 -0.06327244 -0.045536023 0.11485561 0.08276858 0.37965292 -0.052308377 -0.15377092 -0.014621743 0.21944265 -0.033650663 -0.03908802 0.13392824 0.21785511 -0.120365806 -0.026475955 0.1843796 0.08114286 -0.07278596 -0.1962061 0.17030773 0.034502715 0.2561949 0.24318886 0.2770615 0.26716167 -0.00437277 0.20345457 0.32910773 0.107391454 0.007915685 -0.31333256 0.09438838 0.005601623 -0.20921865 -0.2944053 -0.045290075 -0.32510307 0.22559464 0.18664081 0.04360505
40 -0.012840126 -0.26290184 -0.14902477 0.03705121 -0.353563 -0.08054164 -0.21642199 0.08510206 -0.17338717 -0.06727053 0.29371223 -0.23146117 0.2626458 0.0707354 -0.11990142 0.007404645 0.07568214 -0.19686483 0.15561856 -0.08274372 0.02335705 0.17284803 -0.028797833 -0.14486492 -0.06385274 -0.04707524 0.116600305 0.07830581 0.37528497 -0.05612137 -0.15170604 -0.015626851 0.2147749 -0.024986979 -0.049847145 0.1270553 0.20705609 -0.12051339 -0.028503414 0.17702185 0.08351566 -0.06839984 -0.18682879 0.17042798 0.02490974 0.25601435 0.24130368 0.28745556 0.2670476 -0.0059534875 0.20100673 0.33417687 0.10965916 0.007635472 -0.2965632 0.090138644 0.012910833 -0.20464993 -0.28331807 -0.04087312 -0.32748854 0.20713988 0.17835577 0.046147574
33 -0.019291779 -0.27694502 -0.16784084 0.034899835 -0.3318279 -0.07652577 -0.22114585 0.09436241 -0.17642628 -0.08185766 0.2948331 -0.23340632 0.24764046 0.07340139 -0.13343526 0.013142252 0.085495204 -0.19410713 0.15137713 -0.075362585 0.011910361 0.16970657 -0.04710393 -0.14898227 -0.06400689 -0.045382783 0.12230076 0.07861996 0.36926007 -0.06089929 -0.14407122 -0.0186887 0.21030667 -0.038369082 -0.056182936 0.13800049 0.21784803 -0.116931766 -0.03054059 0.17864187 0.07629847 -0.08834599 -0.17902507 0.16820693 0.041952524 0.26402116 0.23638009 0.27960137 0.27811998 0.0056640594 0.20597585 0.32739738 0.11331479 0.0015310618 -0.30084217 0.08490337 0.0020142777 -0.19659528 -0.2829448 -0.027937347 -0.3172487 0.22439092 0.19008869 0.049311418
52 -0.027730945 -0.27491212 -0.16526094 0.041731212 -0.35164508 -0.066893406 -0.2158567 0.087934785 -0.16973014 -0.07608845 0.3074647 -0.22354566 0.24590793 0.07284163 -0.12909596 0.02291097 0.07820438 -0.18836085 0.16900688 -0.077799514 0.0065013748 0.16987167 -0.03712972 -0.16275233 -0.06413538 -0.055729043 0.12397968 0.08474296 0.36805698 -0.06453455 -0.1463434 -0.015818674 0.20763524 -0.030284775 -0.04094112 0.1359096 0.21712857 -0.10640453 -0.017955383 0.17248042 0.08215876 -0.080083594 -0.1844735 0.15394488 0.031226987 0.25824282 0.23587458 0.29203048 0.27698493 0.009214883 0.2148043 0.3232488 0.10517679 0.007361766 -0.30918553 0.09027883 0.0069497186 -0.20960754 -0.2831761 -0.04419688 -0.3360664 0.20889762 0.18445903 0.056454904
47 -0.017130645 -0.26962167 -0.1521649 0.04531955 -0.34020424 -0.0840443 -0.21159205 0.07366941 -0.18504578 -0.06644511 0.29145712 -0.23691873 0.25473714 0.0720659 -0.13301456 0.02049788 0.07659474 -0.19383457 0.16428389 -0.072346404 0.01031769 0.1670888 -0.024328865 -0.14798048 -0.07107111 -0.038736194 0.1246953 0.07589649 0.35846123 -0.064639695 -0.14225322 -0.005025324 0.21328136 -0.019948773 -0.05631017 0.12172607 0.2106954 -0.12189567 -0.02470258 0.18145426 0.081601344 -0.07405134 -0.18377545 0.1744055 0.033362854 0.263508 0.24084014 0.2809493 0.26302305 -0.0008724869 0.20853771 0.332271 0.110016786 -0.0024998242 -0.29589087 0.096720144 0.0025497784 -0.20972599 -0.28538555 -0.04595543 -0.33034578 0.21005385 0.19479993 0.039383795
58 -0.021074532 -0.26074606 -0.16028206 0.037327323 -0.35531592 -0.076472804 -0.21448101 0.08585827 -0.1696489 -0.07960372 0.29524466 -0.2404208 0.26370946 0.07909277 -0.11971088 0.013928118 0.08294301 -0.18982416 0.16095346 -0.074298315 0.010873369 0.1619999 -0.028788714 -0.15021682 -0.056897372 -0.034562394 0.11668781 0.072871774 0.35955247 -0.055935916 -0.13961022 -0.0100370925 0.20465657 -0.030530289 -0.04468792 0.11465618 0.2069361 -0.11714438 -0.021940086 0.18109004 0.08353261 -0.08277399 -0.18455207 0.17034048 0.041255675 0.25778097 0.2334384 0.28825706 0.27917355 -0.0074847806 0.20764823 0.33986297 0.098259404 0.0130488835 -0.3025871 0.09898077 0.00912895 -0.19576259 -0.28136098 -0.03421493 -0.3217093 0.21682627 0.18057045 0.047768734
4 -0.03149756 -0.27455667 -0.16813038 0.041335024 -0.34711602 -0.069392785 -0.21445467 0.07874351 -0.17340659 -0.07744403 0.30225453 -0.23378907 0.25485682 0.065789625 -0.12946288 0.006095801 0.079305746 -0.19864516 0.16665028 -0.07697409 0.021373324 0.17877719 -0.045351196 -0.15656216 -0.061977834 -0.044435732 0.11676556 0.07527519 0.374295 -0.06257765 -0.15354392 -0.018334998 0.21514449 -0.034333527 -0.03735473 0.13948104 0.20160896 -0.107064046 -0.020870648 0.1763635 0.08050701 -0.072314106 -0.18679665 0.15500231 0.03207492 0.25253642 0.23690073 0.28992063 0.27165872 0.005360529 0.20535354 0.32305768 0.11438903 0.0051775547 -0.29805255 0.08069199 -0.0033361567 -0.20483525 -0.27487734 -0.034431815 -0.3198591 0.2201952 0.19513676 0.05854384
83 -0.020795122 -0.24904396 -0.15642919 0.0468606 -0.34522015 -0.083544865 -0.21272275 0.07890554 -0.17291455 -0.07042713 0.3090685 -0.23343216 0.2549422 0.06519114 -0.12405064 0.009339396 0.07275331 -0.18585525 0.15786733 -0.08046893 0.02749804 0.1653567 -0.031256083 -0.14501546 -0.070049 -0.043654144 0.11364481 0.07898134 0.37658778 -0.056514133 -0.15301256 -0.016979573 0.2045198 -0.021698449 -0.05286619 0.14147271 0.21686265 -0.12665346 -0.024374356 0.17131981 0.07297123 -0.07094821 -0.19325121 0.16289982 0.024655387 0.25639412 0.24090175 0.26573363 0.26520047 0.00075940485 0.20993394 0.3380704 0.1148398 0.003169827 -0.30528966 0.093661696 0.005170993 -0.2104696 -0.28859523 -0.035959385 -0.33082893 0.2131859 0.18903004 0.052286215
