100 64
18 0.34517974 -0.20529072 -0.06096843 -0.021106062 0.24884106 -0.2365707 0.15127204 -0.079910964 0.18659024 -0.22327787 -0.016943593 -0.3100055 0.24096881 -0.045017313 0.12915881 -0.35954392 0.043779522 -0.18375623 -0.094400615 0.13878106 -0.10484158 0.10279123 -0.10995399 0.07375469 0.04146788 0.12674509 -0.16153894 -0.13958535 -0.19993395 -0.17966565 -0.0701136 -0.27833718 0.1898173 0.05993141 -0.047559705 -0.02762088 -0.15920934 0.31366545 -0.058982626 0.052935205 0.07801443 -0.35622612 -0.06287046 0.06248549 0.24995676 -0.1466572 -0.018795304 -0.1831895 0.020048782 0.13274993 -0.2868983 0.16085663 -0.14305912 -0.21543045 0.09123762 0.016625946 -0.0091129895 -0.08637789 -0.06360215 0.33340448 0.15361014 -0.108121105 0.2776854 0.28380346
78 0.34152156 -0.19565499 -0.04924314 -0.022113511 0.24290201 -0.23005989 0.15153758 -0.084051155 0.19370252 -0.21643329 -0.012739907 -0.31170055 0.24747738 -0.038911995 0.11741353 -0.34415597 0.038046014 -0.18838081 -0.0898906 0.14003168 -0.112876736 0.09892148 -0.11128238 0.07430132 0.042877086 0.11054335 -0.15070513 -0.14675339 -0.18956237 -0.17974702 -0.066173844 -0.28112692 0.18881135 0.059923656 -0.053303383 -0.027416267 -0.1690902 0.31122625 -0.04893358 0.062101297 0.07489449 -0.34323585 -0.060533315 0.06330514 0.24688718 -0.1457647 -0.019651985 -0.19253463 0.030877924 0.14627004 -0.28807163 0.14495148 -0.15572564 -0.22371635 0.09130296 0.027418487 -0.010735783 -0.075842604 -0.06077639 0.33308068 0.15432456 -0.10060303 0.2748388 0.28482717
83 0.3368464 -0.19288084 -0.052669592 -0.030418292 0.23350938 -0.24003427 0.14439683 -0.07938627 0.19278035 -0.21895549 -0.007575742 -0.3118637 0.23369707 -0.048860695 0.11770642 -0.3470371 0.025697645 -0.1864054 -0.091368526 0.14073844 -0.10659845 0.10632933 -0.11827957 0.06836701 0.028923662 0.11559484 -0.16186912 -0.13447356 -0.19279456 -0.16551918 -0.06210247 -0.29385826 0.18952449 0.060611516 -0.049150288 -0.027755579 -0.16445848 0.31389195 -0.05495384 0.070728816 0.07533746 -0.34287262 -0.048847236 0.074504316 0.23969743 -0.1536505 -0.0053259623 -0.19324988 0.02796145 0.14600362 -0.30186847 0.1556365 -0.14955872 -0.21667452 0.10860752 0.030712143 -0.01014185 -0.07252093 -0.06884671 0.333308 0.15095311 -0.10518276 0.28074884 0.28542882
70 0.35772124 -0.20042737 -0.05154447 -0.023753807 0.25424957 -0.23415853 0.13608275 -0.093257 0.20090188 -0.21760961 -0.01797609 -0.3123487 0.24000846 -0.03700018 0.123397805 -0.35283932 0.025278032 -0.19984053 -0.08681411 0.13988632 -0.105699755 0.099398255 -0.1091226 0.073012814 0.045319416 0.11042704 -0.1519291 -0.15078239 -0.18959048 -0.18010657 -0.06856453 -0.27948794 0.196822 0.064482816 -0.056139536 -0.018372525 -0.16556808 0.31586924 -0.056654073 0.061553948 0.07200772 -0.35321084 -0.05573613 0.0630947 0.23670624 -0.14140122 -0.01446084 -0.19497076 0.02587673 0.14283295 -0.29219615 0.14212078 -0.14235951 -0.21031304 0.09121966 0.023020845 -0.007380696 -0.08914238 -0.061184518 0.3339291 0.16324957 -0.111863926 0.2658158 0.27305478
53 0.3532316 -0.20342386 -0.064050846 -0.022953168 0.2413521 -0.23994647 0.15163238 -0.09326899 0.20029351 -0.22295602 -0.021770626 -0.3083155 0.24756567 -0.0325928 0.12291702 -0.3490862 0.045880433 -0.18790868 -0.079387195 0.13919961 -0.114888154 0.09724376 -0.11573919 0.069267124 0.046974067 0.11697106 -0.16067706 -0.13839589 -0.1928109 -0.17973414 -0.06363598 -0.28295505 0.18797052 0.05419697 -0.047628555 -0.031154824 -0.16345735 0.3109118 -0.05687924 0.058744762 0.0735087 -0.35161936 -0.058508873 0.0725242 0.22853062 -0.15086158 -0.01043623 -0.18509671 0.030803347 0.1414555 -0.29339987 0.15692547 -0.14205301 -0.21117853 0.10245586 0.013528435 -0.00802193 -0.08577522 -0.062173326 0.3327928 0.1618323 -0.10626526 0.2756531 0.28333873
20 0.3590786 -0.2016769 -0.045885846 -0.024468115 0.2441424 -0.24528673 0.15346359 -0.09504753 0.19202796 -0.21414438 -0.0070102625 -0.31701612 0.23302475 -0.045852598 0.12404425 -0.35181022 0.03975933 -0.19446348 -0.08500937 0.13829872 -0.105252534 0.099078275 -0.11167035 0.08095946 0.041618995 0.10851734 -0.16363947 -0.14347528 -0.188383 -0.17259121 -0.07959971 -0.28805974 0.1820244 0.050143257 -0.042813733 -0.027040329 -0.16894732 0.2967615 -0.044783212 0.06387479 0.067199275 -0.35569307 -0.05712843 0.069420844 0.23698655 -0.14720754 -0.017695293 -0.18623316 0.028658243 0.13554502 -0.2984663 0.14672169 -0.14526942 -0.22094148 0.09877955 0.024836117 -0.016646266 -0.09384939 -0.06279095 0.33275983 0.15056168 -0.10349814 0.2726193 0.28520975
41 0.3465146 -0.20373192 -0.04844358 -0.025605127 0.24000312 -0.23155507 0.1397294 -0.08458477 0.19453162 -0.2185119 -0.0077086985 -0.3148537 0.24173976 -0.038332835 0.12263812 -0.34521657 0.033601772 -0.18422505 -0.09065512 0.1316331 -0.10312738 0.10602202 -0.11925624 0.0716528 0.029813122 0.11549883 -0.16054673 -0.1370293 -0.18873227 -0.17425774 -0.066476755 -0.28590608 0.19074307 0.050505493 -0.04568548 -0.015369509 -0.15891473 0.31012765 -0.052666523 0.068514794 0.07206176 -0.3457502 -0.049644716 0.06689641 0.24685852 -0.14108638 -0.014119446 -0.19197898 0.020594375 0.12955014 -0.28661165 0.15036517 -0.14870985 -0.22350153 0.09836386 0.031108964 -0.010775915 -0.08341567 -0.06132458 0.3299934 0.16271721 -0.1109011 0.28271723 0.28584626
39 0.34729216 -0.20480031 -0.05678027 -0.022198956 0.23788935 -0.22567648 0.15103489 -0.08069851 0.19348457 -0.21644898 -0.02028736 -0.3272685 0.24731316 -0.04434148 0.13264197 -0.34819043 0.04410817 -0.19395903 -0.08396445 0.14557108 -0.10784904 0.10606598 -0.12654515 0.076068014 0.031666283 0.120503545 -0.15814719 -0.13890038 -0.19835941 -0.18327232 -0.06875749 -0.2774382 0.1845212 0.059934292 -0.057813413 -0.013227544 -0.16672502 0.30794805 -0.051686227 0.06332626 0.064081185 -0.35714176 -0.057093494 0.07090832 0.23267758 -0.15284146 -0.01510668 -0.19580288 0.014992376 0.13722438 -0.29901645 0.14944552 -0.15184955 -0.211927 0.09351775 0.021542748 -0.018625801 -0.091195434 -0.057675246 0.3259884 0.15287358 -0.10778414 0.28429553 0.28863353
55 0.35336596 -0.20485263 -0.05612678 -0.03458478 0.24610429 -0.23783706 0.15081508 -0.08583181 0.19128755 -0.22941805 -0.024046807 -0.30113593 0.23469971 -0.045550246 0.115461186 -0.3480123 0.03373611 -0.1994251 -0.09623737 0.14710227 -0.11308372 0.10031794 -0.11322408 0.07400945 0.04791744 0.11161079 -0.14556493 -0.13507806 -0.19310787 -0.16824712 -0.07419163 -0.29191765 0.19166107 0.054351613 -0.060109068 -0.015408475 -0.16457245 0.3069981 -0.051292308 0.070846505 0.06574921 -0.35631892 -0.06169138 0.07255923 0.23328878 -0.13845651 -0.0056876945 -0.184992 0.023641376 0.13119677 -0.28415298 0.14933415 -0.1415559 -0.20861642 0.09599053 0.017519219 -0.01801586 -0.0765147 -0.07363789 0.3221942 0.14612664 -0.10227604 0.26834187 0.2875749
49 0.35246387 -0.20374197 -0.055715434 -0.027798053 0.24591544 -0.22696154 0.15154848 -0.091533445 0.20032376 -0.21425934 -0.018587356 -0.31994772 0.2364435 -0.045538932 0.12435241 -0.3589747 0.040649362 -0.20501052 -0.083480984 0.14450051 -0.11923686 0.09419386 -0.12737854 0.07972316 0.036487877 0.10744906 -0.14928012 -0.13829036 -0.19167964 -0.1787141 -0.06778358 -0.28315234 0.19058552 0.056684844 -0.060493317 -0.020070674 -0.16521797 0.3014391 -0.05181075 0.06442399 0.066702925 -0.34547004 -0.05310338 0.06657741 0.24052115 -0.13763386 -0.005627762 -0.19350934 0.014331804 0.13770285 -0.30000594 0.15031618 -0.15449628 -0.21170244 0.10491488 0.014159235 -0.008659017 -0.08876881 -0.069555655 0.33377635 0.16004999 -0.103305325 0.2790775 0.2909382
42 0.32862186 -0.19324823 -0.058119573 -0.020352835 0.24515064 -0.21883169 0.13185115 -0.07973293 0.20153819 -0.2065624 -0.0054190867 -0.3106791 0.23330009 -0.03940752 0.1279208 -0.35437176 0.030795166 -0.19215085 -0.080533616 0.1292176 -0.11069801 0.09710945 -0.11319426 0.08860821 0.037551913 0.120854974 -0.15944822 -0.14647941 -0.1880218 -0.1805785 -0.07738908 -0.28810257 0.19207473 0.048155293 -0.04586883 -0.032784928 -0.16959088 0.3150302 -0.046609145 0.06762918 0.076137744 -0.34312767 -0.05542741 0.07060706 0.24993871 -0.14763345 -0.00902717 -0.19011556 0.011366679 0.1406252 -0.3025284 0.15331773 -0.16126703 -0.21553837 0.097270004 0.03183951 -0.005281298 -0.08514304 -0.064974815 0.33598086 0.15209566 -0.106769934 0.2748242 0.27967814
63 0.33945835 -0.18808867 -0.054452877 -0.026672896 0.23681569 -0.2250567 0.15030538 -0.07983124 0.18996152 -0.21973078 -0.021749005 -0.31075704 0.23832043 -0.04124506 0.11839028 -0.35702378 0.029550856 -0.19712736 -0.089638226 0.1375507 -0.11640972 0.10482946 -0.11853744 0.08008689 0.033000737 0.10904185 -0.16538523 -0.15175395 -0.19340445 -0.18203405 -0.07527498 -0.2805737 0.18775222 0.0619463 -0.048317444 -0.019032981 -0.16761796 0.3089999 -0.05292685 0.06616268 0.06480255 -0.3576833 -0.062424928 0.07009875 0.24661149 -0.14995673 -0.015110273 -0.20259555 0.030172145 0.1456345 -0.29606277 0.14735591 -0.1578471 -0.21310908 0.102006175 0.031460788 -0.019368095 -0.087677754 -0.06494252 0.33600587 0.15776433 -0.10026593 0.28426412 0.28576255
35 0.35998318 -0.2012695 -0.04894831 -0.023313904 0.23786221 -0.23562929 0.14747186 -0.09233414 0.19673285 -0.21106264 -0.019896692 -0.3185886 0.2434977 -0.033828195 0.12708673 -0.34377122 0.03955466 -0.18830495 -0.084134415 0.13210723 -0.10551704 0.10031924 -0.11728858 0.072073944 0.049320728 0.10570922 -0.16188185 -0.14842531 -0.19860673 -0.17815581 -0.07317308 -0.28154105 0.18626608 0.052489087 -0.049327463 -0.012273464 -0.16407372 0.30429503 -0.05260976 0.055240136 0.07431122 -0.34808227 -0.047184788 0.0708409 0.23595469 -0.15070277 -0.0064650974 -0.19478735 0.02650024 0.14101978 -0.28991267 0.15349202 -0.15061563 -0.22367413 0.10298179 0.033298094 -0.0096865175 -0.08787857 -0.06293391 0.33513305 0.15641603 -0.11260002 0.26687017 0.28451955
87 0.3472455 -0.19268224 -0.04942305 -0.028245216 0.24520122 -0.23285364 0.14675891 -0.079981364 0.19249968 -0.22052255 -0.015812652 -0.31626517 0.23770991 -0.050678547 0.11945098 -0.35058275 0.034021754 -0.20008121 -0.08981796 0.13926944 -0.10720288 0.09216839 -0.108100556 0.074363865 0.028147345 0.11317749 -0.15079612 -0.14897509 -0.18787044 -0.1711406 -0.0678006 -0.28801244 0.19724552 0.061399557 -0.05339296 -0.022088997 -0.16364343 0.30255532 -0.058281124 0.060973845 0.080558464 -0.35820794 -0.05608291 0.05825921 0.24914543 -0.13928874 -0.00783357 -0.20080042 0.019954436 0.14194623 -0.3036379 0.15195547 -0.15188032 -0.21418063 0.09867065 0.022647798 -0.011041171 -0.07528787 -0.06352718 0.3313414 0.15241313 -0.114697695 0.28355923 0.27959713
45 0.33993593 -0.19680807 -0.049676597 -0.020634977 0.24017821 -0.22153984 0.13986541 -0.076869056 0.19498472 -0.22019751 -0.024109168 -0.3123934 0.24335453 -0.038772732 0.12101268 -0.3533125 0.037318923 -0.19118874 -0.09283788 0.13060544 -0.103350885 0.103562154 -0.12032935 0.06446451 0.047656547 0.120690815 -0.15154707 -0.1543172 -0.18649165 -0.17650363 -0.07226199 -0.27346188 0.19431254 0.062295668 -0.06312635 -0.024064302 -0.16685349 0.31019345 -0.05908703 0.06261587 0.07606901 -0.35539272 -0.061746735 0.055677727 0.24590197 -0.14963286 -0.021911846 -0.19488165 0.02372866 0.15201978 -0.3007253 0.16236702 -0.15156731 -0.21629123 0.08718491 0.017088316 -0.014103863 -0.07509064 -0.06421961 0.32376587 0.15298153 -0.09911625 0.2681202 0.27070725
12 0.35566542 -0.19946304 -0.04627653 -0.017518306 0.2520715 -0.22866534 0.1518643 -0.09349238 0.18132095 -0.22137412 -0.023850301 -0.30702692 0.23510623 -0.039088435 0.121488795 -0.34753758 0.034487583 -0.19438024 -0.091238596 0.12978971 -0.1075921 0.10553538 -0.1269248 0.076371826 0.032427147 0.1069698 -0.15905254 -0.14583617 -0.18647677 -0.16924433 -0.072799444 -0.2778414 0.17892341 0.0477694 -0.053054955 -0.012676435 -0.16104741 0.29734182 -0.05939904 0.05963056 0.07330273 -0.3522928 -0.054714147 0.05965258 0.242102 -0.15127125 -0.0066730506 -0.20198868 0.015564481 0.14696164 -0.29883686 0.15814044 -0.15572116 -0.21944083 0.09901134 0.023978766 -0.013176717 -0.08275684 -0.074512884 0.3216134 0.1616687 -0.11536042 0.27221093 0.28371736
40 0.35624275 -0.19864158 -0.050623275 -0.027716074 0.23916037 -0.23656397 0.13975532 -0.08125443 0.19198753 -0.22279236 -0.021889636 -0.3143123 0.24300675 -0.040524796 0.12854242 -0.3457979 0.030412966 -0.18924576 -0.08227402 0.14241973 -0.11131288 0.105777584 -0.10881257 0.066478066 0.032599654 0.11874804 -0.15838125 -0.14235984 -0.19239344 -0.17412616 -0.07596506 -0.28312406 0.1879431 0.054144915 -0.05644287 -0.02042538 -0.15884092 0.31365898 -0.051008057 0.06610712 0.066286 -0.34229594 -0.060498632 0.057489283 0.23287517 -0.15022448 -0.014923084 -0.18903945 0.023372637 0.14996329 -0.30456126 0.16182594 -0.14346279 -0.222766 0.096163966 0.028487107 -0.013250242 -0.08056993 -0.063075304 0.32917655 0.16311345 -0.112371065 0.28013378 0.277991
10 0.34563878 -0.20027518 -0.052368674 -0.022402773 0.24524002 -0.23430407 0.13942078 -0.089453645 0.19039479 -0.2229855 -0.0056425673 -0.30655488 0.2472816 -0.03639965 0.13292147 -0.35400632 0.031812083 -0.20761487 -0.085479654 0.13986605 -0.10984493 0.095126875 -0.11534493 0.081545055 0.037679307 0.1198148 -0.160121 -0.1465074 -0.18460393 -0.1701391 -0.06583412 -0.2834771 0.19282489 0.05041804 -0.05311217 -0.02370691 -0.16263653 0.31375965 -0.05022524 0.058481395 0.07367251 -0.3524498 -0.044886943 0.06888006 0.2441773 -0.14274183 -0.0077481195 -0.20021461 0.021180747 0.1344133 -0.30698207 0.14685772 -0.1526349 -0.20726061 0.107974954 0.029964149 -0.018430714 -0.08594722 -0.05810586 0.33649364 0.1516088 -0.10908141 0.27648738 0.2788347
69 0.35680524 -0.19969165 -0.044083353 -0.017749393 0.2461037 -0.22817177 0.15282276 -0.08485516 0.19649507 -0.21511136 -0.021914877 -0.31541547 0.25232065 -0.0370276 0.11436774 -0.34955245 0.0323939 -0.19979498 -0.094724104 0.14371634 -0.10218897 0.09469864 -0.11599374 0.07615617 0.03334431 0.11766999 -0.15675135 -0.14812936 -0.19383031 -0.1820245 -0.069600195 -0.2869101 0.19515692 0.06345986 -0.059575494 -0.018584777 -0.16210046 0.30352798 -0.06251613 0.06752915 0.07872493 -0.34698325 -0.061094068 0.068994224 0.245133 -0.14164388 -0.015883174 -0.18785886 0.020145627 0.15149769 -0.28581345 0.15809534 -0.15123187 -0.21722789 0.09925804 0.024407057 -0.0056652147 -0.077225894 -0.067292385 0.3279336 0.14853218 -0.10813756 0.28311732 0.2877552
46 0.34290132 -0.19595824 -0.04535016 -0.017850967 0.23740606 -0.2306023 0.14958523 -0.08087172 0.2018222 -0.20737478 -0.014984427 -0.31030723 0.24418099 -0.04409005 0.115777664 -0.34277165 0.033700734 -0.20000523 -0.08354653 0.13765106 -0.10750041 0.09963952 -0.11736963 0.07020325 0.04274625 0.102843724 -0.15572737 -0.13904189 -0.19253433 -0.18454552 -0.07447763 -0.28885815 0.19001088 0.05287096 -0.046614736 -0.027183583 -0.1696103 0.30305544 -0.049185716 0.069857605 0.07042666 -0.35124934 -0.046305075 0.06072497 0.24049355 -0.1513053 -0.0048436844 -0.19941959 0.019460956 0.14213037 -0.29888016 0.15538438 -0.15322617 -0.22187515 0.099947676 0.023967182 -0.0071175448 -0.07651541 -0.06401551 0.32647952 0.16360505 -0.10284785 0.27934623 0.287185
52 0.341604 -0.19349521 -0.053193957 -0.023706602 0.24103951 -0.2197883 0.13173783 -0.07726437 0.19922988 -0.21822368 -0.0149113545 -0.30288294 0.24193817 -0.037109036 0.12658168 -0.35664114 0.041599296 -0.1867196 -0.08222862 0.12899311 -0.09884975 0.10760199 -0.11919505 0.080464475 0.044024363 0.1117971 -0.15570252 -0.15072529 -0.1928688 -0.17705648 -0.07130312 -0.2873063 0.19292066 0.060205158 -0.045255166 -0.02311674 -0.1566119 0.30361477 -0.046370305 0.05624983 0.062592804 -0.35568827 -0.056271724 0.06419965 0.23189701 -0.14536704 -0.019985497 -0.19934925 0.012713193 0.146263 -0.29891893 0.15261476 -0.15030448 -0.21179292 0.10622149 0.031257104 -0.010302608 -0.09368327 -0.06695527 0.32719016 0.16275719 -0.09980438 0.2768458 0.28658205
31 0.35231498 -0.20289257 -0.05127039 -0.02872627 0.24934174 -0.22687156 0.15003617 -0.08728378 0.20143154 -0.22180505 -0.017769778 -0.31956816 0.23944092 -0.033813376 0.1327687 -0.34626094 0.041077547 -0.19618967 -0.0962255 0.14172788 -0.10394164 0.093856074 -0.11956499 0.07890465 0.043485504 0.111602016 -0.16406913 -0.15291083 -0.19236416 -0.17012514 -0.068422556 -0.28003767 0.18075609 0.06035001 -0.04369528 -0.017055955 -0.15368101 0.30539924 -0.063505076 0.068849675 0.073568 -0.34697247 -0.05169388 0.06894589 0.23976459 -0.14922439 -0.020174952 -0.18092968 0.01907397 0.133047 -0.2899219 0.16007443 -0.15709399 -0.2106435 0.0984308 0.02960622 -0.018713247 -0.076375775 -0.059011552 0.33719194 0.15295453 -0.09974067 0.27657896 0.282649
64 0.35361174 -0.20673111 -0.06244748 -0.02719267 0.24690628 -0.24308582 0.15017775 -0.088523425 0.19462773 -0.22087632 -0.017210484 -0.3069171 0.24477996 -0.041992154 0.12510478 -0.3487203 0.04347018 -0.1904201 -0.09844559 0.13092716 -0.10445675 0.1001169 -0.11342945 0.0672939 0.03928746 0.10901396 -0.16213477 -0.14063275 -0.20302314 -0.18079843 -0.07769497 -0.2883389 0.18460387 0.058568224 -0.04408045 -0.01267582 -0.16042586 0.30404505 -0.051064216 0.054831546 0.07523295 -0.35156205 -0.060929995 0.0569593 0.23111032 -0.15024261 -0.012215366 -0.19347417 0.023447787 0.13325992 -0.2997585 0.14873312 -0.14239931 -0.21610735 0.10159393 0.017320152 -0.015624715 -0.089548714 -0.07189602 0.33289304 0.15298301 -0.10532662 0.26423123 0.27554357
4 0.34815302 -0.18504296 -0.04329311 -0.020955008 0.24257231 -0.22230406 0.14020751 -0.09583311 0.19306532 -0.21329607 -0.010603571 -0.31443268 0.24183016 -0.050270688 0.12584008 -0.34974763 0.0320537 -0.19375786 -0.09447039 0.14538227 -0.10874061 0.10347193 -0.11535868 0.08239938 0.038819805 0.10957013 -0.15932262 -0.15025797 -0.19582109 -0.17694637 -0.07315381 -0.2829395 0.18732908 0.057259347 -0.048968215 -0.01946237 -0.16684441 0.3118932 -0.06201845 0.064142324 0.07834221 -0.35080636 -0.04245253 0.055179123 0.2360699 -0.14367343 -0.017040938 -0.19987182 0.025152897 0.13544233 -0.287377 0.16259392 -0.15674148 -0.2161579 0.09737584 0.026090939 -0.008658899 -0.07447207 -0.06540349 0.3373447 0.14639227 -0.10333415 0.27096608 0.29022938
9 0.34549117 -0.198197 -0.050576713 -0.025599165 0.2503842 -0.23851532 0.14177741 -0.089970715 0.19198257 -0.22063464 -0.021841062 -0.30205163 0.2370381 -0.04043178 0.12383303 -0.35754216 0.03950871 -0.19449441 -0.08977471 0.13939328 -0.11749056 0.099367574 -0.11652117 0.08552147 0.031728495 0.10964794 -0.15768349 -0.1392174 -0.19735865 -0.17860894 -0.07016931 -0.29207596 0.18478625 0.060374614 -0.04387284 -0.022750352 -0.16651009 0.30402336 -0.06525626 0.07045598 0.07391962 -0.35704163 -0.049037755 0.07536571 0.24525748 -0.14207524 -0.015594118 -0.19071627 0.026702622 0.15048277 -0.29446855 0.15432054 -0.15374225 -0.2182892 0.098582715 0.022906112 -0.014477323 -0.07921611 -0.080299534 0.33013976 0.1530039 -0.10272701 0.28392002 0.29546735
17 0.34705353 -0.19320416 -0.04556784 -0.028357001 0.24152988 -0.239766 0.14817965 -0.086657144 0.19937842 -0.21643855 -0.023332996 -0.30322966 0.23858318 -0.0435351 0.13041751 -0.353531 0.036674876 -0.19209388 -0.097283274 0.13280599 -0.111381195 0.10358879 -0.1284566 0.08211399 0.030046549 0.1101202 -0.16453618 -0.14702083 -0.18583708 -0.18127272 -0.070593126 -0.29006293 0.1805965 0.05653018 -0.043708786 -0.02068135 -0.16138095 0.30359906 -0.06432742 0.06771567 0.07061162 -0.35122582 -0.06191278 0.06946696 0.2348999 -0.14984296 -0.0036160378 -0.18363291 0.026445733 0.13979541 -0.29814848 0.14629395 -0.15287262 -0.22080982 0.10418834 0.025079891 -0.016796146 -0.088292114 -0.06559296 0.3338504 0.16095439 -0.10612171 0.27757937 0.2858059
56 0.34925145 -0.20885405 -0.052288976 -0.029146029 0.24723576 -0.23709762 0.1465995 -0.08235511 0.18667503 -0.2190029 -0.012550868 -0.31828997 0.23246455 -0.04027253 0.13325568 -0.35320193 0.033957813 -0.18319781 -0.07394646 0.1277867 -0.09843249 0.10494613 -0.122292824 0.08093779 0.043524563 0.119546525 -0.1561195 -0.14480913 -0.18897425 -0.1820903 -0.06630458 -0.28576577 0.18651776 0.047017653 -0.05574215 -0.019283477 -0.15561509 0.30801412 -0.06051279 0.055694293 0.07606798 -0.34075427 -0.06115897 0.070376076 0.23479953 -0.14944886 -0.019144382 -0.18721522 0.023951039 0.14712785 -0.30069807 0.1527175 -0.15735151 -0.21632291 0.10036486 0.021393664 -0.016349034 -0.08328128 -0.059548885 0.32621333 0.15826684 -0.10260019 0.27660438 0.2766972
89 0.35520563 -0.20660347 -0.05171711 -0.021655152 0.23917884 -0.22885336 0.1438881 -0.086958885 0.20379066 -0.22217949 -0.02273591 -0.30482233 0.23246658 -0.04254448 0.1309799 -0.34312168 0.025762828 -0.19723895 -0.08434413 0.14059623 -0.11261003 0.09383678 -0.12148853 0.06934806 0.045354616 0.11732027 -0.15471509 -0.14848678 -0.19744831 -0.18191132 -0.06866683 -0.2730238 0.19708711 0.053425383 -0.059772443 -0.018388845 -0.16788405 0.3182352 -0.06439378 0.070696056 0.065663606 -0.34071782 -0.05162977 0.06282113 0.23999394 -0.14755322 -0.018116847 -0.19390567 0.028602049 0.14441036 -0.29792628 0.16046816 -0.14695145 -0.22402805 0.09540349 0.024376065 -0.009543061 -0.08303777 -0.07312233 0.31934112 0.15197279 -0.107822634 0.27557802 0.2762174
14 0.35211414 -0.19529913 -0.050403245 -0.01937074 0.24349214 -0.22954208 0.15314513 -0.08921061 0.19407813 -0.2058689 -0.019985434 -0.30767468 0.24051519 -0.04440205 0.12959507 -0.35065377 0.029709214 -0.20317462 -0.08470139 0.13144921 -0.10897751 0.1000795 -0.1102263 0.06729 0.040504914 0.11662014 -0.15250881 -0.13828948 -0.19036967 -0.17295189 -0.06850469 -0.28672576 0.196763 0.052142117 -0.05658847 -0.012506919 -0.155581 0.3102802 -0.055362206 0.056803137 0.07107363 -0.35182342 -0.056328826 0.06287102 0.24661687 -0.14626391 -0.011125982 -0.19030498 0.014302922 0.14136384 -0.29176208 0.15960073 -0.15687977 -0.214013 0.09990218 0.017787756 -0.013098189 -0.08448187 -0.06972975 0.33879945 0.15964514 -0.113220304 0.28191662 0.2818177
93 0.35761154 -0.19227743 -0.046830513 -0.02833679 0.2498411 -0.2281774 0.15008058 -0.08785614 0.18774374 -0.22340749 -0.012291555 -0.31564748 0.2510417 -0.046784278 0.11839031 -0.34965804 0.04569651 -0.1913965 -0.08561821 0.13668077 -0.11187578 0.09511874 -0.123969674 0.08364616 0.042621497 0.108429246 -0.1525572 -0.14640582 -0.19748425 -0.17689987 -0.07174561 -0.27756613 0.1905743 0.062230855 -0.056335587 -0.017155124 -0.16536021 0.30761528 -0.05174697 0.0711757 0.07332767 -0.33915377 -0.0458004 0.063778065 0.2502555 -0.13489814 -0.004285647 -0.19196576 0.027050009 0.13044108 -0.29245028 0.15435554 -0.15797696 -0.22741579 0.10130343 0.030616364 -0.015630985 -0.08581173 -0.07077513 0.33168426 0.16810896 -0.11077599 0.27500868 0.28541282
37 0.34923908 -0.19170512 -0.048286192 -0.026833164 0.22787029 -0.23699342 0.1517279 -0.08970678 0.19807237 -0.21580268 -0.014053119 -0.31174746 0.2323804 -0.038038377 0.119372785 -0.35451806 0.04449525 -0.18213673 -0.078663245 0.13626255 -0.10850115 0.10856662 -0.111761436 0.08073417 0.039123986 0.12271319 -0.165613 -0.13749911 -0.19134109 -0.18026254 -0.06870607 -0.2903283 0.192392 0.047581352 -0.044803675 -0.015135728 -0.16224138 0.30108163 -0.04620446 0.059797283 0.06486613 -0.36002007 -0.060305644 0.06424311 0.23944697 -0.15098362 -0.014639583 -0.19590706 0.02262589 0.14543803 -0.29041606 0.14946376 -0.15578714 -0.2111117 0.102815166 0.024448859 -0.008154755 -0.08372218 -0.05408565 0.3288687 0.16355208 -0.11279256 0.27901578 0.284768
2 0.35189834 -0.19753051 -0.052953545 -0.018252602 0.23208876 -0.22353631 0.15031277 -0.08531204 0.19066903 -0.21139489 -0.011562105 -0.30821624 0.24411027 -0.043768603 0.11943117 -0.3431648 0.033430886 -0.19715467 -0.08644955 0.14686108 -0.109772556 0.09674986 -0.115606666 0.07564142 0.04211448 0.10426468 -0.15150549 -0.15565963 -0.19953552 -0.17257252 -0.07876323 -0.2885467 0.19491428 0.061356638 -0.058852594 -0.025857953 -0.16392565 0.2981501 -0.058817085 0.06986566 0.0700736 -0.35428455 -0.051687386 0.05750792 0.247086 -0.13495848 -0.012659206 -0.19759052 0.022218378 0.13634522 -0.2880099 0.1496879 -0.16243224 -0.21387713 0.08956074 0.022056513 -0.017567083 -0.08828719 -0.06768193 0.32943192 0.16256516 -0.1016475 0.27051005 0.27548826
60 0.36068282 -0.20225593 -0.041993707 -0.018738745 0.23654854 -0.239574 0.14365548 -0.088600315 0.18672025 -0.21159154 -0.020572867 -0.31292552 0.23675841 -0.04341752 0.13340223 -0.34195608 0.022639308 -0.19212218 -0.09048459 0.13363567 -0.10039292 0.10327586 -0.11343138 0.069692045 0.038623497 0.11938641 -0.16543652 -0.14938544 -0.1964131 -0.18734685 -0.07064591 -0.28813022 0.19128871 0.06180527 -0.05166393 -0.011293606 -0.16671343 0.32157373 -0.045696482 0.06194433 0.07287447 -0.34398466 -0.062588565 0.05560408 0.25052807 -0.14681484 -0.020278716 -0.20315936 0.013680669 0.14430717 -0.30563378 0.16272567 -0.1485641 -0.22205031 0.10383776 0.029110944 -0.007794122 -0.083754286 -0.06030578 0.3252659 0.15992868 -0.10013203 0.27186847 0.28709543
71 0.35000855 -0.19742571 -0.05055201 -0.02308156 0.24992868 -0.23534049 0.14216813 -0.0794621 0.19532032 -0.21072318 -0.012370033 -0.3175256 0.2353127 -0.050347425 0.11989459 -0.34525168 0.03981668 -0.18844424 -0.085164525 0.13346495 -0.10778898 0.10476578 -0.12641418 0.08107482 0.04336316 0.1161222 -0.15335423 -0.15512794 -0.19840276 -0.16943501 -0.0650919 -0.28975454 0.17869517 0.050764706 -0.05532202 -0.013260339 -0.16779648 0.31349492 -0.05229829 0.071541995 0.0625203 -0.3486699 -0.04601073 0.06618804 0.24067052 -0.1391694 -0.016824126 -0.19865288 0.015003864 0.1417332 -0.28972813 0.15117382 -0.15106516 -0.2242996 0.102152914 0.014950804 -0.012481347 -0.08769868 -0.077165425 0.3356437 0.16467689 -0.107691675 0.2739036 0.28893623
11 0.35336444 -0.20694987 -0.04486245 -0.02293075 0.23940378 -0.22688429 0.14481409 -0.08623208 0.1914478 -0.21415976 -0.013539554 -0.30371276 0.23948702 -0.033037093 0.122674875 -0.35384312 0.04529096 -0.19071099 -0.08214003 0.13079643 -0.10699126 0.10235964 -0.11159892 0.08314141 0.033617552 0.12606482 -0.15867835 -0.14904054 -0.19686049 -0.18341558 -0.07617067 -0.2786853 0.1797342 0.049880147 -0.05251292 -0.021877676 -0.16803643 0.31382188 -0.049467683 0.05181817 0.071293995 -0.34890497 -0.062250815 0.06163806 0.24652664 -0.14565389 -0.01962199 -0.19732882 0.015513131 0.13282332 -0.2977364 0.16094904 -0.15405136 -0.21831308 0.10073433 0.020269897 -0.004347333 -0.089888416 -0.057108264 0.3289636 0.15238044 -0.10813471 0.27896968 0.28061745
85 0.3448523 -0.19902128 -0.050110467 -0.027177108 0.24460159 -0.23595065 0.14241351 -0.07569014 0.1923271 -0.22047906 -0.023381738 -0.30195904 0.23189 -0.03726502 0.12525955 -0.35288453 0.041945536 -0.194915 -0.08865555 0.13239148 -0.110187314 0.09950285 -0.113544494 0.06795395 0.038992487 0.107382655 -0.14650884 -0.1401314 -0.19489779 -0.18634233 -0.07624373 -0.2848861 0.18942778 0.064878926 -0.04835832 -0.023678856 -0.16864523 0.31246457 -0.045864616 0.054983515 0.06758643 -0.3495284 -0.05147421 0.07170146 0.2416749 -0.14093721 -0.012019506 -0.19673572 0.020730222 0.14523095 -0.29258314 0.15832467 -0.14872839 -0.21218418 0.09352412 0.02835272 -0.017151771 -0.07782276 -0.059356246 0.3313079 0.15360074 -0.09834749 0.26538733 0.27959868
44 0.34175685 -0.18603437 -0.047346696 -0.01460277 0.23734967 -0.22946276 0.13981985 -0.09315258 0.20458055 -0.22058907 -0.019894617 -0.32092285 0.24793959 -0.0452341 0.12385519 -0.34556624 0.026987018 -0.20016867 -0.08873795 0.13789621 -0.09778864 0.09882443 -0.11185552 0.070819795 0.041876547 0.11371248 -0.16454272 -0.15445517 -0.19920126 -0.17577997 -0.0726897 -0.28231442 0.1985919 0.0523714 -0.058505606 -0.025857477 -0.16823204 0.310864 -0.05805629 0.06733461 0.07740534 -0.35571387 -0.04861076 0.05798272 0.24186173 -0.14814903 -0.019109586 -0.18579027 0.01898701 0.14000818 -0.30225483 0.15273483 -0.14853185 -0.2121854 0.090160206 0.015199184 -0.01472906 -0.07989201 -0.0651283 0.32626417 0.16281657 -0.10957303 0.2785047 0.276274
94 0.3510828 -0.19988912 -0.04715013 -0.025786178 0.24838316 -0.23508723 0.15123577 -0.08196017 0.19171426 -0.22251803 -0.027970186 -0.31413594 0.24595532 -0.036380693 0.13337484 -0.35223237 0.030649757 -0.19107449 -0.09413694 0.14550357 -0.10834743 0.10051045 -0.11940138 0.073162235 0.042870313 0.12458767 -0.15238768 -0.13846728 -0.20221877 -0.17454378 -0.07427961 -0.29058182 0.19664323 0.06250331 -0.045491785 -0.016130177 -0.16346817 0.3168185 -0.061074723 0.05578301 0.07247539 -0.33812463 -0.056608826 0.06606116 0.24317211 -0.14674552 -0.013035931 -0.19147584 0.020902175 0.13768575 -0.30143955 0.15802206 -0.14393698 -0.21322076 0.095449656 0.023797303 -0.012128533 -0.08803336 -0.0735877 0.33146116 0.14616486 -0.10057457 0.26739097 0.28065833
97 0.34896925 -0.19367911 -0.045237307 -0.020111065 0.24775507 -0.23962171 0.14797467 -0.083679825 0.19193393 -0.20986088 -0.011484991 -0.30447912 0.24199283 -0.029828992 0.12826374 -0.3501052 0.046335902 -0.18747306 -0.085034244 0.12814836 -0.10292115 0.094855905 -0.12541585 0.06763498 0.041022845 0.106855005 -0.16211659 -0.15014966 -0.19635649 -0.17874193 -0.071777284 -0.2864181 0.18710463 0.06349478 -0.054771535 -0.02385498 -0.16571936 0.31306058 -0.05872235 0.061799377 0.07713231 -0.35456875 -0.0512426 0.063565955 0.24848846 -0.14118183 -0.014254135 -0.1881047 0.025472702 0.14837143 -0.29567924 0.15663707 -0.14902501 -0.21507199 0.10434273 0.030153478 -0.015547898 -0.08300529 -0.06173288 0.33150065 0.16047198 -0.10826037 0.27630782 0.2903562
79 0.3514224 -0.20142935 -0.049696937 -0.019375905 0.24660258 -0.2281266 0.14357899 -0.090743944 0.19362687 -0.22080377 -0.02145285 -0.3181056 0.24286509 -0.0437871 0.112497345 -0.35161832 0.046611596 -0.18144867 -0.082119875 0.14247642 -0.10667008 0.09368507 -0.11282944 0.07852461 0.045112874 0.124210596 -0.1577673 -0.13865694 -0.19332962 -0.18103445 -0.075598165 -0.28050256 0.19053529 0.051607788 -0.05250201 -0.021256475 -0.16401415 0.30373588 -0.051289797 0.058749 0.06563097 -0.3478585 -0.058383808 0.061805047 0.24078742 -0.13824677 -0.00602143 -0.1904796 0.022426946 0.14139296 -0.2835563 0.14818303 -0.14239399 -0.21678211 0.10252843 0.016691081 -0.014718298 -0.079230726 -0.07391698 0.32480672 0.15402997 -0.10399544 0.27689192 0.27740994
86 0.35614738 -0.1956341 -0.059157528 -0.019116074 0.25172138 -0.23344271 0.14144789 -0.0878478 0.20130427 -0.2170607 -0.024212906 -0.30607307 0.2422023 -0.044332262 0.121549785 -0.3435529 0.038584284 -0.19639759 -0.07860877 0.13988867 -0.10921831 0.099227 -0.10763019 0.07646874 0.033263315 0.11502277 -0.15485288 -0.15546347 -0.19811144 -0.17839356 -0.06547267 -0.28574345 0.19052115 0.05884285 -0.05356841 -0.018037582 -0.15574056 0.3121158 -0.061299443 0.07343059 0.06710011 -0.3463587 -0.045128867 0.06275659 0.23266922 -0.14020477 -0.009111387 -0.19467027 0.014929775 0.13341686 -0.29212478 0.16268587 -0.14188695 -0.21351737 0.10284185 0.015742712 -0.007807078 -0.08997416 -0.06738617 0.3269428 0.14851128 -0.10827731 0.26968396 0.2900948
90 0.33789054 -0.1921772 -0.049667116 -0.014894077 0.22679494 -0.23294744 0.14658856 -0.08969557 0.20197485 -0.21669388 -0.016289249 -0.30075914 0.24306661 -0.03441993 0.11732858 -0.35266247 0.03678433 -0.19701274 -0.08361066 0.12885341 -0.1053386 0.09673126 -0.108187094 0.07538333 0.033811778 0.11239344 -0.16273859 -0.14317948 -0.18737334 -0.1751669 -0.07646032 -0.27765688 0.1955838 0.05155223 -0.052605335 -0.01703297 -0.16148645 0.30513704 -0.05488644 0.06019638 0.076585494 -0.35430473 -0.053653717 0.0640799 0.2378426 -0.15177265 -0.011206958 -0.18864816 0.027634885 0.15051788 -0.29802856 0.1611856 -0.14676578 -0.2214114 0.10218916 0.019023428 -0.0075514745 -0.07806154 -0.06197522 0.3395643 0.15536758 -0.11487333 0.28137955 0.2883456
92 0.3484741 -0.20216331 -0.059915066 -0.02136995 0.23960018 -0.22913887 0.14502528 -0.09369183 0.19601598 -0.20810875 -0.025110472 -0.30781677 0.24738841 -0.040652003 0.12475948 -0.34784475 0.030071411 -0.20018327 -0.08323395 0.1395542 -0.09761654 0.101033434 -0.113317326 0.08054201 0.032329094 0.11463499 -0.15786713 -0.13764466 -0.18649274 -0.1686729 -0.072075635 -0.27842727 0.19391969 0.05336116 -0.05139991 -0.01968312 -0.16017005 0.31619272 -0.06516943 0.06336919 0.079412274 -0.35732335 -0.049819686 0.05649542 0.23271362 -0.14991827 -0.013843008 -0.19306424 0.022340076 0.14533794 -0.3006549 0.15704535 -0.13868542 -0.2119872 0.09482332 0.02471715 -0.0058734133 -0.087878525 -0.0645329 0.32471308 0.15377589 -0.1051184 0.28243065 0.28177086
54 0.35300854 -0.20456192 -0.05841556 -0.01722413 0.24701884 -0.23950157 0.13660999 -0.080047965 0.18414097 -0.21763565 -0.008305701 -0.30899897 0.2371106 -0.029141609 0.12544216 -0.3567768 0.032514393 -0.1987267 -0.07982267 0.13162187 -0.10830038 0.1048699 -0.11841769 0.07584422 0.03184081 0.11591348 -0.16227873 -0.15032373 -0.19185777 -0.17660363 -0.07804513 -0.2914749 0.18809211 0.054562055 -0.052177258 -0.017552964 -0.164655 0.2987031 -0.046314538 0.055888794 0.07514128 -0.3509738 -0.05589057 0.060863987 0.24697156 -0.14804372 -0.017990852 -0.1937943 0.018955972 0.13082159 -0.29295528 0.13997813 -0.155696 -0.22004278 0.10075256 0.02602278 -0.013263584 -0.08500091 -0.06251557 0.3372156 0.15841882 -0.1039718 0.27037978 0.28187752
3 0.36021024 -0.19890523 -0.06183208 -0.022165036 0.2375383 -0.2400926 0.14914045 -0.08757567 0.19067314 -0.21677817 -0.025963381 -0.31584504 0.23533615 -0.041587364 0.1315823 -0.35636285 0.03099297 -0.19335106 -0.08267502 0.14353184 -0.106113225 0.100015946 -0.11345498 0.07201379 0.03978822 0.117720865 -0.1530307 -0.1460454 -0.18747206 -0.1836267 -0.07787303 -0.2812877 0.18218489 0.04998726 -0.051661182 -0.025106981 -0.16177088 0.30625153 -0.060028154 0.058913935 0.07348655 -0.33858913 -0.050587412 0.057674933 0.24127287 -0.14430834 -0.01877371 -0.1922517 0.021611558 0.14332338 -0.29963985 0.14797075 -0.1507001 -0.21615566 0.10488279 0.014842757 -0.016347991 -0.085500084 -0.071144395 0.33293727 0.15748127 -0.100839734 0.27378556 0.28176346
16 0.34827158 -0.20318983 -0.05119637 -0.028364092 0.23862639 -0.22397736 0.15325084 -0.091926284 0.19372149 -0.21696545 -0.014937659 -0.31749228 0.23296346 -0.03954508 0.11546656 -0.3562839 0.038153954 -0.19259322 -0.09033088 0.14324023 -0.11262309 0.09800653 -0.11101125 0.0710864 0.044938233 0.113482706 -0.15955974 -0.15256305 -0.19891492 -0.17304322 -0.06960165 -0.27944934 0.19152483 0.047482774 -0.05153087 -0.025564602 -0.15786475 0.30530763 -0.056341216 0.07037548 0.07136436 -0.35580325 -0.05952301 0.070326634 0.24773192 -0.13893716 -0.0064538303 -0.1926451 0.027298031 0.14453052 -0.29784343 0.15492338 -0.15896729 -0.21712692 0.10525343 0.018326798 -0.00879733 -0.08600617 -0.07486215 0.3235436 0.14886485 -0.113193996 0.28128982 0.28710073
61 0.33993092 -0.19132988 -0.04965669 -0.016620241 0.23791604 -0.2357985 0.13577019 -0.093675315 0.18640198 -0.21570665 -0.019715603 -0.30499467 0.2391992 -0.038904063 0.12466992 -0.3532724 0.02861806 -0.20056789 -0.090032935 0.13876851 -0.10165117 0.09924571 -0.10912722 0.06657364 0.04333668 0.1089962 -0.16002105 -0.1529965 -0.19122136 -0.17879331 -0.08153434 -0.28000876 0.18625727 0.054783177 -0.055740137 -0.022704164 -0.15464488 0.30798385 -0.055766594 0.06862637 0.074581265 -0.3412015 -0.057177737 0.057740975 0.2501703 -0.14889406 -0.009871285 -0.20192592 0.021980062 0.13415024 -0.3003404 0.15828066 -0.1622705 -0.22397715 0.1066537 0.02545231 -0.007857404 -0.08298759 -0.06088049 0.33612603 0.162687 -0.117365316 0.2845321 0.2795669
43 0.34698877 -0.18688156 -0.04561972 -0.020886771 0.24113706 -0.23447683 0.14143185 -0.07729008 0.1972824 -0.22173645 -0.010461801 -0.3155714 0.24646552 -0.037969433 0.12945482 -0.34311885 0.042476084 -0.19342828 -0.08776323 0.13763466 -0.1153213 0.09937365 -0.12122864 0.076578476 0.03861428 0.115531825 -0.15567961 -0.14622107 -0.19330214 -0.17688283 -0.06618094 -0.28434628 0.18530399 0.05744847 -0.0613868 -0.02802342 -0.16227527 0.30952865 -0.053581685 0.06041132 0.06863161 -0.34908357 -0.053445905 0.07052629 0.23653615 -0.1506891 -0.005369752 -0.18933661 0.022771655 0.1375931 -0.2999627 0.15094133 -0.1501781 -0.22292091 0.0976493 0.025535872 -0.0076323966 -0.08119261 -0.06675284 0.33408317 0.1608004 -0.10067207 0.27747682 0.28570917
99 0.35401708 -0.20423049 -0.048858877 -0.024220364 0.24029815 -0.23640083 0.14553149 -0.091471784 0.19788657 -0.21049075 -0.026597269 -0.3173403 0.24634016 -0.03511655 0.12061355 -0.34642318 0.029766552 -0.1949755 -0.08704893 0.13952453 -0.116411686 0.10571632 -0.12177932 0.074327536 0.046723258 0.106147595 -0.15124539 -0.14500676 -0.19232816 -0.18393977 -0.07454072 -0.27898446 0.1894466 0.060032718 -0.055387765 -0.012103213 -0.16705647 0.31848973 -0.051827118 0.065350965 0.06804059 -0.3542283 -0.05165707 0.060655944 0.24776667 -0.142751 -0.010010743 -0.19656773 0.02702664 0.14275917 -0.29327622 0.15892856 -0.15099978 -0.22694214 0.09453062 0.02452021 -0.016608927 -0.08068002 -0.07460611 0.33266655 0.15428135 -0.1018215 0.28333992 0.2830609
59 0.35078582 -0.20971972 -0.058591682 -0.029033285 0.24768536 -0.23772347 0.14716533 -0.090465866 0.19244006 -0.22549748 -0.009992647 -0.31768277 0.23796628 -0.04352918 0.11447933 -0.35430607 0.045788437 -0.18951258 -0.09373187 0.14227341 -0.10083642 0.10614396 -0.12507284 0.06627876 0.050234802 0.11406278 -0.15258715 -0.14996895 -0.19663148 -0.17977048 -0.07035298 -0.27892002 0.1953781 0.052868925 -0.054632384 -0.023653338 -0.16882935 0.30885202 -0.06065756 0.06271036 0.07247355 -0.35482195 -0.058833294 0.070578545 0.24132538 -0.14164083 -0.019327499 -0.19311538 0.018147785 0.14211144 -0.28969637 0.15647522 -0.1560577 -0.21757048 0.09674385 0.01933612 -0.008667839 -0.08820641 -0.06251521 0.3315438 0.14629178 -0.113858126 0.27206942 0.2857652
68 0.3501141 -0.19435541 -0.055714585 -0.025067164 0.24696998 -0.22824448 0.13462572 -0.07443712 0.19530584 -0.22343111 -0.023562437 -0.31200162 0.23635192 -0.041746177 0.11702796 -0.3496995 0.04525153 -0.19989559 -0.09211589 0.13491234 -0.100007616 0.09023619 -0.111253306 0.08153211 0.03553083 0.12133597 -0.15286447 -0.14810123 -0.19712842 -0.17939864 -0.06860272 -0.2845251 0.18679713 0.058859866 -0.04780526 -0.02311846 -0.16160536 0.2990687 -0.05955092 0.066652335 0.079943135 -0.34664223 -0.052089266 0.057308782 0.24837704 -0.1390406 -0.013278954 -0.18587494 0.020687826 0.13710214 -0.29956165 0.14345175 -0.15766403 -0.22256893 0.09680173 0.018632341 -0.018174816 -0.08761567 -0.059999116 0.32643557 0.15927176 -0.10824272 0.27709067 0.27618882
67 0.3544222 -0.19846673 -0.052744925 -0.01869614 0.23811844 -0.23801771 0.14546013 -0.07942212 0.18618797 -0.21401793 -0.012257814 -0.30294695 0.23933052 -0.039440203 0.11857607 -0.35542086 0.028215976 -0.19876121 -0.08331194 0.13577384 -0.109902434 0.10644758 -0.111351706 0.076743476 0.043687213 0.12244852 -0.1643322 -0.15079974 -0.18896379 -0.17094982 -0.069943346 -0.28790602 0.1957748 0.05113093 -0.048494577 -0.019511564 -0.16495025 0.30953568 -0.05671074 0.062109794 0.07352921 -0.35576257 -0.04847469 0.066029824 0.24398926 -0.141254 -0.020704245 -0.18690886 0.033059265 0.14072266 -0.30517325 0.16273268 -0.16021785 -0.20803654 0.09466387 0.03218719 -0.017546074 -0.08328495 -0.07049703 0.3259516 0.14920704 -0.10595029 0.28450462 0.28768075
34 0.35710853 -0.19814713 -0.05381778 -0.033227507 0.24143669 -0.2374491 0.15540251 -0.08667473 0.19136599 -0.21727194 -0.015259545 -0.3043821 0.23988287 -0.049602747 0.11412854 -0.35520774 0.03227437 -0.19458216 -0.09415116 0.1302957 -0.11228403 0.10145382 -0.12595297 0.08122521 0.03883237 0.11702524 -0.15741868 -0.15178649 -0.1937898 -0.16856182 -0.07159806 -0.28420582 0.18236354 0.057874672 -0.04412455 -0.027903263 -0.15726419 0.31094193 -0.047279004 0.05546706 0.0670358 -0.34600002 -0.06334037 0.055532634 0.2384225 -0.14297935 -0.0073916023 -0.18493547 0.02382092 0.13752367 -0.29734802 0.1461841 -0.15416375 -0.2121134 0.09721273 0.025339326 -0.0163175 -0.078895755 -0.05876789 0.32733595 0.15444039 -0.11135516 0.27835017 0.2790212
28 0.34933856 -0.19791763 -0.061981652 -0.021435913 0.25143656 -0.23620385 0.14075205 -0.08634105 0.18755133 -0.20917358 -0.01106549 -0.30218318 0.23996627 -0.0388098 0.11745887 -0.35676798 0.0396342 -0.18621714 -0.08939869 0.14122698 -0.09830084 0.10031016 -0.10862049 0.07321928 0.03162743 0.11186142 -0.15255605 -0.14953804 -0.19572946 -0.17846754 -0.080974564 -0.2915913 0.1952334 0.059239246 -0.04333612 -0.018304192 -0.15973794 0.31067386 -0.045450766 0.056675415 0.075712614 -0.3443388 -0.06059257 0.05931985 0.23304205 -0.15040211 -0.007982753 -0.19177519 0.017091649 0.13470028 -0.29806858 0.1596655 -0.1541648 -0.21162544 0.109427795 0.02907164 -0.02021023 -0.07318435 -0.07057932 0.3349059 0.16586089 -0.1082418 0.2862649 0.28969902
66 0.34709653 -0.21071808 -0.04767922 -0.03180659 0.2428035 -0.24474433 0.15609606 -0.08545275 0.18576203 -0.22054371 -0.013511883 -0.2987515 0.2488074 -0.04925728 0.12413266 -0.3559079 0.035751227 -0.19369426 -0.09016743 0.14075819 -0.10281764 0.10059439 -0.12551673 0.079843 0.03575385 0.10724624 -0.14955384 -0.13322473 -0.18829657 -0.18169619 -0.07718782 -0.2848826 0.1806616 0.06525168 -0.04400164 -0.013748997 -0.16139731 0.3027711 -0.044324525 0.057650138 0.06531552 -0.3369756 -0.057522897 0.05863569 0.24496661 -0.14143138 -0.005290763 -0.19143912 0.012304573 0.12974624 -0.2935954 0.15759298 -0.14362447 -0.21014765 0.10717255 0.024707472 -0.018627891 -0.07910528 -0.0651308 0.3195017 0.14308932 -0.10501855 0.28127092 0.28781182
51 0.35107732 -0.19231896 -0.048760477 -0.020472674 0.24787287 -0.23247221 0.14416528 -0.08402305 0.18938188 -0.219333 -0.009741876 -0.3174356 0.2536175 -0.047977667 0.13070494 -0.3553322 0.02759467 -0.19416186 -0.08885996 0.14205939 -0.10729962 0.09971825 -0.12729722 0.08713099 0.02750957 0.10970035 -0.16233711 -0.14264104 -0.19117114 -0.17582765 -0.0688215 -0.2928965 0.19161108 0.054761007 -0.055283614 -0.015337374 -0.15939932 0.3099409 -0.05771677 0.06322194 0.07160047 -0.35475305 -0.047071707 0.06654628 0.23895301 -0.14189816 -0.006957459 -0.18710005 0.01796315 0.13265944 -0.2905909 0.15326647 -0.15385398 -0.22520493 0.10312204 0.02721726 -0.019314043 -0.08300342 -0.06281626 0.33411047 0.16446616 -0.10830476 0.28453645 0.29568586
38 0.34057584 -0.1931249 -0.04567335 -0.014491457 0.22754194 -0.21982333 0.13389389 -0.080626495 0.2018878 -0.22275285 -0.018833043 -0.3140454 0.23595172 -0.033636697 0.13336897 -0.3585842 0.030793741 -0.19423823 -0.0799273 0.13997908 -0.114368774 0.105891064 -0.117655136 0.079193935 0.034639783 0.10458134 -0.14903226 -0.14775306 -0.20179224 -0.17377311 -0.07420718 -0.28617772 0.19664331 0.059224416 -0.049506407 -0.017136004 -0.15842773 0.31279773 -0.056541577 0.065450355 0.07602376 -0.35223654 -0.05437231 0.07153965 0.24400969 -0.15185805 -0.007976861 -0.19772114 0.015969982 0.13860193 -0.29430747 0.15448174 -0.15659311 -0.22274333 0.10444052 0.026348578 -0.006322109 -0.080181316 -0.07197912 0.32703072 0.1497606 -0.112883665 0.27473983 0.2873073
48 0.33880153 -0.19937788 -0.06072409 -0.018140346 0.23802464 -0.2341129 0.13900408 -0.07696724 0.20818767 -0.21545087 -0.01712918 -0.31899843 0.24253128 -0.0427219 0.11742178 -0.35157686 0.03822344 -0.19554287 -0.08979111 0.14178686 -0.09873706 0.100751124 -0.11366771 0.06901663 0.045747492 0.11863541 -0.15943012 -0.14094312 -0.18984723 -0.17097326 -0.0735593 -0.27591002 0.19470416 0.059075043 -0.05949081 -0.027316635 -0.16495474 0.3032276 -0.056681268 0.068391494 0.074048355 -0.3582817 -0.063497595 0.07158665 0.23310907 -0.14028378 -0.01206821 -0.19888705 0.020458598 0.13989681 -0.2958621 0.15175481 -0.14311963 -0.21803276 0.09510995 0.0193427 -0.0025513116 -0.08524958 -0.071505375 0.33295652 0.16456228 -0.113501064 0.2866076 0.2861894
50 0.35561714 -0.20241411 -0.0452438 -0.031043563 0.24550678 -0.23074467 0.14529587 -0.090995535 0.20108804 -0.21820243 -0.018322961 -0.30667976 0.23229857 -0.047721434 0.11739571 -0.35687822 0.041731734 -0.19705768 -0.08453564 0.1390962 -0.10628637 0.10317773 -0.113266975 0.08071008 0.040126517 0.11192996 -0.15132792 -0.13893282 -0.193726 -0.17412311 -0.074184135 -0.27670354 0.19026434 0.05422126 -0.047233213 -0.019710425 -0.15673636 0.317979 -0.058663215 0.0697903 0.07150561 -0.34438136 -0.057879064 0.06702153 0.24169804 -0.15003859 -0.014104198 -0.19574058 0.024907023 0.14102732 -0.29299387 0.14609964 -0.15207285 -0.22103941 0.09268247 0.014833689 -0.019871688 -0.08237384 -0.07329757 0.33028978 0.16086237 -0.10450179 0.27042422 0.28277305
1 0.34073576 -0.18805343 -0.0444364 -0.035311706 0.23530826 -0.2372378 0.13927786 -0.09106451 0.19584386 -0.20644659 -0.017669156 -0.30743337 0.23706031 -0.044598915 0.12502483 -0.34100303 0.03533542 -0.2025277 -0.086103916 0.14345801 -0.116161294 0.10611668 -0.11551751 0.08071455 0.0423607 0.11664254 -0.16416967 -0.14840181 -0.19789845 -0.16829787 -0.07591927 -0.2749565 0.19836707 0.05423911 -0.045588132 -0.019817058 -0.16993783 0.31100354 -0.05660602 0.059459254 0.06934031 -0.35934114 -0.05829961 0.07635553 0.24043028 -0.14910053 -0.0052963085 -0.18283924 0.022473024 0.14862402 -0.29144424 0.1540007 -0.14471185 -0.22341518 0.09929586 0.015025032 -0.016311506 -0.08709098 -0.0741671 0.33793345 0.15417984 -0.10338593 0.27729803 0.28130797
58 0.35076347 -0.20025551 -0.061107952 -0.026068458 0.24043842 -0.2344938 0.1510755 -0.07885182 0.19634865 -0.22148338 -0.019152757 -0.3146877 0.2338872 -0.039201174 0.12866415 -0.347215 0.032690734 -0.20101355 -0.08305351 0.13203247 -0.1082509 0.09574332 -0.119636305 0.078259595 0.046114407 0.11770224 -0.15874936 -0.13746962 -0.18619087 -0.18332402 -0.07773041 -0.28695127 0.19830728 0.054936048 -0.051398624 -0.026584392 -0.16254817 0.3093908 -0.06296547 0.061319016 0.06749124 -0.35763264 -0.061016627 0.06769794 0.23883875 -0.14931227 -0.009562947 -0.19700557 0.02619742 0.14078484 -0.29995668 0.15213548 -0.15202375 -0.21142855 0.09496963 0.019174017 -0.011295511 -0.08678435 -0.06842797 0.32437408 0.14754659 -0.10486355 0.27743787 0.28386
21 0.3527949 -0.19105253 -0.048347596 -0.029207371 0.2484951 -0.23593123 0.14141472 -0.08013954 0.19885199 -0.21603154 -0.017520394 -0.31625444 0.23641273 -0.04405254 0.123555265 -0.35657883 0.039737817 -0.19306053 -0.08092561 0.13915399 -0.10894728 0.10640315 -0.108522944 0.082077615 0.03428219 0.12201559 -0.15863363 -0.13839021 -0.18875653 -0.18094648 -0.06312427 -0.2901499 0.19524217 0.050935585 -0.053694468 -0.016846761 -0.16897538 0.31519383 -0.057645336 0.06274581 0.059833743 -0.34721905 -0.050048463 0.07609261 0.23529166 -0.15037103 -0.0041322554 -0.19173151 0.020572638 0.13952868 -0.2921759 0.15733545 -0.14471456 -0.21657696 0.091930315 0.025083533 -0.007848597 -0.08761089 -0.07735774 0.3278826 0.15048073 -0.097914994 0.28219327 0.2940342
26 0.35534126 -0.199822 -0.047375757 -0.02990731 0.25532493 -0.23088284 0.14898954 -0.078841 0.19077007 -0.21836399 -0.013186669 -0.3127892 0.2347316 -0.042111617 0.12992406 -0.3587558 0.040653843 -0.1830178 -0.085901335 0.14544012 -0.106816754 0.102999166 -0.12036703 0.08104589 0.031561233 0.109727554 -0.15614516 -0.14935607 -0.20192514 -0.16789487 -0.07007909 -0.2779876 0.18349633 0.05438941 -0.04315288 -0.013616198 -0.16629295 0.30123392 -0.060482927 0.0575284 0.074527256 -0.35815012 -0.04548499 0.067046076 0.24065785 -0.15130113 -0.015439538 -0.19509739 0.029851759 0.13376385 -0.2880252 0.14764348 -0.14336106 -0.2198601 0.095791735 0.017576005 -0.010604512 -0.09058027 -0.07207678 0.3332309 0.1465879 -0.11032392 0.27876797 0.28795615
25 0.34860966 -0.18312919 -0.05781821 -0.025916895 0.24208416 -0.22342166 0.14547263 -0.084400184 0.19875139 -0.21105184 -0.0129900845 -0.3126879 0.24639963 -0.051016394 0.11477699 -0.3521374 0.03430634 -0.19718526 -0.08936347 0.14458406 -0.099133596 0.09507475 -0.1065014 0.08056904 0.039011385 0.10895636 -0.1649104 -0.1466454 -0.18401897 -0.18279675 -0.06699933 -0.28756472 0.19383311 0.044691604 -0.055722117 -0.019250719 -0.16088115 0.30177692 -0.04843601 0.076071985 0.06280028 -0.35837328 -0.055786274 0.06904956 0.23912895 -0.14430028 -0.012196327 -0.20352015 0.026664928 0.14652717 -0.28199545 0.15715756 -0.15412952 -0.2131692 0.094411075 0.021451693 -0.012099621 -0.08275167 -0.069534466 0.33162898 0.15819225 -0.109164596 0.28129616 0.28899968
22 0.3560012 -0.20183088 -0.045295987 -0.023043586 0.24449193 -0.23525403 0.1346705 -0.088482454 0.19471349 -0.21019962 -0.024948215 -0.31278062 0.23557627 -0.03168302 0.12205153 -0.3576132 0.041857935 -0.19619596 -0.094007954 0.14384913 -0.112585485 0.10481138 -0.12336934 0.08388623 0.039608423 0.11334525 -0.15757953 -0.14825991 -0.19566025 -0.17021403 -0.08025844 -0.28217462 0.19531758 0.0603424 -0.0506396 -0.026818568 -0.16971871 0.3089829 -0.050274633 0.0724805 0.06472462 -0.3494343 -0.062201723 0.06244286 0.23794538 -0.14726153 -0.0052059414 -0.19721907 0.016619796 0.13846993 -0.28796232 0.14842597 -0.15267946 -0.22540961 0.09468569 0.018227503 -0.0072243195 -0.09222162 -0.07460397 0.3199328 0.16397147 -0.103781246 0.26566315 0.2821039
47 0.35075372 -0.19494134 -0.05037235 -0.020123307 0.23823151 -0.22770432 0.14202344 -0.09181537 0.19081269 -0.22398575 -0.027250236 -0.30881765 0.23621573 -0.041277744 0.11659185 -0.34670955 0.03931471 -0.18695955 -0.08938948 0.12914802 -0.10847435 0.095723145 -0.1160526 0.07404369 0.04559849 0.118387416 -0.15126713 -0.14215727 -0.20178634 -0.18109398 -0.07179846 -0.28384364 0.18552133 0.053615857 -0.062494434 -0.023835244 -0.16367416 0.316435 -0.058256544 0.06725882 0.06558019 -0.35354945 -0.06045127 0.060584255 0.24044633 -0.15389192 -0.010656988 -0.19521677 0.028467717 0.14714883 -0.291182 0.15325604 -0.1414587 -0.22437365 0.09381793 0.0247011 -0.0065858443 -0.09261842 -0.06414639 0.32966048 0.15612316 -0.10663965 0.27382836 0.28007767
57 0.34400854 -0.20456187 -0.054616246 -0.017872563 0.25076544 -0.23354237 0.15346172 -0.0870968 0.19172883 -0.2095901 -0.016877208 -0.30344215 0.23115136 -0.04619832 0.13141988 -0.34770134 0.03341841 -0.19858646 -0.085703075 0.12884216 -0.10989225 0.10758512 -0.1258858 0.07276727 0.031168701 0.108342536 -0.14810704 -0.15193112 -0.19486544 -0.17179564 -0.068367 -0.28983372 0.18769014 0.06469912 -0.058538765 -0.016581234 -0.16441648 0.31637615 -0.053560857 0.0718552 0.0641318 -0.3545253 -0.04946852 0.058271717 0.23653167 -0.15544648 -0.012905203 -0.2006667 0.022943389 0.14031868 -0.29226443 0.14962988 -0.13945512 -0.21552001 0.09864614 0.028224496 -0.019129181 -0.0827402 -0.07345186 0.32297474 0.15713733 -0.10029659 0.27010956 0.2754328
91 0.35722804 -0.20224062 -0.056323856 -0.019473318 0.24684432 -0.24628432 0.14709058 -0.0916738 0.19659404 -0.23030329 -0.027713796 -0.30665177 0.24570939 -0.0401501 0.11660902 -0.35625446 0.027766025 -0.19309606 -0.09660913 0.14624873 -0.106434934 0.09741128 -0.12119861 0.07712263 0.04801118 0.10737321 -0.14805838 -0.15222247 -0.1931946 -0.18169795 -0.06724043 -0.28706807 0.19449377 0.0664247 -0.060928997 -0.023592845 -0.17293331 0.3067846 -0.061245654 0.06731967 0.06633597 -0.35443828 -0.049101345 0.06471268 0.235808 -0.15203798 -0.018929683 -0.19939964 0.017637273 0.14916635 -0.28946233 0.14652514 -0.15907976 -0.22056188 0.0953816 0.022618363 -0.010148709 -0.08788718 -0.067671895 0.32708216 0.16269758 -0.10195074 0.27657452 0.27888694
80 0.3388389 -0.204672 -0.04442663 -0.024757056 0.23418297 -0.21870553 0.1445273 -0.08577512 0.20091267 -0.21567114 -0.020266056 -0.31686646 0.23761138 -0.03485748 0.12225139 -0.3517347 0.02935761 -0.1949494 -0.08169268 0.14512067 -0.10502291 0.09533153 -0.11166125 0.07818504 0.038670987 0.117883116 -0.15573101 -0.15574844 -0.18859199 -0.18318395 -0.07730962 -0.27667207 0.19556707 0.056678016 -0.05505152 -0.02331656 -0.16310847 0.30756527 -0.056695014 0.06416121 0.07478249 -0.35546875 -0.06637506 0.06478079 0.23865218 -0.14302956 -0.0141546745 -0.19014263 0.02300385 0.15082157 -0.3015042 0.1665312 -0.14995927 -0.2260561 0.09919224 0.019016981 -0.012892089 -0.08170612 -0.07239948 0.32781968 0.16385578 -0.11060242 0.27744797 0.28130075
81 0.34819326 -0.20274235 -0.05195087 -0.031292286 0.24490145 -0.22548077 0.13780642 -0.0757977 0.19926952 -0.21357644 -0.012147724 -0.31564158 0.24050342 -0.041949265 0.1200735 -0.35381904 0.031993493 -0.18466896 -0.090822294 0.1423816 -0.114977635 0.092427105 -0.1196563 0.08016717 0.04830311 0.12234075 -0.16161792 -0.14468822 -0.19027649 -0.17586331 -0.07017109 -0.28331456 0.18639894 0.051182408 -0.058091212 -0.028192258 -0.17013016 0.31482854 -0.0593009 0.06843144 0.077838115 -0.35198995 -0.050381918 0.068257734 0.23192778 -0.14298527 -0.01815346 -0.18915221 0.01907727 0.14752685 -0.29011822 0.15225069 -0.15191819 -0.22074512 0.09424637 0.031138701 -0.017354982 -0.0895448 -0.059640605 0.32508355 0.1601299 -0.10544103 0.27106956 0.2802343
27 0.34491107 -0.19499092 -0.05694509 -0.033306174 0.24970026 -0.23992352 0.15179892 -0.07697033 0.19776383 -0.218913 -0.020573653 -0.30814144 0.2368002 -0.038165987 0.1289464 -0.35467374 0.039524373 -0.18922211 -0.09142706 0.14135736 -0.10702448 0.09867153 -0.11667804 0.07091911 0.030911425 0.1173961 -0.16505727 -0.14954984 -0.19515035 -0.1744659 -0.0745754 -0.28751984 0.19139847 0.051509667 -0.044431996 -0.023158967 -0.16221488 0.31028968 -0.060804084 0.056653373 0.067784004 -0.33994418 -0.06265577 0.071710475 0.24379015 -0.14567691 -0.012728227 -0.18706 0.017458323 0.1386923 -0.2918667 0.14735664 -0.141567 -0.21423315 0.09977089 0.021955552 -0.008726842 -0.07987496 -0.0649632 0.32606623 0.15942839 -0.11006414 0.27521294 0.28098708
19 0.33669272 -0.19638024 -0.055025846 -0.025824867 0.23595469 -0.2234085 0.13896756 -0.07203288 0.18832116 -0.20890263 -0.013881158 -0.31213257 0.2436496 -0.046608932 0.116302036 -0.34917834 0.030057514 -0.18758322 -0.077093706 0.13640788 -0.0939453 0.099734224 -0.10430466 0.07815032 0.0303817 0.1122731 -0.15891615 -0.14952356 -0.18979783 -0.18022846 -0.06974872 -0.27892178 0.19058922 0.060029488 -0.049194623 -0.019757446 -0.15236935 0.3044705 -0.06052078 0.06262202 0.07398921 -0.3474902 -0.05080264 0.06111289 0.24386956 -0.14050713 -0.015126527 -0.18361396 0.020167489 0.14305174 -0.2898281 0.1584069 -0.15063907 -0.22087026 0.10494473 0.020346457 -0.00734941 -0.08360943 -0.06582423 0.33043984 0.15998232 -0.09972173 0.28160506 0.28284967
98 0.3459301 -0.19621027 -0.06345111 -0.019360658 0.23253874 -0.23459634 0.13746803 -0.080928214 0.19982126 -0.21250093 -0.019277655 -0.31647596 0.24758391 -0.04194247 0.13005425 -0.35262465 0.029113226 -0.19793332 -0.0879451 0.13866831 -0.11250641 0.096557364 -0.12412005 0.08017931 0.03470782 0.11945988 -0.166211 -0.1547265 -0.19699724 -0.18394893 -0.06992472 -0.2912209 0.19668078 0.052778218 -0.058286518 -0.024390012 -0.15744807 0.3174701 -0.05432623 0.06399628 0.0699868 -0.35227326 -0.06604936 0.06518227 0.23398614 -0.14455263 -0.005630845 -0.1915248 0.01746702 0.15082172 -0.29963866 0.1591288 -0.16075827 -0.2194758 0.09400396 0.017812347 -0.021191074 -0.09219392 -0.07022309 0.33440083 0.15694284 -0.11411131 0.27543202 0.2875104
33 0.3520198 -0.19947726 -0.04780752 -0.023404343 0.23962653 -0.24015506 0.13513751 -0.082896955 0.1875241 -0.21790814 -0.027321415 -0.30919534 0.24869958 -0.042891532 0.11948212 -0.35863388 0.035962217 -0.19578911 -0.090510935 0.13131078 -0.11019006 0.091106914 -0.122824356 0.073737875 0.04186334 0.10639669 -0.1503914 -0.14332487 -0.18501252 -0.18188004 -0.06752574 -0.27972636 0.2005482 0.06308668 -0.04778505 -0.02501278 -0.17319891 0.30612975 -0.054336373 0.06860219 0.06352403 -0.34519765 -0.06474929 0.06853743 0.23321913 -0.15035424 -0.0041461727 -0.19909358 0.019838262 0.13935983 -0.28941932 0.15623991 -0.14813928 -0.22436048 0.103201106 0.029455094 -0.0044040116 -0.0819527 -0.07501532 0.32461262 0.16253674 -0.10473978 0.27071285 0.27464542
96 0.35588887 -0.19820325 -0.05183315 -0.017059265 0.24298432 -0.22930694 0.15410647 -0.0867496 0.20055118 -0.21128026 -0.025270697 -0.31071508 0.24063493 -0.033012856 0.12327789 -0.35131523 0.02919223 -0.19859621 -0.08549968 0.13797131 -0.098982625 0.10077583 -0.1239673 0.07658111 0.039560392 0.12036085 -0.15491432 -0.14245209 -0.1980347 -0.17903239 -0.07135222 -0.28318766 0.18367247 0.051733144 -0.057915457 -0.016417202 -0.16335459 0.3071989 -0.05166962 0.07071031 0.080448434 -0.3544158 -0.06108813 0.05982755 0.23894827 -0.13997374 -0.017406782 -0.19754185 0.027183743 0.1432505 -0.29819587 0.15719692 -0.14599241 -0.21914831 0.10708499 0.01754309 -0.013173379 -0.09192242 -0.07382245 0.32312304 0.15498167 -0.099507004 0.26739395 0.2867578
75 0.34903482 -0.19248816 -0.054455988 -0.019893149 0.23337393 -0.23315802 0.13335575 -0.08620919 0.19448826 -0.22202747 -0.005070495 -0.3110328 0.23238295 -0.04289492 0.1275121 -0.3584062 0.034240767 -0.1962774 -0.09000811 0.14788225 -0.11242178 0.092180856 -0.118288994 0.06713503 0.042956077 0.1135704 -0.1565447 -0.15047666 -0.1968948 -0.18166566 -0.062242143 -0.2821356 0.18991272 0.053166416 -0.06205132 -0.015567149 -0.16449606 0.300526 -0.04272536 0.06749053 0.06975374 -0.34072417 -0.047244497 0.05951467 0.24473128 -0.13712215 -0.018640947 -0.19551334 0.02550872 0.13172719 -0.29509464 0.14507653 -0.15864898 -0.20503034 0.09968454 0.020450111 -0.018113736 -0.08281178 -0.06609543 0.33250812 0.157736 -0.10317338 0.27322057 0.28428268
6 0.34156883 -0.20603703 -0.05886391 -0.016564699 0.24364072 -0.2396715 0.14661114 -0.08009516 0.18902284 -0.21781635 -0.022185003 -0.31479472 0.24174011 -0.03433407 0.12276716 -0.34960938 0.037208155 -0.19618629 -0.07757905 0.14147508 -0.10072219 0.10157771 -0.11609346 0.07919807 0.037006866 0.122012965 -0.15775295 -0.14008208 -0.19340691 -0.18478602 -0.06776491 -0.29003143 0.20023833 0.050306376 -0.04375282 -0.019032983 -0.16921654 0.31094426 -0.056872804 0.059003875 0.07323837 -0.35822308 -0.049567915 0.073447496 0.23657958 -0.14811236 -0.015897121 -0.18660495 0.023122594 0.14756593 -0.30272558 0.1614539 -0.1457897 -0.22326478 0.09498597 0.029788276 -0.018976795 -0.08633641 -0.07091776 0.331402 0.16170089 -0.10121945 0.28447706 0.28119954
15 0.35743624 -0.20446837 -0.06114679 -0.01663504 0.24079339 -0.23391789 0.13999386 -0.080486216 0.19788943 -0.21709937 -0.01565452 -0.30714965 0.24343774 -0.04965204 0.12578468 -0.3579214 0.029056782 -0.19518387 -0.08048605 0.13742666 -0.11029164 0.10388787 -0.12381353 0.07850962 0.031183902 0.11608016 -0.16422561 -0.13895833 -0.18073954 -0.16291854 -0.065928705 -0.28401926 0.19374791 0.062308464 -0.057047233 -0.018159635 -0.15142022 0.30192322 -0.051845126 0.066896856 0.08274941 -0.34869227 -0.060477085 0.06794172 0.23978262 -0.142223 -0.0069709443 -0.19275029 0.031477373 0.13815558 -0.2977162 0.1419077 -0.14275627 -0.20541759 0.092640415 0.02360503 -0.00855026 -0.080225386 -0.073318176 0.32314655 0.15713933 -0.10505018 0.27282792 0.27520257
72 0.3590412 -0.20024677 -0.05058382 -0.021917362 0.24551202 -0.23689343 0.1486173 -0.082452 0.18975885 -0.20905879 -0.0074074687 -0.31092474 0.23283958 -0.03454135 0.12033845 -0.35234144 0.041905575 -0.18697917 -0.08746171 0.13347878 -0.10034779 0.097492136 -0.11113779 0.073367044 0.031941354 0.1106122 -0.15356086 -0.14644425 -0.18440883 -0.17816633 -0.07605535 -0.28082883 0.18791983 0.05616172 -0.058055695 -0.026207495 -0.15998131 0.31509885 -0.05982931 0.070332 0.06751975 -0.35492364 -0.05398326 0.06683698 0.23861149 -0.1497196 -0.018193977 -0.18763493 0.0153716365 0.14584345 -0.3017704 0.14547391 -0.1588133 -0.22092168 0.10676399 0.027649662 -0.010751081 -0.082650505 -0.073774256 0.33408242 0.1613961 -0.11350453 0.28140292 0.28690577
74 0.34216377 -0.19241989 -0.043561764 -0.021553008 0.23307635 -0.22155444 0.14712103 -0.082533136 0.18486875 -0.21809855 -0.02232268 -0.30762625 0.24896435 -0.045494247 0.11725315 -0.35428068 0.029490892 -0.18830436 -0.08317197 0.14818366 -0.102154896 0.10504305 -0.11312002 0.06832176 0.038208824 0.11389976 -0.15378092 -0.15198036 -0.20213589 -0.17848732 -0.06972559 -0.276471 0.19998705 0.05117981 -0.058496445 -0.010547036 -0.16606866 0.30669788 -0.05959539 0.06316498 0.0786471 -0.3540944 -0.05035582 0.0698836 0.23556139 -0.14688616 -0.01828707 -0.2027915 0.015635425 0.14392953 -0.3002978 0.14817828 -0.16002077 -0.21354581 0.10082252 0.0200632 -0.0061421064 -0.07924967 -0.06948137 0.33392984 0.15042783 -0.10794532 0.27758408 0.29166317
62 0.3553962 -0.20496476 -0.060162038 -0.032133557 0.24694163 -0.23717238 0.14279559 -0.086230926 0.19111738 -0.22255714 -0.016153222 -0.3091613 0.23626195 -0.044988636 0.12695616 -0.35279986 0.041718915 -0.18532883 -0.08498233 0.14483799 -0.11074828 0.098621905 -0.11861575 0.07438113 0.03339964 0.12071045 -0.1553823 -0.14359464 -0.19854957 -0.18332973 -0.07648326 -0.28275162 0.19591297 0.05264112 -0.05118236 -0.013887454 -0.15759262 0.31629077 -0.06693016 0.06570037 0.07224998 -0.34787813 -0.052808497 0.064684026 0.23651949 -0.15208787 -0.021621097 -0.18992257 0.020690078 0.15024099 -0.29797846 0.14732161 -0.14452183 -0.22110069 0.09995338 0.024727961 -0.015610137 -0.082439736 -0.07461177 0.33012405 0.15748529 -0.10973346 0.28329492 0.28250885
82 0.32892367 -0.18260121 -0.047608245 -0.018595226 0.23581453 -0.22441538 0.13184486 -0.07737429 0.20584832 -0.22035663 -0.013920076 -0.316534 0.23424914 -0.051038906 0.12176507 -0.3533712 0.029062904 -0.2040108 -0.08423669 0.1387373 -0.10627409 0.09046242 -0.10573943 0.067519404 0.034554373 0.11796557 -0.15053569 -0.15162778 -0.20420982 -0.1768825 -0.0700644 -0.28967854 0.1934941 0.057619575 -0.05379501 -0.021991787 -0.16605458 0.30363917 -0.05149785 0.0734452 0.07455415 -0.35708842 -0.043812912 0.06480336 0.24358301 -0.14240757 -0.012109933 -0.19681983 0.015124372 0.14904402 -0.29929593 0.1612042 -0.15042734 -0.21227212 0.10817404 0.014505541 -0.010570497 -0.08554926 -0.061682798 0.32918236 0.15088609 -0.0982436 0.27113387 0.27949244
65 0.3380184 -0.18631575 -0.04849242 -0.026264936 0.2419778 -0.22877829 0.14638197 -0.07958988 0.19282037 -0.2113676 -0.026740251 -0.3117071 0.2452267 -0.03532218 0.12295586 -0.34653583 0.02805998 -0.19409426 -0.0922981 0.14144033 -0.1053125 0.10007928 -0.11324697 0.07066922 0.044510517 0.11663712 -0.16016454 -0.15195645 -0.19833262 -0.18806116 -0.071022294 -0.2770145 0.1910252 0.057216167 -0.05506893 -0.010929724 -0.15700372 0.31344622 -0.061804026 0.06692861 0.06434704 -0.34243643 -0.051327124 0.06513994 0.23639886 -0.1411801 -0.009145049 -0.19300616 0.017205155 0.13597271 -0.3033401 0.15394883 -0.14971392 -0.22590068 0.09185262 0.021747407 -0.015263932 -0.07836218 -0.07119198 0.33922353 0.15460634 -0.10230206 0.28166926 0.2920886
32 0.34456244 -0.20362435 -0.049194414 -0.0288647 0.25071004 -0.23464052 0.14373313 -0.082742594 0.18420976 -0.21359308 -0.019632382 -0.30681187 0.23905605 -0.045747545 0.12604985 -0.35778573 0.041751772 -0.1961248 -0.09232859 0.13961305 -0.114891134 0.10064396 -0.12171663 0.08110686 0.035067674 0.10571577 -0.1539273 -0.14060622 -0.19168606 -0.16858514 -0.07603615 -0.27887937 0.191902 0.056343462 -0.050687727 -0.015501109 -0.16176027 0.31327018 -0.056733128 0.05456233 0.07331943 -0.34703758 -0.048662756 0.05827395 0.25165996 -0.14885476 -0.02221768 -0.1908026 0.018548144 0.14477944 -0.29193667 0.15409943 -0.15532434 -0.21922375 0.09980709 0.02364737 -0.0060427673 -0.08056642 -0.06616254 0.33490548 0.15119687 -0.110856056 0.26589504 0.2781157
95 0.34598836 -0.19701496 -0.047740787 -0.020074967 0.23963277 -0.23256177 0.14095162 -0.07937932 0.18996423 -0.22069126 -0.02359666 -0.3150378 0.23557593 -0.043842304 0.1258574 -0.35300767 0.029911533 -0.20052986 -0.09249426 0.14571781 -0.10265588 0.10181466 -0.122636534 0.0755072 0.037437096 0.113678694 -0.14655316 -0.13960266 -0.20153591 -0.18199155 -0.07258493 -0.28563643 0.19598185 0.06318615 -0.0493777 -0.015473652 -0.16800416 0.3079716 -0.05052692 0.06257835 0.06769448 -0.35567188 -0.04509404 0.07083678 0.2385764 -0.14991267 -0.012305909 -0.18640193 0.021627288 0.13563932 -0.285381 0.15274993 -0.14676867 -0.2210286 0.10073215 0.027763627 -0.017589742 -0.075332485 -0.064844154 0.32876647 0.15415815 -0.108543664 0.26583317 0.28275213
84 0.3452272 -0.20931657 -0.06240824 -0.0213905 0.24282506 -0.2395373 0.15240052 -0.0806112 0.187953 -0.21686207 -0.016915651 -0.3030718 0.23189427 -0.043112703 0.12794763 -0.35565254 0.028968686 -0.18892908 -0.088658266 0.13106896 -0.11442587 0.10978869 -0.1083348 0.06789552 0.043589775 0.10622208 -0.15061982 -0.14585793 -0.19934562 -0.18114847 -0.07954 -0.2899578 0.18616055 0.064801745 -0.053771153 -0.028842647 -0.16539629 0.3173001 -0.052449726 0.05743532 0.06930459 -0.34882855 -0.05568841 0.0619039 0.23684843 -0.14115131 -0.010854534 -0.19347876 0.029623436 0.14360082 -0.2912532 0.15444113 -0.16118984 -0.22014873 0.099640414 0.029258188 -0.007721543 -0.09263595 -0.060218997 0.3314676 0.16451378 -0.11379535 0.27415755 0.28896967
73 0.33661714 -0.18515031 -0.055992506 -0.023476174 0.23068587 -0.23203334 0.13558708 -0.07767023 0.20195767 -0.22065143 -0.013578684 -0.3087565 0.23710494 -0.045882262 0.12961248 -0.34829846 0.031180613 -0.2009573 -0.09359792 0.13136025 -0.10205891 0.10587993 -0.11264114 0.06813253 0.03954205 0.110926606 -0.15143402 -0.1411854 -0.20148441 -0.17742923 -0.07231863 -0.28177372 0.19265933 0.064975716 -0.056971487 -0.018361436 -0.16560416 0.3034952 -0.056957703 0.06767267 0.07927998 -0.35171735 -0.05432642 0.0590087 0.23839118 -0.15251799 -0.014704653 -0.20011096 0.026944607 0.15081678 -0.29957512 0.15757115 -0.15633437 -0.21533367 0.10401543 0.026726775 -0.01401189 -0.09173801 -0.05945619 0.33355296 0.15939926 -0.104474306 0.27321893 0.28882074
30 0.35694003 -0.2013783 -0.050974596 -0.02634783 0.2461075 -0.22603104 0.15228009 -0.089562096 0.19557539 -0.21278273 -0.018607171 -0.3077404 0.23460852 -0.048533916 0.113341115 -0.35118634 0.043728136 -0.19801354 -0.08648815 0.14095698 -0.106541626 0.09560144 -0.10665571 0.06997721 0.036516316 0.12073814 -0.16665262 -0.15290068 -0.18869773 -0.16946332 -0.07267412 -0.27787125 0.18722028 0.047049712 -0.04197878 -0.013667404 -0.17024603 0.29733366 -0.04628471 0.05455352 0.065359175 -0.35172728 -0.056062162 0.0703608 0.2387283 -0.14207594 -0.01935009 -0.18236929 0.031905472 0.13490391 -0.28507364 0.14650457 -0.15985483 -0.21070771 0.10134155 0.024079958 -0.011812283 -0.081748255 -0.07053908 0.33286205 0.1618087 -0.1036906 0.28076908 0.2845891
29 0.3409492 -0.19362746 -0.054648984 -0.033382915 0.23940471 -0.24075907 0.14214356 -0.07912497 0.19686571 -0.21616387 -0.017652038 -0.31179094 0.23318529 -0.048736747 0.116164565 -0.352021 0.043484796 -0.1892687 -0.0907065 0.1365752 -0.11662744 0.106379874 -0.120575055 0.084952444 0.040085055 0.1033703 -0.15974724 -0.13948935 -0.19368306 -0.17955068 -0.06685455 -0.29134977 0.19001438 0.06529687 -0.049152736 -0.030745791 -0.16136444 0.30306298 -0.06040918 0.0687074 0.0697744 -0.35002968 -0.048848066 0.07005563 0.23272066 -0.15259735 -0.0065236245 -0.18911308 0.024747195 0.14411922 -0.29833636 0.1440751 -0.14987668 -0.2211723 0.09469213 0.02524562 -0.0076254187 -0.0891797 -0.073972404 0.32850713 0.16526124 -0.10404825 0.26780102 0.2917982
8 0.34272787 -0.19038515 -0.044544425 -0.020333149 0.23897885 -0.22359553 0.13687241 -0.08372302 0.1895136 -0.22275086 -0.019636 -0.30418137 0.23645605 -0.04315907 0.11720992 -0.34789124 0.032516442 -0.1870325 -0.09039557 0.12907504 -0.104321785 0.10330069 -0.10531217 0.068212904 0.04566033 0.108015865 -0.1570896 -0.14488168 -0.19079621 -0.18375134 -0.07187192 -0.28083372 0.19907282 0.0472211 -0.05703912 -0.011227957 -0.1525892 0.3072467 -0.0505058 0.06554284 0.079997554 -0.35452455 -0.056888502 0.06670524 0.23366861 -0.13620977 -0.014131411 -0.19684657 0.014094413 0.14531708 -0.28966725 0.16068105 -0.15680346 -0.2226554 0.103136174 0.02802128 -0.01385028 -0.08649618 -0.06912183 0.3244341 0.15227702 -0.1075325 0.2792248 0.28322673
7 0.35497355 -0.21020219 -0.05881631 -0.022507288 0.24497145 -0.23316847 0.14336441 -0.09138885 0.19400659 -0.21097356 -0.014874276 -0.3221881 0.24882154 -0.040023427 0.12064365 -0.3537242 0.03813614 -0.18611374 -0.08177342 0.13506195 -0.10654606 0.09745557 -0.11864086 0.07755404 0.043977328 0.12329565 -0.16104023 -0.1460251 -0.18281206 -0.17413718 -0.07033861 -0.28057933 0.19830976 0.058829606 -0.04508372 -0.018886762 -0.16845934 0.32029465 -0.05745948 0.0697554 0.064067155 -0.35087648 -0.053865563 0.070458636 0.23228693 -0.13880499 -0.0030683884 -0.19703144 0.027787825 0.13659614 -0.28594702 0.158699 -0.14191386 -0.21133916 0.102113836 0.014119929 -0.016126268 -0.09055266 -0.06658263 0.32991937 0.15444668 -0.10678402 0.27794594 0.2803917
76 0.33612207 -0.19517384 -0.043095592 -0.029674094 0.23843247 -0.22989725 0.14644265 -0.08740536 0.18939978 -0.2140503 -0.006312105 -0.31853086 0.24443737 -0.03858781 0.12293116 -0.35498008 0.033422064 -0.19230625 -0.07791289 0.14135347 -0.10887079 0.09750207 -0.111252494 0.06692564 0.03943094 0.12309345 -0.16464658 -0.15027195 -0.19302545 -0.17393968 -0.074182466 -0.2750053 0.1862113 0.05378705 -0.056547213 -0.021087948 -0.1568594 0.3188518 -0.05719079 0.06094275 0.06366412 -0.34196284 -0.050591033 0.06432263 0.24211124 -0.1453456 -0.015241188 -0.1974538 0.013151553 0.13940367 -0.29328254 0.1503115 -0.15920024 -0.22577165 0.10365641 0.02641827 -0.010365651 -0.07902565 -0.059995793 0.32890245 0.15904176 -0.10818048 0.27276304 0.27658165
24 0.3364962 -0.19642542 -0.051423 -0.02781736 0.24498503 -0.22866768 0.14082195 -0.07400683 0.20085059 -0.22155046 -0.012687532 -0.3166354 0.24350573 -0.032970134 0.12648654 -0.35678 0.040570542 -0.19204482 -0.0842266 0.13315898 -0.103199296 0.101813234 -0.11627621 0.07767028 0.04247904 0.1196446 -0.1551567 -0.14650169 -0.19341381 -0.18002456 -0.07334832 -0.29105416 0.18270355 0.048560884 -0.052316617 -0.019571677 -0.15987587 0.31526333 -0.060036816 0.059190933 0.08014904 -0.35119504 -0.055254813 0.062062938 0.24657099 -0.15323491 -0.011887808 -0.18371601 0.028084263 0.13785806 -0.29549924 0.15648928 -0.15481862 -0.22563417 0.106281355 0.028390875 -0.019704886 -0.0900179 -0.056140788 0.33243778 0.15256858 -0.10913568 0.28112903 0.28010756
13 0.33230028 -0.19705409 -0.05143621 -0.017166376 0.24802336 -0.23157516 0.14424421 -0.09132613 0.18745507 -0.22340895 -0.022751428 -0.3142965 0.23516731 -0.047904126 0.11692571 -0.34671652 0.029428503 -0.18891428 -0.09074218 0.13192827 -0.09547069 0.107517295 -0.12699363 0.07805979 0.044231407 0.1230837 -0.16061446 -0.15113938 -0.1895288 -0.17290229 -0.075846 -0.27466962 0.1953041 0.04695212 -0.061833497 -0.018503247 -0.15785226 0.31163466 -0.059951577 0.06645462 0.06576705 -0.35537246 -0.061168026 0.05770341 0.23662896 -0.15164281 -0.013086898 -0.20002903 0.02682229 0.13581292 -0.30378133 0.16324046 -0.14492555 -0.22237998 0.105708376 0.016314365 -0.010571782 -0.088919744 -0.07185979 0.32980767 0.1658501 -0.106820345 0.28247097 0.28752285
5 0.34046453 -0.1914012 -0.053206593 -0.020060645 0.24758166 -0.231118 0.14863725 -0.08199489 0.1932132 -0.21157798 -0.010480754 -0.31942078 0.24433964 -0.036230925 0.12152674 -0.3531403 0.03715979 -0.19107871 -0.08248554 0.13239051 -0.11295204 0.10186653 -0.1100994 0.076120615 0.033557855 0.1129816 -0.16311826 -0.14520255 -0.19175716 -0.16927019 -0.06785897 -0.29138097 0.20097111 0.05221821 -0.05899784 -0.023609785 -0.16899088 0.31120822 -0.05667477 0.06313372 0.06935084 -0.3481928 -0.059091587 0.06807778 0.24737789 -0.13950637 -0.01747203 -0.18903662 0.023195602 0.13679662 -0.30730036 0.15064989 -0.15708147 -0.22665744 0.093904644 0.025117584 -0.014677137 -0.07835242 -0.07832648 0.33517087 0.16256617 -0.113424264 0.2764036 0.27956608
23 0.3407994 -0.1940367 -0.05812728 -0.019649537 0.24419765 -0.22702606 0.13702074 -0.08611495 0.19976541 -0.20869634 -0.02635135 -0.30494133 0.24677797 -0.031832546 0.12951112 -0.34743875 0.031338286 -0.20253545 -0.090619914 0.14779443 -0.10610201 0.09920806 -0.11487363 0.06963784 0.040894553 0.112823896 -0.16107376 -0.14052908 -0.19586132 -0.18593176 -0.080376126 -0.28648725 0.19655128 0.05690236 -0.046794713 -0.029630508 -0.15914325 0.3167798 -0.054470662 0.05999099 0.06932495 -0.36104718 -0.0488701 0.06152192 0.23724356 -0.14630494 -0.0072682453 -0.18958466 0.014648388 0.13444011 -0.29859203 0.15007223 -0.1535014 -0.22483572 0.10561392 0.020756261 -0.014861601 -0.086966366 -0.06659224 0.32644308 0.15991694 -0.112426385 0.28826338 0.28424588
77 0.35100928 -0.19581757 -0.063394874 -0.021539144 0.24109533 -0.23931378 0.1445134 -0.076608025 0.19223945 -0.22137031 -0.025154449 -0.309428 0.23245329 -0.038228538 0.119878694 -0.35328972 0.03830588 -0.1940474 -0.09455916 0.1404221 -0.10558696 0.09679269 -0.12519678 0.07606742 0.03615905 0.119902395 -0.15058145 -0.14870735 -0.18222882 -0.17754187 -0.07386573 -0.28642944 0.18823646 0.046217963 -0.056952037 -0.024949908 -0.16577293 0.30250826 -0.05935218 0.058179732 0.061330084 -0.3414563 -0.06046096 0.067426495 0.23681746 -0.14520298 -0.009345049 -0.19448857 0.016669704 0.14674026 -0.29226655 0.147208 -0.14998046 -0.21542549 0.10402258 0.017862923 -0.005959093 -0.090364106 -0.063238874 0.3181831 0.15186724 -0.105399825 0.2795709 0.28742212
36 0.34012017 -0.18966365 -0.04979759 -0.03202802 0.23781435 -0.22666617 0.15131178 -0.08139124 0.19130065 -0.22729972 -0.009100571 -0.3067605 0.2449573 -0.050571248 0.1259189 -0.35456395 0.02869546 -0.18955661 -0.09406827 0.14743559 -0.108977035 0.093020216 -0.11418388 0.076089434 0.030494468 0.11555187 -0.15492617 -0.14686732 -0.19861783 -0.17725864 -0.07735258 -0.28821608 0.19742617 0.060387418 -0.058492053 -0.0117562 -0.16428919 0.30285186 -0.05862363 0.06326112 0.074299395 -0.34871298 -0.051955543 0.06536485 0.24259475 -0.15020724 -0.0063711745 -0.18766905 0.030451918 0.13252775 -0.28676093 0.15125677 -0.1546897 -0.21288696 0.10963305 0.03278363 -0.013273611 -0.074189566 -0.06373385 0.32449338 0.15387797 -0.10305068 0.27898034 0.2817088
88 0.34968808 -0.20478377 -0.053119943 -0.021325562 0.2343932 -0.23390552 0.1404852 -0.08552679 0.18321691 -0.22531421 -0.014183764 -0.3183914 0.23335174 -0.048585705 0.12843327 -0.35206616 0.033831287 -0.19452669 -0.08799567 0.13185121 -0.09784907 0.101092234 -0.11981103 0.07968651 0.043724537 0.109670684 -0.1536929 -0.1480068 -0.19680448 -0.17587355 -0.073312014 -0.2823234 0.19122992 0.05725486 -0.04968828 -0.02773398 -0.16970214 0.31778273 -0.05002693 0.06076202 0.06769216 -0.35842055 -0.049869474 0.06343817 0.24048048 -0.14662161 -0.008470028 -0.19849382 0.021411903 0.14212011 -0.2966757 0.15060611 -0.1561889 -0.21287595 0.100035004 0.025670772 -0.005816681 -0.08623263 -0.053553592 0.3306443 0.15569638 -0.10166654 0.2841211 0.27957636
0 0.3458989 -0.20300274 -0.060796216 -0.02677127 0.24192522 -0.23844934 0.14362995 -0.07414297 0.1943475 -0.2180762 -0.017118713 -0.29998392 0.2440214 -0.045373056 0.11678534 -0.35203603 0.032043774 -0.19658437 -0.0902169 0.13580284 -0.101859435 0.08889672 -0.12006725 0.07183793 0.031053182 0.105798505 -0.14513977 -0.1381669 -0.18362892 -0.17500308 -0.07578541 -0.28467193 0.19400078 0.058380187 -0.057194807 -0.01709776 -0.15654697 0.30634326 -0.053870194 0.050965402 0.078832954 -0.3399186 -0.060586385 0.058004066 0.2466289 -0.14174415 -0.0128537165 -0.18584178 0.022740535 0.14632466 -0.29564783 0.14742881 -0.15776148 -0.20744635 0.101437 0.03071104 -0.0130483 -0.080974944 -0.06693991 0.3213467 0.1560198 -0.1085956 0.2652546 0.2712733
