100 64
0 -0.13575846 -0.054225415 -0.013513708 -0.009945886 -0.22459243 0.03097938 0.35986125 0.013854713 0.09375985 -0.1533841 -0.20945832 0.2729328 0.13902298 0.03802999 -0.0037944757 0.21119817 0.22644213 0.09318998 -0.10576787 -0.10259794 -0.061169494 0.11563977 -0.43376344 -0.1392497 0.34635577 0.004223782 0.3075069 0.011059666 0.07581079 -0.13436766 0.04789655 -0.18710743 0.15054847 0.14897057 0.090555124 -0.025649037 -0.009263337 0.10941268 -0.15513873 -0.20326851 -0.22490178 0.11674975 0.09212366 0.2678997 -0.0776736 -0.013537393 0.07328272 0.070141755 -0.093416326 0.42092106 -0.30702406 0.25895604 0.028637063 -0.04811906 0.0034105033 -0.21909243 0.22589035 -0.085572936 -0.113319546 0.2367976 0.20978059 0.2150671 0.15717934 0.2520658
91 -0.12294842 -0.048685312 -0.009624093 -0.008699487 -0.2285248 0.018020645 0.35729313 0.022613939 0.09052475 -0.1518346 -0.21351837 0.27721924 0.14037322 0.022917049 -0.008289814 0.21393995 0.2374311 0.08421129 -0.10374851 -0.100875296 -0.053861752 0.121585526 -0.42756015 -0.14986493 0.3541271 0.009075675 0.3025351 0.009070879 0.07753498 -0.13118139 0.058276642 -0.18535604 0.14359488 0.15123945 0.07959327 -0.032699704 -0.0032053278 0.11313216 -0.16022632 -0.19563596 -0.23115124 0.117940865 0.110872164 0.26136655 -0.08510638 -0.016733978 0.07112434 0.07048859 -0.08859585 0.41155744 -0.30471784 0.25434685 0.021839568 -0.0514611 0.0030856412 -0.2048247 0.21882422 -0.08472824 -0.11944403 0.24573678 0.21123005 0.21222618 0.15129489 0.24812074
23 -0.123718984 -0.043356873 0.0029981285 -0.009179951 -0.22587648 0.016882058 0.36375403 0.01076087 0.08143951 -0.15127249 -0.21046022 0.26615986 0.13712804 0.029882342 -0.0039879507 0.21210746 0.22338793 0.087853946 -0.09336019 -0.102524966 -0.056488745 0.1068298 -0.42734963 -0.14041026 0.34329143 0.008770436 0.31103146 0.013453916 0.065120764 -0.14100446 0.06385706 -0.18567802 0.14925095 0.1582129 0.09160249 -0.026233947 -0.014621552 0.10429465 -0.15283094 -0.19155635 -0.21657634 0.117291816 0.10609622 0.2502353 -0.07390163 -0.010177775 0.06819272 0.07590233 -0.09794773 0.4218291 -0.29933068 0.2521739 0.019876666 -0.048968296 -0.00010559164 -0.21371455 0.22496827 -0.07531019 -0.115603216 0.24040051 0.20629212 0.20739718 0.15372746 0.24836192
28 -0.13025416 -0.05560638 -0.0152197 -0.0005946863 -0.22214195 0.026457062 0.35180107 0.015578033 0.07801164 -0.1505537 -0.21136844 0.27249688 0.13492364 0.026725631 -0.012107558 0.22036605 0.22776292 0.08117476 -0.09480903 -0.1166019 -0.04991662 0.10723056 -0.42849335 -0.13697533 0.35043713 0.003926835 0.31383932 0.0136719495 0.06668178 -0.13531128 0.059617337 -0.19086382 0.1384339 0.14219359 0.084804185 -0.031123107 -0.0032498476 0.117509305 -0.17434224 -0.20903467 -0.23486902 0.12084061 0.11269421 0.26404658 -0.08314231 -0.017999165 0.06801707 0.062086597 -0.091411136 0.42423788 -0.30707395 0.25639105 0.033587944 -0.045521874 -0.0014171947 -0.21719094 0.22158583 -0.07952593 -0.11968104 0.24477229 0.21398787 0.20704928 0.16537488 0.2561817
11 -0.12775952 -0.055848747 -0.012954658 -0.010887384 -0.23124354 0.021566167 0.35265556 0.01829596 0.07853738 -0.15219441 -0.2073082 0.28006282 0.14035122 0.036105983 -0.0019880454 0.21508262 0.23256373 0.08968402 -0.09942224 -0.10980817 -0.05958869 0.11899876 -0.4212392 -0.15102568 0.35950014 0.00301386 0.31624264 0.003387116 0.07447504 -0.13023596 0.051242813 -0.20006512 0.1429754 0.15393503 0.09194198 -0.037746176 -0.0030053668 0.114890225 -0.1585976 -0.19890764 -0.22442427 0.12451044 0.10742811 0.25187972 -0.08539768 -0.013585072 0.072202235 0.06756046 -0.092456475 0.41283792 -0.29818562 0.2520943 0.035216477 -0.052868165 0.00045098696 -0.20510958 0.22309671 -0.08779734 -0.11557198 0.23830795 0.21162523 0.20093518 0.15869996 0.24471933
6 -0.12021128 -0.041496884 -0.0134110525 -0.007039579 -0.22673254 0.027195178 0.35654306 0.003756389 0.08369123 -0.15425059 -0.21084248 0.2729313 0.13221847 0.03324822 -0.009883208 0.22332138 0.2326067 0.087293625 -0.10415577 -0.100855246 -0.052151397 0.11559243 -0.42685592 -0.15068041 0.34565336 -0.00031850598 0.30788007 -0.0024595729 0.07184307 -0.14698072 0.062752396 -0.19490445 0.14623028 0.16164193 0.08051038 -0.03490134 -0.008254531 0.10460805 -0.1682994 -0.19878311 -0.22513765 0.1278486 0.10590793 0.25875497 -0.0873761 -0.0060623153 0.06796625 0.0728237 -0.09392183 0.41479415 -0.29993796 0.2408516 0.037802942 -0.053615555 -0.0016189812 -0.2045244 0.21453072 -0.09021389 -0.11586908 0.23686099 0.21051748 0.21631092 0.15563597 0.25497553
19 -0.12984799 -0.03824762 -0.009599758 -0.0092979325 -0.22062895 0.03003904 0.35976782 0.0096713975 0.08751419 -0.1594172 -0.20800506 0.274198 0.14167142 0.034194864 -0.0077688727 0.21944177 0.2242969 0.08551055 -0.08940639 -0.11082486 -0.05346289 0.11942621 -0.43193957 -0.14700136 0.3586733 0.0017579533 0.31694186 0.006073888 0.07709624 -0.13762073 0.05527914 -0.19507791 0.14917795 0.1634368 0.07658623 -0.039322503 -0.0014749827 0.10131404 -0.16265427 -0.19851641 -0.22534299 0.12524943 0.102263786 0.2633865 -0.07732092 -0.008021147 0.071692444 0.07325163 -0.08661865 0.41899502 -0.3024988 0.2534741 0.033990018 -0.049225897 0.005180273 -0.20877509 0.22957064 -0.086182095 -0.11253273 0.2310099 0.21216372 0.20569451 0.15579455 0.2547037
86 -0.12938514 -0.04821045 -0.002471043 -0.014258672 -0.21930678 0.022448871 0.35768715 0.006497953 0.08634174 -0.147531 -0.21494809 0.27767864 0.1404288 0.028317293 0.004360664 0.21902072 0.23075671 0.10105283 -0.0991127 -0.10699912 -0.061414 0.11807886 -0.4249574 -0.14336133 0.34928194 -0.002336055 0.30638105 -0.0002894607 0.07061662 -0.1410919 0.04673006 -0.19897293 0.14850579 0.15562086 0.07815997 -0.036134504 -0.014168994 0.112206884 -0.15640688 -0.20752978 -0.21679427 0.12899971 0.10286174 0.25881842 -0.0771581 -0.013665721 0.08095415 0.055786397 -0.091246255 0.4210258 -0.29815534 0.25377923 0.025689015 -0.06110478 0.0035840073 -0.20964172 0.22591712 -0.08368405 -0.12606335 0.23967522 0.20679577 0.20543347 0.14600326 0.2442903
51 -0.13124721 -0.05134206 -0.009390455 -0.00063516136 -0.23027578 0.021971492 0.36437228 0.015714027 0.09091563 -0.15948369 -0.20894127 0.27889782 0.13501611 0.031242898 -0.0034334383 0.217229 0.23537874 0.08007694 -0.10777563 -0.10109127 -0.060134802 0.12083076 -0.42109984 -0.14088571 0.35097125 0.012692806 0.30224046 0.0058993893 0.073769264 -0.14230953 0.06630043 -0.1896254 0.13760461 0.14514625 0.08489316 -0.029608484 -0.0060114665 0.11650985 -0.16489887 -0.19640912 -0.22879878 0.12199735 0.10323775 0.2629535 -0.08258836 -0.006595997 0.07210641 0.06279318 -0.09256371 0.41799915 -0.30706427 0.24806724 0.037193153 -0.054841068 -0.00797883 -0.21144408 0.2124971 -0.08577689 -0.114083156 0.2355308 0.21213906 0.20221104 0.15653099 0.2446909
68 -0.12328651 -0.048607334 -0.011165858 -0.0010137138 -0.21664952 0.017579533 0.35239324 0.01750949 0.084901325 -0.15286392 -0.20118769 0.26584038 0.13502559 0.028126722 -0.008824752 0.21660943 0.22768159 0.0933895 -0.10481756 -0.1067957 -0.058196165 0.11074045 -0.42279175 -0.14253756 0.36317807 0.011162732 0.30443108 0.00035987629 0.06794213 -0.14357744 0.04934678 -0.19407122 0.14274582 0.14561355 0.095313795 -0.028031964 -0.011796797 0.119210616 -0.16684543 -0.20819668 -0.22686179 0.13201465 0.10343883 0.25133726 -0.07825769 -0.024412502 0.07386287 0.076860465 -0.08852884 0.4290305 -0.3053578 0.24979877 0.024095455 -0.058716677 0.0034270855 -0.21475902 0.22267488 -0.086585656 -0.115407445 0.25130865 0.21183278 0.213233 0.15602522 0.24648255
55 -0.13463487 -0.04810279 -0.010174755 -0.0046568136 -0.22922374 0.027898386 0.36129993 0.018774046 0.09288958 -0.16021799 -0.21250987 0.28084698 0.1309551 0.025764676 -0.0036587298 0.21410841 0.2257174 0.09285395 -0.09320137 -0.10349401 -0.057384823 0.11919281 -0.42362446 -0.14730263 0.3525416 0.0018217206 0.29705766 -0.0005933811 0.06957991 -0.13212524 0.047721993 -0.18414593 0.14500082 0.1548421 0.07891869 -0.03409572 -0.0035877542 0.11475133 -0.16090208 -0.20371689 -0.22535102 0.12806772 0.10964623 0.2580247 -0.07913056 -0.00933486 0.06890386 0.07256359 -0.096830525 0.40570623 -0.2999396 0.2520207 0.020968664 -0.058073528 -0.0059001865 -0.21306923 0.21047579 -0.079109445 -0.11318993 0.23208447 0.21448337 0.21115686 0.15611513 0.24413912
73 -0.1191495 -0.04079988 -0.011614151 -0.0073898453 -0.22058338 0.030234057 0.35441306 0.011572935 0.07733785 -0.14332536 -0.2054851 0.27038425 0.13871236 0.028161444 0.0006946417 0.21912888 0.23188442 0.08447453 -0.09556323 -0.10925473 -0.050198898 0.11112902 -0.43496555 -0.14607716 0.3574314 0.0019291121 0.30181512 0.005450847 0.06765836 -0.14194886 0.06254704 -0.19228952 0.14899215 0.15205781 0.079509325 -0.033300426 -0.0014540618 0.104014024 -0.16905846 -0.19798079 -0.2207955 0.12961024 0.10046205 0.26436278 -0.074759796 -0.011452651 0.07136658 0.07715341 -0.095069505 0.41432813 -0.299634 0.25511065 0.02088963 -0.05041102 0.002007425 -0.21739618 0.22822985 -0.08189471 -0.110183716 0.23752114 0.20903178 0.20614393 0.15845042 0.2578354
18 -0.13693099 -0.052954193 -0.0020874564 -0.0055686976 -0.21009606 0.02879044 0.35857695 0.014923168 0.0847362 -0.15140441 -0.20412458 0.27255654 0.13435385 0.025160493 0.0033232225 0.22638579 0.22331773 0.08545082 -0.1073199 -0.11283687 -0.05560131 0.11225127 -0.41838783 -0.15516622 0.3554551 0.012501065 0.31366405 -0.00028235375 0.07076912 -0.13471176 0.047009 -0.18821396 0.14810207 0.16379993 0.078537054 -0.032179285 0.00075203856 0.12001219 -0.1643297 -0.20981109 -0.22748317 0.11756439 0.09557538 0.26256 -0.082753696 -0.0066782255 0.07344963 0.06178403 -0.089931086 0.417776 -0.30514547 0.25330758 0.024538305 -0.043872748 -0.0048235264 -0.21428066 0.21770889 -0.08507137 -0.11724027 0.23140311 0.20430626 0.20138328 0.15753987 0.24240963
12 -0.12784478 -0.04589642 -0.015805073 -0.006408786 -0.22478415 0.025372827 0.36161494 0.008759765 0.08206995 -0.1574363 -0.20405032 0.27902985 0.1413142 0.027710808 -0.0020166575 0.21550879 0.22790171 0.09104319 -0.10242578 -0.103665434 -0.048991088 0.11599435 -0.43275663 -0.14310868 0.36173743 0.011573522 0.30972514 -0.0024027445 0.07034325 -0.14443135 0.059105903 -0.19239663 0.14245325 0.14723915 0.09137013 -0.039661143 -0.006283258 0.1114136 -0.16217265 -0.19450697 -0.22175013 0.12787625 0.112094045 0.25704783 -0.0748146 -0.008258595 0.07853565 0.06741041 -0.09757791 0.4193062 -0.30784634 0.24305287 0.02581431 -0.060434412 -0.009546083 -0.21219139 0.2190372 -0.0904939 -0.11544763 0.2394002 0.21772242 0.2114283 0.14915691 0.2539722
40 -0.12557189 -0.04703108 -0.002541807 -0.0017581483 -0.21755208 0.02374646 0.36035112 0.019417655 0.09292145 -0.16143142 -0.20202582 0.26916513 0.13475314 0.037946858 -0.009709572 0.22051029 0.2328757 0.09052886 -0.10177501 -0.10731987 -0.047713038 0.11409756 -0.43139657 -0.13959639 0.35184905 0.008865438 0.3113771 0.013496364 0.06882356 -0.13053682 0.04965525 -0.19659244 0.14158688 0.14725874 0.08784022 -0.030904975 -0.013240911 0.107575245 -0.16408895 -0.19329245 -0.22242112 0.11616296 0.097996555 0.25732514 -0.087016225 -0.019552091 0.06794786 0.06816565 -0.08661134 0.42444 -0.29677728 0.2427293 0.02704964 -0.054274414 -0.0013010026 -0.21354455 0.21865107 -0.087946095 -0.116073824 0.23266293 0.20666604 0.20989905 0.15942687 0.24389096
52 -0.139413 -0.056390584 -0.010655395 -0.008404458 -0.22613586 0.02563856 0.34918222 0.01750831 0.08847499 -0.16178954 -0.20567475 0.27284163 0.13705727 0.034035947 -0.004242873 0.21790257 0.22918947 0.092698224 -0.10362218 -0.10816178 -0.060892187 0.11392452 -0.41757083 -0.15387063 0.34799752 0.0076995646 0.3081705 0.013218024 0.07028306 -0.14721468 0.05235448 -0.20111364 0.14606364 0.15571934 0.094352104 -0.036256935 -0.0059694736 0.1121457 -0.15794416 -0.20760329 -0.22548689 0.12665981 0.102788284 0.25103235 -0.0728314 -0.018219238 0.07804489 0.067510396 -0.088983245 0.4202961 -0.3043662 0.24741133 0.03383405 -0.05465103 -0.005688162 -0.20817801 0.22224388 -0.08482866 -0.11831461 0.23977315 0.20494527 0.21330516 0.1615449 0.2558604
42 -0.124174565 -0.044545673 -0.0024890509 -0.013738639 -0.21075909 0.019192185 0.34386098 0.0129673835 0.07891254 -0.14777869 -0.20881674 0.26691356 0.13673565 0.029577725 -0.0010921701 0.22700441 0.2258606 0.087956384 -0.106662914 -0.11026258 -0.05579888 0.112336986 -0.43005013 -0.149631 0.3591574 0.007474645 0.31662586 0.011763822 0.0761196 -0.14291833 0.059310857 -0.19917066 0.1507944 0.1554543 0.08058898 -0.028563572 -0.008740205 0.11810752 -0.16868593 -0.19968946 -0.22814904 0.12848899 0.10604717 0.25573877 -0.07653247 -0.023697078 0.078020945 0.07595582 -0.09913656 0.42107964 -0.30794457 0.2552792 0.028362503 -0.05730357 0.0059715537 -0.2202964 0.2197179 -0.08746011 -0.11506415 0.24890685 0.20571981 0.20221442 0.16514629 0.24457017
64 -0.13382751 -0.04363225 -0.0040350426 -0.014821156 -0.22433215 0.015621215 0.35855985 0.013160265 0.07975066 -0.1492324 -0.21028662 0.27889377 0.13504867 0.02220736 -0.00878627 0.20866473 0.23259585 0.08852808 -0.09729083 -0.11151626 -0.06446889 0.118548386 -0.42254293 -0.15237354 0.36241606 0.0081914095 0.31198487 0.0012314231 0.06836278 -0.13903439 0.05730818 -0.19710702 0.14220935 0.14769828 0.0934118 -0.039723296 -0.009729943 0.112128966 -0.16882053 -0.20726755 -0.2257453 0.13050227 0.11211275 0.25325304 -0.08882819 -0.022067217 0.06953871 0.06768257 -0.0985352 0.41110107 -0.29288182 0.254008 0.029878465 -0.061232414 -0.00803062 -0.21929638 0.22374356 -0.08297367 -0.11299466 0.24318 0.20676813 0.20141026 0.14976345 0.24438965
88 -0.12792934 -0.045388423 -0.013480783 -0.006501777 -0.21824281 0.017729416 0.34296852 0.019446457 0.0856924 -0.1508053 -0.21015762 0.27921197 0.1428064 0.032058116 -0.010347425 0.21511272 0.22242957 0.09576992 -0.108034365 -0.10130732 -0.05580753 0.111513495 -0.41661367 -0.14861238 0.35105112 -0.0017652257 0.31559744 0.0009904723 0.06889978 -0.13590157 0.05936041 -0.1863322 0.13500017 0.15206197 0.084373176 -0.02566097 -0.0057451418 0.112341456 -0.15788367 -0.19579959 -0.2221259 0.11922428 0.09646437 0.25729838 -0.07849213 -0.007882015 0.07416177 0.067987 -0.08790683 0.4234255 -0.3036835 0.25277537 0.036111116 -0.051519006 0.0038438695 -0.21211673 0.22325067 -0.081834055 -0.11908603 0.23736377 0.19719891 0.20940319 0.15126696 0.24956356
94 -0.13025323 -0.039554574 0.00029988005 -0.006346689 -0.21271499 0.023740197 0.35739154 0.0103318505 0.07616069 -0.15936586 -0.20873697 0.2709784 0.13576432 0.035883456 0.00027407796 0.21789713 0.22849287 0.09559071 -0.096360646 -0.10345652 -0.05569766 0.112811506 -0.42131218 -0.15210712 0.35303253 0.014332682 0.305278 0.010334771 0.06939257 -0.13799264 0.061696857 -0.19413859 0.13646053 0.14876193 0.07956393 -0.02375141 -0.011789292 0.11753808 -0.15815157 -0.20097363 -0.22105892 0.13349405 0.094126076 0.26195267 -0.089934714 -0.015255616 0.06269325 0.06997854 -0.08385128 0.41265807 -0.30603066 0.25137082 0.019055914 -0.059586 0.0027172328 -0.21287566 0.22561161 -0.07519604 -0.11384107 0.24613939 0.20834576 0.21336906 0.1518915 0.25167245
5 -0.13402984 -0.043612067 -0.008064277 -0.0023751336 -0.21911657 0.020934656 0.34531698 0.008116706 0.0833281 -0.16175222 -0.20823261 0.27015573 0.13687266 0.022669872 0.00056928076 0.21186437 0.2369149 0.09735073 -0.1083977 -0.107855536 -0.050586473 0.12587202 -0.42090484 -0.14061898 0.3595055 0.014689209 0.31735063 0.0069094487 0.07402442 -0.13273855 0.060553063 -0.18798077 0.13773952 0.1441541 0.09508436 -0.03730374 -0.01262935 0.117082186 -0.171853 -0.20399877 -0.22143789 0.12467166 0.10529528 0.2611695 -0.08212089 -0.020541457 0.065909594 0.068496905 -0.08744003 0.4230921 -0.30552247 0.25041002 0.029898008 -0.05567696 -0.009422849 -0.21226433 0.22175978 -0.07987182 -0.114567585 0.24741483 0.2060777 0.19866802 0.14778504 0.24506325
49 -0.1271394 -0.040603198 -0.012490227 -0.0028322302 -0.2265412 0.03170101 0.36134735 0.014117 0.08018601 -0.15841156 -0.20813647 0.27810633 0.13222218 0.02818463 -0.008232571 0.22092247 0.22892268 0.09455124 -0.100140646 -0.11382844 -0.055296317 0.11370013 -0.42899215 -0.1404397 0.3596901 0.0062096394 0.3132691 -0.0017204925 0.06861993 -0.13920729 0.053734705 -0.19264561 0.15095249 0.16238652 0.084079966 -0.031383567 0.0014072332 0.11137945 -0.17401706 -0.19573326 -0.23079039 0.12645856 0.11103207 0.25729918 -0.08562215 -0.007305902 0.06669053 0.06718953 -0.09602824 0.41328827 -0.2926436 0.24314821 0.038459305 -0.04503029 -0.0094927605 -0.20434609 0.2233267 -0.08022461 -0.11755849 0.24414697 0.20650946 0.21189423 0.1546363 0.24589838
61 -0.12830597 -0.054662883 -0.002439244 -0.010717861 -0.21977817 0.024013694 0.34935755 0.018052395 0.08375507 -0.16417986 -0.21227905 0.27618426 0.1297736 0.027301159 0.0018875864 0.22823821 0.23194177 0.089623906 -0.10635498 -0.10473172 -0.061746884 0.12213588 -0.43148956 -0.14045995 0.3473663 0.011777755 0.3087025 0.006087192 0.0799525 -0.13325016 0.06263294 -0.18765883 0.13511597 0.16101718 0.09246916 -0.03989879 -0.0097186 0.108575165 -0.1592126 -0.19306679 -0.22700217 0.11934421 0.11105634 0.25412273 -0.08575909 -0.023275005 0.077866055 0.07103363 -0.09477163 0.42261183 -0.30502042 0.2466566 0.019818325 -0.05886772 -0.007939091 -0.21131603 0.22105011 -0.08519199 -0.11436665 0.23373002 0.21437281 0.20150149 0.16280414 0.24709207
99 -0.1283404 -0.05438076 -0.002145479 -0.0001076203 -0.22549334 0.029860368 0.34787086 0.016906083 0.07925903 -0.16388777 -0.21384984 0.27438617 0.13319658 0.032374203 -0.010035752 0.23024459 0.23734246 0.08984736 -0.1036717 -0.10734718 -0.055495586 0.11790763 -0.4272553 -0.1487511 0.35565156 0.006023386 0.31196615 0.012251559 0.076349996 -0.14324453 0.04950634 -0.19025593 0.14368787 0.16044322 0.09155926 -0.026216567 -0.0050300835 0.11148703 -0.16468136 -0.20275648 -0.22000404 0.11884791 0.096037045 0.24867646 -0.07190615 -0.017467273 0.079249024 0.07387239 -0.0936995 0.41928703 -0.29378933 0.2445627 0.030883906 -0.053044416 0.0034977214 -0.215807 0.2223066 -0.089639 -0.11704454 0.23698314 0.20960928 0.20533791 0.16390422 0.2546611
36 -0.13291876 -0.048051327 -0.0044157184 -0.0165059 -0.2226294 0.021838848 0.36725911 0.006329998 0.08430271 -0.16049583 -0.2105147 0.26894492 0.1336086 0.03156097 -0.0027533288 0.21254478 0.22882712 0.08351919 -0.10021071 -0.107753456 -0.05472356 0.11663375 -0.41869467 -0.14594215 0.3400625 0.010411502 0.30946726 0.0066729914 0.0697717 -0.136818 0.049007658 -0.1812306 0.14682071 0.14683782 0.07881892 -0.027306262 -0.0035093476 0.109496094 -0.16995855 -0.20142919 -0.22374882 0.12931179 0.09364394 0.25797313 -0.072944246 -0.009057276 0.0680581 0.06423267 -0.094448425 0.42081696 -0.3010527 0.252831 0.021686878 -0.053840242 0.004140087 -0.20818487 0.2231875 -0.0878118 -0.1154566 0.24322939 0.20690295 0.21156946 0.1616013 0.2517763
79 -0.14479077 -0.046942834 -0.008282984 -0.010162237 -0.2267077 0.025571339 0.3670799 0.011923073 0.08422685 -0.17058922 -0.21636663 0.27434304 0.13898093 0.02741785 0.003436218 0.21017212 0.23229581 0.07894624 -0.100929864 -0.117104515 -0.056433674 0.120618865 -0.4294759 -0.1547033 0.35622737 0.0029475966 0.3039556 0.0125458725 0.063575 -0.1425192 0.053511184 -0.19120927 0.13618934 0.15034765 0.08681071 -0.03081349 -0.005034531 0.11611546 -0.17112386 -0.20916085 -0.22970156 0.12509114 0.095375836 0.25917864 -0.07861785 -0.0066316864 0.06583714 0.06907013 -0.08854632 0.41976172 -0.301179 0.25396845 0.02627018 -0.048034515 -0.009320422 -0.21385616 0.21352164 -0.08282633 -0.111326866 0.22977048 0.2125833 0.20435284 0.15922262 0.24129231
70 -0.12431275 -0.04158751 -4.966305e-05 -0.010665845 -0.22155674 0.028409755 0.36380744 0.015759366 0.085566975 -0.1590698 -0.20562501 0.2786417 0.14118148 0.035547033 -0.0045249877 0.21663289 0.22985578 0.09602928 -0.10396015 -0.097053654 -0.056685008 0.112670094 -0.4200875 -0.14920007 0.3561417 0.014045307 0.31364927 0.0121564865 0.071165636 -0.14409094 0.056094024 -0.18756843 0.1448871 0.15060501 0.08483072 -0.035180386 -0.0046697827 0.10341873 -0.15906733 -0.20436902 -0.21777686 0.11915133 0.10105035 0.25134057 -0.07382709 -0.024327269 0.07058806 0.0727927 -0.08985065 0.41486594 -0.29992262 0.25687042 0.02536227 -0.06194732 0.007202224 -0.21118914 0.22220458 -0.08099263 -0.10363477 0.2458049 0.20411478 0.20619637 0.15634534 0.25139517
37 -0.1243167 -0.04304732 -0.0025724832 -0.015616051 -0.22241032 0.027627427 0.3445165 0.010343593 0.081645094 -0.15901096 -0.20197774 0.2762318 0.1335452 0.0328023 -0.0045572687 0.21278313 0.23886105 0.09058518 -0.10409743 -0.10810363 -0.043335795 0.11193472 -0.42649814 -0.15032056 0.3506638 0.0147870695 0.30483565 0.012288349 0.078896075 -0.13458177 0.06284272 -0.19349954 0.13476877 0.14910552 0.08063237 -0.034287527 -0.0022442571 0.113186054 -0.15821677 -0.20442158 -0.22481897 0.12359637 0.1016591 0.26496184 -0.07613085 -0.016955065 0.07232068 0.06883044 -0.08874916 0.42247126 -0.30348098 0.24508253 0.023507193 -0.054781754 -0.0068282234 -0.20879012 0.2268821 -0.085260905 -0.1166066 0.24402031 0.21532454 0.20400573 0.16153051 0.24613363
33 -0.13772431 -0.055519827 -0.003998694 -0.0051292675 -0.23474859 0.018759515 0.36154348 0.012957891 0.08389759 -0.16372205 -0.21789685 0.27777576 0.13871017 0.028526181 0.0033605685 0.2280115 0.23042575 0.09277563 -0.099579856 -0.09829116 -0.05315957 0.11465721 -0.42432126 -0.15283625 0.35711884 0.009493681 0.31703383 0.001549686 0.079456925 -0.14366959 0.055420935 -0.1857847 0.14797206 0.15619239 0.09245986 -0.035730906 -0.013244457 0.11137255 -0.16727756 -0.2072011 -0.23101409 0.12917395 0.111907415 0.25023615 -0.07954993 -0.019774176 0.07001909 0.062078826 -0.098394655 0.4196312 -0.29906473 0.25646308 0.03532227 -0.055732492 -0.006447509 -0.21440494 0.22247235 -0.09300618 -0.12456606 0.24722078 0.21058063 0.2020114 0.15489802 0.24298853
69 -0.12892312 -0.04414759 -0.009160618 -0.004389785 -0.22283873 0.034247927 0.36546534 0.008717649 0.087163575 -0.15639998 -0.21597438 0.27984068 0.12745002 0.031884454 -0.005839947 0.21673198 0.22436924 0.09311315 -0.09860537 -0.10165656 -0.05970974 0.105221346 -0.42596018 -0.13543919 0.34920827 0.0104296515 0.30919093 0.0010307499 0.07129436 -0.1333273 0.062456854 -0.20105664 0.1417842 0.14598854 0.08984269 -0.0253153 -0.009706924 0.110647075 -0.16810039 -0.20217533 -0.22338389 0.12357171 0.096626125 0.2624577 -0.080320865 -0.014091758 0.06760003 0.067499936 -0.0821677 0.42055857 -0.2990836 0.2524822 0.033349294 -0.05529839 -0.0029578041 -0.21631947 0.21023813 -0.087094635 -0.11945229 0.24084684 0.21339485 0.20384818 0.14778052 0.24335958
89 -0.12753668 -0.05583388 0.00085914845 -0.0022398154 -0.22554441 0.021619827 0.35659176 0.012462305 0.076309755 -0.15648264 -0.20646675 0.274078 0.13017985 0.03319561 0.004689282 0.22623326 0.23846106 0.09800534 -0.090649925 -0.112872936 -0.0621412 0.11900248 -0.43299296 -0.1532213 0.34644455 0.007657091 0.3149468 0.0027250624 0.07038186 -0.13344038 0.058066603 -0.19964723 0.13639066 0.15885675 0.08740359 -0.027912209 -0.014785837 0.09909209 -0.15098925 -0.19949035 -0.22965007 0.12859373 0.10594621 0.2610562 -0.07749275 -0.012457177 0.070645206 0.059126325 -0.09527318 0.42196757 -0.29152265 0.25761697 0.02807089 -0.054911118 0.00068253826 -0.21834381 0.22065488 -0.08073097 -0.11120447 0.24002096 0.20388782 0.2143222 0.15613905 0.25326782
1 -0.1360938 -0.053795047 -0.006280373 -0.0038912066 -0.23074566 0.031724922 0.35776395 0.020194607 0.081723 -0.15775202 -0.20243348 0.27679887 0.12867841 0.031497773 -0.008432969 0.22399227 0.23683718 0.086688146 -0.0930872 -0.10175076 -0.061028305 0.12350789 -0.43416864 -0.15237585 0.35504633 0.010388544 0.309242 -0.00011435261 0.07166372 -0.12957877 0.051489737 -0.2003827 0.14068404 0.15542576 0.08737356 -0.029840576 -0.0052749314 0.10417645 -0.1577162 -0.20259532 -0.22924684 0.120484434 0.10046517 0.25446844 -0.078975275 -0.005124555 0.06555273 0.065733574 -0.09204747 0.42923173 -0.30207866 0.24787608 0.021883015 -0.054185927 0.004897765 -0.21444654 0.21647269 -0.090299614 -0.11917526 0.24496824 0.21806294 0.20569879 0.15898758 0.24486451
15 -0.13599037 -0.043764822 -0.010813358 0.000871554 -0.22233868 0.01582066 0.35473222 0.010728951 0.07837707 -0.16342065 -0.20008908 0.27900374 0.13802816 0.03779087 0.004508256 0.22331427 0.234444 0.09173797 -0.10797663 -0.10641707 -0.05983459 0.11546306 -0.42182967 -0.14512572 0.35217014 0.015303468 0.30553183 0.0023866335 0.08021887 -0.14315268 0.06134988 -0.19887286 0.14620028 0.15472847 0.08754574 -0.025543261 -0.0022026028 0.11200228 -0.15836014 -0.19720122 -0.21852715 0.124275275 0.10900165 0.25866446 -0.08544854 -0.016525773 0.06484023 0.07426954 -0.09857566 0.4083632 -0.29358983 0.25281188 0.02615616 -0.05892113 -0.00935842 -0.21480395 0.22013055 -0.091462485 -0.10557384 0.24352251 0.21484667 0.20326425 0.14911631 0.25234762
57 -0.12707245 -0.049979385 -0.011866496 -0.0058992635 -0.21868831 0.013804831 0.3568375 0.012793297 0.08156952 -0.15773824 -0.21056652 0.285832 0.14455819 0.02964112 -0.0029847932 0.21569255 0.23938051 0.08968845 -0.09447136 -0.1114511 -0.058963414 0.12521145 -0.42574292 -0.14636467 0.35703817 0.016730795 0.31323832 -4.5630364e-05 0.06720067 -0.1387182 0.055335697 -0.19876662 0.13833137 0.1466956 0.09067289 -0.03821227 -0.01662434 0.10871581 -0.16135344 -0.20189008 -0.22893561 0.12750629 0.11093268 0.25532192 -0.07879374 -0.018158402 0.06758439 0.059433468 -0.08639459 0.42159992 -0.30165035 0.25822556 0.029603967 -0.05261794 -0.00043909176 -0.21678078 0.2218152 -0.08066945 -0.11723894 0.2443532 0.21568382 0.21111995 0.15779108 0.24246682
84 -0.13392764 -0.047116913 -0.011700867 0.0021697695 -0.22344325 0.016242051 0.35491595 0.0040371898 0.083742134 -0.1647073 -0.20006798 0.2727068 0.13626927 0.030502642 0.00207991 0.2193902 0.22535834 0.08286976 -0.10305283 -0.10790153 -0.054643404 0.11416566 -0.42939866 -0.15022746 0.3523545 0.008216068 0.30888802 0.008420483 0.076742746 -0.1479244 0.055175576 -0.19085027 0.15471907 0.162908 0.081165284 -0.039626725 -0.0017726603 0.11254661 -0.15347219 -0.20016235 -0.22176684 0.11551014 0.10676345 0.2505236 -0.07724357 -0.006279509 0.07711002 0.06594087 -0.097529866 0.42786196 -0.30363253 0.24822378 0.023148553 -0.051156346 -0.0060318825 -0.2160078 0.21623786 -0.08471723 -0.11807113 0.23358633 0.20222409 0.21433978 0.15592398 0.25321034
50 -0.13461545 -0.041702572 -0.005570998 -0.012215507 -0.2267065 0.028650625 0.35441077 0.01791353 0.08649325 -0.15125011 -0.20251428 0.2687877 0.13886075 0.03713613 -0.0019812235 0.21914595 0.22849917 0.08835511 -0.10607295 -0.10682746 -0.057806067 0.11675477 -0.4244071 -0.14050451 0.34885228 0.011796632 0.31461543 0.017304262 0.07257974 -0.14696582 0.059056852 -0.18856281 0.14747353 0.15121634 0.08658492 -0.025631472 -0.012499823 0.11153181 -0.16808346 -0.20752999 -0.22846584 0.11952659 0.11028842 0.2515921 -0.08138195 -0.021015933 0.07395835 0.07314228 -0.09520978 0.42008406 -0.29826757 0.25124902 0.03541301 -0.055393722 0.0030672024 -0.2032026 0.22500716 -0.081226766 -0.11669604 0.24069265 0.20808978 0.2163558 0.16537777 0.24639736
8 -0.13578416 -0.041908614 -0.008596755 -0.014317161 -0.21481633 0.020514816 0.3716877 0.012257539 0.08669999 -0.15197127 -0.20261106 0.26381177 0.14497426 0.036537066 0.0027173308 0.2129187 0.22871688 0.08266376 -0.10392862 -0.10694179 -0.045208026 0.113376245 -0.42768773 -0.1520694 0.3539204 0.0018423535 0.3141904 0.00046391564 0.07632039 -0.1290482 0.061438095 -0.18596932 0.14577527 0.15959816 0.080903776 -0.030409548 -0.011853964 0.11025608 -0.16126929 -0.20649555 -0.22229615 0.11460895 0.09859335 0.26305482 -0.08657273 -0.010623272 0.075046584 0.0736548 -0.0976502 0.42007998 -0.28965476 0.24168468 0.020409526 -0.05024616 0.0018080666 -0.20791578 0.2183895 -0.08521865 -0.11413995 0.24131003 0.21208063 0.20474751 0.15737551 0.24817042
72 -0.1387511 -0.050728448 -0.0049007945 -0.008699802 -0.21945345 0.025167326 0.3500747 0.018815314 0.077133246 -0.1499912 -0.19940957 0.27182677 0.12947674 0.030132474 -0.0037256558 0.20918554 0.22980852 0.0909728 -0.105115764 -0.11059865 -0.061287306 0.111914515 -0.42675135 -0.1484828 0.3593154 0.008172797 0.31304422 0.0065524452 0.06408294 -0.13479342 0.057393674 -0.19054034 0.14531912 0.15521462 0.090079434 -0.029368235 -0.014319443 0.10906361 -0.16679916 -0.20071796 -0.22941281 0.1288097 0.103576116 0.2578342 -0.07744993 -0.0070658387 0.07710714 0.059130233 -0.09562326 0.42097163 -0.30025044 0.24576564 0.035304446 -0.043389283 -0.010149504 -0.20703393 0.22361083 -0.08606965 -0.107576005 0.24212997 0.20998393 0.21419089 0.15035701 0.24326889
26 -0.13249697 -0.05414191 -0.014223192 -0.0050493516 -0.21260515 0.029874492 0.3524792 0.0065245386 0.08043077 -0.16241889 -0.21225724 0.27166018 0.13228367 0.025783457 -0.0035897787 0.21628967 0.23184697 0.0873673 -0.09990477 -0.111108035 -0.0513637 0.113778256 -0.42082664 -0.14647934 0.35588232 0.008865669 0.31429207 0.0070950883 0.074357785 -0.13780904 0.060955446 -0.19990213 0.13864854 0.15040901 0.0921244 -0.026355451 -0.0107756425 0.10639394 -0.15505496 -0.19830939 -0.22260581 0.1210863 0.1035612 0.2527689 -0.08040941 -0.012932882 0.06682047 0.06307375 -0.084569626 0.42810008 -0.30589378 0.2529305 0.021844352 -0.05236993 -0.0069318186 -0.20629326 0.21491878 -0.0819247 -0.11339807 0.2350475 0.20289043 0.19703323 0.15537657 0.24855945
21 -0.13145271 -0.049924154 -0.0032492036 -0.01788962 -0.21726882 0.031233774 0.35378903 0.014642058 0.07854856 -0.15624428 -0.2140091 0.27196234 0.13322887 0.03425219 0.00612553 0.21765736 0.2301856 0.09629071 -0.09354235 -0.09963895 -0.047723185 0.114428185 -0.42539597 -0.14566524 0.35509625 0.012607937 0.3024608 -0.0011414596 0.07359479 -0.13679253 0.059204347 -0.20218273 0.13721378 0.14714867 0.07861632 -0.042048153 -0.011572954 0.1197435 -0.157625 -0.19579007 -0.22327568 0.1212554 0.11255182 0.25935632 -0.08060571 -0.022800948 0.07619885 0.0715934 -0.08858233 0.41584057 -0.30736488 0.24689783 0.020185888 -0.059471983 0.0010692552 -0.21467876 0.21906172 -0.08957862 -0.11925654 0.2375359 0.21755257 0.19723822 0.15236057 0.24775337
81 -0.11782037 -0.041526258 -0.008628793 -0.011980763 -0.22378995 0.01224588 0.3491095 0.017437773 0.084979706 -0.15371569 -0.20818146 0.27364662 0.14014961 0.030451009 -0.007949869 0.21569923 0.23059201 0.09141984 -0.0932162 -0.10141967 -0.05351024 0.10855808 -0.41627404 -0.14247622 0.3579647 0.015204298 0.31008935 0.009780187 0.066646755 -0.14644536 0.059193715 -0.19592936 0.14016026 0.15672044 0.083029605 -0.024524413 -0.0028043229 0.11490266 -0.16826603 -0.19938612 -0.23319854 0.11540933 0.108939305 0.2614274 -0.081849635 -0.012042859 0.07547932 0.064067036 -0.09777147 0.42482015 -0.29649907 0.25240275 0.033129677 -0.052110996 -0.0030006084 -0.20296772 0.2304875 -0.08311821 -0.11180871 0.23834755 0.21099412 0.21268103 0.15749592 0.24509953
13 -0.13048375 -0.05484269 -0.0028227333 -0.004695404 -0.22296341 0.030259626 0.36188063 0.012437679 0.086970665 -0.15727118 -0.20810258 0.27920952 0.1382733 0.030106943 -0.0017667204 0.22303149 0.23588076 0.09369358 -0.093538254 -0.11389752 -0.05427392 0.115724504 -0.4242687 -0.1494479 0.35635352 0.0016874122 0.3147698 0.008879931 0.0776018 -0.1358993 0.054847233 -0.19629659 0.15244913 0.15859199 0.08625103 -0.02977883 -0.005228128 0.10345459 -0.15302733 -0.2021126 -0.21870187 0.11663813 0.099146955 0.25605094 -0.072549015 -0.022928955 0.07253196 0.06360789 -0.093373105 0.41954905 -0.29669884 0.25589898 0.028351262 -0.050993755 -0.0014653252 -0.20719795 0.22473389 -0.089607276 -0.11526948 0.23917672 0.21596594 0.20217553 0.1477332 0.25202388
87 -0.12982564 -0.05388597 -0.010328096 -0.0023166386 -0.2229554 0.027788222 0.34131068 0.016831726 0.072894685 -0.15817708 -0.20309058 0.27416843 0.13433419 0.025600478 -0.0052396175 0.21984884 0.23169188 0.090000495 -0.10009727 -0.10931103 -0.05690295 0.124725305 -0.428496 -0.13842049 0.3504335 0.006366271 0.31074116 0.009166299 0.0706514 -0.14347158 0.047469057 -0.20200662 0.1437854 0.1514457 0.08759525 -0.03889828 -0.0069265487 0.10925793 -0.16917248 -0.20469357 -0.22462864 0.12905355 0.10464918 0.26086518 -0.08356719 -0.013369992 0.075803675 0.06381749 -0.089818776 0.4237394 -0.30525097 0.2476281 0.029398523 -0.04659886 0.0016897455 -0.21153225 0.21963724 -0.08015182 -0.110183805 0.24528801 0.2013638 0.21181114 0.16267172 0.2550416
29 -0.13221473 -0.049262498 -0.012274199 -0.007903884 -0.22399788 0.018392375 0.34630823 0.013257826 0.08097685 -0.15930481 -0.21124661 0.27897945 0.13113077 0.0395389 0.00294098 0.21750312 0.22628424 0.09778669 -0.097005635 -0.10725683 -0.059322357 0.11795187 -0.42610082 -0.14454411 0.36436445 0.004220109 0.31857312 0.0054754335 0.08134549 -0.14488718 0.06335645 -0.20420197 0.14856277 0.1542323 0.082211904 -0.037867762 -0.0056359153 0.12359321 -0.16718693 -0.19707073 -0.23380588 0.1316382 0.11168077 0.2583163 -0.086146556 -0.023350416 0.07801401 0.066263735 -0.0972747 0.42382988 -0.2934333 0.24600546 0.025101287 -0.05602473 0.00052511983 -0.21744694 0.22727935 -0.079247326 -0.1104131 0.2494919 0.2168837 0.20118654 0.15855046 0.24456456
24 -0.12355651 -0.0537625 -0.005073714 -0.0144890295 -0.22733077 0.027279625 0.35595465 0.018498495 0.0888083 -0.14818268 -0.19944733 0.27542216 0.13626415 0.035459362 0.0010310257 0.22653483 0.22564775 0.098948345 -0.09572217 -0.10418828 -0.054741047 0.109673046 -0.42960405 -0.13973142 0.3450398 0.014157824 0.31042507 0.005283032 0.066217326 -0.13522413 0.04842872 -0.18546237 0.14529032 0.15939707 0.093186766 -0.034334943 -0.006421355 0.10889991 -0.15662137 -0.20441435 -0.23073249 0.12893869 0.105259135 0.24504104 -0.0860581 -0.02137962 0.06945687 0.061433766 -0.0981468 0.41471517 -0.29358837 0.25276467 0.02684705 -0.053376187 -0.0012563271 -0.21142422 0.21912304 -0.08615608 -0.12252101 0.23525941 0.20928483 0.20729735 0.14948192 0.25755823
98 -0.12610029 -0.044679094 -0.0028045624 -0.012491458 -0.22015062 0.026595527 0.3553481 0.016695995 0.07364498 -0.15759481 -0.2006281 0.27616167 0.1398839 0.033290792 0.0014592434 0.21438187 0.23229964 0.08055113 -0.10460127 -0.104681246 -0.04770112 0.111768454 -0.42928845 -0.14479928 0.34346882 0.007274282 0.29965305 0.013068189 0.07489284 -0.14923029 0.059186004 -0.18827218 0.14195977 0.14801903 0.081695646 -0.027175425 -0.009799232 0.104878016 -0.15840538 -0.20715168 -0.22204523 0.12295614 0.105584204 0.2559618 -0.07730549 -0.020086776 0.06857439 0.07298736 -0.09870794 0.42141864 -0.30405733 0.25567102 0.028222166 -0.051152702 0.0043169875 -0.21120383 0.21485287 -0.09248608 -0.109929994 0.24515332 0.20753366 0.2180559 0.15466519 0.25711975
74 -0.12596282 -0.049657088 -0.0060450584 -0.014104722 -0.22579032 0.017455673 0.34806958 0.017280266 0.083339274 -0.16072424 -0.20984723 0.28344408 0.13852362 0.031093655 0.0040629664 0.21386765 0.22481926 0.08753134 -0.09422893 -0.1113239 -0.05503682 0.123444766 -0.42609867 -0.13714199 0.3577236 4.034762e-06 0.3092018 0.004818059 0.06726098 -0.13349065 0.052855533 -0.1896976 0.14774038 0.1502982 0.09225595 -0.03343791 -0.004836631 0.11589912 -0.1591054 -0.20520672 -0.22542638 0.12582615 0.108695656 0.25697282 -0.072578385 -0.008951439 0.07797076 0.06527731 -0.08868826 0.42495713 -0.29499206 0.25140202 0.028407143 -0.055914536 -0.007392409 -0.21188875 0.21576063 -0.081287965 -0.116210505 0.24000512 0.21360856 0.2045191 0.15398665 0.24396984
53 -0.13246664 -0.05305412 -0.008538322 0.0016187677 -0.22168183 0.019637993 0.34491864 0.012389308 0.076594755 -0.15989473 -0.20103022 0.26679417 0.13424204 0.034941405 -0.011068866 0.21695012 0.23280662 0.10104714 -0.09556616 -0.10474892 -0.04810176 0.11418228 -0.41884193 -0.1391222 0.3635424 0.012543651 0.31422377 0.013157528 0.06925184 -0.13432758 0.05379016 -0.19504933 0.13914153 0.16176099 0.08437556 -0.037899546 -0.011514525 0.11598548 -0.17056322 -0.20002967 -0.22499485 0.131257 0.102819555 0.2489004 -0.08051638 -0.024582239 0.07056547 0.06514017 -0.0976878 0.42633662 -0.3065231 0.25843176 0.030758705 -0.057639435 -0.0003274751 -0.21215074 0.23083545 -0.08332467 -0.11061218 0.24792801 0.21252881 0.19670103 0.15925026 0.24154793
31 -0.12676166 -0.05160086 -0.009543024 -0.0019254475 -0.22584546 0.019334003 0.34995332 0.016457383 0.08257625 -0.14800031 -0.20221807 0.26688966 0.13275066 0.025711711 0.0050846282 0.22003092 0.23652895 0.09965658 -0.10334872 -0.11236513 -0.061887234 0.112363756 -0.41923612 -0.15251267 0.3584874 0.0038005903 0.30738685 0.0069862846 0.06497216 -0.14375688 0.04882812 -0.19698639 0.14491796 0.15256327 0.09537356 -0.031154424 -0.00022830894 0.121052615 -0.16113688 -0.20386072 -0.22631548 0.12707767 0.10807221 0.257569 -0.082645826 -0.019239362 0.06939195 0.06746099 -0.096748844 0.41598168 -0.29835492 0.2445188 0.021474201 -0.055392962 0.00226527 -0.21854056 0.21270007 -0.08549691 -0.10904248 0.24239826 0.21211527 0.20083833 0.15466347 0.2514433
90 -0.124594234 -0.05748226 -0.0023900433 -0.0071314764 -0.22056091 0.028172221 0.35834822 0.011063917 0.07817715 -0.16132176 -0.21175358 0.2748384 0.13925402 0.035957877 -0.004205272 0.22430408 0.23876573 0.08440026 -0.09227205 -0.11298175 -0.047973234 0.10985691 -0.43525028 -0.14258045 0.34377772 0.0019263108 0.30353913 0.0050876797 0.06459936 -0.14127381 0.060226146 -0.18929815 0.14067753 0.14601271 0.082173035 -0.03839072 -0.0035601398 0.10634961 -0.15885207 -0.19334349 -0.2310319 0.12509656 0.10202836 0.26031217 -0.07868718 -0.021451157 0.076520585 0.07162429 -0.089455076 0.4187624 -0.29925904 0.24492845 0.019882819 -0.05490036 0.0061455783 -0.20482542 0.22127146 -0.086102515 -0.10776628 0.24382265 0.20845656 0.21453255 0.16316237 0.25802013
48 -0.12534492 -0.04240089 -0.014118607 -0.0088213505 -0.21842238 0.02106344 0.35563147 0.018052775 0.08752118 -0.1480535 -0.20819004 0.2764607 0.13559212 0.031777736 0.0011441789 0.22472295 0.23516963 0.09900463 -0.100958996 -0.101615965 -0.04794421 0.123373106 -0.43388784 -0.15073715 0.3635697 0.013543918 0.31123337 0.01096318 0.08000966 -0.1396088 0.05344776 -0.19427904 0.14026904 0.15457182 0.08934889 -0.03274463 -0.008435836 0.11400344 -0.16729939 -0.19433776 -0.2187095 0.12152249 0.1021599 0.2644292 -0.0749904 -0.025365667 0.068202406 0.07268763 -0.08832861 0.41951403 -0.29788315 0.24109043 0.024878705 -0.05875671 -0.012729615 -0.20544428 0.21879129 -0.087464534 -0.11303319 0.2426199 0.2061627 0.20657986 0.15006487 0.25360203
44 -0.123864785 -0.051494043 -0.008840679 -0.013247695 -0.22639987 0.014646974 0.34381628 0.015589174 0.07573259 -0.1550826 -0.20660684 0.2662814 0.13857836 0.035780434 -0.0031591598 0.21611558 0.223482 0.08284771 -0.094160356 -0.11478407 -0.044174872 0.11305727 -0.42892373 -0.13959329 0.35671416 0.00026592516 0.31028464 0.0009029186 0.06679433 -0.14215907 0.05134738 -0.18603653 0.1524794 0.16312635 0.08581822 -0.032246713 -0.012730193 0.11567621 -0.1671355 -0.19770163 -0.22891846 0.13034034 0.11338706 0.25267962 -0.076071486 -0.012567591 0.07789592 0.06482009 -0.09015088 0.4263109 -0.30293095 0.24729349 0.019280655 -0.0602031 -0.0062713134 -0.2057906 0.21974887 -0.08438458 -0.11447659 0.24958917 0.21504065 0.21298191 0.1546691 0.24632172
34 -0.13378784 -0.05343547 -0.0058462922 -0.009707084 -0.2278096 0.026424976 0.34744406 0.00871878 0.0879381 -0.15739426 -0.21230133 0.27776054 0.1398386 0.0339219 0.007236881 0.22242965 0.22325875 0.08670433 -0.104767755 -0.11151617 -0.056211866 0.120217845 -0.42652017 -0.14236705 0.354343 0.006454723 0.31515455 0.0062895594 0.07745046 -0.1357626 0.053810235 -0.191768 0.13942146 0.16252412 0.08611027 -0.028730456 -0.0009960518 0.110482015 -0.16739659 -0.2078259 -0.2242206 0.12897874 0.107942685 0.25774872 -0.086343855 -0.008763671 0.069306776 0.068833284 -0.10454013 0.42386273 -0.29080984 0.24329841 0.030169647 -0.051154308 -0.004200809 -0.21721597 0.22642663 -0.08811284 -0.107301794 0.2405403 0.2051713 0.20958956 0.1510328 0.2527425
20 -0.13997681 -0.055417538 -0.003922233 -0.013611286 -0.22876889 0.021602815 0.3484632 0.008106115 0.08022631 -0.15158328 -0.2128468 0.2805878 0.12977988 0.03762004 -0.006687164 0.21264637 0.2240027 0.0887933 -0.09726703 -0.11100046 -0.055985074 0.11906435 -0.42676938 -0.13668615 0.34376 0.00013080219 0.31158125 -0.00344054 0.075679764 -0.13148701 0.060259398 -0.19996184 0.14556973 0.15926607 0.083884835 -0.03919493 -0.010735171 0.11602561 -0.16683999 -0.20454888 -0.22554572 0.12979238 0.10724671 0.24959756 -0.08288571 -0.01825893 0.073790915 0.06158273 -0.092239805 0.41210115 -0.2935246 0.24672106 0.031220408 -0.053028993 0.0026409798 -0.21159162 0.22003533 -0.08064717 -0.11127121 0.24238153 0.20677982 0.20735358 0.1572682 0.2544548
85 -0.120689526 -0.047895808 -0.00992224 -0.0063288617 -0.21418028 0.025289027 0.34345534 0.0042289053 0.08660981 -0.15335187 -0.21060121 0.27455103 0.13807161 0.028183362 -0.010442941 0.21896219 0.22050866 0.09702906 -0.089577444 -0.11501535 -0.05474802 0.11027405 -0.4149136 -0.14327703 0.35710636 -0.00042536523 0.31546262 0.0024469339 0.07610134 -0.14691111 0.059728786 -0.18880571 0.14842767 0.15748493 0.0866696 -0.040432077 -0.0063339164 0.116311185 -0.16046132 -0.20121258 -0.21923779 0.12178176 0.10113089 0.25139794 -0.084159404 -0.021254696 0.06416409 0.0656984 -0.08434174 0.42046687 -0.30519095 0.2533451 0.026721044 -0.04708858 -0.006107263 -0.20790519 0.22478145 -0.077029675 -0.115973674 0.24196942 0.2019769 0.20513865 0.15259178 0.24654561
25 -0.12945803 -0.052861333 -0.012913882 -0.010968279 -0.21569794 0.018995658 0.3531701 0.019943044 0.08183073 -0.15695274 -0.20941275 0.2693008 0.12639874 0.031988323 -0.0011704734 0.21332297 0.23209228 0.085466675 -0.10380288 -0.10393543 -0.05301167 0.12241388 -0.4235592 -0.14928575 0.34270507 0.013816478 0.3027378 0.009022979 0.07349097 -0.14247122 0.05822537 -0.19531564 0.14344034 0.14222027 0.08519466 -0.036392126 -0.0060245083 0.105529666 -0.16754302 -0.19106661 -0.22765183 0.1261736 0.10152989 0.26546443 -0.08166242 -0.009450008 0.07369852 0.06543779 -0.09101635 0.41070238 -0.2971304 0.24274631 0.025316698 -0.053410947 -0.0011594133 -0.2090858 0.21327344 -0.07771555 -0.120572105 0.24198136 0.20718117 0.2041957 0.15560539 0.24553862
59 -0.13115281 -0.0446604 -0.0008643549 -0.0062620835 -0.21350513 0.027535893 0.35119158 0.016444415 0.08139068 -0.14737673 -0.20108476 0.26981753 0.13994014 0.029532453 0.0056057572 0.21740767 0.22567025 0.09782981 -0.090028845 -0.11364043 -0.056315735 0.12029451 -0.42944717 -0.13651815 0.34806713 0.0063478765 0.307814 -0.00047548054 0.076238565 -0.1430208 0.05699835 -0.18588112 0.13902915 0.14990138 0.0911377 -0.03676037 -0.009622414 0.10918217 -0.16858186 -0.20193185 -0.22012581 0.115462944 0.11045468 0.2646892 -0.0841886 -0.009934073 0.071942806 0.06569036 -0.084680915 0.4286396 -0.29352027 0.25420436 0.03374512 -0.0483447 0.0028366665 -0.21191826 0.23019688 -0.08417985 -0.11606068 0.24138924 0.20473279 0.20015706 0.16000637 0.24641751
46 -0.13361877 -0.04606808 -0.006260146 -0.01685901 -0.22560476 0.01481822 0.35236412 0.02152763 0.07992079 -0.16650566 -0.20697786 0.28125462 0.13396451 0.033513848 -0.00820923 0.2181773 0.23108275 0.0981374 -0.10516763 -0.10059053 -0.05340626 0.11892199 -0.4226325 -0.13760905 0.34721604 0.013612457 0.30569014 0.015288397 0.07514673 -0.14348312 0.048841383 -0.19506139 0.14510547 0.15983382 0.08794574 -0.02894071 -0.011811258 0.10820172 -0.17232104 -0.2021613 -0.2325497 0.12331979 0.09528087 0.26526654 -0.076879434 -0.022478363 0.06655049 0.07350779 -0.086986825 0.42376098 -0.2948124 0.2554899 0.034227066 -0.05496113 0.00088270986 -0.20344827 0.23116861 -0.08690241 -0.11595628 0.2390548 0.2039788 0.20169131 0.15597302 0.254172
10 -0.12743549 -0.053943783 -0.0026512882 -0.009611509 -0.22352292 0.030182648 0.35435143 0.010983498 0.09106713 -0.1494478 -0.20112206 0.2697402 0.13446708 0.03766065 0.0010746917 0.21941692 0.23108965 0.09473368 -0.101384215 -0.10654674 -0.0493678 0.11039696 -0.42866522 -0.13776627 0.3586163 0.0024284646 0.30794346 0.009926839 0.079104975 -0.13539548 0.04990493 -0.19735157 0.1446243 0.15777358 0.08256169 -0.035964355 -0.008134299 0.113205805 -0.15743318 -0.1961731 -0.22077844 0.11890551 0.111114755 0.25754794 -0.07925483 -0.009553652 0.07154848 0.07300361 -0.09283403 0.4125552 -0.2905292 0.25911093 0.016715392 -0.06006609 -0.00370572 -0.20498218 0.22480229 -0.08139197 -0.11528422 0.24567129 0.21211219 0.2043466 0.15668799 0.24840307
7 -0.12899876 -0.051962186 -0.010552753 -0.011508532 -0.23401928 0.01666645 0.35910097 0.0070390133 0.08052879 -0.16300032 -0.21269172 0.27323195 0.14088407 0.029182646 -0.0003139963 0.22539863 0.2367242 0.08572478 -0.095805556 -0.1152714 -0.049793553 0.11664753 -0.41627333 -0.14292689 0.34929958 0.00582883 0.3063952 0.01630464 0.07300183 -0.14547336 0.051064245 -0.18588997 0.14386052 0.16128844 0.08293036 -0.025335645 -0.0015368422 0.10707916 -0.17061237 -0.19647124 -0.23101811 0.12414449 0.1071768 0.2497969 -0.076733105 -0.01442845 0.06639622 0.07187698 -0.09573385 0.41921842 -0.29951948 0.2451092 0.020068739 -0.058286432 -0.005235763 -0.20706409 0.23134276 -0.08485352 -0.11650034 0.23324585 0.21060348 0.20819773 0.15773447 0.24638161
95 -0.13147111 -0.048169546 -0.014554057 -0.008459217 -0.21533637 0.0205682 0.35119256 0.020204615 0.084994435 -0.16288713 -0.20356105 0.27664232 0.13449605 0.042014048 -0.006387758 0.2221 0.22399372 0.09351023 -0.103364326 -0.11372811 -0.050389733 0.12482843 -0.4204053 -0.13920759 0.3527793 0.0073449616 0.30550787 0.010175866 0.06641024 -0.14712203 0.056067135 -0.19681714 0.1531763 0.1556457 0.07988551 -0.029457005 -0.0007496417 0.1160348 -0.15785767 -0.19080226 -0.21885258 0.12690139 0.10621845 0.25352862 -0.074316956 -0.012091158 0.06932275 0.06235907 -0.097521 0.4277165 -0.30757838 0.24300897 0.025715787 -0.05505007 -0.00045934063 -0.20169747 0.22300094 -0.085110225 -0.1195091 0.24741365 0.2146549 0.20415339 0.14586681 0.25233722
71 -0.13065958 -0.046574764 -0.0043995394 -0.0035581237 -0.22479245 0.028926387 0.3610191 0.010981388 0.08145517 -0.15684699 -0.21653493 0.2728662 0.13438371 0.029059468 0.001848417 0.22622496 0.22882393 0.09977818 -0.10593302 -0.110588446 -0.062430937 0.117413804 -0.4319423 -0.14586054 0.35943595 0.0021299608 0.30715838 0.0072845793 0.0802964 -0.14304355 0.049963064 -0.1981098 0.1365156 0.15853958 0.087270506 -0.041808624 0.0011231948 0.111192666 -0.1543091 -0.19884662 -0.2264615 0.11834114 0.098255634 0.25827545 -0.084338784 -0.016481547 0.07387822 0.07574882 -0.09831983 0.4130727 -0.29396328 0.2549043 0.03269237 -0.048989806 0.0032962847 -0.21140929 0.22231895 -0.07829132 -0.11771674 0.23765273 0.20916387 0.20546885 0.16297576 0.25285074
97 -0.13691753 -0.045490693 -0.012392855 -0.0018793793 -0.22640401 0.019905679 0.34645796 0.004293092 0.07753247 -0.14778581 -0.20216906 0.2797815 0.12835243 0.037919365 -0.0030936762 0.22515327 0.22542328 0.09455112 -0.09911428 -0.10618707 -0.051488433 0.112023555 -0.4264448 -0.15188172 0.35675788 0.0098705795 0.31039712 0.011854644 0.0699675 -0.13632011 0.055478144 -0.19268972 0.14258316 0.14966314 0.08535889 -0.037557468 -0.0021597287 0.11469398 -0.16521297 -0.20602459 -0.22225147 0.1309412 0.111056685 0.2585927 -0.08329553 -0.016788939 0.07283783 0.0653004 -0.09172082 0.42213178 -0.29848644 0.25490075 0.018584363 -0.05708491 0.0054732165 -0.21043703 0.21405005 -0.0895194 -0.11341291 0.23608279 0.21627001 0.213227 0.1637719 0.24060814
75 -0.12849401 -0.05086887 -0.013081254 -0.007223793 -0.2248355 0.023636272 0.3486018 0.0115487315 0.087828696 -0.16342585 -0.209555 0.2755256 0.13259326 0.04030762 -0.008308995 0.21601564 0.22948328 0.08664027 -0.09909 -0.11098085 -0.058676355 0.12634033 -0.42327744 -0.1421095 0.3546371 0.0048001087 0.31253475 -1.8491475e-05 0.07015067 -0.14026129 0.056858145 -0.1926869 0.14309919 0.16146412 0.08058272 -0.027080594 -0.006034653 0.10563805 -0.16333206 -0.20099334 -0.21939018 0.12126486 0.10698667 0.25671822 -0.084595546 -0.014236425 0.072953045 0.063104376 -0.09702051 0.42352572 -0.29569012 0.25403085 0.035973936 -0.045870103 -0.011594208 -0.20635268 0.22376709 -0.088659674 -0.110190034 0.24505624 0.19958384 0.20967507 0.14547004 0.24061564
32 -0.1261871 -0.05325823 -0.0059354543 -0.01596123 -0.21566524 0.016154403 0.36601207 0.019972233 0.08192774 -0.15967508 -0.20691958 0.27093872 0.13429981 0.026483607 -0.00178606 0.21998775 0.22846362 0.08656987 -0.0923056 -0.109558865 -0.057985734 0.11017481 -0.4343085 -0.15192796 0.36160636 0.017374385 0.3059815 0.014386076 0.071564235 -0.13857868 0.060452867 -0.1967635 0.14467254 0.14885715 0.08553454 -0.033905126 -0.0073062624 0.10430818 -0.15568814 -0.19662504 -0.2224419 0.121307984 0.09753267 0.2568116 -0.08068948 -0.02127479 0.079562664 0.06481381 -0.082963735 0.41472816 -0.30228198 0.25412473 0.024865532 -0.05472833 -0.011101713 -0.20691751 0.22475834 -0.08467873 -0.12067771 0.23488256 0.21222158 0.19665015 0.16117182 0.24523278
16 -0.13299753 -0.05268093 -0.0031985745 -0.010049724 -0.22567469 0.028363524 0.3538768 0.011677146 0.08166764 -0.14526905 -0.19586813 0.27556223 0.1282548 0.038666442 -0.0035757888 0.21742937 0.23238751 0.09062909 -0.093660906 -0.09849056 -0.05166156 0.119532384 -0.42636082 -0.14509468 0.35312155 0.0077200187 0.3089969 0.0034518414 0.07944272 -0.14436834 0.056339946 -0.19863299 0.13374412 0.15042228 0.08856147 -0.028898118 -0.01065583 0.10886054 -0.15501894 -0.20305116 -0.22697031 0.12647022 0.09980097 0.25328186 -0.08576096 -0.010207728 0.082587846 0.06627928 -0.09726335 0.42288098 -0.29086414 0.24724644 0.03436907 -0.05507132 0.0013505477 -0.2109766 0.21765524 -0.082758226 -0.111205146 0.2441691 0.20985065 0.20654091 0.14813866 0.25317472
56 -0.13088351 -0.054522343 -0.0031106558 0.0012408384 -0.21058193 0.01723087 0.3550909 0.013049423 0.08819497 -0.15630384 -0.20256017 0.26123086 0.13723665 0.04058124 0.00094465696 0.22756846 0.2301097 0.099351235 -0.10533843 -0.11068114 -0.05105703 0.10948676 -0.42786992 -0.14897558 0.34483436 0.018088993 0.3085178 0.013241255 0.07687625 -0.13661933 0.059667688 -0.20113868 0.14602163 0.159191 0.08223378 -0.030787278 -0.009104707 0.11073154 -0.15563291 -0.19641164 -0.22716253 0.12504809 0.097785324 0.25749984 -0.08630214 -0.018213201 0.06931805 0.07474316 -0.08690234 0.42527473 -0.29526448 0.24939758 0.018931884 -0.051711254 -0.005795905 -0.21605617 0.22430345 -0.0823593 -0.12526563 0.23791006 0.21101366 0.20033096 0.15593673 0.253296
58 -0.1380977 -0.054751817 -0.0037295457 -0.0023876962 -0.23055622 0.01991674 0.36428604 0.008058089 0.092310965 -0.16407518 -0.20813544 0.28056964 0.13551459 0.032198526 0.0015889077 0.21867797 0.22180937 0.08901195 -0.09254464 -0.112153426 -0.051806696 0.11094532 -0.423092 -0.14467204 0.35323292 0.001416046 0.30575988 0.004340798 0.06602658 -0.13315229 0.048890397 -0.1915477 0.15311627 0.15806904 0.08433086 -0.024989886 0.0021863244 0.11232327 -0.16094117 -0.19771953 -0.23154174 0.12123301 0.10812512 0.24831106 -0.08220971 -0.00712349 0.069026716 0.062196556 -0.08637031 0.41455027 -0.30441844 0.23930052 0.026222877 -0.061034106 0.0054197693 -0.21200429 0.20724945 -0.09049244 -0.1205627 0.24403094 0.2089588 0.2109016 0.1625201 0.25473544
14 -0.12578243 -0.046910834 -0.012313115 -0.0054527563 -0.21404111 0.020933192 0.3519683 0.0054184627 0.08198187 -0.15553533 -0.21472442 0.27354866 0.12865292 0.029702593 0.0046629407 0.21494056 0.22894798 0.08799828 -0.10036218 -0.108015575 -0.053393867 0.121488616 -0.43995774 -0.15145506 0.35493788 0.014735365 0.3067188 0.00795658 0.08043505 -0.14028648 0.057573654 -0.19353364 0.15067805 0.16239528 0.08134223 -0.033180535 -0.015077727 0.107665084 -0.16722983 -0.20696785 -0.22584715 0.12596959 0.10968887 0.2611873 -0.07427019 -0.014305325 0.066397995 0.0692567 -0.08432972 0.43011385 -0.3023189 0.2530918 0.020405166 -0.05201665 -0.0052783317 -0.21860614 0.22815132 -0.093575604 -0.11969229 0.25581926 0.2065919 0.20902984 0.14976718 0.25301173
82 -0.12378549 -0.05128161 -0.00517778 -0.0059719803 -0.21224137 0.020882031 0.34917757 0.0057277023 0.07769445 -0.16144052 -0.20046188 0.272841 0.13556097 0.03597663 -0.0025595168 0.22418846 0.22501236 0.08190473 -0.097804874 -0.11014828 -0.050472707 0.12373514 -0.4171462 -0.14034416 0.35381055 0.010576124 0.30775687 -0.003974692 0.06990895 -0.14060362 0.052381784 -0.18946591 0.1426362 0.15801555 0.08357322 -0.03819097 -0.009056942 0.10492334 -0.16697118 -0.19340654 -0.22028196 0.1299908 0.11084658 0.25653982 -0.07976998 -0.013231278 0.06777596 0.07086114 -0.08392433 0.42442557 -0.30651662 0.23895776 0.034678362 -0.049235184 0.0012428901 -0.21129407 0.21516111 -0.08808072 -0.11476276 0.23920743 0.19994122 0.21489802 0.15107861 0.25508752
65 -0.13890152 -0.060015913 -0.0047316286 -0.00077681895 -0.22951715 0.02163911 0.36014828 0.013890384 0.08970003 -0.1569866 -0.20271431 0.27503964 0.13569263 0.032348607 -0.0027414332 0.21533501 0.2361481 0.09029218 -0.09548332 -0.10022045 -0.060140934 0.1130809 -0.4293937 -0.14727958 0.35334507 0.0096036205 0.30963627 0.009136625 0.07869456 -0.1325438 0.054861806 -0.19244626 0.14464477 0.15170614 0.08306257 -0.037828114 -0.0118696345 0.11637926 -0.1629558 -0.1976949 -0.22240864 0.11986835 0.10831636 0.25659803 -0.0851601 -0.014792188 0.08036405 0.06904498 -0.09201358 0.4227886 -0.30562198 0.24945983 0.019402452 -0.051067952 -0.008005788 -0.22016817 0.22593556 -0.087270476 -0.1258767 0.23463766 0.20756897 0.20598218 0.15119554 0.2508227
92 -0.13346936 -0.05555233 -0.0052818023 -0.0021715441 -0.22417875 0.02697686 0.34489152 0.019589512 0.0822788 -0.16076787 -0.20837441 0.27488697 0.13026004 0.029009964 -0.011933323 0.21821952 0.22345918 0.08499736 -0.10119328 -0.10913597 -0.05662382 0.10927588 -0.4227663 -0.1420769 0.35061136 0.0065034335 0.2986768 0.007182623 0.0667249 -0.13295138 0.060511384 -0.19980478 0.13338012 0.14524508 0.08555126 -0.04015436 -0.0074622207 0.10705742 -0.16632703 -0.198946 -0.23141076 0.12527587 0.09696553 0.26256716 -0.08468888 -0.01853878 0.07571616 0.06422042 -0.08466445 0.41635162 -0.30431202 0.25344178 0.035563506 -0.053181097 -0.001346981 -0.21450256 0.22042026 -0.07768968 -0.12295153 0.24032705 0.21535762 0.2129491 0.1634658 0.25286153
66 -0.13255954 -0.04364699 -0.0025367797 -0.01094688 -0.22333232 0.026514964 0.35208118 0.0054550264 0.08151208 -0.1524355 -0.20880195 0.2771276 0.1337916 0.03202651 -0.0066129304 0.22304687 0.22812444 0.09461967 -0.10103919 -0.11339767 -0.05569669 0.12030522 -0.42463002 -0.14986365 0.35506853 0.004731817 0.30734456 0.007920541 0.07638927 -0.14701383 0.06029819 -0.19761369 0.14175586 0.15851772 0.088339604 -0.032739107 -0.007601402 0.116086416 -0.16540426 -0.2094878 -0.23008277 0.11897194 0.09601875 0.26298234 -0.08027095 -0.011094936 0.0724848 0.06248528 -0.084608555 0.42127028 -0.29755965 0.25233078 0.02405739 -0.044118963 -0.0051780357 -0.21905942 0.22340877 -0.087572485 -0.113889396 0.24099156 0.2095667 0.21302944 0.16249378 0.24213503
60 -0.13567746 -0.05403541 -0.013263869 0.000453814 -0.21246304 0.028778281 0.35473207 0.017608974 0.08185264 -0.15263426 -0.19991943 0.27075768 0.13653359 0.030401535 -0.010056065 0.21740156 0.22303395 0.08590988 -0.09356318 -0.10446328 -0.06270611 0.12541002 -0.4305622 -0.14251655 0.34940016 0.013837271 0.3064876 6.864191e-05 0.06325054 -0.13937086 0.049519673 -0.18890443 0.13632704 0.15497155 0.095158525 -0.038187973 -0.0076546804 0.11395979 -0.17145517 -0.2078441 -0.2323306 0.11901635 0.09897506 0.2523273 -0.077653006 -0.017882526 0.06787934 0.057963114 -0.088217594 0.4307965 -0.29583102 0.24550004 0.028901888 -0.045717776 -0.0005873293 -0.21615197 0.20873766 -0.07665611 -0.11058402 0.24169287 0.21157888 0.21614136 0.15862139 0.25634658
78 -0.12475835 -0.04754989 -0.007217687 -0.009999191 -0.22161864 0.027897427 0.35825795 0.01337291 0.08699799 -0.16042718 -0.2110514 0.27286884 0.13404614 0.029162208 -0.01016462 0.22005248 0.23121122 0.09114599 -0.098886296 -0.10430817 -0.052275464 0.116147965 -0.42315277 -0.13980709 0.34699556 0.0030204263 0.30446097 0.0064401245 0.07976812 -0.14342812 0.053854097 -0.18356343 0.14508179 0.15549348 0.086050466 -0.032046665 -0.0033729048 0.11227127 -0.1661368 -0.20897347 -0.22362155 0.12290146 0.103465974 0.25806165 -0.0845687 -0.010577079 0.06815039 0.072470166 -0.09315477 0.41430792 -0.30349153 0.24689965 0.03532857 -0.04315347 -0.010625899 -0.20839623 0.22346024 -0.08752263 -0.10763419 0.24736615 0.21207012 0.20887633 0.15730658 0.23970549
93 -0.13464713 -0.055607546 -0.008665372 -0.013915044 -0.21384542 0.023376757 0.36123845 0.009456732 0.07593542 -0.14916947 -0.20778173 0.2632791 0.12975554 0.026961593 -0.0028506794 0.21945293 0.22621414 0.10140855 -0.09852301 -0.103290744 -0.06528498 0.11232751 -0.43065277 -0.15273198 0.35564876 0.00076543394 0.3173477 -0.00068226625 0.06543194 -0.13676058 0.04468178 -0.19370463 0.13871497 0.15261292 0.091407776 -0.031625375 -0.007612234 0.116165 -0.16423984 -0.2014115 -0.22723965 0.11879736 0.10061881 0.26140842 -0.07708391 -0.021767462 0.07674515 0.07125753 -0.090860866 0.4120092 -0.28936186 0.2455082 0.019074138 -0.04610253 -0.0007209615 -0.2148412 0.21370119 -0.085789636 -0.11088821 0.2337311 0.21504384 0.1990064 0.15341127 0.25483945
39 -0.13488933 -0.04024232 -0.010148269 -0.0126324985 -0.21730934 0.02816319 0.35568485 0.006823704 0.078078106 -0.1614413 -0.20340651 0.26611868 0.1380661 0.030886082 -0.0038409424 0.22393392 0.22890517 0.095533416 -0.10844877 -0.09750115 -0.052615333 0.1199262 -0.43001118 -0.14588335 0.35827845 0.015744524 0.30668417 -0.00045500544 0.08155097 -0.14898394 0.06316106 -0.19488913 0.13780992 0.15128738 0.08998757 -0.029349264 0.0028863826 0.10620367 -0.16208336 -0.19373173 -0.2191178 0.12775308 0.10184892 0.25558853 -0.07900241 -0.009242034 0.07025429 0.073678255 -0.085485704 0.42548135 -0.308154 0.24463622 0.0321392 -0.04530326 -0.011560726 -0.22345929 0.21309152 -0.08893863 -0.108190164 0.24745232 0.20310149 0.20772001 0.15547885 0.25259772
4 -0.13063763 -0.0557625 -0.0073373592 -0.0019444808 -0.22055478 0.031419016 0.36209038 0.013111399 0.08459617 -0.14982468 -0.2062248 0.27186066 0.13909677 0.025536632 -0.008727842 0.21904516 0.224487 0.0905005 -0.0967861 -0.104834326 -0.05058226 0.10945638 -0.41879603 -0.1401205 0.3547416 0.0061449814 0.31075937 0.008958913 0.07681528 -0.14060296 0.062247973 -0.19814116 0.1487909 0.15659094 0.082893685 -0.03785114 -0.005868265 0.11925562 -0.15940872 -0.19100922 -0.22361284 0.1290993 0.096186265 0.25062624 -0.080606215 -0.017232142 0.07236498 0.071672894 -0.083581366 0.4213647 -0.3042449 0.2527591 0.036345243 -0.045246754 -0.0064712185 -0.20568533 0.21922451 -0.08562767 -0.115910046 0.23644285 0.21113163 0.19710211 0.16329826 0.24111038
54 -0.12064909 -0.044134773 -0.0003998791 -0.0070455433 -0.22897537 0.021352457 0.352903 0.016173465 0.0776479 -0.15239692 -0.2098147 0.28065452 0.12644036 0.028652772 0.00045268118 0.21779154 0.23143679 0.09107038 -0.10120246 -0.105817184 -0.054425277 0.11558992 -0.42310858 -0.1416922 0.34403765 0.009119723 0.29673856 0.011350706 0.07972534 -0.14348817 0.0578888 -0.19790316 0.14085963 0.15522699 0.08555122 -0.034033436 -0.0116366455 0.107493706 -0.16485846 -0.20213623 -0.21891396 0.12297333 0.109460086 0.25591546 -0.080317065 -0.020998381 0.07322582 0.061953053 -0.086440675 0.42566058 -0.3006573 0.2586785 0.024382195 -0.06310524 -0.005865757 -0.21523988 0.22960924 -0.09010476 -0.114403345 0.2493903 0.21000075 0.20842372 0.1494532 0.24886896
30 -0.12673663 -0.05248132 -0.011703852 -0.0006517043 -0.23023143 0.01962485 0.35349125 0.014118759 0.08387442 -0.16036141 -0.20275182 0.26624238 0.13182591 0.02654226 -0.0049957596 0.22355151 0.23812729 0.09176998 -0.09067863 -0.10711774 -0.0608362 0.12173883 -0.43149155 -0.14466734 0.35112423 0.01334117 0.31032816 0.008752488 0.07570518 -0.13603179 0.04821141 -0.18496124 0.14246069 0.15960139 0.07969074 -0.03623008 -0.011688123 0.10369339 -0.153559 -0.20761842 -0.2248557 0.12107835 0.09841369 0.24761605 -0.086408846 -0.011455616 0.07373834 0.07157649 -0.09674253 0.41417915 -0.2907377 0.2534312 0.027974596 -0.05500013 -0.0042382446 -0.2069958 0.21740638 -0.07998765 -0.11532633 0.24140264 0.2118084 0.20359707 0.15098017 0.2555954
80 -0.12245478 -0.041983783 0.0021538488 0.0023715838 -0.2260648 0.020585526 0.35138798 0.005449267 0.08395303 -0.1564193 -0.20238842 0.26927656 0.1287349 0.025414115 -0.0045376206 0.2107904 0.2350696 0.09091616 -0.09180759 -0.109279886 -0.054701082 0.12154753 -0.43234092 -0.15460998 0.35341436 0.0027746288 0.30426556 0.0063546887 0.07294867 -0.1348179 0.06367055 -0.19316787 0.13672437 0.15844852 0.08665406 -0.025915574 -0.011530132 0.11128016 -0.16055404 -0.20325357 -0.22668353 0.12067808 0.105343305 0.26147017 -0.07151505 -0.011211152 0.06865833 0.06953511 -0.086911604 0.4306413 -0.30671036 0.25359097 0.025148721 -0.053728573 -8.1968996e-05 -0.20747975 0.22033963 -0.087220795 -0.120407596 0.24818958 0.20359614 0.203566 0.16156927 0.24452978
77 -0.12635855 -0.041342456 -0.012762227 -0.0073785284 -0.21541122 0.02002188 0.34826168 0.007831966 0.078636244 -0.1490462 -0.20146926 0.25853974 0.14125866 0.037821244 -0.011021751 0.2202433 0.23081332 0.094755016 -0.09122029 -0.102950454 -0.04830946 0.112561084 -0.43011877 -0.14788136 0.3625321 0.009979071 0.30667287 -0.0022487005 0.0760028 -0.14069192 0.060031798 -0.19418295 0.15027827 0.16045012 0.09346623 -0.029431785 -0.01324999 0.120382294 -0.1667523 -0.20187351 -0.21883169 0.120349675 0.110665634 0.24827796 -0.082256004 -0.021102736 0.08058711 0.068792604 -0.0897214 0.4271559 -0.295539 0.24010526 0.023475267 -0.05219642 0.004828405 -0.20805229 0.22494462 -0.07860406 -0.11028927 0.2510722 0.2188015 0.20678827 0.15858021 0.24585687
27 -0.13706298 -0.050706614 -0.013546113 -0.009268599 -0.21901314 0.027784433 0.35730112 0.01599914 0.07657661 -0.15735865 -0.2066345 0.2754675 0.1345938 0.023080653 -0.006984153 0.2098251 0.22984867 0.09955212 -0.101510055 -0.09907703 -0.057957858 0.11099589 -0.42749944 -0.14070451 0.3504343 0.0074721742 0.30819368 0.0014320252 0.077477075 -0.1410253 0.048280075 -0.18630204 0.14038286 0.14691691 0.08817799 -0.033078585 -0.0027976742 0.10329744 -0.16639507 -0.19760838 -0.22564642 0.11557456 0.10288851 0.25631145 -0.084735125 -0.023760615 0.06347478 0.077540524 -0.08781791 0.41412532 -0.30368626 0.25631362 0.020661421 -0.057702042 -0.0008567104 -0.2184726 0.21746367 -0.08158725 -0.112683974 0.24348877 0.21369472 0.208766 0.16068935 0.24372545
35 -0.13987969 -0.04908741 -0.0014850278 -0.014165164 -0.22335814 0.030800853 0.3639685 0.010300268 0.087241344 -0.15446606 -0.20879593 0.28115222 0.13336419 0.027998261 -0.0032098654 0.21751386 0.23545104 0.09666603 -0.09154618 -0.104997925 -0.04771858 0.11889841 -0.4230924 -0.14249739 0.3540514 0.0020983308 0.3125509 0.0007495464 0.06734168 -0.14399132 0.055706773 -0.18654111 0.13897166 0.14660113 0.08575191 -0.037156798 -0.011531947 0.1086797 -0.17077951 -0.20096824 -0.23115684 0.12346491 0.1034232 0.25274774 -0.08068143 -0.02041344 0.066883184 0.061574895 -0.08113112 0.42037776 -0.29189646 0.24618298 0.025254536 -0.046305556 0.004516351 -0.21281794 0.22137627 -0.081244156 -0.10714476 0.24121867 0.21562071 0.20608139 0.1656961 0.23895358
83 -0.13648583 -0.042930976 -0.0024354395 -0.0041737887 -0.21923772 0.032559462 0.3509152 0.015429373 0.08147835 -0.14725702 -0.19902134 0.2641551 0.14001194 0.021287685 0.0027185278 0.21530887 0.22221671 0.089817554 -0.097754434 -0.10434138 -0.058327153 0.11705244 -0.4321999 -0.15137984 0.34570426 0.008224489 0.31267145 0.0033930012 0.072963744 -0.13985832 0.060199548 -0.20187819 0.13094898 0.15783581 0.09491441 -0.039612286 -0.0035030951 0.11680306 -0.17020173 -0.20950213 -0.22795624 0.13003756 0.10703919 0.26534867 -0.08162352 -0.01062111 0.0681309 0.07195327 -0.09474939 0.41714808 -0.3006765 0.2555593 0.020437555 -0.060534537 -0.0028209917 -0.21611534 0.22444119 -0.08439364 -0.10811405 0.23573704 0.21185516 0.1998866 0.1610257 0.25297138
9 -0.13347027 -0.047766827 0.0011048444 0.0017134896 -0.22078651 0.015870705 0.34791437 0.012833934 0.08104753 -0.15752214 -0.19927917 0.27881017 0.13234457 0.026622824 0.0032175232 0.22024934 0.23281582 0.093096584 -0.1119989 -0.107482985 -0.056556612 0.12303367 -0.42893502 -0.14365172 0.35505012 0.013706298 0.312302 -0.0015113144 0.06914048 -0.14197883 0.048971936 -0.19056231 0.14708738 0.16245174 0.09157484 -0.03225933 -0.001130707 0.120572165 -0.15829985 -0.19848242 -0.22158107 0.12731788 0.09431189 0.25155535 -0.08919892 -0.017357437 0.069850706 0.074864484 -0.09588449 0.42942914 -0.30159983 0.25007656 0.026444169 -0.054288708 -0.004321661 -0.20985274 0.23151137 -0.083352394 -0.11752869 0.24793044 0.20560084 0.20763032 0.14956556 0.2573153
63 -0.12795728 -0.046820037 -0.009228671 -0.008259353 -0.20938073 0.0313506 0.3528965 0.018745482 0.08113809 -0.14342754 -0.20382534 0.2577189 0.14196151 0.038843766 -0.0024275952 0.22629295 0.226235 0.09483173 -0.10048904 -0.10540414 -0.062397156 0.114012845 -0.4217039 -0.1385516 0.35484466 -0.0020006623 0.30433032 0.00985199 0.06484246 -0.135078 0.049149152 -0.19930926 0.13975577 0.14895742 0.08229773 -0.03919764 -0.004823939 0.11571197 -0.15630284 -0.2019986 -0.22489327 0.116538905 0.097784035 0.25555632 -0.08223901 -0.015556752 0.08272123 0.0752099 -0.097559124 0.423475 -0.29742086 0.25072712 0.019420613 -0.050068997 -0.007829116 -0.21949276 0.21966262 -0.083362244 -0.11932445 0.235985 0.20775782 0.20881562 0.1568351 0.24908797
43 -0.11862509 -0.050600354 -0.0070000635 0.0024925806 -0.21076986 0.016848832 0.3370701 0.011472292 0.087389156 -0.15987872 -0.19686067 0.27321583 0.13682975 0.029221093 0.0031702076 0.21778351 0.23107664 0.09361027 -0.10109077 -0.11056698 -0.05488038 0.11187026 -0.4231968 -0.1436836 0.35369074 0.005658682 0.3142525 0.004704642 0.0780384 -0.1405417 0.053423263 -0.20028795 0.14582947 0.1536066 0.08863461 -0.03143722 -0.007507492 0.11678699 -0.15503936 -0.19700609 -0.23196103 0.12851192 0.10279794 0.25672713 -0.08843403 -0.017305855 0.08014442 0.060270995 -0.09240316 0.42821595 -0.30153388 0.2511079 0.033554874 -0.04706176 0.0047595203 -0.20427583 0.22631212 -0.0823816 -0.115136825 0.24573067 0.20295234 0.21342362 0.14720316 0.25306845
22 -0.12967598 -0.044302903 -0.012014682 -0.0100699095 -0.22904904 0.025980595 0.35480657 0.020404045 0.08030379 -0.14971858 -0.20131779 0.2725755 0.14199093 0.034645047 0.00090333284 0.22089702 0.22344735 0.08167083 -0.093592234 -0.107102476 -0.05278053 0.11256441 -0.43009698 -0.13863952 0.35903543 0.008308515 0.30134404 0.006413341 0.07768876 -0.14408973 0.06128542 -0.18160972 0.13784693 0.15229759 0.08643274 -0.027774934 -0.009097257 0.11553953 -0.1667418 -0.19501323 -0.22044654 0.12660612 0.103184156 0.25706938 -0.08855011 -0.0074887313 0.07843849 0.06171682 -0.087271996 0.41507965 -0.2993911 0.25727454 0.028790284 -0.059710026 -0.012143085 -0.20724367 0.22385645 -0.084353685 -0.121891506 0.24507608 0.20626372 0.20853841 0.16156901 0.2371894
62 -0.13468277 -0.043951377 -0.011251935 -0.007960354 -0.22457154 0.019739352 0.346774 0.013264185 0.088487506 -0.16361383 -0.20204844 0.27601665 0.13632987 0.027469018 -0.0032744997 0.21480955 0.22884038 0.088385485 -0.106557675 -0.09784739 -0.051016066 0.12373316 -0.42171147 -0.14899966 0.35732812 0.00839268 0.30708805 0.004598327 0.07479621 -0.13993387 0.052279446 -0.19344957 0.13739583 0.15452065 0.08171337 -0.037249673 -0.007928264 0.1135578 -0.16782449 -0.20052183 -0.21878472 0.1307695 0.10485926 0.25212184 -0.08408035 -0.021416863 0.07056711 0.071278535 -0.08961542 0.42223877 -0.29751435 0.25122717 0.03319338 -0.043788634 -0.005230961 -0.21283342 0.2214391 -0.09031243 -0.11426156 0.24281245 0.2016948 0.20731595 0.15982145 0.24729969
96 -0.12761098 -0.051148694 -0.010375576 0.0002796167 -0.22801581 0.027982453 0.36226612 0.01660199 0.08522189 -0.15259272 -0.20684211 0.27709177 0.1401591 0.032561433 -0.0046884315 0.21850723 0.22888912 0.09593375 -0.103111595 -0.099119015 -0.060253076 0.11487275 -0.42187175 -0.15174301 0.3531724 0.0028036977 0.31032148 -0.0011112334 0.07669142 -0.14412084 0.060378525 -0.18508036 0.14374843 0.15328759 0.08425194 -0.040496252 -0.0060708215 0.119162664 -0.16046025 -0.2034587 -0.22475597 0.114836924 0.09914617 0.26027143 -0.07812386 -0.017293733 0.07190878 0.06354224 -0.09258429 0.4132287 -0.29049903 0.24054077 0.026122136 -0.058083493 -0.008234138 -0.20622051 0.21544328 -0.074968606 -0.11116194 0.23328115 0.21150224 0.19809724 0.1532627 0.24999481
47 -0.13456565 -0.04670257 -0.012360158 -0.011052516 -0.22034565 0.03033584 0.35648528 0.019388797 0.08960347 -0.1561559 -0.20232894 0.2757215 0.12910262 0.025029233 -0.008743263 0.22032617 0.22605717 0.089014724 -0.10170578 -0.10938131 -0.063029006 0.111214116 -0.42654693 -0.14729655 0.35975406 0.008280301 0.30487445 0.0071721203 0.06957072 -0.14350496 0.057083387 -0.20108745 0.14619593 0.15356354 0.084688865 -0.041054253 -0.0005898807 0.107412726 -0.16817969 -0.19856457 -0.22690536 0.13203655 0.10099706 0.25391576 -0.07822836 -0.01898318 0.079225525 0.07484656 -0.098408595 0.4256965 -0.30421564 0.2567142 0.021726629 -0.046428625 -0.007431183 -0.21038605 0.21991181 -0.087649524 -0.11397824 0.23715709 0.210507 0.20011237 0.15686016 0.24978717
67 -0.13593657 -0.04336129 -0.009893627 -0.011359117 -0.21551473 0.02349274 0.3554911 0.015586193 0.088901386 -0.15123266 -0.21111687 0.2712499 0.13101663 0.033848047 -0.0027129618 0.21931054 0.2309682 0.09338391 -0.09367626 -0.10413023 -0.048631504 0.12282394 -0.4319863 -0.13695619 0.3520202 0.002263684 0.30396867 0.0028263822 0.07110316 -0.13858266 0.06156953 -0.19132987 0.14356326 0.1583917 0.07917349 -0.03525093 -0.012324409 0.112546846 -0.15665798 -0.20558874 -0.23304436 0.1318233 0.10734404 0.25269467 -0.08557158 -0.016089447 0.07254445 0.060484737 -0.0886462 0.41557798 -0.29877368 0.24594459 0.026964338 -0.056397106 -0.008451027 -0.2065505 0.21332686 -0.084444284 -0.11505486 0.240741 0.21681367 0.20349976 0.15366302 0.24023247
17 -0.13087043 -0.054109037 -0.0022913285 -0.0017958203 -0.20670915 0.022241902 0.35349745 0.015847977 0.08206148 -0.14149337 -0.1924228 0.27589384 0.1419561 0.03804385 6.325708e-05 0.21761383 0.23433031 0.089743935 -0.10435277 -0.1046192 -0.05077322 0.11329646 -0.43021452 -0.15152103 0.35288155 0.004749183 0.31991756 -0.0035860161 0.0690054 -0.13307504 0.05397364 -0.19573507 0.15181947 0.14657927 0.091677435 -0.025530282 -0.014576824 0.11627004 -0.15718476 -0.19818887 -0.23098965 0.13273247 0.10371904 0.26652086 -0.08991579 -0.015886413 0.08065053 0.06562743 -0.101605974 0.42868644 -0.30076066 0.24938335 0.025506902 -0.04577969 -0.0045525376 -0.21498254 0.22697622 -0.08141745 -0.113166064 0.24136695 0.21304165 0.20058273 0.15156765 0.24565071
41 -0.11838522 -0.045318943 -0.0142546045 0.0023195797 -0.22367372 0.026974892 0.3578916 0.008922559 0.093220815 -0.15637937 -0.19749531 0.26500493 0.13548893 0.026115272 -0.013491054 0.22291921 0.2357567 0.08376271 -0.102637455 -0.0951137 -0.050832402 0.10887582 -0.42200464 -0.1412909 0.34591442 0.0011000623 0.3167328 0.0018488939 0.06618803 -0.13076872 0.057486467 -0.19880714 0.13821046 0.1489397 0.08716752 -0.031158572 -0.0029196998 0.103980094 -0.15784936 -0.20361827 -0.22718067 0.1108696 0.106793866 0.25694165 -0.075539984 -0.018844437 0.07552951 0.075394355 -0.09062791 0.42004392 -0.30081883 0.24321514 0.024470167 -0.056189224 -0.0019225099 -0.20907553 0.21257667 -0.07890538 -0.11979274 0.23840417 0.20932972 0.21019234 0.1512837 0.24814045
3 -0.12085727 -0.05061793 -0.0059793615 -0.0011174532 -0.2122531 0.019685613 0.35105494 0.0062390706 0.08475709 -0.1443116 -0.20667633 0.274272 0.1373552 0.033861745 -0.0021678521 0.21559039 0.23674841 0.09479068 -0.095315985 -0.102905 -0.05676046 0.11515332 -0.43127516 -0.14761788 0.35067186 -0.0027291765 0.3142046 0.0028611426 0.06512051 -0.1294334 0.054572016 -0.1970293 0.14736797 0.15566608 0.08221412 -0.034986876 -0.0027536557 0.115545824 -0.15674037 -0.19635163 -0.23046215 0.116651416 0.1055287 0.25469267 -0.08188652 -0.015329465 0.08033995 0.06535126 -0.10109808 0.4196425 -0.29205504 0.24745707 0.02910997 -0.0460726 0.0063222772 -0.20545271 0.21553183 -0.07983907 -0.117593996 0.2391649 0.20975369 0.20042701 0.1487877 0.25719476
38 -0.12765019 -0.05105386 0.00038914414 -0.009335525 -0.22152777 0.02537513 0.3470499 0.006542534 0.07769778 -0.14107127 -0.20987707 0.2611361 0.142711 0.04082187 -0.0054129255 0.22235774 0.22208329 0.09288578 -0.09535366 -0.112049095 -0.04943934 0.12294063 -0.42832834 -0.14198063 0.34556773 0.014572964 0.30954954 0.012071238 0.07017251 -0.13427663 0.050226398 -0.1873366 0.13757113 0.15634088 0.07824732 -0.031255174 -0.013908774 0.10479453 -0.17024688 -0.20487541 -0.2163241 0.11939982 0.10794332 0.25188383 -0.081638895 -0.012489679 0.082869224 0.07085972 -0.09903476 0.4285923 -0.2945158 0.25070733 0.029743012 -0.06249941 0.0018460717 -0.21240304 0.23061061 -0.0858899 -0.113258526 0.24861842 0.20696923 0.21724968 0.15970968 0.2533207
76 -0.13134332 -0.043732785 -0.0037854142 -0.0066851764 -0.22892167 0.017866155 0.33757192 0.009858167 0.08790013 -0.14747082 -0.20417133 0.2619532 0.14108776 0.025998363 -0.005450978 0.22452372 0.22457175 0.084428035 -0.10272481 -0.11090678 -0.058005836 0.11878989 -0.42084408 -0.14601026 0.35201538 0.01238581 0.3147 0.008059484 0.067365825 -0.14133427 0.06262854 -0.19595791 0.13949652 0.15057382 0.09263275 -0.03393172 -0.014415039 0.11580768 -0.17084418 -0.20364785 -0.23193641 0.121550314 0.112621896 0.26031205 -0.07812057 -0.014554572 0.07049394 0.066705376 -0.097258165 0.42321086 -0.3021778 0.25386098 0.019968666 -0.052650988 -0.0071589085 -0.21962978 0.22297105 -0.07638888 -0.11340006 0.2416566 0.20179969 0.21426317 0.1475192 0.24450123
45 -0.13340372 -0.052766055 -0.0032146776 -0.012482156 -0.21532288 0.021215612 0.35090154 0.015173253 0.07584915 -0.15292731 -0.21004009 0.2783304 0.13798591 0.032975763 0.004364231 0.21696424 0.23364371 0.09464667 -0.09390522 -0.10994421 -0.05758551 0.117585205 -0.42195782 -0.1450551 0.3607663 0.01135859 0.3154542 -0.0003396887 0.077786356 -0.13869411 0.049009442 -0.18960841 0.1437825 0.14816718 0.08435345 -0.03365538 -0.006030637 0.10585006 -0.15631121 -0.20590441 -0.22656803 0.13129313 0.10285506 0.26701906 -0.079880774 -0.018889815 0.07862122 0.075829856 -0.08632916 0.42859435 -0.29862607 0.25264564 0.027467707 -0.049871475 -0.007903968 -0.20846562 0.21779081 -0.08628493 -0.10722856 0.23725092 0.20487964 0.20421383 0.14996533 0.23989275
2 -0.12394118 -0.052620094 -0.003615482 -0.0058025294 -0.21692532 0.029649356 0.36297104 0.009043684 0.089396216 -0.15121943 -0.20977096 0.27003017 0.13732506 0.02639136 0.0059351414 0.22270258 0.22996745 0.08557359 -0.089046165 -0.09668702 -0.057328895 0.1076159 -0.4227267 -0.1448417 0.34316656 0.001954393 0.30976436 0.0043881447 0.0625091 -0.14442916 0.051390447 -0.19055198 0.14718859 0.154551 0.078878626 -0.038830947 -0.0077365376 0.108237855 -0.16497527 -0.20656998 -0.22774334 0.120328024 0.11208027 0.25855175 -0.08572812 -0.0117332395 0.07440834 0.06759249 -0.089491665 0.42971498 -0.2942249 0.25663716 0.024431428 -0.055389613 0.0050028875 -0.21291058 0.21499935 -0.084306695 -0.11475777 0.23430876 0.20571828 0.21612287 0.16215254 0.2586829
