100 64
62 -0.18515962 0.207877 -0.24493243 0.11609236 -0.012217182 -0.082186155 -0.0044940272 0.31903788 -0.04238922 -0.08706359 -0.33853993 0.03386498 0.18386066 -0.013678277 0.4110127 -0.25194368 -0.049532 -0.049001314 -0.09333964 0.0037323935 0.12818035 -0.22874404 0.03212798 -0.12589632 -0.48012453 0.08438581 0.16074143 0.17937982 -0.21009117 0.07401821 0.17937137 -0.3415204 0.050216466 0.028070351 0.2248834 0.11798571 -0.26387894 -0.019118516 -0.19188192 0.097086206 -0.042897705 0.25751582 0.058096852 0.026756546 0.11379658 0.14804986 -0.066325344 -0.14262535 -0.07586023 0.32322696 -0.20925961 0.09057426 0.066594146 -0.18467337 -0.26223767 -0.004153873 0.06630444 -0.33275005 -0.03138609 -0.102343075 0.10790245 -0.025133282 -0.11903461 0.04168221
66 -0.17732579 0.19215482 -0.24863966 0.1068279 -0.01866949 -0.09510951 -0.014917351 0.30520737 -0.0454254 -0.10023454 -0.3443653 0.029891446 0.18319798 -0.009716537 0.40859455 -0.24184659 -0.05513662 -0.047285024 -0.08855847 -0.005832173 0.12527019 -0.21675089 0.032323826 -0.12086062 -0.47776958 0.083285905 0.15978067 0.18504958 -0.21595722 0.084375896 0.18022175 -0.3379165 0.061463878 0.02213021 0.22434644 0.1114191 -0.2657344 -0.012882801 -0.18582572 0.09658181 -0.042778768 0.25340235 0.06756102 0.022356642 0.10884329 0.12971175 -0.07033462 -0.13968384 -0.08316466 0.3259027 -0.19730626 0.1045584 0.06727501 -0.18359913 -0.25782835 -0.006677384 0.072794564 -0.33403027 -0.032316953 -0.104106195 0.09237121 -0.030705374 -0.10867343 0.047689702
3 -0.17177956 0.20500213 -0.2434449 0.104421735 -0.020468848 -0.09207 -0.007303479 0.3151801 -0.0336534 -0.08646513 -0.35058713 0.028064173 0.19089839 -0.012687453 0.4019169 -0.2391586 -0.051089466 -0.04042126 -0.086950414 0.00046428555 0.13002518 -0.22751087 0.023323528 -0.110713474 -0.47765055 0.07728076 0.16795342 0.17707473 -0.21438313 0.084912345 0.17415152 -0.336214 0.06259288 0.021815065 0.22049513 0.10894522 -0.26973864 -0.017321086 -0.1918889 0.090041816 -0.04572512 0.256254 0.07120085 0.022378998 0.10988132 0.14499153 -0.0747919 -0.1360729 -0.08396983 0.31655365 -0.1933353 0.09310698 0.071008384 -0.19094874 -0.25864884 0.005624761 0.071968116 -0.33280733 -0.03209521 -0.10762536 0.09798966 -0.037024103 -0.11118729 0.049380694
85 -0.1803468 0.2025603 -0.25148064 0.10373651 -0.017680924 -0.09193652 -0.0059774467 0.31488588 -0.03839591 -0.08812148 -0.3458212 0.03603446 0.18201797 -0.00071983866 0.39759016 -0.25042158 -0.0614292 -0.051570456 -0.084564246 0.000922514 0.11988559 -0.21240123 0.024952639 -0.12396739 -0.48124743 0.07243808 0.1611314 0.18717565 -0.20689605 0.08295414 0.18394321 -0.33389413 0.06295496 0.017776044 0.22099102 0.110400856 -0.25702363 -0.007407405 -0.18666665 0.08953913 -0.036863513 0.26541114 0.06645203 0.028384186 0.11866585 0.14268272 -0.07354663 -0.13613066 -0.078597516 0.32160848 -0.20246634 0.09614866 0.06319202 -0.19298986 -0.2518892 -0.010058573 0.07508703 -0.32818645 -0.04439579 -0.10566671 0.10552777 -0.031750735 -0.10422057 0.038044013
58 -0.18670113 0.20250005 -0.2533211 0.11433052 -0.017709125 -0.09262747 -0.014021551 0.31209013 -0.034687266 -0.09144823 -0.34734356 0.025954727 0.19096535 -0.004179721 0.4087917 -0.25133306 -0.061460316 -0.042224996 -0.09829309 -0.0023207348 0.12391805 -0.21412954 0.02764527 -0.11835241 -0.4753467 0.07711576 0.16867645 0.19209936 -0.21572158 0.079148486 0.17433965 -0.34154254 0.058349032 0.019857822 0.21505792 0.10940067 -0.26867205 -0.012145513 -0.19154586 0.08584702 -0.038096663 0.2662543 0.066885225 0.0319482 0.11594653 0.13963963 -0.06292345 -0.13755742 -0.06583886 0.3185457 -0.20027266 0.10370999 0.07422369 -0.18812051 -0.25266644 -0.00463102 0.07035909 -0.3273639 -0.03750742 -0.11090686 0.10026725 -0.0350316 -0.11981135 0.055503175
59 -0.1867285 0.20170188 -0.2548968 0.11384887 -0.019407324 -0.09146318 -0.020961702 0.32349232 -0.041085433 -0.095879935 -0.3421212 0.03376319 0.18433857 -0.0035439916 0.40969595 -0.2419334 -0.06292552 -0.051239684 -0.10019868 -0.00985106 0.12252191 -0.22263443 0.027585879 -0.12200226 -0.47929278 0.07857739 0.1691243 0.18192261 -0.2202542 0.082967475 0.17600843 -0.3426303 0.05330925 0.02716959 0.22108099 0.112948544 -0.26663715 -0.01780633 -0.17920049 0.09500665 -0.032109328 0.25609812 0.054779217 0.017514898 0.11999579 0.1441506 -0.059525702 -0.1450926 -0.07514071 0.32430345 -0.19075623 0.09853372 0.07038561 -0.18262343 -0.25070694 -0.003973052 0.07430593 -0.33065268 -0.034088597 -0.10887372 0.092415944 -0.033135474 -0.11206897 0.048911538
70 -0.17516509 0.1976234 -0.24981822 0.10252361 -0.00513515 -0.092787415 -0.006516093 0.31957424 -0.039023805 -0.096679926 -0.33972242 0.025749706 0.18169774 -0.010941121 0.40820268 -0.2395419 -0.06261046 -0.04437744 -0.090010546 0.0038572126 0.11155562 -0.22033228 0.019029008 -0.12402089 -0.48079818 0.07242772 0.16325173 0.18767682 -0.21685575 0.08428068 0.18459558 -0.34306037 0.055940192 0.027827099 0.2243026 0.11642959 -0.26140124 -0.008791547 -0.19453843 0.08422815 -0.0452613 0.26385918 0.070789985 0.03427427 0.11095328 0.1342181 -0.06829461 -0.1484968 -0.08114698 0.31848404 -0.20069845 0.10100987 0.072105035 -0.18933745 -0.2509613 0.0028285033 0.060542967 -0.32674608 -0.032866903 -0.108727194 0.10331354 -0.02974969 -0.11468903 0.042944897
34 -0.16991018 0.19411723 -0.25241077 0.10112266 -0.012847709 -0.07895944 -0.003952138 0.31180838 -0.048169766 -0.09829306 -0.34051538 0.030725058 0.18381993 -0.005498365 0.41023737 -0.25121954 -0.05878683 -0.056671426 -0.08561312 -0.0009622233 0.12536319 -0.2179756 0.022925979 -0.11611595 -0.4801861 0.07976559 0.17102244 0.19314934 -0.21423951 0.07266872 0.18846434 -0.33970296 0.051418643 0.024381666 0.22040217 0.11093327 -0.26673102 -0.013193342 -0.18855684 0.09140419 -0.049089633 0.25937366 0.059643574 0.026570337 0.12127065 0.13964525 -0.063663825 -0.14819637 -0.06529376 0.32292217 -0.21163738 0.095071584 0.06390168 -0.18866432 -0.25282854 -0.005024875 0.06581361 -0.3430941 -0.0441852 -0.10665068 0.10003843 -0.03845722 -0.12339687 0.047079097
93 -0.17181069 0.19939496 -0.24840826 0.112924874 -0.014069836 -0.07951703 -0.012347874 0.32067624 -0.043992728 -0.093309306 -0.34021813 0.032472294 0.18262357 -0.014452101 0.41477138 -0.25689647 -0.057523813 -0.057250626 -0.10155915 0.0048190462 0.118829824 -0.22129318 0.023246806 -0.11894514 -0.48348153 0.074939065 0.1563578 0.19278845 -0.21797882 0.07307268 0.18239424 -0.3471488 0.06639063 0.031793263 0.22892949 0.1090818 -0.26610216 -0.017290998 -0.185698 0.08957934 -0.031769454 0.25978798 0.065160364 0.03558844 0.11440989 0.14190957 -0.06172552 -0.13585272 -0.06856244 0.3189708 -0.20797393 0.09754897 0.080897324 -0.19326825 -0.25648606 -0.0009673254 0.062196396 -0.32834384 -0.043149043 -0.10138918 0.107451245 -0.025697527 -0.11931312 0.04369237
88 -0.17450117 0.19915211 -0.23935597 0.10727152 -0.022077445 -0.09183705 -0.010383535 0.3164862 -0.044890292 -0.09378332 -0.33786178 0.02833587 0.18773735 -0.015414691 0.4073411 -0.24060269 -0.058588725 -0.04552788 -0.0873393 0.0047022216 0.119286075 -0.2133648 0.02812188 -0.117240675 -0.4886901 0.08040497 0.16539037 0.18580362 -0.21192382 0.07590788 0.17416114 -0.34822834 0.057747778 0.023259874 0.22160658 0.10750494 -0.27318227 -0.011590525 -0.19811459 0.09013089 -0.042578563 0.26187322 0.06718319 0.031350516 0.120547526 0.13210192 -0.07076039 -0.13612084 -0.07551241 0.32081872 -0.1946703 0.104253 0.065544665 -0.19113517 -0.24684174 -0.0063025034 0.07029438 -0.3396146 -0.03603359 -0.10700975 0.0942914 -0.02123333 -0.11000668 0.050477892
29 -0.18567775 0.19901326 -0.2445151 0.105290234 -0.014962803 -0.09368177 -0.013138253 0.31190336 -0.044007488 -0.09099533 -0.3293739 0.026882356 0.19149616 -0.01606087 0.40620986 -0.24880187 -0.061672222 -0.04200785 -0.09399412 0.0041901567 0.12006522 -0.21084572 0.027148575 -0.11438887 -0.4818466 0.07723512 0.1692449 0.1871507 -0.2187705 0.07294418 0.17228602 -0.33653435 0.048886295 0.019802583 0.22752972 0.11287219 -0.26535913 -0.013397486 -0.1844497 0.088128075 -0.03863516 0.26540044 0.060165294 0.02669157 0.118889295 0.13912044 -0.078171425 -0.1456426 -0.08025012 0.3256666 -0.20520371 0.093796305 0.06259389 -0.18888365 -0.25727615 0.00019342398 0.066052034 -0.33670858 -0.0389615 -0.11553969 0.090667896 -0.025008213 -0.10864797 0.045356173
24 -0.18063723 0.19088961 -0.24262154 0.10425083 -0.010164933 -0.077460706 -0.01593275 0.31660846 -0.05004904 -0.102514535 -0.35170975 0.030408073 0.18284902 -0.002426831 0.4040113 -0.2473211 -0.0531248 -0.046767287 -0.09804138 0.006452761 0.11613175 -0.2248732 0.021313483 -0.1129588 -0.48020262 0.0756614 0.16080375 0.1901639 -0.21373916 0.08128364 0.18010533 -0.34681925 0.047340248 0.027004398 0.21149264 0.12229374 -0.2694081 -0.012512416 -0.19111362 0.08281165 -0.03425909 0.26654065 0.0628987 0.032521162 0.11838442 0.13896221 -0.068389975 -0.13524304 -0.08100708 0.31785727 -0.20481281 0.10679014 0.076525286 -0.18452694 -0.25376764 -0.0021347872 0.074172154 -0.33195564 -0.048831996 -0.10402507 0.09277889 -0.03402145 -0.11221022 0.042061176
1 -0.18514799 0.20094058 -0.2423729 0.10483683 -0.010174245 -0.09272639 -0.0039478964 0.32149944 -0.04788342 -0.099874206 -0.33713484 0.021322073 0.18996161 -0.015651185 0.41169873 -0.25074804 -0.062072597 -0.05502981 -0.09915132 -0.0031840336 0.120296754 -0.22381762 0.0339198 -0.11843985 -0.46855688 0.080767184 0.15816829 0.18919891 -0.21808462 0.08299548 0.17944849 -0.3370193 0.062486403 0.030259624 0.21437028 0.11604003 -0.26562887 -0.0075696926 -0.19770713 0.08739863 -0.038133077 0.2576585 0.07253072 0.024601277 0.11082359 0.14456053 -0.078059375 -0.14893344 -0.08189487 0.31521064 -0.20351738 0.10371357 0.07383976 -0.19106592 -0.2558666 0.0032921175 0.07703412 -0.33693546 -0.040241037 -0.09601035 0.104731 -0.022356926 -0.11478912 0.05054181
44 -0.18563215 0.1984222 -0.2531019 0.11123161 -0.015161523 -0.0875807 -0.0063894843 0.3231885 -0.042768653 -0.090816244 -0.3422773 0.030592361 0.17870407 -0.0052467114 0.39838415 -0.24852647 -0.054037254 -0.04195013 -0.093180284 -0.0009200487 0.12096898 -0.2203776 0.023597606 -0.11337386 -0.48283228 0.07737954 0.16312271 0.17929344 -0.2112418 0.07683266 0.1833972 -0.3477431 0.058049954 0.016146788 0.22281477 0.11722478 -0.2711654 -0.012813258 -0.1932545 0.09547183 -0.035177134 0.25185698 0.064718276 0.023156734 0.116374955 0.14211021 -0.07444512 -0.14532556 -0.0809563 0.32392913 -0.19972806 0.101096004 0.07204187 -0.19209659 -0.2451823 0.00034154992 0.06688181 -0.34010416 -0.04387682 -0.10615984 0.106785655 -0.029571384 -0.11052956 0.045167807
90 -0.18269011 0.19521521 -0.25177544 0.11247747 -0.0073599136 -0.08343392 -0.012184125 0.3191678 -0.037226282 -0.094576396 -0.3420354 0.026391612 0.18264063 -0.015036182 0.3995171 -0.24387302 -0.055108614 -0.048396718 -0.090571634 0.0013018784 0.12100676 -0.22498102 0.025238574 -0.11424428 -0.48133892 0.07503879 0.15681404 0.19033493 -0.21873233 0.06958103 0.17340273 -0.347339 0.0626705 0.017480794 0.22823113 0.11194736 -0.26177952 -0.01191961 -0.198618 0.08647904 -0.044439916 0.26438075 0.074025676 0.02341673 0.11618672 0.149623 -0.076421335 -0.14650118 -0.07185969 0.318434 -0.19994323 0.1022726 0.07362973 -0.19045025 -0.257532 0.00070378167 0.06966858 -0.32988894 -0.03373236 -0.10215744 0.10366414 -0.023090813 -0.109483875 0.043921825
30 -0.18686976 0.2004148 -0.25640732 0.12107211 -0.016395504 -0.08552782 -0.00081116654 0.32131276 -0.04389664 -0.10215528 -0.33655784 0.032615423 0.1833775 -0.0067613027 0.4010504 -0.24948521 -0.055722404 -0.041779008 -0.095672086 -0.005656059 0.12906119 -0.22683954 0.029768916 -0.11335054 -0.47471023 0.08098889 0.16307446 0.18839687 -0.21966816 0.07857486 0.18506563 -0.3423708 0.05182296 0.025296694 0.22034058 0.109344125 -0.27011704 -0.011313481 -0.19245844 0.08921487 -0.037713986 0.25894302 0.07308599 0.02122417 0.10965441 0.147508 -0.07199158 -0.14374137 -0.074088216 0.3250833 -0.20798337 0.09001303 0.075059436 -0.1928375 -0.24841024 -0.0009984736 0.07491634 -0.33425155 -0.046826944 -0.110025845 0.102947176 -0.024645882 -0.10676851 0.041931167
91 -0.17303246 0.2000292 -0.25196087 0.106145926 -0.01393867 -0.09541646 -0.007491324 0.3088676 -0.048390202 -0.08621937 -0.34524292 0.019829188 0.18920206 -0.0054693664 0.39751518 -0.24426286 -0.0581906 -0.050119326 -0.09226973 -0.008925635 0.12976018 -0.21257718 0.029750053 -0.12217787 -0.47873104 0.07961809 0.16314617 0.17981736 -0.21338041 0.08212788 0.17617461 -0.33027622 0.053232703 0.015130688 0.2178697 0.11397513 -0.26455966 -0.01891896 -0.1977678 0.08392839 -0.04432875 0.2534212 0.06780971 0.028527407 0.11104975 0.13558275 -0.07467016 -0.13509406 -0.07381399 0.32412532 -0.1965993 0.10204759 0.06473312 -0.19319852 -0.25249177 -0.006359259 0.068353705 -0.33313265 -0.038305424 -0.10278572 0.0966258 -0.030036122 -0.115771666 0.047128152
89 -0.18480201 0.20530362 -0.25675282 0.111282595 -0.017740885 -0.09628959 -0.008677391 0.31609187 -0.04107477 -0.08748743 -0.34697223 0.032828856 0.1842827 -0.0137852505 0.40095922 -0.24821919 -0.065458186 -0.054141656 -0.086346015 0.008224246 0.110923745 -0.2143032 0.032941468 -0.11701477 -0.4881491 0.07218814 0.15909494 0.18905598 -0.20511751 0.086022034 0.18523063 -0.34325075 0.057393182 0.016320653 0.22858633 0.11948291 -0.2609156 -0.01034282 -0.18381625 0.090329655 -0.038146824 0.26690206 0.073668666 0.028342536 0.11602421 0.13471837 -0.06871749 -0.13529176 -0.07878604 0.32872492 -0.2013913 0.10056876 0.077302895 -0.18562071 -0.24721022 0.0054835384 0.064765096 -0.34111843 -0.039691772 -0.1131765 0.10233906 -0.034439232 -0.10245485 0.044291254
94 -0.18768595 0.20928816 -0.24923874 0.11682606 -0.014188411 -0.08540523 0.000376867 0.32451957 -0.04983635 -0.095849104 -0.34883827 0.024620356 0.18894957 -0.00583957 0.40901893 -0.24470478 -0.05930868 -0.04696511 -0.092274435 -0.001321279 0.12633845 -0.22170576 0.023881013 -0.122427836 -0.47950333 0.07919267 0.15868378 0.17773737 -0.20627224 0.06945525 0.17649542 -0.34427312 0.049209498 0.026658079 0.21561489 0.106191956 -0.25817743 -0.022410523 -0.20338391 0.09451371 -0.038836673 0.26107374 0.06822896 0.031305954 0.10997393 0.14059068 -0.06525858 -0.14948268 -0.074222855 0.3241972 -0.20948458 0.09394502 0.07061396 -0.18363856 -0.25150472 -0.0072909095 0.063375965 -0.33786944 -0.03375436 -0.096333414 0.10523813 -0.023962408 -0.10990145 0.0375295
50 -0.16572352 0.19813646 -0.23336147 0.10565019 -0.018392904 -0.09045151 -0.016961487 0.3069646 -0.039606895 -0.1005432 -0.3432666 0.022908889 0.18430114 -0.010498201 0.4127023 -0.2466089 -0.058289897 -0.052527294 -0.105577484 -0.0013143051 0.12154973 -0.21450265 0.03025784 -0.12023301 -0.48222864 0.0742956 0.15677063 0.1942246 -0.21676897 0.06948758 0.17990838 -0.34442943 0.065274246 0.02249128 0.22508483 0.11132824 -0.27137765 -0.012652318 -0.1978076 0.08433343 -0.0442594 0.26754797 0.068461105 0.022135116 0.119570784 0.1407694 -0.06950447 -0.13165218 -0.06505785 0.31625655 -0.20340617 0.1011577 0.08160438 -0.19400407 -0.25529912 -0.010332424 0.06467805 -0.33247522 -0.039452184 -0.09964558 0.10606821 -0.022256302 -0.11730346 0.040101293
14 -0.18414785 0.19563249 -0.2512322 0.10437263 -0.012071666 -0.09236313 -0.00068921864 0.31668812 -0.036873903 -0.09946801 -0.34343496 0.03055406 0.18033828 -0.015140549 0.41410846 -0.25713393 -0.057354506 -0.051473998 -0.09307307 0.006308915 0.12037956 -0.22917487 0.01843654 -0.12139942 -0.47921056 0.07352007 0.17099936 0.18554471 -0.2147218 0.074274406 0.18122749 -0.33830476 0.054987576 0.019100472 0.2291815 0.10719863 -0.2627436 -0.010164212 -0.19771358 0.09501093 -0.04047443 0.26928043 0.06314207 0.024666531 0.12092295 0.14229353 -0.07577895 -0.14682722 -0.06678809 0.32557052 -0.20728005 0.10816131 0.07653721 -0.1870144 -0.24862306 0.005929339 0.06689165 -0.33586913 -0.0357311 -0.10474848 0.0967342 -0.024302319 -0.117998585 0.049053673
79 -0.17271833 0.20566069 -0.24044211 0.10391848 -0.02061391 -0.08853297 -0.018380823 0.3260327 -0.034392398 -0.08740477 -0.3424792 0.024492647 0.19339609 -0.0050051254 0.40066227 -0.2517367 -0.060096107 -0.052996874 -0.09972611 -0.0016539553 0.11955489 -0.21387164 0.032395206 -0.12062682 -0.4844733 0.082310945 0.15877503 0.18869287 -0.22006217 0.07428487 0.17495173 -0.34416595 0.04951671 0.02234328 0.21161902 0.1141473 -0.26743427 -0.020541526 -0.1894173 0.087526836 -0.03945931 0.2641995 0.056458104 0.023298051 0.11015782 0.14771374 -0.062238388 -0.14763267 -0.07149153 0.31560564 -0.20154232 0.10847796 0.07533082 -0.18043138 -0.24848092 0.0054345042 0.07185266 -0.33492798 -0.04088734 -0.1030957 0.09838466 -0.02917004 -0.11651659 0.042061184
49 -0.18171965 0.20497647 -0.24899739 0.10885918 -0.019993752 -0.09355607 -0.012921303 0.3069635 -0.036784228 -0.09305548 -0.33598348 0.024925739 0.19215463 -0.010885181 0.41624838 -0.2418326 -0.056674365 -0.05804305 -0.09552743 0.00469244 0.11422063 -0.2158805 0.037079 -0.11585226 -0.48427913 0.07667429 0.16330226 0.18271786 -0.20792022 0.08845022 0.17711335 -0.33701923 0.058204677 0.020890936 0.22656044 0.104545586 -0.27070436 -0.019729078 -0.19476712 0.09080917 -0.034651954 0.26317853 0.07214187 0.017477771 0.123220116 0.13558936 -0.06597467 -0.13657135 -0.08337964 0.3263757 -0.19552305 0.10788773 0.06961463 -0.17850454 -0.25511828 0.006653342 0.066097364 -0.3365637 -0.032164086 -0.106820405 0.09572483 -0.028381618 -0.11457642 0.046518803
19 -0.17601645 0.19285108 -0.251517 0.10422524 -0.009509221 -0.0840162 -0.0012976017 0.3107168 -0.04310338 -0.08621997 -0.34942928 0.03883685 0.18888794 -0.0053621153 0.40248105 -0.23774128 -0.06300983 -0.0406552 -0.085971616 0.0016990629 0.11568188 -0.22168781 0.022520466 -0.12519582 -0.48537078 0.08237281 0.17073037 0.1863575 -0.21924357 0.08231719 0.17880315 -0.33593696 0.059550896 0.025808932 0.22331737 0.10478846 -0.25956511 -0.0075094337 -0.18335004 0.08237263 -0.045096755 0.26538822 0.056372628 0.026372954 0.11817078 0.13735165 -0.061801627 -0.13650374 -0.07881872 0.3255643 -0.20159663 0.10724296 0.06493453 -0.19518162 -0.25635114 0.0014480957 0.0736226 -0.3366161 -0.040498484 -0.11215719 0.095661834 -0.027649175 -0.10747358 0.04526443
7 -0.16606027 0.18932414 -0.2361906 0.10918819 -0.01458361 -0.07914231 -0.011782146 0.31609273 -0.040100154 -0.10100386 -0.34612092 0.023492271 0.19132593 -0.016688278 0.41627243 -0.2563273 -0.05352401 -0.048118282 -0.10146268 -0.005320606 0.12096482 -0.22822407 0.033217844 -0.12648234 -0.48390138 0.077383265 0.16156656 0.18219899 -0.21260028 0.083289884 0.17419551 -0.35005468 0.06474554 0.01976174 0.21632221 0.12108154 -0.27392372 -0.016951459 -0.1902987 0.0870359 -0.04566843 0.26815093 0.0713965 0.028600015 0.115711816 0.13461295 -0.06805591 -0.14406411 -0.067706235 0.32248724 -0.19594173 0.09749347 0.06733975 -0.19253564 -0.24334975 -0.004672241 0.06968071 -0.33987793 -0.03959709 -0.10184543 0.09389046 -0.03323572 -0.11319024 0.044143092
95 -0.17743936 0.19973134 -0.24802335 0.11764027 -0.006418862 -0.08210548 -0.0050064116 0.31974643 -0.045289323 -0.10445421 -0.34731779 0.039372604 0.17760505 -0.014854522 0.41591516 -0.24846233 -0.056712113 -0.042556502 -0.0873169 0.00834657 0.12392489 -0.2202372 0.026776936 -0.11211157 -0.47354373 0.08484273 0.16836794 0.17897247 -0.21434058 0.0756949 0.18010142 -0.34117663 0.0606825 0.022415062 0.21760581 0.11288542 -0.27086318 -0.016595002 -0.1876152 0.08251717 -0.0320106 0.25964442 0.06055726 0.022190424 0.117575616 0.1423729 -0.06566926 -0.1303745 -0.07528943 0.33165538 -0.20306034 0.10698198 0.07818459 -0.19220266 -0.25434896 -0.0069500958 0.06580951 -0.33740354 -0.0387531 -0.10535846 0.09363559 -0.02952345 -0.1129713 0.04934773
38 -0.17277889 0.20492561 -0.24300383 0.10077407 -0.015988141 -0.08496702 -0.011977738 0.30847755 -0.03453692 -0.08580395 -0.3442837 0.024450717 0.17746326 -0.016630195 0.40462944 -0.24689238 -0.051466525 -0.04912675 -0.096012875 -0.00026953084 0.11749567 -0.22185875 0.022478677 -0.121145904 -0.4684189 0.07866436 0.1565078 0.1899548 -0.2175786 0.06813206 0.17381907 -0.33020523 0.057186607 0.020124497 0.22514 0.10333334 -0.26314524 -0.018356876 -0.1949347 0.09365749 -0.042896155 0.25116044 0.062616535 0.025253993 0.11417358 0.1473308 -0.07643468 -0.14763695 -0.070808806 0.3226192 -0.19972971 0.09580608 0.06709294 -0.18695375 -0.24813347 0.0023613966 0.058350045 -0.33209375 -0.03592606 -0.108515665 0.09194623 -0.028389825 -0.108042985 0.05463728
76 -0.17710376 0.21152808 -0.2491993 0.10817486 -0.013648241 -0.097897366 7.5171138e-06 0.31866655 -0.046839647 -0.09993287 -0.3415559 0.031261157 0.19058643 -0.013792006 0.40523458 -0.23566042 -0.052267194 -0.04583562 -0.08813487 -0.009545447 0.119795464 -0.22473489 0.02050137 -0.1261233 -0.48926795 0.07421221 0.16831696 0.18163025 -0.22299418 0.08483903 0.18664747 -0.3400556 0.047465052 0.025090193 0.21490844 0.10492973 -0.26868907 -0.024853732 -0.18807934 0.08794178 -0.040124662 0.26270592 0.064560086 0.020421991 0.10973873 0.14027078 -0.06258604 -0.14230794 -0.07873569 0.32725853 -0.20698212 0.09883816 0.059295245 -0.19046587 -0.25378644 -0.0013060684 0.07373319 -0.32700792 -0.030612728 -0.112381935 0.104715236 -0.023690287 -0.11529383 0.05028953
5 -0.18663482 0.20074068 -0.24513993 0.10416566 -0.017588405 -0.08565928 -0.0068032765 0.3205545 -0.035988398 -0.09499595 -0.3469588 0.023864046 0.18633796 -0.019585082 0.4142231 -0.24186239 -0.05107504 -0.054262247 -0.091048144 -0.00018624378 0.124021634 -0.2210463 0.03422942 -0.11162721 -0.47712216 0.07387269 0.16243342 0.1784691 -0.21565607 0.081949085 0.17333439 -0.33470574 0.06169456 0.02316855 0.2281266 0.10133493 -0.27106145 -0.012001208 -0.19309978 0.08703534 -0.04223208 0.2605934 0.060322337 0.025835538 0.121195756 0.13255368 -0.07136654 -0.1375639 -0.06638071 0.32453403 -0.20509869 0.09778618 0.07136049 -0.18029039 -0.25567052 0.005379163 0.062665455 -0.32848847 -0.034652144 -0.110312656 0.09716758 -0.035831705 -0.116202295 0.056409467
35 -0.18800303 0.20876788 -0.24694653 0.11582485 -0.014679782 -0.09271682 -0.00078575127 0.32750627 -0.034399264 -0.09664311 -0.34214443 0.028156579 0.19117229 -0.007200743 0.4038283 -0.25363234 -0.058843978 -0.042222466 -0.08552934 0.0020893263 0.12029889 -0.21844602 0.03593945 -0.114347994 -0.4751175 0.08631396 0.15484896 0.18403843 -0.2118969 0.082641624 0.18866946 -0.34139627 0.065227784 0.02190961 0.22692226 0.107591175 -0.26073542 -0.007690316 -0.18392178 0.093969315 -0.045890097 0.26295376 0.061166205 0.027010031 0.11676115 0.13648626 -0.07217228 -0.1473582 -0.07767593 0.32784358 -0.19730279 0.09616366 0.06564757 -0.1928204 -0.25719595 0.0010824164 0.07685804 -0.33744544 -0.03884199 -0.11008337 0.107951574 -0.031468242 -0.10747943 0.040935468
56 -0.18205595 0.21068043 -0.24801446 0.11913886 -0.016455626 -0.09755474 -0.008840994 0.31633347 -0.045492668 -0.090068 -0.34705007 0.0264844 0.18119894 -0.0005503548 0.39900592 -0.24757916 -0.051037773 -0.054770898 -0.08498319 -0.009025096 0.12562607 -0.2272296 0.036734257 -0.12857234 -0.4822432 0.08215876 0.15223803 0.18711479 -0.22172816 0.08463911 0.18303005 -0.34255204 0.05281295 0.02007974 0.21752925 0.116017714 -0.26036465 -0.014978994 -0.19886951 0.08595971 -0.040061917 0.25070465 0.06435287 0.022283576 0.107494965 0.12990297 -0.06171743 -0.13712567 -0.082448676 0.32525674 -0.20421463 0.09408122 0.0688013 -0.19540866 -0.2506729 0.00466439 0.060434848 -0.333598 -0.033980846 -0.10992703 0.10069334 -0.023327883 -0.121821105 0.052347593
37 -0.17932245 0.19667417 -0.24674198 0.10289525 -0.0093093645 -0.08593485 -0.013005634 0.3071627 -0.038922124 -0.09678104 -0.336421 0.018485585 0.19562185 -0.010073212 0.40766808 -0.251468 -0.05025781 -0.041846532 -0.097154886 -0.008616162 0.12446537 -0.21957125 0.032065496 -0.116657265 -0.48504427 0.082886055 0.15258965 0.17874587 -0.21500272 0.076667234 0.1833724 -0.34279943 0.060942534 0.019890286 0.21924417 0.11224393 -0.26646635 -0.020184644 -0.18981577 0.093884125 -0.04338606 0.26606753 0.07077271 0.032339405 0.11747046 0.13264167 -0.059910458 -0.14924726 -0.076361164 0.32926768 -0.19798328 0.10031609 0.07034125 -0.18071747 -0.25239435 -0.004701122 0.06509917 -0.33777532 -0.04402592 -0.11081098 0.09266859 -0.035090934 -0.11637505 0.043314707
51 -0.1870397 0.20753728 -0.25146243 0.11567653 -0.0100909695 -0.0846951 -0.008161447 0.31948668 -0.03211877 -0.097931094 -0.3410817 0.037086267 0.185025 -0.008613307 0.40845767 -0.24699458 -0.06334683 -0.04279042 -0.089521304 -0.0011792133 0.12878689 -0.21931 0.031365696 -0.109393746 -0.48742953 0.08725385 0.16398942 0.17904097 -0.20783484 0.08235607 0.17572623 -0.3414842 0.05128655 0.016184662 0.21205562 0.114055075 -0.26349714 -0.012574856 -0.1845999 0.086776316 -0.03565879 0.26220515 0.070108175 0.017466115 0.11572974 0.13464597 -0.075472966 -0.14687169 -0.08308247 0.31621245 -0.19792338 0.100805655 0.071497984 -0.19054349 -0.25601053 0.007396496 0.06896521 -0.34288338 -0.039445326 -0.11229665 0.10435299 -0.024215026 -0.10912026 0.04432127
9 -0.18556929 0.2062329 -0.24346085 0.10343267 -0.012601475 -0.09432947 -0.0057690353 0.32081723 -0.043224007 -0.086389765 -0.3490478 0.03065921 0.18393093 -0.012456895 0.4078357 -0.24840032 -0.06320932 -0.050417997 -0.09495153 -0.008978287 0.119048454 -0.22127081 0.029346714 -0.12274623 -0.48736733 0.0721347 0.16746356 0.18101229 -0.21185437 0.08374935 0.17136417 -0.33773884 0.045273885 0.023390826 0.22471648 0.11404282 -0.25669554 -0.022724597 -0.18886691 0.096392244 -0.035143886 0.26008907 0.05703967 0.021650508 0.11996744 0.13832425 -0.07792018 -0.14274447 -0.07428715 0.32503077 -0.20210972 0.104854666 0.061897818 -0.19463739 -0.25212917 -0.0025007627 0.063829824 -0.33737573 -0.030272305 -0.0997823 0.09602485 -0.02800864 -0.10848193 0.04777626
53 -0.17435215 0.20575626 -0.2518666 0.10366811 -0.012062015 -0.08167497 -0.01645844 0.32363787 -0.042888876 -0.09389279 -0.33898726 0.026277231 0.19078691 -0.014450206 0.41779348 -0.2465101 -0.06390024 -0.046968196 -0.08628258 -0.005182062 0.12158039 -0.22280666 0.031928737 -0.12220823 -0.47956207 0.07737774 0.16228396 0.190579 -0.2164474 0.08062254 0.17904676 -0.34625724 0.06331225 0.022837445 0.21397732 0.11801879 -0.27177247 -0.0098774275 -0.19371651 0.08827473 -0.033981483 0.2533882 0.0714533 0.032865345 0.11139275 0.14746386 -0.07267086 -0.1495718 -0.0814826 0.33267316 -0.19467647 0.10081812 0.064572476 -0.1801979 -0.26143286 0.0054478403 0.06740732 -0.3331135 -0.038806316 -0.11137988 0.10247167 -0.037661582 -0.12076446 0.046322312
18 -0.1807941 0.20696619 -0.24787116 0.10819859 -0.022180649 -0.08700159 -0.00784331 0.3255001 -0.03657558 -0.091751225 -0.34040582 0.02850617 0.18251875 -0.016706718 0.40464976 -0.24516025 -0.053553496 -0.04866849 -0.08747403 0.001013921 0.12897617 -0.21484686 0.021763086 -0.11568157 -0.4866355 0.07515483 0.16197044 0.19167224 -0.2146414 0.071073174 0.17233245 -0.33590302 0.053186048 0.020434244 0.22300667 0.104351036 -0.27325016 -0.009890759 -0.1959861 0.09130339 -0.04450207 0.2503065 0.059780214 0.032297663 0.11190618 0.1326682 -0.07304295 -0.14642644 -0.06717364 0.3260544 -0.19781972 0.09503183 0.06527019 -0.19359368 -0.25666586 -0.0009786912 0.07545416 -0.33132806 -0.035032116 -0.11661176 0.10103191 -0.032707658 -0.11692082 0.053712096
4 -0.18660516 0.20566176 -0.25588754 0.11766735 -0.0151010165 -0.0950865 -0.0058608647 0.32680055 -0.04668337 -0.091910444 -0.3465985 0.027738253 0.18828072 -0.017598482 0.40534392 -0.24387589 -0.05294592 -0.048583332 -0.09656342 -0.004957202 0.12425394 -0.21253613 0.02506182 -0.12348094 -0.4866529 0.0772537 0.15603621 0.19069295 -0.21494141 0.07365779 0.1796144 -0.3324525 0.06398413 0.028351238 0.21919887 0.100005955 -0.27106464 -0.01487278 -0.19887486 0.092974424 -0.043123085 0.26139036 0.058672428 0.02149198 0.11510513 0.13632761 -0.071455985 -0.13934417 -0.07495457 0.32960165 -0.20795365 0.103240855 0.06762021 -0.19360723 -0.25187144 0.004827469 0.07898609 -0.3259459 -0.030779878 -0.105515145 0.1026444 -0.022874732 -0.10710157 0.04364947
33 -0.17483482 0.19960164 -0.24390414 0.109433345 -0.0070595876 -0.083740555 -0.001556685 0.323612 -0.041428015 -0.088917255 -0.3503198 0.02344219 0.182783 -0.0145547455 0.39665902 -0.24822952 -0.059226297 -0.048289474 -0.09802896 0.005435941 0.12530726 -0.23051937 0.02884537 -0.11115773 -0.47637406 0.07152834 0.16337669 0.18683489 -0.22412063 0.07036713 0.18348767 -0.3390169 0.051714964 0.023123343 0.2238259 0.10890111 -0.26954496 -0.011614538 -0.19405341 0.096890226 -0.045021325 0.25685146 0.074540205 0.035835996 0.12031547 0.14451319 -0.07684063 -0.14615276 -0.075006805 0.3221046 -0.20783308 0.097590424 0.07479305 -0.19395615 -0.25303644 -0.006855372 0.065295376 -0.32749397 -0.040067416 -0.10135931 0.101245366 -0.033826396 -0.117993265 0.058536567
25 -0.1801296 0.2005741 -0.25904593 0.109064095 -0.015480769 -0.096770786 -0.012418262 0.33070797 -0.047074676 -0.09429501 -0.34173742 0.029535603 0.179857 -0.014045017 0.40193594 -0.23755619 -0.06082351 -0.056960233 -0.08969386 0.0051114955 0.1137395 -0.22228964 0.0320293 -0.12393419 -0.48344502 0.08050577 0.1646886 0.18320495 -0.22317931 0.0835146 0.17887868 -0.34279066 0.06338173 0.020393528 0.22238843 0.116459474 -0.27322114 -0.012969057 -0.19276907 0.097778134 -0.03551108 0.2644253 0.060446665 0.030546708 0.120195165 0.13591844 -0.072889455 -0.13858195 -0.08492638 0.329156 -0.20861402 0.09390994 0.061136324 -0.19171827 -0.26171213 -0.0015684185 0.075018376 -0.33047846 -0.041768815 -0.11002468 0.098339446 -0.02887058 -0.111592576 0.04509664
77 -0.18605205 0.19842634 -0.25393143 0.11827419 -0.01947121 -0.08167999 -0.008789035 0.31442943 -0.048110425 -0.09069615 -0.33761322 0.033694323 0.18301165 -0.0048714206 0.40628803 -0.25188333 -0.062941186 -0.04830454 -0.10208215 0.004439414 0.117023416 -0.21989955 0.019898884 -0.11075305 -0.48853192 0.07938244 0.15425207 0.17698912 -0.21039356 0.08089972 0.188258 -0.3439055 0.056122113 0.028167477 0.22435181 0.10764977 -0.2675397 -0.02317632 -0.1978241 0.09408317 -0.034497436 0.25723603 0.06272055 0.02475168 0.11237603 0.14649263 -0.06828315 -0.1379212 -0.080502294 0.31571254 -0.19597757 0.09232844 0.07221484 -0.19301818 -0.25413486 0.00018109665 0.07332372 -0.3259151 -0.03238078 -0.104947045 0.10959917 -0.019990895 -0.115446225 0.044861205
6 -0.17077358 0.2005686 -0.24979492 0.11243795 -0.014367922 -0.09404608 -0.014495031 0.31711015 -0.035357468 -0.09358442 -0.34495977 0.030874193 0.18398926 -0.013603513 0.40968144 -0.24460569 -0.05068002 -0.046763845 -0.09791854 0.0013464754 0.11867799 -0.21972172 0.02771495 -0.11227325 -0.4732713 0.07712032 0.15472755 0.18145652 -0.21856003 0.08029064 0.18032488 -0.33204612 0.066117495 0.018299038 0.22927374 0.115682624 -0.25760585 -0.012913983 -0.19033197 0.090829685 -0.040011182 0.25295788 0.07038889 0.024416745 0.12040444 0.13135496 -0.07045244 -0.12946777 -0.074324146 0.32130322 -0.19660595 0.103610516 0.06756519 -0.19348675 -0.2584779 -0.0035819544 0.060250785 -0.33127514 -0.044152584 -0.107899226 0.09756868 -0.030651096 -0.11020405 0.043376815
78 -0.17939228 0.19820209 -0.25311482 0.111054994 -0.020162478 -0.086611494 -0.010881662 0.31181958 -0.030949032 -0.09363858 -0.33114243 0.025643136 0.18541345 -0.012211278 0.4037733 -0.25353056 -0.051200338 -0.04325972 -0.09791695 0.003597689 0.12422969 -0.21981965 0.034920678 -0.11672475 -0.47544447 0.085084066 0.15913615 0.19258045 -0.21667196 0.07029817 0.17583907 -0.34129226 0.064961925 0.0236395 0.21575953 0.1211184 -0.2636036 -0.006892878 -0.195669 0.08757858 -0.048422243 0.26546267 0.07286037 0.02089098 0.12019243 0.13443817 -0.07049696 -0.13843189 -0.070569396 0.31495708 -0.19593997 0.101773076 0.070812166 -0.1908507 -0.25196317 0.007645337 0.0704431 -0.33489764 -0.03806178 -0.10660875 0.09911819 -0.02852728 -0.11854202 0.05153747
10 -0.18345682 0.20182878 -0.24896388 0.11136063 -0.020585995 -0.09479657 -0.012350887 0.3231837 -0.04203055 -0.08624922 -0.34522393 0.021249907 0.1881834 -0.013932949 0.40270224 -0.24231571 -0.055591602 -0.04378405 -0.09919981 0.00061619654 0.12799892 -0.2183469 0.026202803 -0.12249765 -0.48591045 0.07455614 0.16220126 0.19068179 -0.2083268 0.07428488 0.17136589 -0.33798105 0.061869416 0.02613467 0.22141548 0.103151664 -0.27133468 -0.019183734 -0.19727163 0.08378716 -0.04648922 0.26312566 0.0659486 0.025989803 0.11034499 0.14754085 -0.06553627 -0.13942076 -0.06824764 0.3213661 -0.20474742 0.10004109 0.070236854 -0.18188247 -0.24521512 0.008572308 0.067050934 -0.3380132 -0.033618502 -0.117253035 0.103655346 -0.034404337 -0.114271946 0.053634614
71 -0.17399636 0.18988682 -0.22644806 0.10010356 -0.010026077 -0.090577126 -0.008487263 0.30773354 -0.032213204 -0.0916503 -0.33487505 0.018799359 0.19219065 -0.02146059 0.40335718 -0.24707736 -0.054208655 -0.04898679 -0.09850422 -0.0067518926 0.12621191 -0.22521897 0.029334757 -0.12075781 -0.4774596 0.0784732 0.15654002 0.18485193 -0.21508025 0.07416156 0.17190747 -0.34508634 0.04560445 0.029294312 0.23084986 0.102571525 -0.26410303 -0.013506899 -0.1909703 0.091053516 -0.03581156 0.25305495 0.06378897 0.020222407 0.123024374 0.14351887 -0.06865782 -0.13797103 -0.07326623 0.31882817 -0.20157997 0.105145164 0.064390674 -0.18519785 -0.24742979 -0.0048124017 0.07243711 -0.34088597 -0.029382078 -0.11942222 0.1016724 -0.026782032 -0.114679635 0.059363313
67 -0.17983767 0.20667453 -0.24790326 0.11787381 -0.009535867 -0.09543222 -0.00028702136 0.31377184 -0.040449332 -0.0892602 -0.33613747 0.023757968 0.19184993 -0.013260932 0.4134764 -0.2469398 -0.053159554 -0.05156083 -0.10385949 -0.0026447317 0.13204457 -0.2172929 0.017510246 -0.107008405 -0.4741641 0.068945244 0.16867398 0.19135231 -0.20200957 0.08196562 0.18368876 -0.34420234 0.05863177 0.023354618 0.22115912 0.108827926 -0.26518995 -0.016297145 -0.19717465 0.08635621 -0.032701567 0.2621378 0.058508214 0.02424141 0.114952505 0.14305723 -0.07496139 -0.14066854 -0.071214534 0.3242519 -0.20636562 0.109749846 0.07599361 -0.18778966 -0.24868554 -0.0015957706 0.07299578 -0.33391216 -0.048155956 -0.10926877 0.10220627 -0.021123579 -0.10293963 0.04396591
23 -0.16752432 0.20346923 -0.25091222 0.11375136 -0.015934294 -0.08734415 -0.009957423 0.31888136 -0.0375937 -0.09314546 -0.33530262 0.034158565 0.18802738 -0.002289632 0.41228864 -0.24591145 -0.058259435 -0.05310162 -0.09849409 -0.008062634 0.11695691 -0.2173364 0.024218738 -0.12004553 -0.48084554 0.08803687 0.1578591 0.18201329 -0.21541277 0.077526264 0.17100343 -0.33978677 0.055553332 0.02155908 0.2200946 0.10665807 -0.26930916 -0.012545234 -0.19194783 0.09169042 -0.03637978 0.25773895 0.07552609 0.032352977 0.11340046 0.14044426 -0.066309474 -0.14649712 -0.080998175 0.3333808 -0.20091693 0.09918288 0.06175988 -0.18742298 -0.24707252 -0.0021095767 0.07108726 -0.33371902 -0.03585642 -0.11758725 0.09235512 -0.032904 -0.11968384 0.04374845
8 -0.16835244 0.19552009 -0.25252816 0.1086879 -0.013827211 -0.09518701 -0.0069613163 0.31962577 -0.049913056 -0.09778965 -0.34045494 0.035447598 0.18147033 -0.016311646 0.40602618 -0.2452459 -0.05062971 -0.052965667 -0.0920708 0.004720871 0.11601152 -0.21661851 0.032457158 -0.123625696 -0.48506978 0.08034197 0.15603085 0.18362981 -0.20823245 0.08518876 0.18974614 -0.34359255 0.05507945 0.021720348 0.22944881 0.11612154 -0.2623684 -0.0063960426 -0.19232668 0.098843575 -0.039129302 0.25890368 0.06802635 0.032407884 0.12543039 0.13619728 -0.073636495 -0.14917397 -0.07389954 0.33061105 -0.20102146 0.10401353 0.06597516 -0.18166998 -0.24775457 -0.0055595026 0.065077 -0.33379722 -0.045474343 -0.11080897 0.09346728 -0.021940662 -0.10866731 0.041229106
42 -0.1804557 0.18931887 -0.24926299 0.11753398 -0.020911474 -0.07851679 -0.002620857 0.3168418 -0.04419333 -0.10334725 -0.34389055 0.0375371 0.19382015 -0.011574229 0.41792023 -0.25088394 -0.05035315 -0.042001992 -0.09540741 -0.0028155774 0.11924898 -0.22065593 0.020552881 -0.1147137 -0.46711066 0.07236516 0.16551657 0.18777429 -0.21927904 0.08071865 0.18441096 -0.34658593 0.058367155 0.022440203 0.22215487 0.11068575 -0.26615733 -0.015284552 -0.2026435 0.07942578 -0.038357615 0.2612103 0.07010439 0.03201826 0.11264727 0.14460513 -0.068278566 -0.14474079 -0.07283916 0.3300716 -0.198105 0.094209045 0.06265426 -0.19150865 -0.2596215 0.0039600506 0.06296089 -0.3267866 -0.044821743 -0.10986129 0.095613815 -0.023399455 -0.12062708 0.045275576
64 -0.16697517 0.18622492 -0.24124269 0.11159248 -0.006812451 -0.08196079 -0.0060227844 0.3176739 -0.039043058 -0.08661119 -0.353579 0.025392124 0.19139299 -0.0026741715 0.41760975 -0.24534272 -0.054074172 -0.047672525 -0.10300799 -0.005769893 0.1223722 -0.22564498 0.02499199 -0.11427226 -0.4846572 0.078053616 0.16496173 0.18174765 -0.21377006 0.06971422 0.1766356 -0.34748912 0.058572877 0.02748903 0.21484606 0.115141094 -0.26556244 -0.016019056 -0.19623142 0.08585636 -0.034760404 0.26541907 0.06542668 0.033320896 0.123046435 0.13542745 -0.06905729 -0.14938058 -0.06663813 0.32164654 -0.20194456 0.110188715 0.07132383 -0.18832108 -0.25495258 -0.0058013597 0.060420066 -0.32755196 -0.041564018 -0.103692286 0.09655323 -0.02442784 -0.10885407 0.04666853
46 -0.17649963 0.21021554 -0.24813549 0.106131464 -0.013470852 -0.08596781 -0.014039726 0.32282853 -0.04414673 -0.09209891 -0.34186152 0.035039432 0.18538731 -0.012018373 0.41394573 -0.24522778 -0.061686795 -0.04891177 -0.09506267 -8.461861e-05 0.12755352 -0.22216536 0.023756994 -0.12628187 -0.47871783 0.07868271 0.15174761 0.18202761 -0.21569152 0.07737799 0.17265274 -0.33610386 0.06244884 0.022258999 0.22560075 0.11705747 -0.25944856 -0.024000285 -0.19562641 0.09891605 -0.043837916 0.26669043 0.0610051 0.032969195 0.118789546 0.14313243 -0.0729054 -0.14590007 -0.06951202 0.32713524 -0.20211227 0.0967619 0.07452172 -0.19540767 -0.24997029 -0.0076508354 0.07461978 -0.33295152 -0.045746043 -0.104735196 0.09511427 -0.02673546 -0.115212 0.049261365
20 -0.18249595 0.19843219 -0.25769505 0.115784 -0.0043651457 -0.085209236 -0.009006807 0.31638062 -0.037247807 -0.09493413 -0.35460812 0.02569521 0.18357392 -0.005350471 0.4160033 -0.24682193 -0.058728945 -0.053907398 -0.098836645 0.00047429337 0.123606265 -0.23058091 0.024966072 -0.12870897 -0.47159442 0.08373597 0.17030872 0.1929231 -0.21745303 0.07817628 0.18003675 -0.3402681 0.052013837 0.024268012 0.21320271 0.11630115 -0.26883516 -0.02548159 -0.18662989 0.09003381 -0.035748497 0.26120982 0.062491704 0.027212542 0.10729868 0.14478135 -0.06867445 -0.14264359 -0.06422527 0.32956797 -0.19860001 0.10398262 0.07098465 -0.19514492 -0.25902316 -7.1898125e-05 0.066938035 -0.32583797 -0.044232126 -0.0975899 0.09789723 -0.028307065 -0.11207752 0.05197211
17 -0.1842598 0.20548037 -0.24947633 0.11277381 -0.020283269 -0.08224003 -0.01673301 0.32171512 -0.044307023 -0.0988095 -0.34320027 0.031529367 0.17851342 -0.0069267824 0.40791377 -0.24995771 -0.058148798 -0.056634773 -0.09894622 -0.0055499026 0.11952572 -0.21550708 0.025112081 -0.113314226 -0.47306085 0.07309038 0.15958594 0.17605297 -0.21911003 0.078030124 0.17844625 -0.348214 0.06486747 0.0143500995 0.22519696 0.10957119 -0.27442917 -0.022762125 -0.19422273 0.09160121 -0.04375175 0.25751567 0.06613471 0.014838651 0.11891896 0.13642062 -0.06647895 -0.13998656 -0.063467726 0.32682365 -0.19948451 0.09809522 0.071271695 -0.18262032 -0.26103383 -0.00537167 0.06285451 -0.33828962 -0.0420809 -0.09873379 0.10382255 -0.027455067 -0.10460557 0.038516585
92 -0.1824287 0.19771032 -0.2577723 0.10332958 -0.0075638653 -0.09102189 -0.009014323 0.3126275 -0.05169165 -0.08912093 -0.33874056 0.033321343 0.1938694 -0.015351561 0.4160181 -0.24582767 -0.05827583 -0.057888225 -0.09669423 0.0027291987 0.11934315 -0.22019793 0.022798328 -0.11080942 -0.4745327 0.08042675 0.16392067 0.1870448 -0.22031824 0.077690706 0.18283388 -0.3389122 0.05923947 0.02189993 0.21521851 0.10536565 -0.26593933 -0.013360054 -0.1998931 0.08255013 -0.036826104 0.2682954 0.06305459 0.032313343 0.12282518 0.14553328 -0.07021442 -0.1485509 -0.06722968 0.33023065 -0.19758177 0.093888246 0.075065725 -0.18585193 -0.24940991 -0.0011662528 0.06909934 -0.33919 -0.03791364 -0.103038795 0.09908519 -0.028942034 -0.11571751 0.052912883
12 -0.18543483 0.20623441 -0.24505901 0.11203997 -0.006047995 -0.08622762 -0.013635546 0.3223382 -0.0343463 -0.090193644 -0.34640613 0.022381473 0.181162 -0.0080514895 0.40068415 -0.2519667 -0.04949135 -0.04614778 -0.09745624 0.00071202405 0.11759018 -0.22309993 0.033377994 -0.11892625 -0.4824799 0.085149944 0.16514271 0.19537155 -0.21639739 0.06866888 0.18347788 -0.33936232 0.052591953 0.030367093 0.212009 0.11209891 -0.2617967 -0.012636371 -0.18882185 0.09615292 -0.04269193 0.25303984 0.05912989 0.026714241 0.11633265 0.14549044 -0.07108626 -0.13966233 -0.06345772 0.32421666 -0.19839033 0.103057146 0.075087175 -0.19259219 -0.25585544 -0.004640899 0.066601746 -0.34090853 -0.039042294 -0.10123466 0.104736 -0.020398598 -0.113568574 0.056525946
16 -0.18075602 0.20955633 -0.25874868 0.10992031 -0.009609434 -0.085536614 -0.0020420665 0.31999597 -0.035240248 -0.101550564 -0.33808076 0.021607473 0.18597208 -0.013605989 0.40905255 -0.24679902 -0.059834387 -0.046247408 -0.10122216 0.0018306603 0.11270469 -0.22331879 0.021491408 -0.12385019 -0.47299778 0.07134403 0.16327307 0.17860672 -0.20702836 0.08457078 0.17931929 -0.3436237 0.06309886 0.020810569 0.22577837 0.110537246 -0.2657857 -0.017364226 -0.20030917 0.08970781 -0.036175992 0.26220638 0.07130004 0.029131126 0.11251058 0.13453984 -0.07505881 -0.14246872 -0.08066129 0.326692 -0.19598521 0.10418119 0.07012815 -0.19058938 -0.24902976 0.001353218 0.0746505 -0.33529252 -0.04095395 -0.10681511 0.09109782 -0.033784218 -0.11354769 0.03929919
2 -0.17647849 0.19633384 -0.2438072 0.11144723 -0.015338977 -0.08868191 -0.008282232 0.30097252 -0.048265617 -0.09841254 -0.34172937 0.022723475 0.19560416 -0.005203034 0.4131293 -0.2502669 -0.051408887 -0.05232715 -0.09973537 -0.004399269 0.12325063 -0.2138981 0.018610962 -0.11226858 -0.48721415 0.083818704 0.16115023 0.1855365 -0.20931582 0.068979286 0.16548544 -0.3447229 0.05211411 0.015435185 0.22327739 0.10963445 -0.2750337 -0.016667029 -0.1899585 0.09173603 -0.03449387 0.26606184 0.07121823 0.026515752 0.11149211 0.13516016 -0.07264464 -0.1410991 -0.06544541 0.3269722 -0.20461766 0.100352675 0.06684704 -0.18178253 -0.2592051 0.0019769464 0.06580319 -0.33615798 -0.040278185 -0.104431584 0.10530529 -0.024053028 -0.11086582 0.04651012
74 -0.17759335 0.20437184 -0.24093254 0.109706394 -0.017604329 -0.08514082 -0.014642943 0.31249472 -0.043457348 -0.1005255 -0.3385908 0.025888806 0.18569092 -0.014083736 0.40826058 -0.24852745 -0.054456007 -0.05011346 -0.09985209 -0.0024177344 0.118383855 -0.22441767 0.03390515 -0.11058021 -0.48375687 0.07860289 0.17079045 0.1937466 -0.22329834 0.08107354 0.17504872 -0.34816974 0.055095818 0.020834878 0.22612174 0.11122206 -0.27840862 -0.019882986 -0.19412878 0.093613155 -0.03508806 0.2649968 0.06540772 0.028956432 0.116715044 0.14847344 -0.07909304 -0.13939 -0.07421869 0.3216112 -0.20248786 0.10524249 0.076821946 -0.1894966 -0.2550202 -0.0010520299 0.062391154 -0.33530864 -0.033308126 -0.10996327 0.103186466 -0.03453549 -0.11220638 0.055125825
96 -0.18909253 0.20752986 -0.24337748 0.111030996 -0.019525567 -0.09397119 -0.011322251 0.31904075 -0.040744573 -0.09809672 -0.34446883 0.030071441 0.18729173 -0.008072032 0.41115355 -0.25344515 -0.06747174 -0.044692934 -0.10034088 -0.00012234451 0.12393404 -0.21939588 0.033853117 -0.1218516 -0.475943 0.07958422 0.16469894 0.17910083 -0.2107382 0.07201818 0.1759522 -0.3344816 0.054134335 0.019548748 0.2129868 0.10632861 -0.25663716 -0.017754558 -0.19310017 0.09591896 -0.04040414 0.26120213 0.068642646 0.027720056 0.11973482 0.14300062 -0.07465975 -0.14365353 -0.07341348 0.32883707 -0.1994109 0.10118981 0.07515183 -0.18035302 -0.24835049 -0.0038599523 0.0744267 -0.33822665 -0.04602694 -0.10436129 0.09429461 -0.036469974 -0.10978129 0.055274572
81 -0.18318231 0.2020567 -0.24101299 0.10171141 -0.007948785 -0.08935246 -6.9863486e-06 0.31432357 -0.043689623 -0.09235696 -0.3507526 0.033291895 0.1863615 -0.012405249 0.4083595 -0.24508192 -0.055019513 -0.042752415 -0.09841265 0.00208755 0.12620321 -0.2154371 0.03055618 -0.115062036 -0.48161918 0.07726107 0.16751699 0.18804058 -0.21586654 0.08283295 0.18608913 -0.3435133 0.05042492 0.030638719 0.22668326 0.11335382 -0.26078182 -0.011013584 -0.19152677 0.09330033 -0.04486842 0.26261333 0.06512185 0.026275497 0.11988001 0.14049333 -0.073931076 -0.14051795 -0.07320807 0.32290664 -0.2013232 0.107563406 0.070458926 -0.18415403 -0.25061056 -0.00085892784 0.0769129 -0.33122942 -0.0421218 -0.10604056 0.10678725 -0.036754277 -0.11879434 0.054237165
27 -0.18270972 0.19271229 -0.2582002 0.11357778 -0.0074165384 -0.08943115 -0.0015896675 0.32029676 -0.042654812 -0.097711824 -0.33161983 0.025940416 0.18126887 -0.0151487915 0.40856242 -0.24861029 -0.06519066 -0.050155297 -0.09792668 0.005983465 0.12413461 -0.22257453 0.018726824 -0.11708156 -0.4762121 0.06955783 0.1589428 0.18186079 -0.20448817 0.08070037 0.17933434 -0.33935842 0.062279597 0.022405535 0.22406222 0.118594535 -0.26325706 -0.0061537283 -0.18530563 0.09719198 -0.042722117 0.26249295 0.055508263 0.030016819 0.11810436 0.13002345 -0.07384146 -0.13708305 -0.07517637 0.3266146 -0.1939614 0.1025214 0.07356498 -0.19338037 -0.25144917 -0.0075214035 0.07122911 -0.32418686 -0.044568907 -0.11320099 0.09998284 -0.029537002 -0.11585944 0.041715637
45 -0.18026651 0.19126797 -0.24296059 0.10807409 -0.0055320472 -0.07999798 -0.01455016 0.30739823 -0.048389737 -0.09395829 -0.3495732 0.034002595 0.1913979 -0.00023802064 0.41447404 -0.2457072 -0.06510243 -0.05101038 -0.09006715 0.0053478843 0.11499052 -0.2248435 0.022581575 -0.11429002 -0.4874266 0.08140122 0.16116305 0.18156251 -0.22137536 0.07632057 0.18458347 -0.34281677 0.051736552 0.015584228 0.21847561 0.10709307 -0.2575909 -0.018248579 -0.18870068 0.09838204 -0.03569437 0.26298898 0.066642955 0.023676826 0.11487438 0.14334422 -0.06250483 -0.1435584 -0.07874226 0.33195502 -0.20921482 0.10778927 0.06741861 -0.19608991 -0.258809 -0.007869723 0.06990864 -0.34185338 -0.040767606 -0.10522829 0.1083866 -0.02764198 -0.109084345 0.05287909
75 -0.17147991 0.20616233 -0.25386107 0.11564124 -0.023829635 -0.086834475 -0.005246483 0.31595045 -0.048238326 -0.08965159 -0.3522327 0.028932983 0.18272343 -0.0065692705 0.40763226 -0.25221056 -0.06388742 -0.053457566 -0.098516576 0.0035376425 0.13324426 -0.22776508 0.02590108 -0.1229788 -0.4724864 0.0792048 0.15343608 0.19377656 -0.22145338 0.07072434 0.18399195 -0.3307643 0.054099943 0.022270868 0.2166949 0.10533556 -0.25954258 -0.023315834 -0.19161002 0.09611526 -0.042422127 0.256708 0.06866646 0.026971355 0.10663476 0.14786044 -0.07063724 -0.1459086 -0.06971603 0.32533693 -0.21049114 0.09729927 0.06975398 -0.1879478 -0.24999143 -0.0046303803 0.06755842 -0.33691403 -0.03805747 -0.10681558 0.10711559 -0.031201454 -0.11171412 0.052264396
63 -0.17296243 0.2045555 -0.25209433 0.10600468 -0.008783068 -0.08017224 -0.0056700925 0.31461576 -0.03725751 -0.093063146 -0.34164998 0.038133167 0.18183358 -0.014238361 0.40754387 -0.24322754 -0.063834205 -0.04712147 -0.08679121 0.004006117 0.11327563 -0.21460208 0.025579171 -0.11369346 -0.47701097 0.082404405 0.1675638 0.1964271 -0.21881379 0.07826504 0.17666805 -0.3470712 0.055875633 0.028632054 0.22418393 0.11487702 -0.27137175 -0.012125776 -0.18530601 0.090028934 -0.03480068 0.25734606 0.071471855 0.02527493 0.11446252 0.15157823 -0.06670089 -0.13572079 -0.064143375 0.3261722 -0.19857107 0.09333153 0.066511326 -0.18335673 -0.25768736 0.0019290005 0.06919242 -0.3345077 -0.047731247 -0.10731655 0.09704668 -0.03424413 -0.12119153 0.050841358
80 -0.17888296 0.19686693 -0.24991892 0.11298204 -0.012082407 -0.09733244 -0.013501084 0.3226424 -0.045647956 -0.09866779 -0.34240472 0.03796705 0.19141734 -0.0036654512 0.40438783 -0.24709879 -0.06133429 -0.04245325 -0.08659494 -0.0005507212 0.12890941 -0.22835527 0.022849211 -0.122886196 -0.47713047 0.07303613 0.15810645 0.18511131 -0.21012975 0.080400035 0.17366181 -0.3391651 0.048761953 0.025115125 0.21768706 0.11266409 -0.2523056 -0.015547962 -0.19243826 0.08862166 -0.040569056 0.26608214 0.05684048 0.020495517 0.10796176 0.1289711 -0.061182782 -0.13990489 -0.075123906 0.3170675 -0.20358573 0.098849766 0.07016791 -0.18070361 -0.23872617 0.0067210225 0.07583117 -0.3221643 -0.027084367 -0.09968533 0.08844154 -0.03031696 -0.10609873 0.05109522
15 -0.18400088 0.20484845 -0.25589514 0.11441993 -0.020185433 -0.08511486 -0.015550902 0.3155875 -0.042746313 -0.094132245 -0.3383618 0.035525825 0.1889482 -0.015137406 0.41545 -0.24157923 -0.054321595 -0.046134185 -0.09424522 0.0063195694 0.13033555 -0.22384952 0.023397122 -0.12016201 -0.48007178 0.07028288 0.15705004 0.18721497 -0.22183448 0.07494198 0.17994457 -0.33178878 0.051755972 0.021765398 0.22141105 0.10370462 -0.26136622 -0.018968012 -0.19387247 0.086602785 -0.03853317 0.26368743 0.06592279 0.02238678 0.114586815 0.13447824 -0.0672947 -0.1388026 -0.08040628 0.3194426 -0.2001799 0.09209224 0.06487604 -0.18830577 -0.25331 0.0023374937 0.071547024 -0.33374918 -0.042046964 -0.11427729 0.096130356 -0.02963626 -0.117031984 0.043606732
87 -0.18505023 0.19529769 -0.24814656 0.11788755 -0.01480094 -0.09499815 0.00011683118 0.32704222 -0.04216588 -0.10099952 -0.33819443 0.029258672 0.1780719 -0.009747005 0.40156248 -0.24544278 -0.04702384 -0.047914974 -0.08899297 0.0060360953 0.11721764 -0.21945843 0.030537551 -0.12076513 -0.48340726 0.0772636 0.15618013 0.18619026 -0.21086222 0.07712905 0.18176715 -0.34878576 0.061148416 0.023892932 0.21976177 0.108888 -0.2575674 -0.004379332 -0.18889394 0.08494919 -0.039039146 0.2551481 0.0631376 0.03732721 0.12430497 0.1468504 -0.07261259 -0.1347754 -0.063600026 0.33061677 -0.19851789 0.09627645 0.06402016 -0.18355022 -0.25619206 -0.002480899 0.06614167 -0.32280922 -0.045259304 -0.10839827 0.10867863 -0.02359857 -0.120711744 0.056979984
32 -0.18584694 0.19956797 -0.24619442 0.115921095 -0.010173301 -0.09087602 -0.009162873 0.31890416 -0.03842872 -0.09072502 -0.33250186 0.02635738 0.1787746 -0.0072706016 0.41196364 -0.25500342 -0.06256138 -0.041932136 -0.098041475 0.0040114876 0.12308617 -0.21070746 0.022442106 -0.11756328 -0.4806098 0.07089372 0.15517637 0.19245045 -0.21897642 0.082851365 0.18194355 -0.34016237 0.05808286 0.024793737 0.22195317 0.117225505 -0.26257473 -0.018330723 -0.18379964 0.09551466 -0.043961685 0.2646307 0.058415055 0.032090206 0.114454225 0.13879251 -0.06524824 -0.14739592 -0.07596167 0.3167948 -0.19786625 0.10331805 0.07570641 -0.19290163 -0.25142938 0.0014494102 0.07023669 -0.32546952 -0.04118949 -0.10957824 0.09502079 -0.033702906 -0.10950526 0.05003177
82 -0.17453839 0.19783023 -0.24219863 0.0977833 -0.014500749 -0.09002307 -0.0061262613 0.3056932 -0.03617903 -0.094698854 -0.335549 0.036189746 0.19334397 -0.010491833 0.4088965 -0.2520055 -0.061166503 -0.046134062 -0.09987785 0.00553164 0.11913734 -0.22074546 0.023958595 -0.117606536 -0.47097838 0.07599199 0.15789501 0.19154276 -0.21666387 0.069163196 0.1745944 -0.3372094 0.05765354 0.017802503 0.22347035 0.110473886 -0.26048875 -0.01760787 -0.18898974 0.084593855 -0.0373848 0.26747093 0.07404902 0.026976554 0.111068755 0.13719791 -0.07507755 -0.1397341 -0.0711631 0.32393053 -0.20065 0.10512094 0.063538015 -0.19205508 -0.25182003 -0.0010671765 0.0714181 -0.3337902 -0.036458753 -0.10799688 0.09413794 -0.032670237 -0.10968563 0.05214821
31 -0.17884092 0.20514254 -0.2519528 0.113641754 -0.022186829 -0.09506849 -0.009111656 0.31416398 -0.048037145 -0.093507364 -0.34664518 0.037484024 0.18669257 -0.0010872538 0.40449443 -0.24790566 -0.054779515 -0.046021637 -0.09143234 0.004511067 0.11901406 -0.21524717 0.029607054 -0.11339005 -0.47764656 0.08081642 0.16364238 0.19124518 -0.21659495 0.0751118 0.18229565 -0.3414938 0.054106478 0.023138624 0.22884306 0.117661335 -0.2655133 -0.021473503 -0.19405048 0.09155039 -0.037560064 0.2622569 0.07130591 0.024208568 0.11523148 0.13514009 -0.07304021 -0.13767853 -0.068176106 0.32516104 -0.20567858 0.09509082 0.07326937 -0.19200133 -0.25653002 -0.0050978954 0.060698982 -0.3285326 -0.046923976 -0.111497596 0.09310277 -0.024447402 -0.11571147 0.04760533
83 -0.17813653 0.19422348 -0.25406688 0.10539907 -0.017269058 -0.0824827 -0.0030449787 0.31884256 -0.04905122 -0.09067283 -0.33753657 0.019220036 0.18288483 -0.020430766 0.41337574 -0.25408652 -0.05867272 -0.05642406 -0.08878639 0.00850353 0.13131085 -0.21695565 0.024660135 -0.107265495 -0.48645744 0.083164 0.15130751 0.19283919 -0.21070676 0.07651193 0.17785555 -0.33708334 0.05247346 0.027618969 0.22875176 0.10711766 -0.2745091 -0.015191317 -0.19843651 0.09477836 -0.03505607 0.25934651 0.062311225 0.022964496 0.12137719 0.14431608 -0.06767907 -0.14620022 -0.0807826 0.31274104 -0.207085 0.09168754 0.07695284 -0.18887305 -0.2541909 0.004960985 0.06574925 -0.33614266 -0.029889964 -0.11180576 0.10380711 -0.02029792 -0.10380986 0.050890993
52 -0.17664845 0.2031 -0.24885985 0.115847155 -0.017171927 -0.08144611 -0.015030814 0.3134639 -0.035172686 -0.09609648 -0.34200522 0.03582598 0.19277619 -0.0085052615 0.40143836 -0.24125831 -0.055681907 -0.040802103 -0.102106854 0.0057968316 0.11425601 -0.22604737 0.025164388 -0.1251435 -0.46832833 0.07544303 0.15948455 0.18838693 -0.21494578 0.08325385 0.17143452 -0.33893406 0.053494904 0.030303013 0.21085946 0.10919612 -0.2578462 -0.01821787 -0.19748645 0.09473652 -0.042261582 0.26411042 0.06190555 0.02109594 0.11847909 0.13540745 -0.06742939 -0.13829648 -0.077317014 0.32905728 -0.19619177 0.104898654 0.064919725 -0.19299367 -0.2518226 0.007259282 0.07193228 -0.33856446 -0.04715912 -0.11414881 0.09967876 -0.034859646 -0.11267803 0.045669973
57 -0.18529205 0.20108858 -0.25372687 0.112922154 -0.0089081675 -0.09631001 -0.012407709 0.3229075 -0.0426823 -0.09268381 -0.34167677 0.029996514 0.19059908 -0.013327643 0.40800104 -0.24571465 -0.06283547 -0.052082643 -0.09279179 -0.0035947645 0.122855276 -0.21720739 0.024854433 -0.12605666 -0.47950697 0.08458802 0.16861267 0.19063458 -0.21573369 0.08036406 0.17551488 -0.3409772 0.05570472 0.031121224 0.22794916 0.115187354 -0.2646879 -0.0134199215 -0.19677094 0.08069915 -0.047528837 0.25516227 0.056531556 0.028099839 0.12072803 0.14613208 -0.0666728 -0.14117071 -0.08077994 0.32663432 -0.19797097 0.10260319 0.06435076 -0.18949167 -0.25309652 0.008278123 0.07374536 -0.32603544 -0.037011087 -0.10236213 0.09726051 -0.025172584 -0.11053857 0.055764314
99 -0.17802039 0.2024707 -0.2602166 0.111560315 -0.015152093 -0.07897363 -0.0035002392 0.3214494 -0.044462573 -0.09911564 -0.3541227 0.037262123 0.18494235 -0.0068394425 0.41570196 -0.24656457 -0.058892746 -0.045018252 -0.08771759 -0.0014871414 0.123881795 -0.21509244 0.03301952 -0.12406432 -0.4870219 0.07934636 0.15420315 0.1819486 -0.21741861 0.08065159 0.18340017 -0.35019436 0.054619897 0.017140513 0.22379003 0.11023114 -0.27328858 -0.017164402 -0.19342393 0.09306584 -0.043962166 0.2582945 0.06693584 0.020077493 0.11036787 0.1449682 -0.06838486 -0.13618965 -0.06986939 0.3209508 -0.19334088 0.095804 0.06574803 -0.19117992 -0.24883635 0.003791034 0.07427859 -0.34089592 -0.037117485 -0.111175835 0.110163786 -0.022130432 -0.10937968 0.038663406
21 -0.1844552 0.19121571 -0.25125498 0.10650761 -0.01863503 -0.08647505 -0.0015903165 0.31998342 -0.042242765 -0.0899296 -0.35195598 0.024356078 0.19032899 -0.011085922 0.4124055 -0.24980922 -0.055365518 -0.05087598 -0.10109117 -0.0028590297 0.13144483 -0.227861 0.034016855 -0.110490434 -0.47660843 0.07587079 0.1559884 0.18611553 -0.21562557 0.07172748 0.18335627 -0.3336249 0.05064003 0.025305364 0.2262141 0.11727879 -0.26797473 -0.01350815 -0.18643582 0.08715529 -0.045776702 0.2617873 0.06322222 0.028567653 0.114978954 0.14121586 -0.06774542 -0.14558516 -0.078356706 0.31383723 -0.20405777 0.092439264 0.06994605 -0.18826099 -0.24843313 -0.0031559127 0.07448987 -0.32592374 -0.04125894 -0.101528995 0.10049787 -0.03237111 -0.117941976 0.052878834
55 -0.18021494 0.20702443 -0.25352633 0.10378102 -0.0149805145 -0.081570044 -0.013172135 0.3217834 -0.042617656 -0.10096757 -0.34574732 0.030995958 0.1828167 -0.0124762 0.41593385 -0.24913116 -0.05933419 -0.052411616 -0.092260465 -0.006111968 0.11538306 -0.21958408 0.025471529 -0.112501346 -0.48189902 0.08306803 0.16087888 0.19274218 -0.21069175 0.0773864 0.17621033 -0.34538046 0.05311652 0.015950438 0.21865058 0.114707924 -0.2671237 -0.02183578 -0.19626087 0.085091114 -0.040669963 0.2637802 0.07287542 0.022369612 0.12063461 0.14016108 -0.07308895 -0.1369762 -0.073591575 0.31656632 -0.1955959 0.10013039 0.075764365 -0.18616131 -0.24668841 0.0038283907 0.065554276 -0.337909 -0.046369128 -0.09884976 0.10070958 -0.0274876 -0.119766064 0.05012426
98 -0.17575243 0.19747223 -0.24521911 0.10462712 -0.019241044 -0.0916915 -0.007262886 0.30914187 -0.04876719 -0.09943711 -0.3443727 0.03517529 0.18935324 -0.0068422346 0.39707878 -0.2500425 -0.05913979 -0.041009586 -0.09760005 -0.004867743 0.121216044 -0.22074288 0.03307457 -0.12368285 -0.48273242 0.081296355 0.15755287 0.19218051 -0.21818584 0.06973683 0.18320133 -0.34716603 0.051750857 0.015497832 0.21766183 0.11163444 -0.2641123 -0.019226464 -0.1965701 0.08911382 -0.04591641 0.25868952 0.06492199 0.032110278 0.12112931 0.13628015 -0.063370004 -0.13726918 -0.067842014 0.32866096 -0.2049907 0.10681079 0.070944026 -0.19462566 -0.2560944 -0.0011237873 0.068864144 -0.3321935 -0.03580399 -0.103157446 0.09280311 -0.03139325 -0.115839384 0.04985287
61 -0.1872491 0.20466009 -0.25493225 0.11226777 -0.018419655 -0.09387509 -0.013610759 0.31696787 -0.05170761 -0.094898045 -0.34804428 0.034649577 0.19416697 -0.0036383637 0.41312057 -0.2536673 -0.0628684 -0.052983373 -0.09100845 -0.0057127653 0.12570383 -0.22333953 0.028241845 -0.12622195 -0.486676 0.081680134 0.16384336 0.18401393 -0.21021017 0.083431356 0.16943794 -0.34402815 0.049725845 0.018073421 0.2198311 0.11599201 -0.27402025 -0.011567405 -0.19417535 0.08984985 -0.03992654 0.25283462 0.061611954 0.018831154 0.11760617 0.13769299 -0.06637711 -0.14352386 -0.073725194 0.32886723 -0.20000616 0.09503099 0.072333984 -0.19158824 -0.24438679 -0.006082089 0.071620695 -0.33104342 -0.040726997 -0.10380514 0.101423286 -0.032956388 -0.113723636 0.051013272
54 -0.17990841 0.20092705 -0.23314746 0.115876086 -0.019404883 -0.087809496 -0.012691929 0.30799413 -0.0373654 -0.089828946 -0.3350243 0.034111135 0.19249918 -0.0034493837 0.40264344 -0.25550413 -0.05127299 -0.04401635 -0.087621026 -0.001493811 0.13149993 -0.21433114 0.033549193 -0.116275534 -0.48703897 0.08483643 0.15952326 0.18929842 -0.20732309 0.07444482 0.17634507 -0.34698746 0.058027226 0.025658675 0.22134176 0.11079129 -0.27329716 -0.012420292 -0.19363472 0.093260676 -0.046335332 0.25986546 0.05750839 0.02852621 0.114836946 0.14187436 -0.0629252 -0.14559719 -0.07529995 0.31776813 -0.2065089 0.1001042 0.078318015 -0.18471691 -0.24656063 -0.0061229058 0.065042384 -0.34111902 -0.034631807 -0.10882918 0.10067481 -0.021401962 -0.10983352 0.049368944
36 -0.1812571 0.19577459 -0.24585193 0.111743785 -0.0063223145 -0.08394557 -0.009002199 0.30179298 -0.046304293 -0.0925032 -0.3405812 0.025184168 0.1798678 -0.011448489 0.40169525 -0.25156143 -0.063844815 -0.047627605 -0.09791228 0.0052369013 0.12188664 -0.21353555 0.020015227 -0.124277614 -0.48172212 0.07088497 0.16304408 0.19013163 -0.22430335 0.07665692 0.18487951 -0.33377042 0.05244729 0.025946671 0.21470843 0.10774481 -0.26005593 -0.024072507 -0.1892138 0.095476024 -0.04569772 0.25014618 0.06376504 0.028193736 0.11775182 0.1455789 -0.065605186 -0.14202276 -0.081476435 0.32884392 -0.20265962 0.10580604 0.070889704 -0.1890382 -0.25030226 4.0633577e-06 0.07075688 -0.33694196 -0.03829435 -0.11388552 0.10725009 -0.023893263 -0.122247346 0.05294603
69 -0.1835838 0.21079734 -0.25507572 0.11964632 -0.01891863 -0.08788999 -0.006622785 0.31883165 -0.044454724 -0.09783954 -0.34316093 0.03908545 0.17818931 -0.004748983 0.40715384 -0.25049657 -0.056880355 -0.056889758 -0.09312474 -0.008502784 0.1258359 -0.22453995 0.03354505 -0.11403748 -0.468849 0.07924853 0.15698037 0.1945317 -0.21036626 0.08544769 0.17817305 -0.336487 0.06312974 0.018450482 0.22890483 0.11596349 -0.27116165 -0.010881853 -0.19256529 0.09872641 -0.030928383 0.25334838 0.058415942 0.03356928 0.12066467 0.13187657 -0.07804649 -0.14682144 -0.07556227 0.3282781 -0.20517802 0.10278206 0.07365899 -0.18304874 -0.25391418 0.0059702643 0.06657397 -0.3370307 -0.03842865 -0.10789466 0.09792967 -0.027917052 -0.105072185 0.040534798
28 -0.18845686 0.1948348 -0.254576 0.119440004 -0.019957108 -0.08910643 -0.01577528 0.32936665 -0.035832092 -0.086456574 -0.34492657 0.025439482 0.18030784 -0.015731946 0.41286665 -0.24408674 -0.04871388 -0.053714663 -0.09927339 0.0052037286 0.12484404 -0.2260471 0.024725506 -0.11565102 -0.48156315 0.07821327 0.1527922 0.17892541 -0.20655313 0.08360509 0.18075085 -0.34753954 0.049386386 0.02621321 0.22043568 0.11664305 -0.27020884 -0.014730914 -0.19034696 0.09482237 -0.040092267 0.26435685 0.06490922 0.020234354 0.12039502 0.13616773 -0.0720065 -0.14453362 -0.07333237 0.32074532 -0.19211796 0.09296383 0.072922334 -0.18429275 -0.25744715 -0.0028664875 0.0616013 -0.33575013 -0.034113012 -0.11207748 0.09275012 -0.020231124 -0.10514299 0.056791604
48 -0.18209185 0.21027397 -0.24473865 0.108520396 -0.016147057 -0.08938935 -0.009472944 0.31840223 -0.035099868 -0.095079206 -0.34933195 0.02952507 0.1950407 -0.0059265853 0.41153002 -0.2467774 -0.06009273 -0.052419532 -0.0846396 -0.0036190064 0.11922796 -0.22002508 0.031426556 -0.1272823 -0.47898337 0.07959415 0.16524002 0.18277931 -0.21043603 0.07871054 0.17914625 -0.34086114 0.05264265 0.018356163 0.22206718 0.11483562 -0.2620702 -0.008667518 -0.19394383 0.09475753 -0.044014256 0.2683581 0.058231875 0.027899308 0.12141038 0.15051228 -0.065025024 -0.14311323 -0.07173445 0.33240017 -0.20365466 0.10339983 0.07118069 -0.19280997 -0.24877577 -0.006371212 0.07232838 -0.33600482 -0.03983356 -0.11208868 0.092073515 -0.023488844 -0.11771947 0.050917733
43 -0.16971269 0.19041969 -0.23702523 0.1074838 -0.017755127 -0.084501766 -0.0101200435 0.31391525 -0.045199987 -0.0962365 -0.34558147 0.03412175 0.1877445 -0.010783701 0.42029843 -0.25111228 -0.06439005 -0.050835423 -0.10479895 0.003932197 0.120686606 -0.22455908 0.035324756 -0.12338297 -0.47353417 0.07519277 0.15800829 0.19076982 -0.20936261 0.07502041 0.1735487 -0.34078828 0.06374006 0.02616107 0.22205222 0.113064006 -0.25937444 -0.019319832 -0.19407597 0.09719043 -0.03770962 0.2576823 0.069116205 0.033011235 0.117614515 0.13817672 -0.06583328 -0.14596473 -0.07999625 0.32438484 -0.19840145 0.09551038 0.0770636 -0.18109648 -0.25683916 -0.007299366 0.07166876 -0.33844334 -0.032001246 -0.10126912 0.09865551 -0.022737382 -0.1086643 0.05167711
41 -0.18575191 0.20082155 -0.24475837 0.10339714 -0.020486137 -0.07938422 -0.018836476 0.3277424 -0.045664214 -0.09703204 -0.34497195 0.034120705 0.18927988 -0.015475745 0.4181316 -0.23851605 -0.0559133 -0.048028056 -0.0965271 0.005459492 0.12703866 -0.22048847 0.032483432 -0.11456531 -0.48002094 0.08348259 0.15863857 0.18765916 -0.22470018 0.082799196 0.18136244 -0.34278256 0.054511942 0.027783118 0.22285444 0.10289037 -0.27635825 -0.009278626 -0.18752998 0.10013234 -0.04155372 0.25758433 0.057756275 0.032619063 0.11395727 0.1477036 -0.07893267 -0.1487428 -0.07154825 0.31887442 -0.20281866 0.10355136 0.07602665 -0.19260369 -0.260515 -0.0038234105 0.080409914 -0.33355534 -0.032642487 -0.1115141 0.10048845 -0.030218681 -0.11057659 0.044825844
47 -0.17037046 0.20326625 -0.23681779 0.09816907 -0.009466436 -0.0892495 0.0011049341 0.31981596 -0.037106395 -0.09134087 -0.3460527 0.02069899 0.18987393 -0.012890111 0.39962494 -0.24625291 -0.054954868 -0.042584386 -0.090022124 -0.003362836 0.12659582 -0.22361135 0.019432377 -0.11557457 -0.48732033 0.0833343 0.16210158 0.18183595 -0.20732114 0.08188241 0.18248686 -0.3387902 0.051573385 0.02992672 0.23012798 0.11453803 -0.26549 -0.012591781 -0.19476202 0.08989912 -0.04885329 0.26410097 0.06482481 0.028331848 0.12237004 0.13985789 -0.07473716 -0.14841023 -0.079641245 0.32916683 -0.2060359 0.10296351 0.06766548 -0.18727209 -0.25021556 0.0014513751 0.06432689 -0.33521843 -0.04167782 -0.11396118 0.09766873 -0.031500444 -0.11350694 0.058701575
11 -0.1921533 0.19609168 -0.24685232 0.10297922 -0.018870043 -0.09077019 -0.010799405 0.33156973 -0.036257893 -0.101644605 -0.3488681 0.022420662 0.19284932 -0.018187437 0.40319043 -0.24807888 -0.06581884 -0.041466895 -0.09838803 0.0015652269 0.124544494 -0.22561617 0.023070017 -0.11527591 -0.46815312 0.074696146 0.16169482 0.18424992 -0.21186659 0.07104932 0.1798873 -0.33680966 0.053588804 0.022374589 0.21728592 0.102239355 -0.25586835 -0.021239934 -0.19680193 0.084014334 -0.039544296 0.2504389 0.05766844 0.030159663 0.12190693 0.1451274 -0.073921934 -0.13578133 -0.08023279 0.31705564 -0.20082887 0.09962765 0.063108526 -0.18938456 -0.25916073 0.009502981 0.064741835 -0.32688588 -0.03448271 -0.09936212 0.09312074 -0.024229806 -0.114577875 0.053412475
68 -0.17615521 0.20456313 -0.2540764 0.10858088 -0.009103457 -0.090411514 -0.016667694 0.32140726 -0.044793457 -0.09072967 -0.3486466 0.03661538 0.1922052 -0.01618236 0.40290847 -0.24040599 -0.054585457 -0.044172436 -0.09150038 0.002411936 0.122642994 -0.2177988 0.027332531 -0.1129924 -0.47942585 0.08048674 0.16755569 0.18206382 -0.21040158 0.07828629 0.17510217 -0.34135637 0.05803623 0.024013858 0.22005047 0.10790616 -0.26779225 -0.021204881 -0.18093356 0.08622685 -0.038750425 0.25884807 0.06358646 0.024625214 0.116406634 0.14556295 -0.0653864 -0.13310708 -0.06863572 0.3293306 -0.20123884 0.09218406 0.06672791 -0.18853067 -0.24709596 0.0001446397 0.06452036 -0.33379507 -0.041789558 -0.10178513 0.10282219 -0.028466014 -0.106954485 0.048473913
72 -0.17838714 0.20261803 -0.2511368 0.11227041 -0.01913785 -0.0913014 -0.007270557 0.31415826 -0.03952886 -0.10146576 -0.34450155 0.038623054 0.18401873 -0.008222983 0.41099685 -0.24715537 -0.057605743 -0.044696324 -0.09405463 0.0050295605 0.11499574 -0.22487861 0.035839602 -0.12161365 -0.4722333 0.08086353 0.15894482 0.19017436 -0.20804586 0.0822559 0.17744534 -0.34446055 0.054352123 0.03104285 0.2246064 0.103039585 -0.26447293 -0.010299318 -0.19254166 0.08186274 -0.036543585 0.25891563 0.067012444 0.034427296 0.11311886 0.14508583 -0.061076812 -0.14841357 -0.07594763 0.3265227 -0.2046597 0.0959365 0.0764264 -0.18214731 -0.24919268 0.0033745833 0.06521763 -0.32309106 -0.0351533 -0.099550515 0.09499882 -0.035643075 -0.11421581 0.053080603
26 -0.18345349 0.20988922 -0.25127226 0.11111357 -0.0043245303 -0.09729581 -0.006497081 0.323957 -0.04548956 -0.087129354 -0.34043655 0.020579694 0.19003183 -0.010421913 0.39885294 -0.25148943 -0.052588094 -0.03985689 -0.088406384 -0.0066686077 0.114098325 -0.21639664 0.033548906 -0.12349827 -0.48054516 0.07957517 0.15878645 0.18995938 -0.21899958 0.07004108 0.18486331 -0.33477554 0.053493436 0.01596752 0.22461146 0.11141602 -0.267965 -0.013962807 -0.19652356 0.09001767 -0.042624168 0.25415412 0.060884178 0.036630765 0.11573974 0.14722244 -0.065915205 -0.13405168 -0.08115132 0.32534403 -0.20491552 0.10349149 0.06461769 -0.19534877 -0.24723804 -0.0070542623 0.07094334 -0.32892957 -0.044042915 -0.11323446 0.09587626 -0.028398143 -0.114048146 0.053282455
39 -0.17315179 0.20052528 -0.25063246 0.11100069 -0.0131131755 -0.08871387 -0.007908905 0.3140199 -0.046343423 -0.09913212 -0.35064542 0.027903158 0.18701603 -0.013338401 0.40324953 -0.25145108 -0.063999355 -0.041931793 -0.09729947 -0.0093027 0.11873271 -0.22383803 0.023103101 -0.11355215 -0.47089225 0.07533688 0.16648395 0.18589953 -0.21788935 0.07780329 0.1787796 -0.34438482 0.059675112 0.021116015 0.2288559 0.11363115 -0.27100703 -0.018852692 -0.19149977 0.08641638 -0.0473446 0.26318848 0.07146906 0.02961844 0.12217478 0.13145952 -0.07332556 -0.14135301 -0.06420638 0.32797542 -0.20702213 0.10467813 0.06249205 -0.18430999 -0.24643266 0.00060980546 0.06432841 -0.33688244 -0.041168075 -0.10927158 0.08963331 -0.0228539 -0.10668392 0.046908874
65 -0.18589097 0.20701718 -0.2535522 0.115611106 -0.017070863 -0.09196127 -0.012435792 0.31733114 -0.03867977 -0.10402289 -0.3433884 0.030027531 0.1891337 -0.009081427 0.41283882 -0.2426539 -0.065057985 -0.056867257 -0.09420133 -0.002534327 0.11543748 -0.22282992 0.038998038 -0.12238567 -0.47819808 0.08287891 0.1618426 0.19199106 -0.21650487 0.07343508 0.17533946 -0.33841747 0.051446185 0.029541349 0.21940883 0.11361786 -0.2713331 -0.024421366 -0.18400718 0.09883687 -0.035094693 0.25087366 0.07163762 0.018532014 0.10967154 0.13274457 -0.07512935 -0.1411499 -0.07811713 0.3249287 -0.2061711 0.096909195 0.06560504 -0.18606976 -0.2569641 0.005670372 0.061555617 -0.33984795 -0.037069257 -0.11315957 0.09569808 -0.026544841 -0.11538222 0.050265025
84 -0.17471206 0.20293163 -0.2394579 0.10358608 -0.005190057 -0.09437963 -0.019285377 0.31374517 -0.04861996 -0.10036788 -0.34764057 0.025220616 0.19247593 -0.013909391 0.40511551 -0.25107133 -0.05339202 -0.045792274 -0.103272066 -0.0029912803 0.11533427 -0.21735501 0.030002186 -0.12852526 -0.47223797 0.08324184 0.16671033 0.19547166 -0.21092755 0.08570317 0.17470059 -0.34658432 0.06348144 0.020221014 0.21545511 0.121941276 -0.26660794 -0.022481075 -0.20106766 0.084468395 -0.040418237 0.2635576 0.0714407 0.03131725 0.111475505 0.13956614 -0.06354346 -0.14779998 -0.07633579 0.32861018 -0.2015508 0.09619443 0.061479885 -0.18426268 -0.2606706 -0.0007785677 0.07354834 -0.3339458 -0.033338103 -0.10318659 0.096708834 -0.03257472 -0.11872691 0.045616344
73 -0.18189819 0.19503053 -0.24350287 0.1043325 -0.021493075 -0.091508724 -0.015057828 0.32120067 -0.04530951 -0.094910294 -0.34483525 0.027976068 0.18223155 -0.008733948 0.4118534 -0.24756546 -0.0664234 -0.04224132 -0.09028523 -0.006045995 0.12681042 -0.22016513 0.022411808 -0.1184377 -0.47864246 0.07588243 0.16431975 0.17902644 -0.21725409 0.0850204 0.181462 -0.33769903 0.054091956 0.021363428 0.21324073 0.10504682 -0.26582074 -0.017033251 -0.18791594 0.094284095 -0.045737367 0.2550862 0.054678287 0.016766757 0.115791455 0.1287983 -0.072461575 -0.13747662 -0.07586917 0.32162958 -0.20372237 0.10116514 0.07030802 -0.18411982 -0.24734002 -0.004543916 0.07644381 -0.33785138 -0.03077154 -0.11395661 0.09732105 -0.026438508 -0.10674079 0.04603359
40 -0.18886848 0.20295995 -0.24260826 0.10500073 -0.020740448 -0.086454414 -0.010288907 0.32701534 -0.044148665 -0.08714003 -0.34582797 0.032729134 0.18924889 -0.010086469 0.40333304 -0.25336462 -0.053656366 -0.040431462 -0.08579527 -0.0014431921 0.1259525 -0.21211912 0.021804014 -0.1120939 -0.4782352 0.07345925 0.16873302 0.18583068 -0.21347922 0.07704612 0.17390066 -0.34113702 0.050397288 0.02286357 0.22636159 0.1121362 -0.2663086 -0.019534625 -0.1925882 0.09166283 -0.04057106 0.25973305 0.05474923 0.027952831 0.11064324 0.13955286 -0.06642332 -0.14609939 -0.068515524 0.32357106 -0.19786152 0.10221947 0.07266228 -0.19108464 -0.24519327 -0.0016005251 0.0696906 -0.3357771 -0.046070416 -0.10801624 0.09329891 -0.02123135 -0.11589866 0.05158726
86 -0.17737119 0.20552434 -0.2522859 0.11641424 -0.012141957 -0.09525807 -0.016814098 0.3140466 -0.031110024 -0.09812871 -0.3403965 0.023128793 0.19101013 -0.0069059646 0.4106868 -0.2435183 -0.066234216 -0.04904559 -0.09796614 0.0016330186 0.12624922 -0.21907577 0.031146267 -0.117040776 -0.4756824 0.07607552 0.15588236 0.19159372 -0.21627022 0.070176035 0.17246303 -0.3342289 0.06284826 0.02724987 0.22578433 0.11540344 -0.27043417 -0.021279467 -0.18387109 0.0942083 -0.037236657 0.25841263 0.070613615 0.024974026 0.11238265 0.14191179 -0.07570239 -0.15095884 -0.072281815 0.3193614 -0.20089993 0.09829379 0.06526511 -0.18690948 -0.2527575 0.0063573346 0.060816735 -0.34239575 -0.042869244 -0.119356945 0.09898187 -0.03545803 -0.11900272 0.048292965
22 -0.17030855 0.19264701 -0.24746823 0.10009674 -0.009364983 -0.09298595 -0.009073706 0.31132308 -0.030431023 -0.0958855 -0.3454327 0.032954488 0.18826652 -0.015466629 0.4215305 -0.24550983 -0.06278619 -0.05031171 -0.092777185 -0.0034642215 0.11906141 -0.22314614 0.02568948 -0.115760915 -0.48528937 0.08307374 0.1598221 0.19088696 -0.21314658 0.073986165 0.18114465 -0.35095716 0.05127309 0.014999722 0.22626282 0.11137114 -0.27249697 -0.0057752104 -0.18551889 0.09925799 -0.03334554 0.27194166 0.06618647 0.03468958 0.11952039 0.14002238 -0.07250816 -0.14741696 -0.07435177 0.3197632 -0.19784833 0.11003263 0.070714116 -0.19174154 -0.2466657 -0.0021682163 0.07457397 -0.3408007 -0.03711119 -0.10672996 0.09104303 -0.03282639 -0.11371667 0.050531574
97 -0.18777218 0.1986359 -0.25236765 0.11764148 -0.011322298 -0.09054117 -0.017283672 0.32734492 -0.033424605 -0.088953264 -0.3409293 0.027909225 0.18214573 -0.017830372 0.4162288 -0.24745713 -0.06678518 -0.048532434 -0.10484178 -0.0037466064 0.12826453 -0.22308195 0.0289101 -0.11022159 -0.4790305 0.08062587 0.16434819 0.18899983 -0.20785974 0.08030996 0.17807095 -0.34152403 0.057477806 0.028817503 0.22563526 0.11497234 -0.26850715 -0.009722218 -0.18510695 0.08815032 -0.047012538 0.26683772 0.06996937 0.02864367 0.11118084 0.14068614 -0.07742738 -0.14655545 -0.08277956 0.31725368 -0.19597863 0.10310021 0.06474407 -0.18843645 -0.24440831 -0.0048064454 0.07368578 -0.32774395 -0.034250483 -0.11014334 0.09876736 -0.03088059 -0.1060908 0.050156493
60 -0.17776717 0.19983909 -0.25668576 0.10580376 -0.005367055 -0.08480729 -0.0037608228 0.31256145 -0.043773603 -0.08703589 -0.34353775 0.026223749 0.18374074 -0.018710745 0.40612835 -0.23870741 -0.06094462 -0.052643206 -0.08908235 0.0015880613 0.12598291 -0.2225056 0.028006557 -0.12504558 -0.48584723 0.085048884 0.16037627 0.18586783 -0.21576245 0.07010914 0.17451769 -0.3410736 0.060715955 0.027049018 0.2249212 0.10803548 -0.26585692 -0.0033767214 -0.19676574 0.09107327 -0.041851986 0.26112556 0.061018743 0.02565551 0.116214596 0.13876726 -0.07264195 -0.143859 -0.06907055 0.33121616 -0.19494279 0.09442931 0.064203754 -0.18942183 -0.25826195 -2.7354827e-06 0.062472783 -0.3258248 -0.031448975 -0.109823875 0.09390495 -0.03546754 -0.10806081 0.047941923
0 -0.17364615 0.20594266 -0.25706992 0.10592556 -0.007691231 -0.08953354 -0.013568141 0.32534093 -0.040071815 -0.09475679 -0.33547616 0.024872981 0.19048706 -0.008542107 0.4088675 -0.23895335 -0.05289349 -0.05394567 -0.087040216 -0.0050990577 0.1284834 -0.2265278 0.01985046 -0.11835737 -0.47769916 0.071273886 0.16772395 0.17993595 -0.21494022 0.08533428 0.18312453 -0.33242512 0.055372253 0.027447887 0.22266082 0.110810965 -0.2689186 -0.013539793 -0.19651647 0.099299125 -0.04076756 0.25005883 0.06631251 0.033825018 0.11185635 0.14416678 -0.06561571 -0.13568242 -0.07678667 0.32713452 -0.20510745 0.09855321 0.06410984 -0.18932433 -0.25744465 -0.0030293963 0.06598073 -0.32618597 -0.036184072 -0.1052124 0.095203534 -0.024619887 -0.11605858 0.04921229
13 -0.17527524 0.20259243 -0.24170257 0.10724521 -0.014378126 -0.08933007 -0.0033797205 0.3174079 -0.03308051 -0.0944654 -0.33979216 0.028006682 0.18025744 -0.00491314 0.40684754 -0.2490618 -0.055355206 -0.047260936 -0.09909058 0.0021354402 0.11837909 -0.22577375 0.032229207 -0.12289777 -0.48784125 0.079256125 0.15447177 0.18124482 -0.2136543 0.08396392 0.18578961 -0.33736962 0.06456138 0.018442163 0.22390905 0.12142498 -0.2720957 -0.010959958 -0.1856166 0.08736869 -0.044688903 0.2691094 0.062991284 0.022902321 0.11192602 0.13592735 -0.064524464 -0.13518278 -0.08348253 0.3320067 -0.19542734 0.1069544 0.07758228 -0.19618365 -0.25778154 0.005774929 0.06385348 -0.3352434 -0.037050888 -0.09958386 0.10236539 -0.030483263 -0.111230776 0.042244084
