100 64
83 0.13927846 -0.056881472 0.42396298 0.08303545 0.03828337 0.06772028 -0.0034257371 -0.055646807 -0.31525227 -0.27817762 -0.30888212 0.10082344 -0.22447273 -0.070446484 0.0020536017 0.100961775 0.057371173 -0.016239362 -0.06943232 -0.18381235 0.087722264 0.09948629 0.09944221 -0.27703136 0.17252284 -0.08584255 -0.10091004 0.1010583 0.3166252 -0.03543837 0.048271872 -0.06704256 -0.07814567 0.13416985 0.05047675 0.0060309386 -0.30405554 0.0711656 -0.200846 -0.02904524 -0.060154285 0.1962492 0.0013141275 0.0167569 0.059616107 0.07952968 0.07256928 -0.3976445 0.27089733 0.14929542 0.26270536 0.24231544 0.07177764 -0.151803 -0.17876458 0.0030064501 -0.12952682 0.21504842 0.00453863 0.07043875 0.040745065 0.56262726 -0.23249908 0.04858101
20 0.14535916 -0.07075551 0.4259377 0.08237639 0.042532448 0.076396726 -0.0050646686 -0.05229141 -0.30999583 -0.2878484 -0.30280533 0.11445946 -0.2144485 -0.066830285 -0.0075272797 0.09841221 0.06501459 -0.016829053 -0.06712195 -0.17613156 0.09591292 0.09802615 0.10073476 -0.26795968 0.17277512 -0.08551097 -0.089744434 0.096834585 0.31638274 -0.039735023 0.03989378 -0.0544514 -0.08659031 0.13691774 0.047080584 0.014887453 -0.31655166 0.07322272 -0.20994481 -0.030228209 -0.04702778 0.18993929 0.0023351798 0.012806308 0.060285103 0.08911444 0.06899974 -0.4031192 0.2684023 0.1581313 0.25796497 0.25365382 0.06385697 -0.15168631 -0.1759475 -0.009694076 -0.13356125 0.2174002 0.013730097 0.07539168 0.038439088 0.56021893 -0.2298381 0.043822046
18 0.1548901 -0.061539803 0.43017638 0.08558193 0.03990359 0.06953576 -0.0127976 -0.062607184 -0.32179853 -0.2793216 -0.3024019 0.10468799 -0.21498342 -0.07626825 -0.01174495 0.105526045 0.06080598 -0.012819847 -0.07739105 -0.18081771 0.085689075 0.09491591 0.10224696 -0.26847202 0.16962312 -0.089407496 -0.09584064 0.09494814 0.30754954 -0.046958618 0.045736853 -0.06205658 -0.07889424 0.13884382 0.047798935 0.014085268 -0.30941498 0.0652918 -0.20626985 -0.024719825 -0.05622766 0.19293979 0.0059066876 0.015297462 0.060807884 0.07919083 0.06730752 -0.4040417 0.26268867 0.16131473 0.2624155 0.24202329 0.06735918 -0.15912965 -0.17049523 0.0031682309 -0.13072856 0.22294055 0.0029620873 0.07681553 0.05240617 0.56786865 -0.2360312 0.049126007
45 0.1347352 -0.061012946 0.421434 0.07800339 0.03475308 0.0787225 -0.011355561 -0.057410393 -0.31212997 -0.2857192 -0.30850592 0.11361438 -0.21368198 -0.07287737 -0.007996505 0.098902725 0.047471497 -0.017155906 -0.06946453 -0.17801517 0.08507914 0.09459008 0.102945246 -0.27651516 0.17462654 -0.092829525 -0.09342522 0.09052112 0.31673482 -0.04453627 0.043205995 -0.052698404 -0.08906381 0.12238876 0.055537216 0.018092696 -0.30330703 0.0657601 -0.20733649 -0.032437082 -0.048679158 0.18488854 -0.0019412474 0.010317077 0.060251214 0.09255168 0.06720551 -0.39861444 0.27072573 0.16255017 0.2582501 0.24157812 0.07933543 -0.1570576 -0.17722376 -0.0034079163 -0.12531213 0.215649 0.0043819873 0.07206261 0.051168725 0.56058437 -0.23854575 0.034113042
55 0.13434355 -0.05917243 0.41028732 0.08464928 0.03471627 0.06833748 0.008822067 -0.05348277 -0.3103339 -0.28389126 -0.29683724 0.10045376 -0.2151133 -0.0732369 0.0006807139 0.09936347 0.06641261 -0.015610372 -0.06804 -0.19154827 0.09115945 0.105290465 0.09764173 -0.26696095 0.17360401 -0.08753993 -0.097820394 0.103824526 0.31207535 -0.05064779 0.0435821 -0.051493667 -0.08364834 0.12505913 0.04694691 0.0025565533 -0.310137 0.066076875 -0.20455267 -0.022101954 -0.05390323 0.19674434 0.0036854108 0.013084833 0.07502049 0.08085283 0.07087337 -0.4001268 0.26846722 0.16218448 0.26768178 0.24721842 0.06646973 -0.16027677 -0.18458284 -0.008333159 -0.13390094 0.22490509 0.0034707705 0.07146603 0.039384406 0.55672437 -0.24177238 0.048499957
89 0.13562869 -0.06341926 0.39990863 0.08316825 0.03446306 0.07801076 -0.00994489 -0.06384368 -0.32131577 -0.29264566 -0.30694363 0.113787785 -0.22324942 -0.07804782 0.0021608444 0.09039706 0.053437356 -0.0124218725 -0.058925323 -0.18552116 0.09098159 0.098013826 0.09485802 -0.28046986 0.16822277 -0.09096498 -0.09601214 0.09848569 0.32344896 -0.0452065 0.05032625 -0.05694724 -0.07889192 0.119117975 0.04518496 0.014440195 -0.32243758 0.06018853 -0.21335755 -0.022242187 -0.04969571 0.18636005 -0.0046931687 0.020474045 0.063941546 0.08503708 0.061233703 -0.3911666 0.26473212 0.1539054 0.25845608 0.24782775 0.062808484 -0.15916738 -0.1789432 -0.006639558 -0.12902878 0.2219313 0.0030414176 0.07443211 0.04715494 0.5617147 -0.23101622 0.033726145
53 0.13655148 -0.06646917 0.40612814 0.08555928 0.03907871 0.07068208 0.0023062641 -0.052800734 -0.31518713 -0.28327587 -0.3060397 0.10371565 -0.21126369 -0.07288619 -0.008604616 0.09971957 0.06505334 -0.009799407 -0.07066524 -0.185962 0.08323034 0.098317966 0.105778255 -0.27270004 0.17535461 -0.08787244 -0.10155178 0.09266724 0.3145347 -0.038328942 0.044433698 -0.055894677 -0.08892016 0.12296355 0.053119726 0.006303283 -0.31357932 0.07225939 -0.20101714 -0.029290887 -0.06026754 0.1976885 0.008025235 0.015437547 0.06924692 0.08965323 0.063450105 -0.38756382 0.25335038 0.15440273 0.26685926 0.24543408 0.074401036 -0.16580932 -0.16620828 -0.0019808908 -0.132839 0.22506425 0.005084058 0.074182115 0.04610202 0.55425006 -0.2246397 0.031848267
78 0.13653107 -0.05978129 0.43301225 0.078109965 0.035542767 0.07322033 -0.0119941775 -0.05132845 -0.31565136 -0.29748842 -0.31406897 0.10626509 -0.21094741 -0.08149463 -0.0030026003 0.1027948 0.051912595 -0.013162901 -0.07105387 -0.19107905 0.08655622 0.097804196 0.10845138 -0.28128564 0.16648592 -0.08832141 -0.09621988 0.0866927 0.3142614 -0.043620855 0.0414296 -0.06990885 -0.083030485 0.12689245 0.056459386 0.009311703 -0.3160009 0.07380227 -0.2055133 -0.02566015 -0.0600851 0.18419082 0.0010728333 0.0139777195 0.063187376 0.08760431 0.065909095 -0.39716312 0.2672345 0.16187158 0.2529518 0.25455552 0.073652714 -0.15998131 -0.16999479 0.0030211988 -0.13646081 0.21958414 0.00039840123 0.08303714 0.04520599 0.5566601 -0.23667164 0.031500205
87 0.1445976 -0.050967284 0.40338454 0.09294608 0.03817711 0.074480616 -0.0019211427 -0.059739888 -0.31783295 -0.27945992 -0.30337262 0.11020436 -0.206899 -0.077358134 -0.009963837 0.10381536 0.05731109 -0.02825175 -0.07432082 -0.18662564 0.086927846 0.084804446 0.09627985 -0.2680482 0.17885283 -0.08567021 -0.09791248 0.099267885 0.31782484 -0.046828482 0.047588803 -0.06395687 -0.093718044 0.12709464 0.04861463 0.018400108 -0.3053216 0.06478575 -0.20683402 -0.021217048 -0.053762063 0.18453272 -0.0016680083 0.018167619 0.058944426 0.07634574 0.07482574 -0.4042636 0.26856703 0.14614692 0.26386002 0.2459276 0.07765964 -0.15946448 -0.17174539 -0.0060972637 -0.1188707 0.22568516 0.00114973 0.07481526 0.04720452 0.55770516 -0.2399279 0.046671256
46 0.14591894 -0.057422247 0.42432022 0.07596826 0.031601004 0.07349203 -0.004539504 -0.05233832 -0.32063982 -0.28397232 -0.30079535 0.1117502 -0.21868847 -0.06917306 -0.010019083 0.103315555 0.053972095 -0.014882038 -0.06091881 -0.17770642 0.090052105 0.091739744 0.09478701 -0.26602533 0.16919032 -0.08352566 -0.08901606 0.09759178 0.32630584 -0.041548748 0.050915446 -0.057908878 -0.07815692 0.12364481 0.056256816 0.009573547 -0.31464836 0.07280397 -0.21305282 -0.017152837 -0.060916346 0.2010121 -0.0024336518 0.014301269 0.060759675 0.0860955 0.057764564 -0.4007845 0.26524073 0.1599442 0.26246172 0.24394551 0.07745642 -0.15321203 -0.1724338 -0.0033302153 -0.13450079 0.22428602 0.0019318128 0.07115072 0.044555027 0.5569137 -0.23161988 0.044233836
70 0.1489758 -0.069471024 0.42197734 0.09168646 0.039372403 0.082934976 -0.010633279 -0.05413022 -0.32416934 -0.29559422 -0.31179988 0.11349129 -0.22031395 -0.07117031 0.0035473076 0.09786498 0.059228037 -0.021350175 -0.07535596 -0.1867802 0.08141569 0.10005874 0.09629015 -0.2774575 0.1666531 -0.09670341 -0.095519274 0.104645334 0.31426847 -0.039147366 0.048022363 -0.05375713 -0.0800378 0.13293548 0.046977673 0.0071422393 -0.3175627 0.0605369 -0.19861697 -0.030078582 -0.06016159 0.18985748 -0.002444362 0.008647341 0.06918196 0.07689918 0.06808782 -0.38726738 0.26071408 0.15528548 0.26657736 0.23745683 0.07172447 -0.15951549 -0.172242 -0.0025993136 -0.12790543 0.22055422 0.003552445 0.08212466 0.03545077 0.5532932 -0.22554412 0.03239047
52 0.14140418 -0.06124536 0.42104527 0.07874087 0.043519143 0.08493136 -0.004990304 -0.05535229 -0.3223052 -0.28037798 -0.3116532 0.10826665 -0.21916051 -0.06593898 0.00096678734 0.09352541 0.054457426 -0.01500177 -0.067730665 -0.18412744 0.088779554 0.092993714 0.108848184 -0.27562186 0.17737938 -0.083960794 -0.10370841 0.090009905 0.31520897 -0.03393059 0.041098643 -0.061600488 -0.08299444 0.13521205 0.04858348 0.015624351 -0.3081718 0.06905888 -0.21081735 -0.02938104 -0.05560709 0.19444288 -0.007937428 0.020338453 0.06257863 0.08078024 0.05935994 -0.4022136 0.26149052 0.16692887 0.25738233 0.2408249 0.08029361 -0.14909706 -0.17818967 -0.0016694369 -0.13008189 0.21843173 -0.002036238 0.076513276 0.053991556 0.5522939 -0.22903588 0.03481762
40 0.14482556 -0.06716637 0.43223903 0.07843836 0.033589613 0.08157502 -0.0017542405 -0.05047803 -0.32189515 -0.29129177 -0.30418527 0.11353955 -0.21205945 -0.0677784 0.0024949284 0.0994024 0.060554955 -0.012760953 -0.067956276 -0.19122861 0.08772378 0.08803432 0.106224775 -0.28101388 0.16980672 -0.09384256 -0.10454784 0.09078094 0.3163423 -0.041970722 0.037815988 -0.07040431 -0.08314433 0.12930545 0.049490474 0.008724142 -0.31227207 0.06205979 -0.20037289 -0.02082872 -0.060502395 0.1969921 0.0019828535 0.022559635 0.06354438 0.08442758 0.07480644 -0.39798957 0.26099187 0.15947856 0.25224987 0.24509546 0.0726076 -0.1632216 -0.17913452 0.005417409 -0.12373063 0.2238059 -0.0020336565 0.06725714 0.043945536 0.54617757 -0.2404669 0.035558704
41 0.13831554 -0.057166044 0.41767564 0.09222081 0.040534537 0.07157425 -0.008463595 -0.054858863 -0.3147281 -0.28998846 -0.2988578 0.111473575 -0.22748694 -0.0680889 -0.0046016686 0.103433065 0.06441777 -0.020299716 -0.07253581 -0.18584596 0.09047605 0.09996217 0.09462323 -0.26225775 0.16782111 -0.075753935 -0.10179463 0.10448808 0.3137605 -0.047835473 0.04375164 -0.061969154 -0.09199603 0.13179787 0.04880257 0.0049692453 -0.31367648 0.074333146 -0.19953738 -0.028853064 -0.054607354 0.18844244 0.0074476623 0.020307913 0.06287687 0.0829665 0.07217764 -0.39036193 0.26575 0.15858603 0.27129 0.23902059 0.07458083 -0.16627271 -0.17628787 0.0045611067 -0.13743284 0.22288316 -0.003984814 0.070836425 0.04665199 0.5466383 -0.22930685 0.045627885
9 0.1429201 -0.05645439 0.42142868 0.09052428 0.0407111 0.07540128 -0.012576377 -0.059854165 -0.3196385 -0.29364002 -0.29889458 0.10561478 -0.21588144 -0.07999288 -0.008924684 0.1007329 0.056496244 -0.014833548 -0.08062279 -0.18094529 0.09048352 0.10193792 0.10854124 -0.27493066 0.18313658 -0.087863885 -0.10720345 0.09869789 0.3243544 -0.04310615 0.047254935 -0.05782832 -0.08738081 0.12618774 0.05314773 0.005579808 -0.30950567 0.066912666 -0.20928417 -0.02313346 -0.047182616 0.19352068 0.003487463 0.022564093 0.06818225 0.08589019 0.06891938 -0.39460227 0.25663874 0.15478407 0.2695109 0.24543697 0.07056827 -0.16536039 -0.18015897 0.0001345132 -0.13298504 0.21944655 0.0080136 0.07172108 0.037846725 0.5584465 -0.23833337 0.041806515
54 0.1407269 -0.0626216 0.41468397 0.0845715 0.031931475 0.08179328 -0.0052880477 -0.0630813 -0.31886068 -0.28946158 -0.31242433 0.10729207 -0.22946267 -0.07490278 0.0023991745 0.090885796 0.06215857 -0.011693439 -0.07114556 -0.18798701 0.087521575 0.09123274 0.1113661 -0.28615886 0.1792641 -0.089335725 -0.097070664 0.10151771 0.31669217 -0.04631693 0.050896026 -0.062142406 -0.07919728 0.1368197 0.05917787 0.021278372 -0.30861968 0.058654346 -0.20724656 -0.022014244 -0.051217664 0.19745249 0.005399598 0.013995406 0.07198367 0.08432801 0.061664384 -0.39231268 0.27309072 0.15922602 0.25791955 0.24949555 0.070517175 -0.15815996 -0.17093456 0.0013722185 -0.13896576 0.23438837 0.0026694303 0.066678576 0.04617354 0.5606019 -0.24016058 0.0323081
56 0.14569318 -0.057941142 0.41385555 0.07889917 0.038385145 0.08124714 -0.0058047757 -0.05263417 -0.31926912 -0.2879529 -0.3009931 0.10301043 -0.21716872 -0.0644119 -0.005125203 0.09968623 0.05717549 -0.018685304 -0.07559199 -0.18700588 0.0902759 0.10409597 0.101021536 -0.27973318 0.18041746 -0.08256467 -0.107783586 0.09290567 0.3139638 -0.04427295 0.042907268 -0.06838589 -0.07704162 0.12527305 0.05594981 0.012915776 -0.3227607 0.06355862 -0.21341766 -0.03453011 -0.05362057 0.19145611 -0.005363337 0.012401502 0.072758175 0.08812758 0.07046592 -0.3883978 0.26636043 0.15573235 0.27299678 0.24991815 0.06513496 -0.16207312 -0.18155365 0.0043612006 -0.13625258 0.22315054 -0.004699473 0.07453356 0.03993162 0.55858284 -0.2361302 0.028823096
50 0.14657018 -0.06276839 0.415346 0.07790887 0.027846832 0.08308685 -0.009295744 -0.05504867 -0.31362218 -0.28396738 -0.31647062 0.10902814 -0.22626348 -0.07051581 -0.0072089517 0.08978968 0.058251675 -0.01173834 -0.062551565 -0.17982508 0.09551401 0.09650705 0.10748635 -0.27681893 0.17840426 -0.07972275 -0.09244954 0.094860844 0.32555375 -0.03680875 0.046742644 -0.060426276 -0.083868034 0.12973173 0.05754263 0.009368833 -0.3061259 0.07125036 -0.21127263 -0.03430307 -0.057539858 0.19677772 -0.008546551 0.021595906 0.057654954 0.08805696 0.07023917 -0.39441407 0.2600649 0.15514547 0.26766562 0.252084 0.072734125 -0.16296884 -0.16635361 -0.01367066 -0.124239154 0.22973493 0.0040681125 0.078085355 0.04827926 0.5542234 -0.2326385 0.028710632
86 0.12730156 -0.07090418 0.4005461 0.08677817 0.041170053 0.07139794 -0.0074694445 -0.053200297 -0.31840557 -0.29441917 -0.31238315 0.10287382 -0.22575267 -0.06631384 0.0011325494 0.0936693 0.06285759 -0.027673021 -0.07542496 -0.18047783 0.07595155 0.09673467 0.09611502 -0.27475318 0.17155199 -0.08884841 -0.10467556 0.09900119 0.32614017 -0.03989961 0.054165762 -0.055769864 -0.09261691 0.12695688 0.060854074 0.008797527 -0.3138626 0.06754873 -0.20514654 -0.025676858 -0.049366545 0.19324806 -0.0011529867 0.017688395 0.0637472 0.084404014 0.06792089 -0.40048343 0.26781067 0.15591572 0.26585448 0.25123873 0.074105605 -0.15205665 -0.18436207 -0.0043311203 -0.12565137 0.22185044 0.008064568 0.0765625 0.036950286 0.563967 -0.23140249 0.042402275
10 0.13311233 -0.0637397 0.4216523 0.08079367 0.04457954 0.078409754 0.0003566059 -0.05353059 -0.3238519 -0.2961229 -0.30202654 0.10031284 -0.22223555 -0.06473401 -0.01058731 0.09832663 0.05885846 -0.013603053 -0.065702714 -0.19548398 0.08351695 0.09797024 0.097399116 -0.28330165 0.1778068 -0.086351916 -0.09998065 0.10532158 0.3138739 -0.03559327 0.05182212 -0.06854071 -0.0931444 0.12644808 0.05033989 0.01284835 -0.30584392 0.06788713 -0.20890799 -0.025824355 -0.05050719 0.19435927 -0.008363277 0.007903601 0.056240987 0.090025745 0.061946593 -0.3994673 0.27474853 0.15388592 0.2638663 0.238065 0.077728786 -0.16741046 -0.16569313 -0.006747257 -0.1309454 0.21600322 0.0032748312 0.08001011 0.044157512 0.5545 -0.23643772 0.041902352
63 0.13614327 -0.06052552 0.4150966 0.08264652 0.028319847 0.075227164 -0.011997399 -0.05096287 -0.3133479 -0.28774613 -0.31280467 0.101492204 -0.22334383 -0.07843183 0.0028811358 0.08659003 0.053054463 -0.0139391525 -0.07385519 -0.19223146 0.0859908 0.08593024 0.10732263 -0.2807635 0.18045437 -0.08457187 -0.09865497 0.09182815 0.31824154 -0.03625203 0.05137123 -0.05776451 -0.08709856 0.1306703 0.050212163 0.013727486 -0.3145475 0.073538765 -0.21238972 -0.022575652 -0.047014397 0.18967584 -0.00740493 0.011692964 0.06720116 0.082927614 0.07094604 -0.390807 0.27197337 0.1485014 0.26669443 0.25365952 0.076219246 -0.16655177 -0.18279508 -0.009654525 -0.13418338 0.22283535 0.00075780094 0.07610152 0.041188594 0.5513374 -0.23429705 0.04041548
68 0.13666412 -0.055331014 0.4122586 0.078592844 0.032276247 0.0766627 -0.00928261 -0.05240526 -0.31287473 -0.28534508 -0.3068354 0.1023649 -0.21977612 -0.06425154 -0.0040458953 0.09396474 0.052871943 -0.026249679 -0.0681197 -0.18739289 0.08566724 0.102011204 0.10509774 -0.2709892 0.18047287 -0.0802657 -0.09593436 0.100862615 0.3067454 -0.04320784 0.045001045 -0.065692134 -0.08335674 0.12210615 0.052321095 0.004152321 -0.3204049 0.07148448 -0.20350564 -0.023434838 -0.049086254 0.19567303 0.007490078 0.020851057 0.06325401 0.0818919 0.068586744 -0.39417523 0.27357158 0.15370822 0.26643106 0.25022817 0.06944854 -0.16407464 -0.17558879 0.001184227 -0.13662557 0.2292941 0.0044228695 0.08365237 0.035743505 0.5606486 -0.24262957 0.035319977
2 0.1427227 -0.06561809 0.41919503 0.08365885 0.037594646 0.07051592 -0.014679679 -0.060232837 -0.31930104 -0.2940707 -0.30009213 0.09967198 -0.22661704 -0.07454129 -0.0062888414 0.09859717 0.06669056 -0.013197734 -0.07157864 -0.17982343 0.09154004 0.09640188 0.11190636 -0.2797363 0.17819123 -0.089839794 -0.0904314 0.09748266 0.32553282 -0.041983623 0.047152877 -0.05201523 -0.09144573 0.13275793 0.0499068 0.011459774 -0.31888717 0.066676036 -0.21451755 -0.031205632 -0.05065988 0.18945915 0.0011024107 0.022945335 0.056908768 0.08047258 0.05906752 -0.40472528 0.2717874 0.15454806 0.2728968 0.24853003 0.07658403 -0.16258894 -0.16608535 0.0010160328 -0.13059467 0.22773406 0.0023824312 0.08104418 0.04685085 0.5570406 -0.23514345 0.033629533
39 0.13356745 -0.061550025 0.40120405 0.08676806 0.04356585 0.07970095 -0.010868445 -0.06055575 -0.31668055 -0.2935641 -0.30934483 0.10656876 -0.22041553 -0.074523784 0.0029697951 0.10243132 0.052851077 -0.0231052 -0.07510691 -0.18858859 0.08375903 0.094147965 0.09576797 -0.27222028 0.17949082 -0.08983667 -0.10012889 0.0957455 0.3115719 -0.04145231 0.042162664 -0.055629767 -0.08037943 0.13373609 0.05298597 0.016480455 -0.31690064 0.0678582 -0.20857216 -0.023113258 -0.04815752 0.20001446 -0.0001637084 0.016804341 0.062044736 0.09417091 0.06689266 -0.39251173 0.26701102 0.15238398 0.26562312 0.24700245 0.07527865 -0.16173209 -0.1821929 -0.0097805355 -0.13275774 0.22224396 0.008537179 0.08159437 0.04194757 0.566199 -0.23570982 0.03680833
3 0.13593912 -0.0654244 0.41814044 0.08070904 0.034912147 0.07177661 -0.010280288 -0.045255907 -0.32591787 -0.28795904 -0.31457415 0.10962877 -0.22701497 -0.07037571 0.0034307516 0.08891106 0.054680374 -0.019973299 -0.07345319 -0.18016206 0.080019765 0.09713022 0.10460442 -0.27519205 0.17939617 -0.08285368 -0.10290616 0.097841576 0.323009 -0.030346407 0.04460768 -0.057695765 -0.0799526 0.12520278 0.056348223 0.0026622054 -0.31474635 0.077528864 -0.21589017 -0.019184995 -0.06204978 0.2021751 -0.0060702916 0.011834035 0.063791424 0.09193592 0.05806203 -0.40306658 0.26769757 0.15685435 0.25720802 0.24759285 0.06754143 -0.16482334 -0.17209415 0.001104098 -0.13589324 0.21765226 0.0025268788 0.074567616 0.043402094 0.563041 -0.23630574 0.041788533
69 0.14661503 -0.065644845 0.41752085 0.07754125 0.042162687 0.07921263 0.0018835788 -0.05343508 -0.3161947 -0.27956566 -0.3049401 0.10421447 -0.21549235 -0.06817746 -0.008894133 0.09222727 0.05237707 -0.02176212 -0.06996445 -0.18797417 0.081892416 0.08917297 0.0968515 -0.27400023 0.17505157 -0.08220818 -0.09279995 0.100554965 0.3115658 -0.05042849 0.037401773 -0.056905907 -0.07543491 0.13009207 0.045266803 0.005519328 -0.3077919 0.055880558 -0.2089099 -0.02324652 -0.05274384 0.19174142 0.0034065875 0.021450179 0.066927895 0.08148863 0.06345177 -0.40523455 0.26640847 0.16109118 0.26127222 0.24947445 0.070471756 -0.16196136 -0.18298312 -0.0075143552 -0.12859122 0.22058499 0.0066913473 0.06897987 0.038784433 0.56076735 -0.23147123 0.037871826
93 0.14042126 -0.061010227 0.4312649 0.08521644 0.032982796 0.08166643 -0.0029090976 -0.055572283 -0.32560772 -0.2780914 -0.3051194 0.11185039 -0.21997212 -0.06758247 -0.0008110661 0.087470405 0.06091031 -0.020789133 -0.08555786 -0.19624314 0.079229705 0.096735224 0.105810896 -0.27745053 0.17291762 -0.08554737 -0.0994335 0.1031564 0.3088008 -0.03451356 0.04741326 -0.062213477 -0.09087549 0.12230017 0.052651323 0.0058121365 -0.3180245 0.072418444 -0.20006274 -0.030334372 -0.04719501 0.1960347 -0.0004374466 0.012003291 0.06349859 0.094238825 0.07176756 -0.3857196 0.27077538 0.15367527 0.26639047 0.2482761 0.07649383 -0.1564113 -0.17812315 0.005190449 -0.13032256 0.21802437 0.00851452 0.081466354 0.04253119 0.5568228 -0.23139329 0.028949961
16 0.14357224 -0.0662991 0.42829224 0.09095613 0.02790364 0.07830329 -0.0034585425 -0.048507016 -0.31271368 -0.29599816 -0.30195597 0.114261165 -0.22789334 -0.06591727 0.0016566523 0.09769254 0.05426731 -0.016339926 -0.061297204 -0.18136297 0.0850876 0.09953602 0.10956141 -0.27085057 0.16658561 -0.080930874 -0.09574423 0.09451041 0.32054764 -0.052982464 0.03855869 -0.052491706 -0.07736701 0.12621538 0.058545854 0.011903239 -0.32092118 0.057908945 -0.21732971 -0.026270213 -0.05545397 0.19522911 0.004963239 0.016279794 0.07124189 0.08482107 0.066541605 -0.3978793 0.2682972 0.14574268 0.26404613 0.24840014 0.0793157 -0.16830078 -0.18509641 -0.010527865 -0.139783 0.22669129 0.008208493 0.08311741 0.04599921 0.55863196 -0.23163532 0.042213276
49 0.13357376 -0.06609401 0.39873287 0.08370813 0.03867428 0.0722492 -0.010647502 -0.05856893 -0.3040728 -0.28874314 -0.3125929 0.110293314 -0.21757305 -0.07163073 -0.00284367 0.09438811 0.062336598 -0.025751231 -0.0710389 -0.18778993 0.08244966 0.09818132 0.10037276 -0.27622014 0.18181543 -0.0808795 -0.10040874 0.10009162 0.3260287 -0.04591596 0.049341444 -0.05712957 -0.08220106 0.1294924 0.050866757 0.01710935 -0.31437856 0.07371867 -0.21367073 -0.027295236 -0.05006684 0.19437824 -0.0069165905 0.018515062 0.06620419 0.09420708 0.07191886 -0.39290586 0.2757429 0.15430878 0.25851128 0.24637896 0.062606916 -0.1632611 -0.1758757 -0.0073771905 -0.12305407 0.21816711 -0.0044569764 0.07205589 0.032983623 0.5517114 -0.23256753 0.03619899
58 0.13426025 -0.061026786 0.4222886 0.08720459 0.03056026 0.06678056 -0.0025241345 -0.05939454 -0.32716435 -0.28582865 -0.3083426 0.103873625 -0.22984955 -0.0770123 0.003337289 0.08806483 0.06371348 -0.01847989 -0.074489824 -0.18695463 0.093734555 0.0974307 0.10242633 -0.2696898 0.17765945 -0.082325205 -0.092742756 0.09216722 0.31554297 -0.040845957 0.037948012 -0.0578147 -0.08452914 0.12694867 0.050390232 0.007877386 -0.3239383 0.072332166 -0.2106182 -0.026308902 -0.054688167 0.19409695 0.002964277 0.018388368 0.07000715 0.08226231 0.07438468 -0.3984344 0.26384792 0.15084998 0.26853347 0.24928918 0.070262395 -0.16350605 -0.18077669 0.008034016 -0.13261005 0.22010908 -0.004665623 0.075072 0.0515112 0.5543916 -0.23806405 0.03667513
14 0.14070018 -0.060620036 0.4283772 0.09049173 0.03645253 0.06717752 0.0002499379 -0.059835177 -0.30710578 -0.28697073 -0.31534323 0.107040286 -0.21795955 -0.079646386 0.0011764105 0.091577426 0.058496416 -0.019337742 -0.061117522 -0.17949325 0.081189446 0.08924273 0.10416149 -0.27519614 0.16859059 -0.08541958 -0.08902316 0.09701478 0.32243326 -0.035447292 0.036537707 -0.05977885 -0.07901953 0.12754734 0.050502535 0.013343056 -0.31319088 0.06440739 -0.20035605 -0.020287402 -0.06445512 0.18573828 0.002002244 0.022651147 0.06235401 0.083078295 0.06860027 -0.40107954 0.27192542 0.15911429 0.26544452 0.24987192 0.066193484 -0.15697159 -0.17566009 -0.003930663 -0.13694401 0.22906233 0.008549978 0.064521976 0.05300869 0.56206036 -0.23285037 0.039709877
28 0.14193182 -0.061417628 0.41327938 0.08059765 0.03031686 0.08388242 -0.005248762 -0.062330864 -0.31975463 -0.29854786 -0.31409085 0.11614528 -0.22326636 -0.07207296 -0.0005998469 0.090617456 0.051847957 -0.021055851 -0.058428533 -0.19297342 0.09388298 0.08288512 0.094829746 -0.28229436 0.17632926 -0.091490366 -0.09212234 0.08978066 0.31073862 -0.04313356 0.03639866 -0.05555431 -0.090932794 0.13030161 0.04580508 0.0070971386 -0.32151115 0.0638878 -0.21325186 -0.024430953 -0.052432332 0.18055278 0.0060572196 0.013002393 0.05462509 0.0821857 0.07444884 -0.40682986 0.26478276 0.14859127 0.26185504 0.23850502 0.073929764 -0.16191979 -0.17805207 -0.007384303 -0.13799743 0.22493401 0.0064012124 0.08207513 0.038934845 0.5550863 -0.22923267 0.03260953
31 0.14738181 -0.061967593 0.42018217 0.07831171 0.043086994 0.07239628 0.0034040655 -0.044813327 -0.3192512 -0.29157582 -0.30637938 0.11566936 -0.2242264 -0.07558948 -0.00027321544 0.09951658 0.06525072 -0.013682097 -0.06543784 -0.19044237 0.09361412 0.09731091 0.09712143 -0.27137727 0.17719221 -0.07702498 -0.08707912 0.105170876 0.31281132 -0.03482043 0.04637109 -0.06492282 -0.07429736 0.13995188 0.06046016 0.01406049 -0.3159463 0.078429654 -0.21016154 -0.032728326 -0.057120405 0.19625992 -0.005062121 0.011257872 0.06121375 0.080613986 0.058367528 -0.39482293 0.27078304 0.15351175 0.25436515 0.25710103 0.07084765 -0.15241574 -0.1786001 0.002018993 -0.12667356 0.22448091 0.0109283775 0.08079851 0.052112773 0.56768686 -0.23033945 0.04219772
47 0.13517521 -0.062709704 0.41495833 0.07880926 0.046383172 0.07221471 0.0061530443 -0.047630955 -0.31615198 -0.2951383 -0.31239742 0.10989131 -0.21778442 -0.0702689 -0.013464057 0.10098924 0.05866625 -0.014387353 -0.0741357 -0.18985929 0.08579976 0.089858554 0.10451933 -0.27787524 0.17890638 -0.08173346 -0.09621406 0.08995111 0.3249829 -0.047625188 0.038002145 -0.0685083 -0.08192903 0.13409656 0.04158493 0.012186383 -0.3048435 0.05711875 -0.21216932 -0.020148376 -0.05231543 0.19319107 0.0010605087 0.00940467 0.058905073 0.08807788 0.060282476 -0.39628208 0.26311547 0.16115145 0.2655292 0.24344015 0.07300002 -0.16071123 -0.17536418 -0.008648662 -0.12772645 0.22813371 0.005403505 0.072390184 0.04409016 0.5483466 -0.24428995 0.041424055
61 0.14106324 -0.06278781 0.42173988 0.08209993 0.032349113 0.07404419 0.00332739 -0.056704674 -0.3222355 -0.2878186 -0.3085834 0.11028102 -0.22278175 -0.072242685 0.0005361805 0.09022392 0.053428415 -0.024305634 -0.075842336 -0.17970385 0.09438758 0.09686551 0.103610806 -0.27602008 0.17358309 -0.07773805 -0.105604894 0.09470201 0.31721014 -0.033814657 0.041234307 -0.06540955 -0.081910685 0.13317695 0.04743096 0.004349568 -0.32162338 0.07123988 -0.20155469 -0.028885074 -0.050845407 0.20035551 0.0042074015 0.0229454 0.067267 0.09004903 0.070083894 -0.39751637 0.26432535 0.16269638 0.26466107 0.2533696 0.065328434 -0.1501908 -0.17478664 0.005235812 -0.14043243 0.21947873 0.00014825509 0.06546293 0.04119766 0.5633891 -0.23143037 0.030462142
64 0.12784755 -0.06724211 0.42338777 0.084823094 0.042664774 0.07144724 0.0014817611 -0.052832082 -0.31423917 -0.28766313 -0.30830464 0.09853352 -0.2242301 -0.06932838 0.0007052651 0.090913735 0.05313545 -0.020559033 -0.07634758 -0.19288813 0.081381716 0.0996592 0.10212517 -0.27906686 0.17434654 -0.089168064 -0.106734596 0.0993544 0.32732114 -0.03207326 0.039929986 -0.0721978 -0.080575004 0.13073146 0.06342092 0.018991796 -0.3075442 0.060041897 -0.21432072 -0.03266775 -0.0615475 0.18089911 0.0030708273 0.009923494 0.06568291 0.09184215 0.06425439 -0.39811993 0.27060637 0.16015816 0.25975332 0.24788827 0.08174517 -0.15052515 -0.1819782 0.00033072612 -0.12542143 0.21950212 0.0037930734 0.069051184 0.038822368 0.5562733 -0.23908329 0.045803823
4 0.13885938 -0.06960447 0.41202745 0.076831825 0.040930886 0.07929238 0.0039888956 -0.06179001 -0.32423937 -0.2962423 -0.316937 0.10365374 -0.21644625 -0.0802748 -0.011250941 0.091241926 0.05511751 -0.021540549 -0.058504354 -0.17504899 0.091822326 0.10003759 0.10302706 -0.28386834 0.17574877 -0.092419185 -0.10384676 0.09755446 0.3292041 -0.031675234 0.034587752 -0.054106038 -0.083826065 0.13507584 0.053624474 0.012536559 -0.31012732 0.057702098 -0.2157377 -0.028071946 -0.050106574 0.19305255 -0.0048090047 0.025202023 0.061050452 0.08937108 0.05600038 -0.39501053 0.26878434 0.16631305 0.26435298 0.23808418 0.07771317 -0.14775553 -0.17255175 -0.009538483 -0.12815227 0.2260907 0.0054508056 0.076109625 0.046980284 0.5479372 -0.23227115 0.05076601
71 0.131827 -0.06188351 0.4230792 0.08292636 0.031450424 0.07663779 0.0048960876 -0.055930197 -0.31401756 -0.2833596 -0.29960546 0.10520772 -0.22891384 -0.07997771 -0.008040647 0.09806441 0.058036737 -0.012485398 -0.06189656 -0.18825436 0.080906525 0.100222744 0.09405507 -0.26892796 0.17279327 -0.08506837 -0.09809648 0.09773184 0.31265765 -0.04902713 0.041827124 -0.061289802 -0.09128573 0.13675001 0.041942365 0.008863651 -0.31907323 0.07742134 -0.21481715 -0.022253254 -0.06199315 0.2053519 -0.002215767 0.018189617 0.057696737 0.09344794 0.06163297 -0.39708054 0.26225525 0.15357655 0.2703797 0.24968982 0.07694112 -0.150757 -0.18281738 -0.0023525616 -0.13583063 0.22571905 0.0075340653 0.084124126 0.047364805 0.5569639 -0.23011097 0.043820202
17 0.13740796 -0.053177208 0.4265529 0.09002845 0.040918525 0.08078097 -0.0010202541 -0.062789425 -0.31627357 -0.29783532 -0.3105721 0.119908884 -0.22638786 -0.08225041 0.004860684 0.09466552 0.048603106 -0.019599034 -0.0714978 -0.18828407 0.09777262 0.08940933 0.094850324 -0.27010772 0.18063776 -0.08218075 -0.0997543 0.1017494 0.31826845 -0.04597036 0.04584591 -0.060911912 -0.083337545 0.13440445 0.05498783 0.02013504 -0.31001517 0.07796225 -0.20996282 -0.023609389 -0.05723357 0.20219246 -0.011188066 0.019145135 0.07096461 0.08886625 0.062506095 -0.40456954 0.26545915 0.16731238 0.27089557 0.25025588 0.07434929 -0.1638816 -0.1768794 -0.0072513754 -0.14049056 0.21926798 0.0012119289 0.08305498 0.037470054 0.5495968 -0.23090251 0.027923444
94 0.13591062 -0.056029223 0.43555126 0.08260503 0.038226552 0.07324396 -0.001980709 -0.060383324 -0.3096988 -0.2853241 -0.31041047 0.1098424 -0.22038712 -0.08127685 0.0059830924 0.10338301 0.0497518 -0.011788863 -0.06658245 -0.17508768 0.09534021 0.08320512 0.10294642 -0.27541026 0.17096916 -0.07880194 -0.103329115 0.08848288 0.3167738 -0.03724598 0.03637159 -0.06663873 -0.0784029 0.13572292 0.058576945 0.013739729 -0.31718302 0.059510473 -0.21257126 -0.032339294 -0.06001323 0.18960014 -0.0009915811 0.01788903 0.07220918 0.076431416 0.07061363 -0.39850003 0.27440494 0.15734982 0.27148095 0.24620181 0.063466966 -0.15649712 -0.17156175 0.0016723073 -0.13675597 0.2332067 -0.0056084674 0.07287638 0.053677272 0.5444448 -0.23316786 0.03285828
42 0.13575095 -0.05794667 0.43501154 0.087214135 0.037541706 0.07371954 -0.001721909 -0.054332837 -0.3115532 -0.28244954 -0.31582278 0.111267336 -0.21696438 -0.06779356 0.00067752047 0.09145646 0.06363071 -0.018066296 -0.069441505 -0.18902294 0.09224913 0.09285178 0.104703836 -0.27640313 0.17107822 -0.082270436 -0.09767197 0.09123136 0.31836998 -0.045336913 0.052552916 -0.0597382 -0.073970474 0.1342308 0.055195425 0.011873662 -0.32057926 0.06302745 -0.20782158 -0.028642846 -0.05332979 0.18949617 -0.0013370174 0.015983185 0.071318 0.085618034 0.06460288 -0.39008185 0.27066597 0.15248632 0.2549709 0.24097277 0.065493695 -0.15923406 -0.17593072 -0.012003541 -0.12719688 0.22475193 0.008496332 0.07290068 0.04782677 0.550638 -0.24041414 0.033905327
85 0.12769173 -0.063337445 0.4172914 0.092904635 0.03221216 0.07521647 -0.0043696947 -0.06044411 -0.31658003 -0.2841835 -0.31680122 0.11415758 -0.21687788 -0.083865665 0.0042806296 0.09603033 0.046257384 -0.01566698 -0.075040855 -0.1911932 0.08311994 0.08660549 0.111391835 -0.2817988 0.18677133 -0.072954886 -0.101803124 0.09996932 0.3306853 -0.025804682 0.05043222 -0.06302802 -0.09070252 0.13824631 0.056166977 0.013105363 -0.3061914 0.07376121 -0.21149783 -0.031666536 -0.06053858 0.19014801 -0.0015294632 0.024694027 0.057913497 0.09405934 0.066854954 -0.3995908 0.2655234 0.16091274 0.26818296 0.25296286 0.06917444 -0.16392757 -0.18573624 0.0034870678 -0.13708913 0.22616526 0.002603359 0.07564346 0.039280735 0.5554931 -0.2414567 0.029252829
66 0.13898548 -0.05905423 0.4198615 0.07778796 0.031990267 0.07134328 -0.007894313 -0.049109064 -0.31816766 -0.28149548 -0.30366203 0.10782909 -0.2270218 -0.07798296 -0.011159875 0.09344766 0.06393968 -0.015258982 -0.07700951 -0.18153948 0.08252885 0.09305809 0.09820914 -0.27094388 0.17448685 -0.0883799 -0.09580075 0.089935526 0.31873265 -0.037525848 0.0501433 -0.06506472 -0.081356354 0.12126434 0.055783913 0.018940696 -0.30674043 0.06874985 -0.19837694 -0.030113703 -0.055004057 0.19919161 0.0039050127 0.012429672 0.0649501 0.079259895 0.06319213 -0.40398887 0.27124947 0.16017686 0.26519442 0.24421185 0.07207816 -0.15873608 -0.18084842 -0.004791189 -0.12616172 0.22490855 0.0015749523 0.07376469 0.04080071 0.5565046 -0.24066718 0.04061673
44 0.14479032 -0.05254836 0.40855128 0.07574 0.02904945 0.06774393 -0.0007885123 -0.046120066 -0.31856665 -0.28742936 -0.31371737 0.11228508 -0.22627282 -0.08193645 0.0015589203 0.10268431 0.055556245 -0.010618739 -0.063295506 -0.18775903 0.08528076 0.08639352 0.09708326 -0.27673134 0.18067996 -0.07525518 -0.0905735 0.09896123 0.31890035 -0.045104153 0.03862197 -0.05423829 -0.09087583 0.12482383 0.052185893 0.004590494 -0.3126995 0.07620492 -0.20670393 -0.021912398 -0.05732206 0.20202802 -0.00054389203 0.019126702 0.05973045 0.08457404 0.061946094 -0.4010488 0.27198294 0.16439156 0.26606447 0.25182468 0.064460315 -0.15279447 -0.18600234 -0.0003661269 -0.1297609 0.22804281 0.00046161134 0.06953461 0.0393553 0.55415034 -0.23089774 0.03764892
12 0.14159265 -0.056126516 0.42576703 0.089503594 0.029319419 0.07164267 -0.0011348546 -0.056599863 -0.32222167 -0.29412827 -0.30508292 0.11359659 -0.21207608 -0.075121194 -0.0012094766 0.0895708 0.064148545 -0.0130036445 -0.06933571 -0.18880023 0.08764866 0.10012615 0.11194375 -0.28071955 0.17302573 -0.08635448 -0.105221905 0.09549134 0.31654954 -0.04651115 0.05172049 -0.06479463 -0.08710351 0.12862307 0.045305096 0.0086382 -0.31391582 0.06740703 -0.20252089 -0.023339225 -0.049274854 0.20022047 -0.007378424 0.016925756 0.06114798 0.09343733 0.0647128 -0.40230918 0.26960132 0.16360061 0.25849348 0.24926661 0.08088673 -0.1702335 -0.1741264 -0.0026384224 -0.12440974 0.22698052 -0.0004316561 0.07756778 0.03511402 0.5555146 -0.23248656 0.03731532
92 0.14530881 -0.068432994 0.42659342 0.09168514 0.035999186 0.07578719 0.000541909 -0.045824755 -0.3178956 -0.28990227 -0.30496922 0.10797959 -0.22469315 -0.070598416 -0.0019394868 0.09085704 0.054169916 -0.016722094 -0.0721384 -0.19019149 0.07935845 0.09418905 0.10670062 -0.26623145 0.16293864 -0.07743665 -0.095415026 0.10557559 0.32011268 -0.04555314 0.049624864 -0.06617228 -0.07997822 0.13055345 0.059319396 0.01386633 -0.3147774 0.061629806 -0.20293716 -0.030175695 -0.0537469 0.18851976 -0.0028092454 0.023069363 0.071272895 0.07916741 0.06903386 -0.39869645 0.2671957 0.15433086 0.2478252 0.25310647 0.07556886 -0.14820293 -0.17845352 -0.002778722 -0.13158555 0.22047855 0.0068816384 0.067364134 0.05108939 0.5527507 -0.24110113 0.034346126
34 0.14121442 -0.058503043 0.41647384 0.08230891 0.04045146 0.07931618 -0.0008820111 -0.055168673 -0.3160175 -0.30081567 -0.30727923 0.10361067 -0.22788595 -0.07569253 -0.007583024 0.099813364 0.06600014 -0.025195112 -0.078565314 -0.18607688 0.093789496 0.103403434 0.10384642 -0.2721323 0.18166615 -0.077904776 -0.09906152 0.09215593 0.3108228 -0.04705259 0.041231096 -0.053830862 -0.08233298 0.13457006 0.04644779 0.0118379975 -0.32399705 0.061939657 -0.20481236 -0.022099607 -0.056609858 0.19882266 0.0029880549 0.01748134 0.0692616 0.09184935 0.067132585 -0.39338717 0.26922217 0.15864776 0.25854477 0.24228077 0.06767468 -0.16524221 -0.17357893 -0.008823698 -0.12613143 0.21522875 -0.0004517026 0.0685863 0.044622295 0.5671116 -0.23407796 0.046988692
43 0.14604059 -0.06318036 0.4236453 0.09324207 0.027919259 0.07591546 -0.0024987133 -0.049746215 -0.31455153 -0.27416036 -0.31016007 0.10645112 -0.21250865 -0.062826015 -0.002342303 0.088263996 0.05536248 -0.015802847 -0.06762672 -0.18322171 0.094782114 0.10348597 0.094548196 -0.27187458 0.18596101 -0.08897097 -0.101923935 0.103453346 0.31415123 -0.04656096 0.03954719 -0.06377581 -0.0844065 0.12498155 0.055726252 0.010615554 -0.3160063 0.06180999 -0.20284441 -0.02780519 -0.046427675 0.19899611 -0.0012299858 0.023484115 0.07248657 0.092234366 0.076202944 -0.3990458 0.2739329 0.15749286 0.25821826 0.25298363 0.07269695 -0.16537797 -0.18195799 -0.0046019787 -0.12895973 0.21816677 -0.0034226498 0.06551473 0.04923883 0.5569633 -0.23198731 0.03389157
37 0.13601698 -0.05577558 0.4074753 0.07810737 0.037092958 0.08094368 -0.009702827 -0.06176367 -0.31665277 -0.2897112 -0.30660474 0.11894283 -0.21285486 -0.073443495 -0.0057696453 0.101001665 0.056627017 -0.017346114 -0.073636755 -0.19307628 0.09587378 0.086222515 0.09527016 -0.26498568 0.18374346 -0.076681234 -0.097529195 0.091190405 0.30832827 -0.035491697 0.047886766 -0.06307231 -0.08267911 0.11989448 0.042939335 0.0063667945 -0.31852996 0.06297248 -0.2066876 -0.02497808 -0.056344245 0.19269983 -0.0066198404 0.015673304 0.06101478 0.09024337 0.07666009 -0.40161502 0.269364 0.15149584 0.26999566 0.24799345 0.07417253 -0.16792724 -0.17546684 -0.008808731 -0.13835905 0.23098908 0.0025241303 0.081776485 0.038091853 0.5630505 -0.2410456 0.03356224
97 0.1547618 -0.06068007 0.4234708 0.09727075 0.04399802 0.06778514 0.0019534058 -0.05727627 -0.3080851 -0.28307033 -0.30998453 0.106606305 -0.22395927 -0.07619237 0.0003295498 0.10207435 0.04981911 -0.027461683 -0.06272323 -0.18529955 0.08612215 0.09643829 0.10365151 -0.26592308 0.18344024 -0.07394292 -0.097623646 0.10134361 0.31690264 -0.042884998 0.047059145 -0.061164554 -0.07584001 0.12585825 0.050959256 0.004469078 -0.3120969 0.06070252 -0.20538594 -0.03359239 -0.06168774 0.19290794 -0.0035150293 0.017289119 0.05757684 0.0805501 0.067449816 -0.39134657 0.2716644 0.15922004 0.26325452 0.25370145 0.0660498 -0.15137449 -0.17996278 -0.006424533 -0.13126095 0.21430182 -0.007814293 0.07453348 0.052768234 0.55375695 -0.22399372 0.032389604
59 0.13950375 -0.054371987 0.42052233 0.08387155 0.04162448 0.07552447 0.0031848473 -0.052642584 -0.31587756 -0.28852957 -0.31072822 0.10897022 -0.21290724 -0.07254409 0.0003759967 0.09652338 0.055751067 -0.018330202 -0.0631596 -0.1835791 0.09337855 0.087050654 0.10625527 -0.27193373 0.16614215 -0.07919162 -0.09513211 0.10230428 0.3102771 -0.04428015 0.05280897 -0.063398145 -0.07667954 0.13679397 0.049528632 0.0099787805 -0.31110147 0.0698537 -0.21042354 -0.02467464 -0.060642853 0.18472053 -0.004983354 0.0072420356 0.070326075 0.08613475 0.068960726 -0.39579403 0.26072228 0.1558251 0.26124954 0.24946274 0.079333946 -0.15591384 -0.17469431 0.0029370296 -0.12832496 0.21936548 0.0020024308 0.07103821 0.043626595 0.55347896 -0.23524831 0.041136622
51 0.13399142 -0.060853343 0.41210523 0.088689335 0.038186293 0.082884885 -0.00938346 -0.046585176 -0.3114983 -0.2824563 -0.30754152 0.10564064 -0.2154461 -0.07509059 -0.003979335 0.09701264 0.06373606 -0.015527206 -0.07536783 -0.17998862 0.094096795 0.09641366 0.11267636 -0.26843667 0.18074045 -0.0781475 -0.097407855 0.094516225 0.32236332 -0.046233613 0.045379877 -0.06411409 -0.07964172 0.12301855 0.045879975 0.012095577 -0.30865863 0.07320754 -0.20514892 -0.034697536 -0.06092533 0.1872114 -0.0017655233 0.02345727 0.06803013 0.09129563 0.06645651 -0.3939678 0.2674939 0.16084096 0.26913568 0.2479633 0.07246281 -0.1637912 -0.17558928 0.0008115089 -0.12508385 0.23294544 -0.006041753 0.079386435 0.044741802 0.55625814 -0.2405926 0.030262655
11 0.1476694 -0.050093956 0.4281244 0.09667723 0.03902652 0.07683973 -0.0059127165 -0.054626513 -0.30959433 -0.28793362 -0.30928707 0.10765573 -0.21524464 -0.08019316 -0.0026553432 0.098745316 0.055774305 -0.012134607 -0.07139067 -0.17217548 0.08672797 0.08873053 0.10925761 -0.2617189 0.18049881 -0.08325832 -0.09022031 0.100465894 0.32165834 -0.035214663 0.046643842 -0.05347975 -0.08341011 0.12899163 0.06265591 0.012819251 -0.31116372 0.071045615 -0.20829742 -0.019098032 -0.06369197 0.19611754 -0.0057412623 0.025302965 0.066430844 0.08249926 0.066800244 -0.3947027 0.26437303 0.15162088 0.2507431 0.25427833 0.06873651 -0.15892313 -0.17327568 -0.008051202 -0.12434935 0.2246308 0.0043024793 0.07735499 0.039314143 0.5592295 -0.23005053 0.045594446
38 0.13424997 -0.062437374 0.42165038 0.076447845 0.033101283 0.076395996 -0.0054097795 -0.053913485 -0.31490484 -0.28625524 -0.30258065 0.11378673 -0.22339831 -0.07736792 0.004867245 0.094277404 0.058250837 -0.011662114 -0.06226635 -0.17901082 0.08804809 0.096145354 0.11080224 -0.27919933 0.1756977 -0.090117276 -0.10310046 0.08971888 0.32104748 -0.037044946 0.03776936 -0.067597926 -0.07513506 0.1296934 0.05800516 0.01701572 -0.30456775 0.06598899 -0.20320523 -0.028484073 -0.059713703 0.18979685 0.0054947175 0.009658446 0.06734852 0.079445064 0.057003964 -0.4032824 0.2731225 0.15701787 0.26407877 0.24585818 0.0757584 -0.15806739 -0.17823789 -0.004590062 -0.13841651 0.22148803 -0.0018625435 0.074581936 0.044847887 0.5408026 -0.22991212 0.0319076
19 0.13615766 -0.06456288 0.42273587 0.08337715 0.035692014 0.08715549 -0.0026434 -0.060011055 -0.3135493 -0.29412398 -0.31278116 0.11505086 -0.22362253 -0.06744256 -0.010344223 0.10323218 0.05343424 -0.023906518 -0.05959852 -0.18633528 0.09614388 0.08736457 0.10933452 -0.27194697 0.17862885 -0.08226996 -0.099792086 0.102610126 0.32085258 -0.044425856 0.04254735 -0.06746275 -0.08819882 0.12431501 0.05282533 0.020733126 -0.30727768 0.058983773 -0.20556875 -0.025125043 -0.05050544 0.19705245 0.0034151026 0.01914879 0.062285 0.08185037 0.07560206 -0.40386197 0.2594937 0.16341011 0.2669917 0.25156355 0.07038992 -0.15309824 -0.17242481 -0.012053071 -0.1344803 0.22663124 -0.0062588137 0.082426846 0.050341073 0.5505974 -0.22695433 0.033701036
57 0.13509156 -0.0576909 0.4279302 0.08967117 0.038371544 0.07850678 -0.00081380137 -0.048753586 -0.3185431 -0.2900773 -0.30588552 0.1065312 -0.21768412 -0.07320589 -0.0010734213 0.087151036 0.062009607 -0.022250792 -0.07642277 -0.1882007 0.08671787 0.10154864 0.09393047 -0.2710935 0.17921455 -0.09532734 -0.09095776 0.1041728 0.31328517 -0.046430506 0.042061247 -0.05965104 -0.090873115 0.11880136 0.057963926 0.006352899 -0.3167019 0.07014787 -0.19937235 -0.020932954 -0.048240744 0.1843569 -0.007855449 0.013232656 0.060239416 0.08195629 0.07337037 -0.39038986 0.2710356 0.15228853 0.26504925 0.23923956 0.06598582 -0.15613367 -0.16960528 -0.008676365 -0.12041631 0.22356018 -0.0039499844 0.07352308 0.046217494 0.5584631 -0.2317015 0.03776262
22 0.1444021 -0.06827115 0.4230857 0.085789606 0.040240105 0.07332382 -0.010094517 -0.05170949 -0.30800247 -0.28286475 -0.31415862 0.10983918 -0.2180736 -0.07420984 -0.007821203 0.09643898 0.0510045 -0.018235998 -0.06586965 -0.18453607 0.0891354 0.103070766 0.108295344 -0.27625933 0.17418264 -0.08186292 -0.10155002 0.092043005 0.3197632 -0.037910774 0.03713202 -0.06116037 -0.08772286 0.13314268 0.054233175 0.0027104493 -0.3112968 0.06743415 -0.20514984 -0.0314298 -0.048776492 0.19404715 4.001083e-06 0.012125529 0.07136265 0.08232 0.06835436 -0.4014667 0.26792288 0.15863752 0.25623372 0.2436968 0.07534341 -0.16409104 -0.17336334 -0.004541388 -0.13513783 0.21883456 0.007924874 0.07272506 0.052293733 0.5581957 -0.22848088 0.04503266
1 0.1357189 -0.060287867 0.41533053 0.090554275 0.036078822 0.073742285 -0.0067628454 -0.052815318 -0.31467596 -0.28647012 -0.30381298 0.11051173 -0.21740358 -0.06919763 0.002796273 0.10331449 0.05030357 -0.01906083 -0.07410875 -0.1792592 0.08872646 0.09887171 0.10052909 -0.27437386 0.17024016 -0.079233095 -0.09791285 0.10373447 0.3142296 -0.042643074 0.042771794 -0.04951132 -0.08524852 0.1398738 0.047780257 0.019584656 -0.31923318 0.07111045 -0.21670318 -0.023864362 -0.051916175 0.19796823 0.0019444603 0.007944361 0.0704507 0.08329428 0.059160553 -0.39692622 0.2734285 0.14931531 0.25560474 0.24348961 0.065535694 -0.15260217 -0.16870184 -0.0020694854 -0.12733327 0.21349493 -0.0054948223 0.07574592 0.04035165 0.5607231 -0.22993064 0.038113907
67 0.1374701 -0.0698672 0.41841963 0.0916697 0.040935908 0.08265797 -0.0011743512 -0.060015377 -0.324189 -0.2907481 -0.3158534 0.112095036 -0.22254616 -0.06576795 -0.006281787 0.09334322 0.067255706 -0.019616531 -0.07273281 -0.17719808 0.09069927 0.09221075 0.10418272 -0.2678156 0.17017396 -0.09512731 -0.097119 0.097574495 0.31596148 -0.048104484 0.052609082 -0.051362388 -0.087340765 0.13573554 0.060210112 0.002686574 -0.3202205 0.075363845 -0.2043367 -0.027813263 -0.05817542 0.18849444 -0.0029262207 0.012883383 0.056278013 0.092488095 0.069356866 -0.40204644 0.26028123 0.14858891 0.25796667 0.24599084 0.07522364 -0.15021472 -0.16767247 -0.0053132507 -0.13363524 0.22048499 0.0048590153 0.07715322 0.04009879 0.56020737 -0.23124006 0.04994532
26 0.1411984 -0.05630119 0.39836514 0.084575914 0.031500272 0.07445936 0.002657647 -0.04789375 -0.30588743 -0.29114923 -0.3080133 0.10160766 -0.22044446 -0.076862626 -0.0023740325 0.09943555 0.060512252 -0.01670433 -0.071374856 -0.18074487 0.079455666 0.098079406 0.10110091 -0.26746297 0.17865533 -0.084731005 -0.10471298 0.0912875 0.31834224 -0.04654661 0.05000643 -0.04962772 -0.087248296 0.13695616 0.05231746 0.00949505 -0.31613737 0.06608326 -0.2116396 -0.020036533 -0.05803573 0.19775328 -0.000528674 0.015052559 0.06767126 0.086571604 0.063100725 -0.3935609 0.2663741 0.15600084 0.2616664 0.24397463 0.07266583 -0.1595361 -0.16992809 0.0020862848 -0.12934001 0.21910861 0.008512397 0.07897865 0.047249176 0.5468812 -0.23347293 0.034768425
35 0.13163099 -0.0688907 0.42238078 0.075866364 0.044320572 0.06852421 -0.014178501 -0.049396347 -0.3149669 -0.29599342 -0.30362216 0.11581214 -0.22285566 -0.07208108 -0.0017347644 0.09645225 0.05830742 -0.017361866 -0.0708919 -0.1826571 0.08876879 0.10188967 0.10545214 -0.27256298 0.16779566 -0.08674347 -0.094913624 0.09443751 0.31491467 -0.0454457 0.044786897 -0.05380411 -0.08352921 0.13063143 0.051979326 0.017461509 -0.31922716 0.072770216 -0.20325263 -0.02727397 -0.044515025 0.1942889 -0.0044514537 0.021703042 0.06581953 0.09294313 0.060299054 -0.39073202 0.2746629 0.16136484 0.2627974 0.25059232 0.07072239 -0.1605877 -0.17407711 0.004238931 -0.13804638 0.21343522 0.008637694 0.07130195 0.038334496 0.5644097 -0.23770498 0.028791958
99 0.1402918 -0.06069663 0.40746692 0.07792594 0.037520427 0.07150697 -0.00013659382 -0.05725514 -0.3074862 -0.2874405 -0.31696758 0.11529501 -0.22418925 -0.07507681 -0.0018373657 0.09963563 0.06317603 -0.02480378 -0.06087981 -0.1926216 0.093 0.09154621 0.112427145 -0.2754557 0.17743649 -0.08562565 -0.10478785 0.104467325 0.31327128 -0.043532193 0.047181915 -0.05384764 -0.08229409 0.12922964 0.056905396 0.0043724407 -0.31485355 0.06705538 -0.20105748 -0.02952999 -0.056216646 0.1934136 -0.0024144442 0.010867838 0.060180023 0.087045625 0.0705785 -0.40743485 0.2701904 0.1509846 0.26927695 0.25367832 0.07010862 -0.16307336 -0.17970054 0.0036551706 -0.1365822 0.2229567 -0.004945555 0.077139616 0.036534376 0.56260794 -0.232224 0.0374915
48 0.14128198 -0.06863066 0.42452255 0.079617545 0.038375285 0.06518582 -0.005570389 -0.046664014 -0.30725715 -0.2800652 -0.3055584 0.10655999 -0.22091968 -0.07528903 -0.01611234 0.09308095 0.06052099 -0.011733149 -0.07140585 -0.18814479 0.0917304 0.08737291 0.111375764 -0.26867235 0.17436358 -0.08770685 -0.104068734 0.093537085 0.3201154 -0.04157454 0.04534528 -0.06348872 -0.07930403 0.1358432 0.055343304 0.0129164 -0.3134337 0.06709061 -0.20561923 -0.029884456 -0.057841256 0.187926 0.0031589149 0.026136259 0.07119771 0.08988608 0.06251951 -0.39741465 0.2645795 0.15491953 0.26525265 0.2528671 0.06875039 -0.15185936 -0.1709156 -0.011076017 -0.12676646 0.23323771 0.0032830092 0.07354127 0.054445352 0.5648006 -0.24428307 0.038182244
60 0.1328753 -0.05953879 0.4286047 0.0902129 0.031812176 0.07708853 0.0014929622 -0.04809817 -0.3151748 -0.2840675 -0.3073377 0.113591075 -0.21265958 -0.07969496 -0.009136374 0.09374403 0.047340363 -0.016539002 -0.0711848 -0.1932035 0.08162608 0.09804873 0.09773015 -0.27739516 0.1816905 -0.07701586 -0.096234 0.09996035 0.32370755 -0.035975743 0.042441506 -0.07344777 -0.09240491 0.12510759 0.06300816 0.018313525 -0.30225736 0.076068565 -0.20651683 -0.014305816 -0.0600914 0.19265518 -0.00023575201 0.016511597 0.072349325 0.086966075 0.07063854 -0.40505233 0.2684771 0.1667095 0.2505562 0.25416863 0.08125113 -0.15770125 -0.18257535 0.0047522313 -0.12903373 0.2291172 0.0063260603 0.06597095 0.038374282 0.5655198 -0.22869325 0.034820665
75 0.14399771 -0.060167495 0.4007763 0.08619972 0.030712053 0.07862688 -0.0031155942 -0.059475068 -0.31879202 -0.27955702 -0.29777443 0.11293952 -0.21191296 -0.06551645 -0.013404276 0.100263804 0.049269285 -0.01837139 -0.05697966 -0.17695786 0.08812841 0.0962668 0.09583504 -0.26283887 0.17460494 -0.08479485 -0.100239724 0.10833038 0.3205911 -0.037467115 0.052794233 -0.061047487 -0.08819456 0.11891159 0.04822913 0.019599492 -0.3143817 0.06259808 -0.20067005 -0.029083814 -0.059021275 0.19563955 -0.0039984914 0.022175139 0.058709543 0.09296052 0.0645283 -0.39563987 0.2680863 0.16290689 0.26761252 0.24702457 0.06862805 -0.16109277 -0.1735406 -0.015243658 -0.12710243 0.22786409 0.0031853474 0.07529283 0.046511583 0.5593436 -0.22990096 0.047001224
15 0.1458284 -0.06347511 0.42515573 0.09383837 0.030802362 0.07147004 -0.005328159 -0.049897615 -0.31725335 -0.28756624 -0.31123707 0.108007275 -0.22255468 -0.07044123 -0.002076925 0.09701309 0.057445604 -0.024538824 -0.06477563 -0.17621952 0.08877722 0.100240216 0.09651784 -0.28259903 0.17846003 -0.07661444 -0.09532016 0.10068247 0.32660767 -0.0420776 0.03620704 -0.06486588 -0.07724304 0.14059676 0.0533157 0.015472004 -0.31627122 0.06708361 -0.21586551 -0.026793597 -0.05687552 0.19325449 -0.008176526 0.019416751 0.06759429 0.07972815 0.069796674 -0.40173823 0.26024923 0.15906632 0.2574343 0.24417545 0.076343715 -0.15065455 -0.18320486 -0.010695157 -0.12860101 0.21960361 -0.0034728928 0.07550937 0.046606403 0.5658959 -0.24078001 0.043555472
32 0.1354498 -0.06896831 0.41042385 0.08683697 0.040023476 0.067889005 0.0020219807 -0.0548228 -0.31985107 -0.28424996 -0.30402362 0.10253589 -0.22406676 -0.073352344 0.004746458 0.10119085 0.063842826 -0.024519578 -0.0747899 -0.17596056 0.08630957 0.08794557 0.10064255 -0.28143883 0.17460267 -0.0911038 -0.09556236 0.104673944 0.32533523 -0.043870702 0.03343373 -0.05391536 -0.0758974 0.13503744 0.056049507 0.0056501003 -0.3180426 0.06609127 -0.19949792 -0.030298397 -0.06240822 0.19167069 -0.0033222954 0.0103759095 0.057938393 0.089413375 0.06552722 -0.3914452 0.2742071 0.16548872 0.26487806 0.24385177 0.066675335 -0.14545761 -0.17564675 -0.0029123402 -0.13221608 0.21919286 0.0011715684 0.06423535 0.04695198 0.5502676 -0.2330641 0.045427464
90 0.13954842 -0.066072404 0.4289102 0.09528226 0.037255626 0.069953464 -0.0040414915 -0.05044149 -0.3181681 -0.27811268 -0.30200243 0.099161945 -0.2186005 -0.07998209 -0.0035638672 0.09873131 0.048519984 -0.01617551 -0.06743632 -0.17975141 0.07839803 0.089975104 0.10334397 -0.28039774 0.17829616 -0.08361985 -0.09880357 0.09702091 0.31248525 -0.036002796 0.047093064 -0.065116405 -0.08154808 0.13749938 0.05182712 0.020786488 -0.30264276 0.063253306 -0.20910631 -0.0355371 -0.049309067 0.18528624 -0.0050850576 0.014001565 0.074692026 0.08692993 0.063847624 -0.40189168 0.27035326 0.16133784 0.25756875 0.25610012 0.067783125 -0.1565305 -0.18489325 -0.011768439 -0.12473818 0.21478982 -0.0020927421 0.06583045 0.039876066 0.56171393 -0.2375589 0.036094982
25 0.13294335 -0.05841868 0.41670635 0.08172937 0.04575775 0.08413367 -0.00967519 -0.059952937 -0.32089907 -0.2925268 -0.30930328 0.10699408 -0.2163095 -0.062475156 0.004865599 0.09175738 0.06628629 -0.026387064 -0.06511484 -0.1840756 0.090758614 0.092729665 0.10866964 -0.28061658 0.17647517 -0.08638979 -0.09553241 0.1011509 0.32709783 -0.033242997 0.043513667 -0.063653514 -0.090484954 0.13928804 0.05890042 0.004040104 -0.31053174 0.07330642 -0.20286046 -0.024677506 -0.047011465 0.18726985 -0.0022420874 0.010533053 0.058923777 0.086762756 0.07084421 -0.4024596 0.26083803 0.15997402 0.2686676 0.2487935 0.07325286 -0.16521136 -0.1695555 -0.003939286 -0.12830183 0.2261109 0.0037346657 0.08151877 0.04062051 0.55839956 -0.23264836 0.037707336
74 0.14625044 -0.06785037 0.42396492 0.083552785 0.04553536 0.07308931 0.0056984755 -0.046908323 -0.31897807 -0.28576508 -0.3023344 0.10066334 -0.2155318 -0.07604243 -0.012042352 0.10209308 0.05234098 -0.02074105 -0.06937484 -0.19497703 0.075539626 0.103707805 0.110245466 -0.2803639 0.17218956 -0.073596664 -0.10021343 0.11094424 0.32081679 -0.040310115 0.05152391 -0.059859827 -0.081285976 0.13200095 0.050444655 0.012760089 -0.30777705 0.076476075 -0.20644508 -0.02421803 -0.054711062 0.18797651 0.0046268795 0.020135825 0.067959264 0.08545894 0.06633761 -0.39500064 0.27625194 0.15539089 0.25521392 0.25459823 0.076843195 -0.16615504 -0.17971842 -0.005112525 -0.12342639 0.218308 0.0058695036 0.07353019 0.05067712 0.5602943 -0.24138221 0.045516137
95 0.13851671 -0.062607706 0.40987736 0.07752163 0.028749168 0.07741028 0.0028180794 -0.05751097 -0.31956542 -0.28984565 -0.31300893 0.1003457 -0.2226449 -0.07622515 -0.010981604 0.09256169 0.058204185 -0.013668437 -0.059218872 -0.18462008 0.083086856 0.10374334 0.110022515 -0.2805048 0.17223798 -0.080690324 -0.1085263 0.1045416 0.32974988 -0.035174016 0.039550856 -0.06369579 -0.087679334 0.12167468 0.04797011 0.009612658 -0.30714935 0.07022592 -0.21210234 -0.023169955 -0.057333052 0.18431903 -0.010963813 0.014929171 0.06480228 0.08568839 0.059737984 -0.39139402 0.26542142 0.16263424 0.27623302 0.24669865 0.07817616 -0.15844682 -0.17164932 -0.0014053937 -0.13854371 0.23477598 0.003962185 0.06722451 0.044225756 0.5503903 -0.23680347 0.043658316
62 0.14451915 -0.06504579 0.4189198 0.085003205 0.033012822 0.08182792 -0.006195769 -0.053870596 -0.308979 -0.29254767 -0.30953887 0.10785823 -0.2183683 -0.0647212 -0.002535462 0.09210271 0.050948787 -0.02126218 -0.07520814 -0.18416464 0.089156255 0.10353123 0.10145878 -0.27433386 0.16861019 -0.082228534 -0.095588915 0.099980675 0.3076771 -0.03797307 0.04058859 -0.054776125 -0.09014611 0.1280891 0.04676313 0.0074264593 -0.31281713 0.06550707 -0.1968916 -0.029325856 -0.060263127 0.19552091 -0.0024605684 0.01745477 0.06730824 0.08197596 0.068680145 -0.38990024 0.26983503 0.1633214 0.25754994 0.24808852 0.07500964 -0.15181611 -0.17385711 -0.0044999025 -0.13009843 0.21664353 0.004102678 0.07593805 0.050776802 0.5508291 -0.22729589 0.041799985
98 0.14485629 -0.06475643 0.43178812 0.09490219 0.031514302 0.08440018 -0.010386672 -0.065061286 -0.3099683 -0.27634257 -0.30161098 0.10571515 -0.2239168 -0.06528641 0.0029674207 0.10271918 0.056224536 -0.025253097 -0.058608864 -0.18248448 0.08901024 0.08878717 0.10016064 -0.27303854 0.1814038 -0.08228494 -0.096541114 0.091815226 0.32119992 -0.045291565 0.048223548 -0.05973727 -0.08474491 0.13665383 0.056040283 0.011250351 -0.31596363 0.070110224 -0.2114519 -0.020112833 -0.06292369 0.18811621 0.00084602047 0.00881992 0.0644855 0.0850393 0.07523733 -0.3945276 0.2709535 0.15651232 0.2503234 0.25464123 0.0740881 -0.15198517 -0.17544049 -0.0075494726 -0.1307958 0.2160281 0.0011213071 0.073999524 0.055417996 0.5616166 -0.24229114 0.043978237
65 0.13007213 -0.058135487 0.3974339 0.08917845 0.043760397 0.06927585 0.00373527 -0.05199383 -0.31133014 -0.2989902 -0.31506854 0.11614704 -0.22585864 -0.07517051 0.0042980085 0.097184725 0.06353908 -0.024145946 -0.06134706 -0.19192314 0.08873425 0.09143606 0.102273844 -0.2688205 0.16606826 -0.0843231 -0.10325952 0.10572779 0.3276335 -0.030085605 0.040978145 -0.050019283 -0.089100204 0.13396412 0.0458276 0.0136947315 -0.30984613 0.063787505 -0.2099454 -0.021579785 -0.05481784 0.20332403 0.0014529855 0.0068761585 0.07251206 0.089883804 0.059342947 -0.3958573 0.25968033 0.1590298 0.26725477 0.24240482 0.07305801 -0.16688035 -0.17431945 -0.004482698 -0.12743635 0.21985556 -0.005507934 0.07791229 0.03544879 0.56428725 -0.23965281 0.04449402
91 0.14597788 -0.05605288 0.4207116 0.09188001 0.045443382 0.07209887 -0.0033267194 -0.06162107 -0.31709194 -0.29010135 -0.31837457 0.105879225 -0.23040248 -0.07176678 -0.010842535 0.096208274 0.05631072 -0.024267774 -0.063113384 -0.19038701 0.08570729 0.09361764 0.106967546 -0.28006807 0.16873991 -0.08681569 -0.09356061 0.10497963 0.3180453 -0.04741052 0.047686826 -0.059387553 -0.08184325 0.1289438 0.04785828 0.0062156115 -0.31560272 0.067806415 -0.19859606 -0.018007038 -0.06352657 0.19597588 0.004628052 0.013680266 0.05939764 0.07629149 0.072445154 -0.4031667 0.2615042 0.15412761 0.26313287 0.23936126 0.07589923 -0.15421589 -0.17659885 0.00063482934 -0.12790903 0.22475082 -0.0031635715 0.06907525 0.04974069 0.5591095 -0.22569254 0.04526627
79 0.1410468 -0.06613216 0.41802928 0.083784275 0.02829504 0.06991843 -0.008441365 -0.047303233 -0.31734726 -0.29496756 -0.30701372 0.11069767 -0.21878187 -0.0635545 -0.0014157176 0.10047784 0.055436347 -0.023517197 -0.07573942 -0.17015773 0.09106115 0.10253737 0.09484346 -0.26948333 0.16429967 -0.08722539 -0.08985558 0.086684756 0.3235102 -0.035918962 0.043315228 -0.05070167 -0.08927583 0.12432261 0.053940825 0.0051293625 -0.31871256 0.064451426 -0.20347911 -0.027625129 -0.054815885 0.19123155 -0.0074564023 0.021984506 0.064182185 0.09090809 0.061830427 -0.4026912 0.26127404 0.15531318 0.25575602 0.23599514 0.060922842 -0.15163974 -0.16822824 -0.012293885 -0.12397999 0.22172269 -0.0045283088 0.073330894 0.046206087 0.5550153 -0.2306506 0.038659256
72 0.1403482 -0.061873876 0.43648943 0.09206014 0.03155798 0.0826728 -0.0013547483 -0.057568997 -0.3083009 -0.27740425 -0.31128424 0.10720299 -0.21187283 -0.07512003 -0.0109098945 0.10483863 0.050039705 -0.016914366 -0.072949685 -0.18846674 0.09827093 0.08977535 0.11233766 -0.27455705 0.18085904 -0.081868604 -0.104385816 0.10311383 0.31580812 -0.035493717 0.04596852 -0.0729329 -0.0812437 0.13392472 0.059471015 0.018032337 -0.3068383 0.06114238 -0.20831057 -0.02216408 -0.06432117 0.18202034 -0.010137871 0.020567907 0.05709776 0.09220413 0.07480872 -0.39467514 0.26211706 0.1626691 0.26983383 0.25631395 0.08086456 -0.15986292 -0.17867523 -0.0057648653 -0.1283379 0.22144045 0.010315193 0.07710444 0.0489957 0.5583729 -0.2404377 0.03180113
84 0.14161661 -0.06689177 0.41946003 0.08485376 0.033922493 0.083028845 -0.004544909 -0.057565756 -0.32341754 -0.29133832 -0.31084713 0.10231285 -0.22039656 -0.07795391 -0.0065481444 0.09295857 0.056735355 -0.012513081 -0.07323889 -0.1894693 0.09235497 0.09835093 0.10957865 -0.27640623 0.17359577 -0.091130756 -0.097337805 0.08998772 0.3122126 -0.03755918 0.037873663 -0.05405664 -0.07831395 0.13418032 0.056512635 0.010850205 -0.31888032 0.059750546 -0.21444641 -0.03752254 -0.053055607 0.19213437 0.006010576 0.017464843 0.07101457 0.08021552 0.07432742 -0.40273386 0.2644604 0.14918284 0.2618916 0.2475184 0.074306354 -0.16382948 -0.17142609 0.003733635 -0.13030165 0.21744122 -0.004495977 0.07245059 0.048616324 0.56748205 -0.23774686 0.041127086
76 0.13201354 -0.065681994 0.417151 0.085537806 0.03323101 0.081028536 -0.0029637502 -0.04628575 -0.30974337 -0.28122097 -0.31134665 0.10831539 -0.21755108 -0.07910185 -0.00069548766 0.10186441 0.064948805 -0.008111496 -0.06793662 -0.18881612 0.09406762 0.08678838 0.10773814 -0.27265522 0.17051698 -0.07751981 -0.08939042 0.10431579 0.31422555 -0.032900885 0.043969356 -0.06764151 -0.09244058 0.122729786 0.054142307 0.019303575 -0.3054718 0.07371661 -0.20543148 -0.028670022 -0.053266507 0.19491655 -0.0014967198 0.009967891 0.062053863 0.09134953 0.07133615 -0.40111384 0.2635888 0.15617676 0.2597677 0.25123206 0.07101512 -0.15628712 -0.16592515 0.0039119297 -0.13340563 0.22727872 0.004044189 0.070419006 0.03822378 0.5524976 -0.23554325 0.041573126
21 0.1315561 -0.05870988 0.42210248 0.0869871 0.036771063 0.076747596 -0.009687816 -0.056863427 -0.31265357 -0.2956923 -0.31532097 0.11607858 -0.22424127 -0.07760222 0.006957086 0.094863355 0.063365996 -0.01067264 -0.061849307 -0.18720719 0.08450523 0.09489476 0.09668988 -0.27292305 0.16931908 -0.07714913 -0.093068115 0.09254214 0.32499108 -0.040896315 0.05074374 -0.065557696 -0.086232506 0.12778811 0.056112785 0.006652341 -0.31537163 0.06887047 -0.20651437 -0.022677733 -0.055237334 0.18825316 -0.006085248 0.025691811 0.06263502 0.088938676 0.06658107 -0.3952985 0.26097658 0.16123968 0.26115337 0.25106582 0.064696185 -0.16023572 -0.18201728 -0.00029157088 -0.12254101 0.22520842 0.006788491 0.064989276 0.048947588 0.5533475 -0.23379624 0.043989833
73 0.14976154 -0.055883564 0.4116161 0.093484715 0.0308785 0.07592746 -0.009115513 -0.059614558 -0.3098225 -0.29725 -0.30272558 0.119286686 -0.21966814 -0.0687354 -0.0038699827 0.105674244 0.05992563 -0.013185792 -0.070631474 -0.19614935 0.09042877 0.090811156 0.09693962 -0.27341628 0.18274055 -0.087566 -0.091762125 0.097080626 0.309764 -0.039237574 0.04806863 -0.06716253 -0.07334506 0.13445425 0.046722993 0.017733956 -0.31537464 0.07235272 -0.20821828 -0.018269597 -0.053192485 0.18981476 -0.002579469 0.017804367 0.06294787 0.08649437 0.06894755 -0.40689453 0.27162534 0.1497298 0.25924516 0.24670318 0.07691472 -0.15801491 -0.17995761 -0.00962963 -0.14086135 0.22989395 0.0018065854 0.0713925 0.040382292 0.56094736 -0.24282824 0.03851205
82 0.13924994 -0.05507445 0.41864213 0.085010126 0.030854039 0.06856351 -0.011532525 -0.057447772 -0.31291807 -0.28799394 -0.3068828 0.10681306 -0.21857314 -0.06659153 -0.00075354724 0.09277615 0.05447821 -0.020967266 -0.061404295 -0.1869452 0.08362155 0.08885667 0.107453465 -0.27809826 0.16808851 -0.08686493 -0.09660282 0.09193087 0.31786472 -0.033546366 0.050857715 -0.05595973 -0.09179106 0.13394599 0.05347273 0.014222529 -0.31310606 0.074178435 -0.21441782 -0.032482106 -0.055514056 0.1899266 -0.010096591 0.011054333 0.05604121 0.09358006 0.062467266 -0.39562014 0.26441208 0.16031638 0.26728484 0.2578328 0.072788544 -0.15352459 -0.17138854 -0.0006363773 -0.13227947 0.22534022 0.0105121285 0.07071074 0.045954335 0.56716347 -0.2427211 0.041277993
33 0.14715363 -0.062900916 0.41720682 0.086664304 0.02675714 0.07742561 -0.012493104 -0.04725004 -0.3191374 -0.28708243 -0.31391808 0.10568332 -0.22655062 -0.066844076 -0.0025018202 0.09416241 0.056060776 -0.019892706 -0.07028801 -0.18668817 0.09373734 0.098486535 0.1013292 -0.27944252 0.17973384 -0.07874839 -0.09839914 0.095546156 0.31538597 -0.04065798 0.047900196 -0.056436956 -0.08556545 0.12941658 0.046026293 0.0015214956 -0.3163791 0.07212068 -0.21322024 -0.032641422 -0.051014505 0.19819903 0.0007146034 0.020517504 0.058117103 0.088377416 0.07083583 -0.40021425 0.26227558 0.16352172 0.2627871 0.23763089 0.07050907 -0.15572888 -0.17561853 -0.0059033204 -0.13436568 0.22495896 -0.0075593637 0.07078867 0.040351585 0.5629168 -0.23373306 0.046592284
24 0.1419789 -0.06823709 0.41758606 0.081231445 0.030853884 0.081173114 -0.013380404 -0.058924653 -0.31640914 -0.2901657 -0.30894968 0.114006504 -0.21186203 -0.07033557 -0.0027324904 0.08974002 0.06369512 -0.013687471 -0.07365732 -0.19456303 0.087095976 0.09512269 0.10638803 -0.26647255 0.17169875 -0.083309054 -0.093483 0.09957431 0.3198307 -0.03754361 0.049331605 -0.066590965 -0.080536686 0.12439561 0.044678506 0.01755462 -0.31441927 0.06896138 -0.20753606 -0.024119051 -0.05351094 0.18303488 -0.008728585 0.0117103625 0.062053017 0.09100189 0.072908215 -0.40119922 0.2746264 0.1548591 0.25930795 0.24805588 0.067115955 -0.15509668 -0.17185193 -0.007183758 -0.13605578 0.21221495 0.003646531 0.06196735 0.041469887 0.5589608 -0.23526916 0.039333276
27 0.13090704 -0.051541764 0.42339072 0.08496417 0.03137306 0.063778564 -0.0019970196 -0.055568416 -0.30826354 -0.2772699 -0.3013733 0.11398714 -0.21625604 -0.073416956 -0.006889519 0.100026846 0.057560064 -0.011813921 -0.07659332 -0.17874926 0.08830235 0.09022065 0.10561621 -0.27389875 0.17983863 -0.084656455 -0.09508121 0.100586295 0.30952626 -0.045514572 0.045134358 -0.06414947 -0.07639099 0.124791756 0.059909124 0.016706398 -0.3138283 0.061338164 -0.21413353 -0.022696113 -0.0607556 0.19347243 0.0035645727 0.02467603 0.07178536 0.091155976 0.06625577 -0.4027342 0.2714798 0.15549782 0.26164356 0.250646 0.06114506 -0.15361084 -0.18321778 -0.012055941 -0.1260306 0.22815485 0.0056967903 0.07069364 0.053351913 0.56423855 -0.23627011 0.04011325
96 0.149071 -0.06518929 0.4135593 0.0808395 0.041409206 0.07651441 -0.00658253 -0.045669854 -0.3182069 -0.29131764 -0.31278005 0.113807395 -0.21669886 -0.074306235 -0.013211539 0.09238148 0.056851875 -0.023879858 -0.071475744 -0.17762214 0.08938135 0.08659685 0.10072188 -0.27873173 0.18159519 -0.08876858 -0.093996234 0.09982267 0.3212581 -0.035494953 0.052207313 -0.05204247 -0.07195006 0.119109005 0.04974293 0.019121023 -0.31359744 0.06928061 -0.19816181 -0.019682214 -0.06259883 0.19244473 -0.000117494645 0.009561721 0.06481341 0.081079885 0.05885299 -0.3966967 0.26130712 0.14879976 0.25066617 0.24799873 0.06812074 -0.15641746 -0.16543017 -0.012931976 -0.124078006 0.22870968 -0.0056975298 0.07876737 0.03875205 0.5581697 -0.23883884 0.03193895
77 0.13448328 -0.054799944 0.42087135 0.079959445 0.038436186 0.07267637 -0.011138337 -0.04979075 -0.32076925 -0.28450477 -0.30732185 0.10435932 -0.22713472 -0.078490175 0.0047119507 0.092933126 0.06233585 -0.017435914 -0.06765593 -0.18684834 0.09583129 0.08885036 0.099874094 -0.2662502 0.17452456 -0.07432607 -0.10026655 0.08941292 0.31896752 -0.044353582 0.04270273 -0.0600465 -0.0862243 0.13686657 0.05276193 0.01672415 -0.31867534 0.062076192 -0.20635173 -0.031923153 -0.050067708 0.18974952 -0.0033871788 0.022859698 0.07324722 0.08364126 0.06459402 -0.39837432 0.26498353 0.16040477 0.25637665 0.25319645 0.062764175 -0.16045907 -0.18160547 -0.0046594744 -0.14049242 0.2147731 0.008711463 0.06493998 0.052357785 0.55369776 -0.22422285 0.031063719
80 0.14264943 -0.062822424 0.41836366 0.087712035 0.039339717 0.07006619 -0.009573722 -0.04767253 -0.32486102 -0.28550395 -0.3050716 0.11077178 -0.21877609 -0.070860885 1.8667331e-05 0.09172742 0.058906175 -0.015669614 -0.07025244 -0.17705235 0.09451328 0.09982975 0.09470399 -0.26770318 0.17388056 -0.089475915 -0.10222422 0.09907945 0.32505086 -0.044081982 0.048163783 -0.052053157 -0.077566884 0.12751144 0.055513117 0.015932294 -0.32037288 0.0578423 -0.21515484 -0.03430035 -0.054644912 0.18984595 -0.003510591 0.023524959 0.074241 0.0794239 0.06981802 -0.39501464 0.27542883 0.15529414 0.26219758 0.25064412 0.06268796 -0.1532406 -0.18371855 -0.0032182808 -0.1390594 0.21694349 -0.0031583721 0.07346754 0.04069157 0.5589096 -0.22783712 0.04643667
6 0.14139532 -0.057084966 0.41758487 0.091596484 0.03749579 0.082495674 -0.0025009892 -0.06278537 -0.31860927 -0.28548592 -0.3084753 0.10668313 -0.22896801 -0.063068524 -0.009418071 0.09607982 0.052875776 -0.026114782 -0.060269617 -0.1786943 0.09607826 0.0988506 0.10509172 -0.27833933 0.16353738 -0.083788335 -0.0912659 0.10220239 0.32780346 -0.038186282 0.035936918 -0.06003608 -0.086685315 0.12856455 0.046050295 0.013765223 -0.31297117 0.058874164 -0.21343802 -0.018973252 -0.05217599 0.19809112 -0.00050242693 0.017457495 0.07207768 0.07550848 0.07224343 -0.39351138 0.26940382 0.16286528 0.26841623 0.25121582 0.07353336 -0.15338942 -0.18008421 -0.010678897 -0.13721766 0.23279694 -0.002008695 0.07795161 0.053407565 0.56278586 -0.24031878 0.046905622
30 0.1395121 -0.06113288 0.4322795 0.09284188 0.029099412 0.07990031 -0.00080355123 -0.054628126 -0.3153648 -0.29769197 -0.31159556 0.115454614 -0.22090341 -0.080549605 -0.0067276866 0.099911734 0.057444192 -0.023864726 -0.062393583 -0.19343069 0.09633527 0.093385 0.10287966 -0.27051714 0.17224728 -0.0922392 -0.0890046 0.094280705 0.32341987 -0.04408961 0.052132227 -0.059195545 -0.083007194 0.12881146 0.044295307 0.022028768 -0.31916675 0.06359283 -0.19860117 -0.025722021 -0.058032922 0.19317736 -0.0018051754 0.014317865 0.060477655 0.08028872 0.07602825 -0.40193388 0.26298162 0.15967213 0.25188208 0.25410476 0.073667794 -0.168894 -0.18256377 -0.0118051125 -0.13888177 0.21890444 -0.0004289386 0.082412764 0.047783103 0.5523615 -0.2423068 0.03313362
5 0.14951617 -0.064587034 0.4193563 0.08400081 0.029117081 0.08385195 -0.0013045651 -0.048814166 -0.31769508 -0.29360706 -0.31515646 0.10400966 -0.21182308 -0.077633806 0.006079724 0.09159727 0.049037803 -0.028194103 -0.06902782 -0.18599798 0.083063684 0.09689626 0.09636649 -0.27758598 0.17684703 -0.08752728 -0.0939699 0.10260463 0.31843504 -0.033068646 0.03953097 -0.055774987 -0.08991154 0.12981945 0.04723483 0.004003018 -0.31673145 0.07131031 -0.19478047 -0.026883418 -0.05242541 0.19434576 -0.0068106535 0.016100992 0.06189063 0.08077651 0.067608126 -0.39663178 0.26867557 0.15802217 0.26350904 0.2532817 0.071594246 -0.16346157 -0.18118261 -0.0003900201 -0.13623367 0.23058006 -0.0066884924 0.07885797 0.05048759 0.5464488 -0.24098071 0.0407889
8 0.15297522 -0.061236154 0.41780707 0.09232021 0.038305912 0.07353283 -0.005033999 -0.061356436 -0.32065526 -0.29152164 -0.3052639 0.10487328 -0.21823414 -0.0741474 0.00040550242 0.09826261 0.062914066 -0.023389705 -0.07307217 -0.18376873 0.08982138 0.094614506 0.10743427 -0.26777995 0.16868538 -0.083356544 -0.08865525 0.1082871 0.31475475 -0.04150937 0.039546236 -0.06570993 -0.07856013 0.124812104 0.048577957 0.011187775 -0.3165041 0.071040064 -0.19598798 -0.022074439 -0.048011295 0.20709918 0.0029054203 0.020095631 0.07067045 0.086747915 0.07418434 -0.39299798 0.27363586 0.14969498 0.26536304 0.24367091 0.07327492 -0.15314329 -0.17653784 -0.0057163825 -0.13627803 0.22436501 0.003298748 0.07505334 0.052229226 0.5541684 -0.2401222 0.04170478
7 0.14930551 -0.065979294 0.43235728 0.07440774 0.03553407 0.075112976 -0.012918622 -0.048812646 -0.30985406 -0.28251126 -0.31564122 0.113830596 -0.22089164 -0.06867216 -0.010558724 0.09180317 0.04558093 -0.017408941 -0.05838364 -0.17957163 0.08757309 0.08426821 0.112546705 -0.27282986 0.18198772 -0.08142999 -0.10103414 0.0904225 0.31280652 -0.046374433 0.049868844 -0.059866007 -0.07523116 0.124096565 0.058517832 0.019320084 -0.3099242 0.06064114 -0.21073456 -0.025944237 -0.058573056 0.1826739 -0.008296825 0.019524654 0.06009535 0.094490245 0.063789316 -0.39518496 0.26790455 0.15757662 0.27524933 0.256593 0.076477684 -0.16000313 -0.16873874 -0.010326789 -0.13366927 0.23222862 0.0006388895 0.07434449 0.053668004 0.55786043 -0.23102035 0.0378504
29 0.14171495 -0.056007553 0.43649128 0.09704665 0.033341523 0.0802133 -0.010462911 -0.058790088 -0.31847212 -0.29666477 -0.3169659 0.11513219 -0.22026168 -0.07882571 0.0036832916 0.09798035 0.056236405 -0.014203917 -0.080982044 -0.1924631 0.087784156 0.09829969 0.105073586 -0.28089622 0.17497997 -0.07533684 -0.10724585 0.0975045 0.30801505 -0.043704826 0.052116245 -0.054402236 -0.08328619 0.13246566 0.04704197 0.005459088 -0.3144708 0.07087249 -0.21265113 -0.034134146 -0.06274667 0.20003228 -0.004801032 0.013717832 0.06500793 0.085257635 0.07597127 -0.39536422 0.26210147 0.14911069 0.26578644 0.24795096 0.076586895 -0.16670309 -0.17937766 -0.0052546915 -0.13074896 0.21751934 -0.007674079 0.0699608 0.050307307 0.5585257 -0.23585509 0.045358066
81 0.14330424 -0.068231985 0.4265032 0.08361326 0.03697162 0.06923542 0.0013078552 -0.054298088 -0.3118086 -0.29080302 -0.31425115 0.11457104 -0.2177843 -0.07066232 0.002168319 0.09875366 0.056666296 -0.022591898 -0.06612457 -0.17959544 0.0865732 0.087179415 0.09512861 -0.27441213 0.17088357 -0.088902645 -0.096220255 0.10268551 0.32277006 -0.034153588 0.037175383 -0.060781922 -0.08274236 0.123498216 0.051999155 0.015073265 -0.32241333 0.061541364 -0.2035714 -0.03283398 -0.05433524 0.19496608 0.0021158308 0.010474105 0.0656202 0.08426478 0.073442675 -0.39979717 0.2647762 0.14954616 0.25898057 0.2472071 0.068777315 -0.15373991 -0.17535408 -0.008680795 -0.14178614 0.23252979 -0.0026349903 0.071274325 0.03790195 0.5554162 -0.23734115 0.033399478
13 0.14894788 -0.067357264 0.4264106 0.09287987 0.029283376 0.08020446 -0.013741417 -0.060822554 -0.31969354 -0.2839021 -0.3127236 0.10958508 -0.21537402 -0.076609716 -0.0002129506 0.09340342 0.05951566 -0.011021662 -0.07939047 -0.18413356 0.09444482 0.09979303 0.11170885 -0.2718602 0.17049947 -0.08428785 -0.10420578 0.10032164 0.32436517 -0.039651893 0.043132138 -0.061741486 -0.08190858 0.12546705 0.048636056 0.011633571 -0.30551445 0.059413057 -0.20336905 -0.032152582 -0.055558003 0.19256741 0.0044916747 0.02103506 0.07606084 0.08381069 0.0753818 -0.39536437 0.25872636 0.15435234 0.26086423 0.2417563 0.07816862 -0.1523 -0.1733764 -0.0004182264 -0.121292666 0.22206816 -0.002692803 0.06518926 0.047383126 0.5663417 -0.22865976 0.04064375
23 0.15071695 -0.054693386 0.42415875 0.09333172 0.039510325 0.071874775 -0.0014696814 -0.050287213 -0.31635433 -0.28337228 -0.30158246 0.09894899 -0.22698441 -0.073439725 -0.010450162 0.09791978 0.06258591 -0.011649373 -0.07565457 -0.18855959 0.09055342 0.094283305 0.10569572 -0.2820296 0.180759 -0.09310868 -0.097286634 0.09390917 0.3226204 -0.040858075 0.03765528 -0.05964175 -0.08121604 0.13044694 0.05787903 0.007864424 -0.31114492 0.076807 -0.20772472 -0.0238569 -0.0622662 0.18878038 -9.920361e-06 0.015408553 0.06251447 0.076048344 0.06916321 -0.39806676 0.2650355 0.1570522 0.2619749 0.25394604 0.079041936 -0.16344333 -0.17396086 -5.7466452e-05 -0.13500611 0.22758736 0.0013740549 0.06744555 0.042649806 0.550127 -0.24194577 0.03466372
88 0.13031688 -0.07037502 0.4248206 0.09206025 0.031442016 0.076951936 0.0034156477 -0.04694149 -0.31726345 -0.28647783 -0.3133922 0.11714826 -0.22048523 -0.073739976 0.006026576 0.097632855 0.048489653 -0.018823195 -0.06844895 -0.18088807 0.085672826 0.09612206 0.09682445 -0.26869035 0.18093413 -0.079245925 -0.098761424 0.10785203 0.3164572 -0.03578377 0.039487567 -0.053493276 -0.08683541 0.12165969 0.061095648 0.0041367495 -0.31459472 0.069618426 -0.21142864 -0.024369992 -0.04631322 0.19780925 -0.005854463 0.0074754967 0.07136777 0.0898813 0.07525648 -0.38912287 0.27081382 0.16606894 0.26110354 0.2501496 0.07820705 -0.1540869 -0.18252632 -0.0123302685 -0.13284966 0.2226164 0.0011925298 0.0662664 0.040311463 0.562605 -0.22986157 0.030021375
36 0.13296917 -0.06090308 0.40825596 0.07767081 0.03980645 0.06933452 -0.007213276 -0.05182927 -0.30897385 -0.29156289 -0.31312993 0.1160365 -0.20961411 -0.07639466 0.003826883 0.10023719 0.06655895 -0.019995267 -0.06962681 -0.18412472 0.079652466 0.08678023 0.10264845 -0.2760375 0.16572684 -0.08427392 -0.097445585 0.08865455 0.31877437 -0.040611442 0.052335415 -0.0637727 -0.08999285 0.12793204 0.048866943 0.01617705 -0.313168 0.062168658 -0.20632495 -0.02902021 -0.04803961 0.19168825 -0.0063782264 0.017729543 0.059792284 0.083716795 0.06644708 -0.39620432 0.2587406 0.14710669 0.25054616 0.24458663 0.066001795 -0.15334257 -0.17572471 -0.0023453159 -0.12036434 0.21979226 0.007941618 0.07227161 0.038136426 0.5579677 -0.2348237 0.030159878
0 0.13951382 -0.056288317 0.42475405 0.09357937 0.044034995 0.078378975 -0.0022905737 -0.048975553 -0.30967376 -0.2869687 -0.31730643 0.101122074 -0.21511562 -0.07589571 -0.0052756066 0.10427556 0.05205201 -0.02482715 -0.0717821 -0.18425287 0.0789212 0.08938404 0.11217757 -0.267255 0.17789222 -0.07543355 -0.091279656 0.09180464 0.3245878 -0.02829525 0.05063977 -0.06256776 -0.088838406 0.13361546 0.052315053 0.012527099 -0.31044507 0.07516073 -0.1965433 -0.032001592 -0.058670186 0.1932902 0.0020489253 0.022997044 0.057769217 0.07491613 0.07129515 -0.39003837 0.2631796 0.1533375 0.26309162 0.25876227 0.07011183 -0.16552573 -0.18030895 -0.0029383276 -0.13529214 0.21988775 0.0028880697 0.06732709 0.042963505 0.56236756 -0.22338606 0.034722667
