100 64
83 0.012404703 -0.08804107 -0.18039335 -0.25715548 0.07725705 -0.009147465 -0.19614173 0.06892697 0.17029151 -0.13300474 -0.12426264 -0.13015942 -0.048416585 -0.28630957 -0.35642335 -0.011885086 0.038405836 -0.09035345 -0.06934734 0.16655585 0.3812337 0.33712044 0.3079028 -0.2591672 -0.17086904 0.168847 -0.11201059 -0.07856807 -0.5436047 0.02562957 -0.09532896 -0.14816718 -0.0054431283 0.008042134 -0.075520806 -0.07325433 -0.08588217 0.13736309 0.033311795 0.110628754 0.2610337 -0.20720401 -0.00042827363 -0.13561504 0.0959888 0.27424034 -0.1268214 -0.20564012 0.10082781 -0.14914054 -0.19685271 0.101532936 0.04859028 -0.26260844 -0.036861196 0.14403406 -0.230788 -0.26086017 -0.0841254 0.057860807 0.19900139 -0.15616587 0.034210652 -0.079524435
20 0.010290275 -0.08315059 -0.1810077 -0.2432247 0.0746637 -0.016587393 -0.20093797 0.076596715 0.16046044 -0.14343704 -0.1245513 -0.12349616 -0.05391204 -0.29035196 -0.3471588 -0.0021365539 0.03808507 -0.09524957 -0.06112715 0.168361 0.39648145 0.336688 0.30763027 -0.24982822 -0.18340985 0.16235761 -0.104724355 -0.07492897 -0.5369388 0.025465457 -0.08784898 -0.15554984 -0.016055172 0.0062388387 -0.07476903 -0.06677537 -0.082912415 0.13819154 0.03293288 0.1004987 0.25761342 -0.20483147 0.0021313915 -0.13388686 0.094627425 0.26965886 -0.12869485 -0.20489274 0.111318596 -0.15525593 -0.19463095 0.108016774 0.041226193 -0.2728366 -0.036708217 0.14326201 -0.22755277 -0.2632611 -0.07913864 0.056811493 0.2034816 -0.15055813 0.026862258 -0.081210405
18 0.0028190515 -0.09950226 -0.17520697 -0.25506943 0.080528505 -0.024765057 -0.20449463 0.07171228 0.1791939 -0.14492685 -0.11393418 -0.124165095 -0.049334485 -0.28280827 -0.3562642 -0.0057169455 0.037346438 -0.086534426 -0.059580132 0.16607372 0.39955118 0.33803985 0.30302167 -0.27065665 -0.17193922 0.16493608 -0.10568491 -0.086742334 -0.5356562 0.03330996 -0.09110661 -0.16625756 -0.003750752 -0.003362866 -0.081469946 -0.072036296 -0.07282523 0.14605898 0.03924959 0.10258369 0.26699665 -0.20639335 0.0012711283 -0.13240425 0.095269896 0.26846015 -0.117765605 -0.2144857 0.106576174 -0.14648467 -0.19380116 0.09484643 0.048494488 -0.26163283 -0.039915085 0.13974743 -0.22508462 -0.24465473 -0.07600823 0.05554511 0.19873905 -0.1447757 0.02066953 -0.079977036
45 0.010470932 -0.0860416 -0.1782291 -0.25713286 0.089914255 -0.020760626 -0.20433682 0.07320205 0.17216547 -0.14794561 -0.12747438 -0.13231997 -0.04284952 -0.29125908 -0.36048222 -0.014487744 0.035078064 -0.09134289 -0.06794948 0.17064457 0.39629304 0.33452603 0.29953358 -0.25593364 -0.17496274 0.16759872 -0.11011579 -0.07256689 -0.5440568 0.02333076 -0.08733775 -0.16280714 -0.0040565925 0.0019642606 -0.07221023 -0.075913206 -0.077039324 0.149075 0.028964283 0.10920965 0.2529937 -0.2102346 -0.00088372873 -0.13211933 0.09423208 0.26543882 -0.1258926 -0.2103473 0.107281365 -0.14337756 -0.19663298 0.10095298 0.035855833 -0.26198044 -0.035735834 0.12945391 -0.22299597 -0.25248685 -0.07908672 0.07305582 0.19505416 -0.15293077 0.025809227 -0.06987377
55 0.0012994525 -0.084272616 -0.18385017 -0.24433897 0.077674866 -0.008310663 -0.19749223 0.08397447 0.16388649 -0.13155164 -0.12242705 -0.12521648 -0.044970382 -0.28745356 -0.34402984 -0.006013034 0.038315594 -0.082405455 -0.056076385 0.16397773 0.3783675 0.33591038 0.31065524 -0.2603577 -0.18138479 0.16532448 -0.11032489 -0.06973672 -0.5323747 0.021196542 -0.0948524 -0.15171342 -0.010621663 0.004885857 -0.08246411 -0.07219007 -0.08954715 0.13753422 0.038802013 0.11004302 0.25436637 -0.21270864 0.015660949 -0.13828214 0.09142601 0.27037752 -0.117952295 -0.21591406 0.09925938 -0.14406952 -0.201497 0.08711229 0.041781392 -0.271723 -0.039770383 0.12546799 -0.2191406 -0.2627078 -0.08561837 0.06432907 0.2015537 -0.14705452 0.03037161 -0.077072814
89 0.003215704 -0.08864999 -0.18160163 -0.2468027 0.07967073 -0.006168574 -0.19309857 0.06571487 0.17329542 -0.14581011 -0.11756303 -0.13402493 -0.042929485 -0.29287264 -0.35615948 -0.016105909 0.04681786 -0.09003663 -0.058279876 0.16066457 0.39523092 0.32754043 0.29307324 -0.25433588 -0.17552733 0.15878916 -0.10766728 -0.08478123 -0.54233503 0.019142475 -0.092197135 -0.1478104 -0.009953607 0.0059508295 -0.08071153 -0.064814724 -0.076168224 0.13661304 0.039743938 0.115710005 0.26105547 -0.20415328 0.011824685 -0.13510317 0.09123379 0.28066623 -0.12994725 -0.21587555 0.11064515 -0.14062786 -0.19479309 0.09403533 0.046149194 -0.26586115 -0.045224436 0.13212058 -0.21692595 -0.25747803 -0.084921725 0.07101612 0.20375247 -0.15158239 0.035900872 -0.08148065
53 0.010294313 -0.08500208 -0.18966678 -0.25303188 0.08490884 -0.01397128 -0.20249628 0.07747957 0.16133255 -0.14383419 -0.1160245 -0.12099182 -0.044347282 -0.2950727 -0.3468209 -0.0139558045 0.048450172 -0.082684204 -0.06368471 0.15717155 0.38376033 0.33999744 0.2979639 -0.2648483 -0.17095138 0.16872841 -0.11605604 -0.07618519 -0.5368097 0.02502834 -0.08707945 -0.15321691 -0.0009529067 0.010532458 -0.07918042 -0.060655642 -0.08664185 0.1378784 0.036400706 0.11243085 0.25656316 -0.20012002 0.00054768415 -0.12328267 0.09288474 0.2660241 -0.12682731 -0.19904666 0.10443271 -0.14923415 -0.202619 0.09314066 0.04632865 -0.26488498 -0.039964795 0.14065324 -0.21083006 -0.25755644 -0.0733948 0.06379082 0.20407218 -0.1548375 0.016958358 -0.07382095
78 0.012677906 -0.08954881 -0.17543593 -0.24227288 0.08173276 -0.020009806 -0.20443964 0.078609794 0.1737607 -0.14253594 -0.12200269 -0.12441352 -0.051019885 -0.2933699 -0.36159122 -0.016290184 0.04444968 -0.09085855 -0.06571236 0.15755975 0.38032353 0.3289092 0.3011144 -0.25882912 -0.18160084 0.17045759 -0.11352782 -0.08341264 -0.5398893 0.025479509 -0.09021267 -0.1546789 0.00094571593 0.013659357 -0.07936665 -0.07400196 -0.08071048 0.14448464 0.03605312 0.11622856 0.25514424 -0.20654333 0.0126004275 -0.13972984 0.08771283 0.2700958 -0.12922764 -0.20765181 0.10372286 -0.13949406 -0.20798708 0.10858208 0.04667517 -0.26618233 -0.03899261 0.13895197 -0.2281381 -0.25217694 -0.073274516 0.056518678 0.21106225 -0.15441091 0.031670757 -0.073245265
87 0.0030728788 -0.09606213 -0.17415628 -0.24077377 0.08697276 -0.008429219 -0.20944068 0.07600896 0.16678952 -0.14413737 -0.12524886 -0.13275234 -0.04156389 -0.29922852 -0.35654816 -0.008962492 0.038147863 -0.0921214 -0.05572332 0.1654926 0.38910407 0.3315297 0.29775435 -0.267711 -0.18313184 0.16241226 -0.1047899 -0.078143805 -0.5480192 0.018443946 -0.09602919 -0.16312665 -0.013259435 -0.0028884478 -0.07100699 -0.06161589 -0.07193083 0.13790663 0.04907419 0.1158866 0.26332545 -0.21259336 4.94999e-05 -0.13906328 0.100821786 0.27060917 -0.11729806 -0.21815063 0.10034395 -0.14652307 -0.20363283 0.09288629 0.04543749 -0.26734933 -0.029309664 0.13956851 -0.21689004 -0.2449725 -0.086039685 0.06202392 0.1956507 -0.15014851 0.035731006 -0.06994039
46 0.012137434 -0.09678201 -0.18167244 -0.24572188 0.08429585 -0.015198612 -0.20620586 0.079698704 0.17292133 -0.14746577 -0.13157383 -0.122481406 -0.053349458 -0.2944472 -0.35322732 -0.009397651 0.03708676 -0.085971415 -0.060530502 0.1627819 0.39437318 0.33445096 0.2973685 -0.24908045 -0.17179047 0.16945606 -0.10416785 -0.071481094 -0.53327256 0.012094975 -0.09739419 -0.15082747 -0.01451446 0.010944037 -0.07825287 -0.06664299 -0.08341187 0.14383137 0.03848789 0.101554476 0.25917986 -0.2025471 0.010304168 -0.13197255 0.09084102 0.2710371 -0.12474514 -0.21324664 0.106814325 -0.14051503 -0.19614403 0.10049019 0.032575957 -0.2675812 -0.041070186 0.13458905 -0.2201365 -0.2537544 -0.08145191 0.068692096 0.20010628 -0.15199049 0.029158995 -0.073403835
70 0.0046579484 -0.093986206 -0.18586287 -0.24380018 0.07882914 -0.021706097 -0.20201926 0.08658284 0.17190686 -0.1467028 -0.11901927 -0.12983628 -0.046790805 -0.29578048 -0.35858637 -0.014493572 0.03927286 -0.09135852 -0.06405721 0.16648199 0.38344315 0.3238233 0.3021301 -0.2653406 -0.18328235 0.15958953 -0.109580636 -0.07602412 -0.54416525 0.024253368 -0.09022564 -0.1651671 -0.014086403 -0.0005787972 -0.08146631 -0.067236446 -0.080874525 0.14163432 0.03814217 0.10244215 0.25522348 -0.20597358 -0.0034368958 -0.1269063 0.100833245 0.26414853 -0.12478817 -0.20193057 0.10935505 -0.14415893 -0.19536276 0.10140753 0.038318317 -0.26150027 -0.031638782 0.13636999 -0.23025125 -0.25042796 -0.07578071 0.06133758 0.19685894 -0.14846209 0.025414634 -0.07336963
52 0.00071849365 -0.08905887 -0.18799335 -0.24475218 0.08343317 -0.01445395 -0.2057578 0.08488926 0.16550256 -0.13819265 -0.13178717 -0.12823646 -0.055772558 -0.30103922 -0.35525146 -0.011069526 0.04066142 -0.08417537 -0.06631311 0.15762056 0.40037447 0.33786288 0.3110515 -0.25658184 -0.17680347 0.16421062 -0.11506662 -0.08072188 -0.54711974 0.014144031 -0.10068183 -0.15590952 -0.013441148 0.011316286 -0.07177644 -0.067502595 -0.089640595 0.14828981 0.035044212 0.11603342 0.2638778 -0.21590796 0.016481135 -0.14149901 0.09094368 0.27152508 -0.13138095 -0.21144527 0.10504059 -0.13776837 -0.1925192 0.11295857 0.037754703 -0.26800877 -0.03963537 0.14114805 -0.2192577 -0.25279278 -0.08774634 0.06917561 0.2058714 -0.14824773 0.02859375 -0.07151912
40 0.008099037 -0.09663487 -0.17702204 -0.2571825 0.08726051 -0.013625861 -0.20791733 0.07417213 0.16746174 -0.13318552 -0.11383214 -0.122317106 -0.045252226 -0.2868524 -0.35433778 -0.005431049 0.035774335 -0.08961854 -0.06918113 0.15682776 0.39240876 0.33042607 0.29566923 -0.2676025 -0.18113841 0.1583066 -0.103339784 -0.08180703 -0.5329587 0.027985709 -0.09155234 -0.15603626 -0.0041359058 0.0080777425 -0.07630137 -0.061238963 -0.077712744 0.13130915 0.033464063 0.11443484 0.25991735 -0.20570841 0.0022703323 -0.13351329 0.09079327 0.27523863 -0.13224576 -0.21747254 0.10265402 -0.140857 -0.2040379 0.10675168 0.036256377 -0.27017283 -0.035657633 0.13845819 -0.2281136 -0.24715637 -0.073755644 0.056338996 0.20279577 -0.15440969 0.021445611 -0.06560596
41 -0.0015443813 -0.08120314 -0.17561103 -0.24573405 0.07785557 -0.01246083 -0.19744755 0.077076405 0.16944905 -0.14923239 -0.12547633 -0.1285725 -0.04746193 -0.29540938 -0.35730913 0.0016711396 0.045452878 -0.08201409 -0.06281466 0.16098617 0.38207635 0.33721134 0.29555085 -0.26877597 -0.17370287 0.16079369 -0.10563886 -0.06990701 -0.552504 0.024942528 -0.08891956 -0.16189262 -0.002618024 0.0006783705 -0.08172258 -0.061617464 -0.080587626 0.14622657 0.033554595 0.11111245 0.2607251 -0.21386202 0.0048016207 -0.13849455 0.09832168 0.2700741 -0.12035366 -0.21061788 0.10792055 -0.14479871 -0.20620455 0.096197575 0.049115803 -0.26597548 -0.037768472 0.13449901 -0.23153867 -0.26080903 -0.07357833 0.05884693 0.19973518 -0.14453785 0.019487746 -0.070615515
9 0.013306719 -0.08507034 -0.18303673 -0.25389782 0.083148144 -0.017691938 -0.19352978 0.078152806 0.17083363 -0.13971129 -0.120394856 -0.12846455 -0.049447533 -0.2957805 -0.3580266 -0.008201631 0.044675592 -0.07919065 -0.05751625 0.16063064 0.3992603 0.3336899 0.3010893 -0.26011562 -0.17696856 0.17209676 -0.10836676 -0.082704514 -0.5413634 0.015281672 -0.09173692 -0.16256233 -0.0027877952 0.00050798006 -0.07342144 -0.07406386 -0.08115856 0.13155438 0.03729116 0.103196636 0.2605408 -0.19902453 -0.0023895537 -0.12758139 0.10008737 0.26624548 -0.12521678 -0.20564382 0.10850328 -0.14007285 -0.20203443 0.09546933 0.042512156 -0.2686555 -0.030692426 0.13234785 -0.22276457 -0.24636357 -0.0805337 0.064891145 0.20318618 -0.14292563 0.022944856 -0.07135562
54 -0.0023508228 -0.0829069 -0.18342625 -0.24643935 0.080452606 -0.011836 -0.2033075 0.078825556 0.16437595 -0.1437287 -0.1280624 -0.12947035 -0.046680678 -0.29386118 -0.36245534 -0.010151513 0.04893581 -0.08801154 -0.058418345 0.15561756 0.38994104 0.33765906 0.30831265 -0.2609212 -0.17706248 0.16125648 -0.10672516 -0.081815906 -0.54782206 0.019794786 -0.09696397 -0.15127607 0.0014034918 0.013273871 -0.079550125 -0.070631064 -0.07923192 0.14069219 0.03150179 0.10602823 0.2541738 -0.20025611 0.0035853325 -0.13228709 0.085732795 0.26846167 -0.12987009 -0.21867706 0.10513409 -0.14600699 -0.19729574 0.09805581 0.04677428 -0.26958218 -0.045347817 0.13482097 -0.21583268 -0.24525963 -0.07282825 0.06078145 0.20399128 -0.15240318 0.03293222 -0.065669164
56 0.005912015 -0.08020439 -0.17367586 -0.2610991 0.094414584 -0.011480744 -0.19675961 0.078511365 0.16347902 -0.14540268 -0.12584342 -0.12809889 -0.03921852 -0.2980314 -0.35116395 -0.009584796 0.03884887 -0.09066423 -0.07063799 0.16640338 0.39070413 0.3363567 0.30308563 -0.26627138 -0.17155412 0.16173464 -0.095715806 -0.078357205 -0.53437185 0.034381807 -0.100045465 -0.15785843 -0.017938402 0.0030388765 -0.08614316 -0.064619064 -0.08802478 0.14161092 0.040162615 0.110556036 0.2554342 -0.21623364 -0.0014558398 -0.13850294 0.097798824 0.2772195 -0.11935851 -0.21724555 0.10309671 -0.14027418 -0.20404962 0.09658918 0.0375053 -0.2651526 -0.029741447 0.13388306 -0.22544603 -0.2496457 -0.08243056 0.061708998 0.2081387 -0.14287204 0.021047445 -0.08222522
50 0.0025337636 -0.089345306 -0.1743713 -0.24325322 0.08169228 -0.018820785 -0.2076939 0.07847189 0.1797554 -0.15009072 -0.12280721 -0.12691385 -0.048681058 -0.29761675 -0.35994187 -0.0144417705 0.0426484 -0.09484983 -0.070062816 0.16731352 0.38714737 0.34029695 0.30433136 -0.25738356 -0.18597089 0.16371632 -0.10892996 -0.07322293 -0.5480057 0.023938866 -0.09524558 -0.16225256 -0.009187984 0.010005944 -0.07095213 -0.075726606 -0.07262562 0.141415 0.03783119 0.106434874 0.25901476 -0.21426314 0.005959548 -0.13053823 0.09002303 0.27774653 -0.13059224 -0.20210746 0.11363066 -0.14506829 -0.1998977 0.10582484 0.03453481 -0.25987086 -0.04134461 0.12944458 -0.22021051 -0.25811958 -0.076271996 0.068862684 0.20190674 -0.15468942 0.031681813 -0.06881972
86 -0.0012363503 -0.093728125 -0.18100856 -0.25417987 0.08909084 -0.0030930124 -0.18997024 0.07763929 0.17644285 -0.1420747 -0.13124804 -0.12835208 -0.051205337 -0.28734526 -0.3597901 -0.01645482 0.044210333 -0.085695766 -0.065399975 0.16305922 0.39105004 0.33804235 0.2993754 -0.25459513 -0.17841434 0.16954494 -0.11610121 -0.083525024 -0.5397127 0.015110843 -0.08613541 -0.16157445 -0.00049310096 0.013624628 -0.07389068 -0.058570024 -0.07284327 0.13873692 0.0460756 0.10672823 0.25075814 -0.1981542 0.008623871 -0.13290088 0.09804295 0.26938602 -0.116040446 -0.21947005 0.117900215 -0.14849895 -0.19240211 0.1046032 0.04460954 -0.25799996 -0.039579302 0.1339016 -0.22143362 -0.26382753 -0.080295525 0.06331037 0.19842644 -0.1388241 0.028490212 -0.079081096
10 -0.0014427777 -0.098981075 -0.18220358 -0.25399294 0.09470115 -0.014476217 -0.19599982 0.09188074 0.17346324 -0.1389367 -0.13078317 -0.13322005 -0.040914226 -0.28859872 -0.36115065 -0.005182877 0.03850108 -0.08179395 -0.060755186 0.16156784 0.39651754 0.34173054 0.30547372 -0.26291385 -0.18752407 0.16469108 -0.107016705 -0.07538361 -0.52994573 0.027383734 -0.09215453 -0.16852203 -0.0030881763 -0.0041624634 -0.07533245 -0.06513124 -0.081903726 0.13809809 0.042017553 0.10700831 0.2509813 -0.20781814 -0.0024723427 -0.13919203 0.096066184 0.26450536 -0.13010879 -0.21536437 0.11203239 -0.14450134 -0.1982269 0.10299627 0.046978455 -0.26608032 -0.02806591 0.1296679 -0.21304497 -0.24359955 -0.07478821 0.071180746 0.19869244 -0.1469321 0.03079251 -0.071403526
63 0.012318968 -0.08775222 -0.18532862 -0.24689558 0.09008338 -0.026963329 -0.2067155 0.0873677 0.16551417 -0.14619046 -0.12241141 -0.12826473 -0.048285242 -0.2876393 -0.35269117 -0.0100379335 0.03974527 -0.094519354 -0.06949632 0.165484 0.39698622 0.336973 0.30408344 -0.2645599 -0.18758373 0.16406874 -0.10417709 -0.07687065 -0.54588604 0.025792532 -0.094276324 -0.15930822 -0.0016947532 0.0047066826 -0.074325345 -0.06367843 -0.08900231 0.14825399 0.042325877 0.10847196 0.25713092 -0.20735312 0.0029356505 -0.14031613 0.08957783 0.26571527 -0.118935235 -0.21135062 0.11180212 -0.1356433 -0.20739095 0.10752684 0.04195542 -0.27604738 -0.049475722 0.12981349 -0.23200516 -0.25114465 -0.07584654 0.06731513 0.20852374 -0.14437266 0.027126389 -0.07566266
68 0.008950427 -0.08916482 -0.18682688 -0.24994603 0.08538398 -0.017457772 -0.2023271 0.06493401 0.17831278 -0.1341263 -0.12024765 -0.12688991 -0.054941244 -0.29301438 -0.3641171 -0.01273502 0.048343156 -0.08519906 -0.06341839 0.16183111 0.3807915 0.32387865 0.30375353 -0.26656848 -0.1797275 0.1619678 -0.09920058 -0.08170023 -0.5434288 0.028058365 -0.09621398 -0.15891904 -0.011350336 0.0012567695 -0.07649647 -0.060692754 -0.070858754 0.1417619 0.04089151 0.10903296 0.24684067 -0.2082017 0.007648671 -0.14430588 0.0984572 0.27169108 -0.1297881 -0.21587971 0.101514995 -0.140813 -0.19018811 0.097629465 0.038229357 -0.2647017 -0.03986531 0.13571902 -0.22950873 -0.25387654 -0.07617458 0.06255716 0.20324929 -0.14855878 0.019796789 -0.066110626
2 0.013746035 -0.089233294 -0.18273541 -0.2512449 0.09122172 -0.014264235 -0.19514816 0.084835164 0.15916707 -0.14697722 -0.1185423 -0.120091446 -0.043788176 -0.29512972 -0.35528025 -0.0143512655 0.03906096 -0.07718022 -0.060019534 0.16837363 0.38221288 0.3264455 0.3049945 -0.26150623 -0.17015415 0.1587409 -0.104118094 -0.08111957 -0.5359071 0.024499156 -0.09471029 -0.16013327 -0.0052039865 0.0033818698 -0.071389146 -0.06012521 -0.07312253 0.1285996 0.03926866 0.11122416 0.26181287 -0.201991 -1.9851577e-05 -0.13985555 0.09733389 0.27446157 -0.13031666 -0.21033041 0.1071613 -0.14121912 -0.1965124 0.11101239 0.049221564 -0.258025 -0.029800715 0.13549472 -0.22682244 -0.24893063 -0.0737127 0.07095424 0.2092139 -0.14514735 0.02640113 -0.06997999
39 0.011655552 -0.092894435 -0.18529062 -0.25174484 0.09126223 -0.016099934 -0.19286685 0.081628 0.17313176 -0.14800106 -0.12597306 -0.12811565 -0.050246604 -0.29753315 -0.36044586 -0.0066814814 0.047666617 -0.08596699 -0.06212878 0.16597052 0.3898176 0.3289362 0.29978505 -0.25787067 -0.17271487 0.17014433 -0.10578516 -0.07912267 -0.5408099 0.0219693 -0.08222774 -0.1535814 -0.013192265 0.010513248 -0.07136732 -0.066512 -0.07233171 0.13097861 0.041173164 0.1082177 0.25200173 -0.20841311 0.00992916 -0.14180711 0.10231303 0.28306162 -0.13195436 -0.21298467 0.1077704 -0.1443538 -0.20145442 0.10720679 0.05383517 -0.2652659 -0.046329286 0.13738716 -0.2290248 -0.2616499 -0.08638921 0.05991774 0.19802392 -0.15158698 0.029090095 -0.07249491
3 0.003181315 -0.09176589 -0.16750725 -0.24759695 0.0794786 -0.007654053 -0.19524327 0.07959896 0.17044547 -0.12961088 -0.13038222 -0.13531674 -0.041679718 -0.29425108 -0.3629661 -0.011930786 0.050761845 -0.08033967 -0.063261636 0.15644522 0.4027228 0.3337109 0.30359143 -0.26783195 -0.1819258 0.16673928 -0.10770191 -0.09157167 -0.53177994 0.016014293 -0.09193065 -0.15210766 -0.0011009448 0.0075922143 -0.06987632 -0.07098521 -0.081501596 0.13394395 0.035596196 0.11616438 0.25815976 -0.19949421 0.008968898 -0.13159755 0.09039351 0.27219898 -0.11867284 -0.21374741 0.10991938 -0.15255259 -0.20466457 0.09319896 0.039206166 -0.26924592 -0.031362094 0.14430773 -0.21436337 -0.26007584 -0.08591143 0.07192636 0.19746003 -0.15663004 0.0326921 -0.07054427
69 -0.0002121768 -0.09247894 -0.18747778 -0.2525928 0.07501098 -0.011690463 -0.1909878 0.06961018 0.16666642 -0.13211848 -0.13115582 -0.12710547 -0.042222388 -0.28523102 -0.35723615 -0.0022919758 0.036429174 -0.08450753 -0.05385037 0.16744973 0.3941426 0.3376292 0.30335587 -0.2619734 -0.18120487 0.16462442 -0.11685141 -0.08397756 -0.5353864 0.03047236 -0.09014608 -0.15681788 -0.007744374 0.01395214 -0.08549143 -0.0585 -0.08107259 0.1317753 0.030639563 0.10770829 0.25576863 -0.21039686 0.014037401 -0.1299643 0.08957495 0.26345605 -0.1219005 -0.21911374 0.105936415 -0.14698663 -0.19806181 0.098886095 0.045474984 -0.26644364 -0.036513004 0.13901001 -0.21577784 -0.25093645 -0.07905579 0.05928682 0.20239697 -0.14796843 0.029364591 -0.067800574
93 0.0010215723 -0.08025103 -0.1893517 -0.24587299 0.08789667 -0.008286771 -0.19619186 0.08795522 0.17648718 -0.13351777 -0.11724143 -0.12123166 -0.049943607 -0.29229864 -0.3576803 -0.0047596283 0.04779416 -0.09039776 -0.0685842 0.17217298 0.39256313 0.34635517 0.3015247 -0.27169022 -0.1847479 0.17055812 -0.10037552 -0.08436547 -0.54130054 0.016791876 -0.08620851 -0.16943951 -0.01049771 0.0024998107 -0.07853532 -0.06374718 -0.07765804 0.14149787 0.036446825 0.11379817 0.25897315 -0.20604967 -0.00051896914 -0.13524131 0.09406252 0.26033008 -0.12592028 -0.21517883 0.11115834 -0.13746098 -0.2067191 0.08728062 0.042526502 -0.26521426 -0.0349012 0.13008241 -0.22801426 -0.2445175 -0.07500284 0.0560943 0.1940637 -0.13875268 0.019193906 -0.07960156
16 0.010874342 -0.09790382 -0.17937982 -0.25550786 0.080392465 -0.013043093 -0.2038679 0.071873836 0.15842718 -0.14325355 -0.1303965 -0.12771465 -0.041902624 -0.28274792 -0.35029 -0.0072154957 0.041598532 -0.08031544 -0.07165879 0.16293043 0.38998684 0.3287254 0.29451632 -0.25032702 -0.17722778 0.16874814 -0.1114502 -0.07711079 -0.53605705 0.017539468 -0.08501851 -0.1642576 -0.016497657 0.011267437 -0.077458195 -0.07334003 -0.08277801 0.1491343 0.032412447 0.11470368 0.24867137 -0.20470947 0.01222683 -0.13474686 0.10339186 0.27094972 -0.11260755 -0.21592158 0.1072849 -0.14522977 -0.19671965 0.09388229 0.03543231 -0.27347642 -0.04185082 0.13765474 -0.2195932 -0.25074562 -0.0814684 0.069912516 0.20143104 -0.13954827 0.027163334 -0.07759731
49 0.012233153 -0.08742916 -0.17911708 -0.24859405 0.08174597 -0.021994574 -0.19486572 0.07322413 0.16772054 -0.1337797 -0.12735629 -0.123531155 -0.051198505 -0.28562564 -0.35225633 -0.013226192 0.048805177 -0.08731291 -0.057044365 0.16023596 0.37983298 0.3420962 0.30770653 -0.26561362 -0.1777324 0.16891804 -0.10816671 -0.078080334 -0.53490597 0.030516772 -0.09576979 -0.16158317 -0.008958104 0.016352896 -0.082294494 -0.07149383 -0.084508836 0.13384159 0.031059278 0.10358753 0.25938717 -0.20313096 0.0028337005 -0.1414375 0.09764092 0.2732335 -0.115064576 -0.20086937 0.11617106 -0.141385 -0.20400423 0.093496695 0.047846217 -0.27084696 -0.04602372 0.13557267 -0.22856587 -0.26139653 -0.070751384 0.06869547 0.19743325 -0.15354155 0.025644783 -0.07768929
58 -0.00057998 -0.0842684 -0.1705335 -0.25256866 0.07954716 -0.0072897556 -0.19543193 0.07346211 0.17857261 -0.14319417 -0.119464144 -0.12119557 -0.04472418 -0.29810625 -0.36553589 -0.011906124 0.044162616 -0.08356037 -0.055155627 0.1613116 0.39767933 0.3307173 0.30271706 -0.26885453 -0.17242174 0.17139934 -0.105911344 -0.0781385 -0.54837716 0.023402426 -0.09873929 -0.16292241 -0.010922614 0.01661531 -0.07532777 -0.07342151 -0.08165595 0.1325984 0.041163005 0.11425815 0.26073873 -0.20792231 0.0076099946 -0.13448764 0.101606235 0.27313706 -0.122475415 -0.21886231 0.11270307 -0.14624423 -0.19590758 0.09107529 0.04822973 -0.27000016 -0.030526493 0.13278782 -0.2182455 -0.2441428 -0.08051279 0.06376877 0.20331272 -0.1489726 0.024915857 -0.064638026
14 0.0068613538 -0.08862772 -0.18036467 -0.24208394 0.09011046 -0.012176571 -0.20091848 0.07015149 0.16430855 -0.14155057 -0.11761716 -0.12996024 -0.056146175 -0.29403067 -0.3572822 -0.010374545 0.04921964 -0.087325 -0.07102867 0.16035032 0.38668817 0.33093446 0.30558679 -0.26241946 -0.1733935 0.16007093 -0.10454811 -0.080620654 -0.53687036 0.018488908 -0.09028691 -0.16135108 0.0028333864 0.0077856868 -0.0791571 -0.07689147 -0.08039612 0.13083918 0.03116465 0.115894884 0.24599089 -0.21429399 0.0024046032 -0.13277191 0.08507327 0.2609188 -0.121035025 -0.20758356 0.10832059 -0.13933791 -0.20408916 0.09713686 0.03986548 -0.2663783 -0.041451987 0.13727811 -0.2223643 -0.2525456 -0.07781958 0.059634417 0.21008885 -0.14460103 0.02031949 -0.06826787
28 0.004196781 -0.095741875 -0.18285352 -0.26015216 0.09478967 -0.0147518255 -0.20409174 0.074878804 0.16595045 -0.14861237 -0.12909602 -0.13246076 -0.046059452 -0.28611976 -0.35576707 -0.013964903 0.049213283 -0.08161407 -0.05653009 0.16851045 0.38816732 0.32701397 0.30474892 -0.264648 -0.17750217 0.16896956 -0.10603046 -0.08232491 -0.5489318 0.019631086 -0.09372356 -0.15339142 -0.0035532268 0.011640456 -0.08415681 -0.059258215 -0.0744933 0.13633819 0.030007923 0.11197092 0.25696698 -0.2036746 0.012999559 -0.12996283 0.09523294 0.27043226 -0.12421058 -0.20834254 0.11385595 -0.13913386 -0.19388506 0.10610188 0.040119335 -0.26794273 -0.030082935 0.1309376 -0.2194447 -0.2508712 -0.08423825 0.063237585 0.20666768 -0.14918698 0.027454564 -0.071490705
31 -0.0048009576 -0.08879904 -0.17373355 -0.25555497 0.08772428 -0.010482127 -0.19649802 0.08455539 0.16768286 -0.14649212 -0.122865 -0.13185129 -0.049538855 -0.28258544 -0.3643863 -0.007959885 0.03766773 -0.08965291 -0.05932013 0.17499389 0.39076474 0.33759537 0.31449592 -0.25784066 -0.17985381 0.16297087 -0.10305816 -0.080898605 -0.54020566 0.031635277 -0.0831988 -0.16300216 -0.008236019 0.01325414 -0.07348983 -0.069859564 -0.07302685 0.14035282 0.04443402 0.11260871 0.25572258 -0.20799592 -0.0010536163 -0.12391888 0.083396725 0.25941312 -0.12641829 -0.21049206 0.1052634 -0.14145596 -0.19480452 0.10672701 0.04233933 -0.2606034 -0.032005724 0.13130583 -0.22976166 -0.24954888 -0.07187444 0.06257104 0.1985751 -0.13881983 0.0203404 -0.07706951
47 0.0012091423 -0.08706042 -0.18640493 -0.25818247 0.09711059 -0.023146978 -0.20752077 0.09094395 0.16511594 -0.14219195 -0.123710215 -0.12924178 -0.04157153 -0.28749365 -0.3486583 -0.007460055 0.04855134 -0.07884831 -0.06627289 0.15502016 0.38272697 0.33695745 0.31093898 -0.25942925 -0.18617724 0.15999606 -0.103870794 -0.068138726 -0.54027283 0.025476888 -0.0916154 -0.15367573 -0.016318485 0.011320912 -0.083717935 -0.07467724 -0.0913866 0.12768343 0.030648986 0.09955598 0.26098624 -0.20933859 0.014153338 -0.12504353 0.085286565 0.27261025 -0.13280402 -0.20941073 0.1086721 -0.14537436 -0.19246885 0.0942039 0.045274418 -0.26304504 -0.04320801 0.12753722 -0.22082216 -0.24577622 -0.084511906 0.05536426 0.19545504 -0.15141082 0.018566187 -0.075288974
61 0.00088305085 -0.07630083 -0.17572176 -0.24902368 0.085076645 -0.019123638 -0.19673236 0.077810936 0.17843829 -0.14325044 -0.116029315 -0.1313793 -0.051954225 -0.29506412 -0.3539892 -0.0034535793 0.049285628 -0.0902724 -0.05999008 0.15815239 0.39278436 0.33143616 0.3027031 -0.26113144 -0.17682245 0.15891922 -0.10634876 -0.08337849 -0.5536708 0.030867076 -0.09689345 -0.16046667 -0.0063549727 0.0131889 -0.067995496 -0.061017714 -0.07826591 0.13189055 0.042385135 0.11299227 0.25899833 -0.21006663 0.012915571 -0.13494885 0.08528949 0.2688849 -0.13230897 -0.20558453 0.10469311 -0.14281014 -0.190034 0.09213022 0.04751703 -0.25917375 -0.032082833 0.13144176 -0.22592299 -0.24501261 -0.08205703 0.056941643 0.19539894 -0.14002971 0.022640217 -0.06754011
64 0.00841381 -0.09905353 -0.17103468 -0.2468092 0.079997845 -0.0063324478 -0.19168185 0.08682876 0.17366181 -0.14486164 -0.12628756 -0.12674822 -0.04810107 -0.29775593 -0.35736796 -0.006297755 0.041929763 -0.08043035 -0.060267802 0.16178976 0.38409185 0.3332763 0.31055495 -0.26347825 -0.18118292 0.16844195 -0.109442025 -0.07934568 -0.547711 0.023002807 -0.09605631 -0.16373223 -0.015127137 0.0050599263 -0.08514702 -0.07198201 -0.076416045 0.14519113 0.03849567 0.10370287 0.25624004 -0.19688739 -0.0006271759 -0.14114863 0.08869797 0.26420733 -0.12420056 -0.21830136 0.112449504 -0.15270732 -0.19514477 0.0999375 0.042752814 -0.25953993 -0.033115402 0.1428472 -0.22440065 -0.2582363 -0.0719894 0.069763035 0.20951006 -0.15178056 0.029586207 -0.074410565
4 0.009898302 -0.0987121 -0.18111113 -0.23981887 0.08431121 -0.010426089 -0.20034966 0.077272736 0.16909549 -0.14054033 -0.123620845 -0.13830134 -0.05279404 -0.29122555 -0.36583322 -0.0064989002 0.04586396 -0.08642568 -0.05520365 0.16705707 0.3888061 0.3391964 0.31294698 -0.25989866 -0.18100674 0.17150119 -0.11679361 -0.082331695 -0.53649515 0.01180906 -0.09484753 -0.15650016 -0.015085882 0.0065483414 -0.07978199 -0.063678 -0.07741639 0.13347659 0.028424002 0.10989798 0.25346124 -0.21188106 0.015667673 -0.14133844 0.08767111 0.27234232 -0.12382445 -0.2048887 0.106327854 -0.14838177 -0.19214189 0.10791812 0.045999717 -0.2584475 -0.043224465 0.122714035 -0.21610814 -0.25006256 -0.0780492 0.059803717 0.20680515 -0.15664646 0.040026423 -0.068373196
71 0.013699811 -0.08578943 -0.18357792 -0.25203013 0.089905865 -0.016983625 -0.20533265 0.08672137 0.17092931 -0.13454606 -0.11851873 -0.13027862 -0.04026048 -0.29477274 -0.35285375 -0.0067883306 0.051685095 -0.08479668 -0.06944885 0.16371487 0.38869646 0.33509427 0.30564317 -0.26480427 -0.18543579 0.16932455 -0.09657227 -0.080923826 -0.5433022 0.026663203 -0.09322182 -0.16213995 -0.016419979 0.0026026126 -0.08323562 -0.07765155 -0.07209305 0.14278361 0.03845077 0.111372136 0.2595341 -0.20335723 0.009023853 -0.13016148 0.09940245 0.26234567 -0.12057246 -0.20373373 0.10299727 -0.15229288 -0.19350085 0.099693365 0.04365925 -0.27218 -0.0326823 0.1346182 -0.21683647 -0.24640304 -0.080722146 0.069717705 0.20482975 -0.15242901 0.019913573 -0.06364094
17 0.002644528 -0.093136385 -0.18840647 -0.24581105 0.08116444 -0.021184297 -0.20241652 0.08423302 0.17830904 -0.13843533 -0.13036822 -0.13317823 -0.039601438 -0.2935845 -0.36080953 -0.008462701 0.05203481 -0.09186481 -0.06143905 0.16281551 0.38203228 0.33180776 0.31089005 -0.2615212 -0.17022005 0.16093758 -0.11349032 -0.082186155 -0.5436306 0.016799416 -0.0898021 -0.1571996 -0.014358125 0.013056197 -0.070165776 -0.0637008 -0.07817812 0.13716823 0.048701033 0.10477667 0.25543717 -0.19592553 0.0089155855 -0.12731808 0.09974795 0.268126 -0.12849638 -0.19677305 0.10835623 -0.14033848 -0.20376311 0.096149564 0.040770136 -0.24925384 -0.036887858 0.13742419 -0.22451147 -0.24533243 -0.08621412 0.06098136 0.20471063 -0.1558042 0.022252504 -0.071762554
94 0.009397486 -0.081776656 -0.16873811 -0.23905772 0.07801406 -0.019249696 -0.19663352 0.075043224 0.16144922 -0.13789771 -0.12175768 -0.13421346 -0.03696527 -0.29002178 -0.3607112 -0.011261745 0.05121164 -0.0855387 -0.06963811 0.16060507 0.38104752 0.33351862 0.30649173 -0.26406345 -0.1712795 0.16718134 -0.10929531 -0.08609144 -0.5442078 0.021683991 -0.10282747 -0.1581694 -0.010462162 0.006448143 -0.080611885 -0.07069625 -0.08486529 0.14576367 0.043757975 0.108069286 0.26337266 -0.20977873 0.013952305 -0.13086985 0.09136196 0.27634484 -0.1185417 -0.2151372 0.11012444 -0.13671088 -0.20140144 0.104318775 0.03204748 -0.25867698 -0.037421398 0.12800933 -0.21126525 -0.2452528 -0.08203806 0.058113188 0.20057145 -0.14150308 0.027164431 -0.065432526
42 0.0025442347 -0.08888694 -0.175549 -0.24970657 0.08326275 -0.013859941 -0.20816132 0.081033416 0.16031699 -0.13058971 -0.12944447 -0.12734276 -0.054670867 -0.29501447 -0.3569031 -0.0035689923 0.040280793 -0.08287065 -0.061054572 0.16359353 0.39265215 0.33482158 0.31253633 -0.25791833 -0.17847647 0.17087469 -0.10534228 -0.07965117 -0.5396658 0.014739139 -0.089392096 -0.15498318 -0.006927427 0.0017535598 -0.07688822 -0.07954507 -0.08694871 0.14040701 0.030511942 0.10681081 0.24996133 -0.19819598 0.006933919 -0.13252337 0.09978359 0.27114293 -0.12277113 -0.20528801 0.10332359 -0.1481287 -0.19134094 0.10661014 0.04042911 -0.26986513 -0.046693187 0.13157882 -0.22108974 -0.25455514 -0.087326944 0.061692383 0.20506129 -0.15085027 0.026478127 -0.08035443
85 0.011988016 -0.083718054 -0.18293849 -0.25278485 0.07956072 -0.018235536 -0.1932201 0.08739707 0.16200085 -0.14706264 -0.1267359 -0.12370736 -0.047578238 -0.299298 -0.361962 -0.01992942 0.05276281 -0.0949633 -0.0546233 0.15637946 0.38117552 0.33376917 0.3070108 -0.2539803 -0.17543402 0.1621781 -0.10108443 -0.08685603 -0.53827405 0.018899476 -0.09660027 -0.15114327 -0.0048922626 0.017257972 -0.07849277 -0.07567219 -0.08584178 0.14055297 0.046168227 0.10886703 0.24969657 -0.20838282 0.010141998 -0.12515324 0.09102804 0.26158625 -0.12713873 -0.20677273 0.1119033 -0.143487 -0.20117564 0.10046045 0.043064788 -0.2664672 -0.038840592 0.13025314 -0.21053705 -0.24951212 -0.07209124 0.07157803 0.20668326 -0.15431334 0.02798919 -0.07737328
66 0.00021820591 -0.08679029 -0.18544379 -0.2510197 0.08396075 -0.022298204 -0.19473512 0.08645811 0.1713966 -0.1417799 -0.120699406 -0.12569019 -0.05037235 -0.29249236 -0.36317396 -0.01049249 0.04536876 -0.08250163 -0.06452746 0.16323072 0.38383678 0.34156573 0.29680577 -0.26701257 -0.18495178 0.16760015 -0.11777099 -0.07552137 -0.5426618 0.021763425 -0.092011616 -0.16311444 -0.011349568 0.0029511324 -0.07476762 -0.06909313 -0.08579538 0.14112414 0.03980227 0.10901231 0.26215595 -0.20270391 0.0069938926 -0.12600756 0.09658116 0.26785842 -0.12574883 -0.2094091 0.11468982 -0.14109913 -0.19612491 0.10098592 0.04266098 -0.25624827 -0.04059234 0.13412811 -0.21716622 -0.2533885 -0.083304465 0.07110784 0.19487265 -0.15316485 0.02027201 -0.07495026
44 0.004831328 -0.07768202 -0.1902059 -0.2576011 0.086744614 -0.016077895 -0.19943145 0.0737144 0.1722952 -0.12913927 -0.11546362 -0.13313943 -0.04148322 -0.28743163 -0.3555882 -0.0073087486 0.04597911 -0.08291263 -0.06656254 0.15967561 0.3836851 0.33216292 0.29435766 -0.26214167 -0.17855005 0.16573606 -0.109315634 -0.0759031 -0.53724754 0.015552214 -0.09005218 -0.15584157 -0.0079874415 0.008247754 -0.08499985 -0.07047415 -0.075873256 0.13354312 0.039975498 0.114662595 0.2653085 -0.20750725 0.016182484 -0.12881722 0.09234864 0.26796752 -0.118933715 -0.21794848 0.10628176 -0.13882668 -0.2004536 0.09936039 0.04308138 -0.2628504 -0.03257829 0.12852708 -0.22219886 -0.25832918 -0.08827462 0.069165975 0.2030615 -0.14942448 0.02742384 -0.066393495
12 0.0041515697 -0.085960776 -0.19114418 -0.2547305 0.095677845 -0.017142244 -0.20011124 0.08352576 0.16690414 -0.14033282 -0.13310094 -0.13565555 -0.049538344 -0.29652295 -0.35221788 -0.011191011 0.049937986 -0.08594241 -0.05982592 0.15529542 0.39751115 0.3453171 0.29885978 -0.26079944 -0.18804523 0.16930893 -0.11397215 -0.08146922 -0.5434463 0.026785305 -0.09824197 -0.16466242 -0.009957355 0.017102594 -0.08253217 -0.07114771 -0.09206597 0.13647252 0.04086693 0.11575596 0.25718766 -0.19505547 0.010118178 -0.12712371 0.09165538 0.26453784 -0.12646863 -0.2124652 0.10057407 -0.13812122 -0.192515 0.09410408 0.04385791 -0.26076382 -0.044605877 0.13973808 -0.21354976 -0.25057447 -0.08178107 0.059290636 0.19724254 -0.14664255 0.02661783 -0.074345954
92 -0.0036015182 -0.09043085 -0.17952447 -0.25007534 0.07896993 -0.010443611 -0.19059043 0.08682626 0.17521158 -0.13172501 -0.122268856 -0.11548364 -0.05274088 -0.28428861 -0.3578014 -0.0027601388 0.034741398 -0.08609943 -0.06292688 0.16404338 0.39639544 0.34005544 0.3127263 -0.2607597 -0.1808598 0.17310932 -0.11761094 -0.08371032 -0.543493 0.022076495 -0.083569646 -0.16288905 -0.0010016313 0.0003450765 -0.07715942 -0.072215796 -0.08624587 0.1424104 0.03737215 0.11279054 0.2528842 -0.20000924 0.011365121 -0.12670745 0.09068723 0.26028332 -0.12503915 -0.21141092 0.110982634 -0.14636846 -0.19052316 0.09838273 0.045919154 -0.2608941 -0.03037027 0.12937681 -0.22035946 -0.24920683 -0.08635979 0.05824685 0.20651571 -0.1393619 0.02140718 -0.06644269
34 0.0061836424 -0.07998801 -0.1701972 -0.24333161 0.07870935 -0.008103091 -0.20194313 0.073637374 0.16914803 -0.13580878 -0.11563406 -0.12585099 -0.049729094 -0.28702915 -0.36291435 -0.010420804 0.036644712 -0.088906616 -0.05245746 0.16313843 0.39431983 0.33200553 0.30766544 -0.25152832 -0.18314794 0.16258572 -0.11295866 -0.07199618 -0.5412939 0.03066173 -0.08139435 -0.15869027 -0.002382737 0.005150674 -0.074478015 -0.069510415 -0.07927289 0.13473372 0.037175216 0.10103262 0.2539707 -0.20582552 0.009424906 -0.13405928 0.089988045 0.26687607 -0.12134786 -0.21132103 0.11290756 -0.15252475 -0.20388806 0.09372282 0.041289344 -0.27385336 -0.030790545 0.13991721 -0.22877574 -0.2606218 -0.07439898 0.063251756 0.20332868 -0.15568122 0.032360416 -0.073321335
43 -5.6481684e-05 -0.09016918 -0.17051123 -0.2460012 0.09019526 -0.017693536 -0.19017014 0.070676185 0.17178814 -0.14469391 -0.1293437 -0.12196904 -0.05235438 -0.30355513 -0.36054158 -0.0082523255 0.04326896 -0.09420413 -0.059317417 0.15852 0.38921982 0.32998666 0.3019822 -0.25950783 -0.185698 0.16953777 -0.11266388 -0.07211731 -0.53931814 0.030996649 -0.08493433 -0.15798247 -0.015715558 0.013565907 -0.07212358 -0.060004454 -0.09070332 0.14595048 0.040447403 0.10845419 0.25873023 -0.21542674 0.012195641 -0.14178637 0.08954619 0.2782276 -0.12480998 -0.21400441 0.10076419 -0.15288216 -0.2029059 0.103946954 0.04471919 -0.2593817 -0.03463975 0.13557482 -0.22919981 -0.248801 -0.08191256 0.06845701 0.19971882 -0.14707373 0.030009283 -0.08340197
37 0.013199948 -0.08232518 -0.17625846 -0.25327122 0.08253378 -0.022566693 -0.19890141 0.079390354 0.16758935 -0.14626579 -0.12541379 -0.13104703 -0.051194087 -0.2853708 -0.3559958 -0.014277768 0.0490203 -0.09261418 -0.061780687 0.1548689 0.3862441 0.32579255 0.30340642 -0.25424445 -0.17774276 0.15891972 -0.11709719 -0.0677745 -0.5382367 0.01715847 -0.09606003 -0.1482205 -0.013126809 0.008002402 -0.08111629 -0.06646772 -0.071212195 0.13946865 0.03727396 0.10307275 0.26528004 -0.20464341 0.012308887 -0.13541758 0.094485275 0.27153963 -0.12786907 -0.21418023 0.1068022 -0.14365537 -0.20936568 0.098295026 0.04651658 -0.26744312 -0.042941965 0.12800764 -0.21975762 -0.25938562 -0.08351791 0.053989384 0.20123897 -0.15227774 0.025221061 -0.06269841
97 0.008135937 -0.082251735 -0.18118751 -0.25329986 0.090788424 -0.019116085 -0.20295008 0.07164368 0.17632376 -0.12912421 -0.12799087 -0.12699609 -0.0516257 -0.27867314 -0.34974757 -0.0055049392 0.038771123 -0.09680585 -0.06707953 0.16950023 0.38593113 0.34053785 0.29695663 -0.24964222 -0.17732286 0.16805524 -0.11336715 -0.07243265 -0.5438502 0.017265294 -0.09525207 -0.14852461 -0.008017393 0.019173702 -0.0837942 -0.07023898 -0.07546078 0.13724902 0.04468293 0.120423414 0.25956872 -0.21396993 0.012319484 -0.13954489 0.07999462 0.26417536 -0.115182295 -0.21038993 0.10583886 -0.142231 -0.20761229 0.10066511 0.033413056 -0.26842067 -0.041127127 0.13942662 -0.23216139 -0.26057628 -0.08006809 0.05726169 0.19861804 -0.15339161 0.022813866 -0.07150365
59 0.0020691766 -0.09626331 -0.1868641 -0.26420036 0.08060692 -0.01586921 -0.2120006 0.08598145 0.16679923 -0.14476976 -0.13108514 -0.12315626 -0.048871133 -0.2943221 -0.35596725 -0.012949873 0.04461695 -0.09006624 -0.07090796 0.1602314 0.3990858 0.3401182 0.30479962 -0.26615253 -0.17333205 0.16621622 -0.10871612 -0.08313876 -0.54625803 0.020225635 -0.09661433 -0.16136807 -0.006330059 0.018695073 -0.069438376 -0.06585443 -0.08365318 0.1504422 0.0476158 0.11799985 0.25662762 -0.20541458 0.0012933299 -0.14050713 0.096536554 0.2691094 -0.117339544 -0.21241325 0.100340456 -0.14922772 -0.19636694 0.10084533 0.037242755 -0.26444542 -0.0325536 0.12980002 -0.22385179 -0.25423563 -0.08957698 0.06959469 0.21198492 -0.14093553 0.019480469 -0.07076383
51 0.009003665 -0.091531 -0.186763 -0.25087658 0.087784864 -0.011509651 -0.20458603 0.08810483 0.15894805 -0.14205138 -0.11242212 -0.11613881 -0.04894256 -0.28154972 -0.36007175 -0.011024555 0.041113876 -0.08797575 -0.067099005 0.15447049 0.38459828 0.32471874 0.29890957 -0.26427203 -0.17294608 0.16068874 -0.115691364 -0.080590665 -0.54254884 0.033620026 -0.08858539 -0.15830714 -0.0036256325 0.009021687 -0.0759861 -0.07149284 -0.08575226 0.14428921 0.045526665 0.106796965 0.26014832 -0.20999025 0.008346964 -0.12917456 0.09078791 0.27221683 -0.12128229 -0.20923519 0.11057943 -0.13633801 -0.19614494 0.11063288 0.047917712 -0.26930282 -0.04368248 0.13688923 -0.21773213 -0.2510533 -0.07394375 0.06483731 0.2008573 -0.14313816 0.018779397 -0.065662056
11 0.00017771852 -0.08281988 -0.18881886 -0.24733979 0.080874614 -0.023526916 -0.20379017 0.081845336 0.16700603 -0.12791009 -0.11979515 -0.1164642 -0.046524685 -0.29438752 -0.36107567 -0.0061014667 0.04465848 -0.09699468 -0.069757335 0.16331093 0.39128312 0.33587372 0.31077102 -0.2660286 -0.18616167 0.17274424 -0.11829707 -0.07876869 -0.55233526 0.01903465 -0.09208165 -0.15958656 -0.00047743274 0.0026491887 -0.08053603 -0.074983045 -0.07349421 0.14824982 0.042421505 0.11591037 0.24787106 -0.21184325 -0.0004103103 -0.12765977 0.08766848 0.26513937 -0.124166526 -0.20908995 0.09965179 -0.14965835 -0.19784077 0.10226306 0.030994069 -0.2603337 -0.040341023 0.13416953 -0.22064345 -0.25706822 -0.0794449 0.0706846 0.20619325 -0.14246231 0.02940913 -0.07513782
38 0.012406096 -0.08382815 -0.16953102 -0.2459349 0.08593918 -0.017113505 -0.19319256 0.084868155 0.16064182 -0.14047378 -0.1134702 -0.12542172 -0.032965958 -0.299504 -0.35778475 -0.017576156 0.03866116 -0.073889546 -0.06450735 0.1675402 0.38516432 0.33255744 0.29833332 -0.25676236 -0.17360651 0.16549757 -0.10254051 -0.07594231 -0.5353856 0.02536118 -0.09418338 -0.1514198 -0.010735263 0.0030612084 -0.08185922 -0.069575965 -0.07376526 0.13423167 0.028932815 0.105497144 0.26463097 -0.20366913 0.0018901763 -0.13252863 0.101116434 0.27880567 -0.12556268 -0.21754047 0.10410564 -0.14673728 -0.20652309 0.0962771 0.04412103 -0.26229516 -0.035224922 0.14168115 -0.21905501 -0.25776803 -0.08802333 0.06483035 0.20436694 -0.1548668 0.021889871 -0.068633795
19 0.0094881235 -0.09510735 -0.18621978 -0.2525391 0.09379692 -0.025316665 -0.20942235 0.09009176 0.16898537 -0.14638306 -0.11593466 -0.13214429 -0.049147036 -0.28868234 -0.3603025 -0.013161964 0.045580965 -0.08318561 -0.06213556 0.16579276 0.3907474 0.33423793 0.3024091 -0.26574436 -0.17172992 0.15594418 -0.103115745 -0.08484343 -0.535355 0.023710825 -0.08321314 -0.16590336 -0.0014813931 0.0014760216 -0.07637049 -0.06903974 -0.07491603 0.13496748 0.043942347 0.10066925 0.26019365 -0.19967198 0.011222125 -0.13793941 0.092805035 0.26633298 -0.12154994 -0.20494957 0.112959035 -0.14693159 -0.1904123 0.1057592 0.048244562 -0.26876372 -0.04098061 0.13693728 -0.21287023 -0.24785595 -0.07709046 0.06814132 0.1902037 -0.15220751 0.020874918 -0.07567681
57 2.4794499e-05 -0.094872326 -0.18910618 -0.2579315 0.08307743 -0.016540905 -0.20284313 0.07264782 0.1662746 -0.13596329 -0.11896064 -0.12665747 -0.0539376 -0.29184207 -0.34658438 -0.008365256 0.033956196 -0.09146738 -0.06352215 0.16514789 0.3848054 0.33563378 0.3048536 -0.25706735 -0.18161453 0.17260075 -0.10192028 -0.068946205 -0.54296917 0.03331336 -0.08469809 -0.15764275 -0.0026899332 0.0014501817 -0.08093781 -0.069548145 -0.074606635 0.14821325 0.04150163 0.1140779 0.25852576 -0.21098907 0.005082137 -0.1290184 0.08914813 0.26822692 -0.12609847 -0.21284229 0.10259872 -0.14312214 -0.19948779 0.1078919 0.0509855 -0.27433157 -0.03082625 0.13951233 -0.22720717 -0.26030898 -0.08091489 0.07502138 0.20348242 -0.14494567 0.02932427 -0.08106235
22 0.007831186 -0.0874639 -0.1795964 -0.2436499 0.08306772 -0.022571757 -0.2073522 0.07406085 0.17063642 -0.13848022 -0.13044041 -0.12754536 -0.052512124 -0.28631046 -0.3509928 -0.00895883 0.049002517 -0.08063201 -0.065214165 0.15488818 0.38485754 0.33727923 0.30816406 -0.2620244 -0.18677187 0.16040063 -0.10450912 -0.081430905 -0.5453983 0.03010888 -0.09584105 -0.1501572 -0.0070384042 0.003853312 -0.07206004 -0.07110595 -0.08195339 0.14576028 0.035592716 0.10467938 0.25024113 -0.19648838 0.00859659 -0.13733779 0.09995803 0.26951212 -0.1289804 -0.20923254 0.10204106 -0.1362135 -0.19257374 0.10380761 0.038858674 -0.26777497 -0.032083906 0.1416715 -0.21681558 -0.24826814 -0.08531854 0.0623361 0.19940576 -0.15274394 0.016016189 -0.07476298
1 0.010859424 -0.086963154 -0.18198314 -0.25000936 0.09339872 -0.01435607 -0.20857726 0.07049267 0.17910343 -0.13958089 -0.13051136 -0.12267225 -0.04426784 -0.29692653 -0.3605592 -0.013768922 0.049718823 -0.09192112 -0.05704253 0.16639331 0.39978275 0.3278347 0.31202877 -0.25801244 -0.17838015 0.16084214 -0.10188167 -0.07783633 -0.548373 0.015949836 -0.08906938 -0.16339304 -0.0037753873 -0.00018883788 -0.083102636 -0.06501022 -0.07948504 0.13868028 0.036271513 0.11727534 0.26370746 -0.2000314 0.002863667 -0.13466507 0.08767737 0.27145517 -0.11859512 -0.21171653 0.106070474 -0.14720766 -0.18904519 0.09127658 0.04159269 -0.259811 -0.040427025 0.12840302 -0.2126112 -0.2526943 -0.07732392 0.06345503 0.20910169 -0.14988536 0.02882572 -0.0780693
67 -0.0023664543 -0.09488024 -0.18458943 -0.2505833 0.08097724 -0.00900808 -0.2084361 0.07678951 0.16425364 -0.1399682 -0.13222864 -0.1222797 -0.05374078 -0.28764132 -0.35984865 -0.015642706 0.050676834 -0.095489204 -0.06463447 0.17387292 0.3929275 0.34012967 0.30815092 -0.25743854 -0.18527895 0.16484502 -0.10629885 -0.09119548 -0.54919964 0.02223777 -0.08425367 -0.16140756 -0.001908067 0.0068400307 -0.07314123 -0.067124166 -0.07853124 0.14691 0.035125084 0.10611203 0.26373366 -0.20497122 0.0038022837 -0.13984653 0.09739984 0.2657369 -0.13152337 -0.20975302 0.111757874 -0.1409846 -0.1940614 0.1002324 0.03844075 -0.26336285 -0.039280705 0.13490692 -0.2269575 -0.2630502 -0.08707323 0.060129568 0.20455979 -0.14851971 0.031078314 -0.07141113
26 0.013450189 -0.08584072 -0.17445974 -0.243049 0.08593307 -0.018001886 -0.19573915 0.06914948 0.1778393 -0.1430798 -0.11850786 -0.12283974 -0.04506384 -0.28546873 -0.35979274 -0.014365102 0.055022594 -0.07440822 -0.056515265 0.16156979 0.39552653 0.33254507 0.31160054 -0.25420457 -0.16754305 0.1670278 -0.1116624 -0.083313555 -0.54330546 0.01969735 -0.08620471 -0.16129942 -0.012186617 0.014948369 -0.06908926 -0.07463716 -0.073888615 0.13540877 0.03347781 0.11549168 0.24990098 -0.2072175 0.015463839 -0.13346523 0.08228719 0.25955224 -0.1259201 -0.20645188 0.11444833 -0.13395488 -0.18599427 0.08824555 0.050021086 -0.26884335 -0.0407205 0.1280647 -0.22240001 -0.24986967 -0.079500474 0.06236536 0.20668086 -0.15564625 0.031254113 -0.07388702
35 0.0059368922 -0.08640578 -0.185467 -0.25076088 0.088632815 -0.018381564 -0.1999357 0.08383657 0.17635071 -0.14148648 -0.117870115 -0.12694284 -0.052267388 -0.28976282 -0.35440284 -0.009070378 0.039006338 -0.081138656 -0.061861236 0.16846283 0.39006326 0.33082795 0.30382475 -0.25503045 -0.17700577 0.16218089 -0.101178326 -0.08151539 -0.5414471 0.01942242 -0.09510224 -0.1630075 0.0021574234 0.0076883584 -0.07062698 -0.073832974 -0.084843226 0.1371348 0.03526628 0.1030611 0.25485831 -0.19973773 0.0076393723 -0.13927016 0.09090837 0.27463657 -0.11695731 -0.20750597 0.1064444 -0.15031788 -0.20334916 0.10555982 0.0472337 -0.26847854 -0.03385744 0.14199418 -0.22284627 -0.25985178 -0.08219595 0.061507195 0.21027248 -0.15012349 0.017309178 -0.073496364
99 0.0018072636 -0.08447352 -0.18481342 -0.2531465 0.07718177 -0.017450523 -0.19644383 0.07281326 0.16447742 -0.14453273 -0.12047022 -0.11818181 -0.05625465 -0.28412715 -0.35110873 -0.017781362 0.039337635 -0.08677927 -0.059977837 0.16498023 0.39233 0.3417725 0.3110137 -0.25217554 -0.17321746 0.16895932 -0.11515306 -0.07524974 -0.5485285 0.032663018 -0.09488387 -0.1514917 -0.0013169073 0.013172621 -0.08646149 -0.06987182 -0.08246626 0.14670949 0.035904665 0.1016618 0.26115304 -0.20774569 0.0059056855 -0.13716574 0.09137568 0.26643845 -0.12113363 -0.21634662 0.110000946 -0.14444208 -0.19920644 0.09869772 0.03989562 -0.27008283 -0.044541847 0.12745771 -0.22650477 -0.24767098 -0.08254258 0.06000199 0.19216053 -0.14335449 0.01824557 -0.076907665
48 -0.0028543032 -0.08856582 -0.1735749 -0.25588587 0.083204046 -0.009286213 -0.19215393 0.08457822 0.16749103 -0.13173217 -0.12832609 -0.13221802 -0.056345824 -0.29006124 -0.36547038 -0.010633663 0.045382313 -0.08103537 -0.058519848 0.16378672 0.39873302 0.33255538 0.3158279 -0.264928 -0.17595184 0.16154076 -0.11106493 -0.084295034 -0.54050756 0.024817497 -0.09554322 -0.16166146 -0.0123075135 0.00010082569 -0.07968264 -0.070140205 -0.08153045 0.13095717 0.0407805 0.117110826 0.24834752 -0.19960712 0.0035229602 -0.1362269 0.09414476 0.26307973 -0.13171324 -0.21523863 0.11218433 -0.15043633 -0.20298164 0.104171656 0.046066813 -0.2594022 -0.041085076 0.1262938 -0.21699898 -0.2540786 -0.081835814 0.06171892 0.2041736 -0.15348677 0.024523804 -0.06571032
60 0.0036044128 -0.097159624 -0.179388 -0.25927547 0.08360057 -0.0036607669 -0.20702231 0.073496215 0.17408367 -0.13277392 -0.1276543 -0.1298328 -0.04603487 -0.2958959 -0.35441643 -0.011630391 0.040531375 -0.08568689 -0.06303717 0.16253501 0.38832974 0.340266 0.31260163 -0.2546621 -0.17587827 0.1740165 -0.10521621 -0.09105517 -0.53548306 0.029107826 -0.08629164 -0.15285993 -0.0024002225 0.009488647 -0.084720574 -0.066716045 -0.085475594 0.14259112 0.04511752 0.11090097 0.24760583 -0.19843757 0.005545412 -0.13771433 0.09794988 0.2715909 -0.12424179 -0.2047626 0.104950614 -0.13718247 -0.19822463 0.0979191 0.045629255 -0.2547419 -0.035803236 0.13391043 -0.21944118 -0.24285015 -0.07335753 0.06806533 0.19952868 -0.15368624 0.029954115 -0.065455295
75 0.011969893 -0.08942954 -0.17410392 -0.23956852 0.07897584 -0.018651482 -0.19128767 0.07961566 0.17527153 -0.13990204 -0.13291894 -0.12294043 -0.05916178 -0.29349923 -0.3510322 -0.010995218 0.03721569 -0.09688577 -0.0545836 0.16846126 0.39406022 0.33246025 0.3077869 -0.25986603 -0.18843557 0.16690852 -0.1096888 -0.06850115 -0.549718 0.018657098 -0.0880324 -0.15904589 -0.012230946 0.0043391176 -0.085383676 -0.070733175 -0.0733322 0.14803407 0.03869721 0.112233646 0.25922477 -0.20128599 0.008060752 -0.13535284 0.094180636 0.2672446 -0.12063577 -0.20158616 0.10170446 -0.14757557 -0.1971292 0.092174605 0.04359603 -0.27026933 -0.041232526 0.13229644 -0.22593783 -0.25681153 -0.08010978 0.061757956 0.19329944 -0.15577884 0.029119147 -0.07486128
15 0.008386526 -0.08643831 -0.18123688 -0.2587553 0.080410965 -0.02313236 -0.20929298 0.07462878 0.16327208 -0.13904706 -0.12400504 -0.13621022 -0.049526338 -0.2961721 -0.35908428 -0.00602215 0.040745106 -0.08373476 -0.06940781 0.16546494 0.3822899 0.332357 0.30804288 -0.25280192 -0.1867756 0.17121734 -0.10800212 -0.08638382 -0.5445694 0.024995275 -0.09675119 -0.16347884 0.0008478609 0.01303693 -0.07201239 -0.0696833 -0.08015876 0.14866988 0.029969387 0.115956515 0.25729725 -0.21083476 0.011494123 -0.12684056 0.089831024 0.26999938 -0.122737914 -0.20741802 0.1001809 -0.14410117 -0.1935179 0.10781405 0.035497244 -0.2650238 -0.03807908 0.13193554 -0.22712521 -0.2551855 -0.07779972 0.067437105 0.20659766 -0.14316778 0.027778525 -0.06767215
32 0.012952986 -0.081823155 -0.18797615 -0.24373631 0.09069061 -0.021831868 -0.20331028 0.08301768 0.16969708 -0.1337166 -0.11704507 -0.12757951 -0.052215606 -0.28865772 -0.3591392 -0.0025586458 0.04242131 -0.078998156 -0.070663035 0.16459042 0.38715288 0.33386806 0.30817494 -0.25479633 -0.1658743 0.15668523 -0.113832355 -0.07781964 -0.5460744 0.017035825 -0.09955558 -0.15966783 -0.003597912 0.00037776702 -0.0796581 -0.06853431 -0.075874045 0.14361967 0.0433221 0.10799858 0.2559782 -0.2157321 0.013940262 -0.13158427 0.10020814 0.2608313 -0.12183205 -0.2053821 0.10227769 -0.13477667 -0.20726463 0.096579686 0.034574382 -0.27529043 -0.03888963 0.13012362 -0.22359529 -0.2513347 -0.08521577 0.06331977 0.2099252 -0.14132199 0.019736944 -0.06455897
90 -0.00020470849 -0.094286785 -0.18034275 -0.24851489 0.08098007 -0.008137587 -0.20178656 0.07737401 0.16465102 -0.13905461 -0.12412099 -0.12642647 -0.044604015 -0.29381576 -0.35171527 -0.016133104 0.037092254 -0.095784485 -0.0662908 0.15722947 0.39356494 0.33351472 0.3036498 -0.2625294 -0.18845859 0.15805283 -0.1143725 -0.08285387 -0.5425749 0.024906436 -0.08806815 -0.16703622 -0.012399124 0.008382086 -0.08071254 -0.07402343 -0.07687086 0.14685223 0.04666295 0.11781937 0.2502997 -0.19752225 0.011685074 -0.12993409 0.087503 0.27121946 -0.121454105 -0.20180567 0.10189804 -0.14204878 -0.1890158 0.1000789 0.048198156 -0.26268178 -0.036841854 0.14087528 -0.21592747 -0.24807775 -0.07724884 0.06277701 0.20059612 -0.1496527 0.022096861 -0.07039461
25 0.012765625 -0.09454818 -0.17914271 -0.24169594 0.091712005 -0.011009244 -0.20747848 0.07332724 0.17169826 -0.14364187 -0.12085674 -0.1343801 -0.05041845 -0.29364425 -0.3597442 -0.0039402815 0.050287005 -0.08811986 -0.05785789 0.16811009 0.3780432 0.34013867 0.30246478 -0.26218957 -0.17721912 0.1689803 -0.099606946 -0.077525 -0.5385765 0.026981443 -0.09785823 -0.15232071 -0.011878598 -0.00031350076 -0.08317786 -0.07320756 -0.07672737 0.14791892 0.03331606 0.10709503 0.2550161 -0.21039759 0.0048553003 -0.13396002 0.09368986 0.27183437 -0.12235558 -0.2182288 0.10966324 -0.1477212 -0.19310734 0.109066024 0.0419305 -0.26313046 -0.035741203 0.12987633 -0.2197015 -0.25691262 -0.07811482 0.06591549 0.20778812 -0.15227143 0.033435866 -0.0785417
74 -0.0026764637 -0.08902225 -0.17921229 -0.25463867 0.08900939 -0.016901145 -0.1984375 0.0784608 0.16543509 -0.12952721 -0.124579 -0.12740229 -0.04590306 -0.28784525 -0.36588004 -0.007311313 0.048709918 -0.08816091 -0.07104823 0.15965833 0.3899966 0.34106046 0.316525 -0.2683631 -0.18270466 0.16550379 -0.109808885 -0.08832826 -0.5360587 0.017470397 -0.09008602 -0.167692 -0.0121239275 0.008294355 -0.078986116 -0.07377458 -0.083060905 0.1463078 0.047449682 0.10859181 0.258353 -0.20004901 0.012550367 -0.1246638 0.09284583 0.25832635 -0.11604562 -0.21382676 0.110252984 -0.14080095 -0.19821516 0.091512054 0.034498945 -0.2661198 -0.04081682 0.14030042 -0.2185317 -0.25742444 -0.081560254 0.069479674 0.2047776 -0.14881417 0.015557497 -0.06080264
95 0.018802293 -0.08529989 -0.17548135 -0.24394839 0.08072293 -0.020520916 -0.1994961 0.07983693 0.15814184 -0.14131236 -0.12852058 -0.13596632 -0.05441621 -0.29918608 -0.35563552 -0.004967977 0.043635655 -0.0878526 -0.052991476 0.16544613 0.38593614 0.336788 0.3124427 -0.25393978 -0.16698426 0.15961505 -0.10058803 -0.07585214 -0.54795754 0.014961225 -0.0920723 -0.15019916 -0.015208133 0.0006113081 -0.07213927 -0.064512245 -0.08871028 0.13521379 0.034047384 0.10050265 0.25009584 -0.19984123 -0.0010071315 -0.13780354 0.10435414 0.27864945 -0.12101993 -0.20105502 0.11266998 -0.13703415 -0.20290913 0.09569678 0.03846233 -0.2669583 -0.044957187 0.14064145 -0.21344075 -0.26028413 -0.08630006 0.06683233 0.2014097 -0.15794368 0.019037805 -0.07230407
62 0.005436654 -0.07515944 -0.17605264 -0.25101173 0.07698207 -0.0075190077 -0.20580177 0.08076385 0.1799928 -0.14833786 -0.12737648 -0.12111286 -0.051817395 -0.30016184 -0.35443872 -0.0054656826 0.038208928 -0.097113505 -0.061773546 0.16647126 0.38826165 0.32831964 0.30052012 -0.2645034 -0.18497473 0.16656 -0.1145496 -0.0700114 -0.5411901 0.016273309 -0.086795405 -0.15481253 -0.0050772945 0.010568169 -0.07685135 -0.07111136 -0.0727519 0.14604257 0.049309384 0.11035532 0.24861665 -0.21201015 0.016021028 -0.13918942 0.09929047 0.26835564 -0.122474186 -0.20993505 0.10717365 -0.13938035 -0.20235251 0.08722394 0.033998765 -0.26723447 -0.04421351 0.13677368 -0.22751072 -0.24385555 -0.088247076 0.05735098 0.20309165 -0.15459147 0.028867964 -0.06273198
98 0.008078721 -0.090865426 -0.18002197 -0.26035485 0.09131881 -0.017128304 -0.20366888 0.07244837 0.17290056 -0.13403022 -0.122111574 -0.12647982 -0.04689814 -0.28565538 -0.36007375 -0.0078203725 0.042472016 -0.08893083 -0.05614855 0.15998618 0.38704944 0.3308762 0.3107621 -0.25439036 -0.18203442 0.17399158 -0.10710976 -0.08745094 -0.54799974 0.022735147 -0.08713737 -0.15069672 -0.008663924 0.0028762012 -0.08273576 -0.06318644 -0.08375785 0.14329523 0.041017007 0.10875628 0.25944647 -0.21506074 0.008408619 -0.13729881 0.08561559 0.26622647 -0.12337507 -0.21060893 0.11495121 -0.14768271 -0.19193836 0.10247863 0.03370057 -0.2696799 -0.03889948 0.12982593 -0.22421698 -0.25198883 -0.07560399 0.060085177 0.19725233 -0.1580788 0.03510336 -0.07657267
65 0.00799691 -0.08432467 -0.18562931 -0.2449284 0.07829671 -0.01010104 -0.19116953 0.0837168 0.17306224 -0.14165047 -0.13186915 -0.13186471 -0.04619896 -0.2920453 -0.36406663 -0.017029714 0.055105373 -0.088781714 -0.0580869 0.1650868 0.38581905 0.33666068 0.3037962 -0.26504722 -0.16809401 0.16069324 -0.10999581 -0.08855949 -0.5416777 0.013528104 -0.0921296 -0.15609454 -0.013076601 0.017669316 -0.07680509 -0.06076069 -0.07322808 0.14136726 0.0437696 0.11509298 0.2602522 -0.20407826 0.0037915914 -0.1268948 0.09934369 0.27880317 -0.12566935 -0.2148709 0.11631296 -0.14225817 -0.20059031 0.09881498 0.0465152 -0.2694091 -0.046400998 0.12537009 -0.21989886 -0.26340893 -0.08974937 0.058307696 0.2038513 -0.14468795 0.034925845 -0.07471189
91 0.0066921925 -0.09104486 -0.17432258 -0.24688965 0.08928317 -0.018204914 -0.20886768 0.07911903 0.17060727 -0.12939924 -0.117831886 -0.13035278 -0.047630273 -0.28235483 -0.36099538 -0.00076871866 0.045491803 -0.08808981 -0.059434086 0.17007662 0.3891039 0.33068448 0.30289045 -0.2496163 -0.17391512 0.17075084 -0.099211134 -0.08622445 -0.54594654 0.022081947 -0.09260578 -0.1638704 0.0005077518 0.0031528322 -0.08267221 -0.07368242 -0.08195192 0.13800289 0.033088673 0.10344051 0.25264084 -0.20988606 0.0008789522 -0.1372059 0.09095999 0.26063648 -0.122274555 -0.21354857 0.101778276 -0.15272234 -0.19835497 0.10072538 0.035016168 -0.26551473 -0.0293909 0.13561904 -0.23031425 -0.2559646 -0.07440517 0.057893183 0.19946359 -0.14628977 0.020638632 -0.06426949
79 0.013799466 -0.08440135 -0.1733748 -0.25330508 0.089751296 -0.0107697435 -0.20737225 0.07516265 0.16647404 -0.14104846 -0.12132674 -0.12710209 -0.047872424 -0.28594372 -0.35688156 0.0001321579 0.045070447 -0.08086146 -0.06499488 0.17098586 0.39344564 0.33755428 0.30580303 -0.2635601 -0.17482041 0.15941003 -0.109874025 -0.08467418 -0.5457581 0.020535428 -0.092524864 -0.15656497 -0.005246499 0.0012010862 -0.08924926 -0.07826259 -0.07667935 0.13925873 0.04118471 0.10864161 0.2635308 -0.21045823 0.0038503218 -0.12478223 0.09534667 0.26326376 -0.116208404 -0.20398752 0.097714365 -0.15072884 -0.19887881 0.09204648 0.038487207 -0.27062768 -0.036972526 0.1346403 -0.21921222 -0.25298318 -0.08565769 0.06546967 0.19758417 -0.14759593 0.024256688 -0.07490404
72 -0.0003268453 -0.083327554 -0.18396746 -0.25983024 0.08909114 -0.014803532 -0.2022044 0.09117934 0.16345811 -0.13744804 -0.117964566 -0.12777998 -0.052644707 -0.29078078 -0.35980943 -0.011938547 0.04739154 -0.08616145 -0.06194578 0.15843277 0.38479924 0.3377177 0.30591762 -0.25902987 -0.18615922 0.17551726 -0.10326594 -0.084016755 -0.54608816 0.025319293 -0.08454286 -0.16091917 -0.006160548 0.0029570907 -0.07008461 -0.06853853 -0.0821424 0.14143504 0.037005942 0.10984217 0.24310488 -0.2006707 0.005497857 -0.1327573 0.09375602 0.2676519 -0.12675643 -0.2107507 0.11252638 -0.14125763 -0.1882181 0.10678741 0.043738317 -0.25592053 -0.039883263 0.13500938 -0.21153322 -0.23986797 -0.08031346 0.07299797 0.20602961 -0.1536515 0.024355324 -0.068745755
84 0.010802828 -0.08588974 -0.17852142 -0.2489965 0.08135848 -0.017331207 -0.20556566 0.08303881 0.16424155 -0.14166325 -0.11700517 -0.1268803 -0.045786887 -0.27922776 -0.36072937 -0.014134927 0.045965843 -0.09041264 -0.072890975 0.16743799 0.39018974 0.3394577 0.30837598 -0.25589526 -0.18021302 0.16668387 -0.11055092 -0.07798853 -0.5436918 0.019263985 -0.09865189 -0.15228593 -0.010761215 0.0007868832 -0.079261474 -0.07639773 -0.08663889 0.14272867 0.044565562 0.10704159 0.24846387 -0.20080498 0.009082471 -0.12823588 0.09815889 0.2702555 -0.118686885 -0.20583434 0.101914436 -0.15148854 -0.19214118 0.10996483 0.038287457 -0.26615638 -0.039929643 0.13180073 -0.22645496 -0.250734 -0.083583586 0.054478806 0.20244932 -0.14982513 0.02508389 -0.07578494
76 0.004768843 -0.08572366 -0.17977704 -0.24639729 0.08157714 -0.021823583 -0.20186546 0.08240112 0.16039425 -0.14304496 -0.12790853 -0.12136521 -0.037529748 -0.289795 -0.34948242 -0.013359482 0.038364436 -0.09724665 -0.058871683 0.15473367 0.387761 0.32527554 0.30194706 -0.26349244 -0.18285279 0.16910492 -0.11262261 -0.080111444 -0.53736407 0.032872517 -0.08282471 -0.15417913 -0.00070443284 0.0033295327 -0.07584931 -0.07527476 -0.08098906 0.13826568 0.033499792 0.1056816 0.25829047 -0.20454824 0.003487913 -0.1397252 0.0947662 0.27723595 -0.12871355 -0.21552315 0.11026373 -0.15048383 -0.20347095 0.09358311 0.048973933 -0.2722415 -0.035492115 0.13734193 -0.21401757 -0.25211865 -0.07526217 0.05907571 0.20599948 -0.143545 0.024974551 -0.07884638
21 0.0031308748 -0.08973414 -0.1825716 -0.24476333 0.078985564 -0.0065824874 -0.18994147 0.081315294 0.17290962 -0.14139871 -0.11651214 -0.11937525 -0.041390996 -0.27726203 -0.35583526 -0.004743518 0.045744013 -0.07782709 -0.06492202 0.16895129 0.38893878 0.33211952 0.30505654 -0.26452976 -0.17820553 0.17101455 -0.10597604 -0.08352591 -0.54300207 0.0236443 -0.09573972 -0.15140843 -0.0016113223 0.00835675 -0.08531314 -0.0641377 -0.07483608 0.14331964 0.034329504 0.10950796 0.25280252 -0.21398984 0.000407524 -0.13345191 0.097102866 0.27409032 -0.12343143 -0.21605419 0.10506725 -0.13854587 -0.20478158 0.09759371 0.047698084 -0.25767612 -0.04471525 0.13387492 -0.21832478 -0.2565616 -0.080808304 0.065483235 0.20703307 -0.14085944 0.025404252 -0.068631776
73 0.011346985 -0.09497178 -0.18657517 -0.25316045 0.08317975 -0.010235822 -0.19461824 0.08423768 0.17160478 -0.13730268 -0.12075515 -0.13390276 -0.04512085 -0.28811046 -0.3543562 -0.014568911 0.047377627 -0.0889965 -0.07157414 0.1670714 0.38455793 0.33491215 0.30067787 -0.25798583 -0.17992596 0.168497 -0.107602306 -0.08470755 -0.5488926 0.022525936 -0.09736693 -0.16551411 -0.006583182 0.011993777 -0.076081045 -0.06821984 -0.08353401 0.13286784 0.04536339 0.110528715 0.25042132 -0.20291777 0.012056129 -0.12793964 0.09618448 0.2757583 -0.12745531 -0.21398345 0.10821722 -0.14999412 -0.19965506 0.10820255 0.039128106 -0.2597331 -0.03111825 0.13498218 -0.22699212 -0.24619128 -0.09004104 0.057811268 0.19916657 -0.1547769 0.028172173 -0.07232481
82 0.008298206 -0.08119742 -0.1747979 -0.25449878 0.09392792 -0.016461499 -0.19637784 0.07586693 0.17113821 -0.14938323 -0.11715212 -0.13012642 -0.057204276 -0.29527438 -0.3662738 -0.0112943975 0.0424693 -0.08620067 -0.059247233 0.16132131 0.3955278 0.34070587 0.3071936 -0.26481026 -0.18193282 0.1566431 -0.10323038 -0.07961721 -0.5347153 0.031145127 -0.08410073 -0.16353771 -0.0044795293 -0.0009113603 -0.07639087 -0.07495582 -0.085021265 0.13556902 0.039527874 0.10580686 0.24211489 -0.20601521 0.0028610374 -0.1359744 0.09742381 0.25755334 -0.11474248 -0.21272384 0.11129767 -0.14283511 -0.19801019 0.106117636 0.05111062 -0.2605816 -0.04450925 0.12569456 -0.21721183 -0.24681935 -0.083073124 0.070145145 0.19436994 -0.14619009 0.01993208 -0.06551648
33 0.008677171 -0.089260615 -0.18172824 -0.24071632 0.07716623 -0.014137383 -0.19916767 0.08030063 0.16718137 -0.13620694 -0.11541561 -0.12163377 -0.03982101 -0.2836062 -0.35346088 -0.0036007655 0.039347965 -0.08613209 -0.056044426 0.16129088 0.39264682 0.33388892 0.29520535 -0.25107023 -0.17893003 0.16531193 -0.10431358 -0.07933549 -0.54058063 0.030883756 -0.088714406 -0.15956132 -0.0042836536 0.015950799 -0.07204642 -0.06293308 -0.078291304 0.13192591 0.04082676 0.105055004 0.26279297 -0.20940381 0.0048057437 -0.13523418 0.088051215 0.2635279 -0.11323086 -0.20127186 0.10720987 -0.14058995 -0.2011547 0.10316361 0.036046285 -0.2750485 -0.046306357 0.13926259 -0.22163466 -0.2618716 -0.071350485 0.071777165 0.1933182 -0.15087052 0.024740322 -0.07894747
24 0.002086708 -0.085739575 -0.17695637 -0.25882173 0.087766744 -0.01615439 -0.20084967 0.075206645 0.16097492 -0.14464025 -0.12802891 -0.11803422 -0.056345087 -0.29457757 -0.35968745 -0.0012266113 0.048576668 -0.083457805 -0.06824433 0.15644617 0.3876862 0.32643557 0.31224358 -0.25663158 -0.18567751 0.1731762 -0.11256301 -0.07073352 -0.53997064 0.021639202 -0.083751746 -0.1556431 0.0033895327 0.008485574 -0.07876538 -0.06744712 -0.08978113 0.14079884 0.033224348 0.10483809 0.25262114 -0.20645918 0.0033278551 -0.14317003 0.10119933 0.27537838 -0.11687996 -0.20948653 0.0986162 -0.13886192 -0.19587207 0.097712785 0.040350392 -0.2687165 -0.038792823 0.14377494 -0.22076876 -0.24824804 -0.07065433 0.06643368 0.20025852 -0.14825243 0.029546829 -0.0707272
27 0.0009089683 -0.08832288 -0.18608408 -0.25821033 0.08753949 -0.018360185 -0.20859876 0.081361726 0.16512471 -0.14235567 -0.11830358 -0.11946241 -0.04316188 -0.27982426 -0.35475507 -0.011150211 0.0341137 -0.09238274 -0.064662464 0.15405625 0.38716885 0.3413848 0.30953062 -0.26585534 -0.1810164 0.16450296 -0.09978276 -0.08805974 -0.54582846 0.021472657 -0.0979269 -0.16640672 -0.004903743 -0.0014721028 -0.08187165 -0.06948859 -0.08119967 0.13656269 0.036961168 0.110953465 0.25546613 -0.20968524 0.01230767 -0.1314337 0.0893961 0.2684524 -0.1256839 -0.2069775 0.10293242 -0.14424448 -0.20153016 0.09911242 0.041029166 -0.26618534 -0.03593429 0.13294119 -0.21480016 -0.23478891 -0.08034122 0.07114793 0.19581115 -0.13489279 0.031792928 -0.074733034
96 0.008871514 -0.090431884 -0.18182862 -0.25535098 0.0888143 -0.019062275 -0.20350853 0.084911026 0.16535239 -0.1341646 -0.120235875 -0.12090435 -0.050030332 -0.29336044 -0.3516746 -0.0073872837 0.039262924 -0.08773458 -0.054080393 0.15567103 0.38992226 0.33155817 0.30713013 -0.264663 -0.1791962 0.17007352 -0.11568113 -0.082846396 -0.5428698 0.020878227 -0.08329295 -0.1562032 -0.00043329518 0.009190567 -0.0842388 -0.06520772 -0.079619326 0.13018939 0.035702784 0.11046393 0.25805488 -0.20352247 0.015865577 -0.13124353 0.08483143 0.27253604 -0.11688909 -0.20419031 0.10858102 -0.13985951 -0.20420384 0.09521111 0.037359994 -0.2685847 -0.049841918 0.12982891 -0.2193907 -0.25760233 -0.082390815 0.066941835 0.20191087 -0.15351242 0.031037115 -0.07255478
77 0.0018576682 -0.08826117 -0.18635288 -0.24183717 0.08968343 -0.018288454 -0.20432082 0.0745849 0.16488002 -0.13860655 -0.11973324 -0.13407494 -0.052293513 -0.28643686 -0.36062917 -0.007445918 0.04164642 -0.07832222 -0.07088246 0.16537076 0.3996985 0.33882362 0.3036185 -0.2530418 -0.18533312 0.17129125 -0.11440772 -0.08942719 -0.53899974 0.031574022 -0.09128099 -0.15192668 -0.0013644317 0.009714551 -0.0734632 -0.06582328 -0.08689519 0.14938721 0.04452213 0.1061206 0.256788 -0.19678791 0.013683207 -0.13309087 0.093085796 0.26936176 -0.11411055 -0.20906764 0.10324454 -0.14561592 -0.19116518 0.10613243 0.040486217 -0.2679816 -0.031187845 0.13166773 -0.21159776 -0.23983008 -0.08033454 0.06490549 0.19589381 -0.1426166 0.027469918 -0.06606734
80 0.001932411 -0.08599399 -0.1839339 -0.24768437 0.0833748 -0.010995896 -0.19763586 0.074954346 0.16915357 -0.1350366 -0.12971409 -0.12893641 -0.041028947 -0.2898412 -0.35363638 -0.0018447196 0.044237338 -0.09584486 -0.06507631 0.1716735 0.39470777 0.32754585 0.3049062 -0.2625367 -0.18738699 0.17082284 -0.111985184 -0.084794424 -0.543316 0.030022668 -0.096324414 -0.1558514 -0.013372491 -0.0012160041 -0.08276897 -0.062121917 -0.08843561 0.14429784 0.034410834 0.115419306 0.25577253 -0.21526341 -0.0016225966 -0.1310832 0.10029261 0.26624307 -0.13022712 -0.22031258 0.1014502 -0.15197295 -0.19345446 0.0957513 0.04287266 -0.26126844 -0.03924014 0.1363659 -0.22753088 -0.25885305 -0.073091105 0.0606695 0.19548388 -0.15157941 0.0268576 -0.078744926
6 0.0092494795 -0.085147545 -0.18079792 -0.24284334 0.08438793 -0.020677736 -0.19417842 0.07269255 0.16494405 -0.1433695 -0.12695937 -0.122368775 -0.051999893 -0.28638697 -0.3617166 -0.016135938 0.04195213 -0.08237825 -0.06828576 0.16934802 0.39562795 0.32301614 0.3070618 -0.25108817 -0.17050184 0.1689184 -0.10492256 -0.07088202 -0.5512642 0.029134486 -0.096480295 -0.1643051 -0.008263569 -0.002717068 -0.07668249 -0.065884344 -0.076336116 0.13610706 0.04022328 0.10571455 0.25579956 -0.20711511 0.008472201 -0.13821882 0.09567428 0.2777121 -0.12843256 -0.21141444 0.11412354 -0.14998429 -0.19555543 0.096692085 0.046729088 -0.26943707 -0.040378332 0.14267541 -0.22269686 -0.24699643 -0.0773388 0.06793393 0.20751442 -0.1558399 0.021763157 -0.07272119
30 -0.0014304434 -0.09518451 -0.17680846 -0.24449913 0.08116282 -0.021642169 -0.19781546 0.087970294 0.17869483 -0.14099035 -0.12961307 -0.1237429 -0.040950302 -0.29861167 -0.36131245 -0.012982207 0.03562991 -0.09303625 -0.056868996 0.15803784 0.389049 0.3285173 0.30369127 -0.2659214 -0.18817629 0.15865067 -0.09997135 -0.07390918 -0.5404479 0.030018952 -0.079997785 -0.16960588 0.0005095101 0.004805866 -0.084802866 -0.066607185 -0.084731854 0.13499306 0.048520762 0.10682501 0.25579026 -0.20237039 0.0110567715 -0.13469045 0.096842304 0.26747346 -0.1276645 -0.20476694 0.109954506 -0.13954803 -0.20587656 0.09952453 0.0389608 -0.26490945 -0.04795461 0.13002773 -0.22802714 -0.25437 -0.08398199 0.06253124 0.21271096 -0.15947056 0.019428873 -0.06824933
5 0.0073199864 -0.087993525 -0.18034413 -0.23728554 0.087603875 -0.023109207 -0.19844072 0.08634029 0.16402069 -0.14183831 -0.12811294 -0.12927581 -0.041874874 -0.29613933 -0.35639936 -0.0037976042 0.039061975 -0.08549249 -0.064856514 0.15616043 0.38028443 0.33282337 0.29463473 -0.2614231 -0.1841125 0.1553777 -0.09635567 -0.077765055 -0.5459539 0.01700582 -0.083988674 -0.16410027 -0.0004714764 0.0053351256 -0.07692395 -0.07255491 -0.08572541 0.1464477 0.03513805 0.10978303 0.25146785 -0.20382914 -0.001855341 -0.13222209 0.08455896 0.2653434 -0.12837385 -0.20980483 0.11529374 -0.13541065 -0.19887517 0.09604613 0.03770693 -0.27144086 -0.032033354 0.13517986 -0.22833751 -0.25782853 -0.08706459 0.07224524 0.20420057 -0.14402302 0.025841357 -0.07013616
8 -0.0009268986 -0.079717495 -0.17786118 -0.25709343 0.09565266 -0.016681183 -0.20716506 0.07640444 0.17981628 -0.14339714 -0.12848566 -0.12967396 -0.04992715 -0.29920673 -0.34716204 -0.009755821 0.03900254 -0.08046713 -0.06544123 0.16618194 0.39482778 0.3317088 0.29724717 -0.26045325 -0.18443172 0.16538294 -0.11385608 -0.0732074 -0.5463617 0.017781246 -0.096313864 -0.16666709 -0.0011404486 0.008956581 -0.08395547 -0.07659983 -0.08834499 0.1292811 0.02987833 0.101666726 0.25183806 -0.20706373 0.010434504 -0.1305944 0.07929423 0.259051 -0.1245516 -0.20046175 0.10385525 -0.13563617 -0.18767692 0.09894876 0.049443666 -0.260898 -0.038081873 0.12919472 -0.22394417 -0.2439194 -0.08900802 0.060903117 0.20421766 -0.13738914 0.021157399 -0.06413873
7 -0.0021192692 -0.08972956 -0.18034633 -0.25331366 0.08418706 -0.02365347 -0.20698576 0.072303504 0.16167408 -0.1367438 -0.115005545 -0.121166065 -0.05305065 -0.28741324 -0.36214423 -0.0089722 0.04325445 -0.08698436 -0.05680213 0.16409795 0.39429787 0.3403922 0.29837623 -0.25252 -0.18334498 0.16144879 -0.10511342 -0.07351213 -0.5433014 0.027395498 -0.09094313 -0.14881542 -0.004228752 0.01105791 -0.0700579 -0.06398087 -0.081289046 0.1443011 0.029711146 0.11631401 0.26074788 -0.21649219 0.0098291 -0.13272142 0.082602635 0.27786222 -0.13265003 -0.22017272 0.10675383 -0.144316 -0.19450927 0.11250403 0.04155199 -0.26622373 -0.044283967 0.14116779 -0.22722186 -0.24550743 -0.07359291 0.0697134 0.2103778 -0.15898116 0.02923288 -0.07988637
29 0.014085306 -0.08465148 -0.17611934 -0.25200757 0.07305861 -0.025991358 -0.20831797 0.08412733 0.17773917 -0.13556844 -0.12024117 -0.12076039 -0.042818196 -0.2820241 -0.3592288 -0.011619039 0.042357974 -0.08620954 -0.06547488 0.15674703 0.39514226 0.3292437 0.30273497 -0.26019928 -0.17010635 0.16194946 -0.10282089 -0.08103886 -0.5432089 0.023189167 -0.09317028 -0.16067512 -0.007538713 9.110055e-05 -0.08519008 -0.07247808 -0.0775233 0.14850785 0.04441917 0.11689798 0.2632221 -0.21572566 0.0040573864 -0.14086121 0.0942976 0.2765139 -0.11632542 -0.21429339 0.11381701 -0.15206148 -0.21622114 0.097752415 0.033687677 -0.27972972 -0.041447416 0.14952642 -0.23284689 -0.2546128 -0.081549674 0.06046946 0.19843628 -0.15344295 0.024098428 -0.0717094
81 0.004001379 -0.07745131 -0.18511343 -0.25206387 0.0897729 -0.012981204 -0.19110444 0.06981612 0.1599044 -0.13564871 -0.11343486 -0.1301625 -0.04266759 -0.28521082 -0.3563615 -0.01103061 0.047178216 -0.089013316 -0.064925656 0.15923986 0.38938197 0.3416641 0.30360776 -0.25761402 -0.18270515 0.16411303 -0.101300836 -0.07019589 -0.5414799 0.028262982 -0.09821967 -0.1490388 0.001945519 -0.00052081735 -0.08231388 -0.06577125 -0.07279516 0.1411089 0.03420333 0.106828965 0.25201118 -0.20353223 0.0077041946 -0.12579499 0.08600566 0.27199668 -0.119837634 -0.21316287 0.106602944 -0.14068486 -0.19414145 0.09790958 0.03981077 -0.27399457 -0.042596057 0.12772559 -0.22567001 -0.25511298 -0.08409869 0.058303803 0.20834604 -0.15607136 0.030493679 -0.07343449
13 0.0070345607 -0.08484675 -0.17610656 -0.24305266 0.08307035 -0.01981289 -0.20730914 0.08555867 0.17972612 -0.13481747 -0.13269654 -0.12627535 -0.04065422 -0.28673348 -0.35312292 -0.010977741 0.04165614 -0.09429582 -0.05662245 0.16145138 0.39300463 0.3341845 0.30490574 -0.26866826 -0.17733476 0.16188003 -0.1215571 -0.08135965 -0.5503362 0.026592733 -0.09054606 -0.16168478 -0.011407146 0.009517975 -0.0747167 -0.07454271 -0.085095756 0.13316464 0.044541683 0.10649043 0.25076133 -0.20305566 0.013212782 -0.13809626 0.09293114 0.26561746 -0.12184859 -0.19949836 0.112249546 -0.14577585 -0.19602264 0.102152 0.036784403 -0.25608253 -0.03328055 0.14335772 -0.21961519 -0.2539055 -0.07874005 0.068843715 0.19459948 -0.14640254 0.025652925 -0.07392291
23 0.006113417 -0.09450372 -0.17880379 -0.25914666 0.09475685 -0.01206364 -0.20384891 0.08895216 0.17128606 -0.14570332 -0.12518604 -0.13092117 -0.03581698 -0.29423454 -0.3584147 -0.008741536 0.03376639 -0.07830087 -0.06845717 0.15555236 0.38932154 0.34079358 0.30552614 -0.26832393 -0.17299654 0.15846367 -0.11407184 -0.07462272 -0.53880596 0.022585835 -0.08604069 -0.16694666 -0.003244035 0.0021272982 -0.07779056 -0.058734376 -0.07303645 0.13987379 0.03359374 0.10452503 0.2601936 -0.20486978 0.00021659979 -0.13567722 0.09499719 0.25989884 -0.1298306 -0.21266931 0.10771455 -0.13380171 -0.19994688 0.102900654 0.034933787 -0.26566854 -0.029173965 0.13056338 -0.23010592 -0.24492127 -0.08226568 0.06262319 0.20755526 -0.13763979 0.015875155 -0.06711407
88 -0.00063106784 -0.08381072 -0.1829023 -0.25498232 0.08380627 -0.019951317 -0.19413827 0.080930255 0.16140579 -0.14971699 -0.13110507 -0.12244635 -0.052320994 -0.2926026 -0.3631235 -0.0067743114 0.047008112 -0.07879846 -0.06992997 0.16133903 0.3844777 0.3366336 0.3106625 -0.2587232 -0.18581915 0.17306103 -0.10962592 -0.07177779 -0.53671384 0.02676875 -0.09774351 -0.15744679 -0.009541418 0.013697385 -0.088084586 -0.062383596 -0.08682596 0.14331985 0.028944485 0.10788955 0.24560359 -0.20697479 0.015421859 -0.13083623 0.08171871 0.26405033 -0.12900749 -0.20586741 0.11111253 -0.1347504 -0.20163392 0.09947206 0.04167238 -0.2611101 -0.048109476 0.12581027 -0.22226836 -0.25782394 -0.074889235 0.07217731 0.20645586 -0.15019646 0.02872836 -0.071915336
36 0.003644883 -0.09512022 -0.17620233 -0.2550339 0.08455562 -0.017705297 -0.20492752 0.07450936 0.1754625 -0.14805846 -0.12409847 -0.124759234 -0.05401701 -0.28515765 -0.35241136 -0.008160474 0.04569849 -0.07920228 -0.06555917 0.16254704 0.39729908 0.33091012 0.31303847 -0.2636864 -0.17826271 0.17096572 -0.1120901 -0.07191578 -0.5353364 0.023701783 -0.08827036 -0.1666476 -0.00036893305 0.0029208914 -0.083654106 -0.07160243 -0.08031895 0.13527086 0.039541993 0.1057139 0.26446855 -0.2044775 0.002456548 -0.13480102 0.088883474 0.2654975 -0.12407379 -0.20517877 0.11564561 -0.14639916 -0.20890322 0.108349435 0.049552638 -0.2624722 -0.043728 0.14165577 -0.22964233 -0.25288904 -0.07914969 0.061757002 0.21067594 -0.1511545 0.023126509 -0.07489438
0 0.001121273 -0.086294845 -0.18455254 -0.24438715 0.085704364 -0.02243817 -0.19795725 0.0838626 0.16876045 -0.1480158 -0.11761962 -0.12019045 -0.04367811 -0.2903737 -0.36519572 -0.0077919387 0.05211641 -0.08118981 -0.069024965 0.16655429 0.39084607 0.3377699 0.31356037 -0.25997835 -0.17221671 0.16294238 -0.10854163 -0.085115865 -0.5415901 0.01882901 -0.085183196 -0.15111509 -0.0021625154 0.0076962723 -0.07265859 -0.061702117 -0.07621046 0.14678311 0.035818607 0.09936993 0.25498778 -0.20754373 -0.0016305551 -0.13913362 0.091031015 0.26714492 -0.12202372 -0.2171842 0.12028099 -0.1380194 -0.2021355 0.09965864 0.044944216 -0.2663489 -0.044421557 0.14002407 -0.22859341 -0.2556609 -0.07125347 0.072020836 0.20445703 -0.1482513 0.028946059 -0.076492935
