100 64
83 -0.022208136 0.20240049 -0.31998125 -0.31097886 -0.042922508 -0.38545078 0.15516396 -0.07264751 0.082983606 -0.275881 -0.24490479 0.27326167 0.1162519 0.069899194 -0.03391573 -0.022623116 -0.1790993 0.15226501 0.094514064 0.31410137 -0.28018165 -0.12628 0.055216853 0.07131609 0.1598302 -0.12740698 -0.14169891 0.19149421 -0.03837585 -0.12419602 -0.050958745 -0.06721525 -0.30277842 0.2662178 0.29810116 0.14117926 -0.0036778424 -0.2374521 -0.27976897 0.10540083 -0.20805714 -0.04982303 0.010963201 -0.046538062 -0.114351586 0.13151456 -0.17396289 0.13922647 -0.078913 0.19497153 0.024255343 -0.21919023 0.16881467 -0.10276413 -0.012707927 -0.16969688 0.059724037 -0.31125 -0.11036405 0.31109825 -0.03172492 -0.0015455394 0.13854362 -0.07220123
40 -0.008143153 0.1867446 -0.31602967 -0.30033562 -0.03401828 -0.38632557 0.1624354 -0.06701746 0.08601617 -0.2640672 -0.24274465 0.27212092 0.11193882 0.06867538 -0.02372208 -0.019838974 -0.1847522 0.14287531 0.09554003 0.31122023 -0.28502125 -0.13083577 0.04853122 0.05699965 0.16266932 -0.11036452 -0.15200219 0.19123325 -0.028218992 -0.13102163 -0.043833163 -0.08202202 -0.31519786 0.27105215 0.30605143 0.15070786 -0.006374773 -0.22279389 -0.27282158 0.094590455 -0.20184511 -0.051956005 0.016008237 -0.039606042 -0.12452893 0.14038755 -0.17966199 0.13180941 -0.08064064 0.18370986 0.020635288 -0.22264825 0.16856699 -0.099948436 -0.0055340324 -0.17513128 0.07098525 -0.31013036 -0.13132681 0.31236863 -0.037941568 -0.0028621915 0.13772064 -0.06398188
78 -0.011118506 0.19667415 -0.3163157 -0.3235564 -0.038078357 -0.38588426 0.16445874 -0.06306586 0.078778684 -0.27189445 -0.23353301 0.26246172 0.1117426 0.060251623 -0.020768061 -0.026525626 -0.1710495 0.13953462 0.1081386 0.30474934 -0.29226843 -0.12602642 0.04182832 0.066372275 0.15174657 -0.11224202 -0.14064589 0.1921856 -0.03316261 -0.13058485 -0.042679373 -0.085628495 -0.3065512 0.26232898 0.29555973 0.14925644 -0.011610278 -0.22573191 -0.27877134 0.09612356 -0.20036079 -0.047216542 0.018954545 -0.048314642 -0.12218839 0.12965524 -0.18699807 0.13312078 -0.081245005 0.18983059 0.026348552 -0.21020485 0.17859164 -0.09802937 -0.011225084 -0.17480592 0.052288394 -0.303211 -0.1302641 0.30938905 -0.04664523 -0.012191865 0.14305522 -0.06661257
18 -0.008804041 0.18914776 -0.32139397 -0.31958055 -0.04157488 -0.3731166 0.1649413 -0.06282505 0.08120243 -0.27460223 -0.23854014 0.26734018 0.10892864 0.06704205 -0.018612063 -0.01660746 -0.17373715 0.1509356 0.10314898 0.30665383 -0.29042295 -0.1269763 0.043462243 0.058941044 0.15126908 -0.11670996 -0.14342491 0.1928649 -0.039406307 -0.12698461 -0.050112788 -0.07690944 -0.31424883 0.2576416 0.30078045 0.14452499 -0.008646758 -0.22396085 -0.2679869 0.095185995 -0.20136006 -0.050107863 0.020279247 -0.039918907 -0.124829724 0.14040239 -0.17332767 0.13746336 -0.08698039 0.18497573 0.015781695 -0.212244 0.16438755 -0.09854372 -0.009391807 -0.16284662 0.054089967 -0.3105125 -0.12907065 0.31217298 -0.045475222 -0.0053374153 0.14435595 -0.05913245
45 -0.014893449 0.19651854 -0.31365925 -0.3123185 -0.04506179 -0.38951668 0.16678971 -0.07606046 0.07330726 -0.2796034 -0.23347826 0.2615617 0.113097794 0.066024765 -0.02144009 -0.029869292 -0.18229792 0.15409558 0.09150537 0.31288192 -0.2860067 -0.113967486 0.04469378 0.0675584 0.16426113 -0.11367306 -0.13814582 0.18809322 -0.027562486 -0.12663342 -0.04622802 -0.069429666 -0.31254297 0.25662228 0.30839267 0.15031332 -0.016235573 -0.23720413 -0.28085124 0.083051644 -0.21027558 -0.042965632 0.011254793 -0.030005986 -0.12373052 0.13580664 -0.18194228 0.1334156 -0.07315914 0.19084689 0.022605008 -0.21966998 0.17953494 -0.091484345 -0.015383116 -0.16321358 0.055970028 -0.30490702 -0.110159874 0.2989499 -0.04473125 -0.0008321904 0.14143708 -0.06482207
93 -0.016716944 0.2068459 -0.32126838 -0.31434727 -0.05017514 -0.39417234 0.16627732 -0.07922504 0.08887129 -0.2680593 -0.24548171 0.26218805 0.11057199 0.058881402 -0.021214498 -0.029731777 -0.18621978 0.14160968 0.10558428 0.31311023 -0.28250808 -0.12060782 0.056055006 0.07200852 0.15553397 -0.1298553 -0.14516231 0.20123224 -0.03816741 -0.12172738 -0.03891705 -0.072343394 -0.30619743 0.26338658 0.29851407 0.15020263 -0.00670974 -0.23349668 -0.28267175 0.10530255 -0.20568904 -0.04591988 0.0066367574 -0.0499294 -0.11576254 0.12688148 -0.17470323 0.1384917 -0.080874525 0.18873633 0.02178305 -0.2186078 0.1796015 -0.09273524 -0.008796056 -0.1628079 0.050079443 -0.31804383 -0.114698246 0.30191964 -0.03402875 -0.010085509 0.1304385 -0.06353501
55 -0.019809466 0.17964227 -0.30772266 -0.29966483 -0.039392717 -0.38785964 0.16136421 -0.058088798 0.07848499 -0.27373597 -0.23101686 0.25689575 0.11182602 0.06975833 -0.027693769 -0.017503735 -0.1767513 0.15383935 0.10247006 0.30512488 -0.2908692 -0.11693574 0.052326914 0.06863351 0.15992339 -0.11087067 -0.1460601 0.18947181 -0.02725112 -0.12060955 -0.039937112 -0.07987812 -0.30946994 0.2652954 0.30046406 0.147064 -0.008798151 -0.22837831 -0.27088997 0.09970132 -0.19372632 -0.034503073 0.014368289 -0.03771866 -0.108448096 0.13995494 -0.18239252 0.124299906 -0.07647377 0.18157606 0.016467229 -0.21393865 0.17580812 -0.088659756 -0.009736121 -0.15705901 0.0654745 -0.30907702 -0.12405711 0.30940315 -0.038472693 -0.005669982 0.14114225 -0.066429794
52 -0.009704123 0.19688869 -0.31331077 -0.31305212 -0.029421495 -0.3920475 0.15781975 -0.07944581 0.09072034 -0.27015075 -0.24796195 0.27147365 0.10707258 0.07293371 -0.0342726 -0.017904064 -0.18025704 0.15275061 0.098613076 0.30551806 -0.29574463 -0.12192483 0.03968137 0.071639255 0.16166613 -0.114658624 -0.14604206 0.20463668 -0.039268456 -0.12410791 -0.041629173 -0.06981479 -0.3029646 0.25742203 0.30385783 0.15983476 -0.0006607354 -0.2379388 -0.28144482 0.10019285 -0.20251223 -0.050260488 0.023093216 -0.04335555 -0.12148967 0.13212919 -0.17570621 0.13985522 -0.08698309 0.19219665 0.016788812 -0.21307574 0.17164393 -0.1035613 -0.011679163 -0.16903171 0.049872406 -0.30758542 -0.11055778 0.3046739 -0.041819647 -0.010473811 0.13585106 -0.0661092
63 -0.013391137 0.20366344 -0.323692 -0.32265854 -0.04111307 -0.39804003 0.16931298 -0.06631753 0.091413364 -0.2761464 -0.25271776 0.25762588 0.10278357 0.07222173 -0.037187748 -0.030257665 -0.17870593 0.15319794 0.10072413 0.3091775 -0.2965897 -0.11118042 0.057193156 0.071713045 0.15161207 -0.11782743 -0.15118644 0.19226828 -0.033472873 -0.12694892 -0.036319166 -0.07780217 -0.30073455 0.2559737 0.29227278 0.1615356 0.00074520335 -0.24285936 -0.2843288 0.09042981 -0.20795242 -0.05236366 0.021835845 -0.039217576 -0.10902608 0.14182077 -0.17215264 0.1429953 -0.07398984 0.19234903 0.019567305 -0.21905668 0.17093417 -0.099881604 -0.016306069 -0.17577703 0.052000284 -0.31655854 -0.111816674 0.30248803 -0.0341639 0.0066363295 0.13598953 -0.06392915
20 -0.010127022 0.198887 -0.31194198 -0.3118408 -0.04299051 -0.38613996 0.16234119 -0.07428896 0.0788542 -0.27313417 -0.2449772 0.26725304 0.10439496 0.06900622 -0.036599506 -0.021259971 -0.1742381 0.14984097 0.09274897 0.30480924 -0.28571504 -0.11759173 0.055205453 0.06880129 0.16295697 -0.122524284 -0.14185408 0.19900027 -0.02959283 -0.13109037 -0.0397852 -0.07069935 -0.30392173 0.25939462 0.3040814 0.1517013 -0.014942083 -0.22799084 -0.27997625 0.089865826 -0.19738601 -0.039422072 0.008695594 -0.04606503 -0.11891956 0.13415766 -0.18302083 0.12825292 -0.07690695 0.19445209 0.027117182 -0.20891257 0.17102277 -0.09298927 -0.0049878024 -0.16250856 0.0597379 -0.30804986 -0.115604594 0.296703 -0.03550934 -0.0039051122 0.13536935 -0.057929125
89 -0.00887489 0.18829401 -0.32240346 -0.31282622 -0.040890206 -0.3904676 0.15297322 -0.07275381 0.09031396 -0.2688892 -0.2358249 0.25936225 0.107810386 0.05937221 -0.037217278 -0.019676942 -0.1784206 0.15077655 0.0950936 0.30991358 -0.28988674 -0.13346809 0.045711532 0.07029922 0.15215196 -0.11406061 -0.15226041 0.20411599 -0.025185758 -0.12457912 -0.04935322 -0.0771907 -0.30850407 0.25486428 0.29598016 0.15945406 -0.0040271985 -0.24385032 -0.28545335 0.10642702 -0.20137388 -0.043245684 0.007905024 -0.051500537 -0.11834962 0.14561595 -0.1741754 0.1220855 -0.07838525 0.19689445 0.027723365 -0.21874024 0.17067578 -0.08671771 -0.01305033 -0.16244894 0.060913645 -0.3194174 -0.12161379 0.3095514 -0.041091595 -0.010503291 0.14546321 -0.07540057
70 -0.013773457 0.18735026 -0.32040286 -0.31683207 -0.047834035 -0.38354927 0.15844508 -0.06621979 0.085316405 -0.28222543 -0.24429578 0.2682737 0.10790462 0.071565114 -0.032640338 -0.030700335 -0.1760185 0.13411133 0.09591931 0.30268285 -0.29162493 -0.12444417 0.0479525 0.07310018 0.14880472 -0.115625665 -0.14926673 0.19375159 -0.02504585 -0.12834144 -0.043582883 -0.08651312 -0.30797806 0.25362048 0.2907916 0.15492295 -0.010063617 -0.22858511 -0.28127694 0.08748056 -0.20096983 -0.035934083 0.008523619 -0.0448718 -0.11390265 0.136383 -0.18492272 0.12909491 -0.07372865 0.19578704 0.030274153 -0.21976615 0.17377435 -0.09966934 -0.00815917 -0.16395022 0.06096903 -0.31289613 -0.11685793 0.30992123 -0.04644919 0.0031816957 0.13539837 -0.06155805
69 -0.022217588 0.19329211 -0.3237137 -0.32389948 -0.037993267 -0.38496208 0.15372401 -0.082564116 0.08656031 -0.26743892 -0.23892498 0.2704899 0.11907344 0.07021167 -0.028457006 -0.027336635 -0.17132166 0.15843305 0.09458809 0.310044 -0.2798679 -0.12384759 0.0403998 0.07215941 0.15681171 -0.122762546 -0.14120902 0.20354174 -0.027740942 -0.13938345 -0.046984904 -0.070966095 -0.31486452 0.2675596 0.30466378 0.14989716 -0.01583727 -0.23851447 -0.2777356 0.093223006 -0.20265564 -0.041231588 0.0121565815 -0.053306032 -0.11268429 0.12541068 -0.16973568 0.1362723 -0.08559328 0.18977262 0.021986566 -0.21978898 0.16797215 -0.08499526 -0.014774828 -0.15952353 0.05818024 -0.3021001 -0.11925015 0.3062168 -0.042543083 -0.008653862 0.13609193 -0.06925568
53 -0.01796958 0.20419765 -0.3218996 -0.3235473 -0.029319651 -0.3831024 0.17367743 -0.064185314 0.07341207 -0.28082535 -0.24828894 0.26562354 0.10659973 0.07494996 -0.032569423 -0.023310024 -0.17041601 0.14606695 0.10155543 0.31692147 -0.29615623 -0.11515507 0.04350359 0.07250528 0.15417625 -0.120435484 -0.14919657 0.18604378 -0.023024617 -0.12127319 -0.04523553 -0.07698944 -0.30745548 0.26340804 0.3090684 0.14393295 -0.008877326 -0.22408731 -0.28087503 0.09302185 -0.20951943 -0.041846 0.013199154 -0.043704808 -0.116316885 0.12663929 -0.18127136 0.13975552 -0.07917825 0.18572655 0.012641014 -0.22101396 0.16962487 -0.0975176 -0.003757842 -0.16763358 0.06828692 -0.3034579 -0.1246972 0.29912108 -0.040159658 -0.0009965037 0.14481688 -0.063013054
56 -0.009180984 0.19777308 -0.32098007 -0.3095642 -0.049462773 -0.3785338 0.16633727 -0.067852855 0.07605146 -0.27133805 -0.24520269 0.27304196 0.11807793 0.05566538 -0.026413146 -0.02186436 -0.18726406 0.14879829 0.08907677 0.3076476 -0.28606063 -0.1327878 0.037310597 0.069328845 0.15881197 -0.120808 -0.14997144 0.19197762 -0.03594877 -0.12410111 -0.04095234 -0.08092764 -0.30361328 0.2644897 0.30143604 0.14419973 -0.0041442923 -0.23837191 -0.27047572 0.10153617 -0.1942076 -0.03702557 0.016523166 -0.045544513 -0.11769385 0.12580483 -0.17694063 0.12413012 -0.08813496 0.1990696 0.023408303 -0.22066694 0.1825152 -0.101105325 -0.0138408905 -0.17072682 0.06091405 -0.29961783 -0.11746736 0.3134477 -0.04116467 -0.0036038859 0.13912132 -0.06449834
50 -0.019931672 0.19219556 -0.32651603 -0.31487042 -0.035945997 -0.38166693 0.15802574 -0.06309064 0.08360538 -0.27030325 -0.25205562 0.26801878 0.106044725 0.061440833 -0.03879915 -0.014955782 -0.18437862 0.14925948 0.0982449 0.31500995 -0.29319036 -0.12290549 0.044332817 0.069823794 0.1519134 -0.11780775 -0.15319873 0.19045815 -0.036529932 -0.11784329 -0.04107574 -0.06544621 -0.30177632 0.27354485 0.2934557 0.15739097 0.00011041405 -0.2281557 -0.27507114 0.10358454 -0.20477472 -0.051621687 0.018688349 -0.055917192 -0.11520987 0.12577555 -0.18328606 0.13699962 -0.074954174 0.19694257 0.020946832 -0.21722353 0.17838308 -0.10551937 -0.012295097 -0.16444558 0.057288747 -0.30258912 -0.115251176 0.30682105 -0.04077051 -0.004410823 0.13955113 -0.06809967
14 -0.0075940522 0.19677785 -0.32546002 -0.32399666 -0.047981918 -0.3801427 0.16210778 -0.06338911 0.0847609 -0.2678308 -0.243056 0.25835317 0.110530555 0.05447779 -0.029651059 -0.019419832 -0.18308581 0.15428318 0.08849141 0.31553948 -0.28709027 -0.11940875 0.045958575 0.067578785 0.16044207 -0.11828697 -0.14000413 0.19856001 -0.03190914 -0.12904902 -0.041468948 -0.07604979 -0.30605766 0.27262035 0.29628414 0.14843929 -0.006051451 -0.2244574 -0.28085726 0.08652148 -0.20784308 -0.040417425 0.013715529 -0.051049873 -0.117116466 0.1327989 -0.17362289 0.13961531 -0.078336924 0.1876902 0.025933778 -0.21779881 0.17576593 -0.09653383 -0.0032528117 -0.1703686 0.061160948 -0.29883695 -0.11355583 0.30389175 -0.036404412 -0.010232231 0.14033306 -0.06333444
58 -0.014456893 0.1996769 -0.3238359 -0.32017225 -0.047495984 -0.39783826 0.15272905 -0.06462716 0.086466715 -0.2696171 -0.24500804 0.25552496 0.12081782 0.06433024 -0.026691126 -0.026500376 -0.16777444 0.14741763 0.09581898 0.30830294 -0.28807262 -0.12282992 0.054131053 0.07015939 0.16033615 -0.1092404 -0.14769374 0.18912007 -0.024165636 -0.13205835 -0.044506013 -0.085204154 -0.30713958 0.26851735 0.30642602 0.1594236 -0.014121607 -0.23410466 -0.27707934 0.08396855 -0.20130871 -0.047202352 0.009461556 -0.0457721 -0.11915536 0.13243349 -0.18698516 0.1336948 -0.08061543 0.18339981 0.022351064 -0.21407136 0.17610072 -0.09940621 -0.005420755 -0.16658866 0.053092465 -0.30189088 -0.12850015 0.29854012 -0.038902014 -0.009494798 0.13523965 -0.06317162
46 -0.016312705 0.20087007 -0.32294625 -0.31980753 -0.037963215 -0.38477424 0.16763616 -0.06853485 0.07522646 -0.27853513 -0.23029882 0.26307744 0.10721479 0.06525633 -0.03402535 -0.02746978 -0.17441413 0.14301045 0.09189896 0.303415 -0.28211415 -0.12865923 0.042461522 0.069194034 0.14966089 -0.12492038 -0.15240249 0.20384043 -0.03949443 -0.13346668 -0.047008008 -0.073400505 -0.29372796 0.25693816 0.30768552 0.14654277 -0.0022294195 -0.23818494 -0.27793196 0.09092155 -0.1935787 -0.040638123 0.016741289 -0.041258004 -0.11468314 0.14444353 -0.18623245 0.14312899 -0.087379254 0.19942398 0.01968104 -0.21577564 0.18159358 -0.092011794 -0.013902512 -0.1635327 0.05590311 -0.29736993 -0.12997241 0.301762 -0.043925375 -0.014995725 0.13769597 -0.06382326
94 -0.017794412 0.19423702 -0.30460405 -0.3122603 -0.03730149 -0.38427007 0.16300172 -0.058406346 0.08059821 -0.2761204 -0.24498369 0.26015452 0.103617124 0.059609674 -0.028957527 -0.015970659 -0.17972252 0.14542577 0.09793492 0.30234462 -0.28549695 -0.11930797 0.05468839 0.05772844 0.15845105 -0.121550865 -0.1394343 0.18995704 -0.03574804 -0.11757371 -0.04088501 -0.07210207 -0.31121695 0.26732448 0.3021361 0.15074499 -0.000765984 -0.22363648 -0.2686737 0.10179581 -0.2085918 -0.047103394 0.02339916 -0.047390595 -0.11864387 0.14207931 -0.16944087 0.1252118 -0.08609404 0.19056363 0.015156946 -0.22025523 0.174425 -0.10106652 -0.015978733 -0.15992938 0.06777495 -0.30957413 -0.12835093 0.30409107 -0.030303763 -0.011478118 0.1374792 -0.060249496
41 -0.010439811 0.19860737 -0.33350158 -0.328836 -0.033136915 -0.39561325 0.15726039 -0.07056332 0.07798997 -0.2804699 -0.24508502 0.25894699 0.11787171 0.067245714 -0.035655838 -0.018167604 -0.17535745 0.14792639 0.101604424 0.30463192 -0.28422052 -0.12267961 0.050458636 0.064725585 0.15796404 -0.11147677 -0.13766564 0.19032925 -0.023594353 -0.1371917 -0.048670426 -0.07571899 -0.3140788 0.2684863 0.29937828 0.14805837 -0.001482312 -0.23804967 -0.27803117 0.09310885 -0.20453878 -0.039135728 0.0064816615 -0.043742023 -0.10809663 0.13410473 -0.18293084 0.14523521 -0.081476815 0.19280434 0.025561593 -0.21927963 0.17162247 -0.0940948 -0.007171047 -0.17116854 0.056965355 -0.31392112 -0.1103504 0.30935785 -0.03869083 -0.0044552074 0.13182402 -0.068857
85 -0.022494784 0.20184427 -0.3257995 -0.32574016 -0.049273204 -0.38589758 0.16046526 -0.069169626 0.09184027 -0.27360398 -0.23442803 0.27276018 0.11915008 0.063447736 -0.031312555 -0.02522273 -0.17669784 0.1462396 0.09345246 0.30597794 -0.28535676 -0.13293353 0.039918967 0.07343868 0.16493145 -0.11492711 -0.13921934 0.20429513 -0.02886348 -0.1369921 -0.041032527 -0.06869663 -0.30765647 0.26992244 0.29468092 0.1445575 -0.0015072605 -0.2393983 -0.27621624 0.10167893 -0.19566415 -0.039142396 0.013100871 -0.056149192 -0.1126077 0.13264179 -0.18128376 0.13251993 -0.08451689 0.19227466 0.028225986 -0.21908408 0.17515181 -0.09948173 -0.010555153 -0.16582957 0.06218434 -0.30213568 -0.117334574 0.29988742 -0.03330501 0.0016172138 0.13861766 -0.0694638
10 -0.020539949 0.20298046 -0.31999648 -0.32430327 -0.046304483 -0.38080117 0.15945905 -0.06404252 0.07820523 -0.26954517 -0.23526455 0.2700861 0.11707283 0.06927277 -0.03298879 -0.03217802 -0.183391 0.14223337 0.10056475 0.30716702 -0.28874207 -0.11785719 0.045355927 0.07278485 0.1653687 -0.12376227 -0.15117055 0.19136925 -0.034493625 -0.122849524 -0.04566276 -0.08537465 -0.31082216 0.26086706 0.3040854 0.15666333 -0.012321146 -0.23557605 -0.27526754 0.09434569 -0.2018103 -0.049929492 0.020598099 -0.039421327 -0.12401259 0.1335767 -0.16955797 0.13004027 -0.079947665 0.19223131 0.017289266 -0.22221243 0.17665608 -0.090234235 -0.0060015973 -0.164938 0.067442216 -0.29812777 -0.11317718 0.31403723 -0.049260013 -0.0074989614 0.14475098 -0.068225056
9 -0.026050566 0.19893263 -0.31292522 -0.31123668 -0.045459904 -0.39104164 0.16850653 -0.06463404 0.083155826 -0.2731567 -0.23583275 0.26629704 0.10465873 0.05775233 -0.030365195 -0.021970935 -0.17212123 0.15310691 0.097262174 0.3085425 -0.28887752 -0.13016033 0.05488614 0.058907416 0.16393146 -0.11718331 -0.14830239 0.20288216 -0.026379153 -0.13449243 -0.045560714 -0.071693346 -0.31292558 0.2729105 0.29504696 0.15437457 -0.011142447 -0.22630447 -0.2644565 0.08839696 -0.20438284 -0.043010026 0.016277881 -0.044437055 -0.12186767 0.13407493 -0.17307931 0.13753827 -0.08000059 0.19462615 0.01597413 -0.22582261 0.17740135 -0.09399987 -0.011093184 -0.164303 0.054894563 -0.3071651 -0.119731195 0.29565978 -0.04776984 -0.00022475477 0.1388342 -0.06569467
87 -0.008688316 0.19409783 -0.30681953 -0.3114062 -0.031097734 -0.38090953 0.16846056 -0.060563322 0.08662975 -0.27682316 -0.24211945 0.26801375 0.11702206 0.058686826 -0.030065665 -0.026798178 -0.17079213 0.14851503 0.102893375 0.30052552 -0.2959906 -0.1163688 0.044803537 0.06591782 0.15960571 -0.12668326 -0.14488082 0.20049818 -0.032388084 -0.1270363 -0.049136713 -0.077880666 -0.2984673 0.26046923 0.31168428 0.14693262 -0.016539287 -0.24098858 -0.2762393 0.08790944 -0.20101906 -0.052245155 0.013445031 -0.04346843 -0.1113805 0.14223069 -0.18851347 0.13975176 -0.08866641 0.20056212 0.019586733 -0.22073884 0.16903795 -0.098049454 -0.02168912 -0.15805462 0.057172853 -0.30360782 -0.12778111 0.30675584 -0.028920442 -0.015693432 0.13492276 -0.060325414
2 -0.020016788 0.20101659 -0.30789083 -0.3085711 -0.041253474 -0.38618806 0.16460958 -0.06297203 0.08673018 -0.27487415 -0.2450146 0.25584897 0.11073638 0.07490384 -0.025552487 -0.029072706 -0.17946817 0.14937712 0.1069079 0.3104887 -0.29350707 -0.12504499 0.041604456 0.074641235 0.1677979 -0.12486422 -0.14993891 0.19609423 -0.028627908 -0.12400696 -0.05215555 -0.079234965 -0.29998246 0.26393196 0.30365703 0.15253943 -0.0048661395 -0.22865571 -0.27967593 0.09298693 -0.20730363 -0.0357051 0.02329207 -0.045911383 -0.11980244 0.13868147 -0.18454044 0.13379948 -0.08926234 0.18710041 0.013972673 -0.21424519 0.16870768 -0.09931601 -0.0054699047 -0.1651727 0.058098957 -0.31191054 -0.11849682 0.2984451 -0.04489292 -0.008681928 0.14054325 -0.067063585
31 -0.010343273 0.204231 -0.32322055 -0.32551923 -0.037547324 -0.3821061 0.16731018 -0.06738736 0.08638803 -0.27867663 -0.2390231 0.26929557 0.10621967 0.060210966 -0.037039187 -0.014793142 -0.17987984 0.14106117 0.10112358 0.30538493 -0.28817147 -0.120520934 0.046485163 0.07029605 0.156927 -0.1064224 -0.14722547 0.19357964 -0.026696991 -0.12824103 -0.04881159 -0.07455848 -0.3060168 0.26866493 0.3008979 0.1563853 -0.012676396 -0.23914239 -0.28115866 0.09806432 -0.19754237 -0.051129486 0.012280878 -0.04751158 -0.1099076 0.1420945 -0.17986357 0.12923644 -0.080519944 0.19367287 0.015803859 -0.22161053 0.17519456 -0.09142512 -0.014015471 -0.16169135 0.059347115 -0.3065518 -0.122212455 0.30883673 -0.04639257 -0.007187618 0.13418488 -0.062914714
86 -0.019241374 0.19551562 -0.3204201 -0.30613437 -0.04027766 -0.3921514 0.16818433 -0.07463654 0.07720705 -0.2712719 -0.23691969 0.2627687 0.10930549 0.070508234 -0.035037443 -0.013917162 -0.17026436 0.13886397 0.08820781 0.31267965 -0.29004624 -0.11967811 0.046763703 0.058106933 0.14843813 -0.113777414 -0.15198451 0.19690327 -0.028823795 -0.12399267 -0.042345002 -0.08104188 -0.3008758 0.2640834 0.30122054 0.1568613 -0.010609306 -0.24268489 -0.28233117 0.09136307 -0.19669652 -0.050460495 0.010578299 -0.042260773 -0.11272423 0.14657478 -0.17332743 0.12669715 -0.08185656 0.18594198 0.023030646 -0.2086019 0.1741119 -0.10440874 -0.011227332 -0.16214818 0.0530043 -0.31179148 -0.13090372 0.3086217 -0.03511224 -0.001462371 0.14292249 -0.07105123
43 -0.02517014 0.20487864 -0.32154262 -0.31871367 -0.04476603 -0.3743315 0.15234797 -0.06185875 0.08501866 -0.26847595 -0.23827876 0.26545247 0.109861456 0.07177207 -0.024874652 -0.018097764 -0.17849952 0.14322129 0.10008542 0.30619356 -0.29047614 -0.123103 0.038101632 0.056580946 0.16534182 -0.12129399 -0.14882259 0.19243385 -0.022755064 -0.12816912 -0.046889413 -0.075181484 -0.31096017 0.26400825 0.29929718 0.15334137 -0.0021389283 -0.22829998 -0.28146914 0.08993937 -0.20876141 -0.035510954 0.027751772 -0.038409114 -0.1149767 0.1251705 -0.17940724 0.13033198 -0.078061305 0.19313046 0.028712487 -0.21744882 0.17411786 -0.098100685 -0.017216718 -0.16933803 0.056279913 -0.31063205 -0.11659647 0.30367842 -0.034886587 -0.0049214326 0.13710961 -0.06674815
90 -0.008976155 0.19310234 -0.30506995 -0.3142731 -0.035594355 -0.38719213 0.15519452 -0.07586874 0.08796609 -0.2656316 -0.24570833 0.25932616 0.111620955 0.068839565 -0.02802011 -0.024495482 -0.1718105 0.15139334 0.09682272 0.30622137 -0.28769255 -0.11892902 0.039846756 0.06693731 0.16014537 -0.1130137 -0.15374558 0.1910039 -0.022958033 -0.123845056 -0.044025462 -0.070087306 -0.305296 0.25979465 0.30444905 0.15884578 -0.0148670245 -0.23900592 -0.288425 0.09727546 -0.20782326 -0.046637535 0.009107153 -0.03898939 -0.12150797 0.13106366 -0.17098373 0.13391387 -0.08278631 0.20043342 0.027432038 -0.22151992 0.17507575 -0.090681836 -0.014732212 -0.15835787 0.05270962 -0.30557975 -0.11295749 0.2957084 -0.04926717 -0.007161048 0.13305578 -0.07685326
68 -0.019416686 0.1970432 -0.30888748 -0.31403854 -0.046796296 -0.3916076 0.1527987 -0.07339919 0.0865637 -0.2730286 -0.24081586 0.25907204 0.105878584 0.06472433 -0.01901796 -0.015910784 -0.18404968 0.15207902 0.0870715 0.31032488 -0.2830297 -0.11878939 0.051775515 0.060986634 0.15542921 -0.11335376 -0.13915154 0.19712469 -0.029443301 -0.13497831 -0.030946651 -0.076284215 -0.31580576 0.27316454 0.29883546 0.15779355 -0.015429506 -0.22554946 -0.28238097 0.08611209 -0.20660844 -0.048738424 0.010508362 -0.042006988 -0.115085654 0.12508091 -0.17721833 0.13543716 -0.07814757 0.17955418 0.024083592 -0.21318588 0.1750325 -0.09291785 -0.01929264 -0.16008191 0.06477911 -0.31073454 -0.11864226 0.29811302 -0.04442421 -0.001077361 0.13297862 -0.06654929
4 -0.018899068 0.20276268 -0.3152035 -0.31410494 -0.04608765 -0.37919042 0.16776502 -0.07283479 0.08965637 -0.26682502 -0.2475097 0.27048498 0.10361422 0.055090368 -0.025607456 -0.013044138 -0.17480221 0.13637182 0.093065046 0.3100317 -0.29400182 -0.12517415 0.048175033 0.06368363 0.15695938 -0.119571134 -0.14402963 0.18790597 -0.039247576 -0.12423314 -0.053624503 -0.069622934 -0.302371 0.26339447 0.29235494 0.14720996 -0.0068076653 -0.24365275 -0.28930244 0.09305735 -0.20691745 -0.039956808 0.025619699 -0.046142794 -0.113500684 0.13844845 -0.17796195 0.12640788 -0.08822046 0.1955638 0.028442705 -0.22193256 0.17622621 -0.09624469 -0.017374 -0.17191689 0.060866058 -0.30314672 -0.11597791 0.2989044 -0.04400733 -0.005187726 0.13990872 -0.06683584
42 -0.009609592 0.20201343 -0.31695002 -0.3027894 -0.04567239 -0.39080876 0.16499534 -0.07519487 0.07592098 -0.2693818 -0.24703388 0.25479904 0.112260416 0.05630108 -0.025754664 -0.021159215 -0.18066372 0.14632799 0.09026162 0.3068462 -0.2798007 -0.12461092 0.05277507 0.07343258 0.15672152 -0.112415366 -0.1340679 0.19521439 -0.0385251 -0.13471682 -0.04254055 -0.07692564 -0.29783508 0.25587118 0.2929713 0.1602679 -0.0057609365 -0.23628657 -0.27842432 0.094940625 -0.21117036 -0.038391422 0.014005291 -0.03588308 -0.113506414 0.12755957 -0.17367399 0.13807982 -0.08615878 0.19315115 0.018788204 -0.22096698 0.1714615 -0.097236075 -0.012054647 -0.15843603 0.057258278 -0.30808055 -0.10460698 0.30362648 -0.04861744 -0.005018795 0.13848189 -0.062291674
44 -0.026173921 0.19466168 -0.32484433 -0.3163998 -0.041224286 -0.377561 0.16390046 -0.06426856 0.07455044 -0.26599228 -0.23716454 0.27281913 0.11362412 0.070465155 -0.030748574 -0.027388697 -0.18032876 0.15337873 0.08914838 0.31050423 -0.28751194 -0.13447362 0.04543239 0.065344624 0.16551025 -0.12684336 -0.13648522 0.18944073 -0.029992966 -0.13039035 -0.039541215 -0.06872033 -0.30856854 0.25910926 0.30452365 0.14568327 -0.014812514 -0.2329472 -0.28058916 0.0915119 -0.19991164 -0.03957458 0.008170794 -0.03882405 -0.11564349 0.12487515 -0.1672252 0.1288324 -0.06955033 0.18593991 0.0201593 -0.21417826 0.18361989 -0.096652254 -0.00035321532 -0.17118478 0.05899996 -0.30844134 -0.11977685 0.308289 -0.043487247 -0.007141113 0.13848563 -0.06632856
39 -0.01670803 0.19488183 -0.31955346 -0.3175935 -0.03485753 -0.37822455 0.16796538 -0.0658833 0.08623233 -0.27662036 -0.24347821 0.2609202 0.116413765 0.0593638 -0.03283156 -0.031247806 -0.17018692 0.14299954 0.091541484 0.30956078 -0.28937256 -0.1263275 0.044420797 0.07034821 0.15785761 -0.12786624 -0.14508219 0.20114729 -0.026127094 -0.13653098 -0.044933368 -0.08630637 -0.3109711 0.2618438 0.2999396 0.16425191 -0.00060391583 -0.22883578 -0.28280887 0.098407716 -0.20773582 -0.0323756 0.007736497 -0.046139996 -0.11786905 0.13800047 -0.18040843 0.1266006 -0.08231416 0.19451721 0.028466223 -0.21000448 0.17817475 -0.10251207 -0.013983209 -0.17172526 0.05109983 -0.30412382 -0.12613867 0.3150697 -0.050579064 -0.0059139486 0.13953187 -0.061427448
49 -0.026171442 0.20569852 -0.32413825 -0.32195452 -0.04749338 -0.3908914 0.15742151 -0.06318371 0.07436143 -0.26675767 -0.24376467 0.26680836 0.11203136 0.064305015 -0.019998189 -0.019441565 -0.17070535 0.1563958 0.096866734 0.314096 -0.2904811 -0.123631954 0.052979533 0.05574858 0.16609563 -0.11187666 -0.14562392 0.19073465 -0.03932242 -0.119273864 -0.032192577 -0.07645675 -0.30166823 0.26312742 0.295542 0.14505962 -0.0014360711 -0.23774385 -0.285748 0.08525825 -0.20475933 -0.05161751 0.012368611 -0.03542841 -0.11344064 0.14048024 -0.18008134 0.12242337 -0.07770765 0.19418114 0.028247941 -0.22089414 0.174046 -0.103367716 -0.008594535 -0.16442019 0.070930906 -0.3061066 -0.11254205 0.3048945 -0.045314103 0.00014634301 0.13812687 -0.070977636
12 -0.01313275 0.20131212 -0.32231933 -0.32106048 -0.032825038 -0.38128623 0.15401937 -0.074280106 0.09202069 -0.2695618 -0.24578434 0.2629136 0.11718709 0.059080556 -0.033357974 -0.028096804 -0.18413518 0.15335037 0.102176294 0.3003862 -0.28190506 -0.12648502 0.043497186 0.06870682 0.15962428 -0.1184022 -0.1353089 0.19186972 -0.03845594 -0.123398244 -0.037454333 -0.08456589 -0.3155588 0.25971586 0.29779142 0.15544656 -0.016123775 -0.22920632 -0.27723157 0.09549821 -0.20646153 -0.041862253 0.017548883 -0.055014383 -0.12054725 0.13852555 -0.18316633 0.13657722 -0.088288866 0.17973635 0.025644222 -0.22168326 0.16620824 -0.10037208 -0.017850548 -0.16647652 0.066424556 -0.30565864 -0.11781204 0.30390292 -0.036534585 -0.010870449 0.13216238 -0.05988458
35 -0.018764937 0.19532558 -0.32538348 -0.32267836 -0.04265802 -0.39089295 0.16750683 -0.069512814 0.0863166 -0.27058768 -0.24291801 0.2636731 0.116532385 0.071960434 -0.026819786 -0.027400492 -0.18363634 0.14096053 0.10265056 0.3055578 -0.28225848 -0.11983066 0.052624602 0.058284976 0.15411238 -0.11528614 -0.15106691 0.1963247 -0.03515962 -0.12668675 -0.034730814 -0.084667005 -0.30566487 0.2673433 0.3012306 0.14598975 -0.014852897 -0.2219411 -0.28256044 0.09778693 -0.20530327 -0.03590554 0.013967357 -0.049214046 -0.10283906 0.12739508 -0.17592211 0.13876964 -0.07997627 0.19262844 0.017919676 -0.2099054 0.16551931 -0.1067594 -0.016669065 -0.16406856 0.062185496 -0.30479005 -0.124205336 0.3030092 -0.039155245 0.003642733 0.12789196 -0.07043294
97 -0.0061441455 0.19755255 -0.32108176 -0.31277016 -0.043538306 -0.389305 0.16706248 -0.06668564 0.079559445 -0.28613797 -0.25103638 0.25884035 0.1113928 0.055544186 -0.020689035 -0.020197453 -0.17625993 0.14656065 0.090108044 0.3067961 -0.28370312 -0.13032971 0.05346704 0.063491486 0.15217805 -0.12132174 -0.14028405 0.19665484 -0.03630172 -0.13417602 -0.04159823 -0.07848979 -0.30489177 0.27244523 0.31118637 0.14660068 -0.003766341 -0.23065333 -0.28137717 0.0867173 -0.19541982 -0.044515252 0.013709322 -0.035918742 -0.12217519 0.13408644 -0.17543179 0.13790782 -0.08660685 0.18938813 0.014020478 -0.2197654 0.1700888 -0.100379765 -0.01563462 -0.16551991 0.0513293 -0.31493157 -0.118408866 0.31441754 -0.031108744 -0.0035253142 0.14707775 -0.05833727
11 -0.018311203 0.19684668 -0.31633607 -0.30746722 -0.046443846 -0.37666285 0.16100553 -0.0754996 0.09055384 -0.27745965 -0.24669346 0.26285374 0.10796165 0.07546458 -0.024383003 -0.019139664 -0.18390979 0.13635914 0.1036481 0.29934615 -0.28281578 -0.114653684 0.05319775 0.06226419 0.15516885 -0.11641686 -0.1483303 0.19970588 -0.02026259 -0.12468265 -0.03742648 -0.078151055 -0.31583866 0.25889367 0.2917357 0.1520696 -0.006635191 -0.23850934 -0.28296885 0.101490796 -0.20909572 -0.047917977 0.010896997 -0.049912333 -0.11415739 0.13296004 -0.18519993 0.1359993 -0.080615215 0.19827883 0.018165208 -0.22109137 0.17187919 -0.10068693 -0.015643798 -0.1734647 0.052963194 -0.31815398 -0.112586506 0.31478938 -0.03361038 0.0057502068 0.14497308 -0.0653222
66 -0.019125395 0.19904181 -0.33486912 -0.33174804 -0.042815067 -0.38927028 0.16898862 -0.074805886 0.08457475 -0.27417013 -0.24692672 0.26493648 0.10163979 0.06456742 -0.021306567 -0.027029518 -0.18190864 0.14764312 0.09480123 0.29898185 -0.28881603 -0.13221668 0.040666375 0.0721875 0.15276739 -0.12140325 -0.14524968 0.19689924 -0.028013147 -0.12834091 -0.037704386 -0.071582526 -0.29878655 0.26636988 0.29917544 0.15017049 -0.0002496758 -0.22078377 -0.26373723 0.08583694 -0.1990835 -0.047671452 0.0102527775 -0.04150778 -0.113466874 0.1248097 -0.17977501 0.14160223 -0.07761716 0.18190049 0.009343847 -0.22394916 0.17619744 -0.102937005 -0.0033890617 -0.17153107 0.06622245 -0.2974539 -0.11306401 0.2998172 -0.035159446 -0.00820903 0.13560537 -0.0627235
99 -0.013593523 0.20063308 -0.3292041 -0.3277116 -0.040332723 -0.39359367 0.16437571 -0.075868964 0.07682095 -0.2709845 -0.23477708 0.26292717 0.118355945 0.057396404 -0.03006937 -0.022030089 -0.17928915 0.14828485 0.10348854 0.31521085 -0.29718348 -0.11491974 0.044987448 0.06916421 0.1593911 -0.11151962 -0.14642996 0.194239 -0.02268365 -0.13056704 -0.03559575 -0.06919409 -0.30245128 0.26358122 0.3026395 0.16006766 -0.00914523 -0.2350323 -0.28566673 0.093532555 -0.20222038 -0.052128952 0.013739675 -0.046487205 -0.111281775 0.13403492 -0.17575873 0.12838085 -0.0761403 0.18957356 0.031471673 -0.21949376 0.17393519 -0.089392886 -0.016724309 -0.17022334 0.06849856 -0.3101329 -0.12463991 0.29706252 -0.051298443 -0.0036375164 0.13230313 -0.0585828
54 -0.019683966 0.20240273 -0.32028905 -0.3054897 -0.042605624 -0.37556854 0.15306763 -0.07450169 0.08198573 -0.26124823 -0.24641135 0.26451555 0.10435461 0.06216669 -0.017478183 -0.026347224 -0.17257838 0.14137545 0.10459695 0.2983673 -0.2898304 -0.13456316 0.04514148 0.07518582 0.16440587 -0.1255996 -0.14852981 0.20423144 -0.03623519 -0.13218758 -0.050639052 -0.07340388 -0.30642843 0.2575818 0.29146966 0.15335575 0.0018991668 -0.23676248 -0.26405758 0.09530485 -0.19488472 -0.051475096 0.009876718 -0.04278462 -0.124692634 0.12714204 -0.1767878 0.12116194 -0.07652837 0.1866819 0.026886731 -0.21929274 0.18133417 -0.08898841 -0.0060966443 -0.1718542 0.05361152 -0.29600748 -0.12362857 0.30305934 -0.03605182 -0.010549334 0.13648202 -0.06050301
16 -0.00888961 0.20149101 -0.31642547 -0.30851406 -0.034282915 -0.386548 0.16301699 -0.07405057 0.08322589 -0.28103513 -0.23692076 0.25915545 0.11199139 0.06024001 -0.03411807 -0.02293187 -0.18461697 0.14638804 0.09888259 0.30411157 -0.2809988 -0.11911553 0.050253794 0.06989665 0.16229469 -0.11219989 -0.14719126 0.19457749 -0.02613569 -0.12539136 -0.047902543 -0.08355668 -0.30405906 0.2597055 0.29791242 0.1519944 -0.006275742 -0.23717111 -0.2848439 0.094738856 -0.20359977 -0.0328963 0.0109515125 -0.047809683 -0.1137476 0.13086523 -0.17786984 0.13574609 -0.08395199 0.18879354 0.02064445 -0.21977025 0.17813079 -0.08709696 -0.0119336145 -0.16420105 0.04850354 -0.30185553 -0.11198817 0.30973545 -0.0443193 -0.0038352222 0.13654175 -0.07000943
64 -0.026779829 0.19542389 -0.32905418 -0.32884476 -0.03646142 -0.38567165 0.15660954 -0.077803746 0.08503803 -0.2670719 -0.24156722 0.26743683 0.113182895 0.0615947 -0.024539858 -0.020786526 -0.17559384 0.14644048 0.08945149 0.30397308 -0.2835216 -0.121277645 0.050329663 0.058157623 0.14891252 -0.11377707 -0.15074047 0.1906573 -0.034150094 -0.11878353 -0.033718113 -0.071083635 -0.30647132 0.26940957 0.2974968 0.15649348 -0.0025731479 -0.22880171 -0.2753788 0.09555796 -0.19783516 -0.04278926 0.016968183 -0.053072173 -0.10821055 0.1268206 -0.17141959 0.13243794 -0.083938 0.18872482 0.030214913 -0.21357283 0.1733114 -0.09320752 -0.013140541 -0.16989377 0.055037186 -0.30360106 -0.1196576 0.29561272 -0.0441005 -0.0067294524 0.13463172 -0.07043052
71 -0.01700889 0.18965353 -0.31694633 -0.308912 -0.039983306 -0.37337023 0.17016158 -0.05842484 0.092407115 -0.2727823 -0.24015643 0.2634699 0.11953513 0.05942714 -0.03965131 -0.016374767 -0.17226382 0.14783262 0.08805449 0.30815014 -0.28700528 -0.12715264 0.038607147 0.071874134 0.16787204 -0.11716966 -0.13305557 0.20042075 -0.029276155 -0.13241917 -0.04991296 -0.0866394 -0.30860037 0.2501086 0.29475757 0.1527499 -0.020472072 -0.23472926 -0.26554152 0.09976251 -0.19784974 -0.047898464 0.021408113 -0.044078402 -0.10757739 0.13578925 -0.16900626 0.13528721 -0.090290815 0.18066965 0.027004698 -0.21648441 0.18229318 -0.09367914 -0.016834294 -0.16871499 0.06279576 -0.29824352 -0.12210882 0.30964297 -0.037621796 -0.009798762 0.13913144 -0.0646976
75 -0.014487429 0.20122276 -0.31897855 -0.31995815 -0.036621965 -0.39513165 0.15734762 -0.07023973 0.079439886 -0.2634097 -0.24104469 0.2618303 0.11010045 0.060850114 -0.031008493 -0.021602828 -0.17723256 0.14532278 0.09454664 0.31159866 -0.2907663 -0.12945484 0.050815385 0.06394515 0.15809974 -0.11658673 -0.14731233 0.1921058 -0.03732489 -0.11994722 -0.033064928 -0.07020865 -0.29709375 0.263938 0.30494854 0.14707905 -0.0012871585 -0.22579522 -0.27513626 0.09567413 -0.20563175 -0.050925404 0.019801358 -0.03972049 -0.112174466 0.14080709 -0.17938395 0.137744 -0.074853614 0.20163961 0.022073042 -0.20658933 0.1670918 -0.09570243 -0.011701864 -0.16979769 0.060488913 -0.3111629 -0.11462245 0.3094685 -0.03457252 -0.009192219 0.13416654 -0.05973967
38 -0.006749432 0.20213877 -0.30201352 -0.30815145 -0.038139347 -0.39172462 0.17298293 -0.074239045 0.07893662 -0.2748724 -0.2520722 0.27502292 0.11328766 0.061470143 -0.035534117 -0.021367418 -0.18266338 0.13828297 0.09438073 0.30440322 -0.29478782 -0.11754076 0.054322775 0.06572002 0.15422943 -0.113219224 -0.14966969 0.20149618 -0.036986575 -0.12959561 -0.042137206 -0.07880815 -0.31118506 0.26876822 0.29385507 0.1526646 -0.010858592 -0.22978179 -0.28861466 0.09730068 -0.19711895 -0.0533337 0.018527605 -0.035394795 -0.10897624 0.13185112 -0.17502704 0.13729563 -0.08442213 0.18540905 0.017525954 -0.2224825 0.17207164 -0.10017331 -0.012538828 -0.172524 0.06302238 -0.31464395 -0.12504315 0.3110681 -0.027792064 -0.010598198 0.13999575 -0.05421912
60 -0.008065143 0.19551292 -0.31175226 -0.30639073 -0.04479736 -0.38625163 0.17136481 -0.06704913 0.08292317 -0.2775249 -0.23290133 0.27005947 0.11914612 0.05771474 -0.027346946 -0.02106794 -0.17116597 0.14715044 0.09924589 0.310229 -0.29003197 -0.12831716 0.056317646 0.06609565 0.15729891 -0.12887813 -0.14686958 0.20071685 -0.027082674 -0.13723652 -0.03780388 -0.072590835 -0.30953392 0.25450015 0.30356127 0.14581195 -0.003224447 -0.22986215 -0.27648005 0.09430629 -0.2073123 -0.05019918 0.018990248 -0.03726345 -0.11508618 0.13837254 -0.17325537 0.12805337 -0.07936243 0.1955809 0.025847794 -0.20492193 0.17801285 -0.09725271 -0.014507624 -0.16002107 0.059783798 -0.2999666 -0.12239601 0.31338677 -0.03960234 -0.014759423 0.13403036 -0.059331406
47 -0.0128571745 0.20497544 -0.31689024 -0.32502747 -0.035397686 -0.38376892 0.16889107 -0.06844412 0.08867859 -0.27286428 -0.2391354 0.26217064 0.109613635 0.061428186 -0.027513467 -0.02180024 -0.17512743 0.14498375 0.10665672 0.30549374 -0.27794343 -0.12381084 0.049042556 0.06926271 0.16542085 -0.12453909 -0.14878237 0.19223386 -0.028838448 -0.12139721 -0.039087832 -0.0852701 -0.30557674 0.2551489 0.30190733 0.15505485 -0.017572802 -0.22586301 -0.29038662 0.094071366 -0.1936703 -0.036124926 0.016525049 -0.04508483 -0.12140543 0.13342632 -0.17968257 0.13224983 -0.081025675 0.19248721 0.021447832 -0.22466058 0.184956 -0.098723374 -0.00977868 -0.17380175 0.053127725 -0.30874646 -0.122349545 0.30790523 -0.044311766 -0.005787783 0.14138715 -0.059288498
3 -0.02553279 0.18503803 -0.31186453 -0.32266232 -0.04658988 -0.37856704 0.15433598 -0.06782616 0.07659865 -0.26861027 -0.24176484 0.26796624 0.11021629 0.0695239 -0.026768956 -0.023339188 -0.17477407 0.14996554 0.10362633 0.30301452 -0.29382598 -0.12953435 0.038247135 0.07128121 0.1608256 -0.12045945 -0.14575294 0.1945894 -0.030501967 -0.12818429 -0.044850443 -0.06907407 -0.31106633 0.2604723 0.28620383 0.14529236 0.001913744 -0.23161642 -0.27916652 0.09608692 -0.2101506 -0.03835415 0.021875389 -0.0479104 -0.12444264 0.1390462 -0.17650491 0.13397983 -0.0884223 0.18776247 0.014141559 -0.21518485 0.17033787 -0.0997017 -0.0018122144 -0.1644395 0.06499201 -0.3164343 -0.12706383 0.30981317 -0.04256939 0.00078908354 0.13173264 -0.068541504
28 -0.014133625 0.1918843 -0.3049202 -0.3173576 -0.039062142 -0.38616627 0.15336786 -0.06496917 0.081804626 -0.27111474 -0.24246651 0.25734538 0.10780092 0.07289994 -0.019386604 -0.021798935 -0.17889966 0.1508932 0.0965578 0.30446255 -0.28743595 -0.117074385 0.050915644 0.06288983 0.15633725 -0.11486189 -0.15315978 0.19049074 -0.03438182 -0.13220571 -0.03461511 -0.06969737 -0.31463972 0.2609297 0.29472715 0.16268758 -0.0056245476 -0.23762129 -0.28734136 0.09172831 -0.2110135 -0.03159256 0.018088093 -0.044992406 -0.120952226 0.14548317 -0.17078708 0.13355535 -0.087427095 0.19362932 0.013885238 -0.21811146 0.17696634 -0.089840986 -0.016645426 -0.1734204 0.069238946 -0.319344 -0.115173966 0.31415054 -0.034571245 0.0026453459 0.13746944 -0.073387705
74 -0.020287532 0.19090652 -0.3182284 -0.31940708 -0.031591404 -0.3872833 0.15451896 -0.07214008 0.081348 -0.27068412 -0.24749659 0.27057767 0.10666025 0.05955173 -0.02586626 -0.014139253 -0.17843549 0.15189503 0.099410065 0.30945483 -0.2904423 -0.13006113 0.049966246 0.057352252 0.1507839 -0.12025415 -0.14097363 0.19080392 -0.031084387 -0.12511082 -0.041692615 -0.08103005 -0.2979248 0.2692038 0.30679142 0.1548573 -0.01032984 -0.2423071 -0.28741255 0.09584531 -0.20578885 -0.044861715 0.019761033 -0.039925404 -0.112009406 0.13951449 -0.17316814 0.13622132 -0.072476625 0.18967326 0.026668515 -0.2215835 0.17241113 -0.1020579 -0.007757139 -0.15846577 0.052472897 -0.30989188 -0.1300644 0.2982864 -0.047399946 0.0029732944 0.14167877 -0.072020434
57 -0.0035514613 0.18570575 -0.31079182 -0.30662352 -0.033852387 -0.3836251 0.15881574 -0.07120606 0.081924155 -0.28296086 -0.24399614 0.2631311 0.1085625 0.058259018 -0.030087879 -0.022994353 -0.17309602 0.13675636 0.10268864 0.3092796 -0.28690937 -0.11835016 0.036682267 0.08036907 0.15980315 -0.12482046 -0.15272528 0.20420189 -0.023999497 -0.13366471 -0.04659952 -0.08606872 -0.30625746 0.26173487 0.30259472 0.1495539 -0.01936142 -0.23251098 -0.287128 0.10467012 -0.19768707 -0.033409193 0.020623386 -0.053506948 -0.11610115 0.14101295 -0.17876159 0.14051041 -0.08970969 0.18555406 0.019625455 -0.22773992 0.18250161 -0.104419194 -0.01620014 -0.16604313 0.06226198 -0.3040232 -0.11621389 0.31916195 -0.036020394 -0.003608532 0.13800749 -0.06613014
61 -0.016191375 0.19197704 -0.30868447 -0.3214064 -0.04293412 -0.3924546 0.16206734 -0.063638106 0.07873335 -0.2811181 -0.23867713 0.26583996 0.109000795 0.05379545 -0.036181584 -0.017635344 -0.17957199 0.14851366 0.10470507 0.31160298 -0.2865331 -0.11778251 0.039403744 0.07000929 0.15711007 -0.11302211 -0.14661552 0.1941175 -0.031689543 -0.13095395 -0.041641943 -0.077618636 -0.31123587 0.26935664 0.2956505 0.15388754 -0.016818253 -0.22500128 -0.2860584 0.08832422 -0.19719343 -0.038595986 0.011994711 -0.04060958 -0.11912182 0.13638957 -0.18024217 0.13796107 -0.07312484 0.19520131 0.01910061 -0.22577332 0.17579928 -0.10126636 -0.0112846065 -0.16721453 0.057370488 -0.30462927 -0.11863691 0.308651 -0.035513774 -0.01141422 0.14317827 -0.05862695
79 -0.01691819 0.18730669 -0.3083705 -0.3160581 -0.049289823 -0.38919312 0.15821311 -0.07540662 0.07872584 -0.2671108 -0.23923269 0.25933146 0.10616071 0.061468128 -0.022056963 -0.013040113 -0.16666295 0.1418535 0.08976211 0.3013254 -0.2886794 -0.12043853 0.048777666 0.065561496 0.1559311 -0.11351332 -0.15402785 0.19108257 -0.038089875 -0.12551203 -0.046308715 -0.075342685 -0.30131125 0.26116475 0.3052873 0.15978624 -0.0019339263 -0.22997643 -0.29418558 0.100124314 -0.1977809 -0.04634571 0.0057596895 -0.043243963 -0.11350223 0.14502078 -0.17986435 0.13167535 -0.07795995 0.18811075 0.013714975 -0.21604209 0.1639791 -0.10632002 -0.011408538 -0.16205099 0.06299843 -0.31466478 -0.1196381 0.3089958 -0.044109143 -0.008311153 0.13251717 -0.06497479
92 -0.025296174 0.20131095 -0.32435152 -0.32597494 -0.04396066 -0.38382894 0.15869765 -0.07293867 0.07963209 -0.26501107 -0.23416089 0.27086076 0.10617026 0.06767557 -0.02909624 -0.028222192 -0.17245689 0.1436181 0.100152135 0.30104375 -0.29476494 -0.123835124 0.039756756 0.060135484 0.16045542 -0.11092302 -0.14074071 0.1979866 -0.03805414 -0.12036875 -0.035766352 -0.078128695 -0.31063822 0.26534516 0.30077535 0.15449822 -0.012170571 -0.2238572 -0.28009716 0.09178184 -0.20403425 -0.03805803 0.01765967 -0.052540917 -0.1224174 0.12957789 -0.17849277 0.14021534 -0.07483709 0.19462368 0.018823335 -0.22118862 0.18152538 -0.096066944 -0.003664355 -0.16668609 0.058857065 -0.3036052 -0.1140748 0.30489373 -0.047384 -0.00800751 0.13550518 -0.07214678
95 -0.009965595 0.19481386 -0.3245548 -0.3085276 -0.03936653 -0.38432848 0.1621598 -0.063221924 0.083828814 -0.26279894 -0.23306063 0.25747043 0.10997586 0.06152133 -0.026683658 -0.021410756 -0.16925012 0.1510898 0.10028998 0.3039693 -0.28850538 -0.1339028 0.049960986 0.07533857 0.15108627 -0.12091685 -0.15062587 0.18741152 -0.021570144 -0.1318678 -0.049797885 -0.07049166 -0.299847 0.2630061 0.30047515 0.14889795 -0.011922711 -0.23645262 -0.28259906 0.09941167 -0.19557676 -0.04165863 0.010986084 -0.046980724 -0.11585261 0.14038204 -0.17287469 0.13729872 -0.073164314 0.18940715 0.022145843 -0.21773282 0.17945309 -0.09739343 -0.013376377 -0.16965707 0.0493476 -0.30215687 -0.12252431 0.30508593 -0.044857275 -0.0013664641 0.13749169 -0.070912145
22 -0.017155461 0.18999825 -0.3092284 -0.30071232 -0.0427144 -0.38242173 0.16418822 -0.07112734 0.09003873 -0.27876067 -0.24927503 0.270865 0.114800155 0.062588915 -0.036950666 -0.020415664 -0.18002702 0.14611083 0.10065259 0.30803284 -0.29640114 -0.12814839 0.050505467 0.06262547 0.16428038 -0.10917841 -0.14104916 0.19338568 -0.03647331 -0.12909862 -0.04574426 -0.06549377 -0.3138299 0.26813698 0.29299968 0.1497154 -0.009553292 -0.23621854 -0.28428373 0.09556151 -0.20603025 -0.050511267 0.013595789 -0.055007413 -0.11483854 0.13047315 -0.178012 0.13120851 -0.082247816 0.18350676 0.020536229 -0.21990475 0.16536346 -0.09030663 -0.018702772 -0.17134583 0.064132944 -0.31541935 -0.11914035 0.30185005 -0.031556748 -0.003761379 0.13500947 -0.07531461
17 -0.022848552 0.19984369 -0.30855983 -0.31153017 -0.04041891 -0.38899943 0.16784957 -0.07988829 0.09017743 -0.28266388 -0.24905004 0.26624677 0.10958653 0.06880764 -0.02553626 -0.031387452 -0.1751448 0.14667077 0.10654454 0.30328542 -0.2906693 -0.12610742 0.038620178 0.066179365 0.15783459 -0.1112458 -0.15258193 0.20625624 -0.034287713 -0.13207583 -0.04558014 -0.082438305 -0.31446064 0.27006194 0.30011505 0.15309858 -0.006220175 -0.2321163 -0.27846193 0.09390933 -0.20204924 -0.044020694 0.022742944 -0.05284516 -0.11486547 0.12677658 -0.1766105 0.13079576 -0.08317288 0.19178611 0.018156014 -0.22199397 0.17978746 -0.09711679 -0.010616783 -0.16075622 0.052685037 -0.31078494 -0.10714022 0.30245283 -0.035063665 -0.0055995486 0.14715289 -0.063419715
26 -0.011001645 0.1842249 -0.31305054 -0.2999027 -0.040347755 -0.38442516 0.16459288 -0.065335676 0.08671488 -0.27596304 -0.24184628 0.26684898 0.10830696 0.05645504 -0.038271356 -0.028649958 -0.18135968 0.14879216 0.09519602 0.31266564 -0.29020056 -0.13016962 0.057240713 0.07256151 0.14939255 -0.115739584 -0.14348038 0.18579507 -0.031107381 -0.13355877 -0.030085556 -0.08199419 -0.3049994 0.2619407 0.3006374 0.1519321 -0.016674425 -0.22698891 -0.27822974 0.08610342 -0.19207601 -0.047443308 0.006114377 -0.048768803 -0.11242498 0.14042914 -0.17327636 0.13411145 -0.07342798 0.1924024 0.021956986 -0.2203097 0.16705923 -0.1014075 -0.012961677 -0.15494165 0.071469866 -0.30370045 -0.12717012 0.29630002 -0.045986097 -0.010456877 0.13216467 -0.06486726
37 -0.008563514 0.19336975 -0.30600604 -0.3161037 -0.032173116 -0.38101223 0.15890539 -0.07386822 0.07855521 -0.27922434 -0.23986202 0.25183615 0.10224857 0.054796364 -0.023749687 -0.033315625 -0.184556 0.14996009 0.10069907 0.3006085 -0.29519024 -0.12623751 0.04671097 0.070990056 0.1587413 -0.122100964 -0.1372291 0.20227951 -0.03488202 -0.121744655 -0.04078496 -0.08016466 -0.3055754 0.2630465 0.2996482 0.15274668 -0.009786488 -0.21937363 -0.27453384 0.09715533 -0.20905928 -0.035156347 0.01422735 -0.049783025 -0.121423386 0.13959005 -0.183297 0.1398684 -0.07899808 0.18878737 0.01781953 -0.21782109 0.17871137 -0.09120869 -0.001963733 -0.16558667 0.053977355 -0.31192216 -0.121926114 0.29823723 -0.04636598 -0.0034054844 0.14328566 -0.071996756
67 -0.019789947 0.19988656 -0.31640786 -0.31828085 -0.045228016 -0.3883976 0.16417474 -0.060843002 0.08003754 -0.27760774 -0.24602579 0.26544118 0.10905935 0.069458775 -0.035535924 -0.03266362 -0.17764999 0.14066969 0.1003733 0.30907974 -0.29220954 -0.1372103 0.048128646 0.0745823 0.16419502 -0.123089194 -0.13661274 0.1922053 -0.03927705 -0.13028264 -0.050174925 -0.071563 -0.31039655 0.2663678 0.29326645 0.15475492 -0.010099541 -0.23011374 -0.28609827 0.08737467 -0.21221483 -0.037761994 0.020543054 -0.05050132 -0.111562654 0.12746319 -0.18443474 0.14536864 -0.076788515 0.1890235 0.021265103 -0.2180184 0.16946334 -0.09704349 0.0028047422 -0.1744559 0.049562454 -0.3103138 -0.116970256 0.30874026 -0.043913927 -0.009376769 0.1350141 -0.073233336
34 -0.017911414 0.19836392 -0.31010643 -0.30482727 -0.045368787 -0.39068657 0.14879942 -0.07309538 0.08231395 -0.26441187 -0.23543909 0.25438002 0.113229044 0.07320225 -0.024769582 -0.026514499 -0.1654762 0.13779783 0.09966758 0.30544215 -0.2987187 -0.13373093 0.04115426 0.07530595 0.15436044 -0.12696119 -0.15328531 0.20226122 -0.025656909 -0.12924302 -0.04950883 -0.07403872 -0.29484582 0.26083654 0.28977695 0.15649848 -0.005839996 -0.2343706 -0.2798164 0.087971605 -0.20281483 -0.041409217 0.008372035 -0.040459514 -0.120305784 0.13970344 -0.18019539 0.12873861 -0.07846594 0.19427964 0.03130718 -0.20841186 0.17060491 -0.09656182 -0.001639132 -0.1717348 0.05352217 -0.29877907 -0.12260804 0.3066013 -0.048857857 -0.0027384378 0.14265117 -0.065414466
19 -0.021919595 0.18680349 -0.31215194 -0.31269863 -0.03174635 -0.38580918 0.16817455 -0.062110472 0.077178486 -0.2775022 -0.242368 0.27444428 0.1052614 0.06495096 -0.036237665 -0.015557154 -0.18336155 0.14937815 0.08906673 0.31168464 -0.28954732 -0.12719946 0.038708873 0.06282786 0.15826091 -0.11776412 -0.15279393 0.20073998 -0.027093654 -0.12154126 -0.052104052 -0.07903496 -0.3073864 0.26527795 0.3106153 0.15306266 6.445085e-05 -0.2266511 -0.28410745 0.0877843 -0.20160735 -0.041155927 0.025057718 -0.03585456 -0.1231949 0.1403071 -0.17480755 0.13291249 -0.08097925 0.19267973 0.011761083 -0.21938595 0.1681707 -0.097973846 -0.006344115 -0.17241235 0.061967764 -0.29985377 -0.11403706 0.31106812 -0.04424124 -0.006530172 0.14308871 -0.07041603
80 -0.00646078 0.19400233 -0.31011218 -0.30723974 -0.032347456 -0.38302955 0.16513447 -0.06710238 0.08045932 -0.26690838 -0.24088573 0.26690683 0.101479076 0.06385063 -0.028755864 -0.027620642 -0.18444245 0.15407448 0.09509063 0.3129292 -0.29047558 -0.12538867 0.052602198 0.0675598 0.1618359 -0.122267775 -0.15090609 0.19639996 -0.03172367 -0.12990876 -0.03699286 -0.08336535 -0.31489107 0.26600504 0.29676837 0.15476574 -0.01145595 -0.23792969 -0.2834011 0.090795174 -0.20900103 -0.05352037 0.016584583 -0.0465645 -0.11277343 0.14099774 -0.16998212 0.12512572 -0.07737847 0.18653525 0.026667966 -0.22460495 0.17872266 -0.08612355 -0.013022288 -0.1666946 0.067238174 -0.29943353 -0.12524112 0.3090477 -0.03674384 -0.013438167 0.14500728 -0.06408601
91 -0.010392746 0.18793957 -0.31648755 -0.30382788 -0.032620165 -0.39205933 0.15968958 -0.06955374 0.078224875 -0.26586565 -0.24855587 0.26440752 0.11797742 0.06511356 -0.034436338 -0.024024315 -0.1728145 0.15193161 0.09599953 0.30343962 -0.29437938 -0.12382383 0.040121734 0.06325372 0.14861542 -0.12950835 -0.1448286 0.19797125 -0.025632063 -0.12958331 -0.048852373 -0.07661022 -0.30185074 0.2655168 0.30614933 0.15123467 -0.0037919874 -0.23860255 -0.2735302 0.10248722 -0.2080811 -0.03882321 0.0207059 -0.04945679 -0.11677397 0.1407399 -0.17823903 0.13402791 -0.085382126 0.19204657 0.022180766 -0.20818561 0.16435722 -0.09169832 -0.005024894 -0.16026382 0.06755227 -0.30999377 -0.12793343 0.3033026 -0.03305637 -0.015193426 0.14469881 -0.06586522
65 -0.014191455 0.2001501 -0.31747085 -0.3199603 -0.03860186 -0.39206937 0.15605856 -0.06409625 0.08162375 -0.27539143 -0.2368596 0.2589597 0.11584594 0.055579305 -0.03369018 -0.019912103 -0.17905019 0.14617999 0.10226336 0.30520278 -0.28256118 -0.11669847 0.050398923 0.059311364 0.15283932 -0.1280584 -0.13919243 0.19239807 -0.030812215 -0.13446392 -0.051248852 -0.07728681 -0.3049244 0.25515544 0.2921892 0.15360928 -0.010404228 -0.23734348 -0.28329298 0.095549 -0.19513088 -0.049110677 0.012776501 -0.052724417 -0.12442381 0.13801852 -0.18226457 0.12997843 -0.07200697 0.1925075 0.029593602 -0.20741571 0.16788775 -0.09222182 -0.018835112 -0.1620256 0.052082088 -0.30601212 -0.12659591 0.29856363 -0.037926696 -0.0033013667 0.13581415 -0.062105317
21 -0.03125651 0.19260234 -0.316812 -0.32091844 -0.0478183 -0.3858623 0.15710308 -0.07060629 0.08736832 -0.26644185 -0.23583037 0.2728863 0.11481561 0.06459559 -0.035532244 -0.027629647 -0.1843005 0.14987372 0.10438366 0.3129988 -0.2858374 -0.13279092 0.05656352 0.0631436 0.16613816 -0.118307 -0.13782658 0.1982155 -0.032622296 -0.12986594 -0.046326008 -0.07418234 -0.308865 0.26281902 0.29087242 0.1581965 -0.009586163 -0.22944705 -0.28186217 0.09881988 -0.20843032 -0.04256068 0.01985935 -0.045632806 -0.108892426 0.12404475 -0.1793119 0.14242893 -0.0847962 0.19462353 0.026680475 -0.21689993 0.17610377 -0.10109322 -0.003614231 -0.17241102 0.051724993 -0.30475122 -0.11182605 0.310337 -0.037696935 -0.00250443 0.13615035 -0.06887442
48 -0.02071357 0.18901376 -0.31982738 -0.3192591 -0.046269614 -0.37491673 0.1582781 -0.06951331 0.09092783 -0.2604606 -0.23683544 0.26516503 0.10394262 0.0657777 -0.029248325 -0.022126228 -0.18236074 0.15204418 0.093967415 0.30606318 -0.2874742 -0.1300304 0.05228498 0.071123526 0.16564254 -0.11554482 -0.14277469 0.20256054 -0.040590197 -0.13062397 -0.047277078 -0.07227238 -0.30529806 0.25825605 0.29857746 0.15776093 0.0027903554 -0.23223875 -0.28432158 0.10089226 -0.20279843 -0.046046715 0.02495488 -0.039979383 -0.12132135 0.13618377 -0.18103735 0.12697633 -0.08821737 0.19509748 0.023733307 -0.22289331 0.17676027 -0.094152056 -0.00074600335 -0.15696767 0.059696604 -0.29880932 -0.113687254 0.30355355 -0.043759964 -0.012633234 0.1300344 -0.058246244
81 -0.021958929 0.19049762 -0.31922495 -0.30518517 -0.039058316 -0.38062945 0.15589797 -0.064430304 0.08591636 -0.27716225 -0.23654434 0.26425937 0.11107439 0.06852566 -0.02340094 -0.014741717 -0.18426895 0.1529405 0.09560854 0.30377877 -0.28134447 -0.12256454 0.05601075 0.07180591 0.16630186 -0.121460766 -0.14392841 0.20630562 -0.033593193 -0.1242574 -0.04076056 -0.070590444 -0.31057772 0.27183416 0.29607773 0.14692113 -0.01435427 -0.2366615 -0.2845768 0.09897122 -0.20992692 -0.05192385 0.0072796308 -0.04614579 -0.11526061 0.1375865 -0.17382793 0.12485509 -0.07364923 0.19665407 0.029485263 -0.22115059 0.17083283 -0.09081183 -0.0048956587 -0.16696157 0.065492906 -0.31481674 -0.11274089 0.29769534 -0.038582698 -0.009394244 0.13156098 -0.07426089
15 -0.010846331 0.18908642 -0.3205709 -0.31584185 -0.03218368 -0.3935841 0.15434858 -0.07142952 0.09254539 -0.27455452 -0.2424338 0.26811087 0.114888474 0.059250727 -0.024676332 -0.022422591 -0.18043591 0.14323032 0.099133424 0.30366546 -0.2839747 -0.12313854 0.045214713 0.06933388 0.15100054 -0.12116642 -0.13818546 0.2048327 -0.03504407 -0.13376898 -0.03717337 -0.075729966 -0.30566603 0.2634452 0.30578572 0.15000074 -0.0045130067 -0.22720446 -0.2732108 0.106035344 -0.20294812 -0.039003555 0.011424151 -0.05659821 -0.119732596 0.13252725 -0.17220324 0.13212965 -0.09019796 0.19649945 0.021215709 -0.22177966 0.17226835 -0.094321884 -0.013673703 -0.16522017 0.05635737 -0.30783826 -0.11958469 0.31279936 -0.04284541 -0.0056931917 0.13662373 -0.061614715
51 -0.018366601 0.1996583 -0.3086436 -0.3067496 -0.033425577 -0.38850033 0.15203635 -0.06635195 0.07548005 -0.27088106 -0.24957049 0.26500294 0.10871337 0.060846146 -0.016522797 -0.018721677 -0.17231143 0.15397915 0.10049377 0.30949202 -0.29135635 -0.12052246 0.038756795 0.071130075 0.15755582 -0.12507147 -0.14569786 0.18869175 -0.02833702 -0.13478073 -0.037613314 -0.06819504 -0.2981902 0.26545104 0.29445875 0.15406306 -0.008642459 -0.22888559 -0.27501848 0.08282861 -0.19289944 -0.046305783 0.016402695 -0.034177314 -0.1100631 0.13718674 -0.18000218 0.13748722 -0.07958305 0.19178908 0.022921432 -0.20689404 0.16860582 -0.101004034 -0.0030940848 -0.16794634 0.049080957 -0.30947068 -0.120561354 0.30410722 -0.033988908 -0.0007653472 0.13571273 -0.056086123
59 -0.021746485 0.18630667 -0.31196398 -0.31681833 -0.039202888 -0.39650136 0.16622747 -0.059450813 0.09570917 -0.27155024 -0.25232533 0.27312326 0.10701185 0.05989406 -0.03036443 -0.022659322 -0.18203087 0.14555033 0.10303415 0.302281 -0.29309478 -0.1235689 0.048380423 0.07570595 0.15867107 -0.11334658 -0.13950838 0.19289352 -0.035037782 -0.12784016 -0.03667088 -0.082864605 -0.30969843 0.2677852 0.2925797 0.15518554 -0.00047750698 -0.22250979 -0.2774415 0.100398995 -0.20601119 -0.042329907 0.017549407 -0.046610698 -0.112636946 0.13255243 -0.17461433 0.12886673 -0.08721953 0.18273138 0.014545659 -0.20954455 0.17367005 -0.0959834 -0.006810869 -0.15855294 0.05779674 -0.3063498 -0.12233132 0.30167708 -0.03994585 -0.009509265 0.14287518 -0.07247055
72 -0.013048694 0.19688345 -0.31857508 -0.31607983 -0.039370302 -0.3715602 0.16290534 -0.06472727 0.08240197 -0.27069044 -0.25069234 0.27408853 0.10598362 0.063562155 -0.030548308 -0.023637636 -0.18003803 0.14375088 0.08772926 0.29892272 -0.28798005 -0.13639228 0.040168393 0.0754554 0.15327829 -0.11869022 -0.14424178 0.1912133 -0.03628597 -0.12800895 -0.03664031 -0.07423626 -0.30463654 0.2679782 0.3000399 0.14329766 -0.007270373 -0.22542998 -0.2786968 0.09056095 -0.20099562 -0.047085654 0.02442798 -0.04620769 -0.10679348 0.13875669 -0.17612614 0.12513562 -0.085678995 0.18625952 0.02021504 -0.20973173 0.16843858 -0.09565433 -0.006660129 -0.16948007 0.060736686 -0.30961934 -0.12447518 0.30698726 -0.0299965 -0.016303308 0.14360616 -0.07006305
1 -0.019820923 0.19575147 -0.32261 -0.32488203 -0.037128024 -0.3832031 0.1528812 -0.078477204 0.087006025 -0.264876 -0.23892672 0.27570844 0.11469937 0.061824262 -0.03355674 -0.030340115 -0.17430426 0.16016796 0.09478246 0.3103606 -0.28207204 -0.12495267 0.042232156 0.056785356 0.16472502 -0.11847343 -0.14536317 0.18989116 -0.032735575 -0.12171062 -0.035546284 -0.078727074 -0.3115247 0.2629607 0.2952601 0.1477482 -0.0066187344 -0.22793092 -0.28338343 0.09445274 -0.19481656 -0.05112076 0.011659527 -0.043435242 -0.112288676 0.13255346 -0.17176126 0.12118314 -0.08240946 0.17893003 0.02214551 -0.22260536 0.1715928 -0.089856505 -0.0019426647 -0.16698697 0.07335547 -0.3092732 -0.113056935 0.29231307 -0.04564705 -0.00064898405 0.14160858 -0.075287856
32 -0.010599727 0.19708613 -0.32084772 -0.31408852 -0.03838665 -0.37794495 0.15297437 -0.07290132 0.08880387 -0.26133913 -0.240903 0.25357285 0.11076269 0.07084003 -0.023920633 -0.026496742 -0.18255399 0.14016351 0.107682 0.29793942 -0.28286538 -0.12097664 0.039527312 0.060920645 0.16167748 -0.11639109 -0.13778435 0.19160932 -0.028334498 -0.12971993 -0.037949875 -0.08571011 -0.30079567 0.24890766 0.28938454 0.15993424 -0.006912706 -0.22930829 -0.27903768 0.09283962 -0.20658205 -0.03471744 0.02416656 -0.05322284 -0.12385708 0.13271545 -0.1856032 0.12874456 -0.09115253 0.19469477 0.023677533 -0.20702559 0.1829667 -0.09946513 -0.017358541 -0.17067015 0.050851133 -0.30717403 -0.11795693 0.30470857 -0.04858662 -0.008650639 0.14432785 -0.062080923
82 -0.02018491 0.18866502 -0.32193443 -0.31882066 -0.032020036 -0.38611022 0.15807702 -0.06158664 0.0753993 -0.26961344 -0.23900142 0.26472044 0.1146272 0.058658805 -0.03748993 -0.020077655 -0.17103447 0.14529303 0.09099213 0.3087268 -0.27802283 -0.12590237 0.038845293 0.059032835 0.15270625 -0.11754544 -0.13565728 0.18194976 -0.02795671 -0.12608097 -0.04303082 -0.082073696 -0.30713785 0.26091278 0.3021887 0.15053295 -0.00592714 -0.22482343 -0.2799587 0.0893256 -0.19901031 -0.048435602 0.009598793 -0.04225882 -0.11076367 0.12483115 -0.17687951 0.12520652 -0.074865244 0.18225466 0.023082227 -0.21335319 0.18187296 -0.090483904 -0.016670281 -0.16485383 0.060870495 -0.30971986 -0.12053132 0.30527213 -0.040626578 -0.015970863 0.1372706 -0.069751844
30 -0.021820065 0.19102001 -0.31262758 -0.30884188 -0.034469537 -0.39257538 0.1539503 -0.064870924 0.090121515 -0.2782797 -0.2370034 0.26341715 0.10988575 0.065121315 -0.035011217 -0.027130237 -0.17192328 0.14907433 0.099821374 0.30188897 -0.28889298 -0.12078728 0.046194036 0.06885709 0.15452366 -0.12270998 -0.15134835 0.19606015 -0.035806682 -0.1344278 -0.03172202 -0.07421353 -0.29977307 0.26870987 0.30418056 0.14276223 -0.005328353 -0.23928715 -0.2847676 0.10393346 -0.20285133 -0.039280966 0.02004194 -0.050159708 -0.11709014 0.13385172 -0.17042561 0.13891785 -0.08235539 0.19486567 0.018887214 -0.21428646 0.17684522 -0.09468307 -0.0034180898 -0.15673567 0.061127804 -0.30540872 -0.11083476 0.3033933 -0.030725325 -0.0049750977 0.14272164 -0.067002006
84 -0.016668854 0.20405471 -0.31551042 -0.3227922 -0.043689262 -0.3771811 0.15972959 -0.06854019 0.090598464 -0.26773158 -0.24691 0.2611202 0.11189971 0.07482061 -0.032420594 -0.026969189 -0.1777323 0.15458788 0.103197314 0.31602272 -0.2920004 -0.12066273 0.049969047 0.056211025 0.16016504 -0.113394335 -0.13996391 0.19825679 -0.030869031 -0.13151881 -0.042380314 -0.07858689 -0.30447108 0.26228252 0.29453045 0.15411402 -0.016280303 -0.2378195 -0.2718949 0.08966683 -0.19856067 -0.050892327 0.012709739 -0.040050726 -0.11406348 0.13675104 -0.18033022 0.12469974 -0.08315998 0.18502204 0.024358345 -0.21545614 0.17395318 -0.09531821 -0.0067341095 -0.16370466 0.0545351 -0.3083558 -0.1150447 0.30215782 -0.03974932 0.00012832443 0.14084838 -0.058898956
25 -0.02646512 0.19311124 -0.31514 -0.30279535 -0.035770975 -0.3772224 0.16931342 -0.06475034 0.0946409 -0.27500105 -0.24339359 0.26135358 0.10477836 0.06952544 -0.024423402 -0.02356288 -0.17962788 0.14198671 0.10105724 0.30203295 -0.28753978 -0.11570386 0.039000977 0.05560143 0.1594885 -0.10890004 -0.15262474 0.19788073 -0.03470159 -0.13363369 -0.045968812 -0.0711763 -0.31039685 0.25856748 0.2959853 0.14241302 -0.014050496 -0.23370695 -0.28318438 0.0893439 -0.1993705 -0.047597606 0.0136994915 -0.04163972 -0.102754824 0.14211346 -0.16935126 0.12458493 -0.078339495 0.18566017 0.028020253 -0.21403657 0.17017838 -0.09342162 -0.016549962 -0.16758579 0.06681392 -0.29983643 -0.12376203 0.30111703 -0.031112012 -0.0034463783 0.12673813 -0.06902741
27 -0.029653238 0.20436949 -0.31610307 -0.31219953 -0.044795 -0.38817015 0.17233814 -0.06766859 0.081643425 -0.27124152 -0.24273023 0.2721301 0.108245715 0.0663023 -0.03760664 -0.020025184 -0.18753256 0.15713727 0.089826 0.30135313 -0.29602906 -0.13871633 0.038802683 0.0818352 0.16657093 -0.117940284 -0.1463322 0.19175224 -0.036969606 -0.12860633 -0.04126485 -0.068986796 -0.31051686 0.25871262 0.30623335 0.15747656 0.001468656 -0.22930314 -0.27066466 0.09393701 -0.20157292 -0.042310476 0.013057453 -0.052053485 -0.11784374 0.1390833 -0.18102896 0.13629346 -0.090499595 0.18449986 0.022624997 -0.21538505 0.17556536 -0.09624782 -0.007838293 -0.1658604 0.05488683 -0.3025973 -0.11701044 0.30586782 -0.03813604 -0.012931968 0.13775091 -0.0654537
8 -0.02251728 0.18736862 -0.30079684 -0.3068465 -0.04094299 -0.39054078 0.1537773 -0.07127251 0.09531572 -0.27883825 -0.24705291 0.27322748 0.10139864 0.062792264 -0.023751583 -0.03278221 -0.17558616 0.14035213 0.10255956 0.30939588 -0.29785165 -0.13344847 0.03972316 0.07232225 0.16630684 -0.12901326 -0.14464986 0.20162338 -0.023431432 -0.13744898 -0.04598384 -0.08298563 -0.30886418 0.2635014 0.2849902 0.15551862 -0.0035451876 -0.23789907 -0.2878317 0.09667555 -0.202458 -0.037070855 0.018656364 -0.046200167 -0.12402016 0.13550976 -0.17947732 0.13087167 -0.0803488 0.19314134 0.023100762 -0.21522938 0.17800134 -0.09912705 -0.006637595 -0.1657212 0.051483 -0.2991186 -0.10918165 0.30793938 -0.032751735 -0.0062913722 0.1418277 -0.06524922
33 -0.02266891 0.1891657 -0.3076958 -0.30601415 -0.032208003 -0.3854524 0.16344626 -0.0714804 0.08823262 -0.27477685 -0.23750351 0.25808975 0.10382431 0.06948717 -0.02936421 -0.031422798 -0.17302638 0.14300425 0.104171194 0.30390653 -0.29340354 -0.11910278 0.055175494 0.058199886 0.16011386 -0.10397288 -0.14391291 0.19901256 -0.035293914 -0.13404198 -0.052322358 -0.07379343 -0.30472043 0.2663069 0.29850647 0.15676807 -0.007471476 -0.24495366 -0.2870592 0.08578887 -0.20490193 -0.04990777 0.01644635 -0.036515594 -0.113754414 0.13691185 -0.17660049 0.1319615 -0.085590854 0.19376571 0.025043396 -0.22294453 0.17782402 -0.09191125 -0.013116536 -0.17078272 0.067834966 -0.3085545 -0.11476408 0.3094698 -0.046141524 -0.005180117 0.14340924 -0.05885003
62 -0.011840383 0.19799495 -0.32355353 -0.31776422 -0.04064639 -0.3735657 0.16800632 -0.05310747 0.08804269 -0.26488653 -0.23628101 0.27261344 0.09968627 0.061736338 -0.033530988 -0.028491907 -0.17428498 0.14616407 0.09735884 0.3079091 -0.28330657 -0.13027303 0.03791117 0.06394637 0.16022795 -0.12329496 -0.14901105 0.19880262 -0.026068214 -0.1222781 -0.049869444 -0.07425785 -0.31102768 0.2595951 0.30271295 0.14175004 -0.0013573983 -0.23473273 -0.26544005 0.0899191 -0.21035764 -0.047566835 0.023243321 -0.054819163 -0.11387175 0.1358469 -0.16650218 0.12626876 -0.082068205 0.19227798 0.014764532 -0.22133435 0.16888899 -0.093755424 -0.004392471 -0.16372328 0.06686162 -0.2916982 -0.12451948 0.30992636 -0.04141039 -0.0052139224 0.1405584 -0.069368064
98 -0.022617243 0.20516372 -0.32866848 -0.32587615 -0.03322078 -0.3840099 0.16634451 -0.068885215 0.08249667 -0.28247893 -0.24091838 0.27138248 0.11796482 0.064662 -0.020479953 -0.026516022 -0.17950036 0.15229127 0.095862366 0.31443024 -0.28186044 -0.123871475 0.037283555 0.06829953 0.16415383 -0.12219496 -0.14470841 0.1903752 -0.034287393 -0.13399991 -0.045412313 -0.06935505 -0.30869243 0.26107028 0.3009038 0.14296754 -0.015234267 -0.2217435 -0.27379444 0.085369594 -0.20095494 -0.048641965 0.023400677 -0.044484094 -0.11165783 0.11742528 -0.17453465 0.14335798 -0.072294064 0.18743262 0.027320616 -0.21862142 0.16799097 -0.09361433 -0.0038178058 -0.17182595 0.05046062 -0.30668092 -0.11026669 0.30759522 -0.035275105 -0.0030478677 0.13712174 -0.0641191
73 -0.018245783 0.19442196 -0.31399018 -0.30463186 -0.033396054 -0.38337165 0.15400735 -0.07563014 0.08492504 -0.27949244 -0.24118617 0.25770596 0.10135426 0.07023208 -0.026394652 -0.025016213 -0.17178567 0.13941585 0.09265922 0.31244457 -0.29066104 -0.11999363 0.05903006 0.06817876 0.15412545 -0.11926288 -0.1504049 0.20470543 -0.038996037 -0.13042673 -0.03701444 -0.07646019 -0.30008417 0.25913098 0.29093176 0.14706802 -0.0026868682 -0.23479773 -0.28435868 0.08730918 -0.20626724 -0.05219855 0.021936527 -0.041205633 -0.119274296 0.13634302 -0.18558122 0.14017774 -0.07257189 0.19631875 0.03052939 -0.21319407 0.17178097 -0.10233163 -0.0059139053 -0.15707435 0.05096088 -0.31362534 -0.1212775 0.30430982 -0.032030396 -0.0022704948 0.14032811 -0.066816516
76 -0.011189081 0.19998737 -0.31838498 -0.3097534 -0.04228992 -0.37635273 0.16288519 -0.06983787 0.078466535 -0.2742558 -0.23672555 0.26888037 0.10130694 0.057764627 -0.016692035 -0.02966612 -0.1791039 0.13819017 0.09070758 0.30690464 -0.2880449 -0.1283917 0.043970425 0.05779236 0.16461965 -0.11918676 -0.14766774 0.20124443 -0.03483503 -0.12895392 -0.052626982 -0.06699714 -0.3018965 0.25640833 0.2894427 0.14375846 -0.002690836 -0.2320636 -0.26342496 0.09428767 -0.20660791 -0.036663815 0.028506722 -0.035158746 -0.12505907 0.12388208 -0.16853303 0.12308703 -0.08514583 0.19873872 0.016847407 -0.20757613 0.17738019 -0.10104881 -0.0055765957 -0.1643629 0.0518116 -0.2990292 -0.11670302 0.3030017 -0.031131955 -0.001630625 0.13641882 -0.06447196
96 -0.011394348 0.20115504 -0.3286759 -0.32276374 -0.04728825 -0.39199743 0.16596344 -0.07657106 0.09526655 -0.26250035 -0.24041307 0.27525577 0.10544203 0.05823112 -0.027693957 -0.030495472 -0.17231898 0.14558801 0.088797934 0.30598918 -0.28344965 -0.13047576 0.045420352 0.06049721 0.16530429 -0.111390546 -0.14532432 0.20568588 -0.04088917 -0.123049155 -0.03863123 -0.08340287 -0.30538532 0.2719556 0.28950277 0.14966556 -0.009898247 -0.23292539 -0.2811018 0.101655126 -0.20237722 -0.03609075 0.0150144445 -0.04026492 -0.11494799 0.13507491 -0.18081024 0.12402518 -0.088569105 0.2023331 0.027541427 -0.22373508 0.17919838 -0.086703904 -0.006219478 -0.17485073 0.06537073 -0.3139254 -0.11702935 0.30742043 -0.04447001 -0.007647285 0.13699797 -0.059319526
13 -0.013693367 0.19272496 -0.3252994 -0.32590568 -0.043714587 -0.3930566 0.17088477 -0.06778476 0.08076035 -0.27699536 -0.25360113 0.26981822 0.10741778 0.074719965 -0.024637645 -0.0259176 -0.18768169 0.15432711 0.10551164 0.31872317 -0.2843137 -0.13138458 0.037365403 0.06592838 0.17191663 -0.11212242 -0.1557485 0.20267539 -0.038100053 -0.12684204 -0.037281897 -0.072550535 -0.3065267 0.26814902 0.2875317 0.16094849 0.0016811112 -0.2370256 -0.27612975 0.08807224 -0.21089165 -0.036745865 0.012613855 -0.036202464 -0.10780998 0.13596436 -0.17952463 0.12575878 -0.07957415 0.19714089 0.029888375 -0.21985967 0.17368293 -0.09691578 0.001459435 -0.1619909 0.05963354 -0.29871836 -0.11720956 0.3103272 -0.043704625 -0.0042608515 0.12809087 -0.058251217
6 -0.020263506 0.19063309 -0.31199563 -0.3062664 -0.03793318 -0.38693362 0.15666349 -0.07194956 0.087494075 -0.27402923 -0.23846172 0.26203167 0.10368904 0.07106348 -0.026090855 -0.030049574 -0.17845282 0.1512413 0.08968361 0.30267006 -0.30123252 -0.1268824 0.04223662 0.061338212 0.15851025 -0.11409998 -0.15213913 0.19857639 -0.032237757 -0.12598622 -0.047770023 -0.08077604 -0.3149359 0.27094764 0.30138648 0.15154941 -0.0013000015 -0.23984201 -0.2873995 0.090098865 -0.19937299 -0.043073356 0.012934704 -0.043213446 -0.12412062 0.14064722 -0.18206725 0.12700775 -0.084657244 0.19004682 0.025346024 -0.21434806 0.17978998 -0.08950869 -0.0010491303 -0.1738001 0.055852663 -0.30851227 -0.12675327 0.29648972 -0.042381268 -0.0063289288 0.14805011 -0.07189314
23 -0.007985161 0.20406911 -0.3297053 -0.3117282 -0.044824347 -0.37746203 0.15463175 -0.077952564 0.081063494 -0.2716843 -0.2446715 0.27134472 0.11151962 0.06364051 -0.03300338 -0.014257928 -0.1790487 0.1568509 0.104190506 0.30346954 -0.29065883 -0.117021464 0.035339076 0.064228974 0.1652971 -0.12013127 -0.1562091 0.20736404 -0.03668579 -0.12216658 -0.047250275 -0.06750712 -0.29804626 0.26479512 0.29719573 0.15142572 -0.0048488225 -0.23334624 -0.28093132 0.103762425 -0.19445626 -0.054563828 0.009856335 -0.04906034 -0.11039086 0.135027 -0.17658205 0.13092071 -0.08938168 0.19266114 0.028194934 -0.21704195 0.17445256 -0.100057885 -0.009626157 -0.16301374 0.06325941 -0.30726108 -0.12416913 0.30917063 -0.044433754 -0.00621494 0.14159048 -0.07249561
5 -0.010426504 0.18216233 -0.31056038 -0.30179694 -0.03508016 -0.38184044 0.16101521 -0.06908093 0.09213449 -0.26597646 -0.2452671 0.27419254 0.11094043 0.068996415 -0.033566967 -0.020728467 -0.17711304 0.14968307 0.0972307 0.31121397 -0.28032705 -0.13104808 0.036680184 0.07210755 0.15434782 -0.12608242 -0.15201293 0.1985966 -0.022324856 -0.13254492 -0.05005033 -0.07099021 -0.29992834 0.25535482 0.29124638 0.15118344 -0.004573166 -0.23732962 -0.27877948 0.093804345 -0.20152009 -0.042173877 0.019578783 -0.046871893 -0.10659181 0.13116643 -0.17567763 0.13538861 -0.07719511 0.1946822 0.013170873 -0.22278695 0.17454347 -0.09561063 -0.010429331 -0.1597472 0.06224864 -0.30875832 -0.10995253 0.3075856 -0.03591053 -0.0037392601 0.14583242 -0.062317155
24 -0.01182225 0.18438827 -0.32169896 -0.32172757 -0.028765747 -0.37761903 0.1566741 -0.06456906 0.078849055 -0.2668471 -0.23439403 0.25967228 0.1119503 0.056491148 -0.02716964 -0.020570183 -0.16771172 0.14960304 0.1013269 0.30032924 -0.28288707 -0.12681897 0.048499536 0.072579436 0.15730989 -0.12552722 -0.13916372 0.19837587 -0.028282 -0.13735877 -0.039442167 -0.07362453 -0.30628043 0.26630133 0.2992066 0.15273547 -0.016659904 -0.2362878 -0.27390063 0.092458785 -0.20157224 -0.035781894 0.014986492 -0.04651808 -0.1223542 0.1393774 -0.1689419 0.13761508 -0.08343501 0.19125393 0.028420573 -0.2187985 0.1846272 -0.094559096 -0.01193449 -0.17300804 0.059980754 -0.31436923 -0.122589864 0.31058934 -0.036005758 -0.00950816 0.13298044 -0.072332755
7 -0.022246081 0.18660265 -0.31651223 -0.29704154 -0.04996453 -0.37992394 0.16499314 -0.078110166 0.09219692 -0.26741964 -0.24746642 0.268643 0.109255426 0.065953456 -0.024672793 -0.013501881 -0.18105716 0.15381964 0.0846953 0.3064046 -0.28310972 -0.12927885 0.045631982 0.0655478 0.15565866 -0.11342443 -0.1506875 0.19891894 -0.03507461 -0.1302758 -0.049678832 -0.06741315 -0.3168947 0.27551448 0.29671887 0.1548737 -0.013997492 -0.23226023 -0.27792287 0.090520054 -0.20440729 -0.048817903 0.010967263 -0.04175492 -0.1237391 0.13899353 -0.17438526 0.13049218 -0.07796994 0.20027116 0.033491347 -0.22200924 0.1738617 -0.096445136 0.0009916509 -0.16627276 0.062953904 -0.30404755 -0.10823596 0.30845842 -0.040797926 -0.0007806381 0.13261062 -0.07479077
77 -0.026398256 0.1964395 -0.31535372 -0.30296576 -0.044835094 -0.38302097 0.16278902 -0.07429358 0.09136818 -0.2615019 -0.24979505 0.25906333 0.10801557 0.07221289 -0.030385356 -0.016753493 -0.17176247 0.15555829 0.08416047 0.3056217 -0.28205553 -0.13046868 0.05275039 0.06685678 0.15767422 -0.11731164 -0.14398135 0.20175004 -0.023803836 -0.13528858 -0.032935344 -0.06427255 -0.3075699 0.26445407 0.30778778 0.15764362 -0.011234207 -0.23676214 -0.2822759 0.09542177 -0.2015176 -0.056262158 0.009946597 -0.037454005 -0.111038975 0.13481005 -0.17017172 0.12293429 -0.0859744 0.19911574 0.030431388 -0.21963392 0.17206255 -0.085916854 -0.018109672 -0.16257787 0.07190684 -0.3235487 -0.11524965 0.30734956 -0.028981794 -0.010857102 0.14006856 -0.06349958
29 -0.021661334 0.20125817 -0.32811067 -0.3104412 -0.046375975 -0.3874853 0.15810087 -0.0789338 0.082777135 -0.2736187 -0.24641013 0.26703218 0.10174025 0.07515902 -0.02795829 -0.027791683 -0.17570612 0.15125269 0.088472664 0.29679355 -0.29398143 -0.12267127 0.055373587 0.059074346 0.1529529 -0.113805525 -0.15127 0.20272605 -0.03980368 -0.11898062 -0.0367387 -0.06777214 -0.3093803 0.2639741 0.29897866 0.15193297 -0.0051724 -0.23026134 -0.28117153 0.087957226 -0.21243264 -0.050609037 0.019497901 -0.04400955 -0.11377142 0.13093226 -0.18312307 0.1240729 -0.080906436 0.19226767 0.01820294 -0.21225326 0.16137196 -0.09247459 -0.006271389 -0.15896995 0.061710197 -0.31034455 -0.11876251 0.3001346 -0.045608226 0.0054898835 0.13533115 -0.061215613
88 -0.02404477 0.18811968 -0.32126594 -0.31232446 -0.045477044 -0.3984349 0.15548186 -0.06002272 0.074765176 -0.28005904 -0.2398869 0.25744635 0.10117794 0.06967381 -0.033049047 -0.028095553 -0.16984382 0.15607305 0.08757118 0.30807206 -0.29313508 -0.122445166 0.05729109 0.06864483 0.15494584 -0.111654714 -0.1412456 0.19398592 -0.029793099 -0.12655307 -0.04413381 -0.074699834 -0.30670652 0.2587365 0.30617553 0.15390171 -0.011028007 -0.23820528 -0.27328998 0.09174204 -0.20630041 -0.041980665 0.012817404 -0.040094864 -0.11955481 0.12954727 -0.17704384 0.1428745 -0.07103234 0.18960685 0.017472608 -0.21088529 0.17343678 -0.10334609 -0.014120285 -0.1569006 0.055153202 -0.31223208 -0.11623178 0.31078783 -0.03534111 -0.0036453416 0.14763965 -0.06568556
36 -0.017896751 0.19627322 -0.32456145 -0.31519184 -0.041783717 -0.379491 0.15218142 -0.06305079 0.09203328 -0.28256118 -0.24552363 0.25376365 0.111307114 0.07188152 -0.020168733 -0.02562999 -0.18494543 0.14246176 0.10419011 0.3111095 -0.28075734 -0.11006958 0.043627463 0.062442977 0.14851835 -0.11635437 -0.1432873 0.19906367 -0.028379962 -0.12914594 -0.034734793 -0.07218344 -0.3063383 0.25929216 0.29677185 0.15036614 -0.008238771 -0.23267719 -0.27506244 0.09343603 -0.20978782 -0.05236059 0.025255611 -0.04802665 -0.117979914 0.12766661 -0.18553658 0.13344459 -0.09043023 0.19363935 0.0126724485 -0.2185064 0.1750754 -0.09174408 -0.0037338394 -0.16633454 0.057855558 -0.30580762 -0.11862112 0.30226994 -0.045728624 -0.00976109 0.14476155 -0.060628757
0 -0.006912151 0.19772671 -0.3198454 -0.3135787 -0.030683143 -0.37652284 0.1640593 -0.07156806 0.07799277 -0.2795138 -0.24855365 0.2647787 0.106176525 0.06328457 -0.02408893 -0.023176681 -0.17371257 0.14352888 0.09494611 0.3019247 -0.28638843 -0.1183971 0.05737932 0.063702166 0.14782743 -0.122414 -0.15008335 0.19560355 -0.027793616 -0.1326497 -0.03416541 -0.07855651 -0.29447088 0.26147556 0.29736784 0.15971904 -0.0020300427 -0.2324787 -0.28959554 0.101852365 -0.21126454 -0.050763287 0.01009178 -0.035301812 -0.109851874 0.13927266 -0.17512667 0.13088316 -0.07264918 0.19037639 0.030302376 -0.21361548 0.1834937 -0.1008991 -0.0060929786 -0.17002761 0.06810216 -0.31286535 -0.12061377 0.3095258 -0.04366134 -0.0026833983 0.14304377 -0.06678629
